word,0,1,2,3,4,5,6,7,8,9,10,11,12,13,14,15,16,17,18,19,20,21,22,23,24,25,26,27,28,29,30,31,32,33,34,35,36,37,38,39,40,41,42,43,44,45,46,47,48,49,50,51,52,53,54,55,56,57,58,59,60,61,62,63,64,65,66,67,68,69,70,71,72,73,74,75,76,77,78,79,80,81,82,83,84,85,86,87,88,89,90,91,92,93,94,95,96,97,98,99,100,101,102,103,104,105,106,107,108,109,110,111,112,113,114,115,116,117,118,119,120,121,122,123,124,125,126,127,128,129,130,131,132,133,134,135,136,137,138,139,140,141,142,143,144,145,146,147,148,149,150,151,152,153,154,155,156,157,158,159,160,161,162,163,164,165,166,167,168,169,170,171,172,173,174,175,176,177,178,179,180,181,182,183,184,185,186,187,188,189,190,191,192,193,194,195,196,197,198,199,200,201,202,203,204,205,206,207,208,209,210,211,212,213,214,215,216,217,218,219,220,221,222,223,224,225,226,227,228,229,230,231,232,233,234,235,236,237,238,239,240,241,242,243,244,245,246,247,248,249,250,251,252,253,254,255,256,257,258,259,260,261,262,263,264,265,266,267,268,269,270,271,272,273,274,275,276,277,278,279,280,281,282,283,284,285,286,287,288,289,290,291,292,293,294,295,296,297,298,299,300,301,302,303,304,305,306,307,308,309,310,311,312,313,314,315,316,317,318,319,320,321,322,323,324,325,326,327,328,329,330,331,332,333,334,335,336,337,338,339,340,341,342,343,344,345,346,347,348,349,350,351,352,353,354,355,356,357,358,359,360,361,362,363,364,365,366,367,368,369,370,371,372,373,374,375,376,377,378,379,380,381,382,383,384,385,386,387,388,389,390,391,392,393,394,395,396,397,398,399,word,0,1,2,3,4,5,6,7,8,9,10,11,12,13,14,15,16,17,18,19,20,21,22,23,24,25,26,27,28,29,30,31,32,33,34,35,36,37,38,39,40,41,42,43,44,45,46,47,48,49,50,51,52,53,54,55,56,57,58,59,60,61,62,63,64,65,66,67,68,69,70,71,72,73,74,75,76,77,78,79,80,81,82,83,84,85,86,87,88,89,90,91,92,93,94,95,96,97,98,99,100,101,102,103,104,105,106,107,108,109,110,111,112,113,114,115,116,117,118,119,120,121,122,123,124,125,126,127,128,129,130,131,132,133,134,135,136,137,138,139,140,141,142,143,144,145,146,147,148,149,150,151,152,153,154,155,156,157,158,159,160,161,162,163,164,165,166,167,168,169,170,171,172,173,174,175,176,177,178,179,180,181,182,183,184,185,186,187,188,189,190,191,192,193,194,195,196,197,198,199,200,201,202,203,204,205,206,207,208,209,210,211,212,213,214,215,216,217,218,219,220,221,222,223,224,225,226,227,228,229,230,231,232,233,234,235,236,237,238,239,240,241,242,243,244,245,246,247,248,249,250,251,252,253,254,255,256,257,258,259,260,261,262,263,264,265,266,267,268,269,270,271,272,273,274,275,276,277,278,279,280,281,282,283,284,285,286,287,288,289,290,291,292,293,294,295,296,297,298,299,300,301,302,303,304,305,306,307,308,309,310,311,312,313,314,315,316,317,318,319,320,321,322,323,324,325,326,327,328,329,330,331,332,333,334,335,336,337,338,339,340,341,342,343,344,345,346,347,348,349,350,351,352,353,354,355,356,357,358,359,360,361,362,363,364,365,366,367,368,369,370,371,372,373,374,375,376,377,378,379,380,381,382,383,384,385,386,387,388,389,390,391,392,393,394,395,396,397,398,399
重启,0.574832976,0.290847987,-0.617398024,0.495723993,-0.192089006,-0.532985985,0.101636998,0.181413993,0.734111011,-0.119227,0.403360993,-0.609870017,0.183539003,0.312052011,1.527282,-0.948651016,-0.421804011,0.083126999,0.144293994,-0.257881999,0.205445006,0.146009997,0.195473,0.508229971,0.136601001,0.800019026,-0.518968999,-0.296474993,0.456806988,-0.386458009,0.614239991,-0.026459999,-1.005807996,-0.663066983,1.186157942,-0.198135003,0.429116994,-1.409775019,-0.496897995,0.251513004,0.579243004,0.519073009,0.866887987,0.442681015,-0.107741997,0.354654014,-0.111648001,-1.083091021,0.110643998,-1.810207963,-1.56379199,-0.171482995,-0.719905972,1.210414052,0.313724995,0.153228998,-0.96054399,0.73091501,0.916692019,-0.221972004,-0.448110998,0.285959989,-0.527786016,0.930658996,0.141705006,-0.034506001,0.441742003,0.089510001,-0.306998014,0.444173992,0.256065995,-0.651147008,0.83099699,0.297439992,-0.759589016,0.834849,0.467397004,-0.200581998,0.541015983,-0.189009994,-0.510626972,-0.277249992,-0.373492986,-1.143587947,-0.415984988,-0.103114001,0.384763002,1.055428982,-0.469274014,-0.113131002,1.221529007,0.194062993,0.388273001,-0.644518018,-0.878718019,-1.618023992,-1.047207952,0.685272992,-0.017246,-0.973841012,1.960700989,0.715813994,0.443120003,0.214536995,-0.772705972,-0.473908007,0.806999028,0.521403015,-0.342844009,-0.063799001,-0.36116901,-1.092036963,-0.235792994,0.211665004,-0.464291006,0.668413997,-0.103334002,0.381817013,-0.165507004,-1.270930052,-0.468073994,-0.956541002,1.553166986,-0.073398001,0.551236987,-0.341641992,-1.843091965,0.491301,-0.246316001,0.667846024,-0.316109985,-0.884149015,0.738725007,-0.165037006,0.763952971,0.228770003,-0.130780995,0.150777996,0.473470986,0.026427001,-0.074634001,-0.075387001,0.172426999,-0.405075997,0.176924005,0.014511,-0.198980004,1.409479976,1.016283989,-0.875712991,-0.210004002,-0.109534003,0.705972016,0.294746011,0.303171009,1.39360702,-0.224506006,1.210116029,-0.733709991,-0.811923981,-1.032449961,0.065646999,-0.147284001,0.092750996,-0.266164988,1.837474942,1.451398015,0.049743999,0.225863993,-0.047387999,0.068299003,-0.724116981,0.755442977,0.764576972,0.531976998,-0.494801015,1.403470993,0.000178,-1.513422966,0.813106,-0.112891003,-0.261485994,0.196676999,0.187512994,0.310434997,0.465508997,0.068740003,0.196663007,-0.213864997,-0.49723801,-0.812714994,0.417398006,-0.455926001,0.464392006,-1.085471034,0.66615802,0.652159989,0.227818996,0.769159973,1.036448956,0.695303977,-1.293089986,-0.241696,0.470640004,0.76828301,-0.218118995,-0.377287,-0.020753,0.944202006,0.816025972,0.159255996,0.383560002,-1.05578804,-1.448902965,1.445657015,0.209647998,0.378371,-0.585892022,-0.258450001,0.019270999,-0.236693993,-0.548189998,-0.403459013,-0.725809991,1.770835042,1.037981987,0.254667014,0.836730003,-0.750176013,0.135023996,0.021876,-0.213360995,0.523277998,0.275301009,0.994431019,0.277352005,-0.831668019,-0.463185996,0.952175975,0.009921,0.483898014,-1.07198298,-0.338147014,-0.077096,-0.310997993,0.008389,-0.568266988,0.367904007,0.989175022,-0.364203006,0.843093991,0.383264989,-0.51592201,-1.209998012,0.026291,0.681230009,0.011562,0.199239999,-0.087036997,0.892094016,-1.686776996,0.212403998,0.271921009,0.633391976,-0.388577998,0.56279701,0.214772001,0.250162005,0.426497996,0.63715899,0.226569995,0.097226001,-1.029031038,0.709210992,-0.592049003,-0.432453007,-1.051761031,0.064161003,0.253080994,0.657052994,-0.682962,0.627816975,-1.158282995,-0.649679005,0.236939996,-0.078796998,-0.139446005,0.735298991,-0.200177997,0.090470999,-0.178251997,0.258127987,-0.051298998,0.047249001,0.856032014,0.611292005,0.112030998,-0.193122,-1.164978981,-0.351612985,-0.294939995,1.33612597,-0.109295003,1.462144017,0.182904005,0.841055989,0.467568994,-1.003101945,0.236100003,-0.442366004,-0.352901012,-1.167336941,-0.415093988,-0.236787006,0.593044996,-0.909018993,-0.552743018,-0.833522022,0.438928008,-0.696295023,0.401495993,-0.780542016,0.494040996,1.380265951,-0.598590016,-0.061191,0.051127002,-0.000617,0.136965007,0.122111,-0.168228999,-0.116745003,-0.331905991,0.380216986,0.399865001,-0.296644986,0.331395,1.112208009,0.503023982,-0.110592,0.045779999,0.58593601,-0.474691004,0.345649987,-0.332224995,-0.509171009,-0.916994989,0.640187025,0.204107001,-1.167209983,0.618399978,0.742033005,-0.851797998,0.424174011,-0.275103003,-0.518463016,0.455040991,0.835409999,-0.031831,-0.452832013,1.222772002,-1.278249025,0.541532993,0.071328998,-0.034315001,-0.486900985,-0.678638995,-0.143066004,0.515065014,0.034405001,-0.250335008,0.007925,-0.383664012,-0.776875973,0.481025994,0.309794009,-0.545615017,-0.475021005,-1.333839059,-0.609499991,0.237187997,-0.070768997,0.776575983,-0.040132999,-0.719579995,0.265208006,-0.32200399,-0.632007003,-0.788892984,-1.340929985,0.436794996,0.032570001,-0.131310999,-0.106241003,1.265828013,-0.161219001,-0.276699007,0.923713028,-0.121592999,0.781830013,,0.574832976,0.290847987,-0.617398024,0.495723993,-0.192089006,-0.532985985,0.101636998,0.181413993,0.734111011,-0.119227,0.403360993,-0.609870017,0.183539003,0.312052011,1.527282,-0.948651016,-0.421804011,0.083126999,0.144293994,-0.257881999,0.205445006,0.146009997,0.195473,0.508229971,0.136601001,0.800019026,-0.518968999,-0.296474993,0.456806988,-0.386458009,0.614239991,-0.026459999,-1.005807996,-0.663066983,1.186157942,-0.198135003,0.429116994,-1.409775019,-0.496897995,0.251513004,0.579243004,0.519073009,0.866887987,0.442681015,-0.107741997,0.354654014,-0.111648001,-1.083091021,0.110643998,-1.810207963,-1.56379199,-0.171482995,-0.719905972,1.210414052,0.313724995,0.153228998,-0.96054399,0.73091501,0.916692019,-0.221972004,-0.448110998,0.285959989,-0.527786016,0.930658996,0.141705006,-0.034506001,0.441742003,0.089510001,-0.306998014,0.444173992,0.256065995,-0.651147008,0.83099699,0.297439992,-0.759589016,0.834849,0.467397004,-0.200581998,0.541015983,-0.189009994,-0.510626972,-0.277249992,-0.373492986,-1.143587947,-0.415984988,-0.103114001,0.384763002,1.055428982,-0.469274014,-0.113131002,1.221529007,0.194062993,0.388273001,-0.644518018,-0.878718019,-1.618023992,-1.047207952,0.685272992,-0.017246,-0.973841012,1.960700989,0.715813994,0.443120003,0.214536995,-0.772705972,-0.473908007,0.806999028,0.521403015,-0.342844009,-0.063799001,-0.36116901,-1.092036963,-0.235792994,0.211665004,-0.464291006,0.668413997,-0.103334002,0.381817013,-0.165507004,-1.270930052,-0.468073994,-0.956541002,1.553166986,-0.073398001,0.551236987,-0.341641992,-1.843091965,0.491301,-0.246316001,0.667846024,-0.316109985,-0.884149015,0.738725007,-0.165037006,0.763952971,0.228770003,-0.130780995,0.150777996,0.473470986,0.026427001,-0.074634001,-0.075387001,0.172426999,-0.405075997,0.176924005,0.014511,-0.198980004,1.409479976,1.016283989,-0.875712991,-0.210004002,-0.109534003,0.705972016,0.294746011,0.303171009,1.39360702,-0.224506006,1.210116029,-0.733709991,-0.811923981,-1.032449961,0.065646999,-0.147284001,0.092750996,-0.266164988,1.837474942,1.451398015,0.049743999,0.225863993,-0.047387999,0.068299003,-0.724116981,0.755442977,0.764576972,0.531976998,-0.494801015,1.403470993,0.000178,-1.513422966,0.813106,-0.112891003,-0.261485994,0.196676999,0.187512994,0.310434997,0.465508997,0.068740003,0.196663007,-0.213864997,-0.49723801,-0.812714994,0.417398006,-0.455926001,0.464392006,-1.085471034,0.66615802,0.652159989,0.227818996,0.769159973,1.036448956,0.695303977,-1.293089986,-0.241696,0.470640004,0.76828301,-0.218118995,-0.377287,-0.020753,0.944202006,0.816025972,0.159255996,0.383560002,-1.05578804,-1.448902965,1.445657015,0.209647998,0.378371,-0.585892022,-0.258450001,0.019270999,-0.236693993,-0.548189998,-0.403459013,-0.725809991,1.770835042,1.037981987,0.254667014,0.836730003,-0.750176013,0.135023996,0.021876,-0.213360995,0.523277998,0.275301009,0.994431019,0.277352005,-0.831668019,-0.463185996,0.952175975,0.009921,0.483898014,-1.07198298,-0.338147014,-0.077096,-0.310997993,0.008389,-0.568266988,0.367904007,0.989175022,-0.364203006,0.843093991,0.383264989,-0.51592201,-1.209998012,0.026291,0.681230009,0.011562,0.199239999,-0.087036997,0.892094016,-1.686776996,0.212403998,0.271921009,0.633391976,-0.388577998,0.56279701,0.214772001,0.250162005,0.426497996,0.63715899,0.226569995,0.097226001,-1.029031038,0.709210992,-0.592049003,-0.432453007,-1.051761031,0.064161003,0.253080994,0.657052994,-0.682962,0.627816975,-1.158282995,-0.649679005,0.236939996,-0.078796998,-0.139446005,0.735298991,-0.200177997,0.090470999,-0.178251997,0.258127987,-0.051298998,0.047249001,0.856032014,0.611292005,0.112030998,-0.193122,-1.164978981,-0.351612985,-0.294939995,1.33612597,-0.109295003,1.462144017,0.182904005,0.841055989,0.467568994,-1.003101945,0.236100003,-0.442366004,-0.352901012,-1.167336941,-0.415093988,-0.236787006,0.593044996,-0.909018993,-0.552743018,-0.833522022,0.438928008,-0.696295023,0.401495993,-0.780542016,0.494040996,1.380265951,-0.598590016,-0.061191,0.051127002,-0.000617,0.136965007,0.122111,-0.168228999,-0.116745003,-0.331905991,0.380216986,0.399865001,-0.296644986,0.331395,1.112208009,0.503023982,-0.110592,0.045779999,0.58593601,-0.474691004,0.345649987,-0.332224995,-0.509171009,-0.916994989,0.640187025,0.204107001,-1.167209983,0.618399978,0.742033005,-0.851797998,0.424174011,-0.275103003,-0.518463016,0.455040991,0.835409999,-0.031831,-0.452832013,1.222772002,-1.278249025,0.541532993,0.071328998,-0.034315001,-0.486900985,-0.678638995,-0.143066004,0.515065014,0.034405001,-0.250335008,0.007925,-0.383664012,-0.776875973,0.481025994,0.309794009,-0.545615017,-0.475021005,-1.333839059,-0.609499991,0.237187997,-0.070768997,0.776575983,-0.040132999,-0.719579995,0.265208006,-0.32200399,-0.632007003,-0.788892984,-1.340929985,0.436794996,0.032570001,-0.131310999,-0.106241003,1.265828013,-0.161219001,-0.276699007,0.923713028,-0.121592999,0.781830013
手动,0.431941003,1.867838025,0.79578799,0.356830001,0.850233018,0.525765002,1.351747036,-0.992698014,1.576594949,0.969964027,-1.004382014,0.371342003,-1.444440961,0.406246006,-1.348351002,-0.722407997,-0.402529001,-0.351534992,0.084275998,-1.902168036,-1.726688027,-0.192183003,0.527176023,-1.186671019,0.397635996,1.246474981,-0.909274995,1.652951002,-1.04501605,0.420323998,0.432161003,-0.666719973,-0.132227004,-1.134971976,0.663582981,1.996165991,0.710290015,-1.827659011,-0.266391993,-0.672488987,1.232139945,-1.16961205,-0.991513014,-0.920233011,1.455054998,-0.519725978,0.027781,-0.25485301,-0.014861,-0.640998006,0.40269199,0.234500006,-0.329715997,1.543334007,-1.832550049,-0.247291997,0.651951015,-0.186470002,-1.326398015,0.371434987,-0.178085998,0.808319986,-0.186060995,-0.942957997,-0.735902011,0.784597993,-0.329109997,-0.940335989,0.233158007,1.155604005,-2.538242102,1.642635942,0.403656989,0.234228998,-0.045641001,0.743438005,0.261390001,-0.230531007,0.157223001,0.244205996,-0.715112984,-0.846310019,-0.093966998,0.008489,0.061551999,-1.561036944,-0.66683197,0.744696975,0.780394018,-1.024960041,1.818886042,1.073958039,-0.199143007,1.146103024,-0.495305985,0.364275992,-1.503167987,1.112138033,-0.393072993,0.279058009,1.373425961,0.178986996,-0.063837998,0.253001988,-1.154137969,-1.028041959,-0.245138004,-0.561994016,0.362890989,0.534079015,-0.519582987,-2.213181973,-0.748953998,1.195291996,-2.326329947,0.962660015,0.348419994,-0.355984986,0.488247007,0.646829009,-0.884868979,-1.178467989,0.663096011,-1.78580904,1.269932985,1.077885985,0.197188005,-0.666396976,-0.179676995,0.351700991,-0.385486007,-0.981546998,0.346572012,0.961987972,-0.667798996,-0.932834983,-1.648339033,-0.247881994,1.284641027,-0.246261001,-0.646516979,-0.080407999,0.781903982,-0.094531998,0.481680006,-1.282127023,-0.108988002,-0.911055982,-0.390361011,-0.348993003,0.74792701,0.846338987,0.823394001,0.874427974,-0.215168998,0.043414999,-0.352811009,-0.187517002,-0.924521029,-0.071787998,-0.423543006,-1.25769496,-0.720117986,-0.587400973,-0.621410012,1.059805036,-0.214779004,-0.735574007,-1.937716007,-0.713935971,-0.100502998,-2.054621935,0.156434998,0.048900999,0.911804974,1.44954896,1.662492037,0.187952995,0.585882008,1.957788944,-0.535902023,-0.279487014,-0.332639992,-0.097654,-1.156931996,-0.650390029,0.422787011,0.675333023,0.891198993,-0.726550996,0.956025004,-0.822022974,0.135975003,-0.447344005,-0.867671013,0.128132001,1.451583982,-1.009009957,0.896134019,-0.196780995,0.105382003,-1.027248979,0.107488997,-0.099510998,-0.466140985,0.867624998,-0.027178001,-0.026634,-0.416889012,1.362280965,0.487987995,0.534597993,-0.436744988,-1.277485967,0.850032985,0.866734982,-0.304524004,-0.729835987,1.089750052,-2.350732088,-0.851323009,0.420320988,0.665117979,0.422049999,1.784834981,-0.777577996,0.495086998,-0.403192997,0.393808007,0.063950002,0.108727999,0.951170027,0.382842988,-1.061190009,0.739162028,-0.781364977,0.440620989,0.122809,0.556547999,-0.954752028,-0.617053986,0.863470018,-0.425962001,0.836117983,-0.408591986,-0.456360996,0.459302008,0.121173002,0.748463988,0.564173996,-0.382710993,0.772493005,0.608942986,0.434798002,-0.827455997,0.278813988,-1.093031049,0.339289993,0.615669012,0.622686028,0.970007002,1.923905015,-0.37510699,0.561640978,-0.280597001,-1.94235003,0.930974007,0.259054989,-2.208981991,0.275364995,0.127858996,-1.52968204,-0.816865981,1.536278009,-0.284550995,-1.063516021,-0.694049001,-0.223974004,-0.188261002,0.621118009,-0.400034994,1.979830027,0.443812996,-0.262923002,-1.017904997,0.236619994,-0.627214015,0.596171021,1.826259971,0.243807003,0.076123998,1.958431005,-0.749989986,-1.021998048,0.075787999,-0.243494004,0.944446027,-0.503814995,1.241597056,-0.730714023,-0.529624999,-0.087558001,0.077124998,0.752929986,1.149723053,-0.294131011,-1.075767994,0.209002003,0.177717999,0.991890013,-0.350807995,-0.466526002,1.142276049,-0.553985,0.152452007,1.008226037,0.158939004,-0.139154002,0.833401978,-0.035772,0.206319004,-0.021891,-1.863849998,0.618327975,-0.078901999,-0.782405019,-0.378394008,-0.027006,-0.26819101,0.032958999,0.990531027,-0.594191015,-0.928052008,0.148157999,-0.310308009,-0.921472013,-0.557202995,1.317867041,0.116815999,0.520308971,-0.425866991,-0.213844001,-0.202785,0.748585999,-0.206774995,-0.449663997,-0.916884005,0.371035993,2.136650085,-0.736877024,0.102688,0.360112011,-0.784152985,0.589321971,-0.142134994,0.354680985,0.454210013,0.960597992,-0.731597006,0.456997991,-1.471133947,0.484598994,-0.309033006,0.316127986,-1.533391953,-0.925650001,0.119001999,-0.064378001,0.475371003,-1.099908948,-0.537181973,0.562214017,0.161541,-0.516119003,0.615460992,-1.514449,-1.812978983,-0.575757027,-2.630809069,0.366396993,-0.162522003,-0.210232005,2.098361969,0.276906997,-0.926472008,-1.809875965,0.018634001,-0.610249996,-1.431877971,1.523223042,-0.764330983,-0.606193006,-0.032347001,-0.39170599,-0.351280004,-1.072087049,-0.217160001,-0.390161008,1.733981013,0.72795397,,0.431941003,1.867838025,0.79578799,0.356830001,0.850233018,0.525765002,1.351747036,-0.992698014,1.576594949,0.969964027,-1.004382014,0.371342003,-1.444440961,0.406246006,-1.348351002,-0.722407997,-0.402529001,-0.351534992,0.084275998,-1.902168036,-1.726688027,-0.192183003,0.527176023,-1.186671019,0.397635996,1.246474981,-0.909274995,1.652951002,-1.04501605,0.420323998,0.432161003,-0.666719973,-0.132227004,-1.134971976,0.663582981,1.996165991,0.710290015,-1.827659011,-0.266391993,-0.672488987,1.232139945,-1.16961205,-0.991513014,-0.920233011,1.455054998,-0.519725978,0.027781,-0.25485301,-0.014861,-0.640998006,0.40269199,0.234500006,-0.329715997,1.543334007,-1.832550049,-0.247291997,0.651951015,-0.186470002,-1.326398015,0.371434987,-0.178085998,0.808319986,-0.186060995,-0.942957997,-0.735902011,0.784597993,-0.329109997,-0.940335989,0.233158007,1.155604005,-2.538242102,1.642635942,0.403656989,0.234228998,-0.045641001,0.743438005,0.261390001,-0.230531007,0.157223001,0.244205996,-0.715112984,-0.846310019,-0.093966998,0.008489,0.061551999,-1.561036944,-0.66683197,0.744696975,0.780394018,-1.024960041,1.818886042,1.073958039,-0.199143007,1.146103024,-0.495305985,0.364275992,-1.503167987,1.112138033,-0.393072993,0.279058009,1.373425961,0.178986996,-0.063837998,0.253001988,-1.154137969,-1.028041959,-0.245138004,-0.561994016,0.362890989,0.534079015,-0.519582987,-2.213181973,-0.748953998,1.195291996,-2.326329947,0.962660015,0.348419994,-0.355984986,0.488247007,0.646829009,-0.884868979,-1.178467989,0.663096011,-1.78580904,1.269932985,1.077885985,0.197188005,-0.666396976,-0.179676995,0.351700991,-0.385486007,-0.981546998,0.346572012,0.961987972,-0.667798996,-0.932834983,-1.648339033,-0.247881994,1.284641027,-0.246261001,-0.646516979,-0.080407999,0.781903982,-0.094531998,0.481680006,-1.282127023,-0.108988002,-0.911055982,-0.390361011,-0.348993003,0.74792701,0.846338987,0.823394001,0.874427974,-0.215168998,0.043414999,-0.352811009,-0.187517002,-0.924521029,-0.071787998,-0.423543006,-1.25769496,-0.720117986,-0.587400973,-0.621410012,1.059805036,-0.214779004,-0.735574007,-1.937716007,-0.713935971,-0.100502998,-2.054621935,0.156434998,0.048900999,0.911804974,1.44954896,1.662492037,0.187952995,0.585882008,1.957788944,-0.535902023,-0.279487014,-0.332639992,-0.097654,-1.156931996,-0.650390029,0.422787011,0.675333023,0.891198993,-0.726550996,0.956025004,-0.822022974,0.135975003,-0.447344005,-0.867671013,0.128132001,1.451583982,-1.009009957,0.896134019,-0.196780995,0.105382003,-1.027248979,0.107488997,-0.099510998,-0.466140985,0.867624998,-0.027178001,-0.026634,-0.416889012,1.362280965,0.487987995,0.534597993,-0.436744988,-1.277485967,0.850032985,0.866734982,-0.304524004,-0.729835987,1.089750052,-2.350732088,-0.851323009,0.420320988,0.665117979,0.422049999,1.784834981,-0.777577996,0.495086998,-0.403192997,0.393808007,0.063950002,0.108727999,0.951170027,0.382842988,-1.061190009,0.739162028,-0.781364977,0.440620989,0.122809,0.556547999,-0.954752028,-0.617053986,0.863470018,-0.425962001,0.836117983,-0.408591986,-0.456360996,0.459302008,0.121173002,0.748463988,0.564173996,-0.382710993,0.772493005,0.608942986,0.434798002,-0.827455997,0.278813988,-1.093031049,0.339289993,0.615669012,0.622686028,0.970007002,1.923905015,-0.37510699,0.561640978,-0.280597001,-1.94235003,0.930974007,0.259054989,-2.208981991,0.275364995,0.127858996,-1.52968204,-0.816865981,1.536278009,-0.284550995,-1.063516021,-0.694049001,-0.223974004,-0.188261002,0.621118009,-0.400034994,1.979830027,0.443812996,-0.262923002,-1.017904997,0.236619994,-0.627214015,0.596171021,1.826259971,0.243807003,0.076123998,1.958431005,-0.749989986,-1.021998048,0.075787999,-0.243494004,0.944446027,-0.503814995,1.241597056,-0.730714023,-0.529624999,-0.087558001,0.077124998,0.752929986,1.149723053,-0.294131011,-1.075767994,0.209002003,0.177717999,0.991890013,-0.350807995,-0.466526002,1.142276049,-0.553985,0.152452007,1.008226037,0.158939004,-0.139154002,0.833401978,-0.035772,0.206319004,-0.021891,-1.863849998,0.618327975,-0.078901999,-0.782405019,-0.378394008,-0.027006,-0.26819101,0.032958999,0.990531027,-0.594191015,-0.928052008,0.148157999,-0.310308009,-0.921472013,-0.557202995,1.317867041,0.116815999,0.520308971,-0.425866991,-0.213844001,-0.202785,0.748585999,-0.206774995,-0.449663997,-0.916884005,0.371035993,2.136650085,-0.736877024,0.102688,0.360112011,-0.784152985,0.589321971,-0.142134994,0.354680985,0.454210013,0.960597992,-0.731597006,0.456997991,-1.471133947,0.484598994,-0.309033006,0.316127986,-1.533391953,-0.925650001,0.119001999,-0.064378001,0.475371003,-1.099908948,-0.537181973,0.562214017,0.161541,-0.516119003,0.615460992,-1.514449,-1.812978983,-0.575757027,-2.630809069,0.366396993,-0.162522003,-0.210232005,2.098361969,0.276906997,-0.926472008,-1.809875965,0.018634001,-0.610249996,-1.431877971,1.523223042,-0.764330983,-0.606193006,-0.032347001,-0.39170599,-0.351280004,-1.072087049,-0.217160001,-0.390161008,1.733981013,0.72795397
行驶,-1.12767899,0.297488987,2.019567966,0.996921003,-0.157508999,1.383658051,0.975072026,0.676440001,0.329219013,1.176275969,-1.854967952,-1.380800962,1.072947979,0.716012001,1.861654043,-0.31822601,-1.875481963,-0.63231802,2.427896976,-0.943413973,0.865824997,-0.807923019,0.217818007,-0.335458994,2.554075003,0.647032976,-1.869652033,-0.74723798,-0.38925299,1.404041052,0.642540991,-0.001587,-0.046392001,0.698993981,-0.919616997,-0.553493977,0.39132601,-1.604143977,-1.178925037,3.278404951,-0.776684999,1.012426972,-2.654284954,0.747564971,2.142527103,0.916311979,0.30795899,0.250808001,0.303353012,1.458852053,0.521164,0.062922001,0.008123,0.71816802,0.366833001,0.125744998,-1.242202044,-0.697063029,0.153944001,0.468903005,1.041654944,0.712927997,-0.671791971,-0.011068,-1.35245502,1.462355018,-0.232088998,-1.106418014,-0.203593999,-2.294068098,-3.995765924,-0.011,1.015158057,1.981585979,0.034605,-0.185105994,1.163597941,1.036918998,0.728910029,1.125380039,1.826701999,-0.878169,-0.881780982,-1.121402979,0.028279001,-1.124871016,0.981454015,0.10915,1.539986968,0.45293799,3.323664904,0.364315003,-2.705929995,0.916756988,-0.382863998,-0.544633985,-2.29531908,0.900458992,1.51354003,0.402419001,1.696040988,0.490155011,0.210805997,-1.150856018,-1.886052966,-0.044564001,0.008426,-1.120792985,0.75098598,2.38478899,0.128112003,-1.825281978,-0.310259014,-0.446855992,-0.003072,0.970337987,1.207697988,-0.457107008,-1.058225989,1.421118975,-0.124537997,-0.004106,-0.204123005,0.654453993,1.782619953,0.357946992,0.265801996,0.027652999,-1.033192039,0.074629001,0.429791987,-2.029272079,0.600232005,2.513958931,1.061723948,-1.191434026,0.158601999,0.205907002,1.405789018,-0.392244011,2.605020046,0.427022994,-1.002518058,1.505560994,0.520456016,-0.068242997,-1.888406038,-0.714085996,1.03550899,-1.621562958,0.683040977,-1.665307999,-1.822844028,-0.573683023,0.699294984,-0.216474995,0.561495006,-0.991419971,0.423637003,-0.750971019,0.964217007,-0.170057997,-0.270464987,-1.416545033,0.083273999,1.277024031,-0.031424001,-0.111123003,0.055895001,-0.236058995,0.01242,0.430146009,1.668244004,0.76057601,0.424474001,0.654908001,0.676505983,0.462832987,0.564436018,2.250076056,0.054575,-0.327403009,0.840541005,0.396517992,1.287652969,2.62153697,-0.95017302,-0.236705005,-0.358417004,0.675099015,-2.197443962,0.301504999,-2.130198002,-1.230468035,-1.023025036,-0.773470998,1.664513946,-1.916574955,1.153905988,-0.882146001,0.01963,0.754693985,-0.935949981,1.367110014,0.083139002,-0.819867015,0.291426003,0.720026016,0.242211998,0.893932998,-0.281282991,1.438936949,0.040330999,-2.155256987,-0.137107,1.540335059,-2.656904936,-0.702443004,-1.388887048,-0.474417001,0.81349802,0.787666976,-1.225162029,-1.25277102,1.340595007,2.195962906,1.330358028,0.318177015,1.511592984,-1.627877951,0.273202002,-0.092248999,0.183519006,1.137323022,0.912912011,1.004771948,0.792841017,-1.004114032,0.075567,1.490236044,-1.450803041,1.559409022,-0.383646011,0.75473398,-0.188220993,-0.522593021,-0.138448,0.598402977,0.027336,1.097954988,-0.371948987,1.883012056,1.293154001,-0.047492001,-0.003757,1.291115046,1.031736016,-0.53057301,1.91544199,1.44946301,-0.224858999,0.231516004,0.550044,1.252593994,-1.34426105,-1.930225015,-2.692493916,-1.766283035,-0.673038006,-1.969395995,-0.52223599,-0.49645099,-1.916365027,0.319420993,0.767521024,-0.611434996,-0.105979003,0.422235012,-0.344632,0.277943999,0.435386002,0.823469996,-0.910238028,-1.247375965,-1.26662004,-2.064812899,-1.273849964,1.32584703,0.443924993,-1.648825049,-0.859614015,-0.048611,0.897756994,-1.987326026,0.853887975,-0.884693027,-0.298368007,-0.322447002,-1.030712008,-1.731304049,-0.253755003,0.189662993,-0.341057003,0.761716008,0.621999979,2.131234884,-1.134336948,0.518330991,0.241189003,-0.111385003,-1.017617941,-1.115942955,2.155271053,-0.368541002,-1.878710985,0.364528,-0.764515996,-2.890712976,-0.693940997,0.30380699,0.923882008,-0.951184988,-0.617706001,0.498108,1.272088051,1.31794405,0.197796002,0.460990012,-1.099928021,-0.582765996,1.575502992,-0.251468986,-0.518126011,0.329513013,-0.158363998,2.180504084,0.310681999,0.894199014,-1.721573949,1.771692991,-0.698449016,-0.693867981,-0.896559,-0.965510011,0.733564973,-0.784916997,-1.590880036,1.252115965,0.594143987,-0.261721998,0.880719006,0.196795002,-1.069092989,0.192191005,-1.164783001,2.438322067,0.310609996,-0.209365994,0.500159979,1.358782053,-0.619109988,-0.575734973,-1.583698034,0.705465972,1.773918986,-1.483520031,0.010428,-1.247938037,-1.299579978,-0.423797995,-0.074851997,1.303843975,-0.972491026,-2.37816596,0.316982001,-0.861482024,-0.930769026,-1.409425974,-1.931437016,1.256559968,0.130314007,0.998757005,1.888285041,-0.683139026,2.094820023,-2.320175886,-0.202820003,-1.569322944,-1.13252604,2.337078094,2.453448057,2.112634897,-1.174504042,-2.391952038,0.071381003,-0.948201001,-1.403815031,-0.139992997,1.140105009,-0.196977004,琛椹,-1.12767899,0.297488987,2.019567966,0.996921003,-0.157508999,1.383658051,0.975072026,0.676440001,0.329219013,1.176275969,-1.854967952,-1.380800962,1.072947979,0.716012001,1.861654043,-0.31822601,-1.875481963,-0.63231802,2.427896976,-0.943413973,0.865824997,-0.807923019,0.217818007,-0.335458994,2.554075003,0.647032976,-1.869652033,-0.74723798,-0.38925299,1.404041052,0.642540991,-0.001587,-0.046392001,0.698993981,-0.919616997,-0.553493977,0.39132601,-1.604143977,-1.178925037,3.278404951,-0.776684999,1.012426972,-2.654284954,0.747564971,2.142527103,0.916311979,0.30795899,0.250808001,0.303353012,1.458852053,0.521164,0.062922001,0.008123,0.71816802,0.366833001,0.125744998,-1.242202044,-0.697063029,0.153944001,0.468903005,1.041654944,0.712927997,-0.671791971,-0.011068,-1.35245502,1.462355018,-0.232088998,-1.106418014,-0.203593999,-2.294068098,-3.995765924,-0.011,1.015158057,1.981585979,0.034605,-0.185105994,1.163597941,1.036918998,0.728910029,1.125380039,1.826701999,-0.878169,-0.881780982,-1.121402979,0.028279001,-1.124871016,0.981454015,0.10915,1.539986968,0.45293799,3.323664904,0.364315003,-2.705929995,0.916756988,-0.382863998,-0.544633985,-2.29531908,0.900458992,1.51354003,0.402419001,1.696040988,0.490155011,0.210805997,-1.150856018,-1.886052966,-0.044564001,0.008426,-1.120792985,0.75098598,2.38478899,0.128112003,-1.825281978,-0.310259014,-0.446855992,-0.003072,0.970337987,1.207697988,-0.457107008,-1.058225989,1.421118975,-0.124537997,-0.004106,-0.204123005,0.654453993,1.782619953,0.357946992,0.265801996,0.027652999,-1.033192039,0.074629001,0.429791987,-2.029272079,0.600232005,2.513958931,1.061723948,-1.191434026,0.158601999,0.205907002,1.405789018,-0.392244011,2.605020046,0.427022994,-1.002518058,1.505560994,0.520456016,-0.068242997,-1.888406038,-0.714085996,1.03550899,-1.621562958,0.683040977,-1.665307999,-1.822844028,-0.573683023,0.699294984,-0.216474995,0.561495006,-0.991419971,0.423637003,-0.750971019,0.964217007,-0.170057997,-0.270464987,-1.416545033,0.083273999,1.277024031,-0.031424001,-0.111123003,0.055895001,-0.236058995,0.01242,0.430146009,1.668244004,0.76057601,0.424474001,0.654908001,0.676505983,0.462832987,0.564436018,2.250076056,0.054575,-0.327403009,0.840541005,0.396517992,1.287652969,2.62153697,-0.95017302,-0.236705005,-0.358417004,0.675099015,-2.197443962,0.301504999,-2.130198002,-1.230468035,-1.023025036,-0.773470998,1.664513946,-1.916574955,1.153905988,-0.882146001,0.01963,0.754693985,-0.935949981,1.367110014,0.083139002,-0.819867015,0.291426003,0.720026016,0.242211998,0.893932998,-0.281282991,1.438936949,0.040330999,-2.155256987,-0.137107,1.540335059,-2.656904936,-0.702443004,-1.388887048,-0.474417001,0.81349802,0.787666976,-1.225162029,-1.25277102,1.340595007,2.195962906,1.330358028,0.318177015,1.511592984,-1.627877951,0.273202002,-0.092248999,0.183519006,1.137323022,0.912912011,1.004771948,0.792841017,-1.004114032,0.075567,1.490236044,-1.450803041,1.559409022,-0.383646011,0.75473398,-0.188220993,-0.522593021,-0.138448,0.598402977,0.027336,1.097954988,-0.371948987,1.883012056,1.293154001,-0.047492001,-0.003757,1.291115046,1.031736016,-0.53057301,1.91544199,1.44946301,-0.224858999,0.231516004,0.550044,1.252593994,-1.34426105,-1.930225015,-2.692493916,-1.766283035,-0.673038006,-1.969395995,-0.52223599,-0.49645099,-1.916365027,0.319420993,0.767521024,-0.611434996,-0.105979003,0.422235012,-0.344632,0.277943999,0.435386002,0.823469996,-0.910238028,-1.247375965,-1.26662004,-2.064812899,-1.273849964,1.32584703,0.443924993,-1.648825049,-0.859614015,-0.048611,0.897756994,-1.987326026,0.853887975,-0.884693027,-0.298368007,-0.322447002,-1.030712008,-1.731304049,-0.253755003,0.189662993,-0.341057003,0.761716008,0.621999979,2.131234884,-1.134336948,0.518330991,0.241189003,-0.111385003,-1.017617941,-1.115942955,2.155271053,-0.368541002,-1.878710985,0.364528,-0.764515996,-2.890712976,-0.693940997,0.30380699,0.923882008,-0.951184988,-0.617706001,0.498108,1.272088051,1.31794405,0.197796002,0.460990012,-1.099928021,-0.582765996,1.575502992,-0.251468986,-0.518126011,0.329513013,-0.158363998,2.180504084,0.310681999,0.894199014,-1.721573949,1.771692991,-0.698449016,-0.693867981,-0.896559,-0.965510011,0.733564973,-0.784916997,-1.590880036,1.252115965,0.594143987,-0.261721998,0.880719006,0.196795002,-1.069092989,0.192191005,-1.164783001,2.438322067,0.310609996,-0.209365994,0.500159979,1.358782053,-0.619109988,-0.575734973,-1.583698034,0.705465972,1.773918986,-1.483520031,0.010428,-1.247938037,-1.299579978,-0.423797995,-0.074851997,1.303843975,-0.972491026,-2.37816596,0.316982001,-0.861482024,-0.930769026,-1.409425974,-1.931437016,1.256559968,0.130314007,0.998757005,1.888285041,-0.683139026,2.094820023,-2.320175886,-0.202820003,-1.569322944,-1.13252604,2.337078094,2.453448057,2.112634897,-1.174504042,-2.391952038,0.071381003,-0.948201001,-1.403815031,-0.139992997,1.140105009,-0.196977004
模式,1.014525056,-1.103407979,1.382776022,-0.58890003,0.829916,-0.959820986,2.142038107,-1.117470026,0.127203003,0.459966987,-2.225101948,-0.255948007,-1.115849018,-0.583562016,-1.786167979,0.51571101,-1.746706009,-0.143598005,-0.208018005,-0.461266011,0.282121986,0.853091002,-1.025396943,1.684391975,1.201053977,1.065660954,1.313395977,1.791648984,-1.220553994,0.084996998,1.000831008,-0.960590005,-1.934901953,-1.292323947,1.437383056,0.71776402,2.46271801,0.921325982,-0.316913992,-0.91733098,-0.222016007,-1.599014997,-1.857352972,-0.093471996,1.451356053,0.728851974,0.372507006,-0.28154701,-2.155477047,0.329856008,-0.234528005,-1.559465051,0.081416003,1.790197968,0.438176006,-0.756498992,0.319599003,-1.333022952,-0.437276989,-1.789906979,-0.741806984,-1.385020018,-0.353967011,-0.617762029,-1.136932015,-0.898126006,-1.823469043,0.304886013,0.152430996,-0.282023013,-2.778785944,0.337069988,0.860731006,1.58712697,1.989339948,0.065869004,0.934001029,-0.263327003,-0.506838977,-0.520841002,-0.406641006,-2.445395947,-0.036566999,-0.135151997,0.450893998,1.187827945,-0.850907028,0.160136998,2.239492893,-1.442473054,0.714577973,-0.200365007,0.080963001,1.188271046,0.902235985,-0.894460976,-0.513710976,0.991245985,1.294268012,1.220381022,1.401947021,0.784060001,2.286961079,0.243257999,-1.282534003,-2.002922058,0.372433007,-0.717245996,-1.795372963,1.061949968,-1.133399963,-0.833998024,-0.090824999,-0.440149009,-1.47299099,0.421559006,1.315523028,-0.971975982,-0.356831014,0.450740993,1.454391003,-2.77621603,0.261146009,-2.247670889,0.017976001,0.593549013,-0.329681009,-0.303858012,-1.447553992,0.571160018,-0.239331007,1.313640952,0.374743015,0.488671988,-1.010452032,-0.184253007,-2.061568022,-0.343257993,0.90249002,-0.383455008,-0.259124994,0.202977002,-0.972368002,-0.762989998,1.389467955,0.349637002,1.629165053,-0.888996005,0.290621996,0.646499991,0.595203996,0.163484007,-0.122412004,0.675195992,0.987882972,-0.092877999,0.129434004,0.421434999,-0.643896997,2.316164017,-0.410241991,-2.163763046,0.805931985,-0.532025993,-1.203799963,2.861865044,-0.933937013,-1.05756104,-1.638532996,-0.076695003,-0.361544997,-1.551005006,-0.182513997,-0.917216003,-0.640480995,1.378615022,0.342097998,0.50237602,-0.829439998,-0.147139996,-0.603793979,0.126037002,-0.070513003,-1.437250972,-2.609131098,-1.102511048,-0.095632002,-0.804126978,1.412901998,-0.521910012,1.152276993,-1.469048977,0.494688988,-0.410216987,-3.001331091,-0.784906983,0.898564994,-1.694165945,0.475030988,0.468286991,1.683784962,-1.587255955,-0.46737501,-0.558812976,-1.355859995,3.060395002,0.568709016,-0.604029,-1.818261981,1.690703988,0.528780997,0.312642008,-1.214738011,-1.056843996,0.424879998,0.004355,-0.697055995,0.736597002,0.211657003,-1.116121054,-0.988651991,-0.189376995,0.942130983,0.009024,2.337398052,-2.150021076,-0.333703995,-0.056945998,-0.49002701,-0.270309001,1.022868991,1.547279,1.635018945,-2.546431065,1.572774053,-0.739081025,1.404139996,-1.303436041,0.836968005,-2.522284985,0.049325,-0.376267999,-0.255398005,1.171048999,0.485094994,-2.361502886,-1.034399986,0.072609998,-0.903397977,0.166438997,-1.923902988,2.404016018,0.314301014,-0.457286,0.039519999,4.325605869,-0.306596994,-0.304612011,0.874934018,0.753728986,0.603923976,1.80717802,0.153099,1.562554955,0.852922976,-0.906131029,0.097967997,1.283516049,0.762202024,0.394374996,1.311853051,-0.983345985,0.167652994,0.279186994,-1.055822015,0.287155986,-1.774186015,-0.468820989,1.351758957,0.657512009,-1.719467998,1.381716967,0.632215023,-0.074212998,-2.519120932,-0.198280007,-2.751708031,0.778982997,0.021872001,0.285376996,-0.793304026,2.697103977,-0.242559999,0.582029998,0.453543991,0.123251997,1.32050395,1.804026961,0.878916979,-0.553340018,-2.447520971,1.060279965,-0.791621983,-0.26820901,-0.071084,0.287432998,-1.051574945,-0.419651985,0.523500025,0.828024983,-1.660928011,-1.882014036,0.290951014,0.755299985,-1.418575048,-0.080360003,-0.419627994,0.614926994,0.844622016,-0.491286993,-0.484140009,-1.678452969,-0.408277988,0.535825014,0.186291993,0.992358983,-0.723158002,-0.095684998,-1.462239981,-0.363285989,-1.372876048,1.285724044,-0.599114001,0.301050991,1.496142983,-1.262578011,-0.562987983,1.016075015,-1.717177987,0.947327971,-1.786067009,-0.221209005,-0.051135,1.714843035,-1.13617897,0.708571017,1.145007014,0.0177,-0.027319999,-0.519253016,1.355469942,-1.637119055,-0.268642992,2.146284103,0.173121005,-0.54953599,0.137808993,1.168916941,-0.191147998,0.898904026,-0.100244001,-0.54162699,-1.316722989,0.339442015,0.001605,-1.770918012,0.35016799,-0.543646991,1.692316055,-0.456340998,1.371785998,0.240838006,-0.918178022,0.429250985,0.403106987,1.065564036,1.529422998,-0.362464994,-2.988312006,-0.731562972,1.887472034,0.716145992,1.480937004,-1.050811052,-0.671607018,-0.819890022,-0.619965017,-1.855126977,-1.168745995,0.540683985,-0.410887986,2.572120905,0.652604997,0.501563013,-0.250835001,-1.110234976,1.243914008,-0.349348009,2.440979958,0.038644001,妯″,1.014525056,-1.103407979,1.382776022,-0.58890003,0.829916,-0.959820986,2.142038107,-1.117470026,0.127203003,0.459966987,-2.225101948,-0.255948007,-1.115849018,-0.583562016,-1.786167979,0.51571101,-1.746706009,-0.143598005,-0.208018005,-0.461266011,0.282121986,0.853091002,-1.025396943,1.684391975,1.201053977,1.065660954,1.313395977,1.791648984,-1.220553994,0.084996998,1.000831008,-0.960590005,-1.934901953,-1.292323947,1.437383056,0.71776402,2.46271801,0.921325982,-0.316913992,-0.91733098,-0.222016007,-1.599014997,-1.857352972,-0.093471996,1.451356053,0.728851974,0.372507006,-0.28154701,-2.155477047,0.329856008,-0.234528005,-1.559465051,0.081416003,1.790197968,0.438176006,-0.756498992,0.319599003,-1.333022952,-0.437276989,-1.789906979,-0.741806984,-1.385020018,-0.353967011,-0.617762029,-1.136932015,-0.898126006,-1.823469043,0.304886013,0.152430996,-0.282023013,-2.778785944,0.337069988,0.860731006,1.58712697,1.989339948,0.065869004,0.934001029,-0.263327003,-0.506838977,-0.520841002,-0.406641006,-2.445395947,-0.036566999,-0.135151997,0.450893998,1.187827945,-0.850907028,0.160136998,2.239492893,-1.442473054,0.714577973,-0.200365007,0.080963001,1.188271046,0.902235985,-0.894460976,-0.513710976,0.991245985,1.294268012,1.220381022,1.401947021,0.784060001,2.286961079,0.243257999,-1.282534003,-2.002922058,0.372433007,-0.717245996,-1.795372963,1.061949968,-1.133399963,-0.833998024,-0.090824999,-0.440149009,-1.47299099,0.421559006,1.315523028,-0.971975982,-0.356831014,0.450740993,1.454391003,-2.77621603,0.261146009,-2.247670889,0.017976001,0.593549013,-0.329681009,-0.303858012,-1.447553992,0.571160018,-0.239331007,1.313640952,0.374743015,0.488671988,-1.010452032,-0.184253007,-2.061568022,-0.343257993,0.90249002,-0.383455008,-0.259124994,0.202977002,-0.972368002,-0.762989998,1.389467955,0.349637002,1.629165053,-0.888996005,0.290621996,0.646499991,0.595203996,0.163484007,-0.122412004,0.675195992,0.987882972,-0.092877999,0.129434004,0.421434999,-0.643896997,2.316164017,-0.410241991,-2.163763046,0.805931985,-0.532025993,-1.203799963,2.861865044,-0.933937013,-1.05756104,-1.638532996,-0.076695003,-0.361544997,-1.551005006,-0.182513997,-0.917216003,-0.640480995,1.378615022,0.342097998,0.50237602,-0.829439998,-0.147139996,-0.603793979,0.126037002,-0.070513003,-1.437250972,-2.609131098,-1.102511048,-0.095632002,-0.804126978,1.412901998,-0.521910012,1.152276993,-1.469048977,0.494688988,-0.410216987,-3.001331091,-0.784906983,0.898564994,-1.694165945,0.475030988,0.468286991,1.683784962,-1.587255955,-0.46737501,-0.558812976,-1.355859995,3.060395002,0.568709016,-0.604029,-1.818261981,1.690703988,0.528780997,0.312642008,-1.214738011,-1.056843996,0.424879998,0.004355,-0.697055995,0.736597002,0.211657003,-1.116121054,-0.988651991,-0.189376995,0.942130983,0.009024,2.337398052,-2.150021076,-0.333703995,-0.056945998,-0.49002701,-0.270309001,1.022868991,1.547279,1.635018945,-2.546431065,1.572774053,-0.739081025,1.404139996,-1.303436041,0.836968005,-2.522284985,0.049325,-0.376267999,-0.255398005,1.171048999,0.485094994,-2.361502886,-1.034399986,0.072609998,-0.903397977,0.166438997,-1.923902988,2.404016018,0.314301014,-0.457286,0.039519999,4.325605869,-0.306596994,-0.304612011,0.874934018,0.753728986,0.603923976,1.80717802,0.153099,1.562554955,0.852922976,-0.906131029,0.097967997,1.283516049,0.762202024,0.394374996,1.311853051,-0.983345985,0.167652994,0.279186994,-1.055822015,0.287155986,-1.774186015,-0.468820989,1.351758957,0.657512009,-1.719467998,1.381716967,0.632215023,-0.074212998,-2.519120932,-0.198280007,-2.751708031,0.778982997,0.021872001,0.285376996,-0.793304026,2.697103977,-0.242559999,0.582029998,0.453543991,0.123251997,1.32050395,1.804026961,0.878916979,-0.553340018,-2.447520971,1.060279965,-0.791621983,-0.26820901,-0.071084,0.287432998,-1.051574945,-0.419651985,0.523500025,0.828024983,-1.660928011,-1.882014036,0.290951014,0.755299985,-1.418575048,-0.080360003,-0.419627994,0.614926994,0.844622016,-0.491286993,-0.484140009,-1.678452969,-0.408277988,0.535825014,0.186291993,0.992358983,-0.723158002,-0.095684998,-1.462239981,-0.363285989,-1.372876048,1.285724044,-0.599114001,0.301050991,1.496142983,-1.262578011,-0.562987983,1.016075015,-1.717177987,0.947327971,-1.786067009,-0.221209005,-0.051135,1.714843035,-1.13617897,0.708571017,1.145007014,0.0177,-0.027319999,-0.519253016,1.355469942,-1.637119055,-0.268642992,2.146284103,0.173121005,-0.54953599,0.137808993,1.168916941,-0.191147998,0.898904026,-0.100244001,-0.54162699,-1.316722989,0.339442015,0.001605,-1.770918012,0.35016799,-0.543646991,1.692316055,-0.456340998,1.371785998,0.240838006,-0.918178022,0.429250985,0.403106987,1.065564036,1.529422998,-0.362464994,-2.988312006,-0.731562972,1.887472034,0.716145992,1.480937004,-1.050811052,-0.671607018,-0.819890022,-0.619965017,-1.855126977,-1.168745995,0.540683985,-0.410887986,2.572120905,0.652604997,0.501563013,-0.250835001,-1.110234976,1.243914008,-0.349348009,2.440979958,0.038644001
信号,0.080665,0.425112993,-0.542874992,1.365121007,0.862091005,0.250654995,1.123401046,-1.819787979,-0.161125004,-0.878140986,-1.214396954,-0.224417999,-0.075243004,-1.777999043,0.521288991,-0.962930024,-1.597605944,-0.350728989,-0.372265995,-0.307677001,-1.464941025,-1.419775963,-0.800357997,-0.250162989,1.529669046,-0.367386013,-0.748939991,0.421745986,-0.837180972,1.669543028,0.83168,-0.848932981,1.40178299,0.580609977,-1.971794963,0.831359982,1.386399984,-1.450749993,-0.620142996,0.341939002,-1.395732045,1.151028037,-1.298990011,0.54768002,-1.737905979,-0.342202991,-1.994518995,1.562085986,1.370267987,0.174278006,0.133405998,-3.072967052,-1.139147997,-1.038339973,-1.774580956,0.495974988,0.149600998,-0.231434003,-2.435300112,-1.285724998,0.629288971,0.619611025,-0.90970403,-0.496078014,0.138664007,-0.253755987,-1.636257052,-0.247566,-0.127935007,-1.873865962,-1.083708048,-2.258692026,1.789294004,3.160597086,0.487251014,2.550297022,2.454497099,0.767054975,-0.041136999,1.165802956,0.986657977,-1.771080971,0.633320987,-0.801671028,-1.132452965,-1.219194055,-1.002683997,0.630580008,2.806668043,-0.360395998,-0.248976007,-0.941594005,-0.762115002,-0.604349971,0.880326986,-1.431141019,-1.291743994,3.022671938,0.717646003,0.384353995,-0.091548003,0.004189,0.727692008,1.022699952,0.791474998,-2.936738014,-1.179298043,-1.864151001,-0.160161003,0.34167999,0.143389001,-2.247791052,-1.706802964,-0.296532989,-1.974508047,1.490856051,2.489264011,0.355744988,0.217825994,0.433797002,1.976992011,0.177307993,-0.464502007,-2.455943108,0.871016026,1.125975013,-0.479835004,-2.152168989,-0.689633012,-0.94807303,0.361295015,-2.030733109,-2.426635027,2.30441308,-0.176003993,-0.083731003,0.154631004,0.887673974,0.345824003,-0.514340997,-0.109857,1.392246962,0.122052997,0.022508999,-0.408776999,-0.929827988,-2.163784027,3.033241987,-1.550632,-1.36215198,0.369163007,0.225458995,-0.862185001,0.328509986,-1.07920599,-1.477666974,-2.547382116,-0.568853974,-1.205175996,0.145160004,-1.175225019,-3.101094961,-0.264239013,-1.816226959,-0.168135002,0.150562003,-1.782961965,2.136292934,0.959792018,-1.601387024,-0.535638988,-1.932870984,-0.745644987,-0.046213001,1.216994047,-0.636871994,1.680925965,0.299441993,1.145081043,0.220125005,-0.366117001,0.492821991,0.088683002,-0.346639007,-0.721915007,0.744181991,1.254731059,-0.905182004,0.416482002,-2.066673994,1.089483023,1.994704962,0.382077992,0.016976999,0.436740994,2.288299084,0.187056005,-0.077251002,0.034254,0.641664028,-0.254833013,-0.158381999,-1.642405987,1.434010983,-0.950914979,0.384371996,0.46539399,3.461039066,0.024904,1.136085987,0.786970019,1.372297049,2.265079021,-0.81606698,-0.545818985,-0.466255993,-1.133605957,-1.652346969,1.914199948,0.558396995,0.438753009,-0.368712991,0.822250009,-0.393068999,1.224414945,-1.957193017,0.120627999,-0.145717993,0.971239984,-0.176118001,1.579102039,-0.816902995,0.492765993,0.182438999,0.787398994,1.03926003,-0.285097003,-0.106320001,-0.724641025,-1.494863987,-0.268323004,-0.051024999,-1.550060987,0.425143003,-0.856764972,1.371191025,-2.380601883,0.277859002,0.653532028,-0.214840993,-0.112957999,1.892266989,0.701403022,-1.617629051,-0.51424998,2.528152943,0.772040009,-0.056329999,2.00876689,2.636810064,-1.017223954,-1.460302949,2.647344112,0.55527699,-0.253800005,-0.982123971,-0.039670002,0.250842988,0.926917017,-1.395841956,-1.338665009,0.191596001,-0.882034004,1.41731298,1.542721033,1.043169975,-3.479206085,1.624268055,-0.442766011,0.555211008,-2.625541925,-1.721891046,0.303465992,-0.412312001,-0.89121002,0.331194997,0.577431977,0.121209003,0.246669993,0.400454998,1.309442997,-1.074512005,0.216348007,-0.119882002,1.821310043,-1.887979984,0.539119005,1.020962,1.274713993,2.52043891,-0.226643994,0.861620009,-0.401372999,1.582342982,0.391283005,-1.500640988,0.908336997,-0.939895988,-2.263031006,2.194233894,0.473636001,0.358835012,2.180141926,-1.190711021,-1.011397958,-0.024784001,1.707834959,0.551877022,0.585371971,-0.037489001,-2.955249071,-0.034093,-1.331516981,0.810711026,0.167676002,-0.541390002,0.161013007,-2.675314903,-0.051052,-2.160209894,1.503021955,-0.854384005,0.070124,-1.929535985,0.023696,-0.687175989,-1.632135034,1.666318059,0.003384,1.089447021,1.049283981,-0.219708994,-0.328249991,-1.932932973,-1.647369027,0.037434001,-0.559149027,-0.345739007,0.319200009,-1.006788015,-0.91673398,1.972776055,-0.10616,1.08355701,0.023477999,-1.524976969,-0.066973999,-0.810387015,-0.443244994,-0.174923003,1.181993008,1.003836989,-1.109838963,1.751225948,-0.147936001,-0.882974029,0.833510995,2.180514097,-1.403800964,-1.563282967,-1.371706963,-0.058352001,1.331730008,1.822412014,-0.301964015,-1.130749941,1.142611027,-2.04015398,-2.711899996,0.866008997,-1.403537989,0.212436005,2.881112099,-0.230459005,0.919782996,-2.866709948,-0.484088004,0.062789999,-2.715605974,-0.177231997,0.297390997,-0.553313971,-3.017160892,-2.289675951,-0.103458002,-1.420796037,0.297059,-1.649109006,1.164499998,-2.594212055,淇″,0.080665,0.425112993,-0.542874992,1.365121007,0.862091005,0.250654995,1.123401046,-1.819787979,-0.161125004,-0.878140986,-1.214396954,-0.224417999,-0.075243004,-1.777999043,0.521288991,-0.962930024,-1.597605944,-0.350728989,-0.372265995,-0.307677001,-1.464941025,-1.419775963,-0.800357997,-0.250162989,1.529669046,-0.367386013,-0.748939991,0.421745986,-0.837180972,1.669543028,0.83168,-0.848932981,1.40178299,0.580609977,-1.971794963,0.831359982,1.386399984,-1.450749993,-0.620142996,0.341939002,-1.395732045,1.151028037,-1.298990011,0.54768002,-1.737905979,-0.342202991,-1.994518995,1.562085986,1.370267987,0.174278006,0.133405998,-3.072967052,-1.139147997,-1.038339973,-1.774580956,0.495974988,0.149600998,-0.231434003,-2.435300112,-1.285724998,0.629288971,0.619611025,-0.90970403,-0.496078014,0.138664007,-0.253755987,-1.636257052,-0.247566,-0.127935007,-1.873865962,-1.083708048,-2.258692026,1.789294004,3.160597086,0.487251014,2.550297022,2.454497099,0.767054975,-0.041136999,1.165802956,0.986657977,-1.771080971,0.633320987,-0.801671028,-1.132452965,-1.219194055,-1.002683997,0.630580008,2.806668043,-0.360395998,-0.248976007,-0.941594005,-0.762115002,-0.604349971,0.880326986,-1.431141019,-1.291743994,3.022671938,0.717646003,0.384353995,-0.091548003,0.004189,0.727692008,1.022699952,0.791474998,-2.936738014,-1.179298043,-1.864151001,-0.160161003,0.34167999,0.143389001,-2.247791052,-1.706802964,-0.296532989,-1.974508047,1.490856051,2.489264011,0.355744988,0.217825994,0.433797002,1.976992011,0.177307993,-0.464502007,-2.455943108,0.871016026,1.125975013,-0.479835004,-2.152168989,-0.689633012,-0.94807303,0.361295015,-2.030733109,-2.426635027,2.30441308,-0.176003993,-0.083731003,0.154631004,0.887673974,0.345824003,-0.514340997,-0.109857,1.392246962,0.122052997,0.022508999,-0.408776999,-0.929827988,-2.163784027,3.033241987,-1.550632,-1.36215198,0.369163007,0.225458995,-0.862185001,0.328509986,-1.07920599,-1.477666974,-2.547382116,-0.568853974,-1.205175996,0.145160004,-1.175225019,-3.101094961,-0.264239013,-1.816226959,-0.168135002,0.150562003,-1.782961965,2.136292934,0.959792018,-1.601387024,-0.535638988,-1.932870984,-0.745644987,-0.046213001,1.216994047,-0.636871994,1.680925965,0.299441993,1.145081043,0.220125005,-0.366117001,0.492821991,0.088683002,-0.346639007,-0.721915007,0.744181991,1.254731059,-0.905182004,0.416482002,-2.066673994,1.089483023,1.994704962,0.382077992,0.016976999,0.436740994,2.288299084,0.187056005,-0.077251002,0.034254,0.641664028,-0.254833013,-0.158381999,-1.642405987,1.434010983,-0.950914979,0.384371996,0.46539399,3.461039066,0.024904,1.136085987,0.786970019,1.372297049,2.265079021,-0.81606698,-0.545818985,-0.466255993,-1.133605957,-1.652346969,1.914199948,0.558396995,0.438753009,-0.368712991,0.822250009,-0.393068999,1.224414945,-1.957193017,0.120627999,-0.145717993,0.971239984,-0.176118001,1.579102039,-0.816902995,0.492765993,0.182438999,0.787398994,1.03926003,-0.285097003,-0.106320001,-0.724641025,-1.494863987,-0.268323004,-0.051024999,-1.550060987,0.425143003,-0.856764972,1.371191025,-2.380601883,0.277859002,0.653532028,-0.214840993,-0.112957999,1.892266989,0.701403022,-1.617629051,-0.51424998,2.528152943,0.772040009,-0.056329999,2.00876689,2.636810064,-1.017223954,-1.460302949,2.647344112,0.55527699,-0.253800005,-0.982123971,-0.039670002,0.250842988,0.926917017,-1.395841956,-1.338665009,0.191596001,-0.882034004,1.41731298,1.542721033,1.043169975,-3.479206085,1.624268055,-0.442766011,0.555211008,-2.625541925,-1.721891046,0.303465992,-0.412312001,-0.89121002,0.331194997,0.577431977,0.121209003,0.246669993,0.400454998,1.309442997,-1.074512005,0.216348007,-0.119882002,1.821310043,-1.887979984,0.539119005,1.020962,1.274713993,2.52043891,-0.226643994,0.861620009,-0.401372999,1.582342982,0.391283005,-1.500640988,0.908336997,-0.939895988,-2.263031006,2.194233894,0.473636001,0.358835012,2.180141926,-1.190711021,-1.011397958,-0.024784001,1.707834959,0.551877022,0.585371971,-0.037489001,-2.955249071,-0.034093,-1.331516981,0.810711026,0.167676002,-0.541390002,0.161013007,-2.675314903,-0.051052,-2.160209894,1.503021955,-0.854384005,0.070124,-1.929535985,0.023696,-0.687175989,-1.632135034,1.666318059,0.003384,1.089447021,1.049283981,-0.219708994,-0.328249991,-1.932932973,-1.647369027,0.037434001,-0.559149027,-0.345739007,0.319200009,-1.006788015,-0.91673398,1.972776055,-0.10616,1.08355701,0.023477999,-1.524976969,-0.066973999,-0.810387015,-0.443244994,-0.174923003,1.181993008,1.003836989,-1.109838963,1.751225948,-0.147936001,-0.882974029,0.833510995,2.180514097,-1.403800964,-1.563282967,-1.371706963,-0.058352001,1.331730008,1.822412014,-0.301964015,-1.130749941,1.142611027,-2.04015398,-2.711899996,0.866008997,-1.403537989,0.212436005,2.881112099,-0.230459005,0.919782996,-2.866709948,-0.484088004,0.062789999,-2.715605974,-0.177231997,0.297390997,-0.553313971,-3.017160892,-2.289675951,-0.103458002,-1.420796037,0.297059,-1.649109006,1.164499998,-2.594212055
条件,-1.019956946,3.219217062,0.91713798,-0.29688099,2.038158894,-0.497810006,0.950655997,-0.60372299,-0.084738001,0.200149998,-1.089805007,0.516933024,-0.17825,0.137025997,-1.579568982,-0.483826011,-1.335659027,0.801810026,-0.486775994,-2.710273027,0.139666006,-0.695864022,-0.699777007,-0.462370008,0.929543972,0.944091976,0.730790019,1.53463304,0.557901978,0.564315975,0.349647999,-2.106781006,-0.052335002,0.958187997,0.130016997,-1.386868954,1.215734959,-0.735302985,-0.303761005,0.694893003,0.336490005,0.458056986,-0.737924993,-0.588577986,0.124347001,-0.932294011,0.227048993,-1.30212605,1.086593986,-2.098056078,0.408187002,-1.050899029,-1.088940024,1.349061966,-0.401304007,-0.117050998,0.434956014,-0.257782012,-0.575250983,0.692853987,1.139899015,0.925644994,0.57526201,-3.201802015,0.720457971,-4.175305843,0.602074981,1.175840974,0.452587992,-0.317506999,-0.446348011,0.914512992,0.315095991,1.86986196,-0.037415002,0.245022997,3.277250052,0.792174995,0.43344301,-0.235018,0.560883999,-0.166759998,0.673000991,0.289810002,-0.342523992,0.069087997,-0.657491028,-1.186632037,1.801594019,1.121842027,-1.022264957,1.450978041,1.477224946,0.922631025,-1.983206034,2.00058794,0.345826,0.013687,-0.613416016,1.127575994,-0.154403001,-0.222123995,0.217318997,0.147257999,0.147949994,-0.618216991,2.810498953,0.118629001,-1.137778044,1.288229942,1.422387004,0.214010999,-1.461693048,-1.428774953,-0.446590006,0.301138997,1.629500985,-0.725836992,0.559795976,1.226315022,1.075580001,-3.286982059,0.683947027,-2.036442995,-0.312229991,-0.371933013,-0.854613006,-0.558835983,0.77579999,0.743932009,0.200279996,0.120993003,-0.661719978,0.857949972,1.119689941,0.574431002,-0.447800994,1.356400967,-0.980265975,-2.702244043,-1.181108952,-1.539314985,-1.809182048,-1.145766974,-0.218397006,-1.162302971,-0.615301013,-0.368149996,0.299510986,-0.586538017,0.882489979,0.77599901,0.377431005,1.077510953,2.201623917,-2.262044907,-1.02076602,1.321328998,-1.785081029,1.747650981,1.743425012,-1.907943964,0.937098026,-1.702131033,-1.100687981,2.313354969,-2.094266891,0.709657013,-1.50673902,0.218627006,0.648602009,0.027172999,1.438900948,0.447872996,0.063804999,0.914976001,-0.449268013,0.357196003,-1.479413033,-0.664012015,-0.247501999,0.195223004,0.61185801,1.306298971,-0.427565992,1.280429006,-1.511873007,-2.618313074,-1.06637001,-2.147196054,0.140498996,-0.751371026,-0.536291003,1.060497046,1.111580968,1.61549902,-1.26731801,-2.291574001,1.640758991,-1.174950957,-0.066322997,1.028542042,-1.335476041,-0.57405901,0.432532996,0.971180022,-0.984335005,0.858120978,-1.097895026,0.036644999,-2.021667957,-0.630665004,0.410335004,-1.277093053,2.433259964,0.226319999,0.330859005,0.470479012,0.025258999,1.956285954,-0.934449971,2.017872095,1.358299971,-0.67406702,0.975799024,-0.965767026,-0.409633994,-0.195976004,1.863919973,0.203874007,0.185672,0.805850983,3.084716082,-0.103147998,3.036897898,-0.111919001,2.005436897,2.214211941,-0.113876998,-0.491319001,-0.469103009,0.233639002,-0.700607002,1.26475203,-0.860984981,-0.000655,-0.808686018,-0.68175298,0.885923982,-0.407315999,-1.592082977,1.770256042,-0.184543997,0.405898005,-0.615893006,1.721912026,-0.504581988,0.98281002,0.116998002,0.211467996,-0.018122001,-0.560833991,0.032178,1.163251996,-1.115375996,-0.834828019,0.324919999,1.050400972,-0.177579001,0.468144,-0.897724986,2.129479885,0.449634999,1.584498048,-0.929148018,0.396212012,-0.184566006,-0.75377202,0.442442,-0.056974001,-0.398458004,0.838635981,-0.729946971,1.173406005,-0.440683991,0.431499988,-1.152045965,1.524765968,-0.662265003,1.60838306,0.332345009,0.889360011,0.787015975,-0.70964402,1.141077995,-0.551234007,1.490247011,1.240407944,0.222305,-0.403043985,-0.638386011,0.25533399,0.988524973,0.560634971,0.218831003,-1.760617971,1.144402981,0.081216998,-1.341979027,-1.007583976,-1.258795977,-1.185155988,0.759535015,0.302165002,1.740759015,-0.915283024,-0.298680007,1.658205032,0.303986996,-0.485944003,-0.829976976,-0.373034,0.223378003,1.674041033,-0.212457001,1.598698974,-1.836688042,0.579106987,-1.502805948,1.461434007,1.14073801,0.508341014,-0.528214991,0.721849978,1.15801096,0.069688,1.435125947,-0.063472003,-1.885962963,1.387135983,-0.210326999,1.180241942,0.930459976,0.256487995,-0.495757997,1.678647995,2.602581978,0.082549997,1.097030997,-1.450939059,1.526211977,-0.108572997,0.643356979,0.417362005,-0.683166981,-1.133599997,1.569177985,1.210227966,-0.229014993,0.600477993,-0.325332999,-1.498536944,0.179000005,-0.189059004,-0.379929006,-1.720471978,-1.35589397,0.159880996,0.335981011,-0.303274006,0.618911982,0.186350003,-0.669978976,1.586990952,-0.736815989,1.867697954,2.278408051,-0.377517998,-0.305438012,1.697821975,1.062450051,0.933417022,-1.992437959,-0.870612025,1.207075953,-0.507497013,0.167786002,-0.463780999,-1.547618032,0.768467009,1.501453042,1.383376002,0.721418023,-0.543500006,-0.156599,-1.238945961,0.905601978,-1.348574996,0.717626989,-0.079172,′欢,-1.019956946,3.219217062,0.91713798,-0.29688099,2.038158894,-0.497810006,0.950655997,-0.60372299,-0.084738001,0.200149998,-1.089805007,0.516933024,-0.17825,0.137025997,-1.579568982,-0.483826011,-1.335659027,0.801810026,-0.486775994,-2.710273027,0.139666006,-0.695864022,-0.699777007,-0.462370008,0.929543972,0.944091976,0.730790019,1.53463304,0.557901978,0.564315975,0.349647999,-2.106781006,-0.052335002,0.958187997,0.130016997,-1.386868954,1.215734959,-0.735302985,-0.303761005,0.694893003,0.336490005,0.458056986,-0.737924993,-0.588577986,0.124347001,-0.932294011,0.227048993,-1.30212605,1.086593986,-2.098056078,0.408187002,-1.050899029,-1.088940024,1.349061966,-0.401304007,-0.117050998,0.434956014,-0.257782012,-0.575250983,0.692853987,1.139899015,0.925644994,0.57526201,-3.201802015,0.720457971,-4.175305843,0.602074981,1.175840974,0.452587992,-0.317506999,-0.446348011,0.914512992,0.315095991,1.86986196,-0.037415002,0.245022997,3.277250052,0.792174995,0.43344301,-0.235018,0.560883999,-0.166759998,0.673000991,0.289810002,-0.342523992,0.069087997,-0.657491028,-1.186632037,1.801594019,1.121842027,-1.022264957,1.450978041,1.477224946,0.922631025,-1.983206034,2.00058794,0.345826,0.013687,-0.613416016,1.127575994,-0.154403001,-0.222123995,0.217318997,0.147257999,0.147949994,-0.618216991,2.810498953,0.118629001,-1.137778044,1.288229942,1.422387004,0.214010999,-1.461693048,-1.428774953,-0.446590006,0.301138997,1.629500985,-0.725836992,0.559795976,1.226315022,1.075580001,-3.286982059,0.683947027,-2.036442995,-0.312229991,-0.371933013,-0.854613006,-0.558835983,0.77579999,0.743932009,0.200279996,0.120993003,-0.661719978,0.857949972,1.119689941,0.574431002,-0.447800994,1.356400967,-0.980265975,-2.702244043,-1.181108952,-1.539314985,-1.809182048,-1.145766974,-0.218397006,-1.162302971,-0.615301013,-0.368149996,0.299510986,-0.586538017,0.882489979,0.77599901,0.377431005,1.077510953,2.201623917,-2.262044907,-1.02076602,1.321328998,-1.785081029,1.747650981,1.743425012,-1.907943964,0.937098026,-1.702131033,-1.100687981,2.313354969,-2.094266891,0.709657013,-1.50673902,0.218627006,0.648602009,0.027172999,1.438900948,0.447872996,0.063804999,0.914976001,-0.449268013,0.357196003,-1.479413033,-0.664012015,-0.247501999,0.195223004,0.61185801,1.306298971,-0.427565992,1.280429006,-1.511873007,-2.618313074,-1.06637001,-2.147196054,0.140498996,-0.751371026,-0.536291003,1.060497046,1.111580968,1.61549902,-1.26731801,-2.291574001,1.640758991,-1.174950957,-0.066322997,1.028542042,-1.335476041,-0.57405901,0.432532996,0.971180022,-0.984335005,0.858120978,-1.097895026,0.036644999,-2.021667957,-0.630665004,0.410335004,-1.277093053,2.433259964,0.226319999,0.330859005,0.470479012,0.025258999,1.956285954,-0.934449971,2.017872095,1.358299971,-0.67406702,0.975799024,-0.965767026,-0.409633994,-0.195976004,1.863919973,0.203874007,0.185672,0.805850983,3.084716082,-0.103147998,3.036897898,-0.111919001,2.005436897,2.214211941,-0.113876998,-0.491319001,-0.469103009,0.233639002,-0.700607002,1.26475203,-0.860984981,-0.000655,-0.808686018,-0.68175298,0.885923982,-0.407315999,-1.592082977,1.770256042,-0.184543997,0.405898005,-0.615893006,1.721912026,-0.504581988,0.98281002,0.116998002,0.211467996,-0.018122001,-0.560833991,0.032178,1.163251996,-1.115375996,-0.834828019,0.324919999,1.050400972,-0.177579001,0.468144,-0.897724986,2.129479885,0.449634999,1.584498048,-0.929148018,0.396212012,-0.184566006,-0.75377202,0.442442,-0.056974001,-0.398458004,0.838635981,-0.729946971,1.173406005,-0.440683991,0.431499988,-1.152045965,1.524765968,-0.662265003,1.60838306,0.332345009,0.889360011,0.787015975,-0.70964402,1.141077995,-0.551234007,1.490247011,1.240407944,0.222305,-0.403043985,-0.638386011,0.25533399,0.988524973,0.560634971,0.218831003,-1.760617971,1.144402981,0.081216998,-1.341979027,-1.007583976,-1.258795977,-1.185155988,0.759535015,0.302165002,1.740759015,-0.915283024,-0.298680007,1.658205032,0.303986996,-0.485944003,-0.829976976,-0.373034,0.223378003,1.674041033,-0.212457001,1.598698974,-1.836688042,0.579106987,-1.502805948,1.461434007,1.14073801,0.508341014,-0.528214991,0.721849978,1.15801096,0.069688,1.435125947,-0.063472003,-1.885962963,1.387135983,-0.210326999,1.180241942,0.930459976,0.256487995,-0.495757997,1.678647995,2.602581978,0.082549997,1.097030997,-1.450939059,1.526211977,-0.108572997,0.643356979,0.417362005,-0.683166981,-1.133599997,1.569177985,1.210227966,-0.229014993,0.600477993,-0.325332999,-1.498536944,0.179000005,-0.189059004,-0.379929006,-1.720471978,-1.35589397,0.159880996,0.335981011,-0.303274006,0.618911982,0.186350003,-0.669978976,1.586990952,-0.736815989,1.867697954,2.278408051,-0.377517998,-0.305438012,1.697821975,1.062450051,0.933417022,-1.992437959,-0.870612025,1.207075953,-0.507497013,0.167786002,-0.463780999,-1.547618032,0.768467009,1.501453042,1.383376002,0.721418023,-0.543500006,-0.156599,-1.238945961,0.905601978,-1.348574996,0.717626989,-0.079172
继续,0.798510015,2.250256062,-1.045182943,-0.173364997,0.151430994,0.01121,1.237597942,1.005367041,0.58187902,-0.475080013,1.359567046,-0.39002499,-0.393456012,-0.387872994,0.366021991,-0.359221011,0.486227006,0.417656988,-0.853778005,-0.352140993,-0.662716985,-1.036558986,0.518895984,-1.328588963,2.052640915,-1.093101978,1.019878984,-0.96183002,1.007967949,-0.396504015,-0.563091993,-1.022941947,-1.242895007,0.940671027,0.370938987,0.421954989,-1.710487008,-0.162706003,-0.924516976,0.981972992,0.100473002,0.462152004,-0.622143984,-0.171860993,0.289817989,-0.804096997,-0.294286996,0.130070001,0.231791005,0.031936001,-0.692269027,-0.155395001,-0.646910012,0.370485991,1.071459055,-0.085473999,1.236847043,-1.265025973,0.329766989,-0.328756988,0.285762995,1.457177043,-0.587523997,0.105359003,0.446949005,-0.801398993,-0.931419015,0.438793987,-0.499927998,1.094661951,0.446759999,0.290087014,0.091486,-0.318221003,0.589223027,0.331216991,1.836091995,-1.468719006,-0.010395,-0.646484017,0.972684979,-0.846638978,-0.564761996,-0.308777988,-0.737671971,-1.46689105,0.220627993,-0.431517005,0.821160972,-2.385741949,1.104042053,0.590399981,-0.236713007,-1.472532034,0.283964008,-2.772181988,-0.643015027,1.051501036,-0.754512012,0.542782009,0.51354301,0.040759001,1.324509978,0.636370003,-0.401014,-0.840749979,0.742926002,-0.469395012,-1.726426005,1.74022305,-0.149453998,0.454066992,-1.067697048,1.229735017,0.286365986,-0.148950994,0.895327985,0.691861987,0.505930007,0.033969,-0.476617992,-0.439985991,2.097986937,-0.815388024,0.618910015,-0.949552,-0.195016995,-0.901259005,0.294519007,-0.03723,-0.671106994,-1.260660052,1.047096968,-0.169504002,-0.293390989,-0.699297011,-0.605765998,2.424829006,-0.277397007,-0.458732009,1.084642053,1.838860989,-1.709113002,-2.106307983,1.981768012,-0.210480005,-0.413827986,-1.365321994,0.459455013,-0.228157997,-0.646238983,-1.190289021,0.107872002,0.897903025,1.853796959,-0.337000996,-0.467303008,0.056212001,-2.126230955,-0.240196005,0.430339992,-2.735301971,-0.40743801,0.053691,-1.284559965,3.046104908,-0.270781994,0.281392008,1.331851006,1.672767997,-0.208171993,-0.995643973,2.534429073,0.170496002,0.172036007,-0.759828985,0.187426999,0.785252988,-0.251881003,-0.766350985,1.549077034,-0.295850992,1.11314702,-0.094022997,0.561053991,-0.743116021,1.12330699,1.453420997,-0.680335999,0.200500995,-0.165902004,0.974548995,-0.014797,1.407287955,-1.343273997,-0.41644901,0.471798003,-1.475113988,-0.178660005,0.724247992,1.742508054,-3.810344934,-0.98427701,-1.69274199,0.056758001,1.148412943,-1.268020988,0.268635988,0.218658,0.122506,-0.887248993,0.472101986,-0.044638999,-0.148265004,0.917563975,-0.587583005,0.602720022,-1.916913986,0.345719993,-1.029616952,-1.910887003,-1.686573982,1.437242985,-0.263467997,0.951583982,-0.001099,0.732856989,-0.796262026,1.271847963,0.397679001,-0.965803981,1.941274047,1.556100965,-0.259220988,1.461598039,-0.877632976,-1.445893049,-0.521453977,-0.497390002,-0.219677001,1.773033023,-1.463983059,0.48782599,-0.788595974,0.354014009,-1.791900039,-1.578711987,-1.030199051,-0.769814014,0.639001012,1.267117977,1.594777942,-0.444806993,-2.349179029,-0.010817,2.732997894,-1.904729962,-0.274251014,0.690047026,1.080572009,0.67039001,0.609704018,2.72574091,-0.463571995,0.545983016,-1.125103951,0.264730006,-1.150588036,1.047222018,0.311363012,0.492356002,-0.266790003,-0.374816,0.162973002,0.308818012,-1.257969022,1.934044003,-0.776885986,-0.112942003,0.634612978,-0.967603981,1.333210945,-0.440149009,0.114184998,-0.920916975,-1.001319051,-1.021967053,1.024624944,0.832599998,0.264337987,0.127671003,0.967594028,-0.43817699,0.362524986,0.413547009,1.520218968,0.598412991,1.857565045,-0.232801005,-1.432855964,-0.581537008,2.335089922,0.467444986,-0.171801999,0.501791,1.018229961,1.566802979,-1.239217997,-0.672244012,-0.290075988,0.124140002,-1.581241012,0.086419001,-0.683427989,-0.174179003,-1.319656014,0.238762006,-0.450619996,0.200592995,-2.821696997,-0.832154989,-3.42494607,0.942674994,0.594752014,-0.59701103,2.151443005,0.698882997,0.643939018,0.920619011,-0.312022001,-0.168522999,0.364059001,0.100653999,1.059259057,-2.030145884,-0.283582985,-0.430467993,0.27975601,0.045494001,0.523180008,-0.430377007,1.976467013,0.780510008,-0.609197021,-0.266162008,-0.049281001,-0.044108,-0.652324021,0.768966973,0.019412,2.217293024,-0.633440971,-0.400579005,0.702233016,-0.854250014,-0.27295801,-1.162749052,1.179177046,1.372853041,-1.750975013,-2.058193922,-1.382495046,-0.160395995,0.934607029,-2.072256088,-2.734744072,0.689947009,0.293861002,1.155915022,-0.700237989,-0.493041992,1.186301947,-0.381462008,1.014479041,0.168089002,0.563494027,-1.883728981,0.333166987,-1.224226952,-0.204281002,-0.145456001,0.185010999,0.618649006,0.077035002,1.509070992,0.206266999,-0.424915999,1.132362008,-1.505107999,0.375070989,1.178225994,2.378871918,0.541804016,0.920988977,-0.651280999,-0.415068001,0.181599006,2.54994607,1.122961998,1.105574965,缁х画,0.798510015,2.250256062,-1.045182943,-0.173364997,0.151430994,0.01121,1.237597942,1.005367041,0.58187902,-0.475080013,1.359567046,-0.39002499,-0.393456012,-0.387872994,0.366021991,-0.359221011,0.486227006,0.417656988,-0.853778005,-0.352140993,-0.662716985,-1.036558986,0.518895984,-1.328588963,2.052640915,-1.093101978,1.019878984,-0.96183002,1.007967949,-0.396504015,-0.563091993,-1.022941947,-1.242895007,0.940671027,0.370938987,0.421954989,-1.710487008,-0.162706003,-0.924516976,0.981972992,0.100473002,0.462152004,-0.622143984,-0.171860993,0.289817989,-0.804096997,-0.294286996,0.130070001,0.231791005,0.031936001,-0.692269027,-0.155395001,-0.646910012,0.370485991,1.071459055,-0.085473999,1.236847043,-1.265025973,0.329766989,-0.328756988,0.285762995,1.457177043,-0.587523997,0.105359003,0.446949005,-0.801398993,-0.931419015,0.438793987,-0.499927998,1.094661951,0.446759999,0.290087014,0.091486,-0.318221003,0.589223027,0.331216991,1.836091995,-1.468719006,-0.010395,-0.646484017,0.972684979,-0.846638978,-0.564761996,-0.308777988,-0.737671971,-1.46689105,0.220627993,-0.431517005,0.821160972,-2.385741949,1.104042053,0.590399981,-0.236713007,-1.472532034,0.283964008,-2.772181988,-0.643015027,1.051501036,-0.754512012,0.542782009,0.51354301,0.040759001,1.324509978,0.636370003,-0.401014,-0.840749979,0.742926002,-0.469395012,-1.726426005,1.74022305,-0.149453998,0.454066992,-1.067697048,1.229735017,0.286365986,-0.148950994,0.895327985,0.691861987,0.505930007,0.033969,-0.476617992,-0.439985991,2.097986937,-0.815388024,0.618910015,-0.949552,-0.195016995,-0.901259005,0.294519007,-0.03723,-0.671106994,-1.260660052,1.047096968,-0.169504002,-0.293390989,-0.699297011,-0.605765998,2.424829006,-0.277397007,-0.458732009,1.084642053,1.838860989,-1.709113002,-2.106307983,1.981768012,-0.210480005,-0.413827986,-1.365321994,0.459455013,-0.228157997,-0.646238983,-1.190289021,0.107872002,0.897903025,1.853796959,-0.337000996,-0.467303008,0.056212001,-2.126230955,-0.240196005,0.430339992,-2.735301971,-0.40743801,0.053691,-1.284559965,3.046104908,-0.270781994,0.281392008,1.331851006,1.672767997,-0.208171993,-0.995643973,2.534429073,0.170496002,0.172036007,-0.759828985,0.187426999,0.785252988,-0.251881003,-0.766350985,1.549077034,-0.295850992,1.11314702,-0.094022997,0.561053991,-0.743116021,1.12330699,1.453420997,-0.680335999,0.200500995,-0.165902004,0.974548995,-0.014797,1.407287955,-1.343273997,-0.41644901,0.471798003,-1.475113988,-0.178660005,0.724247992,1.742508054,-3.810344934,-0.98427701,-1.69274199,0.056758001,1.148412943,-1.268020988,0.268635988,0.218658,0.122506,-0.887248993,0.472101986,-0.044638999,-0.148265004,0.917563975,-0.587583005,0.602720022,-1.916913986,0.345719993,-1.029616952,-1.910887003,-1.686573982,1.437242985,-0.263467997,0.951583982,-0.001099,0.732856989,-0.796262026,1.271847963,0.397679001,-0.965803981,1.941274047,1.556100965,-0.259220988,1.461598039,-0.877632976,-1.445893049,-0.521453977,-0.497390002,-0.219677001,1.773033023,-1.463983059,0.48782599,-0.788595974,0.354014009,-1.791900039,-1.578711987,-1.030199051,-0.769814014,0.639001012,1.267117977,1.594777942,-0.444806993,-2.349179029,-0.010817,2.732997894,-1.904729962,-0.274251014,0.690047026,1.080572009,0.67039001,0.609704018,2.72574091,-0.463571995,0.545983016,-1.125103951,0.264730006,-1.150588036,1.047222018,0.311363012,0.492356002,-0.266790003,-0.374816,0.162973002,0.308818012,-1.257969022,1.934044003,-0.776885986,-0.112942003,0.634612978,-0.967603981,1.333210945,-0.440149009,0.114184998,-0.920916975,-1.001319051,-1.021967053,1.024624944,0.832599998,0.264337987,0.127671003,0.967594028,-0.43817699,0.362524986,0.413547009,1.520218968,0.598412991,1.857565045,-0.232801005,-1.432855964,-0.581537008,2.335089922,0.467444986,-0.171801999,0.501791,1.018229961,1.566802979,-1.239217997,-0.672244012,-0.290075988,0.124140002,-1.581241012,0.086419001,-0.683427989,-0.174179003,-1.319656014,0.238762006,-0.450619996,0.200592995,-2.821696997,-0.832154989,-3.42494607,0.942674994,0.594752014,-0.59701103,2.151443005,0.698882997,0.643939018,0.920619011,-0.312022001,-0.168522999,0.364059001,0.100653999,1.059259057,-2.030145884,-0.283582985,-0.430467993,0.27975601,0.045494001,0.523180008,-0.430377007,1.976467013,0.780510008,-0.609197021,-0.266162008,-0.049281001,-0.044108,-0.652324021,0.768966973,0.019412,2.217293024,-0.633440971,-0.400579005,0.702233016,-0.854250014,-0.27295801,-1.162749052,1.179177046,1.372853041,-1.750975013,-2.058193922,-1.382495046,-0.160395995,0.934607029,-2.072256088,-2.734744072,0.689947009,0.293861002,1.155915022,-0.700237989,-0.493041992,1.186301947,-0.381462008,1.014479041,0.168089002,0.563494027,-1.883728981,0.333166987,-1.224226952,-0.204281002,-0.145456001,0.185010999,0.618649006,0.077035002,1.509070992,0.206266999,-0.424915999,1.132362008,-1.505107999,0.375070989,1.178225994,2.378871918,0.541804016,0.920988977,-0.651280999,-0.415068001,0.181599006,2.54994607,1.122961998,1.105574965
过程,-0.008679,0.055539999,-0.400395006,1.503772974,0.310746014,-0.132927001,1.10550499,-0.739507973,-0.999041021,-0.427576005,-1.280048013,0.533555984,-1.10996902,-0.771031976,-0.592020988,-0.457107008,-0.31458199,-2.476619005,-1.210206032,-0.356584996,0.875214994,0.191432998,1.471307039,0.973935008,0.631749988,-0.137766004,1.110221028,0.780853987,-0.705249012,1.674654961,0.938341022,-0.130379006,-0.873179972,-0.866707027,0.019529,0.097882003,-0.700233996,-0.221973002,-0.977545023,-1.12519002,1.210908055,-0.45449999,-0.007381,0.807547987,0.758143008,-0.74791199,1.137900949,-0.888795018,-0.020269999,0.379076004,0.146550998,-3.321782112,1.69354403,1.020009041,0.020252001,-1.299435019,0.931248009,-0.068255,-1.507433057,2.320988894,0.532851994,-0.476007015,-1.06733501,-0.587372005,-0.487194985,-2.015881062,-0.809215009,0.480738014,0.092347004,0.936209023,0.826141,0.678364992,-0.913289011,0.143581003,-0.142009005,-0.086484998,2.832868099,-0.174147993,-1.637011051,0.424647987,0.906117022,-0.853519022,-1.123438954,0.946658015,-1.165621996,1.387887001,0.774740994,-2.15512991,1.114140987,-2.065182924,1.500522971,1.284201026,1.167212009,1.548715949,-1.283514977,-0.735616982,-0.133061007,0.816712976,-0.73823601,-0.587778986,-1.173797965,-0.119999997,1.745300055,1.61302495,-1.040734053,-2.223171949,-0.502542019,1.428053021,-1.308725953,-1.097288966,0.257647008,0.906841993,-1.125785947,-1.968245983,0.830042005,3.700319052,1.691166043,-0.651683986,1.774876952,0.734955013,0.100579999,-2.134200096,1.343989015,-2.027736902,-0.732936978,0.222342998,-0.96290803,-1.295732021,-1.027410984,0.303792,-0.69374299,1.238234997,0.529743016,0.921926022,-0.900492013,0.596427977,0.790844977,0.970070004,1.57653904,-1.189906001,-1.748772025,0.662002027,-1.020225048,-0.578896999,0.134469002,0.504418015,0.431585997,0.225494996,-1.438825965,-0.539372981,-0.411558986,1.91396296,0.841360986,0.415858001,1.018507004,-1.319198012,-0.849222004,0.989827991,-0.133532003,-0.539794981,1.362887979,-1.483065009,-0.695693016,-3.510472059,0.386287004,1.448654056,-1.764906049,1.580916047,-0.350816995,1.522665024,-0.211515993,-1.639902949,0.478020996,1.672896981,0.245386004,-1.679201961,-0.804192007,1.371235013,-0.493734002,0.190593004,0.430251002,-0.846163988,0.714347005,-1.693549037,-0.938440979,-0.921802998,-1.745159984,-0.168414995,-0.704630971,-0.416545987,0.612981021,0.212834001,3.287806988,0.054841001,0.256460011,0.863590002,-0.282748997,-0.616008997,-0.145548001,0.646583974,0.913882017,-0.45845899,-0.763962984,0.63233602,-0.012106,1.087860942,-1.092905998,-1.513499022,0.783267975,0.942781985,0.250508994,-1.450068951,-0.82497102,-1.454635024,1.37183702,0.003711,-1.518954992,-0.921235025,1.086567998,-0.707970977,-1.855293036,-1.69422102,1.219462991,0.309179008,0.178411007,0.518603027,-2.340080976,-0.498430997,1.117496014,-0.133805007,1.092399001,0.56130302,1.667348981,-0.388792008,1.795384049,0.065608002,0.162879005,-0.255162001,-0.060777001,-0.222183004,0.36364001,0.317597985,-0.000503,1.077401042,-1.000798941,-1.235442996,-2.487324953,-0.121650003,-0.412106007,-2.542907953,0.437357008,1.486976027,1.047165036,-2.027086973,-0.971862972,-0.461686999,-1.400555015,-0.446747988,2.596539021,1.28877902,-0.306914002,0.170482993,0.853766978,-0.927654982,-0.347526014,-2.409670115,-0.391992003,0.84859401,1.759152055,0.688556015,-0.53579098,0.929912984,-1.441233039,0.094356999,-1.086300969,0.225483,-0.633445024,0.605446994,0.915624976,0.986819029,0.084454998,2.590248108,-1.888442039,3.907314062,0.283796996,1.421890974,0.149832994,-0.487655014,0.754164994,0.881287992,1.880568981,0.330949992,0.007014,0.453595012,0.882058978,1.296066046,0.818556011,0.056352999,-0.030726001,0.742200017,-0.482381999,-0.563466012,-0.11569,-0.566366017,-0.068347,-0.659428,0.177494004,1.773764968,-0.504122972,-0.55567199,-0.296236008,-0.828657985,1.964658022,0.132015005,-0.123425998,0.268922001,1.441895008,-0.99920702,1.59038198,-0.533991992,0.661770999,-2.114986897,0.528643012,1.182531953,-1.422217011,0.308665007,0.427809,-0.03788,-0.110550001,0.384799004,0.110808998,0.976062,0.205593005,0.884164989,-0.304616004,0.078298002,0.861600995,0.151276007,-2.918924093,-0.218087003,0.422152013,0.617196977,-0.204183996,-0.801536024,-0.279280007,0.114610001,0.403448999,1.298017025,0.503096998,-0.506009996,0.450118005,-0.818367004,0.988766015,1.967316031,-0.294407994,-2.528691053,0.178146005,2.028695107,0.911656022,1.321923971,-0.382196993,-0.818934023,-1.857839942,1.413478971,-0.435178995,-2.153716087,0.256722003,0.153050005,1.679010034,-0.210337996,0.855709016,-0.280324996,0.219075993,-1.161147952,-0.818903983,0.417506993,-0.210262999,-1.320940971,-1.083600998,0.046284001,0.112097003,0.917086005,2.362976074,0.488864005,-0.572651029,-1.279505014,-0.723555028,-0.591578007,-1.33009398,-1.485950947,-0.564475,0.155940995,1.041501045,-0.894953012,-1.591511011,-0.348798007,2.330836058,0.656710982,0.954459012,1.410192013,杩绋,-0.008679,0.055539999,-0.400395006,1.503772974,0.310746014,-0.132927001,1.10550499,-0.739507973,-0.999041021,-0.427576005,-1.280048013,0.533555984,-1.10996902,-0.771031976,-0.592020988,-0.457107008,-0.31458199,-2.476619005,-1.210206032,-0.356584996,0.875214994,0.191432998,1.471307039,0.973935008,0.631749988,-0.137766004,1.110221028,0.780853987,-0.705249012,1.674654961,0.938341022,-0.130379006,-0.873179972,-0.866707027,0.019529,0.097882003,-0.700233996,-0.221973002,-0.977545023,-1.12519002,1.210908055,-0.45449999,-0.007381,0.807547987,0.758143008,-0.74791199,1.137900949,-0.888795018,-0.020269999,0.379076004,0.146550998,-3.321782112,1.69354403,1.020009041,0.020252001,-1.299435019,0.931248009,-0.068255,-1.507433057,2.320988894,0.532851994,-0.476007015,-1.06733501,-0.587372005,-0.487194985,-2.015881062,-0.809215009,0.480738014,0.092347004,0.936209023,0.826141,0.678364992,-0.913289011,0.143581003,-0.142009005,-0.086484998,2.832868099,-0.174147993,-1.637011051,0.424647987,0.906117022,-0.853519022,-1.123438954,0.946658015,-1.165621996,1.387887001,0.774740994,-2.15512991,1.114140987,-2.065182924,1.500522971,1.284201026,1.167212009,1.548715949,-1.283514977,-0.735616982,-0.133061007,0.816712976,-0.73823601,-0.587778986,-1.173797965,-0.119999997,1.745300055,1.61302495,-1.040734053,-2.223171949,-0.502542019,1.428053021,-1.308725953,-1.097288966,0.257647008,0.906841993,-1.125785947,-1.968245983,0.830042005,3.700319052,1.691166043,-0.651683986,1.774876952,0.734955013,0.100579999,-2.134200096,1.343989015,-2.027736902,-0.732936978,0.222342998,-0.96290803,-1.295732021,-1.027410984,0.303792,-0.69374299,1.238234997,0.529743016,0.921926022,-0.900492013,0.596427977,0.790844977,0.970070004,1.57653904,-1.189906001,-1.748772025,0.662002027,-1.020225048,-0.578896999,0.134469002,0.504418015,0.431585997,0.225494996,-1.438825965,-0.539372981,-0.411558986,1.91396296,0.841360986,0.415858001,1.018507004,-1.319198012,-0.849222004,0.989827991,-0.133532003,-0.539794981,1.362887979,-1.483065009,-0.695693016,-3.510472059,0.386287004,1.448654056,-1.764906049,1.580916047,-0.350816995,1.522665024,-0.211515993,-1.639902949,0.478020996,1.672896981,0.245386004,-1.679201961,-0.804192007,1.371235013,-0.493734002,0.190593004,0.430251002,-0.846163988,0.714347005,-1.693549037,-0.938440979,-0.921802998,-1.745159984,-0.168414995,-0.704630971,-0.416545987,0.612981021,0.212834001,3.287806988,0.054841001,0.256460011,0.863590002,-0.282748997,-0.616008997,-0.145548001,0.646583974,0.913882017,-0.45845899,-0.763962984,0.63233602,-0.012106,1.087860942,-1.092905998,-1.513499022,0.783267975,0.942781985,0.250508994,-1.450068951,-0.82497102,-1.454635024,1.37183702,0.003711,-1.518954992,-0.921235025,1.086567998,-0.707970977,-1.855293036,-1.69422102,1.219462991,0.309179008,0.178411007,0.518603027,-2.340080976,-0.498430997,1.117496014,-0.133805007,1.092399001,0.56130302,1.667348981,-0.388792008,1.795384049,0.065608002,0.162879005,-0.255162001,-0.060777001,-0.222183004,0.36364001,0.317597985,-0.000503,1.077401042,-1.000798941,-1.235442996,-2.487324953,-0.121650003,-0.412106007,-2.542907953,0.437357008,1.486976027,1.047165036,-2.027086973,-0.971862972,-0.461686999,-1.400555015,-0.446747988,2.596539021,1.28877902,-0.306914002,0.170482993,0.853766978,-0.927654982,-0.347526014,-2.409670115,-0.391992003,0.84859401,1.759152055,0.688556015,-0.53579098,0.929912984,-1.441233039,0.094356999,-1.086300969,0.225483,-0.633445024,0.605446994,0.915624976,0.986819029,0.084454998,2.590248108,-1.888442039,3.907314062,0.283796996,1.421890974,0.149832994,-0.487655014,0.754164994,0.881287992,1.880568981,0.330949992,0.007014,0.453595012,0.882058978,1.296066046,0.818556011,0.056352999,-0.030726001,0.742200017,-0.482381999,-0.563466012,-0.11569,-0.566366017,-0.068347,-0.659428,0.177494004,1.773764968,-0.504122972,-0.55567199,-0.296236008,-0.828657985,1.964658022,0.132015005,-0.123425998,0.268922001,1.441895008,-0.99920702,1.59038198,-0.533991992,0.661770999,-2.114986897,0.528643012,1.182531953,-1.422217011,0.308665007,0.427809,-0.03788,-0.110550001,0.384799004,0.110808998,0.976062,0.205593005,0.884164989,-0.304616004,0.078298002,0.861600995,0.151276007,-2.918924093,-0.218087003,0.422152013,0.617196977,-0.204183996,-0.801536024,-0.279280007,0.114610001,0.403448999,1.298017025,0.503096998,-0.506009996,0.450118005,-0.818367004,0.988766015,1.967316031,-0.294407994,-2.528691053,0.178146005,2.028695107,0.911656022,1.321923971,-0.382196993,-0.818934023,-1.857839942,1.413478971,-0.435178995,-2.153716087,0.256722003,0.153050005,1.679010034,-0.210337996,0.855709016,-0.280324996,0.219075993,-1.161147952,-0.818903983,0.417506993,-0.210262999,-1.320940971,-1.083600998,0.046284001,0.112097003,0.917086005,2.362976074,0.488864005,-0.572651029,-1.279505014,-0.723555028,-0.591578007,-1.33009398,-1.485950947,-0.564475,0.155940995,1.041501045,-0.894953012,-1.591511011,-0.348798007,2.330836058,0.656710982,0.954459012,1.410192013
内燃机,0.183834001,0.775837004,0.491333008,-0.01691,0.441056013,-0.011443,0.847787023,-1.165400982,0.165039003,0.391407996,-1.307263017,0.018315,-0.595839024,0.306183994,-0.731859028,-0.668357015,-0.49495101,-0.696457982,-0.30686599,-0.923875988,-0.398272008,-0.718163013,0.61085999,-0.234704003,-0.203434005,0.068121001,-0.878098011,1.206099033,-0.989576995,0.278950006,0.003429,-0.583503008,-0.50347501,-0.316064,0.398534,-0.657325029,-0.072036996,0.36135599,0.121905997,0.758817017,0.629172981,-0.413796991,-0.592752993,-0.409835011,0.496197999,-0.412032008,-0.376556993,-0.651525021,0.307125986,0.612040997,0.993035018,-0.843429983,-0.080068,0.44077599,-0.383552998,-0.397715002,-0.522625029,-0.373333991,-0.626205027,0.250836015,0.146859005,0.382108003,-0.243100002,-0.544053018,-0.401915014,-0.265345007,-0.331420988,0.458795995,0.177848995,-0.421368986,-0.660551012,-0.198140994,0.471727997,0.974197984,-0.201644003,0.764575005,0.378353,-0.640543997,-0.665789008,-0.392172992,-1.036455989,-0.457150996,-0.140614003,0.357176989,0.015660999,-0.409453005,-0.363234013,0.009755,-0.41001299,-0.639747024,0.384665012,0.94154799,-0.497097999,0.997893989,-0.209271997,-0.062567003,-0.578076005,0.395218015,-1.103844047,-0.17543,0.038015999,0.358330995,-0.325985014,0.516848028,-0.942053974,-0.37251699,0.042059999,-0.285237014,0.266869009,-0.057783,0.144867003,-0.828822017,-0.237469003,-0.287829012,0.108266003,-0.01873,0.064655997,-0.049469002,-0.216859996,0.168237999,-0.716787994,-0.793895006,0.571642995,-0.730418026,0.823440015,0.48813501,-0.571416974,-0.310952008,0.426414996,1.071411014,0.035952002,-0.144399002,-0.511111021,0.285207987,0.390379012,-0.320791006,-0.632377982,0.144116998,-0.357304007,-0.643096983,0.494134009,-0.831333995,-0.670994997,0.760002971,-0.183979005,0.368339002,-1.172111034,-0.018549999,0.516047001,-0.329961985,1.027930021,0.279962987,-0.974941015,-0.527368009,0.571359992,-0.206222996,0.644522011,-0.072251,-0.380234987,0.01373,0.46202001,0.600019991,-1.520318031,0.086401001,0.211484998,0.102418996,-0.413206995,-0.399890006,-0.570434988,-0.111164004,-0.044735,-0.879490018,0.60354197,0.185080007,0.952467024,0.632878006,-0.542016029,0.107800998,0.352284998,0.193009004,-0.659578025,0.27177301,-0.572588027,-0.109044999,-0.780255973,-1.040629983,0.113045998,0.595700026,-0.154192999,0.047814,-0.569932997,-0.575689971,-0.649949014,0.261633009,0.318879992,0.249867007,0.590512991,-0.724142015,0.148609996,0.342494011,0.491046995,0.178581998,-0.149819002,0.062518999,-0.147961006,0.493499011,-0.256597012,0.331142008,0.231082007,0.602226973,-0.035129,-0.212202996,0.295226991,-1.033161998,-0.150249004,1.18236804,-1.32949698,-0.581903994,0.210823998,-0.696915984,-0.596320987,-0.705467999,1.186928034,0.214836001,0.654181004,-0.046264,-0.351570994,-0.494762987,1.23921895,-0.581978023,0.214583993,0.227353007,0.499821991,-0.755419016,0.700407028,0.033686001,-0.280930012,-0.110127002,0.921522021,0.352068007,-0.702405989,0.898190975,-0.005874,0.405689001,-0.063252002,-0.099679001,0.064581998,0.041049998,0.187012002,0.571784019,-0.420771003,0.437810004,1.02581501,0.088214003,-0.371504992,0.490869999,-1.457913041,-0.117655002,1.222349048,1.172585964,0.63399899,-0.060562,-0.043694001,-0.206330001,-0.735871971,-1.288980961,0.175159007,-0.033263002,-1.422454953,0.186803997,-0.668958008,-0.631740987,-0.203106999,0.499567002,-0.218331993,-0.104235999,-1.106394053,0.052258,0.499776989,0.142516002,0.197098002,1.349012971,-0.085470997,-1.008757949,-1.122491956,-0.25039199,0.413103998,-0.488638997,-0.095725998,0.400000989,0.203291997,0.948762,-0.403510004,-0.357903987,0.627990007,-0.274912,-0.216697007,-0.461840004,-0.653483987,-0.139891997,-0.607508004,0.211024001,-0.179275006,0.055117,1.05391705,-0.246576995,-0.665304005,-0.267123014,0.076700002,0.505760014,-0.497554988,-0.116274998,-0.212477997,-0.344812989,0.386837989,0.139125004,-0.977366984,-0.591700971,0.101154,-0.079031996,-0.089426003,-0.646236002,-0.170131996,-0.941055,0.138476998,0.817412972,0.013948,-0.456339985,-0.388747007,0.55803299,1.066679001,-1.054939985,0.041046999,-1.005547047,-0.190908998,0.32326901,-0.365292013,-0.004937,0.076619998,-0.651214004,-0.197705999,-0.389872998,0.407588005,-0.294627011,-0.294243008,-0.931711972,-0.304865986,-0.186697006,0.474694014,-0.147457004,-0.065486997,0.259900987,-0.171287,0.87233299,-0.500416994,-0.090264998,0.257555008,-0.247243002,0.563341022,0.923506022,-1.070160031,0.234698996,-0.325690001,0.369192004,-0.849214017,-0.426027,-0.824039996,-0.594114006,-1.281190991,-0.204349995,-0.301869988,0.345775008,0.342453986,-0.434215009,-0.203685001,-0.179545999,-1.383491993,-0.898881018,-1.233448982,-0.030846,-0.135263994,-0.016896,0.878341973,-0.064218998,-0.120986,-1.141047955,0.205371007,-0.677389026,-0.492321014,0.080715999,-0.560383976,-0.952874005,-0.621775985,-0.534933984,-0.265312999,-0.463986009,-0.075226001,-0.177696005,0.770959973,-0.289622009,?0.183834001422,0.775837004,0.491333008,-0.01691,0.441056013,-0.011443,0.847787023,-1.165400982,0.165039003,0.391407996,-1.307263017,0.018315,-0.595839024,0.306183994,-0.731859028,-0.668357015,-0.49495101,-0.696457982,-0.30686599,-0.923875988,-0.398272008,-0.718163013,0.61085999,-0.234704003,-0.203434005,0.068121001,-0.878098011,1.206099033,-0.989576995,0.278950006,0.003429,-0.583503008,-0.50347501,-0.316064,0.398534,-0.657325029,-0.072036996,0.36135599,0.121905997,0.758817017,0.629172981,-0.413796991,-0.592752993,-0.409835011,0.496197999,-0.412032008,-0.376556993,-0.651525021,0.307125986,0.612040997,0.993035018,-0.843429983,-0.080068,0.44077599,-0.383552998,-0.397715002,-0.522625029,-0.373333991,-0.626205027,0.250836015,0.146859005,0.382108003,-0.243100002,-0.544053018,-0.401915014,-0.265345007,-0.331420988,0.458795995,0.177848995,-0.421368986,-0.660551012,-0.198140994,0.471727997,0.974197984,-0.201644003,0.764575005,0.378353,-0.640543997,-0.665789008,-0.392172992,-1.036455989,-0.457150996,-0.140614003,0.357176989,0.015660999,-0.409453005,-0.363234013,0.009755,-0.41001299,-0.639747024,0.384665012,0.94154799,-0.497097999,0.997893989,-0.209271997,-0.062567003,-0.578076005,0.395218015,-1.103844047,-0.17543,0.038015999,0.358330995,-0.325985014,0.516848028,-0.942053974,-0.37251699,0.042059999,-0.285237014,0.266869009,-0.057783,0.144867003,-0.828822017,-0.237469003,-0.287829012,0.108266003,-0.01873,0.064655997,-0.049469002,-0.216859996,0.168237999,-0.716787994,-0.793895006,0.571642995,-0.730418026,0.823440015,0.48813501,-0.571416974,-0.310952008,0.426414996,1.071411014,0.035952002,-0.144399002,-0.511111021,0.285207987,0.390379012,-0.320791006,-0.632377982,0.144116998,-0.357304007,-0.643096983,0.494134009,-0.831333995,-0.670994997,0.760002971,-0.183979005,0.368339002,-1.172111034,-0.018549999,0.516047001,-0.329961985,1.027930021,0.279962987,-0.974941015,-0.527368009,0.571359992,-0.206222996,0.644522011,-0.072251,-0.380234987,0.01373,0.46202001,0.600019991,-1.520318031,0.086401001,0.211484998,0.102418996,-0.413206995,-0.399890006,-0.570434988,-0.111164004,-0.044735,-0.879490018,0.60354197,0.185080007,0.952467024,0.632878006,-0.542016029,0.107800998,0.352284998,0.193009004,-0.659578025,0.27177301,-0.572588027,-0.109044999,-0.780255973,-1.040629983,0.113045998,0.595700026,-0.154192999,0.047814,-0.569932997,-0.575689971,-0.649949014,0.261633009,0.318879992,0.249867007,0.590512991,-0.724142015,0.148609996,0.342494011,0.491046995,0.178581998,-0.149819002,0.062518999,-0.147961006,0.493499011,-0.256597012,0.331142008,0.231082007,0.602226973,-0.035129,-0.212202996,0.295226991,-1.033161998,-0.150249004,1.18236804,-1.32949698,-0.581903994,0.210823998,-0.696915984,-0.596320987,-0.705467999,1.186928034,0.214836001,0.654181004,-0.046264,-0.351570994,-0.494762987,1.23921895,-0.581978023,0.214583993,0.227353007,0.499821991,-0.755419016,0.700407028,0.033686001,-0.280930012,-0.110127002,0.921522021,0.352068007,-0.702405989,0.898190975,-0.005874,0.405689001,-0.063252002,-0.099679001,0.064581998,0.041049998,0.187012002,0.571784019,-0.420771003,0.437810004,1.02581501,0.088214003,-0.371504992,0.490869999,-1.457913041,-0.117655002,1.222349048,1.172585964,0.63399899,-0.060562,-0.043694001,-0.206330001,-0.735871971,-1.288980961,0.175159007,-0.033263002,-1.422454953,0.186803997,-0.668958008,-0.631740987,-0.203106999,0.499567002,-0.218331993,-0.104235999,-1.106394053,0.052258,0.499776989,0.142516002,0.197098002,1.349012971,-0.085470997,-1.008757949,-1.122491956,-0.25039199,0.413103998,-0.488638997,-0.095725998,0.400000989,0.203291997,0.948762,-0.403510004,-0.357903987,0.627990007,-0.274912,-0.216697007,-0.461840004,-0.653483987,-0.139891997,-0.607508004,0.211024001,-0.179275006,0.055117,1.05391705,-0.246576995,-0.665304005,-0.267123014,0.076700002,0.505760014,-0.497554988,-0.116274998,-0.212477997,-0.344812989,0.386837989,0.139125004,-0.977366984,-0.591700971,0.101154,-0.079031996,-0.089426003,-0.646236002,-0.170131996,-0.941055,0.138476998,0.817412972,0.013948,-0.456339985,-0.388747007,0.55803299,1.066679001,-1.054939985,0.041046999,-1.005547047,-0.190908998,0.32326901,-0.365292013,-0.004937,0.076619998,-0.651214004,-0.197705999,-0.389872998,0.407588005,-0.294627011,-0.294243008,-0.931711972,-0.304865986,-0.186697006,0.474694014,-0.147457004,-0.065486997,0.259900987,-0.171287,0.87233299,-0.500416994,-0.090264998,0.257555008,-0.247243002,0.563341022,0.923506022,-1.070160031,0.234698996,-0.325690001,0.369192004,-0.849214017,-0.426027,-0.824039996,-0.594114006,-1.281190991,-0.204349995,-0.301869988,0.345775008,0.342453986,-0.434215009,-0.203685001,-0.179545999,-1.383491993,-0.898881018,-1.233448982,-0.030846,-0.135263994,-0.016896,0.878341973,-0.064218998,-0.120986,-1.141047955,0.205371007,-0.677389026,-0.492321014,0.080715999,-0.560383976,-0.952874005,-0.621775985,-0.534933984,-0.265312999,-0.463986009,-0.075226001,-0.177696005,0.770959973,-0.289622009,
