word,0,1,2,3,4,5,6,7,8,9,10,11,12,13,14,15,16,17,18,19,20,21,22,23,24,25,26,27,28,29,30,31,32,33,34,35,36,37,38,39,40,41,42,43,44,45,46,47,48,49,50,51,52,53,54,55,56,57,58,59,60,61,62,63,64,65,66,67,68,69,70,71,72,73,74,75,76,77,78,79,80,81,82,83,84,85,86,87,88,89,90,91,92,93,94,95,96,97,98,99,100,101,102,103,104,105,106,107,108,109,110,111,112,113,114,115,116,117,118,119,120,121,122,123,124,125,126,127,128,129,130,131,132,133,134,135,136,137,138,139,140,141,142,143,144,145,146,147,148,149,150,151,152,153,154,155,156,157,158,159,160,161,162,163,164,165,166,167,168,169,170,171,172,173,174,175,176,177,178,179,180,181,182,183,184,185,186,187,188,189,190,191,192,193,194,195,196,197,198,199,200,201,202,203,204,205,206,207,208,209,210,211,212,213,214,215,216,217,218,219,220,221,222,223,224,225,226,227,228,229,230,231,232,233,234,235,236,237,238,239,240,241,242,243,244,245,246,247,248,249,250,251,252,253,254,255,256,257,258,259,260,261,262,263,264,265,266,267,268,269,270,271,272,273,274,275,276,277,278,279,280,281,282,283,284,285,286,287,288,289,290,291,292,293,294,295,296,297,298,299,300,301,302,303,304,305,306,307,308,309,310,311,312,313,314,315,316,317,318,319,320,321,322,323,324,325,326,327,328,329,330,331,332,333,334,335,336,337,338,339,340,341,342,343,344,345,346,347,348,349,350,351,352,353,354,355,356,357,358,359,360,361,362,363,364,365,366,367,368,369,370,371,372,373,374,375,376,377,378,379,380,381,382,383,384,385,386,387,388,389,390,391,392,393,394,395,396,397,398,399,word,0,1,2,3,4,5,6,7,8,9,10,11,12,13,14,15,16,17,18,19,20,21,22,23,24,25,26,27,28,29,30,31,32,33,34,35,36,37,38,39,40,41,42,43,44,45,46,47,48,49,50,51,52,53,54,55,56,57,58,59,60,61,62,63,64,65,66,67,68,69,70,71,72,73,74,75,76,77,78,79,80,81,82,83,84,85,86,87,88,89,90,91,92,93,94,95,96,97,98,99,100,101,102,103,104,105,106,107,108,109,110,111,112,113,114,115,116,117,118,119,120,121,122,123,124,125,126,127,128,129,130,131,132,133,134,135,136,137,138,139,140,141,142,143,144,145,146,147,148,149,150,151,152,153,154,155,156,157,158,159,160,161,162,163,164,165,166,167,168,169,170,171,172,173,174,175,176,177,178,179,180,181,182,183,184,185,186,187,188,189,190,191,192,193,194,195,196,197,198,199,200,201,202,203,204,205,206,207,208,209,210,211,212,213,214,215,216,217,218,219,220,221,222,223,224,225,226,227,228,229,230,231,232,233,234,235,236,237,238,239,240,241,242,243,244,245,246,247,248,249,250,251,252,253,254,255,256,257,258,259,260,261,262,263,264,265,266,267,268,269,270,271,272,273,274,275,276,277,278,279,280,281,282,283,284,285,286,287,288,289,290,291,292,293,294,295,296,297,298,299,300,301,302,303,304,305,306,307,308,309,310,311,312,313,314,315,316,317,318,319,320,321,322,323,324,325,326,327,328,329,330,331,332,333,334,335,336,337,338,339,340,341,342,343,344,345,346,347,348,349,350,351,352,353,354,355,356,357,358,359,360,361,362,363,364,365,366,367,368,369,370,371,372,373,374,375,376,377,378,379,380,381,382,383,384,385,386,387,388,389,390,391,392,393,394,395,396,397,398,399
椅背,-0.218796,0.487655014,0.52076298,0.150179997,0.289876014,-0.213374004,0.243423998,-0.318796992,0.330008,0.451139003,-0.312711,0.148752004,-0.312815994,-0.102371998,-0.026846001,-0.145638004,0.229004994,0.268150985,0.143821001,-0.655018985,-0.349229008,0.311158001,-0.185752004,-0.267944008,0.303508997,0.125744,-0.255849004,0.242064998,-0.205386996,0.168001994,-0.121673003,-0.382773995,0.301337987,-0.051284,0.431517988,0.670428991,0.074790999,-0.148416996,0.113151997,-0.001634,0.446978003,-0.381415993,-0.514519989,-0.341910005,0.329944998,0.072553001,0.173886999,0.214726001,0.10729,0.073408,-0.040010002,0.144954994,-0.214071006,-0.087167002,-0.479757994,0.022324,0.171075001,-0.286455989,-0.202784002,0.632565975,-0.341111004,-0.053783,0.053468,-0.299032003,-0.42841801,0.604236007,-0.012162,-0.535736978,0.126000002,-0.098728001,-0.546285987,0.330220997,0.194415003,0.124641001,0.285867989,0.273867011,-0.042551,-0.140306994,-0.088979997,0.459143013,0.452087998,-0.170212001,0.198971003,0.136941001,0.285196006,-0.811268985,-0.234357998,0.190988004,0.131433994,-0.028879,0.320091009,0.506263018,0.156954005,0.482071012,0.019312,-0.021241,-0.315367013,-0.044736002,-0.126359999,-0.27493,0.620245993,-0.352364004,0.047359001,0.046875,-0.360785991,0.246154994,0.395098001,-0.359730005,-0.040849999,0.127975002,0.115432002,-0.67425102,-0.056827001,-0.47921899,-0.219400004,0.144757003,0.398984998,-0.541702986,0.119845003,0.492776006,-0.001199,-0.395678997,-0.00592,-0.010661,0.555689991,0.222194999,-0.032568,0.012782,0.103638001,-0.375748008,0.271019012,-0.534506023,-0.196264997,0.097525999,-0.526260972,-0.463912994,-0.101190999,-0.030459,0.026177,-0.244449005,0.138698995,-0.334533006,0.064547002,-0.019854,0.032074999,-0.587970018,-0.175730005,-0.137408003,-0.455062002,-0.325926006,0.097516,-0.608560979,0.090550996,-0.020570001,0.185201004,-0.236178994,0.116232,-0.49070999,-0.242451996,0.338021994,-0.127348006,-0.479420006,-0.174941003,-0.275736988,0.038973,0.077358,0.277759999,-0.217225,-0.47933501,-0.122446001,-0.383204997,-0.013541,-0.113116004,0.046241,0.314303994,0.324461997,0.237638995,0.241322994,0.50493902,0.375483006,-0.018699,0.155592993,-0.321166009,-0.054088,-0.457367986,0.289222002,0.121251002,0.308816999,0.054031,0.353850991,0.243151993,0.146239996,-0.256128013,-0.011299,-0.188302994,-0.141626999,0.26028201,-0.272460997,0.075249001,-0.225497007,-0.065154999,-0.410964996,-0.044486001,-0.159942001,-0.054409999,0.141700998,0.026735,0.093230002,-0.182809994,0.157517001,0.178561002,-0.071675003,-0.060139999,-0.114710003,0.411660999,0.418945014,0.168458998,0.087260999,0.184260994,-0.373360991,0.397015989,0.073147997,-0.150717005,0.160346001,0.030688999,0.189266995,0.314067006,-0.180014998,0.109847002,0.005024,-0.281783998,0.117891997,0.018309001,-0.125040993,-0.055913001,-0.003269,-0.509505987,-0.23567,0.347429991,-0.163105994,-0.120293997,0.226014003,0.00592,0.304174006,-0.027925,0.065862998,-0.089740999,0.098707996,0.088428997,-0.088202,-0.396225005,0.234788001,0.535184979,0.252355009,-0.034705002,0.065796003,0.133082002,0.482856005,0.412032008,-0.094812997,-0.139080003,-0.339554995,0.363296002,0.201298997,-0.131393999,-0.567815006,-0.02533,0.126890004,-0.701949,-0.035236999,0.042792998,-0.541024029,0.013034,-0.087428004,-0.001209,0.503558993,-0.133520007,-0.121510997,-0.007717,0.181215003,0.434581012,0.383870006,0.449878007,0.061039001,-0.322387993,-0.292369008,0.105394997,-0.291631997,0.098219,0.082878999,-0.036669999,0.445176005,0.23071,0.000167,0.049626999,-0.464565992,0.013601,-0.146753997,0.485468,0.081325002,-0.081910998,-0.264701009,0.307630002,-0.457590997,0.303829014,0.551798999,-0.289902002,-0.284909993,-0.072236001,0.117895,-0.571806014,-0.234081,0.122483,-0.034187,-0.224158004,0.514869988,-0.049109999,-0.005253,0.160341993,0.249044999,0.193788007,0.266223013,-0.039483,-0.246463999,0.226201996,-0.096959002,0.157262996,0.063768998,0.276850998,-0.075159997,0.429412007,0.106969997,-0.397612989,0.321121007,-0.336750001,-0.164516002,0.414582014,0.372610003,0.283491999,0.462980986,-0.414763987,-0.111138999,0.164359003,-0.133632004,0.092189997,0.34534201,-0.062374,0.234041005,0.330222994,-0.125769004,-0.348666996,0.199878007,-0.126077995,0.002949,-0.004197,0.212689996,0.14632,0.238359004,-0.073147997,0.441358,-0.178789005,0.158849001,0.025844,-0.021962,-0.335525006,-0.177305996,0.391781986,-0.165849,-0.317595989,0.030311,-0.280851007,0.14869,0.288711011,-0.170693994,-0.270245999,-0.272015005,-0.218741998,0.348868012,-0.502564013,0.616320014,-0.260497004,-0.130393997,0.410955012,0.228162006,-0.032625999,-0.393923014,0.118796997,-0.399066001,-0.175713003,0.38617,-0.225954995,0.379352987,0.382815987,-0.082088999,0.516707003,0.054216001,-0.599062026,0.382117987,0.385219008,0.027201001,妞,-0.218796,0.487655014,0.52076298,0.150179997,0.289876014,-0.213374004,0.243423998,-0.318796992,0.330008,0.451139003,-0.312711,0.148752004,-0.312815994,-0.102371998,-0.026846001,-0.145638004,0.229004994,0.268150985,0.143821001,-0.655018985,-0.349229008,0.311158001,-0.185752004,-0.267944008,0.303508997,0.125744,-0.255849004,0.242064998,-0.205386996,0.168001994,-0.121673003,-0.382773995,0.301337987,-0.051284,0.431517988,0.670428991,0.074790999,-0.148416996,0.113151997,-0.001634,0.446978003,-0.381415993,-0.514519989,-0.341910005,0.329944998,0.072553001,0.173886999,0.214726001,0.10729,0.073408,-0.040010002,0.144954994,-0.214071006,-0.087167002,-0.479757994,0.022324,0.171075001,-0.286455989,-0.202784002,0.632565975,-0.341111004,-0.053783,0.053468,-0.299032003,-0.42841801,0.604236007,-0.012162,-0.535736978,0.126000002,-0.098728001,-0.546285987,0.330220997,0.194415003,0.124641001,0.285867989,0.273867011,-0.042551,-0.140306994,-0.088979997,0.459143013,0.452087998,-0.170212001,0.198971003,0.136941001,0.285196006,-0.811268985,-0.234357998,0.190988004,0.131433994,-0.028879,0.320091009,0.506263018,0.156954005,0.482071012,0.019312,-0.021241,-0.315367013,-0.044736002,-0.126359999,-0.27493,0.620245993,-0.352364004,0.047359001,0.046875,-0.360785991,0.246154994,0.395098001,-0.359730005,-0.040849999,0.127975002,0.115432002,-0.67425102,-0.056827001,-0.47921899,-0.219400004,0.144757003,0.398984998,-0.541702986,0.119845003,0.492776006,-0.001199,-0.395678997,-0.00592,-0.010661,0.555689991,0.222194999,-0.032568,0.012782,0.103638001,-0.375748008,0.271019012,-0.534506023,-0.196264997,0.097525999,-0.526260972,-0.463912994,-0.101190999,-0.030459,0.026177,-0.244449005,0.138698995,-0.334533006,0.064547002,-0.019854,0.032074999,-0.587970018,-0.175730005,-0.137408003,-0.455062002,-0.325926006,0.097516,-0.608560979,0.090550996,-0.020570001,0.185201004,-0.236178994,0.116232,-0.49070999,-0.242451996,0.338021994,-0.127348006,-0.479420006,-0.174941003,-0.275736988,0.038973,0.077358,0.277759999,-0.217225,-0.47933501,-0.122446001,-0.383204997,-0.013541,-0.113116004,0.046241,0.314303994,0.324461997,0.237638995,0.241322994,0.50493902,0.375483006,-0.018699,0.155592993,-0.321166009,-0.054088,-0.457367986,0.289222002,0.121251002,0.308816999,0.054031,0.353850991,0.243151993,0.146239996,-0.256128013,-0.011299,-0.188302994,-0.141626999,0.26028201,-0.272460997,0.075249001,-0.225497007,-0.065154999,-0.410964996,-0.044486001,-0.159942001,-0.054409999,0.141700998,0.026735,0.093230002,-0.182809994,0.157517001,0.178561002,-0.071675003,-0.060139999,-0.114710003,0.411660999,0.418945014,0.168458998,0.087260999,0.184260994,-0.373360991,0.397015989,0.073147997,-0.150717005,0.160346001,0.030688999,0.189266995,0.314067006,-0.180014998,0.109847002,0.005024,-0.281783998,0.117891997,0.018309001,-0.125040993,-0.055913001,-0.003269,-0.509505987,-0.23567,0.347429991,-0.163105994,-0.120293997,0.226014003,0.00592,0.304174006,-0.027925,0.065862998,-0.089740999,0.098707996,0.088428997,-0.088202,-0.396225005,0.234788001,0.535184979,0.252355009,-0.034705002,0.065796003,0.133082002,0.482856005,0.412032008,-0.094812997,-0.139080003,-0.339554995,0.363296002,0.201298997,-0.131393999,-0.567815006,-0.02533,0.126890004,-0.701949,-0.035236999,0.042792998,-0.541024029,0.013034,-0.087428004,-0.001209,0.503558993,-0.133520007,-0.121510997,-0.007717,0.181215003,0.434581012,0.383870006,0.449878007,0.061039001,-0.322387993,-0.292369008,0.105394997,-0.291631997,0.098219,0.082878999,-0.036669999,0.445176005,0.23071,0.000167,0.049626999,-0.464565992,0.013601,-0.146753997,0.485468,0.081325002,-0.081910998,-0.264701009,0.307630002,-0.457590997,0.303829014,0.551798999,-0.289902002,-0.284909993,-0.072236001,0.117895,-0.571806014,-0.234081,0.122483,-0.034187,-0.224158004,0.514869988,-0.049109999,-0.005253,0.160341993,0.249044999,0.193788007,0.266223013,-0.039483,-0.246463999,0.226201996,-0.096959002,0.157262996,0.063768998,0.276850998,-0.075159997,0.429412007,0.106969997,-0.397612989,0.321121007,-0.336750001,-0.164516002,0.414582014,0.372610003,0.283491999,0.462980986,-0.414763987,-0.111138999,0.164359003,-0.133632004,0.092189997,0.34534201,-0.062374,0.234041005,0.330222994,-0.125769004,-0.348666996,0.199878007,-0.126077995,0.002949,-0.004197,0.212689996,0.14632,0.238359004,-0.073147997,0.441358,-0.178789005,0.158849001,0.025844,-0.021962,-0.335525006,-0.177305996,0.391781986,-0.165849,-0.317595989,0.030311,-0.280851007,0.14869,0.288711011,-0.170693994,-0.270245999,-0.272015005,-0.218741998,0.348868012,-0.502564013,0.616320014,-0.260497004,-0.130393997,0.410955012,0.228162006,-0.032625999,-0.393923014,0.118796997,-0.399066001,-0.175713003,0.38617,-0.225954995,0.379352987,0.382815987,-0.082088999,0.516707003,0.054216001,-0.599062026,0.382117987,0.385219008,0.027201001
地向,0.409942001,-0.056784999,0.231771007,-0.044438999,0.109982997,0.216606006,0.299291015,0.510608971,-0.041320998,1.671949029,-0.055534001,-0.101282001,-0.216673002,-0.138790995,0.620817006,0.311010987,0.539972007,-0.991753995,-0.061838999,0.027686,-0.042732999,0.497260988,0.083402999,-0.120507002,0.462379009,-0.140875995,0.218603,0.438124001,-0.223910004,0.601009011,-0.095408998,-0.246134996,-0.164739996,0.106555,0.146329001,0.913985014,-0.173832998,-0.416554987,-0.42515099,-0.503211975,0.117109999,-0.359470993,-0.712028027,-0.256321996,-1.034446955,-0.007601,-0.187324002,0.230753005,0.335988998,-0.488180012,-0.646535993,-0.607024014,0.078658998,-0.432262987,0.118926004,-1.115417004,0.507632017,-0.195702001,-1.169639945,1.053645015,-0.246408999,0.940110028,-0.016404999,-0.427556008,-0.330379009,0.142977998,-0.766834021,-0.236440003,-0.167471007,0.993528008,0.751542985,-0.231041998,0.181647003,0.076159,-0.369479001,-0.548354983,0.928528011,-0.271245986,0.586472988,-0.182004005,0.061489001,1.636500001,0.668168008,-0.327661008,0.334931999,-0.028597999,1.287106037,1.006016016,-0.529725015,-0.264741987,1.131592035,0.121622004,1.251817942,-0.401567012,0.111915,0.091711,-0.389858991,0.060743999,0.179500997,-0.688004971,0.50425297,-0.382039011,-0.020322001,0.999197006,-0.426851988,0.829284012,-0.616401017,1.151062965,-0.97181201,-0.055395,-0.513256013,-0.256446004,-0.001654,-0.266709,1.009745955,-0.515392005,0.589882016,-0.030997001,-0.283517987,-0.629339993,0.078869,0.538762987,0.403035998,0.318268001,0.044048999,0.204955995,0.097273,0.622295976,0.039345,-1.020707011,0.302217007,0.050110999,-0.144053996,0.342795998,0.014739,0.301907003,0.11417,-0.222441003,0.002436,-0.145141006,-0.336066008,0.455269009,-1.072993994,-1.465888977,0.982863009,0.135793999,0.114734001,0.189555004,-1.142249942,-0.442173988,-0.243071005,-1.123850942,-0.610062003,0.280514002,1.06169498,0.064340003,0.072710998,0.117861003,-0.350903004,-0.226512,0.467996001,-0.006436,-0.163936004,0.225638002,-0.309756994,-0.524767995,-0.572647989,0.155576006,0.599229991,0.040137,0.444757998,0.355197012,-0.42602399,-0.072792001,0.175594002,-0.38065201,-0.398510009,0.653436005,0.766048014,0.736707985,0.508924007,0.165097997,0.711991012,-1.166067004,-0.733047009,0.886649013,-0.318489999,-0.319297999,0.010559,-0.690916002,0.999562025,-0.110312,1.088696003,0.75829798,0.159597993,-0.996308982,0.114840999,0.021193,0.018215001,-0.723324001,0.140973002,0.304623008,-0.207241997,0.045281999,-0.113179997,0.477079988,0.176562995,-0.150985003,0.314698994,0.299221009,-0.706246018,0.692977011,0.271748006,-0.003814,0.792617023,-0.030045999,0.731751025,0.187702,-0.367603004,0.345025003,-0.00483,0.436136991,0.165599003,-0.007226,0.517334998,-0.123448998,-0.371219009,0.165319994,-0.021926999,-0.428656995,0.147073999,0.155168995,-0.143224001,0.441235989,-0.561803997,-0.030448999,-0.46776399,0.198442996,0.953867018,-0.26779899,-0.348426998,0.039202999,0.188528001,-0.323116988,-0.399636,0.220405996,-0.123770997,0.10125,-0.528886974,-0.642942011,0.117477998,0.883044004,-0.528168976,-0.483446985,-0.737285018,0.621051013,0.218481004,0.061866,-0.612425983,-0.210226998,-0.844819009,-0.986120999,0.341569006,-0.235466003,0.119535998,0.313226998,0.118648,-0.338640004,0.154128999,0.102724999,-0.394158989,0.097305,0.38628599,-0.812960029,0.621895015,0.048707999,1.247352004,-0.143888995,-0.673862994,0.570491016,0.055087999,0.565186024,0.213358,1.017336011,0.570828021,0.160574004,0.101089001,0.085666001,0.483278006,-0.147589996,0.333431005,-0.50068599,0.853186011,0.118735999,0.515344977,-0.509330988,0.77483201,0.33336699,-0.082212001,-1.323163033,0.358013988,0.170800999,0.022428,-0.454447001,0.789978027,0.084627002,0.058074001,0.398472011,0.70589298,0.494830996,-0.326115996,0.082125001,0.794202983,0.657648981,-0.200681999,-0.160499007,0.191548005,-0.082399003,-1.146723032,-1.019585013,-0.115717001,0.214292005,0.114433996,0.804674983,-0.760209978,0.366510987,-0.449072987,-0.128786996,0.487435997,0.104999997,-0.545759976,0.245616004,0.632587016,1.543666005,-0.340972006,-0.763906002,0.168913007,0.374035001,-0.659373999,0.422461987,-0.119177997,-0.339920998,1.087986946,-0.376843005,0.289934009,0.105723999,-0.034515001,-0.085369997,-0.104863003,-0.998093009,-0.638489008,0.845670998,-0.521216989,0.98804301,-0.310180992,-0.207702994,0.416565001,-0.862522006,0.180419996,-0.320890993,0.127421007,0.338402003,-0.079057999,0.308169991,-0.152498007,-0.971837997,0.575168014,0.801946998,0.280371994,1.530908942,0.548891008,0.487614989,-0.028785,0.324607015,0.543169975,0.344058007,0.609233975,-0.865962029,-0.170552999,0.293522,-0.214815006,-0.607582986,-0.284534991,0.514970005,0.037276,0.335909992,-0.739784002,0.782187998,-1.161877036,0.075994998,0.044314001,1.230625987,1.058015943,-0.013533,0.256572008,0.119168997,-0.459333003,-0.039494999,-0.554993987,-0.284943014,板,0.409942001,-0.056784999,0.231771007,-0.044438999,0.109982997,0.216606006,0.299291015,0.510608971,-0.041320998,1.671949029,-0.055534001,-0.101282001,-0.216673002,-0.138790995,0.620817006,0.311010987,0.539972007,-0.991753995,-0.061838999,0.027686,-0.042732999,0.497260988,0.083402999,-0.120507002,0.462379009,-0.140875995,0.218603,0.438124001,-0.223910004,0.601009011,-0.095408998,-0.246134996,-0.164739996,0.106555,0.146329001,0.913985014,-0.173832998,-0.416554987,-0.42515099,-0.503211975,0.117109999,-0.359470993,-0.712028027,-0.256321996,-1.034446955,-0.007601,-0.187324002,0.230753005,0.335988998,-0.488180012,-0.646535993,-0.607024014,0.078658998,-0.432262987,0.118926004,-1.115417004,0.507632017,-0.195702001,-1.169639945,1.053645015,-0.246408999,0.940110028,-0.016404999,-0.427556008,-0.330379009,0.142977998,-0.766834021,-0.236440003,-0.167471007,0.993528008,0.751542985,-0.231041998,0.181647003,0.076159,-0.369479001,-0.548354983,0.928528011,-0.271245986,0.586472988,-0.182004005,0.061489001,1.636500001,0.668168008,-0.327661008,0.334931999,-0.028597999,1.287106037,1.006016016,-0.529725015,-0.264741987,1.131592035,0.121622004,1.251817942,-0.401567012,0.111915,0.091711,-0.389858991,0.060743999,0.179500997,-0.688004971,0.50425297,-0.382039011,-0.020322001,0.999197006,-0.426851988,0.829284012,-0.616401017,1.151062965,-0.97181201,-0.055395,-0.513256013,-0.256446004,-0.001654,-0.266709,1.009745955,-0.515392005,0.589882016,-0.030997001,-0.283517987,-0.629339993,0.078869,0.538762987,0.403035998,0.318268001,0.044048999,0.204955995,0.097273,0.622295976,0.039345,-1.020707011,0.302217007,0.050110999,-0.144053996,0.342795998,0.014739,0.301907003,0.11417,-0.222441003,0.002436,-0.145141006,-0.336066008,0.455269009,-1.072993994,-1.465888977,0.982863009,0.135793999,0.114734001,0.189555004,-1.142249942,-0.442173988,-0.243071005,-1.123850942,-0.610062003,0.280514002,1.06169498,0.064340003,0.072710998,0.117861003,-0.350903004,-0.226512,0.467996001,-0.006436,-0.163936004,0.225638002,-0.309756994,-0.524767995,-0.572647989,0.155576006,0.599229991,0.040137,0.444757998,0.355197012,-0.42602399,-0.072792001,0.175594002,-0.38065201,-0.398510009,0.653436005,0.766048014,0.736707985,0.508924007,0.165097997,0.711991012,-1.166067004,-0.733047009,0.886649013,-0.318489999,-0.319297999,0.010559,-0.690916002,0.999562025,-0.110312,1.088696003,0.75829798,0.159597993,-0.996308982,0.114840999,0.021193,0.018215001,-0.723324001,0.140973002,0.304623008,-0.207241997,0.045281999,-0.113179997,0.477079988,0.176562995,-0.150985003,0.314698994,0.299221009,-0.706246018,0.692977011,0.271748006,-0.003814,0.792617023,-0.030045999,0.731751025,0.187702,-0.367603004,0.345025003,-0.00483,0.436136991,0.165599003,-0.007226,0.517334998,-0.123448998,-0.371219009,0.165319994,-0.021926999,-0.428656995,0.147073999,0.155168995,-0.143224001,0.441235989,-0.561803997,-0.030448999,-0.46776399,0.198442996,0.953867018,-0.26779899,-0.348426998,0.039202999,0.188528001,-0.323116988,-0.399636,0.220405996,-0.123770997,0.10125,-0.528886974,-0.642942011,0.117477998,0.883044004,-0.528168976,-0.483446985,-0.737285018,0.621051013,0.218481004,0.061866,-0.612425983,-0.210226998,-0.844819009,-0.986120999,0.341569006,-0.235466003,0.119535998,0.313226998,0.118648,-0.338640004,0.154128999,0.102724999,-0.394158989,0.097305,0.38628599,-0.812960029,0.621895015,0.048707999,1.247352004,-0.143888995,-0.673862994,0.570491016,0.055087999,0.565186024,0.213358,1.017336011,0.570828021,0.160574004,0.101089001,0.085666001,0.483278006,-0.147589996,0.333431005,-0.50068599,0.853186011,0.118735999,0.515344977,-0.509330988,0.77483201,0.33336699,-0.082212001,-1.323163033,0.358013988,0.170800999,0.022428,-0.454447001,0.789978027,0.084627002,0.058074001,0.398472011,0.70589298,0.494830996,-0.326115996,0.082125001,0.794202983,0.657648981,-0.200681999,-0.160499007,0.191548005,-0.082399003,-1.146723032,-1.019585013,-0.115717001,0.214292005,0.114433996,0.804674983,-0.760209978,0.366510987,-0.449072987,-0.128786996,0.487435997,0.104999997,-0.545759976,0.245616004,0.632587016,1.543666005,-0.340972006,-0.763906002,0.168913007,0.374035001,-0.659373999,0.422461987,-0.119177997,-0.339920998,1.087986946,-0.376843005,0.289934009,0.105723999,-0.034515001,-0.085369997,-0.104863003,-0.998093009,-0.638489008,0.845670998,-0.521216989,0.98804301,-0.310180992,-0.207702994,0.416565001,-0.862522006,0.180419996,-0.320890993,0.127421007,0.338402003,-0.079057999,0.308169991,-0.152498007,-0.971837997,0.575168014,0.801946998,0.280371994,1.530908942,0.548891008,0.487614989,-0.028785,0.324607015,0.543169975,0.344058007,0.609233975,-0.865962029,-0.170552999,0.293522,-0.214815006,-0.607582986,-0.284534991,0.514970005,0.037276,0.335909992,-0.739784002,0.782187998,-1.161877036,0.075994998,0.044314001,1.230625987,1.058015943,-0.013533,0.256572008,0.119168997,-0.459333003,-0.039494999,-0.554993987,-0.284943014
机动,-1.234930038,0.223067001,1.064257979,-1.091331005,-0.558806002,-0.351518005,-0.19991,-1.068349957,1.459326029,-0.109104998,-0.505679011,-0.83078301,0.049173001,-0.607652009,-0.358886987,0.83088702,1.226490021,-1.298591018,-1.62589097,-0.495252997,-0.232464999,0.370902985,-0.082281001,-1.412361979,-1.942492962,-1.178027034,-1.026520014,-0.346610993,-0.211803004,-0.316767007,-0.171287999,-2.198421955,0.63122499,0.234274,-0.476844996,0.037443999,-0.298749,-0.168937996,0.736662984,-0.320618004,-0.287364006,-1.362673998,0.693527997,1.384626031,-0.274533004,0.907019019,0.066086002,-0.388139009,0.335622996,-0.400658011,-0.296438009,-0.00226,0.038454,-0.106448002,-1.370493054,0.844246984,-0.022747001,0.784814,0.282546014,0.842263997,-0.556958973,-1.082949042,-1.24515903,1.162042022,0.580395997,-0.890293002,2.203737974,-1.21329999,-0.402635992,-0.734907985,-1.052206993,0.077651002,-0.190137997,0.584591985,-1.956264973,2.03165102,-1.368337989,0.975453019,-0.739439011,1.241179943,0.332800001,-1.218122959,1.501363993,0.232771993,1.017204046,0.120770998,-0.738592029,-0.971017003,0.507824004,-0.792042017,1.406144977,-0.351689994,0.766828001,1.639579058,-0.21943,-0.216857001,-1.673342943,0.762019992,1.392114043,-0.819077015,1.47776103,0.117293999,0.840062976,0.098195001,-0.981831014,0.893818974,-0.297717005,-0.540081024,0.156645,1.860020041,0.580350995,1.338413954,-0.844708979,0.790941,-0.609954,1.096004009,-0.593829989,-0.544031978,-0.175298005,1.124411941,0.259972006,-0.949786007,0.385255009,-0.420733988,0.230528995,-1.068840027,0.285261005,-0.005087,-0.935688019,1.171316981,-0.323902011,-1.284031034,0.014759,2.871632099,-0.009525,1.17317605,-0.154789999,0.756873012,-0.636868,0.342334986,0.297592014,0.377573013,-1.698480964,-0.372132987,-0.192690998,-0.621869028,-0.007452,2.067421913,-0.385306001,0.266723007,-0.019897999,-1.794846058,0.076742999,0.974180996,-1.445134997,0.103063002,1.370733023,-0.615109026,-0.343172997,-0.915266991,-1.11590004,-1.05578804,-0.622201025,0.083664,1.692857027,-1.115352035,0.314714015,-1.18709898,-0.190274999,-0.275296986,-0.046177,-0.308867991,1.002032042,-1.359038949,-0.807884991,-0.769218028,-0.153889999,-1.202921033,-0.95352298,1.814118028,-0.398887008,-0.32100901,0.54420203,-1.044250011,-1.335657001,1.742118955,1.148357987,-0.074885003,-1.311911941,-0.166216999,-1.248098969,0.180641994,0.524977982,0.617918015,-0.241191,-1.104418039,1.828093052,2.218194008,-1.006168008,-0.575667977,1.314720988,1.205221057,0.734979987,-0.392352015,0.651777029,-0.888458014,-0.016907001,-0.238455996,-0.125456005,-0.226175994,-0.653313994,-1.069661975,-0.401650012,-2.435488939,-0.019507,0.204923004,0.166875005,0.994370997,-1.479081035,-0.355558991,1.122506022,-1.309412956,-1.935575962,0.657909989,1.404193997,-0.727903008,0.297345996,-1.130148053,1.735173941,-1.766775966,-0.352791011,-0.076122999,-0.944607973,-2.319972992,0.267071992,1.342815995,-0.760919988,0.056786999,-0.452881008,0.160697997,-0.013369,-0.777324975,-0.740221024,-0.507430971,-0.997583985,1.642284989,0.927546024,0.699759007,0.842948973,-0.758466005,0.456946999,-1.331118941,-0.325803012,0.897489011,0.281379014,-0.477485001,0.524646997,0.876392007,1.675037026,-1.510182023,2.005829096,-0.661199987,1.532721996,0.780821025,-2.180659056,0.363231003,-2.045655012,-0.510589004,-0.774416983,-1.039000034,1.508262038,-1.169720054,0.227694005,0.998369992,-3.06734395,0.628139019,-0.340638995,-1.735311031,-0.974303007,0.141652003,1.271438956,-0.304210007,0.321209997,-2.564215899,-0.993044019,0.013656,0.233182997,0.900453985,-0.696412981,-0.788671017,1.347913027,-0.162542999,-0.419218987,0.632082999,1.193004966,0.136736006,0.082470998,0.978178978,-0.474418998,-0.980939984,-1.698652983,-0.145892993,-2.017925024,-1.166968942,1.118739009,2.215220928,0.755930007,-1.390107036,-1.16089201,-0.844947994,-0.597687006,-0.676976025,-1.300276995,-0.865926027,-0.709734023,0.640972018,-0.196409002,0.203773007,-0.041271001,-0.803062975,-1.929546952,-0.294566005,-1.614827991,-0.583990991,-0.750985026,-1.731680036,0.384101987,-1.181396008,0.742708981,1.969377041,1.363757014,-0.685624003,-1.155626059,-1.252184987,0.383249015,-0.649196029,-0.736003995,-0.201006994,1.258425951,-3.238400936,1.127539992,-1.225757957,0.669808984,0.504841983,-1.948948026,-0.669921994,0.715879977,-0.666383028,0.226131007,-0.739144981,-0.900689006,0.196779996,2.16001296,0.502324998,0.051162001,-0.654561996,3.616683006,-0.154379994,1.499395013,-1.219907999,0.238253996,0.360403001,1.074527025,0.109580003,-2.271428108,0.741005003,-0.380207002,-0.861496985,-0.764963984,2.221466064,0.267230988,-0.000195,-0.716786981,0.41881299,-0.354018003,1.202875018,-0.346935004,-0.216544002,-2.48833704,-0.246871993,0.118056998,1.70282495,0.077454001,-0.502236009,1.54815805,-0.947853029,-1.09699595,-1.882495999,-1.576146007,0.261341006,0.851215005,3.222553968,1.299271941,-0.617684007,0.213161007,-0.941156983,-1.288938046,0.402622998,-1.715664983,2.144579887,哄,-1.234930038,0.223067001,1.064257979,-1.091331005,-0.558806002,-0.351518005,-0.19991,-1.068349957,1.459326029,-0.109104998,-0.505679011,-0.83078301,0.049173001,-0.607652009,-0.358886987,0.83088702,1.226490021,-1.298591018,-1.62589097,-0.495252997,-0.232464999,0.370902985,-0.082281001,-1.412361979,-1.942492962,-1.178027034,-1.026520014,-0.346610993,-0.211803004,-0.316767007,-0.171287999,-2.198421955,0.63122499,0.234274,-0.476844996,0.037443999,-0.298749,-0.168937996,0.736662984,-0.320618004,-0.287364006,-1.362673998,0.693527997,1.384626031,-0.274533004,0.907019019,0.066086002,-0.388139009,0.335622996,-0.400658011,-0.296438009,-0.00226,0.038454,-0.106448002,-1.370493054,0.844246984,-0.022747001,0.784814,0.282546014,0.842263997,-0.556958973,-1.082949042,-1.24515903,1.162042022,0.580395997,-0.890293002,2.203737974,-1.21329999,-0.402635992,-0.734907985,-1.052206993,0.077651002,-0.190137997,0.584591985,-1.956264973,2.03165102,-1.368337989,0.975453019,-0.739439011,1.241179943,0.332800001,-1.218122959,1.501363993,0.232771993,1.017204046,0.120770998,-0.738592029,-0.971017003,0.507824004,-0.792042017,1.406144977,-0.351689994,0.766828001,1.639579058,-0.21943,-0.216857001,-1.673342943,0.762019992,1.392114043,-0.819077015,1.47776103,0.117293999,0.840062976,0.098195001,-0.981831014,0.893818974,-0.297717005,-0.540081024,0.156645,1.860020041,0.580350995,1.338413954,-0.844708979,0.790941,-0.609954,1.096004009,-0.593829989,-0.544031978,-0.175298005,1.124411941,0.259972006,-0.949786007,0.385255009,-0.420733988,0.230528995,-1.068840027,0.285261005,-0.005087,-0.935688019,1.171316981,-0.323902011,-1.284031034,0.014759,2.871632099,-0.009525,1.17317605,-0.154789999,0.756873012,-0.636868,0.342334986,0.297592014,0.377573013,-1.698480964,-0.372132987,-0.192690998,-0.621869028,-0.007452,2.067421913,-0.385306001,0.266723007,-0.019897999,-1.794846058,0.076742999,0.974180996,-1.445134997,0.103063002,1.370733023,-0.615109026,-0.343172997,-0.915266991,-1.11590004,-1.05578804,-0.622201025,0.083664,1.692857027,-1.115352035,0.314714015,-1.18709898,-0.190274999,-0.275296986,-0.046177,-0.308867991,1.002032042,-1.359038949,-0.807884991,-0.769218028,-0.153889999,-1.202921033,-0.95352298,1.814118028,-0.398887008,-0.32100901,0.54420203,-1.044250011,-1.335657001,1.742118955,1.148357987,-0.074885003,-1.311911941,-0.166216999,-1.248098969,0.180641994,0.524977982,0.617918015,-0.241191,-1.104418039,1.828093052,2.218194008,-1.006168008,-0.575667977,1.314720988,1.205221057,0.734979987,-0.392352015,0.651777029,-0.888458014,-0.016907001,-0.238455996,-0.125456005,-0.226175994,-0.653313994,-1.069661975,-0.401650012,-2.435488939,-0.019507,0.204923004,0.166875005,0.994370997,-1.479081035,-0.355558991,1.122506022,-1.309412956,-1.935575962,0.657909989,1.404193997,-0.727903008,0.297345996,-1.130148053,1.735173941,-1.766775966,-0.352791011,-0.076122999,-0.944607973,-2.319972992,0.267071992,1.342815995,-0.760919988,0.056786999,-0.452881008,0.160697997,-0.013369,-0.777324975,-0.740221024,-0.507430971,-0.997583985,1.642284989,0.927546024,0.699759007,0.842948973,-0.758466005,0.456946999,-1.331118941,-0.325803012,0.897489011,0.281379014,-0.477485001,0.524646997,0.876392007,1.675037026,-1.510182023,2.005829096,-0.661199987,1.532721996,0.780821025,-2.180659056,0.363231003,-2.045655012,-0.510589004,-0.774416983,-1.039000034,1.508262038,-1.169720054,0.227694005,0.998369992,-3.06734395,0.628139019,-0.340638995,-1.735311031,-0.974303007,0.141652003,1.271438956,-0.304210007,0.321209997,-2.564215899,-0.993044019,0.013656,0.233182997,0.900453985,-0.696412981,-0.788671017,1.347913027,-0.162542999,-0.419218987,0.632082999,1.193004966,0.136736006,0.082470998,0.978178978,-0.474418998,-0.980939984,-1.698652983,-0.145892993,-2.017925024,-1.166968942,1.118739009,2.215220928,0.755930007,-1.390107036,-1.16089201,-0.844947994,-0.597687006,-0.676976025,-1.300276995,-0.865926027,-0.709734023,0.640972018,-0.196409002,0.203773007,-0.041271001,-0.803062975,-1.929546952,-0.294566005,-1.614827991,-0.583990991,-0.750985026,-1.731680036,0.384101987,-1.181396008,0.742708981,1.969377041,1.363757014,-0.685624003,-1.155626059,-1.252184987,0.383249015,-0.649196029,-0.736003995,-0.201006994,1.258425951,-3.238400936,1.127539992,-1.225757957,0.669808984,0.504841983,-1.948948026,-0.669921994,0.715879977,-0.666383028,0.226131007,-0.739144981,-0.900689006,0.196779996,2.16001296,0.502324998,0.051162001,-0.654561996,3.616683006,-0.154379994,1.499395013,-1.219907999,0.238253996,0.360403001,1.074527025,0.109580003,-2.271428108,0.741005003,-0.380207002,-0.861496985,-0.764963984,2.221466064,0.267230988,-0.000195,-0.716786981,0.41881299,-0.354018003,1.202875018,-0.346935004,-0.216544002,-2.48833704,-0.246871993,0.118056998,1.70282495,0.077454001,-0.502236009,1.54815805,-0.947853029,-1.09699595,-1.882495999,-1.576146007,0.261341006,0.851215005,3.222553968,1.299271941,-0.617684007,0.213161007,-0.941156983,-1.288938046,0.402622998,-1.715664983,2.144579887
枢轴,-0.338869005,0.055048,0.149271995,0.016081,0.264393985,0.054940999,0.100615002,-0.026141999,0.114042997,0.087663002,-0.067492999,-0.119473003,-0.299270004,0.077830002,-0.399161011,-0.216175005,0.033390999,-0.052903,-0.073215999,-0.138919994,-0.154934004,-0.135358006,-0.092292003,0.034345001,-0.159774005,-0.005715,-0.200529993,0.230173007,-0.108599,0.195024997,-0.290596992,-0.112525001,-0.141637996,-0.068291999,0.065040998,0.117544003,-0.027763,0.10571,0.287135988,-0.114054002,0.080192998,-0.241692007,-0.268267989,0.123833999,0.166896001,0.102519996,-0.056988999,0.010424,0.098700002,0.250916988,0.039328001,0.026538,-0.009798,0.065924004,-0.210966006,0.104911,0.056313999,-0.092840999,-0.053541999,0.233522996,-0.170698002,0.193663001,-0.253324986,-0.144593999,-0.107670002,0.060182001,-0.111420996,-0.076374002,0.323276997,-0.128330007,-0.39162901,-0.031968001,0.079383999,0.172486007,-0.046491999,0.145900995,0.244261995,-0.048186,-0.130793005,0.190547004,0.078870997,0.048494,0.013625,0.0208,-0.029003,-0.100823998,-0.083570004,-0.185403004,0.071121998,-0.115665004,-0.024267999,0.245723993,0.093635,0.326494008,-0.037666,0.102159999,0.00699,0.021916,-0.085073002,0.152225003,0.078046001,-0.091669001,-0.015096,0.187043995,-0.085247003,0.112216003,0.068109997,-0.085325003,0.011145,0.007325,-0.256693006,-0.335038006,0.120076001,-0.287339985,-0.148433,-0.036966,-0.018391,0.048106,0.035432,0.357573986,0.004776,-0.054171,-0.066693999,-0.118908003,0.128130004,0.142260998,-0.013618,-0.168916002,0.092701003,-0.062063001,0.210253999,-0.097033001,-0.379786015,0.144418001,-0.224974006,0.021862,0.023295,-0.110459998,0.028889,0.023752,0.127667993,-0.202589005,0.026286,0.228376999,0.225468993,0.076550998,-0.018718001,-0.023362,-0.041471001,-0.093947001,0.161524996,-0.163479,0.101402998,-0.022738,0.021508999,-0.136121005,0.072177999,-0.122530997,-0.247906998,0.138022006,-0.12133,-0.295625001,-0.066238001,-0.154393002,-0.142932996,-0.063656002,0.265733987,-0.123493999,-0.26669699,-0.315445989,0.100883,-0.130888,0.002958,-0.028388999,0.073117003,0.364255995,-0.061314002,0.081903003,0.034309998,0.296967,-0.170482993,0.346448004,-0.105301999,-0.074780002,0.104381002,0.000442,0.177956998,0.046500001,0.142434999,-0.047063001,0.163176998,0.182064995,0.161173999,0.082658,-0.157144994,-0.038261998,0.270384014,0.048021998,0.01912,0.171967,-0.01365,0.016069001,-0.086975999,0.230407,-0.140982002,0.071358003,0.339547008,-0.00434,-0.250797004,0.308210999,0.107533,-0.254940003,0.35068199,0.067849003,0.178047001,-0.031647999,0.04318,-0.089189999,0.174637005,-0.202228993,0.008367,-0.008203,0.063129999,0.077018,-0.124022,-0.181123003,0.179585993,-0.263150007,0.213811994,0.096239999,0.094062999,0.163170993,-0.093350999,-0.220531002,0.025694,0.020382,-0.266447991,-0.160547003,-0.030926,0.026943,-0.089672998,0.229300007,-0.004625,0.217562005,0.060105,0.086263001,0.055702001,0.221458003,-0.302356988,0.154044002,-0.173466995,0.102558002,0.304358006,0.304118007,-0.268815994,0.181073993,0.073457003,0.102121003,0.172255993,0.164829999,0.112641998,-0.151259005,-0.102002002,0.010126,0.012555,-0.440430999,-0.179208994,0.145205006,-0.102068998,0.077490002,-0.056428,-0.140217006,-0.045501001,0.061083,-0.102711998,0.257858992,-0.169348001,-0.265383005,0.158066005,-0.058166001,0.023724999,0.134775996,0.128573,0.046037,-0.206885993,0.051658999,-0.128090993,-0.303178012,-0.234730005,0.097274996,0.095132001,0.023194,0.001011,-0.218342006,0.108599998,-0.141938001,0.078919001,0.099327996,0.359793991,-0.122170001,0.053805999,0.000303,-0.041825,-0.185863003,0.128042996,0.158433005,-0.420563012,-0.062153,-0.360707015,-0.013854,-0.153916001,-0.192635,-0.004155,-0.246813998,-0.000146,0.110017002,-0.085091002,0.002273,0.116811,0.322252989,0.258174986,-0.149829,-0.210995004,-0.249596,-0.066857003,0.021008,0.011346,-0.353413999,0.246564999,0.153073996,0.147674993,-0.017295999,-0.124301001,-0.082618997,0.248131007,-0.102843001,-0.271028996,0.132145002,0.009468,-0.04408,0.003264,0.059795,0.093740001,0.00791,-0.037051,-0.199706003,-0.144053996,0.188870996,0.019755,-0.079515003,-0.028061001,0.071252003,-0.160016,-0.183318004,-0.013679,-0.105342999,0.108961999,0.238069996,0.151387006,0.258655995,-0.055528,-0.129320994,0.109797999,0.247912005,-0.291727006,-0.343807012,0.075204,-0.158609003,-0.067819998,0.057788,-0.271887004,-0.174062997,-0.201123998,0.082910001,-0.480832994,-0.019859999,-0.265944988,-0.055578999,-0.217709005,0.311264008,-0.029072,-0.086191997,0.230110005,0.114399999,-0.381442994,-0.068898998,0.093987003,-0.050110001,-0.142752007,-0.02723,0.040660001,-0.312660009,-0.061508,-0.118294999,-0.166746005,-0.044216,-0.020265,0.089729004,0.114840001,0.031074001,㈣酱,-0.338869005,0.055048,0.149271995,0.016081,0.264393985,0.054940999,0.100615002,-0.026141999,0.114042997,0.087663002,-0.067492999,-0.119473003,-0.299270004,0.077830002,-0.399161011,-0.216175005,0.033390999,-0.052903,-0.073215999,-0.138919994,-0.154934004,-0.135358006,-0.092292003,0.034345001,-0.159774005,-0.005715,-0.200529993,0.230173007,-0.108599,0.195024997,-0.290596992,-0.112525001,-0.141637996,-0.068291999,0.065040998,0.117544003,-0.027763,0.10571,0.287135988,-0.114054002,0.080192998,-0.241692007,-0.268267989,0.123833999,0.166896001,0.102519996,-0.056988999,0.010424,0.098700002,0.250916988,0.039328001,0.026538,-0.009798,0.065924004,-0.210966006,0.104911,0.056313999,-0.092840999,-0.053541999,0.233522996,-0.170698002,0.193663001,-0.253324986,-0.144593999,-0.107670002,0.060182001,-0.111420996,-0.076374002,0.323276997,-0.128330007,-0.39162901,-0.031968001,0.079383999,0.172486007,-0.046491999,0.145900995,0.244261995,-0.048186,-0.130793005,0.190547004,0.078870997,0.048494,0.013625,0.0208,-0.029003,-0.100823998,-0.083570004,-0.185403004,0.071121998,-0.115665004,-0.024267999,0.245723993,0.093635,0.326494008,-0.037666,0.102159999,0.00699,0.021916,-0.085073002,0.152225003,0.078046001,-0.091669001,-0.015096,0.187043995,-0.085247003,0.112216003,0.068109997,-0.085325003,0.011145,0.007325,-0.256693006,-0.335038006,0.120076001,-0.287339985,-0.148433,-0.036966,-0.018391,0.048106,0.035432,0.357573986,0.004776,-0.054171,-0.066693999,-0.118908003,0.128130004,0.142260998,-0.013618,-0.168916002,0.092701003,-0.062063001,0.210253999,-0.097033001,-0.379786015,0.144418001,-0.224974006,0.021862,0.023295,-0.110459998,0.028889,0.023752,0.127667993,-0.202589005,0.026286,0.228376999,0.225468993,0.076550998,-0.018718001,-0.023362,-0.041471001,-0.093947001,0.161524996,-0.163479,0.101402998,-0.022738,0.021508999,-0.136121005,0.072177999,-0.122530997,-0.247906998,0.138022006,-0.12133,-0.295625001,-0.066238001,-0.154393002,-0.142932996,-0.063656002,0.265733987,-0.123493999,-0.26669699,-0.315445989,0.100883,-0.130888,0.002958,-0.028388999,0.073117003,0.364255995,-0.061314002,0.081903003,0.034309998,0.296967,-0.170482993,0.346448004,-0.105301999,-0.074780002,0.104381002,0.000442,0.177956998,0.046500001,0.142434999,-0.047063001,0.163176998,0.182064995,0.161173999,0.082658,-0.157144994,-0.038261998,0.270384014,0.048021998,0.01912,0.171967,-0.01365,0.016069001,-0.086975999,0.230407,-0.140982002,0.071358003,0.339547008,-0.00434,-0.250797004,0.308210999,0.107533,-0.254940003,0.35068199,0.067849003,0.178047001,-0.031647999,0.04318,-0.089189999,0.174637005,-0.202228993,0.008367,-0.008203,0.063129999,0.077018,-0.124022,-0.181123003,0.179585993,-0.263150007,0.213811994,0.096239999,0.094062999,0.163170993,-0.093350999,-0.220531002,0.025694,0.020382,-0.266447991,-0.160547003,-0.030926,0.026943,-0.089672998,0.229300007,-0.004625,0.217562005,0.060105,0.086263001,0.055702001,0.221458003,-0.302356988,0.154044002,-0.173466995,0.102558002,0.304358006,0.304118007,-0.268815994,0.181073993,0.073457003,0.102121003,0.172255993,0.164829999,0.112641998,-0.151259005,-0.102002002,0.010126,0.012555,-0.440430999,-0.179208994,0.145205006,-0.102068998,0.077490002,-0.056428,-0.140217006,-0.045501001,0.061083,-0.102711998,0.257858992,-0.169348001,-0.265383005,0.158066005,-0.058166001,0.023724999,0.134775996,0.128573,0.046037,-0.206885993,0.051658999,-0.128090993,-0.303178012,-0.234730005,0.097274996,0.095132001,0.023194,0.001011,-0.218342006,0.108599998,-0.141938001,0.078919001,0.099327996,0.359793991,-0.122170001,0.053805999,0.000303,-0.041825,-0.185863003,0.128042996,0.158433005,-0.420563012,-0.062153,-0.360707015,-0.013854,-0.153916001,-0.192635,-0.004155,-0.246813998,-0.000146,0.110017002,-0.085091002,0.002273,0.116811,0.322252989,0.258174986,-0.149829,-0.210995004,-0.249596,-0.066857003,0.021008,0.011346,-0.353413999,0.246564999,0.153073996,0.147674993,-0.017295999,-0.124301001,-0.082618997,0.248131007,-0.102843001,-0.271028996,0.132145002,0.009468,-0.04408,0.003264,0.059795,0.093740001,0.00791,-0.037051,-0.199706003,-0.144053996,0.188870996,0.019755,-0.079515003,-0.028061001,0.071252003,-0.160016,-0.183318004,-0.013679,-0.105342999,0.108961999,0.238069996,0.151387006,0.258655995,-0.055528,-0.129320994,0.109797999,0.247912005,-0.291727006,-0.343807012,0.075204,-0.158609003,-0.067819998,0.057788,-0.271887004,-0.174062997,-0.201123998,0.082910001,-0.480832994,-0.019859999,-0.265944988,-0.055578999,-0.217709005,0.311264008,-0.029072,-0.086191997,0.230110005,0.114399999,-0.381442994,-0.068898998,0.093987003,-0.050110001,-0.142752007,-0.02723,0.040660001,-0.312660009,-0.061508,-0.118294999,-0.166746005,-0.044216,-0.020265,0.089729004,0.114840001,0.031074001
相对,-0.838786006,3.146809101,1.527544022,1.516294003,-0.067975998,0.257679999,1.828575969,-1.22615397,-0.558672011,0.355654001,-0.121164002,-0.450076997,-2.274080992,-0.637194991,0.226284996,-0.804957986,-0.012546,0.456286013,-0.032035001,-0.932145,-1.098305941,0.303413987,0.086119004,-0.312353998,2.181806087,0.255481005,0.35928899,0.402473003,-0.363398999,1.237089038,1.151857018,-0.148206994,0.538366973,-1.459370017,0.607940972,-0.588729024,0.116567999,-0.083710998,-0.392675996,1.716964006,-0.64130801,-0.110523999,-0.738102973,0.499668002,0.78224802,-0.006938,-0.357389987,-1.358173013,0.470245987,1.047055006,0.478309005,0.220556006,0.275220007,0.78183198,-1.001822948,-0.245599002,0.940539002,0.460065991,-1.69710505,1.283151031,0.049346,-1.276134014,1.647891998,-1.000440001,-1.195480943,0.293356001,-0.904175997,0.626012027,1.661175966,0.885329008,0.362029999,-0.957058012,0.54460299,1.352782965,-0.863192022,-0.52432698,2.762145042,-0.777621984,2.300421,0.155368999,-1.256171942,1.113387942,-0.598514974,0.319296002,1.60514605,0.952262998,1.58225596,-0.472481996,0.702926993,-1.387794018,0.365660995,-1.620383024,-1.742359042,2.021929026,0.419739991,-1.444964051,-1.449502945,1.963248014,0.548094988,0.402482003,0.184167996,2.151804924,-0.378066003,0.865580022,0.181771994,-0.704096973,1.275218964,1.320713043,-0.524649978,-0.398416996,2.61984396,-0.641586006,1.063879967,-0.810851991,1.505692005,1.190526962,0.495644987,0.106526002,-0.152740002,-0.707346022,0.778452992,-1.008795023,-0.451700985,0.080874003,0.133719996,0.297594011,-1.385622025,-0.805326998,2.419734001,0.566931009,0.531017005,0.048652999,-0.840833008,1.788125038,2.224591017,0.090204,0.814593971,0.254617006,0.727729023,0.314583004,1.355206966,-0.983044982,-1.169314027,-0.728219986,-0.567413986,-0.832408011,-0.207789004,0.102297999,-1.456604958,0.250955999,1.574429035,-1.090975046,-0.456939995,0.499514014,2.731060982,0.097039998,0.355987996,-0.322461009,-0.240366995,-1.295750976,-0.610014975,-1.961022973,1.399253964,-1.105015039,-0.280840993,0.736845016,-1.801072001,-0.966009021,-1.830924034,0.255192995,-0.369571,-1.177631974,1.375987053,1.959349036,-0.194279,0.653029978,1.17602098,0.823472977,-0.029451,1.35156405,0.224868998,1.269544005,1.468940973,0.183819994,0.266000003,0.398968011,0.231121004,0.615786016,-0.894922018,1.09879899,0.421523988,-0.475850999,2.765073061,1.379626989,1.18552196,-0.440005004,-0.301710993,0.267286986,1.059978962,-0.619475007,-0.822798014,-0.575223029,-1.062463999,-0.711232007,-0.77680999,2.282114029,-0.391290992,1.269497991,-0.297899008,1.002938032,-0.107052997,-1.271060944,1.104967952,-1.107759953,1.546535015,1.276240945,0.012225,1.272467971,-2.206047058,0.95617801,-1.338060975,1.050171018,2.109209061,0.982222974,-0.855901003,-0.794220984,0.014926,0.011926,-1.982377052,-1.389565945,-1.197955966,-0.207049996,-0.440750986,-0.891664028,1.989261985,0.487670988,-1.000833035,-1.186452985,-0.923493028,2.196096897,-0.061487999,-0.048822999,0.227630004,0.851706028,-0.564792991,-1.041111946,0.010748,-1.326894999,-1.484596014,-0.059843998,-1.462262988,0.944922984,0.573525012,0.619621992,0.01718,0.414144993,0.274232,-0.238802001,1.636708021,0.661269009,0.421169013,0.094099,-0.750455022,1.343407035,-0.952310979,-1.477838039,-2.429156065,1.175855994,0.337484002,0.177285001,1.332620025,-0.245988995,-0.578404009,0.608961999,1.223305941,1.492287993,-0.321137011,-1.133975029,-1.119325995,-0.639986992,-0.232975006,-2.064997911,0.403425992,-0.078086004,1.16181004,0.202813998,-0.646112025,-1.112365007,1.373000979,0.017127,-1.364199042,-1.005260944,-0.93848902,-1.942528009,2.101795912,0.38458699,0.184636995,1.287009001,-0.470393002,-2.328840971,-2.17248106,-0.434919,-1.235703945,0.611895978,-0.169844002,0.251401007,-0.691781998,0.050330002,-1.602671981,1.279139042,-0.554273009,-0.463919997,0.864832997,-0.356316,-0.934449971,2.291177988,-1.28787601,0.694944024,1.850924015,1.203166962,-0.511318982,0.349157006,-1.571535945,0.136188,-0.741820991,-0.578806996,-1.612447977,0.282949001,-0.583442986,0.320389003,0.251628995,-0.207268998,-1.205217004,-0.625585973,1.915014982,0.237540007,0.091769002,-0.453424007,-0.423994988,1.294788003,0.852370024,2.27156806,1.709527016,1.095643044,0.812044024,0.333027005,0.676635981,2.263320923,0.423272997,-1.86955595,0.813117981,-0.487875998,0.831129014,-0.435690999,-0.278447986,-0.327755988,0.180879995,-0.053817999,-1.56833601,-0.604426026,1.560639024,-2.202734947,0.125829995,-1.376682997,1.669533014,-1.975942016,-0.517916977,-0.864866018,0.358830005,-1.696259975,-0.699778974,0.871659994,-0.093248002,-0.328557998,-1.080325961,-2.020456076,-0.782881975,0.404186994,-0.541845977,-0.277774006,0.333361,1.774984956,0.919323981,0.176039994,2.034537077,-1.328431964,1.606560946,0.629141986,-0.302475005,0.543582022,2.345340967,0.901292026,0.544764996,0.026822001,1.858538032,-0.568809986,1.942885995,-0.668327987,2.231132984,-0.34067899,稿,-0.838786006,3.146809101,1.527544022,1.516294003,-0.067975998,0.257679999,1.828575969,-1.22615397,-0.558672011,0.355654001,-0.121164002,-0.450076997,-2.274080992,-0.637194991,0.226284996,-0.804957986,-0.012546,0.456286013,-0.032035001,-0.932145,-1.098305941,0.303413987,0.086119004,-0.312353998,2.181806087,0.255481005,0.35928899,0.402473003,-0.363398999,1.237089038,1.151857018,-0.148206994,0.538366973,-1.459370017,0.607940972,-0.588729024,0.116567999,-0.083710998,-0.392675996,1.716964006,-0.64130801,-0.110523999,-0.738102973,0.499668002,0.78224802,-0.006938,-0.357389987,-1.358173013,0.470245987,1.047055006,0.478309005,0.220556006,0.275220007,0.78183198,-1.001822948,-0.245599002,0.940539002,0.460065991,-1.69710505,1.283151031,0.049346,-1.276134014,1.647891998,-1.000440001,-1.195480943,0.293356001,-0.904175997,0.626012027,1.661175966,0.885329008,0.362029999,-0.957058012,0.54460299,1.352782965,-0.863192022,-0.52432698,2.762145042,-0.777621984,2.300421,0.155368999,-1.256171942,1.113387942,-0.598514974,0.319296002,1.60514605,0.952262998,1.58225596,-0.472481996,0.702926993,-1.387794018,0.365660995,-1.620383024,-1.742359042,2.021929026,0.419739991,-1.444964051,-1.449502945,1.963248014,0.548094988,0.402482003,0.184167996,2.151804924,-0.378066003,0.865580022,0.181771994,-0.704096973,1.275218964,1.320713043,-0.524649978,-0.398416996,2.61984396,-0.641586006,1.063879967,-0.810851991,1.505692005,1.190526962,0.495644987,0.106526002,-0.152740002,-0.707346022,0.778452992,-1.008795023,-0.451700985,0.080874003,0.133719996,0.297594011,-1.385622025,-0.805326998,2.419734001,0.566931009,0.531017005,0.048652999,-0.840833008,1.788125038,2.224591017,0.090204,0.814593971,0.254617006,0.727729023,0.314583004,1.355206966,-0.983044982,-1.169314027,-0.728219986,-0.567413986,-0.832408011,-0.207789004,0.102297999,-1.456604958,0.250955999,1.574429035,-1.090975046,-0.456939995,0.499514014,2.731060982,0.097039998,0.355987996,-0.322461009,-0.240366995,-1.295750976,-0.610014975,-1.961022973,1.399253964,-1.105015039,-0.280840993,0.736845016,-1.801072001,-0.966009021,-1.830924034,0.255192995,-0.369571,-1.177631974,1.375987053,1.959349036,-0.194279,0.653029978,1.17602098,0.823472977,-0.029451,1.35156405,0.224868998,1.269544005,1.468940973,0.183819994,0.266000003,0.398968011,0.231121004,0.615786016,-0.894922018,1.09879899,0.421523988,-0.475850999,2.765073061,1.379626989,1.18552196,-0.440005004,-0.301710993,0.267286986,1.059978962,-0.619475007,-0.822798014,-0.575223029,-1.062463999,-0.711232007,-0.77680999,2.282114029,-0.391290992,1.269497991,-0.297899008,1.002938032,-0.107052997,-1.271060944,1.104967952,-1.107759953,1.546535015,1.276240945,0.012225,1.272467971,-2.206047058,0.95617801,-1.338060975,1.050171018,2.109209061,0.982222974,-0.855901003,-0.794220984,0.014926,0.011926,-1.982377052,-1.389565945,-1.197955966,-0.207049996,-0.440750986,-0.891664028,1.989261985,0.487670988,-1.000833035,-1.186452985,-0.923493028,2.196096897,-0.061487999,-0.048822999,0.227630004,0.851706028,-0.564792991,-1.041111946,0.010748,-1.326894999,-1.484596014,-0.059843998,-1.462262988,0.944922984,0.573525012,0.619621992,0.01718,0.414144993,0.274232,-0.238802001,1.636708021,0.661269009,0.421169013,0.094099,-0.750455022,1.343407035,-0.952310979,-1.477838039,-2.429156065,1.175855994,0.337484002,0.177285001,1.332620025,-0.245988995,-0.578404009,0.608961999,1.223305941,1.492287993,-0.321137011,-1.133975029,-1.119325995,-0.639986992,-0.232975006,-2.064997911,0.403425992,-0.078086004,1.16181004,0.202813998,-0.646112025,-1.112365007,1.373000979,0.017127,-1.364199042,-1.005260944,-0.93848902,-1.942528009,2.101795912,0.38458699,0.184636995,1.287009001,-0.470393002,-2.328840971,-2.17248106,-0.434919,-1.235703945,0.611895978,-0.169844002,0.251401007,-0.691781998,0.050330002,-1.602671981,1.279139042,-0.554273009,-0.463919997,0.864832997,-0.356316,-0.934449971,2.291177988,-1.28787601,0.694944024,1.850924015,1.203166962,-0.511318982,0.349157006,-1.571535945,0.136188,-0.741820991,-0.578806996,-1.612447977,0.282949001,-0.583442986,0.320389003,0.251628995,-0.207268998,-1.205217004,-0.625585973,1.915014982,0.237540007,0.091769002,-0.453424007,-0.423994988,1.294788003,0.852370024,2.27156806,1.709527016,1.095643044,0.812044024,0.333027005,0.676635981,2.263320923,0.423272997,-1.86955595,0.813117981,-0.487875998,0.831129014,-0.435690999,-0.278447986,-0.327755988,0.180879995,-0.053817999,-1.56833601,-0.604426026,1.560639024,-2.202734947,0.125829995,-1.376682997,1.669533014,-1.975942016,-0.517916977,-0.864866018,0.358830005,-1.696259975,-0.699778974,0.871659994,-0.093248002,-0.328557998,-1.080325961,-2.020456076,-0.782881975,0.404186994,-0.541845977,-0.277774006,0.333361,1.774984956,0.919323981,0.176039994,2.034537077,-1.328431964,1.606560946,0.629141986,-0.302475005,0.543582022,2.345340967,0.901292026,0.544764996,0.026822001,1.858538032,-0.568809986,1.942885995,-0.668327987,2.231132984,-0.34067899
自动,-0.664996982,1.048171043,-2.288583994,0.345757991,2.130100012,0.633188009,0.338454992,-0.170646995,-0.605397999,0.092873998,0.688955009,0.55686301,-0.043637,0.892588973,-0.232931003,0.315369993,0.569666982,-1.276520967,-0.161664993,-2.735479116,-0.571662009,0.044408001,1.229769945,-1.221760035,-0.938365996,1.16276598,-0.125798002,1.521535993,1.302109003,0.101709001,0.117463,-1.694774985,-0.376455009,-0.134343997,0.306695998,2.768899918,1.121263027,-1.065528989,-0.956845999,-1.905783057,-1.163321018,-0.301885992,-0.959164977,-0.801298976,1.163334966,0.385497004,0.356409013,-1.097597003,0.365886986,-0.218013003,1.026366949,-1.980196953,0.019819999,1.847561002,-0.812403023,0.28728199,0.876101017,-1.395881057,-1.748098016,1.744464993,-0.001835,0.126375005,-0.161576003,-1.183637023,1.119961977,0.623166025,-0.726091981,0.003044,0.094668999,-0.025403,-1.84385097,1.924003959,-0.581255019,-0.474480003,0.574602008,1.250844002,0.187564999,-0.59029001,-0.250200003,0.256639004,-0.165024996,-1.358795047,-1.465155005,0.692716002,0.44293499,-0.203712001,-1.253888011,-0.157765999,1.005622983,0.601522982,-1.426151991,0.237881005,0.808667004,0.688251972,0.066408001,-0.269576013,-2.80644393,1.364452958,-1.088685036,1.704458952,1.33436203,1.059599996,-0.212227002,-0.406039,-0.868332028,-0.106907003,0.537038982,-0.946947992,0.592317998,0.30656299,-0.10227,-1.437276959,-0.432792991,0.399486989,-0.618508995,0.795639992,-0.937907994,-1.028812051,0.739395976,-0.080472,-1.451671004,-0.650206029,-0.174419999,-1.65071702,0.828000009,0.739140987,1.693261981,0.218154997,-1.093247056,1.217141032,-2.185863972,-2.044063091,0.553758025,1.087324977,-0.694108009,0.338037997,-0.155956998,0.494827986,0.570784986,0.947755992,-0.990257025,0.041072,-0.128839999,-1.644548059,-0.339132011,-2.177261114,0.135406002,-1.084717035,0.882773995,-2.122025967,-0.743043005,-1.124143958,1.156469941,0.020872001,0.987967014,0.053695999,0.579701006,0.891775012,-1.005771995,1.023388982,-0.245222002,-2.701227903,1.126700044,0.038938001,-1.327142,1.028669953,-0.754526019,-0.273095012,-1.138525009,-1.418280959,-0.745240986,-0.959250987,1.881075025,0.506778002,0.182372004,1.399037957,2.897011042,1.259595037,0.790957987,2.544614077,-2.724919081,0.288093001,0.006697,0.181296006,0.667478025,-0.199700996,0.474422991,0.733448029,-0.75968498,-1.185068965,2.381939888,-0.276695997,1.414461017,-0.039611001,0.703761995,0.566586971,0.169916004,-0.748293996,0.61995697,-1.054123998,-0.351316988,-0.613506019,-1.042534947,-0.769869983,0.072259001,1.779881001,-1.159945965,-0.390188009,-0.203155994,1.847998023,0.146757007,0.771651983,-0.492846996,-0.379777998,0.992003977,0.754104972,0.313436002,-1.294041038,0.891449988,-1.428900957,-0.919485986,0.347131014,0.580139995,0.255836993,2.870601892,-0.493405014,0.006896,1.319507003,-0.47388199,0.565454006,0.133172005,-0.406248003,-1.15157795,0.511283994,1.674438953,-0.48338899,0.751794994,-0.771854997,-0.505387008,-1.663177013,-0.966035008,-0.045058999,-0.999248028,0.663697004,-1.853500009,-0.236763,-0.168320999,-0.302163988,0.829190016,0.923578978,-0.354882002,0.880185008,1.320731997,-0.280310988,-0.611617982,1.015756011,-0.293280005,-0.023221999,0.539309978,3.117624044,0.557976007,1.586380005,-0.307677001,-0.184863999,0.680956006,-3.353838921,1.567371964,-0.340461999,-2.23596096,-0.397661,1.393532038,-0.828981996,-0.086820997,-0.042810999,0.188982993,-1.065124989,-1.245139003,1.66178596,0.280779004,0.111662999,0.410614014,-0.147618994,0.615456998,-0.612986982,-0.79708302,0.300453007,-0.69242698,0.818112016,1.392498016,0.741640985,-1.873643994,1.484830976,-0.678606987,-1.037786961,0.40683201,0.555851996,0.639385998,1.579326034,2.360296965,-1.433315039,0.950577974,0.051782999,-0.221336007,-0.005787,-0.467175007,-1.757123947,1.67749095,-0.432011992,-1.099354029,-0.017806999,-2.984812021,0.357448995,1.151865005,-1.696125984,0.696868002,-0.198688,-0.256027997,-0.347070009,0.610481024,-0.887893975,0.651651978,1.314615011,-0.58494401,1.387227058,0.448341995,-0.292988986,0.758449018,-0.624283016,1.122840047,-0.528728008,0.97072798,0.213742003,-1.847666979,0.187035993,-0.732270002,-1.273008943,-1.246708035,1.435446024,-1.079921961,-0.657581985,-1.383914948,0.280979991,0.503697991,1.425035,0.139806002,-0.027522,-0.106582001,1.114590049,0.230400994,-0.187215,0.268067002,0.030469,-0.285474002,0.745581985,-0.771544993,0.568192005,2.244548082,2.304639101,-1.450392008,-0.263514012,-0.597725987,0.848102987,0.006002,-0.507699013,-1.623291969,-0.751461029,-0.270173997,-1.303483009,-0.317674994,-0.093739003,-1.101150036,0.33249101,0.663010001,0.341637999,1.130411983,-0.440066993,-1.695865989,-1.384490013,0.127247006,0.899039984,-1.47209096,0.327151001,2.1186409,1.12379396,-0.902163982,-0.455942005,-0.293350011,0.670958996,-3.177308083,0.494733006,-1.018100023,0.612887025,0.238223001,-1.024041057,-0.677137017,-1.982769966,-0.097375996,-0.271485001,0.357885987,0.779031992,,-0.664996982,1.048171043,-2.288583994,0.345757991,2.130100012,0.633188009,0.338454992,-0.170646995,-0.605397999,0.092873998,0.688955009,0.55686301,-0.043637,0.892588973,-0.232931003,0.315369993,0.569666982,-1.276520967,-0.161664993,-2.735479116,-0.571662009,0.044408001,1.229769945,-1.221760035,-0.938365996,1.16276598,-0.125798002,1.521535993,1.302109003,0.101709001,0.117463,-1.694774985,-0.376455009,-0.134343997,0.306695998,2.768899918,1.121263027,-1.065528989,-0.956845999,-1.905783057,-1.163321018,-0.301885992,-0.959164977,-0.801298976,1.163334966,0.385497004,0.356409013,-1.097597003,0.365886986,-0.218013003,1.026366949,-1.980196953,0.019819999,1.847561002,-0.812403023,0.28728199,0.876101017,-1.395881057,-1.748098016,1.744464993,-0.001835,0.126375005,-0.161576003,-1.183637023,1.119961977,0.623166025,-0.726091981,0.003044,0.094668999,-0.025403,-1.84385097,1.924003959,-0.581255019,-0.474480003,0.574602008,1.250844002,0.187564999,-0.59029001,-0.250200003,0.256639004,-0.165024996,-1.358795047,-1.465155005,0.692716002,0.44293499,-0.203712001,-1.253888011,-0.157765999,1.005622983,0.601522982,-1.426151991,0.237881005,0.808667004,0.688251972,0.066408001,-0.269576013,-2.80644393,1.364452958,-1.088685036,1.704458952,1.33436203,1.059599996,-0.212227002,-0.406039,-0.868332028,-0.106907003,0.537038982,-0.946947992,0.592317998,0.30656299,-0.10227,-1.437276959,-0.432792991,0.399486989,-0.618508995,0.795639992,-0.937907994,-1.028812051,0.739395976,-0.080472,-1.451671004,-0.650206029,-0.174419999,-1.65071702,0.828000009,0.739140987,1.693261981,0.218154997,-1.093247056,1.217141032,-2.185863972,-2.044063091,0.553758025,1.087324977,-0.694108009,0.338037997,-0.155956998,0.494827986,0.570784986,0.947755992,-0.990257025,0.041072,-0.128839999,-1.644548059,-0.339132011,-2.177261114,0.135406002,-1.084717035,0.882773995,-2.122025967,-0.743043005,-1.124143958,1.156469941,0.020872001,0.987967014,0.053695999,0.579701006,0.891775012,-1.005771995,1.023388982,-0.245222002,-2.701227903,1.126700044,0.038938001,-1.327142,1.028669953,-0.754526019,-0.273095012,-1.138525009,-1.418280959,-0.745240986,-0.959250987,1.881075025,0.506778002,0.182372004,1.399037957,2.897011042,1.259595037,0.790957987,2.544614077,-2.724919081,0.288093001,0.006697,0.181296006,0.667478025,-0.199700996,0.474422991,0.733448029,-0.75968498,-1.185068965,2.381939888,-0.276695997,1.414461017,-0.039611001,0.703761995,0.566586971,0.169916004,-0.748293996,0.61995697,-1.054123998,-0.351316988,-0.613506019,-1.042534947,-0.769869983,0.072259001,1.779881001,-1.159945965,-0.390188009,-0.203155994,1.847998023,0.146757007,0.771651983,-0.492846996,-0.379777998,0.992003977,0.754104972,0.313436002,-1.294041038,0.891449988,-1.428900957,-0.919485986,0.347131014,0.580139995,0.255836993,2.870601892,-0.493405014,0.006896,1.319507003,-0.47388199,0.565454006,0.133172005,-0.406248003,-1.15157795,0.511283994,1.674438953,-0.48338899,0.751794994,-0.771854997,-0.505387008,-1.663177013,-0.966035008,-0.045058999,-0.999248028,0.663697004,-1.853500009,-0.236763,-0.168320999,-0.302163988,0.829190016,0.923578978,-0.354882002,0.880185008,1.320731997,-0.280310988,-0.611617982,1.015756011,-0.293280005,-0.023221999,0.539309978,3.117624044,0.557976007,1.586380005,-0.307677001,-0.184863999,0.680956006,-3.353838921,1.567371964,-0.340461999,-2.23596096,-0.397661,1.393532038,-0.828981996,-0.086820997,-0.042810999,0.188982993,-1.065124989,-1.245139003,1.66178596,0.280779004,0.111662999,0.410614014,-0.147618994,0.615456998,-0.612986982,-0.79708302,0.300453007,-0.69242698,0.818112016,1.392498016,0.741640985,-1.873643994,1.484830976,-0.678606987,-1.037786961,0.40683201,0.555851996,0.639385998,1.579326034,2.360296965,-1.433315039,0.950577974,0.051782999,-0.221336007,-0.005787,-0.467175007,-1.757123947,1.67749095,-0.432011992,-1.099354029,-0.017806999,-2.984812021,0.357448995,1.151865005,-1.696125984,0.696868002,-0.198688,-0.256027997,-0.347070009,0.610481024,-0.887893975,0.651651978,1.314615011,-0.58494401,1.387227058,0.448341995,-0.292988986,0.758449018,-0.624283016,1.122840047,-0.528728008,0.97072798,0.213742003,-1.847666979,0.187035993,-0.732270002,-1.273008943,-1.246708035,1.435446024,-1.079921961,-0.657581985,-1.383914948,0.280979991,0.503697991,1.425035,0.139806002,-0.027522,-0.106582001,1.114590049,0.230400994,-0.187215,0.268067002,0.030469,-0.285474002,0.745581985,-0.771544993,0.568192005,2.244548082,2.304639101,-1.450392008,-0.263514012,-0.597725987,0.848102987,0.006002,-0.507699013,-1.623291969,-0.751461029,-0.270173997,-1.303483009,-0.317674994,-0.093739003,-1.101150036,0.33249101,0.663010001,0.341637999,1.130411983,-0.440066993,-1.695865989,-1.384490013,0.127247006,0.899039984,-1.47209096,0.327151001,2.1186409,1.12379396,-0.902163982,-0.455942005,-0.293350011,0.670958996,-3.177308083,0.494733006,-1.018100023,0.612887025,0.238223001,-1.024041057,-0.677137017,-1.982769966,-0.097375996,-0.271485001,0.357885987,0.779031992
化,0.288693011,0.320160002,0.544638991,-1.804362059,0.636629999,-0.003964,-0.635725975,0.351895005,-0.223443002,0.533581972,-0.210151002,-1.36579895,1.401648998,-0.935101986,1.082288027,-0.216177002,0.220824003,-0.402740985,1.399175048,-1.834846973,1.497907043,0.69362098,0.668640018,1.38718605,3.264687061,1.506837964,-0.305034012,-0.515004992,-0.357973009,1.108508945,0.981480002,-0.659668028,-1.608657002,-0.991631985,1.188619971,-1.549057961,-0.000198,-2.271533012,0.558432996,0.452475011,1.413239956,0.399872005,0.442048997,-0.367354989,-1.17751503,1.426136971,-0.660337985,-1.627555013,-0.188008994,-1.77582705,-0.973334014,0.052072,3.338690996,0.858819008,0.113303997,0.705439985,-0.329970002,-0.482656986,-0.071203001,-0.470986009,-0.624651015,-1.195847988,-0.909534991,0.277631998,-1.454754949,-1.460893035,-0.926410019,-0.173492998,-0.293893009,-0.444530994,-0.562089026,-2.411535025,2.378895998,-0.290881008,-1.271229982,-0.074010998,-0.955511987,-1.050416946,2.864856958,0.498815,0.480589986,-0.455453992,0.053015999,0.606270015,-0.142543003,-0.077780001,0.843291998,0.652230978,2.414499998,-1.80311203,-1.739112973,2.425301075,-0.412499994,0.647009015,0.469733,-0.252959996,-0.185459003,-0.743429005,-0.346769989,-1.313032031,1.314578056,1.906080008,1.100708008,2.634751081,0.829473972,-0.048257999,1.817235947,-0.149780005,-0.410932004,-0.920235991,1.746355057,-3.801863909,-0.008067,-0.294615,0.592899978,2.764158964,1.494331002,0.018329,0.485388011,1.319764972,-0.024907,1.046129942,0.752703011,-2.650290012,-0.154684007,0.295931995,-2.530352116,0.616936982,-0.632445991,-1.022585034,0.662617028,-3.202788115,-1.472596049,-0.736814976,1.388180017,-2.452197075,-1.533797026,0.800683022,-1.342489958,0.805316985,-0.065917,-0.243085995,0.687785983,0.734384,-0.175813004,-1.714089036,1.406905055,0.37191999,-0.528123975,-1.637858987,-0.183761001,0.673179984,2.131196976,-0.591552019,-0.853459001,0.983321011,-0.666786015,1.248522997,-0.746901989,1.001481056,-0.40180999,1.243106961,-0.000847,0.235016003,-0.774649978,1.297155976,0.024940001,-1.162703037,0.863834023,0.112382002,-2.14526391,-1.911182046,1.03233099,1.116410017,1.247612953,-0.910634995,2.231376886,0.312685996,-2.852375031,0.758525014,-1.45243597,0.397772014,1.250051975,-0.925369978,-1.789788008,-0.908838987,0.932963014,1.852699995,2.151642084,1.067664027,0.541131973,-1.580850005,0.205657005,-0.248321995,-1.676920056,1.298267007,0.924706995,-0.056146,1.13835001,-0.310119003,-0.392625004,-0.135720998,-0.399536014,1.390460014,-1.105543017,1.050205946,0.324075997,-1.120352983,0.300148994,3.335438967,-1.536960959,-1.502892017,1.775388956,-1.373190999,2.665899992,0.277303994,-0.653546989,0.124371998,-1.369832039,0.316596001,0.956605017,-2.222860098,0.385279,0.678050995,-0.224298,-0.253971994,0.129255995,0.676497996,-0.98328203,-1.282598019,0.224154994,1.614817977,-0.026176,-2.078182936,1.713070035,0.681675017,1.448356986,-0.201362997,-1.130625963,-0.738273025,0.907391012,-0.655134976,0.375883996,1.22190702,-1.295156956,1.157385945,-0.393730015,2.366121054,-0.206863001,0.713347018,-0.701771975,2.635951996,-1.344648957,-0.684516013,0.331223994,1.942361951,-0.088422,-0.593052983,-0.384346992,0.365586013,-0.253751993,-0.009939,-0.838003993,1.225978017,-2.047069073,-0.714254975,-1.244436026,0.771566987,0.108070001,-0.448747009,-2.182884932,-0.94354099,-2.706914902,0.103721,-0.919129014,2.587373018,0.298418999,-0.280135006,-0.520681977,0.396726012,1.428110957,-0.227597997,-1.370754004,0.677727997,-0.99416697,-0.132082999,-0.153169006,0.985143006,0.787784994,-1.620959997,0.187021002,-0.229308993,0.503615022,0.079241998,1.741075039,-0.822798014,-0.056047,1.862087011,-0.476516008,0.823189974,1.591802001,-0.513655007,-1.415016055,0.117403001,0.194077,0.068212003,0.521179974,0.723300993,0.141350999,1.575566053,-0.978694022,1.23637104,0.420096993,-0.109350003,-1.244961977,-0.227636993,0.432397008,-0.230857998,-1.283419013,-1.709228992,0.096680999,0.199735999,0.335204989,-0.688166976,-0.665180981,1.135354996,0.992582023,-0.806905985,-1.942553043,-0.521636009,-0.486016989,0.149354994,-0.186781004,-0.744722009,-0.131504998,-1.014850974,0.812620997,0.861187994,-0.955910981,-0.969841003,1.484047055,-0.219515994,-0.271279991,-0.606445014,0.257849991,-1.282706976,-0.491715014,-1.932726979,0.481195003,1.065096021,0.58861798,1.221393943,1.156159997,0.752626002,1.073228002,-0.723223984,2.99833107,1.08317101,-1.78798604,0.428734988,0.837706029,0.693057001,1.10373795,-0.522365987,1.422566056,-2.044275999,-0.95231998,-0.882206976,-1.197296023,2.36222291,0.667486012,0.370301008,0.734583974,-0.147561997,1.167145967,-1.351590991,-0.027358999,-1.647158027,-0.770339012,-0.408261001,1.418764949,0.244858995,0.859130025,-0.136528,2.463479996,1.821298003,-0.275022,-0.433380008,-0.34998101,-2.098264933,1.735605001,1.350507021,-0.601065993,0.30151099,-0.160021007,-1.613333941,0.387937993,-0.53648299,-2.189074993,0.157594994,?0.288693010807,0.320160002,0.544638991,-1.804362059,0.636629999,-0.003964,-0.635725975,0.351895005,-0.223443002,0.533581972,-0.210151002,-1.36579895,1.401648998,-0.935101986,1.082288027,-0.216177002,0.220824003,-0.402740985,1.399175048,-1.834846973,1.497907043,0.69362098,0.668640018,1.38718605,3.264687061,1.506837964,-0.305034012,-0.515004992,-0.357973009,1.108508945,0.981480002,-0.659668028,-1.608657002,-0.991631985,1.188619971,-1.549057961,-0.000198,-2.271533012,0.558432996,0.452475011,1.413239956,0.399872005,0.442048997,-0.367354989,-1.17751503,1.426136971,-0.660337985,-1.627555013,-0.188008994,-1.77582705,-0.973334014,0.052072,3.338690996,0.858819008,0.113303997,0.705439985,-0.329970002,-0.482656986,-0.071203001,-0.470986009,-0.624651015,-1.195847988,-0.909534991,0.277631998,-1.454754949,-1.460893035,-0.926410019,-0.173492998,-0.293893009,-0.444530994,-0.562089026,-2.411535025,2.378895998,-0.290881008,-1.271229982,-0.074010998,-0.955511987,-1.050416946,2.864856958,0.498815,0.480589986,-0.455453992,0.053015999,0.606270015,-0.142543003,-0.077780001,0.843291998,0.652230978,2.414499998,-1.80311203,-1.739112973,2.425301075,-0.412499994,0.647009015,0.469733,-0.252959996,-0.185459003,-0.743429005,-0.346769989,-1.313032031,1.314578056,1.906080008,1.100708008,2.634751081,0.829473972,-0.048257999,1.817235947,-0.149780005,-0.410932004,-0.920235991,1.746355057,-3.801863909,-0.008067,-0.294615,0.592899978,2.764158964,1.494331002,0.018329,0.485388011,1.319764972,-0.024907,1.046129942,0.752703011,-2.650290012,-0.154684007,0.295931995,-2.530352116,0.616936982,-0.632445991,-1.022585034,0.662617028,-3.202788115,-1.472596049,-0.736814976,1.388180017,-2.452197075,-1.533797026,0.800683022,-1.342489958,0.805316985,-0.065917,-0.243085995,0.687785983,0.734384,-0.175813004,-1.714089036,1.406905055,0.37191999,-0.528123975,-1.637858987,-0.183761001,0.673179984,2.131196976,-0.591552019,-0.853459001,0.983321011,-0.666786015,1.248522997,-0.746901989,1.001481056,-0.40180999,1.243106961,-0.000847,0.235016003,-0.774649978,1.297155976,0.024940001,-1.162703037,0.863834023,0.112382002,-2.14526391,-1.911182046,1.03233099,1.116410017,1.247612953,-0.910634995,2.231376886,0.312685996,-2.852375031,0.758525014,-1.45243597,0.397772014,1.250051975,-0.925369978,-1.789788008,-0.908838987,0.932963014,1.852699995,2.151642084,1.067664027,0.541131973,-1.580850005,0.205657005,-0.248321995,-1.676920056,1.298267007,0.924706995,-0.056146,1.13835001,-0.310119003,-0.392625004,-0.135720998,-0.399536014,1.390460014,-1.105543017,1.050205946,0.324075997,-1.120352983,0.300148994,3.335438967,-1.536960959,-1.502892017,1.775388956,-1.373190999,2.665899992,0.277303994,-0.653546989,0.124371998,-1.369832039,0.316596001,0.956605017,-2.222860098,0.385279,0.678050995,-0.224298,-0.253971994,0.129255995,0.676497996,-0.98328203,-1.282598019,0.224154994,1.614817977,-0.026176,-2.078182936,1.713070035,0.681675017,1.448356986,-0.201362997,-1.130625963,-0.738273025,0.907391012,-0.655134976,0.375883996,1.22190702,-1.295156956,1.157385945,-0.393730015,2.366121054,-0.206863001,0.713347018,-0.701771975,2.635951996,-1.344648957,-0.684516013,0.331223994,1.942361951,-0.088422,-0.593052983,-0.384346992,0.365586013,-0.253751993,-0.009939,-0.838003993,1.225978017,-2.047069073,-0.714254975,-1.244436026,0.771566987,0.108070001,-0.448747009,-2.182884932,-0.94354099,-2.706914902,0.103721,-0.919129014,2.587373018,0.298418999,-0.280135006,-0.520681977,0.396726012,1.428110957,-0.227597997,-1.370754004,0.677727997,-0.99416697,-0.132082999,-0.153169006,0.985143006,0.787784994,-1.620959997,0.187021002,-0.229308993,0.503615022,0.079241998,1.741075039,-0.822798014,-0.056047,1.862087011,-0.476516008,0.823189974,1.591802001,-0.513655007,-1.415016055,0.117403001,0.194077,0.068212003,0.521179974,0.723300993,0.141350999,1.575566053,-0.978694022,1.23637104,0.420096993,-0.109350003,-1.244961977,-0.227636993,0.432397008,-0.230857998,-1.283419013,-1.709228992,0.096680999,0.199735999,0.335204989,-0.688166976,-0.665180981,1.135354996,0.992582023,-0.806905985,-1.942553043,-0.521636009,-0.486016989,0.149354994,-0.186781004,-0.744722009,-0.131504998,-1.014850974,0.812620997,0.861187994,-0.955910981,-0.969841003,1.484047055,-0.219515994,-0.271279991,-0.606445014,0.257849991,-1.282706976,-0.491715014,-1.932726979,0.481195003,1.065096021,0.58861798,1.221393943,1.156159997,0.752626002,1.073228002,-0.723223984,2.99833107,1.08317101,-1.78798604,0.428734988,0.837706029,0.693057001,1.10373795,-0.522365987,1.422566056,-2.044275999,-0.95231998,-0.882206976,-1.197296023,2.36222291,0.667486012,0.370301008,0.734583974,-0.147561997,1.167145967,-1.351590991,-0.027358999,-1.647158027,-0.770339012,-0.408261001,1.418764949,0.244858995,0.859130025,-0.136528,2.463479996,1.821298003,-0.275022,-0.433380008,-0.34998101,-2.098264933,1.735605001,1.350507021,-0.601065993,0.30151099,-0.160021007,-1.613333941,0.387937993,-0.53648299,-2.189074993,0.157594994,
悬挂,1.624035001,0.952794015,1.140275955,0.435007006,-0.067695998,-0.118533999,0.500542998,-0.974547982,1.291823983,1.503411055,-0.989776015,-1.53926301,-1.424327016,-0.932120979,-0.176969007,-1.868317008,-0.667001009,-1.124673963,-0.354155004,-0.943787992,-2.021572113,0.452892989,-1.977324009,-0.637274027,0.769518018,-0.473565996,-1.201470017,0.83861202,0.406985998,0.103247002,0.071396001,-0.864250004,0.207550004,0.384797007,-1.123846054,0.072241999,-0.787995994,-1.128602982,-2.27637291,1.816660047,-0.681008995,1.51206398,-2.415986061,-0.766546011,1.073763013,-0.078469999,-0.712348998,0.979631007,-0.271517992,2.023835897,-0.504827976,-2.377693892,-1.224087,0.733563006,-1.608724952,-0.182804003,0.652402997,0.084977001,-1.031039953,2.08888793,0.130320996,0.507079005,1.399042964,-1.848580003,-0.900996983,1.393977046,-0.323935986,-1.263965011,1.699480057,1.74881804,-1.429636002,-0.659538984,1.097002029,1.820739985,-0.332347006,2.310327053,-0.681706011,-0.422944993,-0.580358028,0.290349007,1.814926028,0.064866997,0.683131993,-0.532361984,0.991172016,-2.949697971,1.303825974,-0.508765996,0.676043987,0.045271002,0.399257004,1.167521,-1.545598984,0.55301398,-0.420349985,0.567366004,1.071709991,0.67780602,-0.057666998,0.309439003,0.302713007,-0.837288976,-0.679520011,0.120979004,-1.572538972,-0.802075028,0.396405995,-1.378877997,1.421939969,-0.735835016,-1.302562952,-0.818089008,-1.68303299,-1.468369961,1.354289055,0.031321999,1.108994961,-0.700282991,0.397509992,1.474298,0.706004024,0.60303998,-0.900106013,-0.438973993,0.017925,-0.906940997,-3.226120949,0.52788502,-0.897472024,0.775035977,2.269639015,-0.190505996,-2.035788059,1.977967978,-1.859689951,-1.440184951,-0.316816002,0.187666997,2.060255051,-0.458508998,-1.606871963,0.740086019,-0.448320001,1.209579945,1.261667967,-0.886617005,-1.531412005,0.745063007,-0.203188002,-0.486526996,0.173476994,-2.951564074,-0.374260992,1.416280985,-0.288444996,-0.183045,-0.021128001,-0.768123984,-1.595739007,-0.498730987,-0.151620999,-0.782528996,-0.366412014,0.133312002,0.014847,1.157394052,0.104000002,-0.592130005,0.451337993,-0.459672987,-2.008163929,0.984061003,-0.346801996,0.422529012,-0.156156003,0.351594001,0.418374002,0.944680989,0.488691986,1.37570405,-0.614926994,0.73921299,0.128168002,0.430124998,-0.412759006,1.320260048,1.164371014,1.633105993,-0.791945994,-0.862031996,-0.061202999,0.315196007,0.519894004,0.683219016,0.213664994,0.469549,1.518023014,-0.196037993,0.742477,-1.747388005,-2.258958101,-1.295724034,0.008313,0.011888,-1.543980956,-0.020579999,-0.767831028,2.72824502,0.408823997,0.805617988,0.698548019,0.821236014,2.988886118,-0.039606001,-0.656126022,0.064079002,-1.09699595,0.550319016,0.290378004,0.218448997,0.248692006,1.180667996,0.920617998,1.270362973,-0.333712995,0.255971998,1.779181957,0.487940013,-0.558878005,-0.312844992,2.188474894,-0.964945018,-0.195708007,-0.548651993,-0.749087989,-0.037974998,-1.959674954,-0.182072997,-0.44364801,-0.757184029,0.348432004,0.239511997,0.277087986,0.899828017,1.097061038,0.575443983,-0.175521001,1.655815005,1.383720994,-0.355879992,0.083401002,0.932852983,1.893167973,0.420130014,0.188878,1.713757038,1.547644019,-0.459630013,0.407234013,1.527948022,-0.53509903,-0.976320028,0.251055986,1.105193973,-0.694684982,-1.950453043,0.176963001,-0.465353012,-1.88586998,-0.589663029,-1.530277014,0.587956011,0.47271201,-0.315380007,-0.393992007,0.067584999,-1.472625017,-0.096736997,-0.272765994,-0.187781006,0.583673,0.206477001,0.442932993,-0.159675002,-1.31665206,-1.885751963,0.683888972,-1.131922007,1.69511795,1.171367049,-0.419077992,0.317763001,-0.912374973,-1.009436965,1.264950037,-1.303550005,-0.112574004,0.586902976,-0.222301006,-1.484326005,-1.448513985,-0.982279003,2.159754038,-0.471345007,0.908276021,0.926613986,-0.434632987,0.152077004,0.901664972,1.604820013,-0.086125001,-1.099459052,2.110394955,0.836050987,-2.071470976,1.531015038,-2.386317968,0.077885002,0.41921699,-2.174998045,0.38944599,0.189544007,-0.101664998,-0.719980001,-0.554584026,0.571798027,0.216624007,0.966171026,-0.295852005,-1.96847105,-0.414077014,0.389117002,0.49989599,1.385323048,0.093083002,0.648209989,0.729547024,-1.444447041,0.377909988,0.865226984,0.492724001,-0.922863007,-2.061120033,0.859697998,-1.358623028,0.255066007,-1.43600595,1.913383007,1.198544025,-1.021806955,-0.133160993,1.596379995,-1.347735047,-0.899882972,0.423595011,-0.592580974,0.253439993,0.988520026,-0.911822021,0.496603012,-1.105193019,0.146670997,0.38410899,0.653950989,0.157000005,-1.866639972,-0.181871995,0.670143008,-1.203274965,-1.275786996,-2.279690981,-0.400981009,-0.118070997,0.318902999,-1.457715988,0.957647979,-1.238932967,-2.015516043,-3.013263941,-0.099278003,-2.700576067,0.679756999,-0.065204002,-0.075314999,1.75209105,-0.65427202,-0.069466002,-0.534765005,-1.765838981,0.414662987,-0.705009997,-0.890510023,-0.532616973,-0.826412976,1.904119015,1.060639024,-1.713232994,0.01464,0.406067997,-3.201101065,,1.624035001,0.952794015,1.140275955,0.435007006,-0.067695998,-0.118533999,0.500542998,-0.974547982,1.291823983,1.503411055,-0.989776015,-1.53926301,-1.424327016,-0.932120979,-0.176969007,-1.868317008,-0.667001009,-1.124673963,-0.354155004,-0.943787992,-2.021572113,0.452892989,-1.977324009,-0.637274027,0.769518018,-0.473565996,-1.201470017,0.83861202,0.406985998,0.103247002,0.071396001,-0.864250004,0.207550004,0.384797007,-1.123846054,0.072241999,-0.787995994,-1.128602982,-2.27637291,1.816660047,-0.681008995,1.51206398,-2.415986061,-0.766546011,1.073763013,-0.078469999,-0.712348998,0.979631007,-0.271517992,2.023835897,-0.504827976,-2.377693892,-1.224087,0.733563006,-1.608724952,-0.182804003,0.652402997,0.084977001,-1.031039953,2.08888793,0.130320996,0.507079005,1.399042964,-1.848580003,-0.900996983,1.393977046,-0.323935986,-1.263965011,1.699480057,1.74881804,-1.429636002,-0.659538984,1.097002029,1.820739985,-0.332347006,2.310327053,-0.681706011,-0.422944993,-0.580358028,0.290349007,1.814926028,0.064866997,0.683131993,-0.532361984,0.991172016,-2.949697971,1.303825974,-0.508765996,0.676043987,0.045271002,0.399257004,1.167521,-1.545598984,0.55301398,-0.420349985,0.567366004,1.071709991,0.67780602,-0.057666998,0.309439003,0.302713007,-0.837288976,-0.679520011,0.120979004,-1.572538972,-0.802075028,0.396405995,-1.378877997,1.421939969,-0.735835016,-1.302562952,-0.818089008,-1.68303299,-1.468369961,1.354289055,0.031321999,1.108994961,-0.700282991,0.397509992,1.474298,0.706004024,0.60303998,-0.900106013,-0.438973993,0.017925,-0.906940997,-3.226120949,0.52788502,-0.897472024,0.775035977,2.269639015,-0.190505996,-2.035788059,1.977967978,-1.859689951,-1.440184951,-0.316816002,0.187666997,2.060255051,-0.458508998,-1.606871963,0.740086019,-0.448320001,1.209579945,1.261667967,-0.886617005,-1.531412005,0.745063007,-0.203188002,-0.486526996,0.173476994,-2.951564074,-0.374260992,1.416280985,-0.288444996,-0.183045,-0.021128001,-0.768123984,-1.595739007,-0.498730987,-0.151620999,-0.782528996,-0.366412014,0.133312002,0.014847,1.157394052,0.104000002,-0.592130005,0.451337993,-0.459672987,-2.008163929,0.984061003,-0.346801996,0.422529012,-0.156156003,0.351594001,0.418374002,0.944680989,0.488691986,1.37570405,-0.614926994,0.73921299,0.128168002,0.430124998,-0.412759006,1.320260048,1.164371014,1.633105993,-0.791945994,-0.862031996,-0.061202999,0.315196007,0.519894004,0.683219016,0.213664994,0.469549,1.518023014,-0.196037993,0.742477,-1.747388005,-2.258958101,-1.295724034,0.008313,0.011888,-1.543980956,-0.020579999,-0.767831028,2.72824502,0.408823997,0.805617988,0.698548019,0.821236014,2.988886118,-0.039606001,-0.656126022,0.064079002,-1.09699595,0.550319016,0.290378004,0.218448997,0.248692006,1.180667996,0.920617998,1.270362973,-0.333712995,0.255971998,1.779181957,0.487940013,-0.558878005,-0.312844992,2.188474894,-0.964945018,-0.195708007,-0.548651993,-0.749087989,-0.037974998,-1.959674954,-0.182072997,-0.44364801,-0.757184029,0.348432004,0.239511997,0.277087986,0.899828017,1.097061038,0.575443983,-0.175521001,1.655815005,1.383720994,-0.355879992,0.083401002,0.932852983,1.893167973,0.420130014,0.188878,1.713757038,1.547644019,-0.459630013,0.407234013,1.527948022,-0.53509903,-0.976320028,0.251055986,1.105193973,-0.694684982,-1.950453043,0.176963001,-0.465353012,-1.88586998,-0.589663029,-1.530277014,0.587956011,0.47271201,-0.315380007,-0.393992007,0.067584999,-1.472625017,-0.096736997,-0.272765994,-0.187781006,0.583673,0.206477001,0.442932993,-0.159675002,-1.31665206,-1.885751963,0.683888972,-1.131922007,1.69511795,1.171367049,-0.419077992,0.317763001,-0.912374973,-1.009436965,1.264950037,-1.303550005,-0.112574004,0.586902976,-0.222301006,-1.484326005,-1.448513985,-0.982279003,2.159754038,-0.471345007,0.908276021,0.926613986,-0.434632987,0.152077004,0.901664972,1.604820013,-0.086125001,-1.099459052,2.110394955,0.836050987,-2.071470976,1.531015038,-2.386317968,0.077885002,0.41921699,-2.174998045,0.38944599,0.189544007,-0.101664998,-0.719980001,-0.554584026,0.571798027,0.216624007,0.966171026,-0.295852005,-1.96847105,-0.414077014,0.389117002,0.49989599,1.385323048,0.093083002,0.648209989,0.729547024,-1.444447041,0.377909988,0.865226984,0.492724001,-0.922863007,-2.061120033,0.859697998,-1.358623028,0.255066007,-1.43600595,1.913383007,1.198544025,-1.021806955,-0.133160993,1.596379995,-1.347735047,-0.899882972,0.423595011,-0.592580974,0.253439993,0.988520026,-0.911822021,0.496603012,-1.105193019,0.146670997,0.38410899,0.653950989,0.157000005,-1.866639972,-0.181871995,0.670143008,-1.203274965,-1.275786996,-2.279690981,-0.400981009,-0.118070997,0.318902999,-1.457715988,0.957647979,-1.238932967,-2.015516043,-3.013263941,-0.099278003,-2.700576067,0.679756999,-0.065204002,-0.075314999,1.75209105,-0.65427202,-0.069466002,-0.534765005,-1.765838981,0.414662987,-0.705009997,-0.890510023,-0.532616973,-0.826412976,1.904119015,1.060639024,-1.713232994,0.01464,0.406067997,-3.201101065
包括,-0.454580992,0.164757997,1.79915905,-1.049497008,0.733509004,-0.782821,1.555029035,0.66079402,1.619586945,-0.897616982,0.535622001,0.352791995,-1.745306015,-1.873993993,0.167853996,-1.00387001,0.305721015,-1.265084982,0.240015,-1.57822299,-0.263256013,-0.918152988,-0.410198003,1.221086979,2.200937986,1.28687501,0.667607009,-0.836081982,1.853716016,0.544808984,-1.481004,0.917953014,-1.146002054,-1.966565967,0.95331198,-0.300415009,1.230658054,-0.823512018,-1.736956954,1.100044012,0.61631,0.716252029,-1.233821034,-0.807951987,1.15346396,0.810011983,0.159330994,0.666951001,-0.564612985,-0.029146999,3.325936079,-2.361658096,0.861630976,1.028753996,0.046682999,-1.576614976,0.884683013,-0.82031697,-0.564092994,1.036813974,-0.371104985,-1.694511056,-0.961143017,-0.364295989,1.497936964,-1.04678905,0.293545008,0.994126022,0.571802974,0.723227024,-0.936886013,0.921674013,0.371354997,-0.401280999,-0.007712,0.689547002,1.580196977,-0.714837015,1.660864949,-2.98004508,0.240195006,-1.899806976,2.25126791,-0.238046005,0.502623022,0.565518022,-0.085307002,-2.218697071,0.220923007,-0.717351019,0.456472993,-1.070675015,-0.197669998,0.110694997,0.30487901,-1.583649993,2.154851913,-0.491432995,0.404356003,0.416426986,-0.315941006,0.782885015,-0.438149005,1.052029014,-2.297626972,-2.664695978,1.533488989,-0.544652998,0.020506,-0.831882,-0.916168988,1.424602985,-1.146868944,-0.269428998,1.371584058,2.412743092,0.906876981,0.312240988,0.175301,-0.637138009,-0.430447012,-1.086316943,0.951385975,-1.156628966,-1.156872988,0.231864005,-1.340625048,-0.304652989,0.488011003,-0.816477001,-0.051653001,-1.970157981,-1.44315505,0.044597998,0.862852991,0.067612998,0.319023013,-0.218733996,0.254290998,0.67049098,1.285752058,-0.080185004,0.164633006,-0.273562014,-1.259132981,-0.292937011,-0.157086998,0.922022998,1.584527016,-1.220322967,0.148820996,0.65347302,-2.039367914,0.060348,0.921579003,0.998567998,0.783999026,0.951968014,0.81081599,-0.172591999,0.497561008,-2.438478947,0.322001994,1.528437018,2.06227994,0.242552996,-1.359421015,0.529434979,-2.690181017,1.425498009,0.215532005,-1.187211037,-0.862232029,1.122714996,0.995172977,0.102456003,1.880784035,-0.255524009,0.278115004,-0.617504001,-0.024076,-0.295720994,-0.526772976,-1.733525038,-1.013574004,0.700094998,-1.373129964,1.128026009,-0.79529798,1.306462049,0.748883009,-1.386697054,2.255422115,0.225940004,1.165941,-0.158812001,1.017168999,-0.115846001,-0.998345971,1.976737976,-0.579613984,-1.392143011,-1.575178981,-3.1275599,-0.845227003,-1.397665977,0.214383006,0.459859014,-0.591390014,-0.704195023,-0.436646998,0.625757992,0.028308,-1.209537983,0.664031029,0.068915002,1.279811978,0.008376,-0.575942993,-0.602973998,0.226180002,0.933906019,-0.644033015,0.444972992,-0.768212974,1.465414047,0.508481026,-0.906832993,-0.159122005,-0.415253997,-0.60708499,-1.975949049,1.713901043,-1.276067019,1.739886999,0.33752501,1.003926992,0.876667976,-1.653082013,-0.211097002,-0.983739972,-0.036274001,0.022987001,-0.444236994,-0.241473004,-1.625087976,0.313439995,-0.423994988,-0.018979,-0.443663001,0.757034004,0.365139991,-0.073899999,-1.112069964,-1.161923051,-0.320629001,-1.259763002,0.537527978,-0.465131998,0.544440985,0.419093996,0.463856012,0.670464993,-0.460119009,-0.833801985,-0.382362992,2.185218096,0.26867801,-1.236508012,-1.114748001,0.732991993,0.592454016,-0.202702001,0.813533008,-0.106539004,0.177596003,-1.192383051,1.751960993,0.943477988,-0.535651982,0.558507979,1.940037966,0.851539016,-0.693044007,-0.577216983,0.392235011,1.056743026,-0.630775988,0.740194976,0.509913981,1.175801992,1.825505972,-1.174375057,-1.270081043,0.272271991,0.219248995,-1.138160944,0.168464005,-0.464574009,1.193886995,-1.398007989,-0.001002,-0.413082987,0.356914997,1.076154947,-0.964807987,-0.489504993,0.664205015,-0.546822011,2.379359961,-0.538571,-1.026590943,1.985669017,-0.775102019,0.022537,0.946175992,-1.218780041,1.573248982,0.018328,0.902724981,2.083081007,0.29114899,-0.424068004,2.195203066,-0.750169992,1.031718016,0.073886998,-0.894850016,-0.118777998,1.16980195,-0.124298997,1.618221045,-0.156580001,0.307168007,2.61532402,0.467014998,-0.682807028,-0.458820999,-0.330401987,-1.259367943,-1.04619801,-0.290796995,-0.279507011,-1.343325019,-0.627765,2.153783083,2.025829077,1.254307985,-1.396209002,1.124333024,-1.06657505,-0.652185977,0.230636999,-0.844760001,0.012296,-0.923538029,0.647957981,1.106197,-0.589318991,1.289752007,-1.055660963,-0.451656997,-0.372523993,-0.500169992,-0.701224029,0.200872004,-1.882761955,-0.038348999,0.818098009,0.569694996,-2.272437096,-1.016947031,-0.596351981,0.358374,-2.692905903,-1.627944946,-2.064002037,0.929220974,-0.877553999,-2.229393959,-0.593096018,-0.592799008,0.574436009,-1.577960014,3.571182013,0.422749996,-2.85570097,0.679933012,-1.674610019,-0.000549,0.787011981,2.600928068,0.774625003,0.437391013,0.762611985,0.243417993,0.965864003,-0.330404997,0.462238014,-0.502839983,,-0.454580992,0.164757997,1.79915905,-1.049497008,0.733509004,-0.782821,1.555029035,0.66079402,1.619586945,-0.897616982,0.535622001,0.352791995,-1.745306015,-1.873993993,0.167853996,-1.00387001,0.305721015,-1.265084982,0.240015,-1.57822299,-0.263256013,-0.918152988,-0.410198003,1.221086979,2.200937986,1.28687501,0.667607009,-0.836081982,1.853716016,0.544808984,-1.481004,0.917953014,-1.146002054,-1.966565967,0.95331198,-0.300415009,1.230658054,-0.823512018,-1.736956954,1.100044012,0.61631,0.716252029,-1.233821034,-0.807951987,1.15346396,0.810011983,0.159330994,0.666951001,-0.564612985,-0.029146999,3.325936079,-2.361658096,0.861630976,1.028753996,0.046682999,-1.576614976,0.884683013,-0.82031697,-0.564092994,1.036813974,-0.371104985,-1.694511056,-0.961143017,-0.364295989,1.497936964,-1.04678905,0.293545008,0.994126022,0.571802974,0.723227024,-0.936886013,0.921674013,0.371354997,-0.401280999,-0.007712,0.689547002,1.580196977,-0.714837015,1.660864949,-2.98004508,0.240195006,-1.899806976,2.25126791,-0.238046005,0.502623022,0.565518022,-0.085307002,-2.218697071,0.220923007,-0.717351019,0.456472993,-1.070675015,-0.197669998,0.110694997,0.30487901,-1.583649993,2.154851913,-0.491432995,0.404356003,0.416426986,-0.315941006,0.782885015,-0.438149005,1.052029014,-2.297626972,-2.664695978,1.533488989,-0.544652998,0.020506,-0.831882,-0.916168988,1.424602985,-1.146868944,-0.269428998,1.371584058,2.412743092,0.906876981,0.312240988,0.175301,-0.637138009,-0.430447012,-1.086316943,0.951385975,-1.156628966,-1.156872988,0.231864005,-1.340625048,-0.304652989,0.488011003,-0.816477001,-0.051653001,-1.970157981,-1.44315505,0.044597998,0.862852991,0.067612998,0.319023013,-0.218733996,0.254290998,0.67049098,1.285752058,-0.080185004,0.164633006,-0.273562014,-1.259132981,-0.292937011,-0.157086998,0.922022998,1.584527016,-1.220322967,0.148820996,0.65347302,-2.039367914,0.060348,0.921579003,0.998567998,0.783999026,0.951968014,0.81081599,-0.172591999,0.497561008,-2.438478947,0.322001994,1.528437018,2.06227994,0.242552996,-1.359421015,0.529434979,-2.690181017,1.425498009,0.215532005,-1.187211037,-0.862232029,1.122714996,0.995172977,0.102456003,1.880784035,-0.255524009,0.278115004,-0.617504001,-0.024076,-0.295720994,-0.526772976,-1.733525038,-1.013574004,0.700094998,-1.373129964,1.128026009,-0.79529798,1.306462049,0.748883009,-1.386697054,2.255422115,0.225940004,1.165941,-0.158812001,1.017168999,-0.115846001,-0.998345971,1.976737976,-0.579613984,-1.392143011,-1.575178981,-3.1275599,-0.845227003,-1.397665977,0.214383006,0.459859014,-0.591390014,-0.704195023,-0.436646998,0.625757992,0.028308,-1.209537983,0.664031029,0.068915002,1.279811978,0.008376,-0.575942993,-0.602973998,0.226180002,0.933906019,-0.644033015,0.444972992,-0.768212974,1.465414047,0.508481026,-0.906832993,-0.159122005,-0.415253997,-0.60708499,-1.975949049,1.713901043,-1.276067019,1.739886999,0.33752501,1.003926992,0.876667976,-1.653082013,-0.211097002,-0.983739972,-0.036274001,0.022987001,-0.444236994,-0.241473004,-1.625087976,0.313439995,-0.423994988,-0.018979,-0.443663001,0.757034004,0.365139991,-0.073899999,-1.112069964,-1.161923051,-0.320629001,-1.259763002,0.537527978,-0.465131998,0.544440985,0.419093996,0.463856012,0.670464993,-0.460119009,-0.833801985,-0.382362992,2.185218096,0.26867801,-1.236508012,-1.114748001,0.732991993,0.592454016,-0.202702001,0.813533008,-0.106539004,0.177596003,-1.192383051,1.751960993,0.943477988,-0.535651982,0.558507979,1.940037966,0.851539016,-0.693044007,-0.577216983,0.392235011,1.056743026,-0.630775988,0.740194976,0.509913981,1.175801992,1.825505972,-1.174375057,-1.270081043,0.272271991,0.219248995,-1.138160944,0.168464005,-0.464574009,1.193886995,-1.398007989,-0.001002,-0.413082987,0.356914997,1.076154947,-0.964807987,-0.489504993,0.664205015,-0.546822011,2.379359961,-0.538571,-1.026590943,1.985669017,-0.775102019,0.022537,0.946175992,-1.218780041,1.573248982,0.018328,0.902724981,2.083081007,0.29114899,-0.424068004,2.195203066,-0.750169992,1.031718016,0.073886998,-0.894850016,-0.118777998,1.16980195,-0.124298997,1.618221045,-0.156580001,0.307168007,2.61532402,0.467014998,-0.682807028,-0.458820999,-0.330401987,-1.259367943,-1.04619801,-0.290796995,-0.279507011,-1.343325019,-0.627765,2.153783083,2.025829077,1.254307985,-1.396209002,1.124333024,-1.06657505,-0.652185977,0.230636999,-0.844760001,0.012296,-0.923538029,0.647957981,1.106197,-0.589318991,1.289752007,-1.055660963,-0.451656997,-0.372523993,-0.500169992,-0.701224029,0.200872004,-1.882761955,-0.038348999,0.818098009,0.569694996,-2.272437096,-1.016947031,-0.596351981,0.358374,-2.692905903,-1.627944946,-2.064002037,0.929220974,-0.877553999,-2.229393959,-0.593096018,-0.592799008,0.574436009,-1.577960014,3.571182013,0.422749996,-2.85570097,0.679933012,-1.674610019,-0.000549,0.787011981,2.600928068,0.774625003,0.437391013,0.762611985,0.243417993,0.965864003,-0.330404997,0.462238014,-0.502839983
