word,0,1,2,3,4,5,6,7,8,9,10,11,12,13,14,15,16,17,18,19,20,21,22,23,24,25,26,27,28,29,30,31,32,33,34,35,36,37,38,39,40,41,42,43,44,45,46,47,48,49,50,51,52,53,54,55,56,57,58,59,60,61,62,63,64,65,66,67,68,69,70,71,72,73,74,75,76,77,78,79,80,81,82,83,84,85,86,87,88,89,90,91,92,93,94,95,96,97,98,99,100,101,102,103,104,105,106,107,108,109,110,111,112,113,114,115,116,117,118,119,120,121,122,123,124,125,126,127,128,129,130,131,132,133,134,135,136,137,138,139,140,141,142,143,144,145,146,147,148,149,150,151,152,153,154,155,156,157,158,159,160,161,162,163,164,165,166,167,168,169,170,171,172,173,174,175,176,177,178,179,180,181,182,183,184,185,186,187,188,189,190,191,192,193,194,195,196,197,198,199,200,201,202,203,204,205,206,207,208,209,210,211,212,213,214,215,216,217,218,219,220,221,222,223,224,225,226,227,228,229,230,231,232,233,234,235,236,237,238,239,240,241,242,243,244,245,246,247,248,249,250,251,252,253,254,255,256,257,258,259,260,261,262,263,264,265,266,267,268,269,270,271,272,273,274,275,276,277,278,279,280,281,282,283,284,285,286,287,288,289,290,291,292,293,294,295,296,297,298,299,300,301,302,303,304,305,306,307,308,309,310,311,312,313,314,315,316,317,318,319,320,321,322,323,324,325,326,327,328,329,330,331,332,333,334,335,336,337,338,339,340,341,342,343,344,345,346,347,348,349,350,351,352,353,354,355,356,357,358,359,360,361,362,363,364,365,366,367,368,369,370,371,372,373,374,375,376,377,378,379,380,381,382,383,384,385,386,387,388,389,390,391,392,393,394,395,396,397,398,399,word,0,1,2,3,4,5,6,7,8,9,10,11,12,13,14,15,16,17,18,19,20,21,22,23,24,25,26,27,28,29,30,31,32,33,34,35,36,37,38,39,40,41,42,43,44,45,46,47,48,49,50,51,52,53,54,55,56,57,58,59,60,61,62,63,64,65,66,67,68,69,70,71,72,73,74,75,76,77,78,79,80,81,82,83,84,85,86,87,88,89,90,91,92,93,94,95,96,97,98,99,100,101,102,103,104,105,106,107,108,109,110,111,112,113,114,115,116,117,118,119,120,121,122,123,124,125,126,127,128,129,130,131,132,133,134,135,136,137,138,139,140,141,142,143,144,145,146,147,148,149,150,151,152,153,154,155,156,157,158,159,160,161,162,163,164,165,166,167,168,169,170,171,172,173,174,175,176,177,178,179,180,181,182,183,184,185,186,187,188,189,190,191,192,193,194,195,196,197,198,199,200,201,202,203,204,205,206,207,208,209,210,211,212,213,214,215,216,217,218,219,220,221,222,223,224,225,226,227,228,229,230,231,232,233,234,235,236,237,238,239,240,241,242,243,244,245,246,247,248,249,250,251,252,253,254,255,256,257,258,259,260,261,262,263,264,265,266,267,268,269,270,271,272,273,274,275,276,277,278,279,280,281,282,283,284,285,286,287,288,289,290,291,292,293,294,295,296,297,298,299,300,301,302,303,304,305,306,307,308,309,310,311,312,313,314,315,316,317,318,319,320,321,322,323,324,325,326,327,328,329,330,331,332,333,334,335,336,337,338,339,340,341,342,343,344,345,346,347,348,349,350,351,352,353,354,355,356,357,358,359,360,361,362,363,364,365,366,367,368,369,370,371,372,373,374,375,376,377,378,379,380,381,382,383,384,385,386,387,388,389,390,391,392,393,394,395,396,397,398,399
变型,-0.593245983,0.70144397,1.269531965,0.196593001,0.68038398,-0.253980994,-0.193206996,-0.399062991,0.394313008,0.242085993,-0.049784999,0.845479012,-0.798534989,-0.502358019,-0.252936989,-0.54539901,-0.063734002,-0.527893007,0.263882995,-0.519330025,-0.604682982,0.224671006,-0.587423027,0.263794005,0.254631013,-0.063455001,0.256507009,0.401190013,-0.595318973,0.684504986,0.987812996,-0.840285003,-0.368108988,-0.871046007,0.391694993,0.549914002,-0.030772001,0.378791988,-0.115491003,-0.141865999,-0.148552999,-0.56555903,-1.355929971,-0.37152499,0.931870997,0.289936006,-0.0383,-0.919898987,0.375898004,-0.342081994,1.280468941,0.298691988,-0.418278009,0.654102027,-0.067290999,-0.740643978,0.64793098,-0.366365999,0.104557998,-1.312440991,-0.271299988,0.340272009,0.058199,-0.267839015,-0.423139989,-0.390143007,-0.580735981,-0.873879015,0.070308,-0.648549974,-0.54203701,0.407415986,0.620413005,0.204883993,-0.201655,1.400954962,0.460211992,-0.617748022,-0.306212008,0.103611,-0.452434987,-0.686194003,0.241904005,0.154961005,-0.466509014,0.726287007,-0.680765986,0.133496001,-0.158566996,0.42325601,0.724134028,-0.338090986,-0.313964993,0.103469998,-0.874037027,-0.438665986,-0.739489019,0.638436019,0.236373007,-0.127421007,0.428586006,0.606530011,-0.147595003,0.267729014,-0.516484976,-0.40011999,0.274356991,0.331683993,1.124897003,-0.516467988,-0.182813004,-0.224793002,0.027338,0.609164,0.132726997,0.383873999,0.224577993,-0.679427028,-0.589965999,0.447957009,-0.235611007,-0.122596003,0.738665998,-0.710327983,0.011029,0.426676989,-1.010437965,-0.002559,0.168569997,0.185675994,0.031463001,-0.099491,0.153703004,0.018862,-0.324400991,-0.442088008,-0.576744974,-0.184378996,0.37639299,0.184656993,0.108216003,0.012511,-0.610144973,0.858322024,-0.030288,-0.868948996,-0.473394006,0.107173003,-0.121728003,-0.245728999,0.262564003,-0.236911997,0.020714,0.263920993,0.203060001,-0.645380974,-0.576038003,0.032687999,-0.073031999,0.620667994,-0.154159993,-0.028643999,0.531006992,0.26225099,0.319424987,-0.436221004,-0.085533001,-0.056763001,-0.288305998,0.019283,-0.515295029,0.410046011,0.480300009,0.305007994,-0.440582007,-0.454488993,0.049516,0.252285987,0.099932998,0.508889973,0.310353011,-0.552031994,-0.385044008,0.166311994,-0.577005982,0.423343986,0.792725027,0.035296999,0.56189698,1.264266014,-0.373746008,0.014684,-0.171654001,-0.233949006,-0.550080001,-0.342337012,0.470542997,-0.599309027,0.226389006,-0.869126022,0.628893018,-0.229068995,0.117403001,-0.378614008,-1.24980998,0.243845001,0.822826028,-0.129733995,-0.560558975,-0.070481002,-0.293161988,-1.137843013,0.618978024,-0.663809001,0.217857003,-0.799934983,-0.482082993,0.156856999,-0.221764997,-0.020388,0.529753029,-0.585466027,-0.922194004,0.443587989,0.670247972,-0.245316997,-0.27975601,-0.048046,0.479357988,-0.390924007,0.600905001,0.103560999,0.177477002,-0.901031017,0.574904978,0.200788006,0.011145,-0.029812999,0.713989019,-0.49602899,0.664696991,-0.198743999,-0.307128012,0.607348979,0.193901002,-0.572320998,0.236600995,0.177123994,0.414930999,0.209487006,-0.577941,-0.159257993,0.407828987,0.048950002,-0.406697989,-0.305110991,0.249194995,0.487861991,0.425321013,0.055858001,-0.554755986,-0.223639995,0.555022001,-0.054446999,-0.629813015,0.187731996,0.544829011,-0.829456985,-1.604367018,0.231714994,-0.148213997,-0.998548985,-0.601695001,1.001811028,-1.816486955,0.256374002,-0.151958004,0.095446996,-0.179947004,1.068600059,-0.681330979,1.185199976,0.492341012,-0.670175016,-1.744444966,-0.364051014,-1.248173952,-0.79370898,-0.399632007,-0.341524988,0.215968996,0.832657993,-1.276149988,0.532118022,0.348668009,-0.346823007,-0.419389009,-0.363893986,0.702718019,-0.751147985,-0.327562988,0.046459999,-0.525663018,-0.159761995,-0.369957,0.368671,0.228375003,-0.876694024,-0.318634003,0.49375999,-0.800009012,0.082355,0.580655992,0.098279998,-0.024156,0.398579001,-0.484831989,-0.180849001,0.507430017,0.029836001,-0.350587994,-0.807945013,0.096556,-0.563670993,0.089423999,-1.099740028,-0.742348015,-0.464854002,-1.016376019,-0.285627991,0.887713015,-0.313169986,-1.642758012,-0.001892,0.728706002,-0.909025013,0.428588003,-0.087990001,-0.295076013,0.851706028,-0.362711996,0.418664992,-0.846643984,0.317364991,0.649487019,0.654263973,0.085635997,0.772791982,0.133206993,-0.387676001,0.573679984,0.920919001,0.319132,0.752795994,0.354041994,0.256839007,0.912671983,0.184313998,-0.545442998,1.402832031,-0.183725998,0.015454,-0.181116,0.218936995,-0.349303991,-0.107027002,-1.222406983,-1.100847006,0.779430985,0.314960986,0.068553999,0.321722001,0.223422006,-0.144029006,-0.209353998,-0.74594301,-0.486490995,-0.015483,-0.460424006,0.729367018,0.712337017,-0.111238003,0.482948989,0.235357001,0.706892014,-0.269358993,0.293626994,-1.226348042,-0.533887029,0.468607008,0.317162007,0.384472013,-0.408744991,-0.344969004,0.169726998,-0.771375,0.25050199,0.218480006,0.460124999,0.245364994,,-0.593245983,0.70144397,1.269531965,0.196593001,0.68038398,-0.253980994,-0.193206996,-0.399062991,0.394313008,0.242085993,-0.049784999,0.845479012,-0.798534989,-0.502358019,-0.252936989,-0.54539901,-0.063734002,-0.527893007,0.263882995,-0.519330025,-0.604682982,0.224671006,-0.587423027,0.263794005,0.254631013,-0.063455001,0.256507009,0.401190013,-0.595318973,0.684504986,0.987812996,-0.840285003,-0.368108988,-0.871046007,0.391694993,0.549914002,-0.030772001,0.378791988,-0.115491003,-0.141865999,-0.148552999,-0.56555903,-1.355929971,-0.37152499,0.931870997,0.289936006,-0.0383,-0.919898987,0.375898004,-0.342081994,1.280468941,0.298691988,-0.418278009,0.654102027,-0.067290999,-0.740643978,0.64793098,-0.366365999,0.104557998,-1.312440991,-0.271299988,0.340272009,0.058199,-0.267839015,-0.423139989,-0.390143007,-0.580735981,-0.873879015,0.070308,-0.648549974,-0.54203701,0.407415986,0.620413005,0.204883993,-0.201655,1.400954962,0.460211992,-0.617748022,-0.306212008,0.103611,-0.452434987,-0.686194003,0.241904005,0.154961005,-0.466509014,0.726287007,-0.680765986,0.133496001,-0.158566996,0.42325601,0.724134028,-0.338090986,-0.313964993,0.103469998,-0.874037027,-0.438665986,-0.739489019,0.638436019,0.236373007,-0.127421007,0.428586006,0.606530011,-0.147595003,0.267729014,-0.516484976,-0.40011999,0.274356991,0.331683993,1.124897003,-0.516467988,-0.182813004,-0.224793002,0.027338,0.609164,0.132726997,0.383873999,0.224577993,-0.679427028,-0.589965999,0.447957009,-0.235611007,-0.122596003,0.738665998,-0.710327983,0.011029,0.426676989,-1.010437965,-0.002559,0.168569997,0.185675994,0.031463001,-0.099491,0.153703004,0.018862,-0.324400991,-0.442088008,-0.576744974,-0.184378996,0.37639299,0.184656993,0.108216003,0.012511,-0.610144973,0.858322024,-0.030288,-0.868948996,-0.473394006,0.107173003,-0.121728003,-0.245728999,0.262564003,-0.236911997,0.020714,0.263920993,0.203060001,-0.645380974,-0.576038003,0.032687999,-0.073031999,0.620667994,-0.154159993,-0.028643999,0.531006992,0.26225099,0.319424987,-0.436221004,-0.085533001,-0.056763001,-0.288305998,0.019283,-0.515295029,0.410046011,0.480300009,0.305007994,-0.440582007,-0.454488993,0.049516,0.252285987,0.099932998,0.508889973,0.310353011,-0.552031994,-0.385044008,0.166311994,-0.577005982,0.423343986,0.792725027,0.035296999,0.56189698,1.264266014,-0.373746008,0.014684,-0.171654001,-0.233949006,-0.550080001,-0.342337012,0.470542997,-0.599309027,0.226389006,-0.869126022,0.628893018,-0.229068995,0.117403001,-0.378614008,-1.24980998,0.243845001,0.822826028,-0.129733995,-0.560558975,-0.070481002,-0.293161988,-1.137843013,0.618978024,-0.663809001,0.217857003,-0.799934983,-0.482082993,0.156856999,-0.221764997,-0.020388,0.529753029,-0.585466027,-0.922194004,0.443587989,0.670247972,-0.245316997,-0.27975601,-0.048046,0.479357988,-0.390924007,0.600905001,0.103560999,0.177477002,-0.901031017,0.574904978,0.200788006,0.011145,-0.029812999,0.713989019,-0.49602899,0.664696991,-0.198743999,-0.307128012,0.607348979,0.193901002,-0.572320998,0.236600995,0.177123994,0.414930999,0.209487006,-0.577941,-0.159257993,0.407828987,0.048950002,-0.406697989,-0.305110991,0.249194995,0.487861991,0.425321013,0.055858001,-0.554755986,-0.223639995,0.555022001,-0.054446999,-0.629813015,0.187731996,0.544829011,-0.829456985,-1.604367018,0.231714994,-0.148213997,-0.998548985,-0.601695001,1.001811028,-1.816486955,0.256374002,-0.151958004,0.095446996,-0.179947004,1.068600059,-0.681330979,1.185199976,0.492341012,-0.670175016,-1.744444966,-0.364051014,-1.248173952,-0.79370898,-0.399632007,-0.341524988,0.215968996,0.832657993,-1.276149988,0.532118022,0.348668009,-0.346823007,-0.419389009,-0.363893986,0.702718019,-0.751147985,-0.327562988,0.046459999,-0.525663018,-0.159761995,-0.369957,0.368671,0.228375003,-0.876694024,-0.318634003,0.49375999,-0.800009012,0.082355,0.580655992,0.098279998,-0.024156,0.398579001,-0.484831989,-0.180849001,0.507430017,0.029836001,-0.350587994,-0.807945013,0.096556,-0.563670993,0.089423999,-1.099740028,-0.742348015,-0.464854002,-1.016376019,-0.285627991,0.887713015,-0.313169986,-1.642758012,-0.001892,0.728706002,-0.909025013,0.428588003,-0.087990001,-0.295076013,0.851706028,-0.362711996,0.418664992,-0.846643984,0.317364991,0.649487019,0.654263973,0.085635997,0.772791982,0.133206993,-0.387676001,0.573679984,0.920919001,0.319132,0.752795994,0.354041994,0.256839007,0.912671983,0.184313998,-0.545442998,1.402832031,-0.183725998,0.015454,-0.181116,0.218936995,-0.349303991,-0.107027002,-1.222406983,-1.100847006,0.779430985,0.314960986,0.068553999,0.321722001,0.223422006,-0.144029006,-0.209353998,-0.74594301,-0.486490995,-0.015483,-0.460424006,0.729367018,0.712337017,-0.111238003,0.482948989,0.235357001,0.706892014,-0.269358993,0.293626994,-1.226348042,-0.533887029,0.468607008,0.317162007,0.384472013,-0.408744991,-0.344969004,0.169726998,-0.771375,0.25050199,0.218480006,0.460124999,0.245364994
货箱,0.255681992,0.499585986,0.191964,0.455439001,0.741885006,-0.140039995,0.227207005,-0.096225001,0.131060004,0.072044,0.130684003,0.280225009,-0.204675004,0.48735401,-0.057937,-0.162315995,-0.310923994,-0.656720996,-0.041161999,-0.064677998,0.040231001,0.134727001,-0.060842,0.210620999,-0.391701013,0.286518991,0.092524998,-0.216227993,-0.002813,-0.071402997,0.060715001,-0.297068,-0.190469995,-0.225989997,-0.09093,0.139190003,-0.024670999,0.528294981,0.063155003,-0.033923998,-0.118081003,-0.095209002,-0.153573006,-0.160197005,0.117527999,0.287514001,-0.515560985,-0.213551998,0.545508027,-0.060578,0.350865006,-0.061149001,-0.224582002,0.354858011,-0.055877,0.360038996,-0.394189,0.122299999,-0.232815996,0.160589993,-0.139051005,-0.248670995,-0.210286006,0.020072,-0.313946009,0.037278999,-0.122207001,-0.347052008,-0.021777,-0.187783003,-0.386601001,0.351720005,0.037301,0.074473999,-0.064879999,0.077581003,0.296222001,0.033569001,-0.368185997,0.342474014,-0.176767007,-0.03559,-0.152263999,-0.068631001,0.387039006,0.208609998,0.427365988,0.271916002,0.234445006,-0.515085995,0.316978991,0.306681991,0.032164,0.227119997,0.048002999,-0.124291003,0.157945007,-0.426171988,0.289110988,-0.135802999,0.514271021,0.031066,-0.225341007,0.078408003,0.316938013,-0.243708998,0.060230002,-0.249065995,-0.249734998,0.02471,-0.124574997,-0.194547996,-0.154646993,-0.221396998,0.112357996,0.017084001,-0.078876004,0.079970002,-0.485428989,-0.259564012,0.168913007,-0.377442002,-0.087566003,-0.311286986,-0.261335999,0.170468003,-0.567511976,0.028439,0.16866,0.160206005,0.268860012,-0.013419,-0.271607995,-0.205947995,-0.348257005,-0.096776001,-0.717778981,-0.036130998,0.022669001,-0.316004008,0.612258017,-0.229147002,0.231608003,0.112903997,0.159785002,-0.312640011,-0.424180001,-0.00384,0.291352004,-0.126598999,0.254168004,0.201910004,0.350158006,0.079121999,0.326202005,0.111447997,-0.103955001,-0.543694019,0.334259003,-0.175476998,-0.266142011,0.093278997,-0.274111986,-0.171559006,0.118304998,-0.459008992,-0.177442998,0.147817001,0.315968007,-0.568193972,-0.167869002,0.494996995,0.087228,0.610687971,-0.034396,0.33219099,0.087973997,0.029297,-0.048843,-0.084195003,-0.241916999,0.140789002,-0.241588995,0.178559005,0.163666993,-0.152507007,-0.182877004,0.105076,0.053886998,-0.195297003,0.240483001,-0.099120997,-0.712382019,0.101562999,0.032559,0.25078699,0.007518,-0.145482004,0.042849999,0.128317997,-0.283803999,0.236398995,0.339583993,0.039632,-0.068467997,0.025457,-0.223732993,0.036759999,0.383345008,-0.184461996,0.124499001,-0.167877004,0.114177004,-0.070602998,-0.056873001,0.520814002,0.116876997,-0.086263999,0.41663599,-0.066937,0.116207004,-0.386602998,0.564631999,-0.045607999,0.100125998,-0.016953999,0.324005008,-0.117004998,0.273571998,-0.412901998,0.105255999,0.058341999,-0.162802994,-0.144015998,-0.117674999,0.071338996,-0.250304997,0.047869999,-0.237867996,0.098968998,0.172132,0.153101996,0.135775998,-0.084353,-0.020291001,-0.161289006,0.141065001,0.016166,0.298882008,-0.265830994,0.323576987,0.174134001,0.099771,0.029691,0.151821002,-0.414748013,-0.142083004,-0.359838009,-0.328361988,0.018957,-0.072939999,-0.191193998,0.153573006,-0.307801992,-0.284428,-0.505990982,0.140413001,-0.260286987,-0.370130002,-0.543429971,0.278997004,-0.531440973,0.178503007,0.208245993,-0.25305599,0.118105002,-0.029219,0.070719004,0.248687997,-0.215764001,-0.076747,-0.081629001,-0.077823997,0.173412994,0.014115,-0.009743,0.025032001,-0.072765999,-0.255757004,-0.103503004,0.035126999,-0.097687997,-0.213982999,0.083223,-0.180408001,-0.297109008,-0.136868998,0.240474001,0.146935001,-0.038210001,-0.104929,0.107152,-0.371048003,0.023014,0.127017006,0.025452999,-0.54579699,-0.157860994,0.0103,0.076514997,0.018722,0.327311993,0.090108998,-0.171844006,-0.190630004,-0.04462,-0.296088994,-0.216561005,0.127664,-0.204196006,0.025725,-0.338028014,0.222984001,0.129268005,0.050666999,-0.063166,-0.056469001,-0.144113004,-0.025465,0.228554994,0.401508003,-0.075730003,-0.080155998,-0.387641013,0.219979003,-0.099923998,-0.162986994,0.101438001,-0.335965991,-0.270924002,-0.023783,-0.120407,0.55657202,0.064781003,-0.110045999,-0.052216001,-0.124527998,0.248538002,0.222314999,0.044415999,-0.455000013,-0.379878014,0.366896987,-0.485350013,0.036683001,-0.236705005,-0.295430005,0.419607013,0.030966001,0.374428004,-0.864610016,0.547901988,0.003764,0.299248993,-0.391856015,0.043832999,-0.246968001,-0.082452998,-0.42118299,-0.211606994,-0.073898003,0.212503001,-0.033996999,-0.153605998,-0.052466001,-0.324146003,-0.265828013,0.162431002,-0.408428997,0.085738003,0.028615,-0.186839998,0.137084007,-0.010814,-0.118300997,-0.023634,0.170493007,-0.026431,-0.150103003,-0.033911001,0.113348998,-0.251165003,-0.160953,-0.052572001,0.208846003,-0.553032994,-0.043914001,-0.149406999,-0.051775001,-0.248762995,璐х,0.255681992,0.499585986,0.191964,0.455439001,0.741885006,-0.140039995,0.227207005,-0.096225001,0.131060004,0.072044,0.130684003,0.280225009,-0.204675004,0.48735401,-0.057937,-0.162315995,-0.310923994,-0.656720996,-0.041161999,-0.064677998,0.040231001,0.134727001,-0.060842,0.210620999,-0.391701013,0.286518991,0.092524998,-0.216227993,-0.002813,-0.071402997,0.060715001,-0.297068,-0.190469995,-0.225989997,-0.09093,0.139190003,-0.024670999,0.528294981,0.063155003,-0.033923998,-0.118081003,-0.095209002,-0.153573006,-0.160197005,0.117527999,0.287514001,-0.515560985,-0.213551998,0.545508027,-0.060578,0.350865006,-0.061149001,-0.224582002,0.354858011,-0.055877,0.360038996,-0.394189,0.122299999,-0.232815996,0.160589993,-0.139051005,-0.248670995,-0.210286006,0.020072,-0.313946009,0.037278999,-0.122207001,-0.347052008,-0.021777,-0.187783003,-0.386601001,0.351720005,0.037301,0.074473999,-0.064879999,0.077581003,0.296222001,0.033569001,-0.368185997,0.342474014,-0.176767007,-0.03559,-0.152263999,-0.068631001,0.387039006,0.208609998,0.427365988,0.271916002,0.234445006,-0.515085995,0.316978991,0.306681991,0.032164,0.227119997,0.048002999,-0.124291003,0.157945007,-0.426171988,0.289110988,-0.135802999,0.514271021,0.031066,-0.225341007,0.078408003,0.316938013,-0.243708998,0.060230002,-0.249065995,-0.249734998,0.02471,-0.124574997,-0.194547996,-0.154646993,-0.221396998,0.112357996,0.017084001,-0.078876004,0.079970002,-0.485428989,-0.259564012,0.168913007,-0.377442002,-0.087566003,-0.311286986,-0.261335999,0.170468003,-0.567511976,0.028439,0.16866,0.160206005,0.268860012,-0.013419,-0.271607995,-0.205947995,-0.348257005,-0.096776001,-0.717778981,-0.036130998,0.022669001,-0.316004008,0.612258017,-0.229147002,0.231608003,0.112903997,0.159785002,-0.312640011,-0.424180001,-0.00384,0.291352004,-0.126598999,0.254168004,0.201910004,0.350158006,0.079121999,0.326202005,0.111447997,-0.103955001,-0.543694019,0.334259003,-0.175476998,-0.266142011,0.093278997,-0.274111986,-0.171559006,0.118304998,-0.459008992,-0.177442998,0.147817001,0.315968007,-0.568193972,-0.167869002,0.494996995,0.087228,0.610687971,-0.034396,0.33219099,0.087973997,0.029297,-0.048843,-0.084195003,-0.241916999,0.140789002,-0.241588995,0.178559005,0.163666993,-0.152507007,-0.182877004,0.105076,0.053886998,-0.195297003,0.240483001,-0.099120997,-0.712382019,0.101562999,0.032559,0.25078699,0.007518,-0.145482004,0.042849999,0.128317997,-0.283803999,0.236398995,0.339583993,0.039632,-0.068467997,0.025457,-0.223732993,0.036759999,0.383345008,-0.184461996,0.124499001,-0.167877004,0.114177004,-0.070602998,-0.056873001,0.520814002,0.116876997,-0.086263999,0.41663599,-0.066937,0.116207004,-0.386602998,0.564631999,-0.045607999,0.100125998,-0.016953999,0.324005008,-0.117004998,0.273571998,-0.412901998,0.105255999,0.058341999,-0.162802994,-0.144015998,-0.117674999,0.071338996,-0.250304997,0.047869999,-0.237867996,0.098968998,0.172132,0.153101996,0.135775998,-0.084353,-0.020291001,-0.161289006,0.141065001,0.016166,0.298882008,-0.265830994,0.323576987,0.174134001,0.099771,0.029691,0.151821002,-0.414748013,-0.142083004,-0.359838009,-0.328361988,0.018957,-0.072939999,-0.191193998,0.153573006,-0.307801992,-0.284428,-0.505990982,0.140413001,-0.260286987,-0.370130002,-0.543429971,0.278997004,-0.531440973,0.178503007,0.208245993,-0.25305599,0.118105002,-0.029219,0.070719004,0.248687997,-0.215764001,-0.076747,-0.081629001,-0.077823997,0.173412994,0.014115,-0.009743,0.025032001,-0.072765999,-0.255757004,-0.103503004,0.035126999,-0.097687997,-0.213982999,0.083223,-0.180408001,-0.297109008,-0.136868998,0.240474001,0.146935001,-0.038210001,-0.104929,0.107152,-0.371048003,0.023014,0.127017006,0.025452999,-0.54579699,-0.157860994,0.0103,0.076514997,0.018722,0.327311993,0.090108998,-0.171844006,-0.190630004,-0.04462,-0.296088994,-0.216561005,0.127664,-0.204196006,0.025725,-0.338028014,0.222984001,0.129268005,0.050666999,-0.063166,-0.056469001,-0.144113004,-0.025465,0.228554994,0.401508003,-0.075730003,-0.080155998,-0.387641013,0.219979003,-0.099923998,-0.162986994,0.101438001,-0.335965991,-0.270924002,-0.023783,-0.120407,0.55657202,0.064781003,-0.110045999,-0.052216001,-0.124527998,0.248538002,0.222314999,0.044415999,-0.455000013,-0.379878014,0.366896987,-0.485350013,0.036683001,-0.236705005,-0.295430005,0.419607013,0.030966001,0.374428004,-0.864610016,0.547901988,0.003764,0.299248993,-0.391856015,0.043832999,-0.246968001,-0.082452998,-0.42118299,-0.211606994,-0.073898003,0.212503001,-0.033996999,-0.153605998,-0.052466001,-0.324146003,-0.265828013,0.162431002,-0.408428997,0.085738003,0.028615,-0.186839998,0.137084007,-0.010814,-0.118300997,-0.023634,0.170493007,-0.026431,-0.150103003,-0.033911001,0.113348998,-0.251165003,-0.160953,-0.052572001,0.208846003,-0.553032994,-0.043914001,-0.149406999,-0.051775001,-0.248762995
相对,-0.838786006,3.146809101,1.527544022,1.516294003,-0.067975998,0.257679999,1.828575969,-1.22615397,-0.558672011,0.355654001,-0.121164002,-0.450076997,-2.274080992,-0.637194991,0.226284996,-0.804957986,-0.012546,0.456286013,-0.032035001,-0.932145,-1.098305941,0.303413987,0.086119004,-0.312353998,2.181806087,0.255481005,0.35928899,0.402473003,-0.363398999,1.237089038,1.151857018,-0.148206994,0.538366973,-1.459370017,0.607940972,-0.588729024,0.116567999,-0.083710998,-0.392675996,1.716964006,-0.64130801,-0.110523999,-0.738102973,0.499668002,0.78224802,-0.006938,-0.357389987,-1.358173013,0.470245987,1.047055006,0.478309005,0.220556006,0.275220007,0.78183198,-1.001822948,-0.245599002,0.940539002,0.460065991,-1.69710505,1.283151031,0.049346,-1.276134014,1.647891998,-1.000440001,-1.195480943,0.293356001,-0.904175997,0.626012027,1.661175966,0.885329008,0.362029999,-0.957058012,0.54460299,1.352782965,-0.863192022,-0.52432698,2.762145042,-0.777621984,2.300421,0.155368999,-1.256171942,1.113387942,-0.598514974,0.319296002,1.60514605,0.952262998,1.58225596,-0.472481996,0.702926993,-1.387794018,0.365660995,-1.620383024,-1.742359042,2.021929026,0.419739991,-1.444964051,-1.449502945,1.963248014,0.548094988,0.402482003,0.184167996,2.151804924,-0.378066003,0.865580022,0.181771994,-0.704096973,1.275218964,1.320713043,-0.524649978,-0.398416996,2.61984396,-0.641586006,1.063879967,-0.810851991,1.505692005,1.190526962,0.495644987,0.106526002,-0.152740002,-0.707346022,0.778452992,-1.008795023,-0.451700985,0.080874003,0.133719996,0.297594011,-1.385622025,-0.805326998,2.419734001,0.566931009,0.531017005,0.048652999,-0.840833008,1.788125038,2.224591017,0.090204,0.814593971,0.254617006,0.727729023,0.314583004,1.355206966,-0.983044982,-1.169314027,-0.728219986,-0.567413986,-0.832408011,-0.207789004,0.102297999,-1.456604958,0.250955999,1.574429035,-1.090975046,-0.456939995,0.499514014,2.731060982,0.097039998,0.355987996,-0.322461009,-0.240366995,-1.295750976,-0.610014975,-1.961022973,1.399253964,-1.105015039,-0.280840993,0.736845016,-1.801072001,-0.966009021,-1.830924034,0.255192995,-0.369571,-1.177631974,1.375987053,1.959349036,-0.194279,0.653029978,1.17602098,0.823472977,-0.029451,1.35156405,0.224868998,1.269544005,1.468940973,0.183819994,0.266000003,0.398968011,0.231121004,0.615786016,-0.894922018,1.09879899,0.421523988,-0.475850999,2.765073061,1.379626989,1.18552196,-0.440005004,-0.301710993,0.267286986,1.059978962,-0.619475007,-0.822798014,-0.575223029,-1.062463999,-0.711232007,-0.77680999,2.282114029,-0.391290992,1.269497991,-0.297899008,1.002938032,-0.107052997,-1.271060944,1.104967952,-1.107759953,1.546535015,1.276240945,0.012225,1.272467971,-2.206047058,0.95617801,-1.338060975,1.050171018,2.109209061,0.982222974,-0.855901003,-0.794220984,0.014926,0.011926,-1.982377052,-1.389565945,-1.197955966,-0.207049996,-0.440750986,-0.891664028,1.989261985,0.487670988,-1.000833035,-1.186452985,-0.923493028,2.196096897,-0.061487999,-0.048822999,0.227630004,0.851706028,-0.564792991,-1.041111946,0.010748,-1.326894999,-1.484596014,-0.059843998,-1.462262988,0.944922984,0.573525012,0.619621992,0.01718,0.414144993,0.274232,-0.238802001,1.636708021,0.661269009,0.421169013,0.094099,-0.750455022,1.343407035,-0.952310979,-1.477838039,-2.429156065,1.175855994,0.337484002,0.177285001,1.332620025,-0.245988995,-0.578404009,0.608961999,1.223305941,1.492287993,-0.321137011,-1.133975029,-1.119325995,-0.639986992,-0.232975006,-2.064997911,0.403425992,-0.078086004,1.16181004,0.202813998,-0.646112025,-1.112365007,1.373000979,0.017127,-1.364199042,-1.005260944,-0.93848902,-1.942528009,2.101795912,0.38458699,0.184636995,1.287009001,-0.470393002,-2.328840971,-2.17248106,-0.434919,-1.235703945,0.611895978,-0.169844002,0.251401007,-0.691781998,0.050330002,-1.602671981,1.279139042,-0.554273009,-0.463919997,0.864832997,-0.356316,-0.934449971,2.291177988,-1.28787601,0.694944024,1.850924015,1.203166962,-0.511318982,0.349157006,-1.571535945,0.136188,-0.741820991,-0.578806996,-1.612447977,0.282949001,-0.583442986,0.320389003,0.251628995,-0.207268998,-1.205217004,-0.625585973,1.915014982,0.237540007,0.091769002,-0.453424007,-0.423994988,1.294788003,0.852370024,2.27156806,1.709527016,1.095643044,0.812044024,0.333027005,0.676635981,2.263320923,0.423272997,-1.86955595,0.813117981,-0.487875998,0.831129014,-0.435690999,-0.278447986,-0.327755988,0.180879995,-0.053817999,-1.56833601,-0.604426026,1.560639024,-2.202734947,0.125829995,-1.376682997,1.669533014,-1.975942016,-0.517916977,-0.864866018,0.358830005,-1.696259975,-0.699778974,0.871659994,-0.093248002,-0.328557998,-1.080325961,-2.020456076,-0.782881975,0.404186994,-0.541845977,-0.277774006,0.333361,1.774984956,0.919323981,0.176039994,2.034537077,-1.328431964,1.606560946,0.629141986,-0.302475005,0.543582022,2.345340967,0.901292026,0.544764996,0.026822001,1.858538032,-0.568809986,1.942885995,-0.668327987,2.231132984,-0.34067899,稿,-0.838786006,3.146809101,1.527544022,1.516294003,-0.067975998,0.257679999,1.828575969,-1.22615397,-0.558672011,0.355654001,-0.121164002,-0.450076997,-2.274080992,-0.637194991,0.226284996,-0.804957986,-0.012546,0.456286013,-0.032035001,-0.932145,-1.098305941,0.303413987,0.086119004,-0.312353998,2.181806087,0.255481005,0.35928899,0.402473003,-0.363398999,1.237089038,1.151857018,-0.148206994,0.538366973,-1.459370017,0.607940972,-0.588729024,0.116567999,-0.083710998,-0.392675996,1.716964006,-0.64130801,-0.110523999,-0.738102973,0.499668002,0.78224802,-0.006938,-0.357389987,-1.358173013,0.470245987,1.047055006,0.478309005,0.220556006,0.275220007,0.78183198,-1.001822948,-0.245599002,0.940539002,0.460065991,-1.69710505,1.283151031,0.049346,-1.276134014,1.647891998,-1.000440001,-1.195480943,0.293356001,-0.904175997,0.626012027,1.661175966,0.885329008,0.362029999,-0.957058012,0.54460299,1.352782965,-0.863192022,-0.52432698,2.762145042,-0.777621984,2.300421,0.155368999,-1.256171942,1.113387942,-0.598514974,0.319296002,1.60514605,0.952262998,1.58225596,-0.472481996,0.702926993,-1.387794018,0.365660995,-1.620383024,-1.742359042,2.021929026,0.419739991,-1.444964051,-1.449502945,1.963248014,0.548094988,0.402482003,0.184167996,2.151804924,-0.378066003,0.865580022,0.181771994,-0.704096973,1.275218964,1.320713043,-0.524649978,-0.398416996,2.61984396,-0.641586006,1.063879967,-0.810851991,1.505692005,1.190526962,0.495644987,0.106526002,-0.152740002,-0.707346022,0.778452992,-1.008795023,-0.451700985,0.080874003,0.133719996,0.297594011,-1.385622025,-0.805326998,2.419734001,0.566931009,0.531017005,0.048652999,-0.840833008,1.788125038,2.224591017,0.090204,0.814593971,0.254617006,0.727729023,0.314583004,1.355206966,-0.983044982,-1.169314027,-0.728219986,-0.567413986,-0.832408011,-0.207789004,0.102297999,-1.456604958,0.250955999,1.574429035,-1.090975046,-0.456939995,0.499514014,2.731060982,0.097039998,0.355987996,-0.322461009,-0.240366995,-1.295750976,-0.610014975,-1.961022973,1.399253964,-1.105015039,-0.280840993,0.736845016,-1.801072001,-0.966009021,-1.830924034,0.255192995,-0.369571,-1.177631974,1.375987053,1.959349036,-0.194279,0.653029978,1.17602098,0.823472977,-0.029451,1.35156405,0.224868998,1.269544005,1.468940973,0.183819994,0.266000003,0.398968011,0.231121004,0.615786016,-0.894922018,1.09879899,0.421523988,-0.475850999,2.765073061,1.379626989,1.18552196,-0.440005004,-0.301710993,0.267286986,1.059978962,-0.619475007,-0.822798014,-0.575223029,-1.062463999,-0.711232007,-0.77680999,2.282114029,-0.391290992,1.269497991,-0.297899008,1.002938032,-0.107052997,-1.271060944,1.104967952,-1.107759953,1.546535015,1.276240945,0.012225,1.272467971,-2.206047058,0.95617801,-1.338060975,1.050171018,2.109209061,0.982222974,-0.855901003,-0.794220984,0.014926,0.011926,-1.982377052,-1.389565945,-1.197955966,-0.207049996,-0.440750986,-0.891664028,1.989261985,0.487670988,-1.000833035,-1.186452985,-0.923493028,2.196096897,-0.061487999,-0.048822999,0.227630004,0.851706028,-0.564792991,-1.041111946,0.010748,-1.326894999,-1.484596014,-0.059843998,-1.462262988,0.944922984,0.573525012,0.619621992,0.01718,0.414144993,0.274232,-0.238802001,1.636708021,0.661269009,0.421169013,0.094099,-0.750455022,1.343407035,-0.952310979,-1.477838039,-2.429156065,1.175855994,0.337484002,0.177285001,1.332620025,-0.245988995,-0.578404009,0.608961999,1.223305941,1.492287993,-0.321137011,-1.133975029,-1.119325995,-0.639986992,-0.232975006,-2.064997911,0.403425992,-0.078086004,1.16181004,0.202813998,-0.646112025,-1.112365007,1.373000979,0.017127,-1.364199042,-1.005260944,-0.93848902,-1.942528009,2.101795912,0.38458699,0.184636995,1.287009001,-0.470393002,-2.328840971,-2.17248106,-0.434919,-1.235703945,0.611895978,-0.169844002,0.251401007,-0.691781998,0.050330002,-1.602671981,1.279139042,-0.554273009,-0.463919997,0.864832997,-0.356316,-0.934449971,2.291177988,-1.28787601,0.694944024,1.850924015,1.203166962,-0.511318982,0.349157006,-1.571535945,0.136188,-0.741820991,-0.578806996,-1.612447977,0.282949001,-0.583442986,0.320389003,0.251628995,-0.207268998,-1.205217004,-0.625585973,1.915014982,0.237540007,0.091769002,-0.453424007,-0.423994988,1.294788003,0.852370024,2.27156806,1.709527016,1.095643044,0.812044024,0.333027005,0.676635981,2.263320923,0.423272997,-1.86955595,0.813117981,-0.487875998,0.831129014,-0.435690999,-0.278447986,-0.327755988,0.180879995,-0.053817999,-1.56833601,-0.604426026,1.560639024,-2.202734947,0.125829995,-1.376682997,1.669533014,-1.975942016,-0.517916977,-0.864866018,0.358830005,-1.696259975,-0.699778974,0.871659994,-0.093248002,-0.328557998,-1.080325961,-2.020456076,-0.782881975,0.404186994,-0.541845977,-0.277774006,0.333361,1.774984956,0.919323981,0.176039994,2.034537077,-1.328431964,1.606560946,0.629141986,-0.302475005,0.543582022,2.345340967,0.901292026,0.544764996,0.026822001,1.858538032,-0.568809986,1.942885995,-0.668327987,2.231132984,-0.34067899
构造,-1.668241978,0.894567013,1.62371099,0.322219998,2.645766974,-0.799540997,-0.110103004,-2.462294102,0.681810975,1.325162053,-1.015414,0.951713979,-0.50752598,0.51868701,-0.478368014,-0.471601009,-0.25018999,-0.925230026,0.667102993,-0.510900021,-1.625779033,0.485545009,0.258982003,1.230613947,-0.802277982,0.598016024,-0.505949974,0.380012989,-1.186786056,1.602499008,0.471421003,0.216088995,0.092573002,0.471350014,1.754119992,-0.063831002,0.173805997,-0.254202992,1.745219946,1.453127027,-0.042675,-1.499673009,-1.445309043,-0.414793998,0.371942014,0.617510021,0.564267993,-2.032847881,0.048974,-0.058405001,0.305399001,-1.405187964,0.919833004,0.819145977,-2.911683083,0.50969702,2.341533899,0.339626014,-1.51038301,-0.287793994,-0.909438014,0.413877994,-0.977002025,0.140009999,-1.112915993,-1.146623015,-0.713836014,0.724418998,1.683423996,-1.117269039,-0.574177027,-0.425451994,0.234793007,0.911697984,-0.28628701,0.103745997,0.103398003,1.882606983,-0.606930971,0.501594007,0.080329001,-1.293493986,-0.254227012,0.094792999,-0.158115,0.733229995,0.162272006,-1.445279956,0.674170017,-0.370335996,0.032809,-0.857183993,-0.157073006,-0.546066999,-1.143802047,-0.418085992,0.737582982,-0.061625998,-1.679000974,0.477907002,0.572875023,-1.85700798,0.768580019,1.509210944,1.610839009,-0.877373993,2.046169043,0.967122972,0.405925989,-1.780627966,-0.188151002,-0.939985991,0.616023004,0.081625,0.643694997,1.24277699,0.824509025,-1.417201042,0.256792009,0.274203986,-0.823791981,1.294548988,1.19255805,-2.106712103,-0.318479002,1.265573025,-1.098788023,-1.717622042,0.192465007,-1.298931003,-0.01274,-0.657485008,-1.535931945,1.392711043,0.262488991,-0.054062001,-0.521369994,-0.227836996,-1.025074005,-0.947013021,0.729007006,0.016484,-0.350003004,0.349132001,-0.355554998,-0.389086992,0.442867994,1.588436961,-1.749580979,-0.846192002,1.216004968,1.015702009,0.731133997,-0.74744302,1.574112058,-0.181485996,0.570559978,-0.562874019,0.086117998,1.93877399,0.745553017,-2.007941008,1.150794029,-1.125496984,-0.592767,0.044700999,0.254162014,-0.208206996,-1.173861027,0.198083997,0.076922998,0.106764004,1.046126962,0.715119004,0.123141997,-0.468715996,1.308115005,1.75512898,0.551873982,1.185389042,-0.449835002,0.733063996,0.557826996,0.111520998,0.007669,2.011713982,0.795783997,-0.093010999,1.202548027,0.394511998,-0.877534986,-1.014243007,0.130687997,1.061911941,1.044420958,0.430406988,-0.196572006,-0.545912981,-0.127415001,0.244121,0.135208994,0.617823005,-1.320327044,0.665893972,-0.978330016,0.891757011,1.03470397,0.719035983,-0.882192016,0.390859008,0.060968,-1.991580009,1.225564003,1.454399943,2.684001923,-0.10768,-0.838663995,0.538441002,0.595118999,0.137822002,0.785274029,1.058079004,0.822070003,-0.300612986,0.049862999,-0.651753008,-0.416552991,-0.649285972,-0.040713999,-0.30783999,0.089768998,0.924284995,-0.005212,-0.402282,0.444505006,-0.499107987,0.32405901,0.38617301,0.798766017,0.914165974,1.518326044,0.378735989,0.481285006,0.536936998,-0.918506026,-0.207014993,0.107482001,-0.660337985,-0.438257009,-0.038555,-1.169370055,0.133633003,0.132246003,-0.072843,-0.310115993,0.406715006,-0.457410008,-0.068497002,1.858911037,1.495218992,0.309020013,-0.924592018,0.098628998,0.693441987,-1.060034037,-1.018486023,-2.036775112,-0.34424001,0.406857997,0.867619991,-0.473412007,0.803296983,-0.616362989,1.936828971,-2.223121881,1.96747005,-0.168852001,0.725553989,0.985836029,-0.878678024,0.75692302,0.88052702,1.350116014,-0.237587005,-0.756676018,1.300127983,0.115676001,-1.50187695,-1.620692015,0.767049015,0.101328,-0.349427998,-1.185863018,-0.296891004,-0.827461004,-0.951816022,0.43205601,0.674166024,0.472333997,-0.562767029,0.780586004,-0.280348003,-1.097738981,-0.380223989,1.01970005,1.274503946,-1.018641949,-0.331537008,-1.402394056,0.624558985,-0.454737008,-0.569779992,0.912527025,-0.036858998,-0.196512997,1.862102032,-1.165338039,-1.099902034,-0.119534999,0.206472993,-0.519986987,0.017937001,-1.239330053,-0.159362003,0.956691027,-0.372752011,0.106974997,-1.723806977,0.573010981,-1.23567605,1.55983305,0.264984012,-0.122929998,0.141683996,1.980393052,-0.989235997,-0.233105004,0.114343002,-1.323920012,-0.760639012,1.230499983,-0.239705995,-0.952724993,-1.168465018,1.056592941,0.655700028,-0.933393002,0.382239997,1.095337033,-1.025166988,0.334302008,-0.475151002,0.493633986,0.206749007,-0.469870001,-0.188394994,0.694905996,1.11047399,-1.756989956,1.250108957,-0.438169003,0.480497986,-0.666037977,1.158347964,0.107068002,-2.03096199,-1.315222025,-1.242012978,-0.542737007,-0.625569999,-1.262295961,0.113771997,-0.606333971,0.934208989,-1.426020026,-1.850703001,-1.218742013,-0.638055027,-0.543874025,-0.483808011,0.597478986,0.060465999,0.108018003,0.78521502,2.570127964,-1.645146012,1.348253012,-0.935871005,-0.779525995,0.929691017,0.441018999,0.167328,-0.123677999,0.288120002,0.975849986,-0.276591986,0.783770025,-0.128241003,1.168563962,0.215889007,?-1.66824197769,0.894567013,1.62371099,0.322219998,2.645766974,-0.799540997,-0.110103004,-2.462294102,0.681810975,1.325162053,-1.015414,0.951713979,-0.50752598,0.51868701,-0.478368014,-0.471601009,-0.25018999,-0.925230026,0.667102993,-0.510900021,-1.625779033,0.485545009,0.258982003,1.230613947,-0.802277982,0.598016024,-0.505949974,0.380012989,-1.186786056,1.602499008,0.471421003,0.216088995,0.092573002,0.471350014,1.754119992,-0.063831002,0.173805997,-0.254202992,1.745219946,1.453127027,-0.042675,-1.499673009,-1.445309043,-0.414793998,0.371942014,0.617510021,0.564267993,-2.032847881,0.048974,-0.058405001,0.305399001,-1.405187964,0.919833004,0.819145977,-2.911683083,0.50969702,2.341533899,0.339626014,-1.51038301,-0.287793994,-0.909438014,0.413877994,-0.977002025,0.140009999,-1.112915993,-1.146623015,-0.713836014,0.724418998,1.683423996,-1.117269039,-0.574177027,-0.425451994,0.234793007,0.911697984,-0.28628701,0.103745997,0.103398003,1.882606983,-0.606930971,0.501594007,0.080329001,-1.293493986,-0.254227012,0.094792999,-0.158115,0.733229995,0.162272006,-1.445279956,0.674170017,-0.370335996,0.032809,-0.857183993,-0.157073006,-0.546066999,-1.143802047,-0.418085992,0.737582982,-0.061625998,-1.679000974,0.477907002,0.572875023,-1.85700798,0.768580019,1.509210944,1.610839009,-0.877373993,2.046169043,0.967122972,0.405925989,-1.780627966,-0.188151002,-0.939985991,0.616023004,0.081625,0.643694997,1.24277699,0.824509025,-1.417201042,0.256792009,0.274203986,-0.823791981,1.294548988,1.19255805,-2.106712103,-0.318479002,1.265573025,-1.098788023,-1.717622042,0.192465007,-1.298931003,-0.01274,-0.657485008,-1.535931945,1.392711043,0.262488991,-0.054062001,-0.521369994,-0.227836996,-1.025074005,-0.947013021,0.729007006,0.016484,-0.350003004,0.349132001,-0.355554998,-0.389086992,0.442867994,1.588436961,-1.749580979,-0.846192002,1.216004968,1.015702009,0.731133997,-0.74744302,1.574112058,-0.181485996,0.570559978,-0.562874019,0.086117998,1.93877399,0.745553017,-2.007941008,1.150794029,-1.125496984,-0.592767,0.044700999,0.254162014,-0.208206996,-1.173861027,0.198083997,0.076922998,0.106764004,1.046126962,0.715119004,0.123141997,-0.468715996,1.308115005,1.75512898,0.551873982,1.185389042,-0.449835002,0.733063996,0.557826996,0.111520998,0.007669,2.011713982,0.795783997,-0.093010999,1.202548027,0.394511998,-0.877534986,-1.014243007,0.130687997,1.061911941,1.044420958,0.430406988,-0.196572006,-0.545912981,-0.127415001,0.244121,0.135208994,0.617823005,-1.320327044,0.665893972,-0.978330016,0.891757011,1.03470397,0.719035983,-0.882192016,0.390859008,0.060968,-1.991580009,1.225564003,1.454399943,2.684001923,-0.10768,-0.838663995,0.538441002,0.595118999,0.137822002,0.785274029,1.058079004,0.822070003,-0.300612986,0.049862999,-0.651753008,-0.416552991,-0.649285972,-0.040713999,-0.30783999,0.089768998,0.924284995,-0.005212,-0.402282,0.444505006,-0.499107987,0.32405901,0.38617301,0.798766017,0.914165974,1.518326044,0.378735989,0.481285006,0.536936998,-0.918506026,-0.207014993,0.107482001,-0.660337985,-0.438257009,-0.038555,-1.169370055,0.133633003,0.132246003,-0.072843,-0.310115993,0.406715006,-0.457410008,-0.068497002,1.858911037,1.495218992,0.309020013,-0.924592018,0.098628998,0.693441987,-1.060034037,-1.018486023,-2.036775112,-0.34424001,0.406857997,0.867619991,-0.473412007,0.803296983,-0.616362989,1.936828971,-2.223121881,1.96747005,-0.168852001,0.725553989,0.985836029,-0.878678024,0.75692302,0.88052702,1.350116014,-0.237587005,-0.756676018,1.300127983,0.115676001,-1.50187695,-1.620692015,0.767049015,0.101328,-0.349427998,-1.185863018,-0.296891004,-0.827461004,-0.951816022,0.43205601,0.674166024,0.472333997,-0.562767029,0.780586004,-0.280348003,-1.097738981,-0.380223989,1.01970005,1.274503946,-1.018641949,-0.331537008,-1.402394056,0.624558985,-0.454737008,-0.569779992,0.912527025,-0.036858998,-0.196512997,1.862102032,-1.165338039,-1.099902034,-0.119534999,0.206472993,-0.519986987,0.017937001,-1.239330053,-0.159362003,0.956691027,-0.372752011,0.106974997,-1.723806977,0.573010981,-1.23567605,1.55983305,0.264984012,-0.122929998,0.141683996,1.980393052,-0.989235997,-0.233105004,0.114343002,-1.323920012,-0.760639012,1.230499983,-0.239705995,-0.952724993,-1.168465018,1.056592941,0.655700028,-0.933393002,0.382239997,1.095337033,-1.025166988,0.334302008,-0.475151002,0.493633986,0.206749007,-0.469870001,-0.188394994,0.694905996,1.11047399,-1.756989956,1.250108957,-0.438169003,0.480497986,-0.666037977,1.158347964,0.107068002,-2.03096199,-1.315222025,-1.242012978,-0.542737007,-0.625569999,-1.262295961,0.113771997,-0.606333971,0.934208989,-1.426020026,-1.850703001,-1.218742013,-0.638055027,-0.543874025,-0.483808011,0.597478986,0.060465999,0.108018003,0.78521502,2.570127964,-1.645146012,1.348253012,-0.935871005,-0.779525995,0.929691017,0.441018999,0.167328,-0.123677999,0.288120002,0.975849986,-0.276591986,0.783770025,-0.128241003,1.168563962,0.215889007,
卸载,0.174788997,1.105841041,-0.098343998,0.041365001,0.530324996,0.546117008,0.329250008,-0.283917993,0.171994001,0.611576021,0.434650987,0.194050997,-0.001945,-0.059574001,0.343919009,-0.510739028,-0.33761099,-1.072456956,-0.201931998,-0.381756991,-0.194482997,0.144493997,0.038376998,0.085915998,0.108175002,0.620344996,-0.731934011,0.603552997,0.158163995,0.531197011,-0.25573799,-0.160710007,-0.576187015,-0.110853001,0.043060001,0.258172005,0.226833001,0.159235999,-0.264968991,-0.055427,0.265462011,-0.377110004,-0.194154993,0.366344005,0.580887973,0.400070995,0.272736996,0.315982014,-0.142454997,-0.339488,0.531970978,-0.759823024,-0.323036999,0.734296024,-0.073555,0.422347993,0.043765001,-0.223361,0.187617004,0.199128002,-0.47823,0.652377009,-1.089084029,0.043203998,-0.121570997,0.590458989,-0.232264996,-0.004372,-0.219215006,-0.375205994,-0.690249979,0.353529006,0.641584992,0.473051012,-0.217090994,0.959366024,0.576412022,-0.303656012,-0.099072002,0.145115003,0.056940999,0.098328002,-0.007696,-0.83674401,-0.396827012,-0.395913005,-0.201867998,0.135634005,0.120123997,0.225732997,0.074848004,0.510605991,-0.157567993,-0.394621998,-0.023969,-0.620691001,-0.628691018,0.640531003,0.263635993,-0.048732001,0.484088987,-0.062802002,-0.104069002,-0.202705994,-0.454625994,-0.338405997,-0.035459001,-0.182139993,0.158841997,0.44373101,-0.469006002,-0.973448992,-0.429037005,0.422390997,0.185586005,0.642849028,0.151390001,-0.243031994,0.129372001,-0.185383007,-0.057898,0.074600004,0.483958006,-0.493205994,-0.308782995,0.060738001,-0.163312003,0.100722,-0.67584902,0.62687701,-0.040139001,-0.590587974,-0.043246999,0.171920002,-0.133359998,-0.301310986,-0.537222981,0.102728002,0.063345,0.338757008,-0.530682981,0.256154001,0.106581002,-0.177937001,0.161664993,-0.219870999,-0.491501004,0.266189009,0.189475998,-0.52948302,0.385657012,-0.598127007,0.048020002,-0.312911987,0.186405003,0.039767001,0.036281001,0.546855986,-0.026388999,-0.026110999,-0.275564998,-0.008691,-0.737884998,0.011527,-0.035170998,-0.474947989,0.310252994,0.144863993,-0.138831005,-0.182161003,-0.346531987,-0.145787001,0.238961995,0.374707013,0.983959973,0.607033014,0.178660005,0.134387001,0.147131994,0.155338004,-0.174668998,-0.554745972,0.0073,-0.562762022,-0.136948004,0.463138014,0.236422002,-0.220872998,0.659002006,-0.391692013,-0.038897999,-0.222582996,-0.434583008,0.079694003,0.312243015,0.096389003,0.925383985,-0.051943,0.249004006,-0.187870994,0.404394001,0.099388003,-0.549555004,0.393905997,-0.149362996,0.411819011,0.134766996,0.195105001,-0.023383001,0.002854,-0.247155994,-0.065801002,-0.190617993,-0.446601987,-0.26770401,-0.123352997,0.224652007,0.145597994,-0.010881,-0.404282004,-0.36442399,0.128518,-0.070139997,-0.068575002,0.56982702,0.411365986,0.075392,-0.474795997,0.001408,0.022663999,0.135922998,-0.389115006,-0.338544011,-0.578714013,0.784727991,-0.409162015,0.807277024,0.494854003,0.175411001,-0.128468007,0.108286001,-0.481864005,0.083926,0.677142024,-0.354948997,0.378540009,0.218335003,0.158335999,0.111170001,-0.149434999,0.718888998,0.734407008,0.120779999,-0.087668002,-0.305545002,-0.364533991,0.067847997,0.022697,-0.013232,0.272363991,-0.385035008,0.568931997,0.290289998,-0.226510003,-0.390989989,-0.119608998,0.856272995,-0.362105012,0.127688006,-0.054802999,0.295053005,0.184359998,-0.075066999,0.339803994,-0.164186999,-0.054191999,-0.306198001,-0.017875999,0.347357005,0.429646999,-0.378767997,0.570299983,0.253659993,-0.086227,-0.402271986,-0.279163003,-0.453750998,-0.078634001,0.418341994,-0.283255011,0.226813003,-0.085648999,-0.538042009,-0.816819012,0.676787972,0.156756997,-0.02382,0.056843001,-0.191284001,-0.379640013,0.348093987,-0.060972001,-0.47251901,0.186217993,-0.142896995,0.269973993,-0.315147996,-0.148283005,0.163836002,0.040922001,-0.868272007,0.169101,0.295623004,-0.54696101,0.131707996,-0.65109098,-0.800091028,0.182102993,0.065811001,-0.270336986,0.247308999,0.442708999,-0.384229004,0.516960025,-0.469776988,-0.808456004,0.132350996,-0.197684005,-0.397188991,-0.147471994,0.478540987,-0.189149007,-0.194810003,0.243667006,0.273214012,-0.416119993,0.333240002,0.179536998,-0.075306997,-0.110482998,-0.358732998,0.213397995,0.166608006,-0.083779,-0.078199998,0.015043,0.044077002,0.100872003,0.228184998,-0.424190015,-0.185369998,0.354528993,0.168284997,0.071080998,0.240676999,-0.481326014,0.41593501,0.557087004,0.060304001,0.726787984,-1.146896005,0.085689001,-0.30656901,-0.203238994,-0.518388987,-0.069651,-0.246169001,-0.521683991,-0.032767002,-0.345643014,-0.277168006,0.32734701,-0.387439996,0.002341,0.487863004,-0.726167977,-0.233507007,-0.391357988,-0.859059989,0.318526,-0.305905998,0.151857004,0.615090013,0.215016007,-0.320688993,-0.655277014,-0.048836999,0.095682003,-1.459416032,0.675749004,0.092892997,0.274365008,0.097172998,-0.707535982,0.527294993,-0.583953977,-0.130105004,0.544677973,-0.173611999,0.434646994,歌浇,0.174788997,1.105841041,-0.098343998,0.041365001,0.530324996,0.546117008,0.329250008,-0.283917993,0.171994001,0.611576021,0.434650987,0.194050997,-0.001945,-0.059574001,0.343919009,-0.510739028,-0.33761099,-1.072456956,-0.201931998,-0.381756991,-0.194482997,0.144493997,0.038376998,0.085915998,0.108175002,0.620344996,-0.731934011,0.603552997,0.158163995,0.531197011,-0.25573799,-0.160710007,-0.576187015,-0.110853001,0.043060001,0.258172005,0.226833001,0.159235999,-0.264968991,-0.055427,0.265462011,-0.377110004,-0.194154993,0.366344005,0.580887973,0.400070995,0.272736996,0.315982014,-0.142454997,-0.339488,0.531970978,-0.759823024,-0.323036999,0.734296024,-0.073555,0.422347993,0.043765001,-0.223361,0.187617004,0.199128002,-0.47823,0.652377009,-1.089084029,0.043203998,-0.121570997,0.590458989,-0.232264996,-0.004372,-0.219215006,-0.375205994,-0.690249979,0.353529006,0.641584992,0.473051012,-0.217090994,0.959366024,0.576412022,-0.303656012,-0.099072002,0.145115003,0.056940999,0.098328002,-0.007696,-0.83674401,-0.396827012,-0.395913005,-0.201867998,0.135634005,0.120123997,0.225732997,0.074848004,0.510605991,-0.157567993,-0.394621998,-0.023969,-0.620691001,-0.628691018,0.640531003,0.263635993,-0.048732001,0.484088987,-0.062802002,-0.104069002,-0.202705994,-0.454625994,-0.338405997,-0.035459001,-0.182139993,0.158841997,0.44373101,-0.469006002,-0.973448992,-0.429037005,0.422390997,0.185586005,0.642849028,0.151390001,-0.243031994,0.129372001,-0.185383007,-0.057898,0.074600004,0.483958006,-0.493205994,-0.308782995,0.060738001,-0.163312003,0.100722,-0.67584902,0.62687701,-0.040139001,-0.590587974,-0.043246999,0.171920002,-0.133359998,-0.301310986,-0.537222981,0.102728002,0.063345,0.338757008,-0.530682981,0.256154001,0.106581002,-0.177937001,0.161664993,-0.219870999,-0.491501004,0.266189009,0.189475998,-0.52948302,0.385657012,-0.598127007,0.048020002,-0.312911987,0.186405003,0.039767001,0.036281001,0.546855986,-0.026388999,-0.026110999,-0.275564998,-0.008691,-0.737884998,0.011527,-0.035170998,-0.474947989,0.310252994,0.144863993,-0.138831005,-0.182161003,-0.346531987,-0.145787001,0.238961995,0.374707013,0.983959973,0.607033014,0.178660005,0.134387001,0.147131994,0.155338004,-0.174668998,-0.554745972,0.0073,-0.562762022,-0.136948004,0.463138014,0.236422002,-0.220872998,0.659002006,-0.391692013,-0.038897999,-0.222582996,-0.434583008,0.079694003,0.312243015,0.096389003,0.925383985,-0.051943,0.249004006,-0.187870994,0.404394001,0.099388003,-0.549555004,0.393905997,-0.149362996,0.411819011,0.134766996,0.195105001,-0.023383001,0.002854,-0.247155994,-0.065801002,-0.190617993,-0.446601987,-0.26770401,-0.123352997,0.224652007,0.145597994,-0.010881,-0.404282004,-0.36442399,0.128518,-0.070139997,-0.068575002,0.56982702,0.411365986,0.075392,-0.474795997,0.001408,0.022663999,0.135922998,-0.389115006,-0.338544011,-0.578714013,0.784727991,-0.409162015,0.807277024,0.494854003,0.175411001,-0.128468007,0.108286001,-0.481864005,0.083926,0.677142024,-0.354948997,0.378540009,0.218335003,0.158335999,0.111170001,-0.149434999,0.718888998,0.734407008,0.120779999,-0.087668002,-0.305545002,-0.364533991,0.067847997,0.022697,-0.013232,0.272363991,-0.385035008,0.568931997,0.290289998,-0.226510003,-0.390989989,-0.119608998,0.856272995,-0.362105012,0.127688006,-0.054802999,0.295053005,0.184359998,-0.075066999,0.339803994,-0.164186999,-0.054191999,-0.306198001,-0.017875999,0.347357005,0.429646999,-0.378767997,0.570299983,0.253659993,-0.086227,-0.402271986,-0.279163003,-0.453750998,-0.078634001,0.418341994,-0.283255011,0.226813003,-0.085648999,-0.538042009,-0.816819012,0.676787972,0.156756997,-0.02382,0.056843001,-0.191284001,-0.379640013,0.348093987,-0.060972001,-0.47251901,0.186217993,-0.142896995,0.269973993,-0.315147996,-0.148283005,0.163836002,0.040922001,-0.868272007,0.169101,0.295623004,-0.54696101,0.131707996,-0.65109098,-0.800091028,0.182102993,0.065811001,-0.270336986,0.247308999,0.442708999,-0.384229004,0.516960025,-0.469776988,-0.808456004,0.132350996,-0.197684005,-0.397188991,-0.147471994,0.478540987,-0.189149007,-0.194810003,0.243667006,0.273214012,-0.416119993,0.333240002,0.179536998,-0.075306997,-0.110482998,-0.358732998,0.213397995,0.166608006,-0.083779,-0.078199998,0.015043,0.044077002,0.100872003,0.228184998,-0.424190015,-0.185369998,0.354528993,0.168284997,0.071080998,0.240676999,-0.481326014,0.41593501,0.557087004,0.060304001,0.726787984,-1.146896005,0.085689001,-0.30656901,-0.203238994,-0.518388987,-0.069651,-0.246169001,-0.521683991,-0.032767002,-0.345643014,-0.277168006,0.32734701,-0.387439996,0.002341,0.487863004,-0.726167977,-0.233507007,-0.391357988,-0.859059989,0.318526,-0.305905998,0.151857004,0.615090013,0.215016007,-0.320688993,-0.655277014,-0.048836999,0.095682003,-1.459416032,0.675749004,0.092892997,0.274365008,0.097172998,-0.707535982,0.527294993,-0.583953977,-0.130105004,0.544677973,-0.173611999,0.434646994
包括,-0.454580992,0.164757997,1.79915905,-1.049497008,0.733509004,-0.782821,1.555029035,0.66079402,1.619586945,-0.897616982,0.535622001,0.352791995,-1.745306015,-1.873993993,0.167853996,-1.00387001,0.305721015,-1.265084982,0.240015,-1.57822299,-0.263256013,-0.918152988,-0.410198003,1.221086979,2.200937986,1.28687501,0.667607009,-0.836081982,1.853716016,0.544808984,-1.481004,0.917953014,-1.146002054,-1.966565967,0.95331198,-0.300415009,1.230658054,-0.823512018,-1.736956954,1.100044012,0.61631,0.716252029,-1.233821034,-0.807951987,1.15346396,0.810011983,0.159330994,0.666951001,-0.564612985,-0.029146999,3.325936079,-2.361658096,0.861630976,1.028753996,0.046682999,-1.576614976,0.884683013,-0.82031697,-0.564092994,1.036813974,-0.371104985,-1.694511056,-0.961143017,-0.364295989,1.497936964,-1.04678905,0.293545008,0.994126022,0.571802974,0.723227024,-0.936886013,0.921674013,0.371354997,-0.401280999,-0.007712,0.689547002,1.580196977,-0.714837015,1.660864949,-2.98004508,0.240195006,-1.899806976,2.25126791,-0.238046005,0.502623022,0.565518022,-0.085307002,-2.218697071,0.220923007,-0.717351019,0.456472993,-1.070675015,-0.197669998,0.110694997,0.30487901,-1.583649993,2.154851913,-0.491432995,0.404356003,0.416426986,-0.315941006,0.782885015,-0.438149005,1.052029014,-2.297626972,-2.664695978,1.533488989,-0.544652998,0.020506,-0.831882,-0.916168988,1.424602985,-1.146868944,-0.269428998,1.371584058,2.412743092,0.906876981,0.312240988,0.175301,-0.637138009,-0.430447012,-1.086316943,0.951385975,-1.156628966,-1.156872988,0.231864005,-1.340625048,-0.304652989,0.488011003,-0.816477001,-0.051653001,-1.970157981,-1.44315505,0.044597998,0.862852991,0.067612998,0.319023013,-0.218733996,0.254290998,0.67049098,1.285752058,-0.080185004,0.164633006,-0.273562014,-1.259132981,-0.292937011,-0.157086998,0.922022998,1.584527016,-1.220322967,0.148820996,0.65347302,-2.039367914,0.060348,0.921579003,0.998567998,0.783999026,0.951968014,0.81081599,-0.172591999,0.497561008,-2.438478947,0.322001994,1.528437018,2.06227994,0.242552996,-1.359421015,0.529434979,-2.690181017,1.425498009,0.215532005,-1.187211037,-0.862232029,1.122714996,0.995172977,0.102456003,1.880784035,-0.255524009,0.278115004,-0.617504001,-0.024076,-0.295720994,-0.526772976,-1.733525038,-1.013574004,0.700094998,-1.373129964,1.128026009,-0.79529798,1.306462049,0.748883009,-1.386697054,2.255422115,0.225940004,1.165941,-0.158812001,1.017168999,-0.115846001,-0.998345971,1.976737976,-0.579613984,-1.392143011,-1.575178981,-3.1275599,-0.845227003,-1.397665977,0.214383006,0.459859014,-0.591390014,-0.704195023,-0.436646998,0.625757992,0.028308,-1.209537983,0.664031029,0.068915002,1.279811978,0.008376,-0.575942993,-0.602973998,0.226180002,0.933906019,-0.644033015,0.444972992,-0.768212974,1.465414047,0.508481026,-0.906832993,-0.159122005,-0.415253997,-0.60708499,-1.975949049,1.713901043,-1.276067019,1.739886999,0.33752501,1.003926992,0.876667976,-1.653082013,-0.211097002,-0.983739972,-0.036274001,0.022987001,-0.444236994,-0.241473004,-1.625087976,0.313439995,-0.423994988,-0.018979,-0.443663001,0.757034004,0.365139991,-0.073899999,-1.112069964,-1.161923051,-0.320629001,-1.259763002,0.537527978,-0.465131998,0.544440985,0.419093996,0.463856012,0.670464993,-0.460119009,-0.833801985,-0.382362992,2.185218096,0.26867801,-1.236508012,-1.114748001,0.732991993,0.592454016,-0.202702001,0.813533008,-0.106539004,0.177596003,-1.192383051,1.751960993,0.943477988,-0.535651982,0.558507979,1.940037966,0.851539016,-0.693044007,-0.577216983,0.392235011,1.056743026,-0.630775988,0.740194976,0.509913981,1.175801992,1.825505972,-1.174375057,-1.270081043,0.272271991,0.219248995,-1.138160944,0.168464005,-0.464574009,1.193886995,-1.398007989,-0.001002,-0.413082987,0.356914997,1.076154947,-0.964807987,-0.489504993,0.664205015,-0.546822011,2.379359961,-0.538571,-1.026590943,1.985669017,-0.775102019,0.022537,0.946175992,-1.218780041,1.573248982,0.018328,0.902724981,2.083081007,0.29114899,-0.424068004,2.195203066,-0.750169992,1.031718016,0.073886998,-0.894850016,-0.118777998,1.16980195,-0.124298997,1.618221045,-0.156580001,0.307168007,2.61532402,0.467014998,-0.682807028,-0.458820999,-0.330401987,-1.259367943,-1.04619801,-0.290796995,-0.279507011,-1.343325019,-0.627765,2.153783083,2.025829077,1.254307985,-1.396209002,1.124333024,-1.06657505,-0.652185977,0.230636999,-0.844760001,0.012296,-0.923538029,0.647957981,1.106197,-0.589318991,1.289752007,-1.055660963,-0.451656997,-0.372523993,-0.500169992,-0.701224029,0.200872004,-1.882761955,-0.038348999,0.818098009,0.569694996,-2.272437096,-1.016947031,-0.596351981,0.358374,-2.692905903,-1.627944946,-2.064002037,0.929220974,-0.877553999,-2.229393959,-0.593096018,-0.592799008,0.574436009,-1.577960014,3.571182013,0.422749996,-2.85570097,0.679933012,-1.674610019,-0.000549,0.787011981,2.600928068,0.774625003,0.437391013,0.762611985,0.243417993,0.965864003,-0.330404997,0.462238014,-0.502839983,,-0.454580992,0.164757997,1.79915905,-1.049497008,0.733509004,-0.782821,1.555029035,0.66079402,1.619586945,-0.897616982,0.535622001,0.352791995,-1.745306015,-1.873993993,0.167853996,-1.00387001,0.305721015,-1.265084982,0.240015,-1.57822299,-0.263256013,-0.918152988,-0.410198003,1.221086979,2.200937986,1.28687501,0.667607009,-0.836081982,1.853716016,0.544808984,-1.481004,0.917953014,-1.146002054,-1.966565967,0.95331198,-0.300415009,1.230658054,-0.823512018,-1.736956954,1.100044012,0.61631,0.716252029,-1.233821034,-0.807951987,1.15346396,0.810011983,0.159330994,0.666951001,-0.564612985,-0.029146999,3.325936079,-2.361658096,0.861630976,1.028753996,0.046682999,-1.576614976,0.884683013,-0.82031697,-0.564092994,1.036813974,-0.371104985,-1.694511056,-0.961143017,-0.364295989,1.497936964,-1.04678905,0.293545008,0.994126022,0.571802974,0.723227024,-0.936886013,0.921674013,0.371354997,-0.401280999,-0.007712,0.689547002,1.580196977,-0.714837015,1.660864949,-2.98004508,0.240195006,-1.899806976,2.25126791,-0.238046005,0.502623022,0.565518022,-0.085307002,-2.218697071,0.220923007,-0.717351019,0.456472993,-1.070675015,-0.197669998,0.110694997,0.30487901,-1.583649993,2.154851913,-0.491432995,0.404356003,0.416426986,-0.315941006,0.782885015,-0.438149005,1.052029014,-2.297626972,-2.664695978,1.533488989,-0.544652998,0.020506,-0.831882,-0.916168988,1.424602985,-1.146868944,-0.269428998,1.371584058,2.412743092,0.906876981,0.312240988,0.175301,-0.637138009,-0.430447012,-1.086316943,0.951385975,-1.156628966,-1.156872988,0.231864005,-1.340625048,-0.304652989,0.488011003,-0.816477001,-0.051653001,-1.970157981,-1.44315505,0.044597998,0.862852991,0.067612998,0.319023013,-0.218733996,0.254290998,0.67049098,1.285752058,-0.080185004,0.164633006,-0.273562014,-1.259132981,-0.292937011,-0.157086998,0.922022998,1.584527016,-1.220322967,0.148820996,0.65347302,-2.039367914,0.060348,0.921579003,0.998567998,0.783999026,0.951968014,0.81081599,-0.172591999,0.497561008,-2.438478947,0.322001994,1.528437018,2.06227994,0.242552996,-1.359421015,0.529434979,-2.690181017,1.425498009,0.215532005,-1.187211037,-0.862232029,1.122714996,0.995172977,0.102456003,1.880784035,-0.255524009,0.278115004,-0.617504001,-0.024076,-0.295720994,-0.526772976,-1.733525038,-1.013574004,0.700094998,-1.373129964,1.128026009,-0.79529798,1.306462049,0.748883009,-1.386697054,2.255422115,0.225940004,1.165941,-0.158812001,1.017168999,-0.115846001,-0.998345971,1.976737976,-0.579613984,-1.392143011,-1.575178981,-3.1275599,-0.845227003,-1.397665977,0.214383006,0.459859014,-0.591390014,-0.704195023,-0.436646998,0.625757992,0.028308,-1.209537983,0.664031029,0.068915002,1.279811978,0.008376,-0.575942993,-0.602973998,0.226180002,0.933906019,-0.644033015,0.444972992,-0.768212974,1.465414047,0.508481026,-0.906832993,-0.159122005,-0.415253997,-0.60708499,-1.975949049,1.713901043,-1.276067019,1.739886999,0.33752501,1.003926992,0.876667976,-1.653082013,-0.211097002,-0.983739972,-0.036274001,0.022987001,-0.444236994,-0.241473004,-1.625087976,0.313439995,-0.423994988,-0.018979,-0.443663001,0.757034004,0.365139991,-0.073899999,-1.112069964,-1.161923051,-0.320629001,-1.259763002,0.537527978,-0.465131998,0.544440985,0.419093996,0.463856012,0.670464993,-0.460119009,-0.833801985,-0.382362992,2.185218096,0.26867801,-1.236508012,-1.114748001,0.732991993,0.592454016,-0.202702001,0.813533008,-0.106539004,0.177596003,-1.192383051,1.751960993,0.943477988,-0.535651982,0.558507979,1.940037966,0.851539016,-0.693044007,-0.577216983,0.392235011,1.056743026,-0.630775988,0.740194976,0.509913981,1.175801992,1.825505972,-1.174375057,-1.270081043,0.272271991,0.219248995,-1.138160944,0.168464005,-0.464574009,1.193886995,-1.398007989,-0.001002,-0.413082987,0.356914997,1.076154947,-0.964807987,-0.489504993,0.664205015,-0.546822011,2.379359961,-0.538571,-1.026590943,1.985669017,-0.775102019,0.022537,0.946175992,-1.218780041,1.573248982,0.018328,0.902724981,2.083081007,0.29114899,-0.424068004,2.195203066,-0.750169992,1.031718016,0.073886998,-0.894850016,-0.118777998,1.16980195,-0.124298997,1.618221045,-0.156580001,0.307168007,2.61532402,0.467014998,-0.682807028,-0.458820999,-0.330401987,-1.259367943,-1.04619801,-0.290796995,-0.279507011,-1.343325019,-0.627765,2.153783083,2.025829077,1.254307985,-1.396209002,1.124333024,-1.06657505,-0.652185977,0.230636999,-0.844760001,0.012296,-0.923538029,0.647957981,1.106197,-0.589318991,1.289752007,-1.055660963,-0.451656997,-0.372523993,-0.500169992,-0.701224029,0.200872004,-1.882761955,-0.038348999,0.818098009,0.569694996,-2.272437096,-1.016947031,-0.596351981,0.358374,-2.692905903,-1.627944946,-2.064002037,0.929220974,-0.877553999,-2.229393959,-0.593096018,-0.592799008,0.574436009,-1.577960014,3.571182013,0.422749996,-2.85570097,0.679933012,-1.674610019,-0.000549,0.787011981,2.600928068,0.774625003,0.437391013,0.762611985,0.243417993,0.965864003,-0.330404997,0.462238014,-0.502839983
邻近,-0.484322011,1.449025989,-2.136620998,-0.935828984,0.282182008,0.032784998,0.636497021,-0.284830004,-0.965453982,0.912528992,0.365471005,0.023053,0.119090997,0.133319005,-0.167319998,0.764710009,0.734791994,-0.796045005,1.781929016,-0.006415,0.511317015,-0.894052029,-1.658642054,-0.776531994,0.862236977,-0.010814,-2.013010979,0.004592,-0.392832994,0.158669993,0.578805983,-0.364223987,0.232636005,0.815409005,-0.222902998,0.163497999,-0.252864987,-1.032737017,-0.453624994,1.355530024,-1.464632034,0.72062701,-0.125818998,0.152676001,2.511224031,0.752735972,-0.750376999,0.707682014,0.986618996,-0.063336998,0.361625999,-0.987356007,-0.229184002,1.170268059,-0.814029992,0.437234014,0.291226,-0.030042,-0.287901014,-0.364472985,-0.655363977,-2.030544996,-0.788655996,-0.895365,-0.446364999,0.959815025,0.461787999,1.796342969,-1.048900008,-0.042725001,-0.832038999,1.639423966,-0.798713028,-0.011858,-0.13854,-0.124773003,0.148846999,0.319000989,-0.076325998,-1.787325978,0.855979979,-2.146445036,-0.988345027,0.022952,0.898196995,1.255993962,-1.772127032,0.170313001,1.148774982,2.192035913,-1.843865037,-0.89419198,-1.73891902,0.217612997,0.113109,-1.491526008,-0.484553993,-1.797498941,0.107066996,1.983240962,-0.463526994,0.521290004,0.636108994,2.280546904,-0.721390009,-1.779088974,0.514320016,-1.235013008,0.335911006,0.972510993,0.503979981,-0.77294898,0.184760004,0.087567002,0.247437,-0.27056399,0.826008022,0.55271101,-0.027367,0.122409001,0.212620005,-0.099705003,0.058304999,-0.186159998,-0.656970024,-0.341057003,-0.275905997,-1.45973897,-0.214646995,-0.529801011,1.406937003,-0.755549014,0.393070996,0.304765999,-1.171059012,0.282575995,0.248365998,0.044636998,1.086905956,0.700038016,1.971045017,0.65753597,-1.53906095,0.780903995,1.929432034,-2.007052898,-1.051265001,1.014199018,0.821268022,-0.784258008,-0.403302014,-0.020068999,-0.160266995,0.802040994,1.069390059,0.016504999,0.759530008,-0.427020013,0.405544996,-0.230036005,1.001054049,-0.265276015,-0.094545998,0.456333011,1.076416016,-1.215438962,0.283279002,-0.002632,-0.181535006,0.810307026,0.81604898,0.452217013,0.892566979,0.392910004,0.146424994,-0.681348979,0.411630988,0.496358007,2.023330927,1.171710968,-1.743914962,0.348040015,2.312465906,-0.019680999,0.162855998,0.596023977,0.363146991,-0.056740001,-0.428856999,-0.438585997,-0.512418985,-0.201575994,1.235865951,0.435063988,0.201449007,0.068476997,1.249675989,-0.167988002,-0.177406996,0.107014999,1.097713947,0.68145299,-0.614965022,0.342065006,-0.560461998,-0.200082004,0.633175015,0.076650999,0.763090014,1.688202024,-1.436913967,0.659626007,-0.145572007,1.330122948,0.686199009,-0.299771994,0.238186002,0.940082014,1.576174021,-1.142423987,-0.422369003,0.610822022,-0.970124006,1.805994987,-0.488092989,-0.377218008,-0.176608995,-0.832306027,1.426637053,0.136464998,-0.723710001,-0.797765017,-0.662566006,1.148540974,0.915522993,0.494112015,0.415894002,-0.971920013,-1.233356953,1.213533998,1.542160988,1.263036966,0.510918975,0.272285998,-0.661801994,-0.304100007,-0.500728011,-0.711916983,0.972009003,0.623580992,1.175326943,0.086459003,0.326745003,-0.018712999,1.24919796,-0.367069989,0.978563011,-1.813997984,0.37570101,-0.186004996,1.238481998,0.960256994,-0.062564999,0.459127992,0.496724993,-1.495234966,-1.146247983,-0.416456014,0.533245027,-0.753762007,0.029633,1.735720038,-0.436636001,-1.651664972,-0.624275982,-0.349126995,-0.344069988,0.856535017,0.277298987,-1.245131969,2.222189903,-0.392031014,1.325636983,-0.435992986,-0.145499006,0.309949994,0.326384008,0.544632018,-0.009425,-0.296988994,-1.06131494,-0.238966003,-0.06109,-0.645686984,0.870392978,-0.157049999,-1.097918034,0.366730005,1.169664025,1.448603034,-0.672707021,0.47665,0.174225003,-0.524230003,-0.389991999,-1.921787024,-0.657262981,0.456395,0.138383001,0.248514995,-0.81574899,-0.479469001,0.617636979,-0.157381997,-0.577077985,1.376886964,-0.673282981,0.976701021,0.837884009,0.058940001,1.225680947,0.74770999,-0.806034029,0.828782976,1.122156024,0.004677,-1.298920035,-0.375851005,-0.462960005,1.756456017,-0.664435029,-0.151842996,0.046831999,-1.225777984,2.002300024,0.039553002,-0.51384902,0.41741401,-1.475525975,1.701477051,0.390309989,0.301862001,0.32220301,0.350024015,0.395570993,-0.727572978,-0.368111998,-0.625530005,0.456461012,-0.491652995,0.556010008,-1.157104015,-1.515130043,-1.38322401,-1.336117029,-1.152426004,-0.573125005,-0.457920015,0.761416018,-0.368625998,0.113844998,0.066509999,0.682704985,-0.081425004,1.248756051,-1.272685051,-0.445410997,-0.390724003,-0.251403004,-1.390836954,-1.891873002,0.258823991,-0.68028897,1.718716025,1.21639204,-2.395812988,0.854283988,0.210093006,-0.829859972,-1.993407011,-1.117494941,1.39575696,0.432090014,-0.279358,1.75721395,-1.939345002,-0.151152998,-0.499983996,-0.981688023,-1.042894959,1.772184968,-1.471379042,0.796756029,-0.29092899,0.826856017,-0.299048007,0.967620015,0.007206,0.076291002,0.112678997,昏,-0.484322011,1.449025989,-2.136620998,-0.935828984,0.282182008,0.032784998,0.636497021,-0.284830004,-0.965453982,0.912528992,0.365471005,0.023053,0.119090997,0.133319005,-0.167319998,0.764710009,0.734791994,-0.796045005,1.781929016,-0.006415,0.511317015,-0.894052029,-1.658642054,-0.776531994,0.862236977,-0.010814,-2.013010979,0.004592,-0.392832994,0.158669993,0.578805983,-0.364223987,0.232636005,0.815409005,-0.222902998,0.163497999,-0.252864987,-1.032737017,-0.453624994,1.355530024,-1.464632034,0.72062701,-0.125818998,0.152676001,2.511224031,0.752735972,-0.750376999,0.707682014,0.986618996,-0.063336998,0.361625999,-0.987356007,-0.229184002,1.170268059,-0.814029992,0.437234014,0.291226,-0.030042,-0.287901014,-0.364472985,-0.655363977,-2.030544996,-0.788655996,-0.895365,-0.446364999,0.959815025,0.461787999,1.796342969,-1.048900008,-0.042725001,-0.832038999,1.639423966,-0.798713028,-0.011858,-0.13854,-0.124773003,0.148846999,0.319000989,-0.076325998,-1.787325978,0.855979979,-2.146445036,-0.988345027,0.022952,0.898196995,1.255993962,-1.772127032,0.170313001,1.148774982,2.192035913,-1.843865037,-0.89419198,-1.73891902,0.217612997,0.113109,-1.491526008,-0.484553993,-1.797498941,0.107066996,1.983240962,-0.463526994,0.521290004,0.636108994,2.280546904,-0.721390009,-1.779088974,0.514320016,-1.235013008,0.335911006,0.972510993,0.503979981,-0.77294898,0.184760004,0.087567002,0.247437,-0.27056399,0.826008022,0.55271101,-0.027367,0.122409001,0.212620005,-0.099705003,0.058304999,-0.186159998,-0.656970024,-0.341057003,-0.275905997,-1.45973897,-0.214646995,-0.529801011,1.406937003,-0.755549014,0.393070996,0.304765999,-1.171059012,0.282575995,0.248365998,0.044636998,1.086905956,0.700038016,1.971045017,0.65753597,-1.53906095,0.780903995,1.929432034,-2.007052898,-1.051265001,1.014199018,0.821268022,-0.784258008,-0.403302014,-0.020068999,-0.160266995,0.802040994,1.069390059,0.016504999,0.759530008,-0.427020013,0.405544996,-0.230036005,1.001054049,-0.265276015,-0.094545998,0.456333011,1.076416016,-1.215438962,0.283279002,-0.002632,-0.181535006,0.810307026,0.81604898,0.452217013,0.892566979,0.392910004,0.146424994,-0.681348979,0.411630988,0.496358007,2.023330927,1.171710968,-1.743914962,0.348040015,2.312465906,-0.019680999,0.162855998,0.596023977,0.363146991,-0.056740001,-0.428856999,-0.438585997,-0.512418985,-0.201575994,1.235865951,0.435063988,0.201449007,0.068476997,1.249675989,-0.167988002,-0.177406996,0.107014999,1.097713947,0.68145299,-0.614965022,0.342065006,-0.560461998,-0.200082004,0.633175015,0.076650999,0.763090014,1.688202024,-1.436913967,0.659626007,-0.145572007,1.330122948,0.686199009,-0.299771994,0.238186002,0.940082014,1.576174021,-1.142423987,-0.422369003,0.610822022,-0.970124006,1.805994987,-0.488092989,-0.377218008,-0.176608995,-0.832306027,1.426637053,0.136464998,-0.723710001,-0.797765017,-0.662566006,1.148540974,0.915522993,0.494112015,0.415894002,-0.971920013,-1.233356953,1.213533998,1.542160988,1.263036966,0.510918975,0.272285998,-0.661801994,-0.304100007,-0.500728011,-0.711916983,0.972009003,0.623580992,1.175326943,0.086459003,0.326745003,-0.018712999,1.24919796,-0.367069989,0.978563011,-1.813997984,0.37570101,-0.186004996,1.238481998,0.960256994,-0.062564999,0.459127992,0.496724993,-1.495234966,-1.146247983,-0.416456014,0.533245027,-0.753762007,0.029633,1.735720038,-0.436636001,-1.651664972,-0.624275982,-0.349126995,-0.344069988,0.856535017,0.277298987,-1.245131969,2.222189903,-0.392031014,1.325636983,-0.435992986,-0.145499006,0.309949994,0.326384008,0.544632018,-0.009425,-0.296988994,-1.06131494,-0.238966003,-0.06109,-0.645686984,0.870392978,-0.157049999,-1.097918034,0.366730005,1.169664025,1.448603034,-0.672707021,0.47665,0.174225003,-0.524230003,-0.389991999,-1.921787024,-0.657262981,0.456395,0.138383001,0.248514995,-0.81574899,-0.479469001,0.617636979,-0.157381997,-0.577077985,1.376886964,-0.673282981,0.976701021,0.837884009,0.058940001,1.225680947,0.74770999,-0.806034029,0.828782976,1.122156024,0.004677,-1.298920035,-0.375851005,-0.462960005,1.756456017,-0.664435029,-0.151842996,0.046831999,-1.225777984,2.002300024,0.039553002,-0.51384902,0.41741401,-1.475525975,1.701477051,0.390309989,0.301862001,0.32220301,0.350024015,0.395570993,-0.727572978,-0.368111998,-0.625530005,0.456461012,-0.491652995,0.556010008,-1.157104015,-1.515130043,-1.38322401,-1.336117029,-1.152426004,-0.573125005,-0.457920015,0.761416018,-0.368625998,0.113844998,0.066509999,0.682704985,-0.081425004,1.248756051,-1.272685051,-0.445410997,-0.390724003,-0.251403004,-1.390836954,-1.891873002,0.258823991,-0.68028897,1.718716025,1.21639204,-2.395812988,0.854283988,0.210093006,-0.829859972,-1.993407011,-1.117494941,1.39575696,0.432090014,-0.279358,1.75721395,-1.939345002,-0.151152998,-0.499983996,-0.981688023,-1.042894959,1.772184968,-1.471379042,0.796756029,-0.29092899,0.826856017,-0.299048007,0.967620015,0.007206,0.076291002,0.112678997
部分,-1.216596007,0.553735971,1.199427009,-0.252952993,2.014991999,0.787330985,0.011569,-0.071140997,0.565818012,-0.452491999,0.680032015,0.928828001,-1.612236023,0.368241996,-0.140461996,-0.486775011,-1.097761989,0.033167001,1.675927043,-0.935155988,-0.173207998,-0.243857995,0.89577502,-0.003736,2.28836894,1.31753099,0.416040003,1.162482977,-0.584891021,1.146193981,0.864771008,-1.076014996,-1.23340404,-1.432366967,-0.02376,-1.03164506,0.155935004,-0.302861005,-0.290230006,1.514420033,0.160487995,0.780412018,-0.210598007,-0.243441999,1.197927952,0.323038995,-0.179103002,1.299772978,0.477732003,0.50860399,0.83901602,-0.579685986,0.785261989,0.910382986,-0.725934029,0.23319,1.95349896,-1.020833015,-0.444200009,0.545699,0.159623995,-0.502213001,-0.775093973,-1.24665904,0.308297008,0.137311995,0.179853007,1.624416947,1.889847994,-0.658083022,-0.782311976,-0.434249997,0.996547997,1.055040002,-0.14057,0.422022998,2.34048295,-0.919777989,1.181241989,1.099722028,1.400640965,-1.040776014,-0.573688984,0.428811997,1.186722994,0.673789024,0.434491992,0.653517008,1.106920958,-1.893697977,-0.00803,0.867697001,-2.07763195,1.590996981,-0.033071999,-1.271440983,0.578309,0.247038007,-0.280230999,0.431672007,0.014667,0.226791993,1.249639034,1.49149096,-2.48307395,-0.132844001,1.125589967,0.55192697,0.333568007,0.533123016,0.294676006,-1.123121023,-1.79805696,-0.560778975,-0.336111009,2.542062044,1.902951002,-0.340599,0.827884018,1.495669961,-1.435410023,-0.55262202,-0.614643991,-1.780766964,-0.311664999,1.176234007,-0.865216017,-1.395481944,0.391514003,-0.816713989,0.478448004,-1.540603995,-0.930814981,-0.396095008,-0.284563988,-0.302444994,-0.758578002,0.594119012,-0.459491998,0.432004988,0.147641003,-1.152639031,-0.123783,-0.353291005,-1.087339997,-0.338414013,-1.24020505,1.619004965,1.050560951,-0.578068972,-1.498960018,0.936729014,-0.041914001,0.109029002,-1.615090013,1.805719972,-0.383850008,-0.824976027,-1.567782998,0.687702,0.777702987,-0.680594027,1.258716941,-0.900265992,-0.094796002,0.723013997,0.086943999,-0.331173986,-1.894749045,1.212087989,-0.835049987,-0.721638024,0.086638004,1.043190002,1.246199012,-0.547412992,1.505998015,2.975101948,1.136646986,0.549733996,0.429580003,-0.724159002,0.680739999,-0.836317003,0.915677011,-0.181365997,-0.468414992,1.658275008,-0.386577994,1.100165963,0.114628002,-0.399742991,1.878522992,0.855328023,-1.57862401,-0.514922023,1.990671039,-1.041193962,0.626978993,0.122014001,-0.525995016,0.532977998,-0.841898978,-1.72815001,-0.66643101,1.914929986,-1.323443055,-0.004311,-1.974985003,0.731518984,-1.575248957,1.145238042,0.844857991,0.339816988,0.768819988,-0.801913977,0.224941,-0.353190988,0.653990984,-0.375946999,1.23989296,-0.499130994,0.195051,1.088765025,-0.190513,0.906939983,0.747033,-0.128886998,0.462332994,1.04944694,0.259223014,-0.587440014,1.035107017,-1.857130051,1.191401958,-0.010274,0.725449026,-1.061853051,-2.060764074,0.896468997,0.501457989,1.471272945,0.096957996,1.115282059,0.221101001,-1.586827993,0.209186003,-1.112000942,0.036199,0.38191101,-0.128882006,0.285338998,0.376883,-1.605792046,0.923304975,2.089309931,0.080339,-0.542786002,0.438694,0.679018974,1.633226991,1.09057498,1.260117054,0.517683029,-0.912912011,-0.620230019,0.932843029,0.064222001,0.663043976,-0.346469015,0.279376,1.032274008,-1.089745998,1.426470041,-0.690438986,0.263794988,-0.563510001,0.700024009,0.045224998,1.316598058,0.787931025,-1.173575997,-0.661553025,-0.571466982,0.015462,0.056536999,-0.120655999,-0.434540004,-0.700323999,-1.208443046,0.937290013,0.523796022,-2.232820034,-0.115895003,-0.284586012,0.246632993,-0.373762995,-0.285560995,-1.116708994,1.505041957,-0.096748002,-0.630755007,0.29241699,1.417701006,1.664163947,-0.074661002,1.630311966,-1.747220039,-2.06795907,0.137676999,-0.403798997,-0.538699985,0.448507994,0.474206001,-0.283100992,0.478038996,-0.60868597,0.174465001,0.900609016,-0.657106996,-0.216231003,0.204484999,-0.941438973,1.384075046,-0.481160015,0.472871006,-0.547797024,0.007547,0.221129999,-0.103942998,1.21152997,1.135560989,0.300274014,-0.159042999,0.588990986,1.285030961,0.001295,0.348506004,-0.508589029,0.127065003,0.915027976,1.067785978,0.0145,-0.069201,1.196099997,-0.205290005,-0.553515017,-0.524520993,-0.31683901,1.07525301,1.757925034,-0.046668001,0.420217991,0.632517993,-0.634932995,-1.676681042,-0.099725001,1.813791037,-0.609903991,0.550723016,0.809864998,-1.500658989,0.269571006,-0.849078,-0.395072997,-1.09799099,-0.527135015,-1.476325989,0.068608001,-1.052186966,-0.280402005,-1.003594041,-0.182264,0.829572976,0.379128993,-1.396124005,0.339735001,1.690320015,-1.127949953,0.327930003,1.294698954,1.950140953,0.300431997,0.635960996,2.151760101,0.635330021,-1.416254997,-0.953710973,-1.417044044,0.800750971,1.139809012,1.800583005,0.111400001,-1.287716985,1.246422052,-0.786201,-0.121899001,1.045223951,1.409402013,0.062070001,ㄥ,-1.216596007,0.553735971,1.199427009,-0.252952993,2.014991999,0.787330985,0.011569,-0.071140997,0.565818012,-0.452491999,0.680032015,0.928828001,-1.612236023,0.368241996,-0.140461996,-0.486775011,-1.097761989,0.033167001,1.675927043,-0.935155988,-0.173207998,-0.243857995,0.89577502,-0.003736,2.28836894,1.31753099,0.416040003,1.162482977,-0.584891021,1.146193981,0.864771008,-1.076014996,-1.23340404,-1.432366967,-0.02376,-1.03164506,0.155935004,-0.302861005,-0.290230006,1.514420033,0.160487995,0.780412018,-0.210598007,-0.243441999,1.197927952,0.323038995,-0.179103002,1.299772978,0.477732003,0.50860399,0.83901602,-0.579685986,0.785261989,0.910382986,-0.725934029,0.23319,1.95349896,-1.020833015,-0.444200009,0.545699,0.159623995,-0.502213001,-0.775093973,-1.24665904,0.308297008,0.137311995,0.179853007,1.624416947,1.889847994,-0.658083022,-0.782311976,-0.434249997,0.996547997,1.055040002,-0.14057,0.422022998,2.34048295,-0.919777989,1.181241989,1.099722028,1.400640965,-1.040776014,-0.573688984,0.428811997,1.186722994,0.673789024,0.434491992,0.653517008,1.106920958,-1.893697977,-0.00803,0.867697001,-2.07763195,1.590996981,-0.033071999,-1.271440983,0.578309,0.247038007,-0.280230999,0.431672007,0.014667,0.226791993,1.249639034,1.49149096,-2.48307395,-0.132844001,1.125589967,0.55192697,0.333568007,0.533123016,0.294676006,-1.123121023,-1.79805696,-0.560778975,-0.336111009,2.542062044,1.902951002,-0.340599,0.827884018,1.495669961,-1.435410023,-0.55262202,-0.614643991,-1.780766964,-0.311664999,1.176234007,-0.865216017,-1.395481944,0.391514003,-0.816713989,0.478448004,-1.540603995,-0.930814981,-0.396095008,-0.284563988,-0.302444994,-0.758578002,0.594119012,-0.459491998,0.432004988,0.147641003,-1.152639031,-0.123783,-0.353291005,-1.087339997,-0.338414013,-1.24020505,1.619004965,1.050560951,-0.578068972,-1.498960018,0.936729014,-0.041914001,0.109029002,-1.615090013,1.805719972,-0.383850008,-0.824976027,-1.567782998,0.687702,0.777702987,-0.680594027,1.258716941,-0.900265992,-0.094796002,0.723013997,0.086943999,-0.331173986,-1.894749045,1.212087989,-0.835049987,-0.721638024,0.086638004,1.043190002,1.246199012,-0.547412992,1.505998015,2.975101948,1.136646986,0.549733996,0.429580003,-0.724159002,0.680739999,-0.836317003,0.915677011,-0.181365997,-0.468414992,1.658275008,-0.386577994,1.100165963,0.114628002,-0.399742991,1.878522992,0.855328023,-1.57862401,-0.514922023,1.990671039,-1.041193962,0.626978993,0.122014001,-0.525995016,0.532977998,-0.841898978,-1.72815001,-0.66643101,1.914929986,-1.323443055,-0.004311,-1.974985003,0.731518984,-1.575248957,1.145238042,0.844857991,0.339816988,0.768819988,-0.801913977,0.224941,-0.353190988,0.653990984,-0.375946999,1.23989296,-0.499130994,0.195051,1.088765025,-0.190513,0.906939983,0.747033,-0.128886998,0.462332994,1.04944694,0.259223014,-0.587440014,1.035107017,-1.857130051,1.191401958,-0.010274,0.725449026,-1.061853051,-2.060764074,0.896468997,0.501457989,1.471272945,0.096957996,1.115282059,0.221101001,-1.586827993,0.209186003,-1.112000942,0.036199,0.38191101,-0.128882006,0.285338998,0.376883,-1.605792046,0.923304975,2.089309931,0.080339,-0.542786002,0.438694,0.679018974,1.633226991,1.09057498,1.260117054,0.517683029,-0.912912011,-0.620230019,0.932843029,0.064222001,0.663043976,-0.346469015,0.279376,1.032274008,-1.089745998,1.426470041,-0.690438986,0.263794988,-0.563510001,0.700024009,0.045224998,1.316598058,0.787931025,-1.173575997,-0.661553025,-0.571466982,0.015462,0.056536999,-0.120655999,-0.434540004,-0.700323999,-1.208443046,0.937290013,0.523796022,-2.232820034,-0.115895003,-0.284586012,0.246632993,-0.373762995,-0.285560995,-1.116708994,1.505041957,-0.096748002,-0.630755007,0.29241699,1.417701006,1.664163947,-0.074661002,1.630311966,-1.747220039,-2.06795907,0.137676999,-0.403798997,-0.538699985,0.448507994,0.474206001,-0.283100992,0.478038996,-0.60868597,0.174465001,0.900609016,-0.657106996,-0.216231003,0.204484999,-0.941438973,1.384075046,-0.481160015,0.472871006,-0.547797024,0.007547,0.221129999,-0.103942998,1.21152997,1.135560989,0.300274014,-0.159042999,0.588990986,1.285030961,0.001295,0.348506004,-0.508589029,0.127065003,0.915027976,1.067785978,0.0145,-0.069201,1.196099997,-0.205290005,-0.553515017,-0.524520993,-0.31683901,1.07525301,1.757925034,-0.046668001,0.420217991,0.632517993,-0.634932995,-1.676681042,-0.099725001,1.813791037,-0.609903991,0.550723016,0.809864998,-1.500658989,0.269571006,-0.849078,-0.395072997,-1.09799099,-0.527135015,-1.476325989,0.068608001,-1.052186966,-0.280402005,-1.003594041,-0.182264,0.829572976,0.379128993,-1.396124005,0.339735001,1.690320015,-1.127949953,0.327930003,1.294698954,1.950140953,0.300431997,0.635960996,2.151760101,0.635330021,-1.416254997,-0.953710973,-1.417044044,0.800750971,1.139809012,1.800583005,0.111400001,-1.287716985,1.246422052,-0.786201,-0.121899001,1.045223951,1.409402013,0.062070001
倾斜,-0.08935,2.311870098,-0.892347991,0.153081998,0.119520999,-0.303357989,1.884022951,-0.284671992,-0.338800013,1.360893011,-0.409850001,-0.640479982,-0.621671021,0.356326997,0.682793975,-0.306266993,0.625665009,-0.467354,0.849433005,-0.96410501,0.524780989,-0.004656,0.035732001,-0.695913017,1.384207964,1.086928964,0.126236007,0.153212994,-0.598053992,-0.322111994,-1.452160954,-1.536857963,0.661396027,1.310660958,0.348152995,0.810424984,0.089442,-1.470590949,-0.599422991,0.476354986,1.081720948,0.807781994,-1.636554003,-0.366216004,1.352228999,0.226579994,-0.569375992,-0.963553011,0.260838002,0.281318992,-0.495231986,-0.176163003,0.005401,-0.198097005,-1.54411304,0.100426003,0.342613995,-1.198322058,0.034196999,1.374673963,-0.400314987,0.322403997,-1.378152967,-0.324196011,-0.888158977,-0.139330998,-0.352019995,-0.955937028,0.071589001,0.943870008,-0.522481978,0.907109976,0.302877992,1.415563941,0.067483999,0.829258978,-0.068373002,0.843555987,0.432642996,1.855890989,0.132431,0.331304997,-0.266694993,0.321334988,1.659111023,-0.527296007,0.344107002,-0.662500978,0.138074994,-0.889037013,1.317796946,1.491006017,0.774933994,1.148674011,-0.574090004,-0.081549004,-1.006724,0.102701001,-0.463606,0.768905997,2.262903929,-0.507623971,1.059671998,1.325595021,0.070712999,0.129264995,1.339648962,-0.757919014,-0.036506001,-1.065052986,-0.932923019,-1.610949039,-0.21582,-1.439795971,0.413150012,1.112493992,0.753498971,-0.511097014,-0.289424002,0.523258984,-1.027209997,0.519420981,0.468656003,-0.158738002,-0.008579,2.23656702,0.234208003,-0.823130012,0.082657002,-1.835041046,0.254970014,0.375010997,-1.569054008,0.837499976,-0.969304025,1.443866968,-0.548868001,-0.301173002,0.362343997,0.353065997,0.542913973,1.162449002,-2.350301027,-1.228755951,1.083868027,-0.594762981,-1.811506033,0.538999975,-1.149150014,-0.289453,0.37915501,-1.081074953,-0.046587002,0.298512995,1.333484054,-0.291469991,0.072385997,-1.205556035,-0.861355007,0.48280099,-0.126001,-1.219712973,0.259342015,-1.493458986,1.517889977,0.646534979,1.932136059,-0.227573007,-1.455363989,-0.717996001,0.107702002,-0.738959014,2.238430023,-0.226483002,1.69816196,0.839257002,0.501652002,2.050189972,2.305845022,0.562400997,-1.152117014,0.500030994,0.504070997,-0.639428973,0.213345006,1.180008054,0.947516978,1.712859035,1.288257957,-0.125351995,0.499303997,0.136951998,0.357755005,1.100182056,-0.52493602,0.104079999,1.349318028,0.118716002,2.15665102,0.172709003,-0.325493991,0.468151003,-0.999253988,-0.345515013,0.891520977,-0.274865001,-1.55964303,0.680082023,-0.71628201,1.990574956,-0.34394601,-0.205776006,1.081539035,0.301752001,1.38480103,-0.602683008,-0.233335003,0.624504983,-1.264168978,-0.557700992,0.622968018,1.296421051,0.756273985,0.413195997,-0.496387988,-0.835138977,0.60730499,0.262540996,0.479117006,-2.146213055,-0.885473013,1.146608949,-0.039602999,-0.77651602,1.074759007,0.378834993,-1.276139021,0.040626999,0.226577997,-0.345140994,0.038959,1.260329008,-0.763435006,0.998605013,-0.201592997,-1.375316024,-0.045974001,-0.167349994,-0.245105997,0.895425975,-0.655782998,1.743435025,0.383666009,0.081813999,0.123971,1.445263028,0.585323989,0.447189987,0.965210021,3.082285881,0.165387005,-0.108553998,0.565568984,0.752056003,-1.498669028,-1.293370008,-0.371324986,-0.209713995,-1.135153055,-0.496142,-1.078186035,-1.085978031,-0.55201,0.821539998,-0.807488024,1.390262961,-0.687101007,-0.522024989,-0.693441987,1.175063014,1.166720986,0.203208998,0.860072017,-0.019912999,0.019299001,-1.685852051,0.596944988,-1.812682986,0.356633991,-0.643620014,-0.249755993,-0.237927005,-0.280124009,0.342180014,0.580874979,-0.879333019,0.413722008,-1.012472987,0.040665001,0.418844014,-0.784502983,-0.917654991,0.306546003,0.698799014,0.029896,0.187621996,-0.690581977,-1.49228096,-0.746363997,0.503112972,-0.632444024,-0.930738986,2.705739975,-0.605069995,-1.691931009,1.976773977,0.263328999,-0.535968006,-0.240375996,0.688483,1.343886971,0.065293998,-0.997417986,-0.280768007,-0.097993001,-0.292398989,-0.295473009,-0.497810006,0.566033006,0.291334003,1.497629046,0.90654999,-0.499882013,0.409157991,0.939337015,-0.243900001,1.413192987,0.228729993,-0.056492001,0.349328995,1.525225997,-0.454194993,0.041914999,-0.167851999,0.99731499,-0.061958998,-0.74771601,1.191815019,1.621346951,-0.346693009,0.187058002,0.40959999,0.545421004,0.545664012,-2.169490099,-0.725220025,0.387100011,-0.433104992,-0.332884997,0.108661003,-1.326964974,-1.561934948,0.470162988,1.498231053,0.527043998,-1.006664991,1.349431038,-1.456938028,-1.924077034,0.362787008,-1.378337026,-0.638908982,-0.441626012,-0.376226991,-2.140870094,-0.664801002,0.036711998,-0.345636994,-1.856577992,0.382324994,-0.255035996,-0.319602996,0.343638003,1.362772942,1.114652991,-1.736832976,0.189802006,-1.564455032,-1.318369031,-0.240795001,1.019583941,1.276100993,-0.519972026,0.464540005,1.638697028,1.766862988,-1.679151058,1.436810017,1.280393958,0.759896994,炬,-0.08935,2.311870098,-0.892347991,0.153081998,0.119520999,-0.303357989,1.884022951,-0.284671992,-0.338800013,1.360893011,-0.409850001,-0.640479982,-0.621671021,0.356326997,0.682793975,-0.306266993,0.625665009,-0.467354,0.849433005,-0.96410501,0.524780989,-0.004656,0.035732001,-0.695913017,1.384207964,1.086928964,0.126236007,0.153212994,-0.598053992,-0.322111994,-1.452160954,-1.536857963,0.661396027,1.310660958,0.348152995,0.810424984,0.089442,-1.470590949,-0.599422991,0.476354986,1.081720948,0.807781994,-1.636554003,-0.366216004,1.352228999,0.226579994,-0.569375992,-0.963553011,0.260838002,0.281318992,-0.495231986,-0.176163003,0.005401,-0.198097005,-1.54411304,0.100426003,0.342613995,-1.198322058,0.034196999,1.374673963,-0.400314987,0.322403997,-1.378152967,-0.324196011,-0.888158977,-0.139330998,-0.352019995,-0.955937028,0.071589001,0.943870008,-0.522481978,0.907109976,0.302877992,1.415563941,0.067483999,0.829258978,-0.068373002,0.843555987,0.432642996,1.855890989,0.132431,0.331304997,-0.266694993,0.321334988,1.659111023,-0.527296007,0.344107002,-0.662500978,0.138074994,-0.889037013,1.317796946,1.491006017,0.774933994,1.148674011,-0.574090004,-0.081549004,-1.006724,0.102701001,-0.463606,0.768905997,2.262903929,-0.507623971,1.059671998,1.325595021,0.070712999,0.129264995,1.339648962,-0.757919014,-0.036506001,-1.065052986,-0.932923019,-1.610949039,-0.21582,-1.439795971,0.413150012,1.112493992,0.753498971,-0.511097014,-0.289424002,0.523258984,-1.027209997,0.519420981,0.468656003,-0.158738002,-0.008579,2.23656702,0.234208003,-0.823130012,0.082657002,-1.835041046,0.254970014,0.375010997,-1.569054008,0.837499976,-0.969304025,1.443866968,-0.548868001,-0.301173002,0.362343997,0.353065997,0.542913973,1.162449002,-2.350301027,-1.228755951,1.083868027,-0.594762981,-1.811506033,0.538999975,-1.149150014,-0.289453,0.37915501,-1.081074953,-0.046587002,0.298512995,1.333484054,-0.291469991,0.072385997,-1.205556035,-0.861355007,0.48280099,-0.126001,-1.219712973,0.259342015,-1.493458986,1.517889977,0.646534979,1.932136059,-0.227573007,-1.455363989,-0.717996001,0.107702002,-0.738959014,2.238430023,-0.226483002,1.69816196,0.839257002,0.501652002,2.050189972,2.305845022,0.562400997,-1.152117014,0.500030994,0.504070997,-0.639428973,0.213345006,1.180008054,0.947516978,1.712859035,1.288257957,-0.125351995,0.499303997,0.136951998,0.357755005,1.100182056,-0.52493602,0.104079999,1.349318028,0.118716002,2.15665102,0.172709003,-0.325493991,0.468151003,-0.999253988,-0.345515013,0.891520977,-0.274865001,-1.55964303,0.680082023,-0.71628201,1.990574956,-0.34394601,-0.205776006,1.081539035,0.301752001,1.38480103,-0.602683008,-0.233335003,0.624504983,-1.264168978,-0.557700992,0.622968018,1.296421051,0.756273985,0.413195997,-0.496387988,-0.835138977,0.60730499,0.262540996,0.479117006,-2.146213055,-0.885473013,1.146608949,-0.039602999,-0.77651602,1.074759007,0.378834993,-1.276139021,0.040626999,0.226577997,-0.345140994,0.038959,1.260329008,-0.763435006,0.998605013,-0.201592997,-1.375316024,-0.045974001,-0.167349994,-0.245105997,0.895425975,-0.655782998,1.743435025,0.383666009,0.081813999,0.123971,1.445263028,0.585323989,0.447189987,0.965210021,3.082285881,0.165387005,-0.108553998,0.565568984,0.752056003,-1.498669028,-1.293370008,-0.371324986,-0.209713995,-1.135153055,-0.496142,-1.078186035,-1.085978031,-0.55201,0.821539998,-0.807488024,1.390262961,-0.687101007,-0.522024989,-0.693441987,1.175063014,1.166720986,0.203208998,0.860072017,-0.019912999,0.019299001,-1.685852051,0.596944988,-1.812682986,0.356633991,-0.643620014,-0.249755993,-0.237927005,-0.280124009,0.342180014,0.580874979,-0.879333019,0.413722008,-1.012472987,0.040665001,0.418844014,-0.784502983,-0.917654991,0.306546003,0.698799014,0.029896,0.187621996,-0.690581977,-1.49228096,-0.746363997,0.503112972,-0.632444024,-0.930738986,2.705739975,-0.605069995,-1.691931009,1.976773977,0.263328999,-0.535968006,-0.240375996,0.688483,1.343886971,0.065293998,-0.997417986,-0.280768007,-0.097993001,-0.292398989,-0.295473009,-0.497810006,0.566033006,0.291334003,1.497629046,0.90654999,-0.499882013,0.409157991,0.939337015,-0.243900001,1.413192987,0.228729993,-0.056492001,0.349328995,1.525225997,-0.454194993,0.041914999,-0.167851999,0.99731499,-0.061958998,-0.74771601,1.191815019,1.621346951,-0.346693009,0.187058002,0.40959999,0.545421004,0.545664012,-2.169490099,-0.725220025,0.387100011,-0.433104992,-0.332884997,0.108661003,-1.326964974,-1.561934948,0.470162988,1.498231053,0.527043998,-1.006664991,1.349431038,-1.456938028,-1.924077034,0.362787008,-1.378337026,-0.638908982,-0.441626012,-0.376226991,-2.140870094,-0.664801002,0.036711998,-0.345636994,-1.856577992,0.382324994,-0.255035996,-0.319602996,0.343638003,1.362772942,1.114652991,-1.736832976,0.189802006,-1.564455032,-1.318369031,-0.240795001,1.019583941,1.276100993,-0.519972026,0.464540005,1.638697028,1.766862988,-1.679151058,1.436810017,1.280393958,0.759896994
