word,0,1,2,3,4,5,6,7,8,9,10,11,12,13,14,15,16,17,18,19,20,21,22,23,24,25,26,27,28,29,30,31,32,33,34,35,36,37,38,39,40,41,42,43,44,45,46,47,48,49,50,51,52,53,54,55,56,57,58,59,60,61,62,63,64,65,66,67,68,69,70,71,72,73,74,75,76,77,78,79,80,81,82,83,84,85,86,87,88,89,90,91,92,93,94,95,96,97,98,99,100,101,102,103,104,105,106,107,108,109,110,111,112,113,114,115,116,117,118,119,120,121,122,123,124,125,126,127,128,129,130,131,132,133,134,135,136,137,138,139,140,141,142,143,144,145,146,147,148,149,150,151,152,153,154,155,156,157,158,159,160,161,162,163,164,165,166,167,168,169,170,171,172,173,174,175,176,177,178,179,180,181,182,183,184,185,186,187,188,189,190,191,192,193,194,195,196,197,198,199,200,201,202,203,204,205,206,207,208,209,210,211,212,213,214,215,216,217,218,219,220,221,222,223,224,225,226,227,228,229,230,231,232,233,234,235,236,237,238,239,240,241,242,243,244,245,246,247,248,249,250,251,252,253,254,255,256,257,258,259,260,261,262,263,264,265,266,267,268,269,270,271,272,273,274,275,276,277,278,279,280,281,282,283,284,285,286,287,288,289,290,291,292,293,294,295,296,297,298,299,300,301,302,303,304,305,306,307,308,309,310,311,312,313,314,315,316,317,318,319,320,321,322,323,324,325,326,327,328,329,330,331,332,333,334,335,336,337,338,339,340,341,342,343,344,345,346,347,348,349,350,351,352,353,354,355,356,357,358,359,360,361,362,363,364,365,366,367,368,369,370,371,372,373,374,375,376,377,378,379,380,381,382,383,384,385,386,387,388,389,390,391,392,393,394,395,396,397,398,399,word,0,1,2,3,4,5,6,7,8,9,10,11,12,13,14,15,16,17,18,19,20,21,22,23,24,25,26,27,28,29,30,31,32,33,34,35,36,37,38,39,40,41,42,43,44,45,46,47,48,49,50,51,52,53,54,55,56,57,58,59,60,61,62,63,64,65,66,67,68,69,70,71,72,73,74,75,76,77,78,79,80,81,82,83,84,85,86,87,88,89,90,91,92,93,94,95,96,97,98,99,100,101,102,103,104,105,106,107,108,109,110,111,112,113,114,115,116,117,118,119,120,121,122,123,124,125,126,127,128,129,130,131,132,133,134,135,136,137,138,139,140,141,142,143,144,145,146,147,148,149,150,151,152,153,154,155,156,157,158,159,160,161,162,163,164,165,166,167,168,169,170,171,172,173,174,175,176,177,178,179,180,181,182,183,184,185,186,187,188,189,190,191,192,193,194,195,196,197,198,199,200,201,202,203,204,205,206,207,208,209,210,211,212,213,214,215,216,217,218,219,220,221,222,223,224,225,226,227,228,229,230,231,232,233,234,235,236,237,238,239,240,241,242,243,244,245,246,247,248,249,250,251,252,253,254,255,256,257,258,259,260,261,262,263,264,265,266,267,268,269,270,271,272,273,274,275,276,277,278,279,280,281,282,283,284,285,286,287,288,289,290,291,292,293,294,295,296,297,298,299,300,301,302,303,304,305,306,307,308,309,310,311,312,313,314,315,316,317,318,319,320,321,322,323,324,325,326,327,328,329,330,331,332,333,334,335,336,337,338,339,340,341,342,343,344,345,346,347,348,349,350,351,352,353,354,355,356,357,358,359,360,361,362,363,364,365,366,367,368,369,370,371,372,373,374,375,376,377,378,379,380,381,382,383,384,385,386,387,388,389,390,391,392,393,394,395,396,397,398,399
特别,-0.311280996,-0.614377022,2.837521076,-2.025564909,-1.030727029,-0.382413,0.459697008,-0.449144989,1.144129038,-0.762576997,-1.142570972,0.986402988,-1.195554972,0.37666899,0.178781003,0.181364,0.345382988,0.485172987,-1.759027004,-0.088978998,0.152854994,0.388188004,-0.81041801,1.102851987,2.234584093,0.539314985,1.971660018,0.624532998,2.36826992,1.558894992,2.147329092,-0.138982996,1.757982016,-0.398948997,-0.759760976,-1.240522027,-0.506220996,-0.964658022,-1.28254199,0.557560027,1.473286033,-0.209208995,1.089573979,1.000867009,-0.649622977,-0.966681004,1.384588957,-0.096207999,0.047293998,0.878798008,-0.714111984,-0.148140997,1.821514964,0.368230999,-3.541979074,-0.092271,2.010814905,-1.580639958,0.783187985,0.070717998,0.236734003,-0.122263998,0.973492026,-0.922392011,0.114110999,-0.879073977,-0.039893001,-0.210014999,1.238083959,0.357279003,1.377359033,0.367601007,-0.198257998,2.408672094,-0.267022997,1.553655982,1.554381967,0.486016989,0.359984994,-0.824690998,-0.030809,-0.612271011,-1.409855008,1.944993019,1.004871011,-0.861576021,0.113169998,-0.816120028,0.920238018,0.242605001,-2.351733923,0.983417988,-0.004317,1.408792019,0.002647,-0.133291006,2.151195049,0.107937999,1.181506038,1.166815043,-0.292192996,-0.159729004,-0.370617002,0.272305012,-1.60995698,-1.830595016,0.67634201,0.291123003,1.055940986,1.744758964,-0.505806029,-0.91702199,-1.121184945,-1.802659035,-0.727557003,1.044116974,1.665959954,1.059486985,0.163274005,-1.469445944,0.399100006,0.037742,0.568848014,-1.014691949,-0.776952982,-0.486957997,-0.806605995,-0.478356004,1.590379953,-0.331936002,1.56870997,1.070045948,0.738677025,2.121992111,0.512887001,-0.321846992,0.483931988,-0.92732501,-0.818883002,2.126162052,0.200972006,-1.095203042,-0.202466995,-1.624434948,-1.168758988,-1.248682976,-0.94957298,-1.675192952,-0.431140989,-0.547652006,0.062267002,1.884461999,0.562996984,0.450489998,-0.453781992,0.045984998,-0.744324982,0.170912996,-1.08376503,-1.33376801,-0.089032002,0.832952976,1.290405989,-0.273476005,-0.446812987,1.692355037,0.192341,-0.583532989,-1.197240949,-1.393633008,0.66714102,-1.541636944,2.262803078,-0.123957999,1.255259991,-0.751707971,1.182595968,-1.422325969,-0.018142,-0.610984981,0.264470011,0.873941004,-0.77283901,1.394459963,0.522809029,-0.981326997,0.126115993,1.350010037,-0.751603007,-1.155856967,0.010468,-0.747897029,0.823457003,1.720566988,-0.846799016,-1.003345966,0.529223979,-0.468953997,-0.712436974,1.081403971,0.774182975,-0.067749001,-0.205867007,-1.282999039,-0.545342028,0.944760978,-0.973124981,0.61254698,0.170364007,0.152888998,-1.747238994,-0.158899993,0.681410015,-2.241878986,0.335882992,-0.70688802,-0.133985996,0.664306998,-0.693166018,2.273053885,-0.45679301,1.035513043,1.036661029,0.207994998,-1.313588977,1.24367404,0.278007001,-1.133906007,1.427266002,-0.121843003,-1.647359967,-0.829751015,-0.760118008,-1.972329021,0.167850003,0.260349005,1.816548944,-0.176208004,0.489674002,0.944109023,0.095928997,-0.662799001,-0.528809011,-0.276877999,-0.549820006,-0.329764009,-0.525210023,-0.316628993,-1.66031301,-1.356786966,1.034644961,-0.720122993,-2.239059925,2.098994017,-0.636330009,1.003623009,-1.194075942,-0.749010026,0.633540988,0.003647,-0.263431996,0.979713976,0.566969991,0.465528011,-0.497474998,-0.949886024,-0.630535007,-0.749458015,-1.04290998,0.406906009,-1.689056039,-0.312361002,-0.529923022,2.143265009,0.458822012,0.53293699,-0.749530971,0.638339996,-0.799095988,1.987887025,1.971974015,0.071154997,-0.627359986,-1.929873943,-0.515838981,2.243709087,-1.504472017,-2.01099205,-0.019781001,1.418586016,-1.903946996,0.848496974,0.129452005,0.314007998,1.708621979,0.722195983,0.452041,-0.172211006,-0.680998981,-0.64941299,-0.886476994,-0.337173015,-1.350667,0.315876007,-0.172585994,0.069597997,0.345865011,-1.500460982,-0.882723987,0.233608007,-0.165106997,1.326771021,2.092869997,0.752147019,-0.555513978,-1.807211041,2.042038918,0.898081005,0.622409999,-0.737160981,-1.340168953,-0.621022999,1.007787943,1.63647604,-0.798927009,-0.421458989,-0.990384996,-0.481566012,-0.064313002,-0.909515023,-0.883283019,0.651139021,-0.903672993,0.55784899,0.093608998,0.63075,0.300184011,-0.046619002,-0.718437016,0.183246002,1.169857025,0.215808004,-0.469944,0.477344006,0.166014001,-1.409723997,0.789941013,-0.37103501,1.145328999,1.328492999,0.535816014,0.677866995,-1.340257049,-0.659968019,-0.830470979,-0.264185011,2.426095009,-0.646049976,-1.012267947,0.862208009,0.970643997,0.043191001,0.208570004,-0.206916004,-0.722042978,1.788627028,-0.370703995,-0.024611,-1.593989968,-0.609247983,-0.995194018,-0.819275975,0.264607996,-0.353408009,0.617433012,-0.45816201,-1.107838035,-2.330190897,1.230978966,-0.848361015,0.078942001,1.602035046,0.388280988,0.450491011,1.060055017,-0.163698003,-0.51611203,-0.278216004,-0.678987026,0.521956027,0.377999991,2.254535913,0.288365006,1.356742024,0.908767998,-1.45648706,-0.587633014,2.451663971,0.538789988,3.371881962,瑰,-0.311280996,-0.614377022,2.837521076,-2.025564909,-1.030727029,-0.382413,0.459697008,-0.449144989,1.144129038,-0.762576997,-1.142570972,0.986402988,-1.195554972,0.37666899,0.178781003,0.181364,0.345382988,0.485172987,-1.759027004,-0.088978998,0.152854994,0.388188004,-0.81041801,1.102851987,2.234584093,0.539314985,1.971660018,0.624532998,2.36826992,1.558894992,2.147329092,-0.138982996,1.757982016,-0.398948997,-0.759760976,-1.240522027,-0.506220996,-0.964658022,-1.28254199,0.557560027,1.473286033,-0.209208995,1.089573979,1.000867009,-0.649622977,-0.966681004,1.384588957,-0.096207999,0.047293998,0.878798008,-0.714111984,-0.148140997,1.821514964,0.368230999,-3.541979074,-0.092271,2.010814905,-1.580639958,0.783187985,0.070717998,0.236734003,-0.122263998,0.973492026,-0.922392011,0.114110999,-0.879073977,-0.039893001,-0.210014999,1.238083959,0.357279003,1.377359033,0.367601007,-0.198257998,2.408672094,-0.267022997,1.553655982,1.554381967,0.486016989,0.359984994,-0.824690998,-0.030809,-0.612271011,-1.409855008,1.944993019,1.004871011,-0.861576021,0.113169998,-0.816120028,0.920238018,0.242605001,-2.351733923,0.983417988,-0.004317,1.408792019,0.002647,-0.133291006,2.151195049,0.107937999,1.181506038,1.166815043,-0.292192996,-0.159729004,-0.370617002,0.272305012,-1.60995698,-1.830595016,0.67634201,0.291123003,1.055940986,1.744758964,-0.505806029,-0.91702199,-1.121184945,-1.802659035,-0.727557003,1.044116974,1.665959954,1.059486985,0.163274005,-1.469445944,0.399100006,0.037742,0.568848014,-1.014691949,-0.776952982,-0.486957997,-0.806605995,-0.478356004,1.590379953,-0.331936002,1.56870997,1.070045948,0.738677025,2.121992111,0.512887001,-0.321846992,0.483931988,-0.92732501,-0.818883002,2.126162052,0.200972006,-1.095203042,-0.202466995,-1.624434948,-1.168758988,-1.248682976,-0.94957298,-1.675192952,-0.431140989,-0.547652006,0.062267002,1.884461999,0.562996984,0.450489998,-0.453781992,0.045984998,-0.744324982,0.170912996,-1.08376503,-1.33376801,-0.089032002,0.832952976,1.290405989,-0.273476005,-0.446812987,1.692355037,0.192341,-0.583532989,-1.197240949,-1.393633008,0.66714102,-1.541636944,2.262803078,-0.123957999,1.255259991,-0.751707971,1.182595968,-1.422325969,-0.018142,-0.610984981,0.264470011,0.873941004,-0.77283901,1.394459963,0.522809029,-0.981326997,0.126115993,1.350010037,-0.751603007,-1.155856967,0.010468,-0.747897029,0.823457003,1.720566988,-0.846799016,-1.003345966,0.529223979,-0.468953997,-0.712436974,1.081403971,0.774182975,-0.067749001,-0.205867007,-1.282999039,-0.545342028,0.944760978,-0.973124981,0.61254698,0.170364007,0.152888998,-1.747238994,-0.158899993,0.681410015,-2.241878986,0.335882992,-0.70688802,-0.133985996,0.664306998,-0.693166018,2.273053885,-0.45679301,1.035513043,1.036661029,0.207994998,-1.313588977,1.24367404,0.278007001,-1.133906007,1.427266002,-0.121843003,-1.647359967,-0.829751015,-0.760118008,-1.972329021,0.167850003,0.260349005,1.816548944,-0.176208004,0.489674002,0.944109023,0.095928997,-0.662799001,-0.528809011,-0.276877999,-0.549820006,-0.329764009,-0.525210023,-0.316628993,-1.66031301,-1.356786966,1.034644961,-0.720122993,-2.239059925,2.098994017,-0.636330009,1.003623009,-1.194075942,-0.749010026,0.633540988,0.003647,-0.263431996,0.979713976,0.566969991,0.465528011,-0.497474998,-0.949886024,-0.630535007,-0.749458015,-1.04290998,0.406906009,-1.689056039,-0.312361002,-0.529923022,2.143265009,0.458822012,0.53293699,-0.749530971,0.638339996,-0.799095988,1.987887025,1.971974015,0.071154997,-0.627359986,-1.929873943,-0.515838981,2.243709087,-1.504472017,-2.01099205,-0.019781001,1.418586016,-1.903946996,0.848496974,0.129452005,0.314007998,1.708621979,0.722195983,0.452041,-0.172211006,-0.680998981,-0.64941299,-0.886476994,-0.337173015,-1.350667,0.315876007,-0.172585994,0.069597997,0.345865011,-1.500460982,-0.882723987,0.233608007,-0.165106997,1.326771021,2.092869997,0.752147019,-0.555513978,-1.807211041,2.042038918,0.898081005,0.622409999,-0.737160981,-1.340168953,-0.621022999,1.007787943,1.63647604,-0.798927009,-0.421458989,-0.990384996,-0.481566012,-0.064313002,-0.909515023,-0.883283019,0.651139021,-0.903672993,0.55784899,0.093608998,0.63075,0.300184011,-0.046619002,-0.718437016,0.183246002,1.169857025,0.215808004,-0.469944,0.477344006,0.166014001,-1.409723997,0.789941013,-0.37103501,1.145328999,1.328492999,0.535816014,0.677866995,-1.340257049,-0.659968019,-0.830470979,-0.264185011,2.426095009,-0.646049976,-1.012267947,0.862208009,0.970643997,0.043191001,0.208570004,-0.206916004,-0.722042978,1.788627028,-0.370703995,-0.024611,-1.593989968,-0.609247983,-0.995194018,-0.819275975,0.264607996,-0.353408009,0.617433012,-0.45816201,-1.107838035,-2.330190897,1.230978966,-0.848361015,0.078942001,1.602035046,0.388280988,0.450491011,1.060055017,-0.163698003,-0.51611203,-0.278216004,-0.678987026,0.521956027,0.377999991,2.254535913,0.288365006,1.356742024,0.908767998,-1.45648706,-0.587633014,2.451663971,0.538789988,3.371881962
支撑,-1.124225974,1.604205012,-0.131382003,0.186407998,1.026932001,-0.195393994,1.595121026,-1.161471009,1.040146947,0.186747,-1.305246949,-1.307376981,-1.691027045,-0.228733003,0.389266014,-0.142711997,-0.227108002,-0.188613996,-0.027003,0.269730985,-1.076336026,-1.288710952,-1.814298034,-0.075289004,0.614057004,0.29174,-0.120908998,0.380818009,-0.563327014,0.021664999,-1.809049964,1.104962945,-0.743129015,1.012191057,0.530991018,-0.607303023,-0.765245974,0.096943997,0.885223985,1.773882985,1.153761983,-0.871267021,-0.899789989,-1.786327004,0.038412999,0.01365,0.033918999,-0.872731984,-0.562080026,0.747263014,0.162066996,-0.130963996,-0.671023011,-0.778876007,0.89408797,0.571874022,0.894414008,-1.02375102,1.415256977,2.536353111,0.209643006,0.406513005,0.094580002,-1.515097022,-0.665759981,-0.737577021,-1.106832981,0.254979014,-0.629898012,0.088581003,-0.699167013,-0.721975029,0.163521007,1.012135983,-0.876246989,1.38280201,0.449375004,-0.342958003,-0.564482987,0.473071992,0.903240979,-0.076986998,0.596750975,0.930536985,0.928088009,0.119168997,0.774946988,-0.225927994,-1.195248008,-0.381446004,-0.059284002,-0.497298986,1.012987018,-0.791355014,1.521698952,-0.496609002,0.875642002,0.673192978,0.009547,-0.589251995,0.812963009,-1.418884993,-0.804616988,0.362280011,-0.596063972,-0.397917002,1.092967033,-0.596534014,-0.775856972,-0.533710003,-0.563796997,-1.496126056,0.737797022,-1.931110024,0.022113999,-0.439298987,1.424093008,0.358218998,0.158043996,-0.242844,-1.648219943,-0.498131007,0.833397985,-1.000110984,0.788163006,0.43385601,-1.582770944,-0.038819999,0.645345986,-0.976433992,0.971542001,-0.30438599,-0.644918978,-0.125358,0.238588005,-0.136896998,-1.534700036,1.673030972,0.990390003,0.994768977,0.766543984,0.158235997,-0.581817985,-1.520434976,0.402078003,-1.083711982,0.77887702,-1.224380016,-0.854125977,-0.911548018,0.872008026,-0.322295994,-0.195079997,0.975346982,1.179646015,0.595268011,-0.469428986,-1.543076038,-0.639050007,0.905440986,-1.111719966,-0.160690993,-0.421449989,-1.288141012,0.310995013,1.200649977,2.264178038,-0.916360974,-1.149600983,-0.092160001,-0.597105026,1.467321992,1.007477045,2.717744112,0.295387,-0.144960001,-0.026861999,0.798666,0.901687026,0.277424991,0.544520974,0.50346297,0.997546971,-0.887705028,0.963755012,0.362320989,1.046787977,0.333020985,0.86244601,0.183966994,1.028988004,-0.413477004,-0.462682992,1.317842007,-0.752943993,-0.095804997,0.949016988,0.100233003,1.364349961,0.259952992,-0.150241002,-0.554445982,-0.754976988,-0.798098981,-1.107769012,-0.144611001,-1.227192044,-0.291790009,-0.872081995,1.699103951,-0.586152017,-2.08749795,1.99754405,-0.32594499,1.564260006,0.945043981,-0.127547994,0.046827,-0.235017002,-0.715223014,0.625563979,-0.542788029,3.027945995,0.946051002,0.76335001,-0.599023998,0.139958993,-0.188703999,0.852011979,-0.414595991,-0.474334002,0.443215996,0.279992014,0.077004999,0.932057977,-2.06249404,-1.466096997,-0.134527996,1.519587994,0.377813011,0.322587997,0.315017015,1.206240058,-0.301658988,2.269680977,0.212623999,0.106784999,-0.286053002,0.938023984,0.282106996,-1.373443007,1.118065,0.224457994,1.25969696,-0.877530992,0.618754029,1.063256979,-0.395273,-0.363014996,1.734105945,0.629194975,-0.301970989,0.128690004,0.986629009,-0.208746001,-1.204756975,-0.924134016,0.064606003,0.358823001,1.135630012,-0.020554001,-0.253201991,-0.265217006,0.400415003,-1.428959012,-0.499071985,0.77898097,-0.66990298,-0.724044025,0.520348012,-0.25604701,0.094958,2.161689043,2.309006929,-1.169754028,-1.27263999,0.577696025,-1.122833014,0.159776002,1.571769953,-0.100713,-0.511825979,-1.000779986,-0.684467018,1.255810022,-1.061962962,-0.443408996,0.487899005,-0.485433996,-0.139716998,-0.100511,0.484984994,0.184233993,-0.010465,1.581853986,-0.053739998,-0.689657986,-1.573711991,-0.671895027,1.371767998,-2.152234077,-0.255773008,0.547614992,0.502587974,0.076026,1.695340037,-1.125023007,-1.206208944,0.390594006,-0.158075005,0.150583997,-0.722359002,-1.469377041,-0.125511006,0.623600006,0.64328903,0.032513998,-1.01740098,0.106325001,-1.318956971,0.276780009,0.061081,-0.199304998,1.262987018,0.763936996,-0.518507004,1.021970034,0.245175004,-0.722833991,0.785353005,0.443349004,-0.338878989,-1.327811956,0.153248996,0.577309012,0.168316007,-0.480684012,1.256067038,0.320161015,-1.142328978,0.033670001,0.224721,0.253100008,0.351579994,0.090457998,-0.285335004,0.915118992,3.027717113,0.125212997,1.572180033,-0.278016001,-0.564212024,-0.248492002,1.037603974,-0.139495999,-1.111613035,-0.348134995,0.169865996,-0.101260997,-0.545704007,-2.302510023,0.773970008,0.092762001,1.592008948,-2.272170067,-0.510707974,-2.760719061,-0.123116001,-0.998099983,0.475044996,-0.122979,-0.123187996,-1.554188013,0.643694997,1.545006037,-0.832055986,-1.097126007,0.78472501,-1.346503019,0.42304799,-0.086267002,3.140006065,0.976895988,-1.435235024,0.152141005,0.073595002,-0.031638999,0.990274012,-1.25661695,-0.100869,,-1.124225974,1.604205012,-0.131382003,0.186407998,1.026932001,-0.195393994,1.595121026,-1.161471009,1.040146947,0.186747,-1.305246949,-1.307376981,-1.691027045,-0.228733003,0.389266014,-0.142711997,-0.227108002,-0.188613996,-0.027003,0.269730985,-1.076336026,-1.288710952,-1.814298034,-0.075289004,0.614057004,0.29174,-0.120908998,0.380818009,-0.563327014,0.021664999,-1.809049964,1.104962945,-0.743129015,1.012191057,0.530991018,-0.607303023,-0.765245974,0.096943997,0.885223985,1.773882985,1.153761983,-0.871267021,-0.899789989,-1.786327004,0.038412999,0.01365,0.033918999,-0.872731984,-0.562080026,0.747263014,0.162066996,-0.130963996,-0.671023011,-0.778876007,0.89408797,0.571874022,0.894414008,-1.02375102,1.415256977,2.536353111,0.209643006,0.406513005,0.094580002,-1.515097022,-0.665759981,-0.737577021,-1.106832981,0.254979014,-0.629898012,0.088581003,-0.699167013,-0.721975029,0.163521007,1.012135983,-0.876246989,1.38280201,0.449375004,-0.342958003,-0.564482987,0.473071992,0.903240979,-0.076986998,0.596750975,0.930536985,0.928088009,0.119168997,0.774946988,-0.225927994,-1.195248008,-0.381446004,-0.059284002,-0.497298986,1.012987018,-0.791355014,1.521698952,-0.496609002,0.875642002,0.673192978,0.009547,-0.589251995,0.812963009,-1.418884993,-0.804616988,0.362280011,-0.596063972,-0.397917002,1.092967033,-0.596534014,-0.775856972,-0.533710003,-0.563796997,-1.496126056,0.737797022,-1.931110024,0.022113999,-0.439298987,1.424093008,0.358218998,0.158043996,-0.242844,-1.648219943,-0.498131007,0.833397985,-1.000110984,0.788163006,0.43385601,-1.582770944,-0.038819999,0.645345986,-0.976433992,0.971542001,-0.30438599,-0.644918978,-0.125358,0.238588005,-0.136896998,-1.534700036,1.673030972,0.990390003,0.994768977,0.766543984,0.158235997,-0.581817985,-1.520434976,0.402078003,-1.083711982,0.77887702,-1.224380016,-0.854125977,-0.911548018,0.872008026,-0.322295994,-0.195079997,0.975346982,1.179646015,0.595268011,-0.469428986,-1.543076038,-0.639050007,0.905440986,-1.111719966,-0.160690993,-0.421449989,-1.288141012,0.310995013,1.200649977,2.264178038,-0.916360974,-1.149600983,-0.092160001,-0.597105026,1.467321992,1.007477045,2.717744112,0.295387,-0.144960001,-0.026861999,0.798666,0.901687026,0.277424991,0.544520974,0.50346297,0.997546971,-0.887705028,0.963755012,0.362320989,1.046787977,0.333020985,0.86244601,0.183966994,1.028988004,-0.413477004,-0.462682992,1.317842007,-0.752943993,-0.095804997,0.949016988,0.100233003,1.364349961,0.259952992,-0.150241002,-0.554445982,-0.754976988,-0.798098981,-1.107769012,-0.144611001,-1.227192044,-0.291790009,-0.872081995,1.699103951,-0.586152017,-2.08749795,1.99754405,-0.32594499,1.564260006,0.945043981,-0.127547994,0.046827,-0.235017002,-0.715223014,0.625563979,-0.542788029,3.027945995,0.946051002,0.76335001,-0.599023998,0.139958993,-0.188703999,0.852011979,-0.414595991,-0.474334002,0.443215996,0.279992014,0.077004999,0.932057977,-2.06249404,-1.466096997,-0.134527996,1.519587994,0.377813011,0.322587997,0.315017015,1.206240058,-0.301658988,2.269680977,0.212623999,0.106784999,-0.286053002,0.938023984,0.282106996,-1.373443007,1.118065,0.224457994,1.25969696,-0.877530992,0.618754029,1.063256979,-0.395273,-0.363014996,1.734105945,0.629194975,-0.301970989,0.128690004,0.986629009,-0.208746001,-1.204756975,-0.924134016,0.064606003,0.358823001,1.135630012,-0.020554001,-0.253201991,-0.265217006,0.400415003,-1.428959012,-0.499071985,0.77898097,-0.66990298,-0.724044025,0.520348012,-0.25604701,0.094958,2.161689043,2.309006929,-1.169754028,-1.27263999,0.577696025,-1.122833014,0.159776002,1.571769953,-0.100713,-0.511825979,-1.000779986,-0.684467018,1.255810022,-1.061962962,-0.443408996,0.487899005,-0.485433996,-0.139716998,-0.100511,0.484984994,0.184233993,-0.010465,1.581853986,-0.053739998,-0.689657986,-1.573711991,-0.671895027,1.371767998,-2.152234077,-0.255773008,0.547614992,0.502587974,0.076026,1.695340037,-1.125023007,-1.206208944,0.390594006,-0.158075005,0.150583997,-0.722359002,-1.469377041,-0.125511006,0.623600006,0.64328903,0.032513998,-1.01740098,0.106325001,-1.318956971,0.276780009,0.061081,-0.199304998,1.262987018,0.763936996,-0.518507004,1.021970034,0.245175004,-0.722833991,0.785353005,0.443349004,-0.338878989,-1.327811956,0.153248996,0.577309012,0.168316007,-0.480684012,1.256067038,0.320161015,-1.142328978,0.033670001,0.224721,0.253100008,0.351579994,0.090457998,-0.285335004,0.915118992,3.027717113,0.125212997,1.572180033,-0.278016001,-0.564212024,-0.248492002,1.037603974,-0.139495999,-1.111613035,-0.348134995,0.169865996,-0.101260997,-0.545704007,-2.302510023,0.773970008,0.092762001,1.592008948,-2.272170067,-0.510707974,-2.760719061,-0.123116001,-0.998099983,0.475044996,-0.122979,-0.123187996,-1.554188013,0.643694997,1.545006037,-0.832055986,-1.097126007,0.78472501,-1.346503019,0.42304799,-0.086267002,3.140006065,0.976895988,-1.435235024,0.152141005,0.073595002,-0.031638999,0.990274012,-1.25661695,-0.100869
碰撞,-0.392134994,1.391070962,-0.737652004,0.079101004,1.614977002,0.649246991,0.622071981,0.655492008,0.465032995,1.073433995,0.536159992,0.43472001,-0.35987699,-0.663284004,-0.105146997,0.174351007,0.624228001,-1.792765021,0.496010989,-1.814939976,0.750118971,1.169245005,-0.784798026,0.325753987,1.82672298,1.856819987,-0.219421998,-0.413529992,-0.740188003,0.953974009,-0.142001003,-0.722895026,-0.005987,1.227463961,0.621993005,0.50029999,1.23477602,-1.434685946,-0.420902014,0.469810992,2.399883032,-0.376845002,-1.896599054,-0.421234012,1.299775004,-0.588591993,1.041187048,-0.705529988,1.764718056,0.533712029,0.208097994,-0.835126996,-0.109957002,0.545957029,0.380593002,0.372568995,-1.992248058,-1.037137985,-0.051323999,0.554549992,0.357650995,-0.195440993,-0.598511994,0.448747993,-0.58604002,1.798261046,-1.401319027,-1.083655,0.650241017,-0.607152998,0.183179006,-0.174897999,-0.102403998,0.822574973,-0.702314973,1.335317016,2.018985987,-0.087246001,1.174559951,-0.366649002,0.998356998,-0.246317998,-0.41028899,0.666224003,0.632552028,0.524001002,1.997151971,-0.784789026,-1.266687036,-1.228412986,0.120231003,-0.759226978,-0.530432999,-0.356808007,-1.003891945,-1.405711055,-1.041098952,0.295381993,-1.431831956,-0.174923003,0.333795011,-0.048048001,0.100919001,2.367659092,0.369349986,-2.208807945,0.185129002,0.136994004,-0.75742197,0.685047984,-1.242313981,-0.665922999,1.260473967,-0.056265999,0.905434012,1.833655953,0.278757989,0.003343,-0.750488997,1.689849973,-0.458555996,-0.302433997,2.202109098,-0.112347998,-0.565279007,1.172683001,-0.220438004,-0.884325981,-0.214311004,-1.396890044,-0.543164015,-0.81872499,-0.690011978,-0.300269008,-0.199259996,1.284057021,0.514401972,-0.845701993,1.132171035,0.182125002,-0.473039001,1.854292989,-0.452666014,0.669629991,0.186079994,0.145303994,-0.745343029,1.731767058,-1.028072953,-1.542476058,1.555989981,0.984130979,-0.085569002,0.787818015,-0.208803996,-0.368346006,0.182192996,-0.183572993,-1.070255995,0.049044002,1.342921972,0.517040014,-0.048645001,-2.483644962,0.445661992,-0.196033999,-0.411738992,0.80269599,-0.763975978,1.376894951,0.259131998,-1.881814957,1.451179981,0.950224996,1.417297006,0.400673985,-0.004472,1.441292048,0.330603004,1.437716961,-0.378006995,0.729682982,-0.417986989,-0.223886997,0.074988,1.360041022,-0.212560996,-0.497772992,-0.689311028,-0.119576998,-0.912656009,-0.262737989,0.58573699,0.971309006,-0.115391001,-1.337551951,0.931271017,0.909847975,2.239104986,0.018947,0.068689004,0.243085995,-1.078245997,-0.413598001,-1.256929994,1.381850958,-0.384119004,0.141150996,-0.930826008,0.258641005,0.086971,-0.479838014,0.397812009,-0.250957996,-0.209903002,-0.331593007,-1.501917958,-0.075076997,-0.946253002,-0.070035003,-1.342892051,-0.541481972,1.745177031,-1.00149405,0.410070002,-0.496279001,-0.238996997,0.91049403,0.789701998,-0.01454,-0.131457999,1.215373993,-0.354757994,-0.358951002,1.813475966,0.440272003,-0.679325998,-0.064416997,0.366171002,-0.858295977,-2.054856062,1.051303983,0.328981996,0.453325987,0.691845,-0.711283028,-0.321929008,1.089280963,-2.712146044,0.559234977,-0.570100009,-0.013499,0.719116986,-0.952817976,-0.185104996,1.467998981,1.451807976,-0.769203007,1.140604973,2.20697403,-0.286063999,-1.125283003,1.018447042,-0.188227996,-2.280343056,-1.007771015,0.506494999,0.232143998,-0.343434006,-0.558595002,-0.506138027,0.85947901,-0.562161982,0.281477004,0.52382201,-0.78144598,-0.892232001,1.130182028,0.497390002,0.975188971,0.844627976,0.782764971,0.223493993,-0.476556003,-1.100533962,-0.393932998,0.484046012,-0.597666025,-0.927617013,0.457836986,-0.326148003,0.163537994,-0.445199013,-0.362500012,-0.074386001,0.230924994,0.332392991,-1.020007014,0.102937996,-1.090692043,-1.041677952,-1.370561004,-0.062307999,1.461642027,-0.753822982,-0.205770999,-1.139469981,-0.162695006,0.555727005,0.241733,-0.078722,-1.734210014,1.405081034,-1.264088035,-0.923121989,1.546120048,-0.856822014,-1.246958971,0.026605001,-0.363314003,-0.532486022,-0.742228985,0.410174996,0.369318992,-1.628658056,-1.730883956,0.98605299,-1.437417984,0.136377007,1.010143042,0.312730998,-0.244991004,-0.785121024,-0.570079029,1.279698014,0.154214993,0.391891003,0.129293993,0.470147997,1.678256989,-0.136815995,-1.243548989,0.437988997,-1.479784966,-0.594470024,-1.413496017,-0.678350985,1.495573998,1.148393989,-0.492487997,0.732819021,1.082103014,-0.211137995,1.161517978,-0.634998024,-0.516988993,0.570867002,-0.384516001,-1.328135967,2.437695026,-1.066126943,-1.683974028,-0.603661001,-0.224505007,-1.712931037,-1.106796026,-0.346237987,0.136893004,-1.151044011,-1.95905304,0.417429,-1.174932003,-1.525418043,0.000306,-1.101588011,-0.888593018,-1.823292017,-0.314191997,-1.844267964,-0.509202003,-0.256700009,1.098147035,0.544245005,0.333451003,-0.887501001,-2.285927057,1.124137998,-0.564033985,-0.991495013,-0.920563996,0.692678988,-0.362486988,-0.791185975,0.41058901,1.640825033,-1.081756949,-0.244683996,-0.235576004,-0.087921001,-0.374352008,纰版,-0.392134994,1.391070962,-0.737652004,0.079101004,1.614977002,0.649246991,0.622071981,0.655492008,0.465032995,1.073433995,0.536159992,0.43472001,-0.35987699,-0.663284004,-0.105146997,0.174351007,0.624228001,-1.792765021,0.496010989,-1.814939976,0.750118971,1.169245005,-0.784798026,0.325753987,1.82672298,1.856819987,-0.219421998,-0.413529992,-0.740188003,0.953974009,-0.142001003,-0.722895026,-0.005987,1.227463961,0.621993005,0.50029999,1.23477602,-1.434685946,-0.420902014,0.469810992,2.399883032,-0.376845002,-1.896599054,-0.421234012,1.299775004,-0.588591993,1.041187048,-0.705529988,1.764718056,0.533712029,0.208097994,-0.835126996,-0.109957002,0.545957029,0.380593002,0.372568995,-1.992248058,-1.037137985,-0.051323999,0.554549992,0.357650995,-0.195440993,-0.598511994,0.448747993,-0.58604002,1.798261046,-1.401319027,-1.083655,0.650241017,-0.607152998,0.183179006,-0.174897999,-0.102403998,0.822574973,-0.702314973,1.335317016,2.018985987,-0.087246001,1.174559951,-0.366649002,0.998356998,-0.246317998,-0.41028899,0.666224003,0.632552028,0.524001002,1.997151971,-0.784789026,-1.266687036,-1.228412986,0.120231003,-0.759226978,-0.530432999,-0.356808007,-1.003891945,-1.405711055,-1.041098952,0.295381993,-1.431831956,-0.174923003,0.333795011,-0.048048001,0.100919001,2.367659092,0.369349986,-2.208807945,0.185129002,0.136994004,-0.75742197,0.685047984,-1.242313981,-0.665922999,1.260473967,-0.056265999,0.905434012,1.833655953,0.278757989,0.003343,-0.750488997,1.689849973,-0.458555996,-0.302433997,2.202109098,-0.112347998,-0.565279007,1.172683001,-0.220438004,-0.884325981,-0.214311004,-1.396890044,-0.543164015,-0.81872499,-0.690011978,-0.300269008,-0.199259996,1.284057021,0.514401972,-0.845701993,1.132171035,0.182125002,-0.473039001,1.854292989,-0.452666014,0.669629991,0.186079994,0.145303994,-0.745343029,1.731767058,-1.028072953,-1.542476058,1.555989981,0.984130979,-0.085569002,0.787818015,-0.208803996,-0.368346006,0.182192996,-0.183572993,-1.070255995,0.049044002,1.342921972,0.517040014,-0.048645001,-2.483644962,0.445661992,-0.196033999,-0.411738992,0.80269599,-0.763975978,1.376894951,0.259131998,-1.881814957,1.451179981,0.950224996,1.417297006,0.400673985,-0.004472,1.441292048,0.330603004,1.437716961,-0.378006995,0.729682982,-0.417986989,-0.223886997,0.074988,1.360041022,-0.212560996,-0.497772992,-0.689311028,-0.119576998,-0.912656009,-0.262737989,0.58573699,0.971309006,-0.115391001,-1.337551951,0.931271017,0.909847975,2.239104986,0.018947,0.068689004,0.243085995,-1.078245997,-0.413598001,-1.256929994,1.381850958,-0.384119004,0.141150996,-0.930826008,0.258641005,0.086971,-0.479838014,0.397812009,-0.250957996,-0.209903002,-0.331593007,-1.501917958,-0.075076997,-0.946253002,-0.070035003,-1.342892051,-0.541481972,1.745177031,-1.00149405,0.410070002,-0.496279001,-0.238996997,0.91049403,0.789701998,-0.01454,-0.131457999,1.215373993,-0.354757994,-0.358951002,1.813475966,0.440272003,-0.679325998,-0.064416997,0.366171002,-0.858295977,-2.054856062,1.051303983,0.328981996,0.453325987,0.691845,-0.711283028,-0.321929008,1.089280963,-2.712146044,0.559234977,-0.570100009,-0.013499,0.719116986,-0.952817976,-0.185104996,1.467998981,1.451807976,-0.769203007,1.140604973,2.20697403,-0.286063999,-1.125283003,1.018447042,-0.188227996,-2.280343056,-1.007771015,0.506494999,0.232143998,-0.343434006,-0.558595002,-0.506138027,0.85947901,-0.562161982,0.281477004,0.52382201,-0.78144598,-0.892232001,1.130182028,0.497390002,0.975188971,0.844627976,0.782764971,0.223493993,-0.476556003,-1.100533962,-0.393932998,0.484046012,-0.597666025,-0.927617013,0.457836986,-0.326148003,0.163537994,-0.445199013,-0.362500012,-0.074386001,0.230924994,0.332392991,-1.020007014,0.102937996,-1.090692043,-1.041677952,-1.370561004,-0.062307999,1.461642027,-0.753822982,-0.205770999,-1.139469981,-0.162695006,0.555727005,0.241733,-0.078722,-1.734210014,1.405081034,-1.264088035,-0.923121989,1.546120048,-0.856822014,-1.246958971,0.026605001,-0.363314003,-0.532486022,-0.742228985,0.410174996,0.369318992,-1.628658056,-1.730883956,0.98605299,-1.437417984,0.136377007,1.010143042,0.312730998,-0.244991004,-0.785121024,-0.570079029,1.279698014,0.154214993,0.391891003,0.129293993,0.470147997,1.678256989,-0.136815995,-1.243548989,0.437988997,-1.479784966,-0.594470024,-1.413496017,-0.678350985,1.495573998,1.148393989,-0.492487997,0.732819021,1.082103014,-0.211137995,1.161517978,-0.634998024,-0.516988993,0.570867002,-0.384516001,-1.328135967,2.437695026,-1.066126943,-1.683974028,-0.603661001,-0.224505007,-1.712931037,-1.106796026,-0.346237987,0.136893004,-1.151044011,-1.95905304,0.417429,-1.174932003,-1.525418043,0.000306,-1.101588011,-0.888593018,-1.823292017,-0.314191997,-1.844267964,-0.509202003,-0.256700009,1.098147035,0.544245005,0.333451003,-0.887501001,-2.285927057,1.124137998,-0.564033985,-0.991495013,-0.920563996,0.692678988,-0.362486988,-0.791185975,0.41058901,1.640825033,-1.081756949,-0.244683996,-0.235576004,-0.087921001,-0.374352008
事件,-0.258381009,-0.318367004,-1.296471,0.590524018,1.052302003,-1.523973942,-0.806652009,1.264703989,0.342828989,-2.242042065,1.581017017,-0.338081986,-1.017384052,-1.80822897,0.986079991,-0.477335989,-0.289920986,-1.574414015,-0.164137006,-0.693912983,0.714798987,-0.622853994,-2.363075972,-1.401752949,-0.828860998,1.547590017,-0.304331988,-1.293251991,0.508506,1.172234058,-1.483049989,-1.827530026,0.269318014,-0.386987001,0.374909997,-0.809215009,-0.219629005,-1.78273201,-1.049010992,0.182024002,-0.43690899,0.872415006,-0.02317,1.449990034,-0.138475999,0.249595001,-0.409222007,-2.842926025,1.185781002,1.626701951,-0.286251009,-1.307461977,-0.105209999,0.985309005,-0.212952003,1.452525973,-0.942223012,0.237663001,0.066302001,1.080574989,-0.172177002,-1.647325993,0.391272992,-1.022717953,-0.771808028,2.280540943,-0.458934009,1.119477034,1.044574022,0.108277999,1.196712971,-0.32111299,0.762450993,0.565537989,1.310171008,-1.015300989,2.231931925,-0.548949003,0.199726,-2.016333103,0.952156007,-1.692433,0.266896009,0.711133003,-0.027655,0.447973996,-0.987980008,-0.777511001,-0.230762005,-0.584797025,0.601441979,0.779628992,-1.061450958,2.05450201,-0.172260001,-0.997138977,0.153696001,0.549237013,-0.627398014,0.386409014,1.295724034,0.177071005,2.292602062,0.092341997,-1.97152698,-0.667729974,2.002141953,-0.725978017,0.430473,0.626208007,0.628853977,0.854403973,-0.188620999,-2.762099028,-0.079149999,2.360567093,0.412358999,-0.703567028,0.681502998,0.658460975,0.379770011,0.830425024,0.89090699,-0.694943011,-1.802263975,-0.614076018,-1.105800033,-0.25839299,-1.016244054,2.228298903,0.013161,0.544466972,1.298732042,0.423530012,-0.791803002,1.531360984,2.810342073,0.983066976,-0.309426993,-0.694513023,-0.804075003,1.355422974,-0.997222006,-1.06487,-0.592782021,1.392032981,0.350163996,0.887959003,-0.032217,1.048473001,-0.474420011,1.365074039,-0.256036013,1.734344959,-0.583711028,0.214671001,-0.323621005,0.191136003,-0.066532999,0.329787999,0.530358016,-0.330080986,-1.446696043,-2.51740694,1.711658955,1.124544024,-0.470126003,-0.283771008,1.400406957,-0.096529,1.426100969,-2.149902105,2.153040886,-1.063717008,0.719006002,0.089782,-0.301533997,0.003753,-0.029449999,0.818877995,1.574128985,-1.436257005,0.244354993,-0.327412993,0.017495001,0.686002016,-0.524865985,0.464172989,1.494809031,-1.482182026,0.095579997,0.926334977,4.427399158,-1.333721042,0.324716985,1.602082968,-0.34603399,0.616845012,-0.156764001,1.440055966,0.620738983,0.035169002,-0.319047004,0.265421003,0.271095991,0.487381011,0.323992014,-0.043600999,1.179123044,-0.783092976,0.909506977,-2.080830097,-0.287501007,-1.845657945,1.202105999,-0.093699999,0.67750603,-0.071937002,2.08336401,1.381111979,0.224252999,0.107469998,2.040333986,-0.554361999,1.911671042,0.814271986,-1.14685595,1.974527001,-0.536648989,0.481869012,0.663208008,-1.015604019,-0.644005001,-1.697087049,1.098026037,0.205873996,0.823593974,1.069849014,-0.469632,1.600898027,0.707298994,1.701187015,0.410863012,-0.555301011,0.236928001,0.490577012,-1.334311008,-0.896631002,-1.236716986,-1.470332026,0.093098,0.755952001,-1.34750998,-2.884454012,0.944525003,-0.112236999,3.353137016,0.152717993,0.242719993,0.563557982,1.311720967,-1.346475959,1.435624003,0.511471987,-3.312758923,0.319227993,1.333711028,1.563856006,1.345162988,-1.056928992,-1.94599402,3.830655098,-0.076606996,-1.402464986,-1.426792979,-1.812780023,0.135677993,1.911746025,-1.523203015,1.310546041,1.484518051,0.315046996,-1.610206008,0.276638001,2.179619074,4.108548164,-0.48594299,1.966902018,-0.635635018,0.261299014,0.753534973,1.174721956,-0.909569025,-0.443677008,0.671509981,-1.195822001,0.366944999,-2.718446016,-0.768604994,-0.117458999,-1.147938967,1.243512034,-1.833979011,4.385717869,-1.428578973,0.41297099,0.384463996,1.841431975,-0.181597993,-0.774917006,-1.315685987,-1.636204958,-0.105531,-0.331519008,-2.337517023,0.345371991,2.322582006,-1.178635001,1.102352023,-2.873399019,1.240566015,-0.748268008,0.467557013,1.553784013,-0.858280003,-1.45975697,-1.925858974,1.36736095,-1.14656198,-0.730615973,1.920413971,0.514554977,-1.428421974,-0.265608013,2.433996916,-2.576505899,-0.681441009,0.889208019,-0.965873003,-0.780305982,-0.748923004,-0.064545996,0.574554026,0.384952992,0.271921992,-0.703500986,-0.591853023,-0.693764985,1.286512017,-0.80390501,2.521469116,2.763648987,0.770305991,1.315672994,-1.06743896,0.66437,-0.626147985,0.728305995,-1.553845048,1.521852016,-1.051540017,-2.598746061,-0.800706029,-0.739700019,0.075443,0.887821019,1.246500969,1.517223001,-0.166635007,0.552379012,0.867873013,-0.292735994,-0.989140987,-0.71736598,0.218702003,0.814032018,0.041037001,-1.911371946,-0.614103019,1.48704195,-1.02630198,0.817811012,1.041267991,-1.133669972,0.128207996,0.124554001,0.082615003,1.131952047,-0.856571019,-0.580015004,0.018463001,0.449950993,0.010166,1.360321999,0.764666021,-0.099436,-0.472296,-0.229044005,-0.560208976,0.247172996,浜浠,-0.258381009,-0.318367004,-1.296471,0.590524018,1.052302003,-1.523973942,-0.806652009,1.264703989,0.342828989,-2.242042065,1.581017017,-0.338081986,-1.017384052,-1.80822897,0.986079991,-0.477335989,-0.289920986,-1.574414015,-0.164137006,-0.693912983,0.714798987,-0.622853994,-2.363075972,-1.401752949,-0.828860998,1.547590017,-0.304331988,-1.293251991,0.508506,1.172234058,-1.483049989,-1.827530026,0.269318014,-0.386987001,0.374909997,-0.809215009,-0.219629005,-1.78273201,-1.049010992,0.182024002,-0.43690899,0.872415006,-0.02317,1.449990034,-0.138475999,0.249595001,-0.409222007,-2.842926025,1.185781002,1.626701951,-0.286251009,-1.307461977,-0.105209999,0.985309005,-0.212952003,1.452525973,-0.942223012,0.237663001,0.066302001,1.080574989,-0.172177002,-1.647325993,0.391272992,-1.022717953,-0.771808028,2.280540943,-0.458934009,1.119477034,1.044574022,0.108277999,1.196712971,-0.32111299,0.762450993,0.565537989,1.310171008,-1.015300989,2.231931925,-0.548949003,0.199726,-2.016333103,0.952156007,-1.692433,0.266896009,0.711133003,-0.027655,0.447973996,-0.987980008,-0.777511001,-0.230762005,-0.584797025,0.601441979,0.779628992,-1.061450958,2.05450201,-0.172260001,-0.997138977,0.153696001,0.549237013,-0.627398014,0.386409014,1.295724034,0.177071005,2.292602062,0.092341997,-1.97152698,-0.667729974,2.002141953,-0.725978017,0.430473,0.626208007,0.628853977,0.854403973,-0.188620999,-2.762099028,-0.079149999,2.360567093,0.412358999,-0.703567028,0.681502998,0.658460975,0.379770011,0.830425024,0.89090699,-0.694943011,-1.802263975,-0.614076018,-1.105800033,-0.25839299,-1.016244054,2.228298903,0.013161,0.544466972,1.298732042,0.423530012,-0.791803002,1.531360984,2.810342073,0.983066976,-0.309426993,-0.694513023,-0.804075003,1.355422974,-0.997222006,-1.06487,-0.592782021,1.392032981,0.350163996,0.887959003,-0.032217,1.048473001,-0.474420011,1.365074039,-0.256036013,1.734344959,-0.583711028,0.214671001,-0.323621005,0.191136003,-0.066532999,0.329787999,0.530358016,-0.330080986,-1.446696043,-2.51740694,1.711658955,1.124544024,-0.470126003,-0.283771008,1.400406957,-0.096529,1.426100969,-2.149902105,2.153040886,-1.063717008,0.719006002,0.089782,-0.301533997,0.003753,-0.029449999,0.818877995,1.574128985,-1.436257005,0.244354993,-0.327412993,0.017495001,0.686002016,-0.524865985,0.464172989,1.494809031,-1.482182026,0.095579997,0.926334977,4.427399158,-1.333721042,0.324716985,1.602082968,-0.34603399,0.616845012,-0.156764001,1.440055966,0.620738983,0.035169002,-0.319047004,0.265421003,0.271095991,0.487381011,0.323992014,-0.043600999,1.179123044,-0.783092976,0.909506977,-2.080830097,-0.287501007,-1.845657945,1.202105999,-0.093699999,0.67750603,-0.071937002,2.08336401,1.381111979,0.224252999,0.107469998,2.040333986,-0.554361999,1.911671042,0.814271986,-1.14685595,1.974527001,-0.536648989,0.481869012,0.663208008,-1.015604019,-0.644005001,-1.697087049,1.098026037,0.205873996,0.823593974,1.069849014,-0.469632,1.600898027,0.707298994,1.701187015,0.410863012,-0.555301011,0.236928001,0.490577012,-1.334311008,-0.896631002,-1.236716986,-1.470332026,0.093098,0.755952001,-1.34750998,-2.884454012,0.944525003,-0.112236999,3.353137016,0.152717993,0.242719993,0.563557982,1.311720967,-1.346475959,1.435624003,0.511471987,-3.312758923,0.319227993,1.333711028,1.563856006,1.345162988,-1.056928992,-1.94599402,3.830655098,-0.076606996,-1.402464986,-1.426792979,-1.812780023,0.135677993,1.911746025,-1.523203015,1.310546041,1.484518051,0.315046996,-1.610206008,0.276638001,2.179619074,4.108548164,-0.48594299,1.966902018,-0.635635018,0.261299014,0.753534973,1.174721956,-0.909569025,-0.443677008,0.671509981,-1.195822001,0.366944999,-2.718446016,-0.768604994,-0.117458999,-1.147938967,1.243512034,-1.833979011,4.385717869,-1.428578973,0.41297099,0.384463996,1.841431975,-0.181597993,-0.774917006,-1.315685987,-1.636204958,-0.105531,-0.331519008,-2.337517023,0.345371991,2.322582006,-1.178635001,1.102352023,-2.873399019,1.240566015,-0.748268008,0.467557013,1.553784013,-0.858280003,-1.45975697,-1.925858974,1.36736095,-1.14656198,-0.730615973,1.920413971,0.514554977,-1.428421974,-0.265608013,2.433996916,-2.576505899,-0.681441009,0.889208019,-0.965873003,-0.780305982,-0.748923004,-0.064545996,0.574554026,0.384952992,0.271921992,-0.703500986,-0.591853023,-0.693764985,1.286512017,-0.80390501,2.521469116,2.763648987,0.770305991,1.315672994,-1.06743896,0.66437,-0.626147985,0.728305995,-1.553845048,1.521852016,-1.051540017,-2.598746061,-0.800706029,-0.739700019,0.075443,0.887821019,1.246500969,1.517223001,-0.166635007,0.552379012,0.867873013,-0.292735994,-0.989140987,-0.71736598,0.218702003,0.814032018,0.041037001,-1.911371946,-0.614103019,1.48704195,-1.02630198,0.817811012,1.041267991,-1.133669972,0.128207996,0.124554001,0.082615003,1.131952047,-0.856571019,-0.580015004,0.018463001,0.449950993,0.010166,1.360321999,0.764666021,-0.099436,-0.472296,-0.229044005,-0.560208976,0.247172996
设计,-0.311468005,2.836853027,0.929342985,0.889881015,0.485713989,0.350710988,1.129614949,-1.010319948,2.734646082,0.548708975,-1.330476046,1.452963948,-1.526808977,0.51643002,-0.45254001,0.366856009,-1.213060021,-1.278627992,0.430763006,-0.149914995,-0.369076997,0.340458006,-0.319480002,0.567583978,-1.326380014,-0.778806984,0.901301026,1.625362992,-2.179991007,0.654962003,-2.142529011,0.576874018,0.275552988,-1.441805005,0.249762997,0.280909985,-1.019039989,-1.007887959,-1.72497499,-0.273447007,1.354987025,-2.489259005,1.228961945,-0.043396,-0.189733997,1.012400031,1.008399963,-1.825152993,0.534148991,-0.627250016,0.906589985,0.290019006,0.932796001,1.579385996,-2.223453045,0.840278983,1.309874058,-0.126992002,-0.295626998,-0.864116013,-3.227871895,1.052206993,-1.668447018,-0.080585003,-0.868694007,-2.052220106,0.685154021,-0.943543971,1.22418499,-0.218873993,-1.137282014,-0.275272012,0.767772973,2.948566914,0.555027008,-0.212217003,-0.247384995,0.069038004,0.370267004,0.181134,0.099930003,-2.370767117,0.774650991,1.478499055,-1.227588058,-0.048866998,-0.618166983,-1.597548008,0.343542993,-1.012341022,-1.223294973,0.354155004,0.219088003,0.411740988,0.330538988,0.771220028,-0.061315998,0.551015973,-2.879882097,-1.068714023,-0.178543001,-0.963559985,0.227446005,0.922231972,-0.799476027,0.027791999,0.567665994,0.126969993,1.793529034,-0.507713974,0.041717,-0.958607972,-0.719803989,-0.476229995,-0.76236701,-0.900026023,0.628646016,-0.767041981,-0.889438987,1.447460055,0.842532992,-0.446047008,-2.056258917,0.276567012,-0.665404022,0.66180402,-2.0737679,-0.468897998,-0.950420976,-1.486256003,1.727316976,0.288601011,0.559464991,1.521790981,-0.416523993,0.978754997,0.175986007,0.717280984,0.26463899,-0.142425999,0.375133991,2.368026018,0.934278011,2.099910975,-0.929455996,-1.699010968,0.851951003,-1.980963945,0.939647019,-1.568068028,0.416267008,0.410026997,1.793967962,-0.750784993,0.750226974,1.483080983,0.182679996,-0.107929997,-0.214109004,-0.603608012,-0.970292985,-1.366400957,-0.175915003,-1.190415978,1.215548038,0.705559015,-0.555222988,-1.23773396,0.410088003,-0.885124028,-0.922326028,1.679355025,0.270134985,-0.082709998,0.098672003,1.312479019,2.433042049,1.877048969,1.571377993,1.168251038,-0.481624991,0.77296102,0.639325023,0.29589501,-0.773263991,1.045061946,1.125237942,-0.009518,-0.146540999,-0.844461977,-1.769961953,-0.616699994,0.201253995,1.62412703,-1.22723496,2.095787048,0.956857979,-1.077878952,0.024583001,1.40260303,0.938072026,0.200062007,0.053055,0.26147601,0.883050025,-1.599589944,-0.764227986,0.570554018,0.637476027,2.340379953,-0.211806998,-0.82516098,0.06182,-0.275965005,0.930898011,0.652963996,-0.401015997,-0.522855997,-0.400537014,0.634567022,1.435976028,-0.014543,1.340060949,0.722832978,2.302681923,-1.074609995,-0.862756014,-1.894667983,0.092550002,-1.389495969,-0.302383006,-0.324133009,2.162225962,-2.347444057,1.159989953,-0.886174977,0.325632989,-0.683851004,1.551638961,-0.807412028,1.624969959,1.674185038,1.087805986,0.169045001,1.258270025,1.231232047,0.859494984,-0.309729993,-0.483794004,0.357501,-0.799570024,0.553499997,1.140869975,-0.025844,-0.455433995,-0.307608008,-0.313136995,1.105805993,1.280997038,1.06161499,1.364235997,-1.095867991,-0.503269017,1.557358027,0.153400004,-2.090758085,1.13627398,-0.365819007,0.247229993,0.826090991,-2.231349945,-2.277430058,0.315506995,2.778522968,-1.35670495,0.162814006,-0.430795014,2.161062002,1.585373998,0.904752016,-0.703858018,0.659572005,-0.558481991,-0.772774994,-2.991635084,1.384436011,1.286121011,0.944766998,-0.617114007,-0.181504995,-0.355946988,1.300143957,-1.483275056,1.621554971,-1.166499972,-1.181064963,1.640508056,-0.360289007,-2.271255016,-0.052712999,-0.920518994,0.80794102,0.446155995,-0.442068011,0.61808002,0.656856,0.175687999,-1.174056053,-0.021151001,2.60107398,1.816115022,-1.764726043,0.168117002,-0.19122,0.422078997,1.177427053,-1.788565993,-2.315221071,0.429675996,-0.958509982,2.187874079,0.204136997,-0.427870989,1.248064995,-1.968209028,-0.718724012,-0.00424,-0.326611012,0.427442014,0.602141023,1.321378946,2.172713041,-0.540495992,-0.708936989,0.507547975,-0.783275008,-0.583508015,0.183311,-1.205268979,-0.283735007,0.303481013,0.835093975,-0.604717016,1.415534973,0.446512014,-0.714666009,-0.205319002,0.176596999,1.901986957,-1.007694006,-0.897931993,0.306578994,1.488227963,-2.131519079,0.290466011,-0.85383302,1.172443986,0.562521994,-0.851077974,1.132859945,-0.579253018,-1.40633595,-0.262840003,-0.125501007,-0.986088991,-0.325724989,-1.499573946,-1.897827029,-0.543877006,0.843537986,0.343010008,0.468575001,-1.04323101,0.389964998,-2.174727917,0.225971997,-0.494251996,-1.679479957,-4.713963985,-0.871837974,1.110340953,0.018477,1.018443942,-0.062360998,1.826079965,-0.358249992,-0.224139005,-1.697080016,-1.106585979,-0.513903975,-0.290556014,0.457863003,-1.088891983,-0.235733002,1.009016991,1.318642974,-0.63658601,0.233333007,1.129595995,-0.823226988,璁捐,-0.311468005,2.836853027,0.929342985,0.889881015,0.485713989,0.350710988,1.129614949,-1.010319948,2.734646082,0.548708975,-1.330476046,1.452963948,-1.526808977,0.51643002,-0.45254001,0.366856009,-1.213060021,-1.278627992,0.430763006,-0.149914995,-0.369076997,0.340458006,-0.319480002,0.567583978,-1.326380014,-0.778806984,0.901301026,1.625362992,-2.179991007,0.654962003,-2.142529011,0.576874018,0.275552988,-1.441805005,0.249762997,0.280909985,-1.019039989,-1.007887959,-1.72497499,-0.273447007,1.354987025,-2.489259005,1.228961945,-0.043396,-0.189733997,1.012400031,1.008399963,-1.825152993,0.534148991,-0.627250016,0.906589985,0.290019006,0.932796001,1.579385996,-2.223453045,0.840278983,1.309874058,-0.126992002,-0.295626998,-0.864116013,-3.227871895,1.052206993,-1.668447018,-0.080585003,-0.868694007,-2.052220106,0.685154021,-0.943543971,1.22418499,-0.218873993,-1.137282014,-0.275272012,0.767772973,2.948566914,0.555027008,-0.212217003,-0.247384995,0.069038004,0.370267004,0.181134,0.099930003,-2.370767117,0.774650991,1.478499055,-1.227588058,-0.048866998,-0.618166983,-1.597548008,0.343542993,-1.012341022,-1.223294973,0.354155004,0.219088003,0.411740988,0.330538988,0.771220028,-0.061315998,0.551015973,-2.879882097,-1.068714023,-0.178543001,-0.963559985,0.227446005,0.922231972,-0.799476027,0.027791999,0.567665994,0.126969993,1.793529034,-0.507713974,0.041717,-0.958607972,-0.719803989,-0.476229995,-0.76236701,-0.900026023,0.628646016,-0.767041981,-0.889438987,1.447460055,0.842532992,-0.446047008,-2.056258917,0.276567012,-0.665404022,0.66180402,-2.0737679,-0.468897998,-0.950420976,-1.486256003,1.727316976,0.288601011,0.559464991,1.521790981,-0.416523993,0.978754997,0.175986007,0.717280984,0.26463899,-0.142425999,0.375133991,2.368026018,0.934278011,2.099910975,-0.929455996,-1.699010968,0.851951003,-1.980963945,0.939647019,-1.568068028,0.416267008,0.410026997,1.793967962,-0.750784993,0.750226974,1.483080983,0.182679996,-0.107929997,-0.214109004,-0.603608012,-0.970292985,-1.366400957,-0.175915003,-1.190415978,1.215548038,0.705559015,-0.555222988,-1.23773396,0.410088003,-0.885124028,-0.922326028,1.679355025,0.270134985,-0.082709998,0.098672003,1.312479019,2.433042049,1.877048969,1.571377993,1.168251038,-0.481624991,0.77296102,0.639325023,0.29589501,-0.773263991,1.045061946,1.125237942,-0.009518,-0.146540999,-0.844461977,-1.769961953,-0.616699994,0.201253995,1.62412703,-1.22723496,2.095787048,0.956857979,-1.077878952,0.024583001,1.40260303,0.938072026,0.200062007,0.053055,0.26147601,0.883050025,-1.599589944,-0.764227986,0.570554018,0.637476027,2.340379953,-0.211806998,-0.82516098,0.06182,-0.275965005,0.930898011,0.652963996,-0.401015997,-0.522855997,-0.400537014,0.634567022,1.435976028,-0.014543,1.340060949,0.722832978,2.302681923,-1.074609995,-0.862756014,-1.894667983,0.092550002,-1.389495969,-0.302383006,-0.324133009,2.162225962,-2.347444057,1.159989953,-0.886174977,0.325632989,-0.683851004,1.551638961,-0.807412028,1.624969959,1.674185038,1.087805986,0.169045001,1.258270025,1.231232047,0.859494984,-0.309729993,-0.483794004,0.357501,-0.799570024,0.553499997,1.140869975,-0.025844,-0.455433995,-0.307608008,-0.313136995,1.105805993,1.280997038,1.06161499,1.364235997,-1.095867991,-0.503269017,1.557358027,0.153400004,-2.090758085,1.13627398,-0.365819007,0.247229993,0.826090991,-2.231349945,-2.277430058,0.315506995,2.778522968,-1.35670495,0.162814006,-0.430795014,2.161062002,1.585373998,0.904752016,-0.703858018,0.659572005,-0.558481991,-0.772774994,-2.991635084,1.384436011,1.286121011,0.944766998,-0.617114007,-0.181504995,-0.355946988,1.300143957,-1.483275056,1.621554971,-1.166499972,-1.181064963,1.640508056,-0.360289007,-2.271255016,-0.052712999,-0.920518994,0.80794102,0.446155995,-0.442068011,0.61808002,0.656856,0.175687999,-1.174056053,-0.021151001,2.60107398,1.816115022,-1.764726043,0.168117002,-0.19122,0.422078997,1.177427053,-1.788565993,-2.315221071,0.429675996,-0.958509982,2.187874079,0.204136997,-0.427870989,1.248064995,-1.968209028,-0.718724012,-0.00424,-0.326611012,0.427442014,0.602141023,1.321378946,2.172713041,-0.540495992,-0.708936989,0.507547975,-0.783275008,-0.583508015,0.183311,-1.205268979,-0.283735007,0.303481013,0.835093975,-0.604717016,1.415534973,0.446512014,-0.714666009,-0.205319002,0.176596999,1.901986957,-1.007694006,-0.897931993,0.306578994,1.488227963,-2.131519079,0.290466011,-0.85383302,1.172443986,0.562521994,-0.851077974,1.132859945,-0.579253018,-1.40633595,-0.262840003,-0.125501007,-0.986088991,-0.325724989,-1.499573946,-1.897827029,-0.543877006,0.843537986,0.343010008,0.468575001,-1.04323101,0.389964998,-2.174727917,0.225971997,-0.494251996,-1.679479957,-4.713963985,-0.871837974,1.110340953,0.018477,1.018443942,-0.062360998,1.826079965,-0.358249992,-0.224139005,-1.697080016,-1.106585979,-0.513903975,-0.290556014,0.457863003,-1.088891983,-0.235733002,1.009016991,1.318642974,-0.63658601,0.233333007,1.129595995,-0.823226988
力,-2.574501991,-0.793829024,0.163360998,-0.331914008,-0.61391902,0.532271981,1.299319983,-2.002995968,1.821336031,-1.96164,1.680461049,-1.300457954,-0.686483026,-0.637467027,-1.317594051,-0.37005201,-1.026636004,-0.127580002,-1.457692027,-0.580429971,1.092674971,-0.611910999,0.567170978,-0.977383971,0.020837,1.249590993,0.237413004,0.255028993,-2.888272047,0.917657018,-0.333205014,0.682029009,0.171696007,0.208278999,-1.111825943,-0.716596007,-1.341936946,0.365402013,0.941114008,0.956627011,1.360623956,-0.105573997,-0.318233013,-0.827488005,-0.571989,-0.114655003,-0.724946022,-1.994138956,0.720187008,1.058555007,1.274608016,-1.061882019,-0.863156021,0.291970998,0.236307994,-0.052836001,0.214375004,-1.07901299,0.26769799,0.198633,1.749387026,0.906818986,-1.109243035,0.519174993,-0.114687003,-0.41425699,-0.309053004,-2.646222115,-0.267919987,1.654759049,-0.29410401,0.105811998,1.122326016,-0.309522986,0.755990028,-0.890419006,1.007859945,-0.574588001,0.637885988,-0.292845994,0.226026997,0.387264997,1.882418036,0.929048002,0.542078972,1.162449002,-1.872017026,-1.413663983,1.091441035,-1.642704964,-0.904111981,-0.336602002,1.171347976,1.095746994,0.008238,0.310748011,0.109971002,1.990038037,-0.406414002,1.492125034,-0.315160006,-0.328794003,0.721700013,1.179831982,2.10453701,0.184083,1.093788028,1.276450038,0.859934986,-0.973011017,-0.555149972,0.308450997,-0.202258006,1.046491981,-0.243544996,-0.261774987,-1.354987025,1.710633993,0.47033,-1.979614019,0.850373983,-1.629134059,-0.223282993,0.048213001,1.123509049,0.55014497,-1.207404017,-1.68009305,-0.798949003,-0.191441998,-0.822996974,0.589713991,-1.294996977,0.271227002,-0.116129003,1.10571301,-0.795063019,-1.502516031,-1.595191956,-1.75168395,-0.247030005,-0.741757989,0.731284022,-1.786424994,0.078800999,-0.130879998,0.450013995,-0.397471011,-0.169416994,-0.840475976,0.805900991,1.329522967,2.04856205,0.219236001,-0.665045023,-1.589064956,1.640391946,-1.360926986,-1.307665944,-0.366964996,-0.045254,-0.410928011,0.057603002,-0.789605021,-0.253497005,-0.279390007,1.314427018,-0.681729972,-1.194139957,0.851144016,-1.006507993,-1.206676006,-1.737653017,-0.695625007,0.124789,-0.296662986,0.862936974,1.387997985,0.937327981,-0.527073979,-0.836951017,2.489432096,-0.299713999,0.160574004,0.666303992,1.763946056,0.452127993,-0.570349991,-1.210247993,0.004619,1.665748954,-0.367330015,0.581487,2.156300068,-0.011954,-0.987861991,-1.763510942,-1.110206962,-0.411006987,-1.777093053,1.098907948,0.199126005,-1.235829949,-0.412124008,-0.025355,0.573206007,-2.140069962,-1.09126997,-1.849208951,-0.395507008,-2.235476971,-1.331990957,-1.000677943,-0.02035,0.944783986,1.302438974,-1.192513943,-1.323472977,-1.242650032,0.631012022,0.196343005,-0.076526001,0.304329991,-1.739297986,0.767845988,0.169719994,0.256992012,0.205943003,0.931832016,-0.114069,-1.291478992,2.009881973,0.330594987,-2.201929092,0.156902,-0.83268398,-1.661931992,-0.169328004,0.50088799,-1.015820026,-1.952340007,-1.165850997,0.109107003,-0.988855004,-0.356557995,1.196429968,-0.753785014,0.266835004,-2.199187994,0.319088012,1.904487014,1.482866049,1.352666974,0.909837008,-0.324914008,0.777821004,-0.34671399,-1.092973948,-0.219669998,0.759903014,0.534994006,-1.532392979,1.135079026,0.139535993,-0.278198004,0.480574012,-0.509603977,1.014770031,1.032714009,1.003566027,1.985195041,-1.568034053,-2.325229883,-2.030842066,-1.739097953,-1.00929296,-0.337931007,-2.007496119,0.447216004,0.422235996,0.377737999,-1.39725697,-0.744404018,0.599794984,-0.314303994,0.703734994,-0.064718001,0.221428007,-0.52758503,1.547734976,0.354959995,1.108317971,1.153048038,-0.309877992,-0.073813997,-1.170554996,2.725033998,-1.905200005,-0.001638,-1.91753602,-1.090710044,0.384110004,0.709574997,0.407072991,1.343685985,0.857595026,1.218235016,-0.328505009,-0.932776988,1.973889947,-0.439947993,0.405894011,-0.085886002,-1.472954035,1.50712204,-0.525659025,0.020419,1.233643055,0.688714981,-0.480664998,0.694619,-1.492707968,1.155372024,1.548750043,1.114820004,-0.716548026,-0.33486101,-1.772758007,-0.066858999,0.552450001,-0.524425983,0.500859976,-0.363097012,-0.957006991,0.814365983,-3.703931093,0.334468007,0.180139005,-0.876565993,-0.898379028,-0.273620009,0.031954002,1.67682302,-0.886574984,2.037487984,0.429322988,2.071547985,0.449984998,-0.775183022,-1.640717983,1.124927044,-0.974622011,-0.309648007,2.688441992,0.968505979,1.550806999,1.713184953,-0.265415013,-1.63399303,-1.382544041,2.312314987,1.011957049,-0.683335006,0.431580991,-0.835803986,-0.591934025,0.032453999,1.102478981,-0.767953992,0.145873994,1.07732296,-0.345573008,-1.010422945,1.648476005,-0.060770001,-0.434442997,-1.651466012,-0.582244992,-1.587358952,0.904236019,-0.032046001,1.124780059,0.043795001,0.390441,1.582129955,-0.253300995,0.515165985,0.379768014,-0.224381998,-0.543604016,0.565900028,0.004299,0.093781002,1.058297038,1.383602023,-1.801334977,-1.465294003,0.147322997,-0.181622997,-0.905722022,?-2.57450199127,-0.793829024,0.163360998,-0.331914008,-0.61391902,0.532271981,1.299319983,-2.002995968,1.821336031,-1.96164,1.680461049,-1.300457954,-0.686483026,-0.637467027,-1.317594051,-0.37005201,-1.026636004,-0.127580002,-1.457692027,-0.580429971,1.092674971,-0.611910999,0.567170978,-0.977383971,0.020837,1.249590993,0.237413004,0.255028993,-2.888272047,0.917657018,-0.333205014,0.682029009,0.171696007,0.208278999,-1.111825943,-0.716596007,-1.341936946,0.365402013,0.941114008,0.956627011,1.360623956,-0.105573997,-0.318233013,-0.827488005,-0.571989,-0.114655003,-0.724946022,-1.994138956,0.720187008,1.058555007,1.274608016,-1.061882019,-0.863156021,0.291970998,0.236307994,-0.052836001,0.214375004,-1.07901299,0.26769799,0.198633,1.749387026,0.906818986,-1.109243035,0.519174993,-0.114687003,-0.41425699,-0.309053004,-2.646222115,-0.267919987,1.654759049,-0.29410401,0.105811998,1.122326016,-0.309522986,0.755990028,-0.890419006,1.007859945,-0.574588001,0.637885988,-0.292845994,0.226026997,0.387264997,1.882418036,0.929048002,0.542078972,1.162449002,-1.872017026,-1.413663983,1.091441035,-1.642704964,-0.904111981,-0.336602002,1.171347976,1.095746994,0.008238,0.310748011,0.109971002,1.990038037,-0.406414002,1.492125034,-0.315160006,-0.328794003,0.721700013,1.179831982,2.10453701,0.184083,1.093788028,1.276450038,0.859934986,-0.973011017,-0.555149972,0.308450997,-0.202258006,1.046491981,-0.243544996,-0.261774987,-1.354987025,1.710633993,0.47033,-1.979614019,0.850373983,-1.629134059,-0.223282993,0.048213001,1.123509049,0.55014497,-1.207404017,-1.68009305,-0.798949003,-0.191441998,-0.822996974,0.589713991,-1.294996977,0.271227002,-0.116129003,1.10571301,-0.795063019,-1.502516031,-1.595191956,-1.75168395,-0.247030005,-0.741757989,0.731284022,-1.786424994,0.078800999,-0.130879998,0.450013995,-0.397471011,-0.169416994,-0.840475976,0.805900991,1.329522967,2.04856205,0.219236001,-0.665045023,-1.589064956,1.640391946,-1.360926986,-1.307665944,-0.366964996,-0.045254,-0.410928011,0.057603002,-0.789605021,-0.253497005,-0.279390007,1.314427018,-0.681729972,-1.194139957,0.851144016,-1.006507993,-1.206676006,-1.737653017,-0.695625007,0.124789,-0.296662986,0.862936974,1.387997985,0.937327981,-0.527073979,-0.836951017,2.489432096,-0.299713999,0.160574004,0.666303992,1.763946056,0.452127993,-0.570349991,-1.210247993,0.004619,1.665748954,-0.367330015,0.581487,2.156300068,-0.011954,-0.987861991,-1.763510942,-1.110206962,-0.411006987,-1.777093053,1.098907948,0.199126005,-1.235829949,-0.412124008,-0.025355,0.573206007,-2.140069962,-1.09126997,-1.849208951,-0.395507008,-2.235476971,-1.331990957,-1.000677943,-0.02035,0.944783986,1.302438974,-1.192513943,-1.323472977,-1.242650032,0.631012022,0.196343005,-0.076526001,0.304329991,-1.739297986,0.767845988,0.169719994,0.256992012,0.205943003,0.931832016,-0.114069,-1.291478992,2.009881973,0.330594987,-2.201929092,0.156902,-0.83268398,-1.661931992,-0.169328004,0.50088799,-1.015820026,-1.952340007,-1.165850997,0.109107003,-0.988855004,-0.356557995,1.196429968,-0.753785014,0.266835004,-2.199187994,0.319088012,1.904487014,1.482866049,1.352666974,0.909837008,-0.324914008,0.777821004,-0.34671399,-1.092973948,-0.219669998,0.759903014,0.534994006,-1.532392979,1.135079026,0.139535993,-0.278198004,0.480574012,-0.509603977,1.014770031,1.032714009,1.003566027,1.985195041,-1.568034053,-2.325229883,-2.030842066,-1.739097953,-1.00929296,-0.337931007,-2.007496119,0.447216004,0.422235996,0.377737999,-1.39725697,-0.744404018,0.599794984,-0.314303994,0.703734994,-0.064718001,0.221428007,-0.52758503,1.547734976,0.354959995,1.108317971,1.153048038,-0.309877992,-0.073813997,-1.170554996,2.725033998,-1.905200005,-0.001638,-1.91753602,-1.090710044,0.384110004,0.709574997,0.407072991,1.343685985,0.857595026,1.218235016,-0.328505009,-0.932776988,1.973889947,-0.439947993,0.405894011,-0.085886002,-1.472954035,1.50712204,-0.525659025,0.020419,1.233643055,0.688714981,-0.480664998,0.694619,-1.492707968,1.155372024,1.548750043,1.114820004,-0.716548026,-0.33486101,-1.772758007,-0.066858999,0.552450001,-0.524425983,0.500859976,-0.363097012,-0.957006991,0.814365983,-3.703931093,0.334468007,0.180139005,-0.876565993,-0.898379028,-0.273620009,0.031954002,1.67682302,-0.886574984,2.037487984,0.429322988,2.071547985,0.449984998,-0.775183022,-1.640717983,1.124927044,-0.974622011,-0.309648007,2.688441992,0.968505979,1.550806999,1.713184953,-0.265415013,-1.63399303,-1.382544041,2.312314987,1.011957049,-0.683335006,0.431580991,-0.835803986,-0.591934025,0.032453999,1.102478981,-0.767953992,0.145873994,1.07732296,-0.345573008,-1.010422945,1.648476005,-0.060770001,-0.434442997,-1.651466012,-0.582244992,-1.587358952,0.904236019,-0.032046001,1.124780059,0.043795001,0.390441,1.582129955,-0.253300995,0.515165985,0.379768014,-0.224381998,-0.543604016,0.565900028,0.004299,0.093781002,1.058297038,1.383602023,-1.801334977,-1.465294003,0.147322997,-0.181622997,-0.905722022,
吸收,-1.616332054,0.312963992,0.42000699,0.860943973,1.179293036,0.213925004,2.631145954,-0.647867024,0.729313016,0.686057985,-0.260217011,0.302179992,-0.359548986,-0.220550001,-0.645577013,1.478096008,1.641484976,0.611531019,-0.370862007,-0.364755988,0.206156999,1.083590984,0.812106013,-0.052265,1.271499991,1.150918961,0.459953994,1.373934031,-0.477600008,0.802661002,-0.635829985,-0.099988997,-0.093741998,0.440012991,-0.004899,-1.512369037,-0.63677299,0.032354999,-0.721765995,1.478289008,0.132126004,0.742338002,-0.457632989,-1.783522964,1.339529991,0.657837987,-0.187350005,-0.523554027,1.839342952,-0.259117007,0.633984983,0.079814002,1.12511003,0.484551996,-1.023368955,-0.150395006,-0.518137991,-1.616040945,0.575981021,0.618547976,-1.06121099,1.491487026,-1.506605029,-0.386833996,-1.812991023,-0.70569098,-2.862647057,-0.744894981,-0.548502028,0.316047013,0.410465002,-2.519459963,0.375162005,1.890668988,-0.295958012,1.768206,1.251984954,-1.004343987,1.107612014,-0.402810991,-0.82952702,1.099840999,0.054264002,0.444389999,0.657353997,-0.300926,1.980891943,1.03540802,0.344336987,-0.016404999,0.189200997,0.69186902,-0.181783006,0.041804001,0.302958995,0.277640015,-0.451936007,1.037034035,0.692831993,0.511090994,0.208856001,0.945114017,0.263188988,-0.154054001,-0.404965013,-1.44233501,-0.53974402,-1.669662952,1.266628027,-1.809756041,-1.699936032,-1.080569983,0.871252,0.409866989,0.005915,-0.484072,0.307249993,0.509941995,-0.000851,0.741747022,-1.25484705,-0.888083994,0.863605976,-0.902574003,0.427965999,0.850125015,0.198443994,-0.419330001,0.855252028,0.608592987,-0.841434002,0.025900001,-0.253508002,0.62640202,0.619190991,0.467763007,-0.907729983,0.831155002,1.473582983,1.930956006,-0.094535999,0.684720993,0.163005993,-0.041001,0.826049984,-0.657240987,-0.137747005,1.737887025,-1.451428056,-2.616338015,0.642259002,1.643730044,-0.219877005,0.786954999,0.066197,0.441168994,1.583695054,0.996092975,-0.044392999,1.905390978,-1.067474008,0.753060997,1.29992497,0.305334985,0.691999972,0.204199001,0.985921979,0.541504025,-0.382658988,1.585226059,0.562638998,-0.65435499,1.171833992,-0.859486997,-0.212119997,0.082744002,-0.340912998,1.103114963,-0.349601001,-1.231363058,-0.998430014,-0.307678998,1.123510957,0.051188,0.42801699,1.922412992,1.271649003,-1.025354981,-1.842923045,-0.352827996,-0.583781004,1.07092905,1.596315026,0.875450015,0.209378004,-1.14349103,0.964540005,0.644888997,1.353026986,-0.281574994,1.345607996,-1.665217996,0.455478013,0.019815,-1.233507037,0.34582901,0.949360013,-1.47921598,0.037593,1.13161099,-0.140694007,0.015431,2.074654102,-0.111276999,0.013877,-0.65457499,-0.867495,-1.008203983,-0.651579022,-2.11557889,0.094593003,-1.151177049,0.869471014,-0.117362,-0.396714985,-0.195781007,-0.170064002,-0.110071003,-1.756404996,-2.047919035,0.645696998,-0.316284001,-0.680599988,-1.623484015,1.980216026,-0.283107013,2.136904001,1.759441972,1.134910941,-0.526476026,-0.309080988,0.046633001,0.111241996,-0.597069979,-0.958618999,1.322540998,1.042611003,-0.796096981,0.488292992,0.158124998,0.465559989,1.506783962,1.969104052,-1.150110006,-0.717077971,1.024008989,-1.789319038,-0.160604,-0.042886999,0.843522012,-0.355426997,-0.709140003,-1.234035969,-1.419770002,-0.145138994,0.839313984,1.402277946,-1.244222999,0.026342999,-1.123152971,-1.144217014,-0.656498015,-1.000771999,1.047978997,-1.130378962,-0.516147971,-0.362684011,-1.178307056,2.155128002,1.117553949,-0.215088993,0.945492029,-1.497295976,-0.012988,-0.383699,1.146299958,-0.332123995,-1.811306,-0.060540002,0.635119021,-0.034488,-0.599168003,-0.925800025,0.016217001,1.723317981,1.453784943,-0.869395018,-0.080224998,-0.380380005,0.270458996,-0.327656001,-0.459203988,-0.861499012,1.618011951,0.145122007,0.41572699,1.492668033,-1.784034967,-0.162732005,1.308684945,-1.608047962,-0.784593999,1.410753012,-0.060871001,0.244933993,-1.017753005,0.141314998,-1.594763041,-0.140267,0.869513988,-0.020807,0.183605,0.875864983,0.574478984,-1.816380978,0.743986011,-0.239356995,-1.208196998,-0.212608993,0.182835996,0.104002997,-1.141461968,-0.599317014,0.641870975,0.382247001,-0.247936994,1.238268018,0.629881978,-1.169983029,1.417907,0.665847003,1.257884979,0.309787005,-3.793735027,2.044944048,-0.266315997,1.014266968,-0.010506,-0.711347997,-0.361425012,-0.250813007,-0.216005996,0.39103201,0.765155971,2.265872955,-3.096188068,-0.982743025,1.10581398,-0.854577005,2.222810984,2.192226887,-0.061955001,0.92343998,-0.515618026,0.933995008,-2.118741035,-0.865377009,0.94619,-0.253425002,0.137822002,-1.223214984,-0.659442008,0.587558985,2.071041107,0.924305022,-0.642763019,-1.400410056,-1.09998405,0.328658998,-0.101791002,1.177976012,0.70927,-0.002656,1.129253984,2.130290031,-0.265300006,-0.896991014,-0.769429028,-1.636409044,0.716297984,1.280853987,1.306449056,-0.249956995,-0.563516021,-0.092331,-0.144122005,0.823840022,-0.265455991,-1.036249042,-0.014236,告,-1.616332054,0.312963992,0.42000699,0.860943973,1.179293036,0.213925004,2.631145954,-0.647867024,0.729313016,0.686057985,-0.260217011,0.302179992,-0.359548986,-0.220550001,-0.645577013,1.478096008,1.641484976,0.611531019,-0.370862007,-0.364755988,0.206156999,1.083590984,0.812106013,-0.052265,1.271499991,1.150918961,0.459953994,1.373934031,-0.477600008,0.802661002,-0.635829985,-0.099988997,-0.093741998,0.440012991,-0.004899,-1.512369037,-0.63677299,0.032354999,-0.721765995,1.478289008,0.132126004,0.742338002,-0.457632989,-1.783522964,1.339529991,0.657837987,-0.187350005,-0.523554027,1.839342952,-0.259117007,0.633984983,0.079814002,1.12511003,0.484551996,-1.023368955,-0.150395006,-0.518137991,-1.616040945,0.575981021,0.618547976,-1.06121099,1.491487026,-1.506605029,-0.386833996,-1.812991023,-0.70569098,-2.862647057,-0.744894981,-0.548502028,0.316047013,0.410465002,-2.519459963,0.375162005,1.890668988,-0.295958012,1.768206,1.251984954,-1.004343987,1.107612014,-0.402810991,-0.82952702,1.099840999,0.054264002,0.444389999,0.657353997,-0.300926,1.980891943,1.03540802,0.344336987,-0.016404999,0.189200997,0.69186902,-0.181783006,0.041804001,0.302958995,0.277640015,-0.451936007,1.037034035,0.692831993,0.511090994,0.208856001,0.945114017,0.263188988,-0.154054001,-0.404965013,-1.44233501,-0.53974402,-1.669662952,1.266628027,-1.809756041,-1.699936032,-1.080569983,0.871252,0.409866989,0.005915,-0.484072,0.307249993,0.509941995,-0.000851,0.741747022,-1.25484705,-0.888083994,0.863605976,-0.902574003,0.427965999,0.850125015,0.198443994,-0.419330001,0.855252028,0.608592987,-0.841434002,0.025900001,-0.253508002,0.62640202,0.619190991,0.467763007,-0.907729983,0.831155002,1.473582983,1.930956006,-0.094535999,0.684720993,0.163005993,-0.041001,0.826049984,-0.657240987,-0.137747005,1.737887025,-1.451428056,-2.616338015,0.642259002,1.643730044,-0.219877005,0.786954999,0.066197,0.441168994,1.583695054,0.996092975,-0.044392999,1.905390978,-1.067474008,0.753060997,1.29992497,0.305334985,0.691999972,0.204199001,0.985921979,0.541504025,-0.382658988,1.585226059,0.562638998,-0.65435499,1.171833992,-0.859486997,-0.212119997,0.082744002,-0.340912998,1.103114963,-0.349601001,-1.231363058,-0.998430014,-0.307678998,1.123510957,0.051188,0.42801699,1.922412992,1.271649003,-1.025354981,-1.842923045,-0.352827996,-0.583781004,1.07092905,1.596315026,0.875450015,0.209378004,-1.14349103,0.964540005,0.644888997,1.353026986,-0.281574994,1.345607996,-1.665217996,0.455478013,0.019815,-1.233507037,0.34582901,0.949360013,-1.47921598,0.037593,1.13161099,-0.140694007,0.015431,2.074654102,-0.111276999,0.013877,-0.65457499,-0.867495,-1.008203983,-0.651579022,-2.11557889,0.094593003,-1.151177049,0.869471014,-0.117362,-0.396714985,-0.195781007,-0.170064002,-0.110071003,-1.756404996,-2.047919035,0.645696998,-0.316284001,-0.680599988,-1.623484015,1.980216026,-0.283107013,2.136904001,1.759441972,1.134910941,-0.526476026,-0.309080988,0.046633001,0.111241996,-0.597069979,-0.958618999,1.322540998,1.042611003,-0.796096981,0.488292992,0.158124998,0.465559989,1.506783962,1.969104052,-1.150110006,-0.717077971,1.024008989,-1.789319038,-0.160604,-0.042886999,0.843522012,-0.355426997,-0.709140003,-1.234035969,-1.419770002,-0.145138994,0.839313984,1.402277946,-1.244222999,0.026342999,-1.123152971,-1.144217014,-0.656498015,-1.000771999,1.047978997,-1.130378962,-0.516147971,-0.362684011,-1.178307056,2.155128002,1.117553949,-0.215088993,0.945492029,-1.497295976,-0.012988,-0.383699,1.146299958,-0.332123995,-1.811306,-0.060540002,0.635119021,-0.034488,-0.599168003,-0.925800025,0.016217001,1.723317981,1.453784943,-0.869395018,-0.080224998,-0.380380005,0.270458996,-0.327656001,-0.459203988,-0.861499012,1.618011951,0.145122007,0.41572699,1.492668033,-1.784034967,-0.162732005,1.308684945,-1.608047962,-0.784593999,1.410753012,-0.060871001,0.244933993,-1.017753005,0.141314998,-1.594763041,-0.140267,0.869513988,-0.020807,0.183605,0.875864983,0.574478984,-1.816380978,0.743986011,-0.239356995,-1.208196998,-0.212608993,0.182835996,0.104002997,-1.141461968,-0.599317014,0.641870975,0.382247001,-0.247936994,1.238268018,0.629881978,-1.169983029,1.417907,0.665847003,1.257884979,0.309787005,-3.793735027,2.044944048,-0.266315997,1.014266968,-0.010506,-0.711347997,-0.361425012,-0.250813007,-0.216005996,0.39103201,0.765155971,2.265872955,-3.096188068,-0.982743025,1.10581398,-0.854577005,2.222810984,2.192226887,-0.061955001,0.92343998,-0.515618026,0.933995008,-2.118741035,-0.865377009,0.94619,-0.253425002,0.137822002,-1.223214984,-0.659442008,0.587558985,2.071041107,0.924305022,-0.642763019,-1.400410056,-1.09998405,0.328658998,-0.101791002,1.177976012,0.70927,-0.002656,1.129253984,2.130290031,-0.265300006,-0.896991014,-0.769429028,-1.636409044,0.716297984,1.280853987,1.306449056,-0.249956995,-0.563516021,-0.092331,-0.144122005,0.823840022,-0.265455991,-1.036249042,-0.014236
交叉,-1.104925036,0.394454986,-0.972922027,-0.726235986,-0.756356001,0.846300006,0.35414201,-1.006183028,0.484834999,-0.248126,0.367612004,-0.214449003,-1.027500987,-0.763954997,-0.53855598,-0.356211007,0.033847999,-0.843630016,0.499006987,0.041138999,-0.303413004,0.685899973,0.385271996,1.651059985,1.216516018,0.98052901,1.133175015,-1.061440945,-0.235324994,0.897249997,-0.449640006,-0.138418004,0.075545996,-1.049095988,1.212558985,0.327670991,-0.323235005,-1.921841025,0.688171983,0.925897002,1.313621998,-0.508485973,-0.952121019,0.80844301,0.412874997,-0.814136028,0.853896022,-1.399773002,0.922110975,1.348304987,0.297820002,-0.733727992,0.403605998,1.755179048,-1.672379017,0.055840999,0.95736599,-1.718920946,0.020074001,-0.641970992,-0.623798013,-0.252047986,1.235116959,-1.385382056,-0.105065003,1.369801998,-1.624842048,0.102342002,0.318924993,0.295868009,-1.702597022,-0.731058002,-1.266922951,1.345507979,0.788605988,0.662980974,0.800996006,-0.905494988,1.331864953,-0.602171004,0.501128972,-1.099609017,-0.184518993,0.426474005,0.069348998,-0.332830995,-0.137014002,0.393817008,0.27323699,-0.274504989,0.508044004,-0.372839987,-0.42691201,1.167359948,0.269154996,-0.747062027,0.148123994,0.420134008,-1.460278988,-0.487917989,-0.367145985,-0.008097,0.288037986,1.257864952,-0.014053,-0.570542991,1.11302495,-0.728597999,-0.550499022,-0.651917994,-0.341782987,-0.63470602,1.688537955,0.342545003,0.798528016,0.903144002,1.152500033,-0.947605014,-0.550814986,0.413856,0.36076799,-0.964896977,1.32437396,-0.110247001,-0.249543995,1.351827979,-1.146054029,-0.589164972,0.447696,0.158122003,0.414992988,-0.823913991,-0.333512992,-0.875667989,0.079094999,1.061203003,0.345375001,0.346116006,0.190248996,-0.055325001,-0.57575202,-0.109316997,0.302325994,1.087108016,-0.161572993,-1.049787998,0.177876994,1.23348403,-0.840395987,-0.075603001,0.432224005,-0.121873997,0.290226012,0.223082006,1.706894994,-0.237280995,0.216176003,-2.141321898,-1.541056991,0.819150984,1.506389976,-0.81784898,1.440541029,-0.990474999,1.05213201,-0.872191012,0.387970001,-1.151031971,-1.016476035,-0.046480998,0.88665098,-0.370525002,-0.146429002,-0.532059014,-0.130962998,0.936739981,0.674014986,-0.013393,-0.501581013,1.530298948,1.262917995,0.243365005,0.278306991,-0.641617,-0.746674001,0.624817014,1.063658953,-0.259014994,0.423451006,-0.919441998,1.063567042,1.634420991,1.227938056,0.73634398,0.247465998,1.097882986,1.170493007,0.185908005,0.897925019,0.809998989,-0.381307006,-0.325601012,-1.097023964,-0.467512995,-1.051252961,-0.210695997,1.764794946,0.211067006,-0.151261002,0.612468004,1.134696007,-0.400642991,1.002714038,0.064019002,0.545143008,-0.164765,0.059679002,-1.593340993,-0.534254014,-0.890466988,-0.079567,-0.936102986,0.113838002,0.217905,-0.593029022,-1.064038038,-0.407189995,-0.865077972,0.474330992,-0.925652027,-0.331735998,0.594798982,0.460613996,0.261732012,-0.329371989,0.511884987,-1.251145959,-0.200088993,-0.45816201,0.092791997,-1.473129034,0.849721015,-1.298710942,0.95560199,-0.067041002,-0.041111998,0.02957,0.381754994,0.351473987,0.854301989,-1.239653945,0.045384999,-0.904820979,0.432769001,-0.655916989,0.650377989,0.694245994,-0.524065971,-0.52592802,0.550584018,-1.114889026,0.254065007,-0.660016,-0.479097009,-0.647989988,0.48664099,-0.104841001,0.091585003,0.579468012,-0.782208979,0.26056999,-0.200110003,-0.161623999,1.708722949,-0.127553999,-0.500564992,-0.429167002,-0.592894971,0.513059974,-0.006535,0.875509024,0.235193998,0.200556993,-0.38705799,-0.375717014,-1.270205021,-0.074729003,-0.094246998,-1.091402054,0.204687998,0.367940009,0.960726976,0.532181978,-0.87263602,1.26709497,0.062596999,1.617246032,0.528734982,0.912344992,0.539794028,0.364551991,0.779497981,-1.477974057,-0.084293,-0.672428012,1.331091046,-0.86647898,-1.413341999,-0.583487988,-0.411347985,-1.146846056,0.186094001,0.125891998,-1.044414997,0.055365,-0.754845977,-0.199597001,-0.037802,-0.179175004,0.656960011,-0.706318021,-2.422518015,-2.024576902,0.282507986,-0.935550988,0.477548003,-0.182303995,-0.893737018,0.546683013,0.314658999,-0.458781004,0.626259983,0.358516008,-0.899085999,-1.38874805,-0.677455008,-0.830035985,1.582455039,0.535247982,0.885384023,0.403703988,0.073322996,0.248449996,-0.465451986,0.170845002,-2.23922801,-0.712556005,1.922229052,0.004936,0.875450015,1.441040993,0.509763002,0.600814998,-0.750163019,-0.30556199,-0.091769002,-0.076650001,0.906000972,-0.603501976,0.995702982,-0.383442014,-1.381772041,0.552268982,0.352030993,0.259977013,-0.109916002,0.520372987,0.26949501,-0.626204014,-1.883170009,0.279372007,0.491192013,-1.342910051,-0.016878,-0.357598007,-0.422217011,-2.119544983,-0.327075005,0.368104994,0.229497001,-0.54371798,0.33713901,1.284361959,0.477165997,-0.309478015,-2.140237093,-0.079600997,-1.773900986,-1.886752009,-0.680729985,-0.035510998,0.68185401,1.288118005,-0.518844008,-0.344413012,0.270613015,-0.369760007,-1.460657954,0.65180999,0.590072989,浜ゅ,-1.104925036,0.394454986,-0.972922027,-0.726235986,-0.756356001,0.846300006,0.35414201,-1.006183028,0.484834999,-0.248126,0.367612004,-0.214449003,-1.027500987,-0.763954997,-0.53855598,-0.356211007,0.033847999,-0.843630016,0.499006987,0.041138999,-0.303413004,0.685899973,0.385271996,1.651059985,1.216516018,0.98052901,1.133175015,-1.061440945,-0.235324994,0.897249997,-0.449640006,-0.138418004,0.075545996,-1.049095988,1.212558985,0.327670991,-0.323235005,-1.921841025,0.688171983,0.925897002,1.313621998,-0.508485973,-0.952121019,0.80844301,0.412874997,-0.814136028,0.853896022,-1.399773002,0.922110975,1.348304987,0.297820002,-0.733727992,0.403605998,1.755179048,-1.672379017,0.055840999,0.95736599,-1.718920946,0.020074001,-0.641970992,-0.623798013,-0.252047986,1.235116959,-1.385382056,-0.105065003,1.369801998,-1.624842048,0.102342002,0.318924993,0.295868009,-1.702597022,-0.731058002,-1.266922951,1.345507979,0.788605988,0.662980974,0.800996006,-0.905494988,1.331864953,-0.602171004,0.501128972,-1.099609017,-0.184518993,0.426474005,0.069348998,-0.332830995,-0.137014002,0.393817008,0.27323699,-0.274504989,0.508044004,-0.372839987,-0.42691201,1.167359948,0.269154996,-0.747062027,0.148123994,0.420134008,-1.460278988,-0.487917989,-0.367145985,-0.008097,0.288037986,1.257864952,-0.014053,-0.570542991,1.11302495,-0.728597999,-0.550499022,-0.651917994,-0.341782987,-0.63470602,1.688537955,0.342545003,0.798528016,0.903144002,1.152500033,-0.947605014,-0.550814986,0.413856,0.36076799,-0.964896977,1.32437396,-0.110247001,-0.249543995,1.351827979,-1.146054029,-0.589164972,0.447696,0.158122003,0.414992988,-0.823913991,-0.333512992,-0.875667989,0.079094999,1.061203003,0.345375001,0.346116006,0.190248996,-0.055325001,-0.57575202,-0.109316997,0.302325994,1.087108016,-0.161572993,-1.049787998,0.177876994,1.23348403,-0.840395987,-0.075603001,0.432224005,-0.121873997,0.290226012,0.223082006,1.706894994,-0.237280995,0.216176003,-2.141321898,-1.541056991,0.819150984,1.506389976,-0.81784898,1.440541029,-0.990474999,1.05213201,-0.872191012,0.387970001,-1.151031971,-1.016476035,-0.046480998,0.88665098,-0.370525002,-0.146429002,-0.532059014,-0.130962998,0.936739981,0.674014986,-0.013393,-0.501581013,1.530298948,1.262917995,0.243365005,0.278306991,-0.641617,-0.746674001,0.624817014,1.063658953,-0.259014994,0.423451006,-0.919441998,1.063567042,1.634420991,1.227938056,0.73634398,0.247465998,1.097882986,1.170493007,0.185908005,0.897925019,0.809998989,-0.381307006,-0.325601012,-1.097023964,-0.467512995,-1.051252961,-0.210695997,1.764794946,0.211067006,-0.151261002,0.612468004,1.134696007,-0.400642991,1.002714038,0.064019002,0.545143008,-0.164765,0.059679002,-1.593340993,-0.534254014,-0.890466988,-0.079567,-0.936102986,0.113838002,0.217905,-0.593029022,-1.064038038,-0.407189995,-0.865077972,0.474330992,-0.925652027,-0.331735998,0.594798982,0.460613996,0.261732012,-0.329371989,0.511884987,-1.251145959,-0.200088993,-0.45816201,0.092791997,-1.473129034,0.849721015,-1.298710942,0.95560199,-0.067041002,-0.041111998,0.02957,0.381754994,0.351473987,0.854301989,-1.239653945,0.045384999,-0.904820979,0.432769001,-0.655916989,0.650377989,0.694245994,-0.524065971,-0.52592802,0.550584018,-1.114889026,0.254065007,-0.660016,-0.479097009,-0.647989988,0.48664099,-0.104841001,0.091585003,0.579468012,-0.782208979,0.26056999,-0.200110003,-0.161623999,1.708722949,-0.127553999,-0.500564992,-0.429167002,-0.592894971,0.513059974,-0.006535,0.875509024,0.235193998,0.200556993,-0.38705799,-0.375717014,-1.270205021,-0.074729003,-0.094246998,-1.091402054,0.204687998,0.367940009,0.960726976,0.532181978,-0.87263602,1.26709497,0.062596999,1.617246032,0.528734982,0.912344992,0.539794028,0.364551991,0.779497981,-1.477974057,-0.084293,-0.672428012,1.331091046,-0.86647898,-1.413341999,-0.583487988,-0.411347985,-1.146846056,0.186094001,0.125891998,-1.044414997,0.055365,-0.754845977,-0.199597001,-0.037802,-0.179175004,0.656960011,-0.706318021,-2.422518015,-2.024576902,0.282507986,-0.935550988,0.477548003,-0.182303995,-0.893737018,0.546683013,0.314658999,-0.458781004,0.626259983,0.358516008,-0.899085999,-1.38874805,-0.677455008,-0.830035985,1.582455039,0.535247982,0.885384023,0.403703988,0.073322996,0.248449996,-0.465451986,0.170845002,-2.23922801,-0.712556005,1.922229052,0.004936,0.875450015,1.441040993,0.509763002,0.600814998,-0.750163019,-0.30556199,-0.091769002,-0.076650001,0.906000972,-0.603501976,0.995702982,-0.383442014,-1.381772041,0.552268982,0.352030993,0.259977013,-0.109916002,0.520372987,0.26949501,-0.626204014,-1.883170009,0.279372007,0.491192013,-1.342910051,-0.016878,-0.357598007,-0.422217011,-2.119544983,-0.327075005,0.368104994,0.229497001,-0.54371798,0.33713901,1.284361959,0.477165997,-0.309478015,-2.140237093,-0.079600997,-1.773900986,-1.886752009,-0.680729985,-0.035510998,0.68185401,1.288118005,-0.518844008,-0.344413012,0.270613015,-0.369760007,-1.460657954,0.65180999,0.590072989
具有,-0.068181001,1.404706001,2.580152988,-0.417515993,1.009624004,-1.168177009,1.306087017,0.617208004,-0.418976009,0.680073977,0.032067001,-0.412878007,-0.458056003,-1.797669053,-0.482612014,-0.850849986,-2.08274889,-1.794381976,-0.077083997,-1.89013195,-0.183202997,1.710371017,-0.51523,1.497156024,1.355115056,1.700451016,0.843391001,0.205026001,-0.423913002,0.064859003,-1.093621016,0.033753999,-0.537654996,1.055663943,0.016620999,0.80635798,-0.569635987,-1.494699001,-1.226475954,1.73556304,0.055863999,0.265271008,0.105435997,-2.353790045,-0.376747996,-0.365561992,1.255486012,-2.271579981,1.02639401,0.006924,2.407118082,2.470787048,0.168236002,0.261465997,-0.577809989,-0.711461008,1.208655953,-1.497503996,-1.417256951,0.847477019,-0.984902024,-1.347740054,-0.193630993,-0.443363011,-2.121325016,-1.611611962,-0.036683999,0.077055998,-1.238834977,0.37094301,0.356952012,0.782513022,0.139865994,1.467123985,-0.82842201,-1.271275997,1.791893005,0.040472001,-0.571823001,-1.202847958,0.168824002,0.45747,1.387511969,0.67535001,0.668947995,-0.020854,-0.198296994,-1.332386017,-0.342359006,0.202732995,0.675924003,-0.059631001,0.79281801,0.174928993,-1.061696053,0.602424979,2.692667961,-0.856046021,-0.832304001,-0.920239985,0.240029007,0.790196002,0.500250995,1.209828019,-0.877777994,-1.549532056,0.789002001,-0.027062001,-0.210247993,-1.728011966,0.124601997,-0.01024,-1.987946033,0.560718,-0.582768977,0.270738006,1.570742965,-2.07348609,-0.341502994,-0.572614014,0.466809005,-2.113531113,0.257672012,-1.077363968,-1.490241051,0.523836017,-3.890933037,0.032237001,0.614049017,1.946238995,0.432294995,1.025249958,-1.230263948,0.811007977,0.511888027,-0.65307498,0.123153999,0.644003987,0.620209992,0.664552987,-0.869156003,-1.142055988,-0.596728981,-1.534482002,0.863996029,-2.005791903,0.358027995,1.056280971,-0.402871996,-1.205469966,2.730568886,0.258213013,-0.436003,1.542793036,1.132825017,0.675576985,0.615074992,0.133136004,-0.850395024,1.107131004,-0.080714002,-1.68908596,1.189169049,0.004583,1.180817008,-0.973964989,-0.456936985,-1.34860599,-0.751230001,-0.329811007,-0.933367014,-0.638098001,-0.068980001,0.017749,0.480975002,0.825405002,1.907968044,2.586818933,1.568701983,2.383481026,-2.550868034,-0.167386994,0.528226018,-0.517509997,-0.928963006,-0.050795,0.072679996,0.476684004,-1.011901975,0.669575989,2.042244911,-0.568099022,1.696285963,0.644079983,-1.327219009,-0.755998015,0.02392,1.02561295,-0.916594982,1.426280975,-0.114302002,-1.091856003,-0.076949999,0.156933993,-2.759567976,0.323094994,-1.165825009,0.308063,0.931065023,1.644845963,-1.018182993,-0.313383996,0.829441011,-1.021090031,1.409232974,0.010759,-0.743929982,1.581359029,-0.006871,0.496219993,0.294970989,-0.580114007,1.247308016,0.164823994,-2.832420111,-2.682483912,-0.340783,0.111527003,-1.226330042,-0.721207023,-1.720585942,-0.587580025,0.447302997,-3.028661013,2.188096046,-1.445680976,0.390179992,0.929045975,1.129760027,0.066229999,-0.653360009,-0.080104001,1.081411004,2.456562996,0.070404001,0.708298028,-2.026722908,-0.617736995,-0.941561997,-2.543023109,1.705993056,0.749988019,0.789391994,-2.201867104,-0.992626011,-0.356705993,-1.198871017,-0.155992001,0.778155982,0.136042997,1.023543,0.391003996,0.450367004,0.455379993,-0.006854,-1.351551056,-1.852311015,1.543627024,-1.023502946,-1.024407029,-1.304425001,0.203139007,-1.239084005,-0.316504002,-0.590174019,1.331238985,-1.304810047,-0.494785011,-2.10413003,0.325338989,-0.327114999,0.678718984,1.292690992,-0.81853199,-0.577229023,-0.975718975,-0.473823011,-1.841048956,-0.951117992,2.53559804,0.138503999,0.353875011,0.318973005,-0.825444996,1.611428976,-0.528271019,0.152013004,-0.402534008,0.107335001,-2.355401039,-1.740053058,1.458389997,0.552447975,-0.745907009,-0.173974007,-0.787413001,0.289137989,1.448809981,1.35511899,0.996173024,0.924515009,-1.225448966,2.004976034,-0.649912,-1.659610987,1.289147019,0.331835002,-0.151595995,-0.958675027,-0.141911998,-0.348701,-1.57021594,-0.838141978,0.846167982,-0.327657998,0.649896026,-2.568819046,-0.188077003,-1.769968033,-2.266896009,1.336449027,-1.195896983,-1.274850011,-1.551498055,1.997308016,-1.573014975,0.634287,-0.307164013,-0.543878973,0.467918009,0.025736,1.508481026,-0.249283999,-2.27223897,1.706568956,1.082195044,-0.675953984,2.139022112,-1.671717048,0.783581972,-0.240817994,-0.77363801,2.446320057,2.2970891,0.571361005,-0.126895994,0.937871993,-0.770433009,-1.281280041,1.867980957,1.482655048,0.645736992,-2.699743032,-0.188534006,2.707067013,-0.138572007,-2.079600096,-0.427298993,-0.662240028,-0.139651001,-0.285362989,-2.027159929,1.393635035,1.65049696,-0.065879002,-1.30796802,-1.708101034,-0.022564,0.366820008,0.160209998,-0.216188997,-0.970288992,-1.240331054,0.759651005,1.819049954,-1.639435053,-0.373369992,-1.525228024,-2.562990904,1.270701051,2.015815973,1.514170051,0.541059971,-0.962484002,0.908342004,-0.727864027,1.954905987,-0.627606988,-0.308317006,-0.275135994,锋,-0.068181001,1.404706001,2.580152988,-0.417515993,1.009624004,-1.168177009,1.306087017,0.617208004,-0.418976009,0.680073977,0.032067001,-0.412878007,-0.458056003,-1.797669053,-0.482612014,-0.850849986,-2.08274889,-1.794381976,-0.077083997,-1.89013195,-0.183202997,1.710371017,-0.51523,1.497156024,1.355115056,1.700451016,0.843391001,0.205026001,-0.423913002,0.064859003,-1.093621016,0.033753999,-0.537654996,1.055663943,0.016620999,0.80635798,-0.569635987,-1.494699001,-1.226475954,1.73556304,0.055863999,0.265271008,0.105435997,-2.353790045,-0.376747996,-0.365561992,1.255486012,-2.271579981,1.02639401,0.006924,2.407118082,2.470787048,0.168236002,0.261465997,-0.577809989,-0.711461008,1.208655953,-1.497503996,-1.417256951,0.847477019,-0.984902024,-1.347740054,-0.193630993,-0.443363011,-2.121325016,-1.611611962,-0.036683999,0.077055998,-1.238834977,0.37094301,0.356952012,0.782513022,0.139865994,1.467123985,-0.82842201,-1.271275997,1.791893005,0.040472001,-0.571823001,-1.202847958,0.168824002,0.45747,1.387511969,0.67535001,0.668947995,-0.020854,-0.198296994,-1.332386017,-0.342359006,0.202732995,0.675924003,-0.059631001,0.79281801,0.174928993,-1.061696053,0.602424979,2.692667961,-0.856046021,-0.832304001,-0.920239985,0.240029007,0.790196002,0.500250995,1.209828019,-0.877777994,-1.549532056,0.789002001,-0.027062001,-0.210247993,-1.728011966,0.124601997,-0.01024,-1.987946033,0.560718,-0.582768977,0.270738006,1.570742965,-2.07348609,-0.341502994,-0.572614014,0.466809005,-2.113531113,0.257672012,-1.077363968,-1.490241051,0.523836017,-3.890933037,0.032237001,0.614049017,1.946238995,0.432294995,1.025249958,-1.230263948,0.811007977,0.511888027,-0.65307498,0.123153999,0.644003987,0.620209992,0.664552987,-0.869156003,-1.142055988,-0.596728981,-1.534482002,0.863996029,-2.005791903,0.358027995,1.056280971,-0.402871996,-1.205469966,2.730568886,0.258213013,-0.436003,1.542793036,1.132825017,0.675576985,0.615074992,0.133136004,-0.850395024,1.107131004,-0.080714002,-1.68908596,1.189169049,0.004583,1.180817008,-0.973964989,-0.456936985,-1.34860599,-0.751230001,-0.329811007,-0.933367014,-0.638098001,-0.068980001,0.017749,0.480975002,0.825405002,1.907968044,2.586818933,1.568701983,2.383481026,-2.550868034,-0.167386994,0.528226018,-0.517509997,-0.928963006,-0.050795,0.072679996,0.476684004,-1.011901975,0.669575989,2.042244911,-0.568099022,1.696285963,0.644079983,-1.327219009,-0.755998015,0.02392,1.02561295,-0.916594982,1.426280975,-0.114302002,-1.091856003,-0.076949999,0.156933993,-2.759567976,0.323094994,-1.165825009,0.308063,0.931065023,1.644845963,-1.018182993,-0.313383996,0.829441011,-1.021090031,1.409232974,0.010759,-0.743929982,1.581359029,-0.006871,0.496219993,0.294970989,-0.580114007,1.247308016,0.164823994,-2.832420111,-2.682483912,-0.340783,0.111527003,-1.226330042,-0.721207023,-1.720585942,-0.587580025,0.447302997,-3.028661013,2.188096046,-1.445680976,0.390179992,0.929045975,1.129760027,0.066229999,-0.653360009,-0.080104001,1.081411004,2.456562996,0.070404001,0.708298028,-2.026722908,-0.617736995,-0.941561997,-2.543023109,1.705993056,0.749988019,0.789391994,-2.201867104,-0.992626011,-0.356705993,-1.198871017,-0.155992001,0.778155982,0.136042997,1.023543,0.391003996,0.450367004,0.455379993,-0.006854,-1.351551056,-1.852311015,1.543627024,-1.023502946,-1.024407029,-1.304425001,0.203139007,-1.239084005,-0.316504002,-0.590174019,1.331238985,-1.304810047,-0.494785011,-2.10413003,0.325338989,-0.327114999,0.678718984,1.292690992,-0.81853199,-0.577229023,-0.975718975,-0.473823011,-1.841048956,-0.951117992,2.53559804,0.138503999,0.353875011,0.318973005,-0.825444996,1.611428976,-0.528271019,0.152013004,-0.402534008,0.107335001,-2.355401039,-1.740053058,1.458389997,0.552447975,-0.745907009,-0.173974007,-0.787413001,0.289137989,1.448809981,1.35511899,0.996173024,0.924515009,-1.225448966,2.004976034,-0.649912,-1.659610987,1.289147019,0.331835002,-0.151595995,-0.958675027,-0.141911998,-0.348701,-1.57021594,-0.838141978,0.846167982,-0.327657998,0.649896026,-2.568819046,-0.188077003,-1.769968033,-2.266896009,1.336449027,-1.195896983,-1.274850011,-1.551498055,1.997308016,-1.573014975,0.634287,-0.307164013,-0.543878973,0.467918009,0.025736,1.508481026,-0.249283999,-2.27223897,1.706568956,1.082195044,-0.675953984,2.139022112,-1.671717048,0.783581972,-0.240817994,-0.77363801,2.446320057,2.2970891,0.571361005,-0.126895994,0.937871993,-0.770433009,-1.281280041,1.867980957,1.482655048,0.645736992,-2.699743032,-0.188534006,2.707067013,-0.138572007,-2.079600096,-0.427298993,-0.662240028,-0.139651001,-0.285362989,-2.027159929,1.393635035,1.65049696,-0.065879002,-1.30796802,-1.708101034,-0.022564,0.366820008,0.160209998,-0.216188997,-0.970288992,-1.240331054,0.759651005,1.819049954,-1.639435053,-0.373369992,-1.525228024,-2.562990904,1.270701051,2.015815973,1.514170051,0.541059971,-0.962484002,0.908342004,-0.727864027,1.954905987,-0.627606988,-0.308317006,-0.275135994
