word,0,1,2,3,4,5,6,7,8,9,10,11,12,13,14,15,16,17,18,19,20,21,22,23,24,25,26,27,28,29,30,31,32,33,34,35,36,37,38,39,40,41,42,43,44,45,46,47,48,49,50,51,52,53,54,55,56,57,58,59,60,61,62,63,64,65,66,67,68,69,70,71,72,73,74,75,76,77,78,79,80,81,82,83,84,85,86,87,88,89,90,91,92,93,94,95,96,97,98,99,100,101,102,103,104,105,106,107,108,109,110,111,112,113,114,115,116,117,118,119,120,121,122,123,124,125,126,127,128,129,130,131,132,133,134,135,136,137,138,139,140,141,142,143,144,145,146,147,148,149,150,151,152,153,154,155,156,157,158,159,160,161,162,163,164,165,166,167,168,169,170,171,172,173,174,175,176,177,178,179,180,181,182,183,184,185,186,187,188,189,190,191,192,193,194,195,196,197,198,199,200,201,202,203,204,205,206,207,208,209,210,211,212,213,214,215,216,217,218,219,220,221,222,223,224,225,226,227,228,229,230,231,232,233,234,235,236,237,238,239,240,241,242,243,244,245,246,247,248,249,250,251,252,253,254,255,256,257,258,259,260,261,262,263,264,265,266,267,268,269,270,271,272,273,274,275,276,277,278,279,280,281,282,283,284,285,286,287,288,289,290,291,292,293,294,295,296,297,298,299,300,301,302,303,304,305,306,307,308,309,310,311,312,313,314,315,316,317,318,319,320,321,322,323,324,325,326,327,328,329,330,331,332,333,334,335,336,337,338,339,340,341,342,343,344,345,346,347,348,349,350,351,352,353,354,355,356,357,358,359,360,361,362,363,364,365,366,367,368,369,370,371,372,373,374,375,376,377,378,379,380,381,382,383,384,385,386,387,388,389,390,391,392,393,394,395,396,397,398,399,word,0,1,2,3,4,5,6,7,8,9,10,11,12,13,14,15,16,17,18,19,20,21,22,23,24,25,26,27,28,29,30,31,32,33,34,35,36,37,38,39,40,41,42,43,44,45,46,47,48,49,50,51,52,53,54,55,56,57,58,59,60,61,62,63,64,65,66,67,68,69,70,71,72,73,74,75,76,77,78,79,80,81,82,83,84,85,86,87,88,89,90,91,92,93,94,95,96,97,98,99,100,101,102,103,104,105,106,107,108,109,110,111,112,113,114,115,116,117,118,119,120,121,122,123,124,125,126,127,128,129,130,131,132,133,134,135,136,137,138,139,140,141,142,143,144,145,146,147,148,149,150,151,152,153,154,155,156,157,158,159,160,161,162,163,164,165,166,167,168,169,170,171,172,173,174,175,176,177,178,179,180,181,182,183,184,185,186,187,188,189,190,191,192,193,194,195,196,197,198,199,200,201,202,203,204,205,206,207,208,209,210,211,212,213,214,215,216,217,218,219,220,221,222,223,224,225,226,227,228,229,230,231,232,233,234,235,236,237,238,239,240,241,242,243,244,245,246,247,248,249,250,251,252,253,254,255,256,257,258,259,260,261,262,263,264,265,266,267,268,269,270,271,272,273,274,275,276,277,278,279,280,281,282,283,284,285,286,287,288,289,290,291,292,293,294,295,296,297,298,299,300,301,302,303,304,305,306,307,308,309,310,311,312,313,314,315,316,317,318,319,320,321,322,323,324,325,326,327,328,329,330,331,332,333,334,335,336,337,338,339,340,341,342,343,344,345,346,347,348,349,350,351,352,353,354,355,356,357,358,359,360,361,362,363,364,365,366,367,368,369,370,371,372,373,374,375,376,377,378,379,380,381,382,383,384,385,386,387,388,389,390,391,392,393,394,395,396,397,398,399
分析,0.553550005,-0.408333004,-1.070376039,0.427219003,2.052975893,0.481065989,2.045454979,-0.628785014,-1.419049978,0.210022002,-1.870496988,0.916163981,0.521700978,-1.12656796,-0.160384998,-0.888229012,-0.146620005,-1.620192051,-1.899724007,-0.165224001,0.959622979,0.032667,-0.90871799,-0.915476978,-0.263042003,0.771363974,1.570963025,1.197682977,-0.20025,-0.153178006,0.869781971,0.47180599,-1.239691973,-2.677813053,0.565109015,-0.652733982,1.032176018,-0.092000999,0.140499994,1.393354058,3.039714098,0.322156012,0.227937996,0.666266978,0.080642,0.722841978,1.23111403,-0.249071002,0.490740001,-1.368981004,0.737662017,0.053808998,2.422533035,0.824459016,-0.462080002,-0.870840013,-0.820555985,0.222671002,-0.097296998,-0.900574982,-1.284626961,1.099848986,0.630382001,-0.224096,0.407402009,-1.378196001,-2.799598932,-0.830226004,-0.65022701,-1.52214098,0.767077029,-0.111947998,0.774411023,0.042330001,0.55240202,-0.207365006,0.957527995,-0.272114992,-0.198707998,0.126412004,-1.449918032,-1.632506967,0.434810013,-0.984229028,0.211848006,0.569617987,0.097921997,-2.484997988,-0.674709022,-0.590206027,0.118285,-2.054382086,-0.458995014,-0.498614997,0.893669009,-1.154204011,-0.432880998,0.720058978,-1.100188971,0.644164026,0.682484984,0.230619997,0.814767003,2.176225901,0.574397981,-0.867497027,-0.306511998,0.046383999,-0.303140014,-0.893589973,-0.979911983,-1.069967985,-0.553458989,-0.091293998,0.429569989,1.102830052,1.871590972,-0.534189999,-0.452845991,-1.064100027,-0.321655989,-0.123194002,0.913299978,-1.753720045,-1.473086953,1.847993016,-1.912665963,0.086101003,-0.640743017,0.61658901,2.012739897,-0.513606012,-0.994603992,0.67058903,0.793218017,0.573992014,1.921092033,-0.273407012,1.120363951,0.581075013,1.241703033,0.021931,-0.79567802,-1.183555007,-0.895949006,0.382171988,-0.784482002,0.547114015,-0.921636999,-1.731598973,0.454079002,1.407119036,0.738112986,1.168329954,0.315448999,1.883802056,0.295969009,0.850605011,-0.891674995,0.595812023,0.595830023,-0.800575972,0.475012988,-2.045969963,0.543659985,0.931297004,-0.163316995,-0.160091996,-0.335267991,0.535327017,0.841425002,0.56683898,0.168989003,-0.872757018,1.148887992,0.380290985,1.379747987,2.599090099,-1.694790006,0.329263985,-0.808129013,0.161700994,1.115934014,0.069623001,0.201468006,1.465538979,0.861081004,0.021740001,-0.694235027,1.893818974,0.31656599,-1.281610966,1.361976027,2.104052067,-1.20983398,-0.137870997,0.007568,0.27856499,0.517123997,0.469992012,0.213935003,0.826265991,-2.460211039,0.522243023,0.063130997,0.666898012,0.286440015,0.88615799,-0.803272009,1.436153054,-1.688508987,1.494447947,2.138983965,-0.680404007,1.457332015,0.105397001,0.018379999,-0.410984993,0.25651899,0.472535014,0.521901011,1.406726003,0.536819994,-0.223296002,0.537874997,-1.279732943,-1.234369993,0.260228008,0.704380989,-1.120113015,-1.085497022,-0.271084994,0.603807986,-2.031491995,1.437008977,-0.540565014,0.267444998,-0.598963022,0.640197992,-1.471896052,0.142629996,1.818976045,-0.136568993,1.069002986,-0.469469994,-1.659016013,0.227816001,-0.153077006,0.520088971,-0.408407003,0.585430026,-1.54300499,0.080651999,-1.851044059,-0.704232991,0.113789998,-0.241248995,-0.95580101,0.846908987,1.872135997,0.521791995,-1.094378948,-0.356321007,0.116851002,-1.052991986,0.549670994,-1.252132058,1.012545943,0.267239004,-0.328009993,-0.845073998,0.607590973,-0.733439028,1.62450695,0.725749016,1.999374032,-0.123359002,-1.197729945,0.855057001,0.402480006,-0.768764019,-0.659654975,-1.640351057,-1.059283972,0.82496202,1.043540001,0.264268011,-0.877560973,-1.634574056,-0.686426997,-0.133463994,1.945973039,-1.083408952,-0.196355999,0.507514,1.19420898,0.157101005,1.337136984,-1.241950989,-0.527058005,0.690361023,0.948625028,-0.285207987,0.885015011,-0.376417011,0.355302989,0.098260999,-0.756726027,-1.051051974,-0.838437021,-0.530875981,0.423741013,-0.352039009,-0.954338014,0.63201803,-0.477854997,0.516449988,0.237749994,0.740679026,-1.270125031,-0.138802007,-0.323915005,-0.241280004,0.293675005,-1.866281986,-0.133885995,-0.831359029,-1.728680015,0.808826983,0.004427,-2.028773069,0.783658028,-2.26314497,0.326007009,0.850084007,-0.833378017,0.308099985,0.842329979,-0.80380702,-2.06159091,0.643940985,-0.53934902,-0.300002009,-0.642134011,1.060695052,0.437947989,-0.446653992,1.718700051,0.186216995,-0.654679,0.455527991,-2.258090019,1.436149955,-0.275388986,0.672405005,-1.882729054,0.65228498,0.132695004,-1.068192959,1.404409051,-0.441924006,-1.152068019,-0.149479002,0.37165001,-1.253455997,-0.608992994,-2.307075977,0.872340977,0.324878991,-0.428467005,-0.283419997,-2.107279062,0.00152,0.847886026,-1.514794946,0.301438987,-2.213498116,-1.284103036,-0.492559999,1.098816037,1.16010797,0.616743982,0.533665001,-0.51413399,0.567584991,-1.153277993,-0.834430993,0.755231023,-0.921612024,-0.302213013,-0.166871995,1.136847019,0.645375013,0.580430984,0.34870401,-0.545026004,-0.373304993,-2.009823084,-0.329129994,1.415107965,,0.553550005,-0.408333004,-1.070376039,0.427219003,2.052975893,0.481065989,2.045454979,-0.628785014,-1.419049978,0.210022002,-1.870496988,0.916163981,0.521700978,-1.12656796,-0.160384998,-0.888229012,-0.146620005,-1.620192051,-1.899724007,-0.165224001,0.959622979,0.032667,-0.90871799,-0.915476978,-0.263042003,0.771363974,1.570963025,1.197682977,-0.20025,-0.153178006,0.869781971,0.47180599,-1.239691973,-2.677813053,0.565109015,-0.652733982,1.032176018,-0.092000999,0.140499994,1.393354058,3.039714098,0.322156012,0.227937996,0.666266978,0.080642,0.722841978,1.23111403,-0.249071002,0.490740001,-1.368981004,0.737662017,0.053808998,2.422533035,0.824459016,-0.462080002,-0.870840013,-0.820555985,0.222671002,-0.097296998,-0.900574982,-1.284626961,1.099848986,0.630382001,-0.224096,0.407402009,-1.378196001,-2.799598932,-0.830226004,-0.65022701,-1.52214098,0.767077029,-0.111947998,0.774411023,0.042330001,0.55240202,-0.207365006,0.957527995,-0.272114992,-0.198707998,0.126412004,-1.449918032,-1.632506967,0.434810013,-0.984229028,0.211848006,0.569617987,0.097921997,-2.484997988,-0.674709022,-0.590206027,0.118285,-2.054382086,-0.458995014,-0.498614997,0.893669009,-1.154204011,-0.432880998,0.720058978,-1.100188971,0.644164026,0.682484984,0.230619997,0.814767003,2.176225901,0.574397981,-0.867497027,-0.306511998,0.046383999,-0.303140014,-0.893589973,-0.979911983,-1.069967985,-0.553458989,-0.091293998,0.429569989,1.102830052,1.871590972,-0.534189999,-0.452845991,-1.064100027,-0.321655989,-0.123194002,0.913299978,-1.753720045,-1.473086953,1.847993016,-1.912665963,0.086101003,-0.640743017,0.61658901,2.012739897,-0.513606012,-0.994603992,0.67058903,0.793218017,0.573992014,1.921092033,-0.273407012,1.120363951,0.581075013,1.241703033,0.021931,-0.79567802,-1.183555007,-0.895949006,0.382171988,-0.784482002,0.547114015,-0.921636999,-1.731598973,0.454079002,1.407119036,0.738112986,1.168329954,0.315448999,1.883802056,0.295969009,0.850605011,-0.891674995,0.595812023,0.595830023,-0.800575972,0.475012988,-2.045969963,0.543659985,0.931297004,-0.163316995,-0.160091996,-0.335267991,0.535327017,0.841425002,0.56683898,0.168989003,-0.872757018,1.148887992,0.380290985,1.379747987,2.599090099,-1.694790006,0.329263985,-0.808129013,0.161700994,1.115934014,0.069623001,0.201468006,1.465538979,0.861081004,0.021740001,-0.694235027,1.893818974,0.31656599,-1.281610966,1.361976027,2.104052067,-1.20983398,-0.137870997,0.007568,0.27856499,0.517123997,0.469992012,0.213935003,0.826265991,-2.460211039,0.522243023,0.063130997,0.666898012,0.286440015,0.88615799,-0.803272009,1.436153054,-1.688508987,1.494447947,2.138983965,-0.680404007,1.457332015,0.105397001,0.018379999,-0.410984993,0.25651899,0.472535014,0.521901011,1.406726003,0.536819994,-0.223296002,0.537874997,-1.279732943,-1.234369993,0.260228008,0.704380989,-1.120113015,-1.085497022,-0.271084994,0.603807986,-2.031491995,1.437008977,-0.540565014,0.267444998,-0.598963022,0.640197992,-1.471896052,0.142629996,1.818976045,-0.136568993,1.069002986,-0.469469994,-1.659016013,0.227816001,-0.153077006,0.520088971,-0.408407003,0.585430026,-1.54300499,0.080651999,-1.851044059,-0.704232991,0.113789998,-0.241248995,-0.95580101,0.846908987,1.872135997,0.521791995,-1.094378948,-0.356321007,0.116851002,-1.052991986,0.549670994,-1.252132058,1.012545943,0.267239004,-0.328009993,-0.845073998,0.607590973,-0.733439028,1.62450695,0.725749016,1.999374032,-0.123359002,-1.197729945,0.855057001,0.402480006,-0.768764019,-0.659654975,-1.640351057,-1.059283972,0.82496202,1.043540001,0.264268011,-0.877560973,-1.634574056,-0.686426997,-0.133463994,1.945973039,-1.083408952,-0.196355999,0.507514,1.19420898,0.157101005,1.337136984,-1.241950989,-0.527058005,0.690361023,0.948625028,-0.285207987,0.885015011,-0.376417011,0.355302989,0.098260999,-0.756726027,-1.051051974,-0.838437021,-0.530875981,0.423741013,-0.352039009,-0.954338014,0.63201803,-0.477854997,0.516449988,0.237749994,0.740679026,-1.270125031,-0.138802007,-0.323915005,-0.241280004,0.293675005,-1.866281986,-0.133885995,-0.831359029,-1.728680015,0.808826983,0.004427,-2.028773069,0.783658028,-2.26314497,0.326007009,0.850084007,-0.833378017,0.308099985,0.842329979,-0.80380702,-2.06159091,0.643940985,-0.53934902,-0.300002009,-0.642134011,1.060695052,0.437947989,-0.446653992,1.718700051,0.186216995,-0.654679,0.455527991,-2.258090019,1.436149955,-0.275388986,0.672405005,-1.882729054,0.65228498,0.132695004,-1.068192959,1.404409051,-0.441924006,-1.152068019,-0.149479002,0.37165001,-1.253455997,-0.608992994,-2.307075977,0.872340977,0.324878991,-0.428467005,-0.283419997,-2.107279062,0.00152,0.847886026,-1.514794946,0.301438987,-2.213498116,-1.284103036,-0.492559999,1.098816037,1.16010797,0.616743982,0.533665001,-0.51413399,0.567584991,-1.153277993,-0.834430993,0.755231023,-0.921612024,-0.302213013,-0.166871995,1.136847019,0.645375013,0.580430984,0.34870401,-0.545026004,-0.373304993,-2.009823084,-0.329129994,1.415107965
控制,0.345604986,1.041342974,0.365601003,1.275326014,0.755509019,0.065252997,3.405849934,-1.949244022,2.299400091,-1.813789964,-0.536315978,-0.846255004,-0.451680988,0.729696989,1.270123959,-1.632233977,-1.027438045,0.153926998,-1.314535975,-0.508243024,-0.835780978,0.984863997,-1.787757039,-1.408460975,0.413619012,1.667729974,-0.697995007,1.978531957,-0.534842014,1.299885035,-0.413439006,-0.958423972,-0.111474,1.564178944,0.102316998,0.260488987,0.042422999,-1.41774404,-0.407476991,0.270581007,0.834761977,0.372765005,-0.589972019,-1.633764982,-0.650448024,2.068434,0.835117996,0.087630004,-0.095725998,-0.015072,-0.087134004,0.404009998,-0.510764003,0.817433,0.271591991,0.136776,-1.168470979,-1.445229054,1.265807986,1.541924953,-0.620396018,-0.792500973,0.172762007,-1.63912499,0.537018001,-0.380172014,-0.346756011,0.239673004,-0.101925001,0.888244987,0.217051998,1.124521971,0.112094,-0.040380001,-0.430941999,1.774145961,1.643645048,-2.715389967,-0.931652009,0.315459996,0.907114029,0.415295988,0.715067029,0.142848,0.132079005,0.562088013,1.267570019,2.326004982,1.181089997,0.609023988,0.819216013,-1.004902959,-0.159495994,0.261308014,0.918081999,-0.999364972,-0.564211011,1.664710045,-0.093135998,-0.944495022,0.811164975,-1.293828011,-1.556205988,0.655844986,-2.593739986,-1.533401966,-1.176774979,-0.943996012,0.645874977,-1.786074996,0.802579999,-3.03844595,-1.284155011,0.799709022,1.192134023,-0.254640996,1.885624051,1.266327977,-0.299814999,0.932470024,-1.741135955,0.368447006,1.833335996,-1.415449977,-0.764805973,0.749558985,-1.106016994,-2.287079096,-0.37964201,-0.284824014,-0.212704003,-0.590804994,-1.653646946,1.168311,0.765761018,1.20459199,-1.025148034,0.325242013,1.066797018,0.893993974,-1.162096024,2.334434986,0.314799011,-2.380774021,0.715153992,-1.446452022,0.890881002,0.292145014,-0.753316998,-1.452116966,1.725124955,-0.218722999,-1.253044009,0.999346018,1.285688043,-0.389310986,0.416364014,0.646677017,-0.138835996,1.057600021,-1.386834979,0.206862003,-1.635298967,-0.060056001,-1.868633032,0.901247025,1.534926057,-0.330383003,-0.388983011,1.437391043,2.187850952,-0.303339988,0.550508022,1.212162972,0.694384992,0.443450004,0.216407001,0.235375002,-0.414415985,0.740963995,-0.302915007,1.381059051,0.578589022,-1.378337979,-2.259360075,0.658357978,0.879891992,0.071420997,1.201012015,0.932179987,-0.463452011,-0.004613,1.586236954,0.011581,-0.984076023,-1.613463998,0.00172,-1.950191021,1.918140054,-0.351931006,0.84861201,-0.199448004,-2.450568914,0.574141026,-1.127753973,-0.497942001,-0.52008599,0.740019977,-0.828233004,1.664212942,-0.82801801,-0.972998977,2.438221931,-1.294603944,1.117722988,0.981590986,-0.630720973,0.037142001,0.395974994,-1.593389988,2.262388945,1.055703998,2.099080086,0.754010022,1.770138025,-0.217611,1.055241942,-0.813903987,-1.252707958,-0.27392599,-0.836811006,-0.725911975,0.073375002,-1.727417946,0.710722983,-0.042314999,0.93383801,0.450237989,0.703076005,0.34356001,1.013932943,-0.453097999,0.676666975,-0.345665008,-1.062188983,0.670113027,1.104454994,0.668998003,1.012706995,1.311328053,-1.78776896,2.303107023,-0.27648899,-0.51323998,-2.137561083,1.152022958,0.654421985,0.248113006,0.132694006,2.945118904,-0.157132998,0.483491004,-1.106197953,-0.043563999,-0.895757973,0.382413,0.917473018,0.469889998,0.657666028,0.541833997,-1.071722031,0.035744,-0.434659004,0.471486986,-0.502453983,1.282740951,-0.476915002,-0.88241601,-0.271748006,0.945367992,-0.534839988,0.349839985,0.63211602,0.38814199,-1.277608991,0.515582025,1.46312499,-0.447207987,0.209829003,-0.564593017,-0.531790972,0.577243984,-1.083786964,-2.660563946,1.044661999,1.908669949,0.480497986,1.941277981,-0.374803007,0.415407002,0.070551999,0.87717098,0.461082995,0.274670988,-0.464551985,-1.128250957,-0.064848997,0.160328999,-1.371402025,0.283131003,-1.242933989,-1.123337984,0.883831024,-1.001343012,0.474523008,-1.962623954,-0.485309988,-0.146149993,1.018427014,-0.822115004,-0.304040015,0.533490002,-1.082878947,2.350884914,0.041655,1.130859017,-0.469312012,-2.75041604,0.561320007,-0.521842003,-0.464751005,1.051959991,0.027659001,-0.942736983,2.736413002,-0.465685993,1.049885035,0.327316999,-1.986310005,0.055509001,-1.621669054,0.835039973,-0.346991003,-0.132636994,0.52562201,-1.231037974,-0.512694001,0.232936993,-0.60680902,-1.754569054,-0.861948013,0.548538983,2.739506006,0.262441009,1.105018973,-0.944737017,-0.646673977,1.544072986,-1.380491018,1.48536396,-1.02296102,-1.208677053,-0.517633975,0.198952004,-0.427152991,-1.32764101,-1.457059979,0.215110004,0.789901972,-0.782593012,-0.012762,0.420657992,0.261135995,-0.047694001,-1.240244985,0.054524999,0.188791007,-2.118839979,-1.211979985,-1.313527942,0.609218001,0.604104996,0.063699998,0.545076013,0.48547399,-0.851635993,-1.363415957,1.021667957,-2.566736937,0.127837002,0.444431007,3.559779882,-0.547309995,-0.112415001,0.000149,-0.970112026,2.200117111,1.087180972,0.532052994,-0.053506002,у,0.345604986,1.041342974,0.365601003,1.275326014,0.755509019,0.065252997,3.405849934,-1.949244022,2.299400091,-1.813789964,-0.536315978,-0.846255004,-0.451680988,0.729696989,1.270123959,-1.632233977,-1.027438045,0.153926998,-1.314535975,-0.508243024,-0.835780978,0.984863997,-1.787757039,-1.408460975,0.413619012,1.667729974,-0.697995007,1.978531957,-0.534842014,1.299885035,-0.413439006,-0.958423972,-0.111474,1.564178944,0.102316998,0.260488987,0.042422999,-1.41774404,-0.407476991,0.270581007,0.834761977,0.372765005,-0.589972019,-1.633764982,-0.650448024,2.068434,0.835117996,0.087630004,-0.095725998,-0.015072,-0.087134004,0.404009998,-0.510764003,0.817433,0.271591991,0.136776,-1.168470979,-1.445229054,1.265807986,1.541924953,-0.620396018,-0.792500973,0.172762007,-1.63912499,0.537018001,-0.380172014,-0.346756011,0.239673004,-0.101925001,0.888244987,0.217051998,1.124521971,0.112094,-0.040380001,-0.430941999,1.774145961,1.643645048,-2.715389967,-0.931652009,0.315459996,0.907114029,0.415295988,0.715067029,0.142848,0.132079005,0.562088013,1.267570019,2.326004982,1.181089997,0.609023988,0.819216013,-1.004902959,-0.159495994,0.261308014,0.918081999,-0.999364972,-0.564211011,1.664710045,-0.093135998,-0.944495022,0.811164975,-1.293828011,-1.556205988,0.655844986,-2.593739986,-1.533401966,-1.176774979,-0.943996012,0.645874977,-1.786074996,0.802579999,-3.03844595,-1.284155011,0.799709022,1.192134023,-0.254640996,1.885624051,1.266327977,-0.299814999,0.932470024,-1.741135955,0.368447006,1.833335996,-1.415449977,-0.764805973,0.749558985,-1.106016994,-2.287079096,-0.37964201,-0.284824014,-0.212704003,-0.590804994,-1.653646946,1.168311,0.765761018,1.20459199,-1.025148034,0.325242013,1.066797018,0.893993974,-1.162096024,2.334434986,0.314799011,-2.380774021,0.715153992,-1.446452022,0.890881002,0.292145014,-0.753316998,-1.452116966,1.725124955,-0.218722999,-1.253044009,0.999346018,1.285688043,-0.389310986,0.416364014,0.646677017,-0.138835996,1.057600021,-1.386834979,0.206862003,-1.635298967,-0.060056001,-1.868633032,0.901247025,1.534926057,-0.330383003,-0.388983011,1.437391043,2.187850952,-0.303339988,0.550508022,1.212162972,0.694384992,0.443450004,0.216407001,0.235375002,-0.414415985,0.740963995,-0.302915007,1.381059051,0.578589022,-1.378337979,-2.259360075,0.658357978,0.879891992,0.071420997,1.201012015,0.932179987,-0.463452011,-0.004613,1.586236954,0.011581,-0.984076023,-1.613463998,0.00172,-1.950191021,1.918140054,-0.351931006,0.84861201,-0.199448004,-2.450568914,0.574141026,-1.127753973,-0.497942001,-0.52008599,0.740019977,-0.828233004,1.664212942,-0.82801801,-0.972998977,2.438221931,-1.294603944,1.117722988,0.981590986,-0.630720973,0.037142001,0.395974994,-1.593389988,2.262388945,1.055703998,2.099080086,0.754010022,1.770138025,-0.217611,1.055241942,-0.813903987,-1.252707958,-0.27392599,-0.836811006,-0.725911975,0.073375002,-1.727417946,0.710722983,-0.042314999,0.93383801,0.450237989,0.703076005,0.34356001,1.013932943,-0.453097999,0.676666975,-0.345665008,-1.062188983,0.670113027,1.104454994,0.668998003,1.012706995,1.311328053,-1.78776896,2.303107023,-0.27648899,-0.51323998,-2.137561083,1.152022958,0.654421985,0.248113006,0.132694006,2.945118904,-0.157132998,0.483491004,-1.106197953,-0.043563999,-0.895757973,0.382413,0.917473018,0.469889998,0.657666028,0.541833997,-1.071722031,0.035744,-0.434659004,0.471486986,-0.502453983,1.282740951,-0.476915002,-0.88241601,-0.271748006,0.945367992,-0.534839988,0.349839985,0.63211602,0.38814199,-1.277608991,0.515582025,1.46312499,-0.447207987,0.209829003,-0.564593017,-0.531790972,0.577243984,-1.083786964,-2.660563946,1.044661999,1.908669949,0.480497986,1.941277981,-0.374803007,0.415407002,0.070551999,0.87717098,0.461082995,0.274670988,-0.464551985,-1.128250957,-0.064848997,0.160328999,-1.371402025,0.283131003,-1.242933989,-1.123337984,0.883831024,-1.001343012,0.474523008,-1.962623954,-0.485309988,-0.146149993,1.018427014,-0.822115004,-0.304040015,0.533490002,-1.082878947,2.350884914,0.041655,1.130859017,-0.469312012,-2.75041604,0.561320007,-0.521842003,-0.464751005,1.051959991,0.027659001,-0.942736983,2.736413002,-0.465685993,1.049885035,0.327316999,-1.986310005,0.055509001,-1.621669054,0.835039973,-0.346991003,-0.132636994,0.52562201,-1.231037974,-0.512694001,0.232936993,-0.60680902,-1.754569054,-0.861948013,0.548538983,2.739506006,0.262441009,1.105018973,-0.944737017,-0.646673977,1.544072986,-1.380491018,1.48536396,-1.02296102,-1.208677053,-0.517633975,0.198952004,-0.427152991,-1.32764101,-1.457059979,0.215110004,0.789901972,-0.782593012,-0.012762,0.420657992,0.261135995,-0.047694001,-1.240244985,0.054524999,0.188791007,-2.118839979,-1.211979985,-1.313527942,0.609218001,0.604104996,0.063699998,0.545076013,0.48547399,-0.851635993,-1.363415957,1.021667957,-2.566736937,0.127837002,0.444431007,3.559779882,-0.547309995,-0.112415001,0.000149,-0.970112026,2.200117111,1.087180972,0.532052994,-0.053506002
储能,-0.090917997,0.390610993,0.040403999,-0.229699999,0.187803999,0.269185007,-0.029689001,-0.274159014,0.119709998,0.144079998,-0.544233024,-0.125700995,-0.031481002,0.204619005,-0.149306998,-0.160892993,-0.074401997,-0.222715005,-0.218088999,-0.095554002,-0.084628999,-0.071239002,-0.041935001,0.156071007,0.021338999,0.058054,-0.355342001,0.310265005,-0.226833999,0.187215999,0.030743999,-0.088319004,0.048365001,0.056876998,0.182044998,-0.002176,0.024379,0.058770999,0.184020996,0.122285001,0.386067003,-0.097479999,-0.388469011,-0.030336,0.277276009,0.018408,-0.038477,-0.217464998,0.179831997,0.266384006,0.186945006,-0.193009004,0.161402002,0.359174013,-0.172408,0.130210996,-0.153359994,0.000339,-0.119957998,0.209759995,-0.115685001,0.216343999,-0.250957996,0.038497001,-0.280202001,0.083168998,-0.241375998,0.135214001,0.056552,-0.161651999,-0.326350987,-0.181428999,0.065171003,0.147512004,-0.196629003,0.392989993,0.247462004,-0.378715992,0.145137995,0.068814002,-0.051796999,0.202601999,-0.121582001,0.138717994,0.266205013,-0.309841007,-0.047366999,0.042911999,-0.065999001,-0.036005002,0.159905002,0.143650994,0.072988003,0.026625,-0.210243002,0.090660997,-0.173712,0.010529,-0.27926001,0.114263996,0.075214997,-0.012951,-0.111795001,0.162452996,0.142123997,-0.121321,-0.117298998,-0.103621997,0.199204996,-0.122809,0.094599001,-0.487291992,-0.470032007,-0.106472999,-0.063181996,-0.115535997,0.27995199,0.130144,-0.009079,0.030153999,-0.124885999,-0.289503992,0.076701,-0.226575002,0.091224998,0.134632006,-0.136419997,0.056253999,0.111844003,0.290473014,-0.124484003,-0.335287005,-0.223747,0.091265,0.030632,0.130765006,-0.007718,0.129865006,0.135204002,-0.287634999,0.113434002,0.104809001,-0.167598993,-0.132832006,0.196584001,-0.156117007,-0.228956997,0.120067999,0.067800999,-0.418608993,0.172977999,-0.080202997,-0.022217,-0.332836986,0.145366997,-0.094228998,0.348394006,-0.132660002,-0.012867,-0.125146002,0.081350997,-0.101058997,-0.296674013,-0.012003,0.444813997,-0.302895993,0.106215,-0.187399998,-0.494585007,-0.421099991,0.059404999,-0.257515997,-0.199072003,-0.261139005,-0.040660001,0.180326998,0.163517997,0.099448003,0.096110001,0.104374997,-0.369760007,0.253695995,-0.255380005,0.015228,-0.217601001,0.082418002,-0.180552006,-0.125456005,-0.096716002,-0.072297998,0.04764,0.036366001,-0.081597,0.326207995,-0.001558,0.053725,0.325729012,0.092711002,0.064534999,-0.036144,0.091277003,0.045162,-0.120587997,0.054026,-0.224010006,0.336733013,0.214412004,0.253562987,0.147686005,0.467822999,0.153259993,-0.426539004,0.439859986,0.104157999,-0.000785,0.118449003,-0.002847,-0.189383999,-0.128282994,-0.300621003,-0.100115001,-0.021609999,0.202511996,-0.117439002,0.070625,-0.215827003,0.019389,-0.031505,0.155756995,-0.236506,0.361613989,-0.042358998,0.175141007,-0.127582997,0.232617006,0.023778001,-0.289936006,-0.116962001,0.172405005,-0.020826001,-0.35710901,0.29626599,-0.016589999,0.157443002,-0.325289011,-0.057735998,0.079891004,0.174520001,0.054076001,-0.148689002,-0.095689997,0.248590007,0.307633013,0.268577993,-0.186129004,0.005299,-0.078203,0.187778994,0.171625003,0.372496009,-0.190537006,0.146956995,0.026486,-0.082215004,0.104736999,-0.345555991,-0.129259005,0.054345001,-0.244025007,-0.018532,-0.053739,-0.31645301,-0.298292994,0.092404999,0.258498996,-0.063960999,-0.549211979,-0.256908,0.073786996,0.298083007,-0.018916,0.112692997,0.178748995,-0.057162002,-0.106091,0.070515998,0.029722,-0.218447998,-0.228057995,-0.091362,-0.298373997,0.076650001,-0.180739,-0.253331006,0.102296002,0.167859003,-0.002709,-0.031936999,0.034949001,-0.047256999,-0.202669993,0.085461996,0.185831994,-0.020684,0.167023003,-0.179542005,-0.220422998,0.028454,-0.121436998,0.067730002,-0.200878993,0.051589001,0.018444,0.07818,0.068469003,0.084022,-0.310851991,-0.139762998,0.289023995,-0.045924,-0.109434001,-0.294586003,0.045373,-0.129437998,0.232913002,0.307824999,-0.006376,-0.036832001,0.075237997,0.516278028,-0.010254,-0.256958008,-0.163294002,-0.131477997,0.209729001,-0.106678002,-0.201003,0.047460001,0.136295006,-0.177871004,-0.147622004,0.179306999,-0.129024997,-0.021796999,0.163535997,-0.242758006,-0.259571999,0.097911,0.097604997,-0.021376001,-0.715129018,0.114572003,0.152147993,0.420170009,-0.045557,-0.315854996,0.097724997,0.084863998,0.244553,0.390028,-0.056384001,-0.172930002,-0.461908996,0.019513,-0.336257994,-0.014537,-0.240685999,0.026117001,-0.388415009,-0.032919999,-0.368490011,0.080640003,0.246197999,0.168255001,-0.299659014,-0.015701,-0.394647986,-0.249984995,-0.282341003,0.098283,-0.214726999,-0.043129001,0.280252993,0.236812994,-0.132539004,-0.411101997,0.288984001,-0.078721002,-0.413156003,-0.111466996,-0.046606999,-0.245768994,-0.242825001,-0.173265994,-0.184999004,-0.386655986,0.166898996,-0.113319002,-0.00308,0.141417995,ㄨ,-0.090917997,0.390610993,0.040403999,-0.229699999,0.187803999,0.269185007,-0.029689001,-0.274159014,0.119709998,0.144079998,-0.544233024,-0.125700995,-0.031481002,0.204619005,-0.149306998,-0.160892993,-0.074401997,-0.222715005,-0.218088999,-0.095554002,-0.084628999,-0.071239002,-0.041935001,0.156071007,0.021338999,0.058054,-0.355342001,0.310265005,-0.226833999,0.187215999,0.030743999,-0.088319004,0.048365001,0.056876998,0.182044998,-0.002176,0.024379,0.058770999,0.184020996,0.122285001,0.386067003,-0.097479999,-0.388469011,-0.030336,0.277276009,0.018408,-0.038477,-0.217464998,0.179831997,0.266384006,0.186945006,-0.193009004,0.161402002,0.359174013,-0.172408,0.130210996,-0.153359994,0.000339,-0.119957998,0.209759995,-0.115685001,0.216343999,-0.250957996,0.038497001,-0.280202001,0.083168998,-0.241375998,0.135214001,0.056552,-0.161651999,-0.326350987,-0.181428999,0.065171003,0.147512004,-0.196629003,0.392989993,0.247462004,-0.378715992,0.145137995,0.068814002,-0.051796999,0.202601999,-0.121582001,0.138717994,0.266205013,-0.309841007,-0.047366999,0.042911999,-0.065999001,-0.036005002,0.159905002,0.143650994,0.072988003,0.026625,-0.210243002,0.090660997,-0.173712,0.010529,-0.27926001,0.114263996,0.075214997,-0.012951,-0.111795001,0.162452996,0.142123997,-0.121321,-0.117298998,-0.103621997,0.199204996,-0.122809,0.094599001,-0.487291992,-0.470032007,-0.106472999,-0.063181996,-0.115535997,0.27995199,0.130144,-0.009079,0.030153999,-0.124885999,-0.289503992,0.076701,-0.226575002,0.091224998,0.134632006,-0.136419997,0.056253999,0.111844003,0.290473014,-0.124484003,-0.335287005,-0.223747,0.091265,0.030632,0.130765006,-0.007718,0.129865006,0.135204002,-0.287634999,0.113434002,0.104809001,-0.167598993,-0.132832006,0.196584001,-0.156117007,-0.228956997,0.120067999,0.067800999,-0.418608993,0.172977999,-0.080202997,-0.022217,-0.332836986,0.145366997,-0.094228998,0.348394006,-0.132660002,-0.012867,-0.125146002,0.081350997,-0.101058997,-0.296674013,-0.012003,0.444813997,-0.302895993,0.106215,-0.187399998,-0.494585007,-0.421099991,0.059404999,-0.257515997,-0.199072003,-0.261139005,-0.040660001,0.180326998,0.163517997,0.099448003,0.096110001,0.104374997,-0.369760007,0.253695995,-0.255380005,0.015228,-0.217601001,0.082418002,-0.180552006,-0.125456005,-0.096716002,-0.072297998,0.04764,0.036366001,-0.081597,0.326207995,-0.001558,0.053725,0.325729012,0.092711002,0.064534999,-0.036144,0.091277003,0.045162,-0.120587997,0.054026,-0.224010006,0.336733013,0.214412004,0.253562987,0.147686005,0.467822999,0.153259993,-0.426539004,0.439859986,0.104157999,-0.000785,0.118449003,-0.002847,-0.189383999,-0.128282994,-0.300621003,-0.100115001,-0.021609999,0.202511996,-0.117439002,0.070625,-0.215827003,0.019389,-0.031505,0.155756995,-0.236506,0.361613989,-0.042358998,0.175141007,-0.127582997,0.232617006,0.023778001,-0.289936006,-0.116962001,0.172405005,-0.020826001,-0.35710901,0.29626599,-0.016589999,0.157443002,-0.325289011,-0.057735998,0.079891004,0.174520001,0.054076001,-0.148689002,-0.095689997,0.248590007,0.307633013,0.268577993,-0.186129004,0.005299,-0.078203,0.187778994,0.171625003,0.372496009,-0.190537006,0.146956995,0.026486,-0.082215004,0.104736999,-0.345555991,-0.129259005,0.054345001,-0.244025007,-0.018532,-0.053739,-0.31645301,-0.298292994,0.092404999,0.258498996,-0.063960999,-0.549211979,-0.256908,0.073786996,0.298083007,-0.018916,0.112692997,0.178748995,-0.057162002,-0.106091,0.070515998,0.029722,-0.218447998,-0.228057995,-0.091362,-0.298373997,0.076650001,-0.180739,-0.253331006,0.102296002,0.167859003,-0.002709,-0.031936999,0.034949001,-0.047256999,-0.202669993,0.085461996,0.185831994,-0.020684,0.167023003,-0.179542005,-0.220422998,0.028454,-0.121436998,0.067730002,-0.200878993,0.051589001,0.018444,0.07818,0.068469003,0.084022,-0.310851991,-0.139762998,0.289023995,-0.045924,-0.109434001,-0.294586003,0.045373,-0.129437998,0.232913002,0.307824999,-0.006376,-0.036832001,0.075237997,0.516278028,-0.010254,-0.256958008,-0.163294002,-0.131477997,0.209729001,-0.106678002,-0.201003,0.047460001,0.136295006,-0.177871004,-0.147622004,0.179306999,-0.129024997,-0.021796999,0.163535997,-0.242758006,-0.259571999,0.097911,0.097604997,-0.021376001,-0.715129018,0.114572003,0.152147993,0.420170009,-0.045557,-0.315854996,0.097724997,0.084863998,0.244553,0.390028,-0.056384001,-0.172930002,-0.461908996,0.019513,-0.336257994,-0.014537,-0.240685999,0.026117001,-0.388415009,-0.032919999,-0.368490011,0.080640003,0.246197999,0.168255001,-0.299659014,-0.015701,-0.394647986,-0.249984995,-0.282341003,0.098283,-0.214726999,-0.043129001,0.280252993,0.236812994,-0.132539004,-0.411101997,0.288984001,-0.078721002,-0.413156003,-0.111466996,-0.046606999,-0.245768994,-0.242825001,-0.173265994,-0.184999004,-0.386655986,0.166898996,-0.113319002,-0.00308,0.141417995
例,0.498079002,0.459284991,-0.201854005,0.504011989,0.557851017,1.292898059,-0.080573,-0.270597011,-0.107441999,-1.113270998,-0.140939996,0.919386983,-0.604438007,-0.454667002,0.632372022,-0.071976997,-2.02411294,-0.464345008,0.783428013,-0.601264,-0.259346992,0.808302999,-0.317764997,-1.020647049,0.760169983,0.223455995,0.535758018,1.087653041,-0.127242997,-0.550204992,1.243631005,-0.842343986,1.081518054,-0.724044979,0.678812027,-0.636318028,1.792477012,0.184821993,0.440569997,0.449057996,0.909286022,0.203059003,-0.077748001,-0.614066005,0.175787002,0.459215999,-0.04143,0.230398998,-0.81595701,0.929655015,1.373092055,-0.162754998,1.032323956,0.444076985,-0.327468991,0.854551971,-0.412368,-0.228413001,-1.132670999,-0.048896,0.121523,-0.426555008,0.315611988,-1.033143997,-0.277527004,-0.927120984,-0.101787999,1.409183979,1.156885982,0.124851003,-0.010568,-0.063982002,-0.418375999,0.600386024,1.146818042,-0.010159,0.309199005,0.608946025,1.069272995,-0.348598987,-0.538160026,-0.054614998,0.703137994,0.577995002,0.237748995,0.650089025,-0.079595998,-0.833000004,0.339085996,-0.303110003,0.659399986,0.525779009,0.629495978,2.086232901,0.126453996,0.159779996,1.042168021,-0.62597698,0.362354994,0.835386992,0.319146991,-0.85986501,0.298516989,0.224019006,0.205595002,-0.470560014,1.510257006,-1.176993012,-0.979444981,-0.512857974,0.773127973,0.115245,-1.128221035,-0.72902602,-0.554709017,1.18158102,0.613506019,-0.391456991,0.664641976,0.399993002,-0.444893003,0.228925005,0.441866994,-0.96321702,0.609220982,1.050897956,-0.854023993,0.420507997,-0.308631003,1.590975046,0.426115006,0.475901991,-0.495171994,0.629643977,1.519261003,-0.558981001,0.919376016,-0.103850998,0.889666021,-0.922218025,0.490377009,-0.443845987,-0.243070006,-0.568352997,1.59363997,0.259611011,0.316834986,1.515807986,0.175943002,-0.525557995,0.451858014,-2.125258923,0.467121005,1.380035996,0.231762007,0.36469999,0.737954974,-0.286206007,-0.788294017,-0.495976001,0.545067012,-0.047205999,0.294458002,-0.572054982,-0.586803973,0.545597017,0.285183012,-0.663506985,-0.811397016,-0.338937998,-1.711158991,0.025842,1.014829993,0.527960002,-0.375162005,-0.577235997,1.757434964,0.194921002,0.000374,0.378430992,0.418000013,0.434969008,-0.528358996,-0.181746006,0.430530995,-0.563775003,0.219137996,-0.664461017,-0.029021,0.381669998,0.152692005,0.422717988,0.693369985,-1.047644019,-0.111824997,-0.43641001,-0.836098015,0.144957006,0.947516978,0.077811003,0.76699698,-0.476978004,-0.451101005,0.034421999,-0.026149999,0.26365301,0.80478698,-0.810365021,-0.74584198,-1.114828944,0.451278001,0.021202,0.101544,0.172742993,0.839725018,-0.809405982,-0.593016982,-0.131145,0.333083004,-0.030236,-0.478706002,1.217429996,-0.50554502,1.242277026,0.712710977,0.970405996,-0.230035007,0.564809978,0.192041993,1.111039996,0.173140004,-0.487174004,-0.607581973,-0.187830999,0.185066,-0.128707007,1.315808058,1.680256963,-1.309350014,-1.835019946,0.445881009,1.641450047,0.517001987,0.207140997,-1.157186031,-1.810116053,-0.065155998,-0.028818,0.462536991,-0.060559001,-0.581726015,-0.391537994,0.424611002,-1.296635985,-1.204879045,1.024191976,-0.28154701,-0.278822005,0.582207024,0.774206996,0.27512601,0.827573001,0.846614003,-0.688923001,-0.110349998,0.101617001,-0.694247007,0.893742979,0.180604994,-0.114569001,-1.348433018,0.968923986,-0.000542,1.284713984,0.36787799,0.836308002,-0.326133013,-0.150317997,-0.259983987,-1.204682946,-0.015229,0.388265014,-0.441262007,0.167622,0.270812005,0.483031988,0.221984997,-0.112570003,0.369231999,-0.75356698,0.904147983,0.526989996,-0.639308989,-0.977383971,-0.702445984,-0.288116992,0.952980995,0.957929015,0.013229,0.243257999,0.580274999,-0.415284008,-1.512472034,0.329941988,-0.674956024,-0.555337012,-0.924063981,0.874159992,-0.297576994,-1.215808034,0.267387986,0.291801006,0.130963996,-0.647237003,0.906535983,-0.267755985,0.056614999,0.613867998,0.515945017,-0.173319995,-0.859629989,0.750986993,-0.032019999,0.671455979,0.43346101,0.221962005,1.120092034,0.878633022,0.083293997,-0.884868979,0.173969999,0.721531987,0.610267997,1.084597945,0.191326007,1.187242031,-0.091075003,0.296804994,-0.619037986,-0.047187001,-0.328283012,-0.333065003,-0.476417989,0.818202019,0.468181998,1.008180976,0.681020975,-1.082180023,-0.185913995,-0.212629005,0.256888002,-0.970974982,-0.717046022,0.785462022,-0.024801999,-0.269995987,-0.675637007,0.330018997,-0.251408011,0.86856401,-0.669197023,-0.817249,0.631195009,-0.067373998,0.00519,0.124357,0.197978005,-0.302430004,0.208682001,0.606709003,0.020462001,-0.886738002,0.444781989,-0.874454021,-0.472909987,-0.148923993,-0.083571002,-0.264887005,-0.105823003,0.768863022,-0.288230985,1.060557008,-0.549766004,-1.248142958,0.589936972,-0.282020986,-0.694855988,-0.693063021,-0.354371011,-0.522580028,-0.913941026,0.530164003,-0.792225003,0.154831007,-0.218528003,-0.298074007,-1.508442998,-0.373654008,1.112890959,-0.345135003,渚?0.498079001904,0.459284991,-0.201854005,0.504011989,0.557851017,1.292898059,-0.080573,-0.270597011,-0.107441999,-1.113270998,-0.140939996,0.919386983,-0.604438007,-0.454667002,0.632372022,-0.071976997,-2.02411294,-0.464345008,0.783428013,-0.601264,-0.259346992,0.808302999,-0.317764997,-1.020647049,0.760169983,0.223455995,0.535758018,1.087653041,-0.127242997,-0.550204992,1.243631005,-0.842343986,1.081518054,-0.724044979,0.678812027,-0.636318028,1.792477012,0.184821993,0.440569997,0.449057996,0.909286022,0.203059003,-0.077748001,-0.614066005,0.175787002,0.459215999,-0.04143,0.230398998,-0.81595701,0.929655015,1.373092055,-0.162754998,1.032323956,0.444076985,-0.327468991,0.854551971,-0.412368,-0.228413001,-1.132670999,-0.048896,0.121523,-0.426555008,0.315611988,-1.033143997,-0.277527004,-0.927120984,-0.101787999,1.409183979,1.156885982,0.124851003,-0.010568,-0.063982002,-0.418375999,0.600386024,1.146818042,-0.010159,0.309199005,0.608946025,1.069272995,-0.348598987,-0.538160026,-0.054614998,0.703137994,0.577995002,0.237748995,0.650089025,-0.079595998,-0.833000004,0.339085996,-0.303110003,0.659399986,0.525779009,0.629495978,2.086232901,0.126453996,0.159779996,1.042168021,-0.62597698,0.362354994,0.835386992,0.319146991,-0.85986501,0.298516989,0.224019006,0.205595002,-0.470560014,1.510257006,-1.176993012,-0.979444981,-0.512857974,0.773127973,0.115245,-1.128221035,-0.72902602,-0.554709017,1.18158102,0.613506019,-0.391456991,0.664641976,0.399993002,-0.444893003,0.228925005,0.441866994,-0.96321702,0.609220982,1.050897956,-0.854023993,0.420507997,-0.308631003,1.590975046,0.426115006,0.475901991,-0.495171994,0.629643977,1.519261003,-0.558981001,0.919376016,-0.103850998,0.889666021,-0.922218025,0.490377009,-0.443845987,-0.243070006,-0.568352997,1.59363997,0.259611011,0.316834986,1.515807986,0.175943002,-0.525557995,0.451858014,-2.125258923,0.467121005,1.380035996,0.231762007,0.36469999,0.737954974,-0.286206007,-0.788294017,-0.495976001,0.545067012,-0.047205999,0.294458002,-0.572054982,-0.586803973,0.545597017,0.285183012,-0.663506985,-0.811397016,-0.338937998,-1.711158991,0.025842,1.014829993,0.527960002,-0.375162005,-0.577235997,1.757434964,0.194921002,0.000374,0.378430992,0.418000013,0.434969008,-0.528358996,-0.181746006,0.430530995,-0.563775003,0.219137996,-0.664461017,-0.029021,0.381669998,0.152692005,0.422717988,0.693369985,-1.047644019,-0.111824997,-0.43641001,-0.836098015,0.144957006,0.947516978,0.077811003,0.76699698,-0.476978004,-0.451101005,0.034421999,-0.026149999,0.26365301,0.80478698,-0.810365021,-0.74584198,-1.114828944,0.451278001,0.021202,0.101544,0.172742993,0.839725018,-0.809405982,-0.593016982,-0.131145,0.333083004,-0.030236,-0.478706002,1.217429996,-0.50554502,1.242277026,0.712710977,0.970405996,-0.230035007,0.564809978,0.192041993,1.111039996,0.173140004,-0.487174004,-0.607581973,-0.187830999,0.185066,-0.128707007,1.315808058,1.680256963,-1.309350014,-1.835019946,0.445881009,1.641450047,0.517001987,0.207140997,-1.157186031,-1.810116053,-0.065155998,-0.028818,0.462536991,-0.060559001,-0.581726015,-0.391537994,0.424611002,-1.296635985,-1.204879045,1.024191976,-0.28154701,-0.278822005,0.582207024,0.774206996,0.27512601,0.827573001,0.846614003,-0.688923001,-0.110349998,0.101617001,-0.694247007,0.893742979,0.180604994,-0.114569001,-1.348433018,0.968923986,-0.000542,1.284713984,0.36787799,0.836308002,-0.326133013,-0.150317997,-0.259983987,-1.204682946,-0.015229,0.388265014,-0.441262007,0.167622,0.270812005,0.483031988,0.221984997,-0.112570003,0.369231999,-0.75356698,0.904147983,0.526989996,-0.639308989,-0.977383971,-0.702445984,-0.288116992,0.952980995,0.957929015,0.013229,0.243257999,0.580274999,-0.415284008,-1.512472034,0.329941988,-0.674956024,-0.555337012,-0.924063981,0.874159992,-0.297576994,-1.215808034,0.267387986,0.291801006,0.130963996,-0.647237003,0.906535983,-0.267755985,0.056614999,0.613867998,0.515945017,-0.173319995,-0.859629989,0.750986993,-0.032019999,0.671455979,0.43346101,0.221962005,1.120092034,0.878633022,0.083293997,-0.884868979,0.173969999,0.721531987,0.610267997,1.084597945,0.191326007,1.187242031,-0.091075003,0.296804994,-0.619037986,-0.047187001,-0.328283012,-0.333065003,-0.476417989,0.818202019,0.468181998,1.008180976,0.681020975,-1.082180023,-0.185913995,-0.212629005,0.256888002,-0.970974982,-0.717046022,0.785462022,-0.024801999,-0.269995987,-0.675637007,0.330018997,-0.251408011,0.86856401,-0.669197023,-0.817249,0.631195009,-0.067373998,0.00519,0.124357,0.197978005,-0.302430004,0.208682001,0.606709003,0.020462001,-0.886738002,0.444781989,-0.874454021,-0.472909987,-0.148923993,-0.083571002,-0.264887005,-0.105823003,0.768863022,-0.288230985,1.060557008,-0.549766004,-1.248142958,0.589936972,-0.282020986,-0.694855988,-0.693063021,-0.354371011,-0.522580028,-0.913941026,0.530164003,-0.792225003,0.154831007,-0.218528003,-0.298074007,-1.508442998,-0.373654008,1.112890959,-0.345135003,
方面,1.139883041,0.188674003,-0.667985022,0.840559006,-0.628805995,-0.129249007,1.112084985,-0.74830699,1.197824001,-0.290796995,1.334401965,-0.395844996,0.974120975,-1.708750963,0.331438988,-0.82702601,-1.320345044,-0.196518004,-0.952444971,-0.657012999,0.519501984,-0.054104999,-0.88410002,-0.694826007,2.23812294,-0.268864989,1.386289954,2.289729118,0.778549016,0.440138012,0.214451,1.077669978,-0.186175004,-0.076264001,1.410753965,-0.684705019,0.275233001,-0.685223997,0.941531003,1.267799973,1.687376022,-0.722692013,-0.96392101,0.157894,-0.911046028,-1.094395995,-0.153549001,0.142270997,0.35007301,-0.852521002,2.258006096,-1.24594295,-0.039390001,1.333920002,0.681423008,-0.37213701,2.151297092,-1.094781995,0.503620982,-0.035803001,0.56821698,-0.189032003,0.231595993,-1.027112961,1.075358987,-0.730938017,0.752355993,0.94124198,-0.160422996,-1.642846942,0.504943013,0.251641989,0.40525201,0.251825005,1.691491961,0.651830971,1.379313946,-0.176900998,1.249910951,-1.004343033,0.425453991,-0.38271001,0.800934017,1.387246966,1.058817983,-0.334125012,-0.326642007,-1.224100947,0.468879998,-2.14519906,-0.394645005,-0.077156998,-0.561535001,0.403926998,-0.044450998,-1.571673036,0.535530984,-0.539541006,-0.815774977,1.67267096,0.083506003,1.486240983,-0.235229,0.529792011,-1.308315992,1.225837946,3.196244955,0.620276988,-0.926958978,1.181947947,0.699584007,-0.513499975,-1.191877961,0.312525004,0.735330999,0.742410004,-0.365438998,-0.714977026,1.167247057,0.636633992,0.657018006,-0.246595994,1.465278983,-1.705211043,0.412203014,1.948768973,-1.827229023,-0.772494972,-0.146393001,-0.403135985,-0.462523997,-1.172394991,-1.60195899,1.24643898,0.728115976,1.827682972,0.229094997,0.958723009,1.526975989,-0.349543005,-0.065684997,-2.136070013,-0.679921985,-1.219388008,-0.861979008,-0.405458003,0.450139999,1.963672996,-0.425175011,0.880568981,0.223757997,1.99128902,-0.586273015,0.032072,0.523756981,0.991629004,0.494158,-1.297490954,-2.257750988,0.741786003,-1.610988021,-1.238443017,1.397169948,-0.362872005,0.941793025,0.242393002,-2.497266054,-0.48724401,-1.164767981,0.061841,-0.262798995,-0.476188004,0.506774008,1.585407972,0.781202018,0.160380006,1.251302958,0.004536,-0.218436003,-0.843711019,-1.032323003,-0.385457993,0.239126995,-1.369683027,-1.097295046,1.201362014,0.344918013,0.242752999,-1.363580942,0.435326993,-0.689404011,-0.934692025,3.707808018,1.596938968,-1.732128978,-0.425004005,-0.296487004,-1.687973976,0.526349008,1.778501987,0.439323992,-0.293134987,-0.718203008,0.594781995,-0.342593014,1.790140033,-4.405654907,2.107317925,0.106749997,1.851436973,-0.236431003,0.978147984,1.285678983,-1.132449985,0.722404003,0.369715005,0.777330995,0.626543999,0.992550015,0.421600997,0.122312002,1.590065002,1.749397993,-0.842936993,-0.046434999,0.530541003,-1.228096962,-0.040461,1.091001987,-0.633825004,-1.541481018,0.305025011,0.710470021,-2.330405951,2.226847887,-0.147916004,0.127827004,-1.786960006,-1.335399985,-0.046999998,-0.601341009,2.077351093,1.72575295,0.063694,-0.732309997,1.178971052,-0.034821998,-0.549620986,-0.569983006,-0.895886004,2.253820896,1.883733988,0.559763014,-0.866452992,0.283098012,0.53964901,-2.507951021,0.822847009,1.777873993,1.366510034,2.010524988,1.371814966,0.165220007,-0.232888997,-0.703050971,-0.323709011,-0.767970026,-0.99098599,1.277047992,0.526911974,-0.948993981,0.480262995,-1.704959989,-0.208113,-0.271589011,1.384822011,-0.03204,-1.63649404,1.53096199,1.06397903,0.059227999,-0.490615994,-0.176596999,0.64932698,-0.821690023,0.040052,0.644155025,0.965959013,2.382468939,0.668675005,1.167731047,2.740242004,-0.892075002,-0.556241989,1.532670975,-1.112490058,0.658376992,0.892064989,-0.359407991,-0.638283014,0.847648978,0.203883007,-0.866575003,1.552356958,0.830047011,1.000517011,0.38232401,-0.684413016,-2.605251074,0.919184029,-2.412055969,0.566200018,0.396127999,0.542841017,-0.222654,-0.014252,-0.39122799,-0.159318998,0.847518027,-1.346582055,0.817268014,0.159927994,1.558897018,0.328925014,-0.799796999,0.847652972,-0.781144023,0.270345986,-1.588639975,-1.019333959,-0.359398007,0.525403023,-0.168565005,-0.161797002,0.167630002,-0.119563997,1.276146054,0.897906005,-1.736297011,0.325872988,0.257135004,0.402898014,-0.518148005,0.490287989,0.406805992,-1.188930035,0.312849998,-0.736844003,-0.853358984,0.427947015,1.067118049,0.205957994,1.967746019,-0.082521997,-0.158582002,-0.684508979,0.568616986,2.031924009,-0.002146,0.528913021,1.699517965,-1.113602042,0.970504999,0.802437007,0.253758997,-0.770497978,-0.930112004,-0.475672007,-0.614346027,-0.470557988,0.20138,-1.367303014,0.449806005,-0.099607997,0.729793012,0.958211005,0.268359989,1.74840796,-1.090294957,-1.083399057,-0.181013003,0.130456001,-1.094095945,-0.298559994,1.695850968,-1.173138022,0.242181003,-1.092375994,-1.450191021,1.037497997,0.216727003,1.581132054,1.111986041,2.357644081,-1.246793032,-0.920105994,-0.137444004,1.977586031,0.744993985,0.824577987,归,1.139883041,0.188674003,-0.667985022,0.840559006,-0.628805995,-0.129249007,1.112084985,-0.74830699,1.197824001,-0.290796995,1.334401965,-0.395844996,0.974120975,-1.708750963,0.331438988,-0.82702601,-1.320345044,-0.196518004,-0.952444971,-0.657012999,0.519501984,-0.054104999,-0.88410002,-0.694826007,2.23812294,-0.268864989,1.386289954,2.289729118,0.778549016,0.440138012,0.214451,1.077669978,-0.186175004,-0.076264001,1.410753965,-0.684705019,0.275233001,-0.685223997,0.941531003,1.267799973,1.687376022,-0.722692013,-0.96392101,0.157894,-0.911046028,-1.094395995,-0.153549001,0.142270997,0.35007301,-0.852521002,2.258006096,-1.24594295,-0.039390001,1.333920002,0.681423008,-0.37213701,2.151297092,-1.094781995,0.503620982,-0.035803001,0.56821698,-0.189032003,0.231595993,-1.027112961,1.075358987,-0.730938017,0.752355993,0.94124198,-0.160422996,-1.642846942,0.504943013,0.251641989,0.40525201,0.251825005,1.691491961,0.651830971,1.379313946,-0.176900998,1.249910951,-1.004343033,0.425453991,-0.38271001,0.800934017,1.387246966,1.058817983,-0.334125012,-0.326642007,-1.224100947,0.468879998,-2.14519906,-0.394645005,-0.077156998,-0.561535001,0.403926998,-0.044450998,-1.571673036,0.535530984,-0.539541006,-0.815774977,1.67267096,0.083506003,1.486240983,-0.235229,0.529792011,-1.308315992,1.225837946,3.196244955,0.620276988,-0.926958978,1.181947947,0.699584007,-0.513499975,-1.191877961,0.312525004,0.735330999,0.742410004,-0.365438998,-0.714977026,1.167247057,0.636633992,0.657018006,-0.246595994,1.465278983,-1.705211043,0.412203014,1.948768973,-1.827229023,-0.772494972,-0.146393001,-0.403135985,-0.462523997,-1.172394991,-1.60195899,1.24643898,0.728115976,1.827682972,0.229094997,0.958723009,1.526975989,-0.349543005,-0.065684997,-2.136070013,-0.679921985,-1.219388008,-0.861979008,-0.405458003,0.450139999,1.963672996,-0.425175011,0.880568981,0.223757997,1.99128902,-0.586273015,0.032072,0.523756981,0.991629004,0.494158,-1.297490954,-2.257750988,0.741786003,-1.610988021,-1.238443017,1.397169948,-0.362872005,0.941793025,0.242393002,-2.497266054,-0.48724401,-1.164767981,0.061841,-0.262798995,-0.476188004,0.506774008,1.585407972,0.781202018,0.160380006,1.251302958,0.004536,-0.218436003,-0.843711019,-1.032323003,-0.385457993,0.239126995,-1.369683027,-1.097295046,1.201362014,0.344918013,0.242752999,-1.363580942,0.435326993,-0.689404011,-0.934692025,3.707808018,1.596938968,-1.732128978,-0.425004005,-0.296487004,-1.687973976,0.526349008,1.778501987,0.439323992,-0.293134987,-0.718203008,0.594781995,-0.342593014,1.790140033,-4.405654907,2.107317925,0.106749997,1.851436973,-0.236431003,0.978147984,1.285678983,-1.132449985,0.722404003,0.369715005,0.777330995,0.626543999,0.992550015,0.421600997,0.122312002,1.590065002,1.749397993,-0.842936993,-0.046434999,0.530541003,-1.228096962,-0.040461,1.091001987,-0.633825004,-1.541481018,0.305025011,0.710470021,-2.330405951,2.226847887,-0.147916004,0.127827004,-1.786960006,-1.335399985,-0.046999998,-0.601341009,2.077351093,1.72575295,0.063694,-0.732309997,1.178971052,-0.034821998,-0.549620986,-0.569983006,-0.895886004,2.253820896,1.883733988,0.559763014,-0.866452992,0.283098012,0.53964901,-2.507951021,0.822847009,1.777873993,1.366510034,2.010524988,1.371814966,0.165220007,-0.232888997,-0.703050971,-0.323709011,-0.767970026,-0.99098599,1.277047992,0.526911974,-0.948993981,0.480262995,-1.704959989,-0.208113,-0.271589011,1.384822011,-0.03204,-1.63649404,1.53096199,1.06397903,0.059227999,-0.490615994,-0.176596999,0.64932698,-0.821690023,0.040052,0.644155025,0.965959013,2.382468939,0.668675005,1.167731047,2.740242004,-0.892075002,-0.556241989,1.532670975,-1.112490058,0.658376992,0.892064989,-0.359407991,-0.638283014,0.847648978,0.203883007,-0.866575003,1.552356958,0.830047011,1.000517011,0.38232401,-0.684413016,-2.605251074,0.919184029,-2.412055969,0.566200018,0.396127999,0.542841017,-0.222654,-0.014252,-0.39122799,-0.159318998,0.847518027,-1.346582055,0.817268014,0.159927994,1.558897018,0.328925014,-0.799796999,0.847652972,-0.781144023,0.270345986,-1.588639975,-1.019333959,-0.359398007,0.525403023,-0.168565005,-0.161797002,0.167630002,-0.119563997,1.276146054,0.897906005,-1.736297011,0.325872988,0.257135004,0.402898014,-0.518148005,0.490287989,0.406805992,-1.188930035,0.312849998,-0.736844003,-0.853358984,0.427947015,1.067118049,0.205957994,1.967746019,-0.082521997,-0.158582002,-0.684508979,0.568616986,2.031924009,-0.002146,0.528913021,1.699517965,-1.113602042,0.970504999,0.802437007,0.253758997,-0.770497978,-0.930112004,-0.475672007,-0.614346027,-0.470557988,0.20138,-1.367303014,0.449806005,-0.099607997,0.729793012,0.958211005,0.268359989,1.74840796,-1.090294957,-1.083399057,-0.181013003,0.130456001,-1.094095945,-0.298559994,1.695850968,-1.173138022,0.242181003,-1.092375994,-1.450191021,1.037497997,0.216727003,1.581132054,1.111986041,2.357644081,-1.246793032,-0.920105994,-0.137444004,1.977586031,0.744993985,0.824577987
独立,-1.090211034,1.354918003,0.975615978,0.422688007,-0.777393997,0.69084698,0.505975008,-1.616765022,0.292187005,0.958042026,0.753995001,0.005253,-1.637884974,0.165296003,0.29350999,-1.60987699,1.569661021,-0.27098,-1.116945982,-0.213137001,0.454614013,-0.727679014,-1.180394053,-1.322649002,0.746703029,0.182584003,0.469909012,-1.499640942,0.652089,0.289292008,1.223289013,0.786161005,-0.879967988,0.761075974,-1.473366022,-0.244641006,1.466148019,-0.634177983,0.432978988,0.240620002,-0.505344987,-0.346047997,1.20354104,-1.295474052,-0.772504985,-1.906376004,0.73576802,-0.950990021,0.094421998,0.286408991,0.147477001,-0.954295993,-0.453882992,0.065132998,0.521414995,1.509160995,-2.440608025,0.952081025,-0.592119992,-0.670035005,-0.277819008,-1.451478004,-0.125769004,-1.606145978,0.539878011,-0.158254996,0.435391992,1.886783004,-0.190336004,0.913357019,-0.287903994,-0.204266995,-0.219123006,1.576352954,2.097332001,0.519931018,1.824661016,-0.735955,-0.488858998,-2.907094955,2.381005049,-0.985301018,-1.163341999,0.166380003,0.039942998,-0.576375008,-0.143868998,0.853357971,1.016459942,0.860556006,-0.415264994,-1.138563037,-0.681267023,1.066794991,-1.360790968,0.020378999,-0.092508003,0.964124024,-1.175099015,-1.167667031,1.771896958,-1.215160012,-0.109278999,1.672142982,-1.737575054,0.202574,2.201204062,0.914741993,-0.318908989,-2.355766058,-1.03411901,-1.890189052,-0.485590011,-0.229435995,0.294689,0.779682994,-1.190284967,0.71854198,-1.570701957,1.006587982,-1.231356025,1.652454972,2.358791113,-0.650590003,-0.248193994,-1.095028996,-1.919478059,-1.043643951,0.862922013,-0.544924974,-0.007659,-1.363793015,0.132930994,2.051367998,-0.269984007,-0.753687024,-0.569671988,1.192016006,-0.451287001,0.998867989,0.886886001,-0.707787991,-1.11254704,2.149091959,-2.597722054,-0.930328012,0.436040998,-0.965519011,0.128388003,0.594421029,0.039816,0.379577994,0.539717019,-0.538815022,-1.424281001,1.210327029,0.135380998,2.008156061,-0.707413018,0.393656999,0.144592002,-2.140270948,-0.999796987,0.621998012,-0.806105018,1.360941052,-0.232106999,-0.688117027,-0.569203019,0.133941993,-2.211735964,-0.627708018,2.937077045,1.673696995,-1.087404966,-0.889183998,0.339935988,0.607154012,-0.508234978,2.144140005,-1.625269055,-0.383805007,0.135756001,1.582273006,-2.169375896,-0.148604006,0.615435004,1.131785989,-0.395337999,0.462388992,1.025403976,-1.790035963,1.502599955,0.454932988,-0.48427099,-0.031585,0.892702997,-1.739588022,1.495687962,-0.091834001,1.325813055,-0.832803011,-1.419710994,0.415886998,-0.417358011,0.054745,-0.479456991,0.568493009,-1.051982045,1.470749974,-0.297441006,0.876253009,-0.685422003,-0.435624003,2.075994015,-1.017734051,1.792929053,-1.946802974,0.357870013,-1.183094978,-1.277091026,0.788788974,-0.303487986,2.006028891,0.203418002,0.048377,2.184317112,1.057044983,-0.532660007,1.967985988,1.017313957,0.96845597,2.052824974,0.095370002,1.670073986,-0.49042201,0.410564989,-1.917418003,-0.772641003,2.049864054,-0.005869,-1.42483604,0.126673996,-0.932247996,0.811895013,0.089105003,0.264793992,-0.151841998,0.822474003,1.119483948,1.671535969,0.584985971,0.414988995,-1.713752985,-0.157596007,1.076553941,-0.459206998,-0.575142026,-0.687263012,2.85542202,-0.136626005,0.502933979,-0.443168014,0.028735001,-1.147580981,-1.750542045,1.019601941,1.118080974,0.508490026,0.882084012,-0.599076986,-0.905731976,-1.496042013,0.335435987,-1.517351985,0.240584999,-0.278456986,0.66318202,-0.011721,-0.054604001,0.327652007,-1.000666976,0.020947,-1.598904014,0.94392401,-1.467422962,-1.687219024,-2.152718067,0.210723996,0.521328986,-0.719897985,0.295621991,-0.595781028,-1.338997006,0.347110987,0.899143994,1.062365055,2.266587019,-0.817487001,-2.034248114,0.449925005,0.841032028,1.368872046,1.041929007,0.854768991,-0.423224986,0.213054001,0.207460999,-0.067677997,-0.249493003,-2.203583956,0.234277993,-0.277671009,-0.414927989,-1.911353946,-0.192608997,-1.79885304,-0.025389001,1.38656199,-2.44195199,-1.541892052,0.405882001,-0.484349012,-2.228442907,-0.257245988,0.161806002,0.676761985,-1.846042037,0.412295014,-1.214596033,2.036215067,1.21320796,-1.032755017,0.938157022,1.152405977,0.390569001,0.281621993,-0.168887004,0.547105014,0.097773999,-1.013010979,1.662837029,0.580375016,2.180994034,-0.980159998,0.256868988,-0.370106995,1.147235036,-0.424295008,0.203596994,2.45847702,-0.437916994,1.828448057,0.157764003,-0.804050982,-0.683526993,0.720512986,0.161280006,-1.261239052,1.152760029,0.323585987,-1.147078991,0.83137399,-0.331880987,-0.612821996,1.246387005,-0.174077004,0.225246996,0.024784001,0.331274986,0.033652,-0.213771999,-1.263484001,-1.263713002,1.315919042,-0.771314025,-1.574947953,0.093676001,-0.78697902,-2.789561033,1.233505011,-0.356476009,0.944796979,0.349550992,0.946592987,0.141206995,-1.256775022,0.067032002,-1.306403041,-0.119153,1.057921052,1.580829978,0.963319004,0.304426014,-0.016480001,0.280445993,1.197780967,0.313944012,0.156874999,0.368804991,绔,-1.090211034,1.354918003,0.975615978,0.422688007,-0.777393997,0.69084698,0.505975008,-1.616765022,0.292187005,0.958042026,0.753995001,0.005253,-1.637884974,0.165296003,0.29350999,-1.60987699,1.569661021,-0.27098,-1.116945982,-0.213137001,0.454614013,-0.727679014,-1.180394053,-1.322649002,0.746703029,0.182584003,0.469909012,-1.499640942,0.652089,0.289292008,1.223289013,0.786161005,-0.879967988,0.761075974,-1.473366022,-0.244641006,1.466148019,-0.634177983,0.432978988,0.240620002,-0.505344987,-0.346047997,1.20354104,-1.295474052,-0.772504985,-1.906376004,0.73576802,-0.950990021,0.094421998,0.286408991,0.147477001,-0.954295993,-0.453882992,0.065132998,0.521414995,1.509160995,-2.440608025,0.952081025,-0.592119992,-0.670035005,-0.277819008,-1.451478004,-0.125769004,-1.606145978,0.539878011,-0.158254996,0.435391992,1.886783004,-0.190336004,0.913357019,-0.287903994,-0.204266995,-0.219123006,1.576352954,2.097332001,0.519931018,1.824661016,-0.735955,-0.488858998,-2.907094955,2.381005049,-0.985301018,-1.163341999,0.166380003,0.039942998,-0.576375008,-0.143868998,0.853357971,1.016459942,0.860556006,-0.415264994,-1.138563037,-0.681267023,1.066794991,-1.360790968,0.020378999,-0.092508003,0.964124024,-1.175099015,-1.167667031,1.771896958,-1.215160012,-0.109278999,1.672142982,-1.737575054,0.202574,2.201204062,0.914741993,-0.318908989,-2.355766058,-1.03411901,-1.890189052,-0.485590011,-0.229435995,0.294689,0.779682994,-1.190284967,0.71854198,-1.570701957,1.006587982,-1.231356025,1.652454972,2.358791113,-0.650590003,-0.248193994,-1.095028996,-1.919478059,-1.043643951,0.862922013,-0.544924974,-0.007659,-1.363793015,0.132930994,2.051367998,-0.269984007,-0.753687024,-0.569671988,1.192016006,-0.451287001,0.998867989,0.886886001,-0.707787991,-1.11254704,2.149091959,-2.597722054,-0.930328012,0.436040998,-0.965519011,0.128388003,0.594421029,0.039816,0.379577994,0.539717019,-0.538815022,-1.424281001,1.210327029,0.135380998,2.008156061,-0.707413018,0.393656999,0.144592002,-2.140270948,-0.999796987,0.621998012,-0.806105018,1.360941052,-0.232106999,-0.688117027,-0.569203019,0.133941993,-2.211735964,-0.627708018,2.937077045,1.673696995,-1.087404966,-0.889183998,0.339935988,0.607154012,-0.508234978,2.144140005,-1.625269055,-0.383805007,0.135756001,1.582273006,-2.169375896,-0.148604006,0.615435004,1.131785989,-0.395337999,0.462388992,1.025403976,-1.790035963,1.502599955,0.454932988,-0.48427099,-0.031585,0.892702997,-1.739588022,1.495687962,-0.091834001,1.325813055,-0.832803011,-1.419710994,0.415886998,-0.417358011,0.054745,-0.479456991,0.568493009,-1.051982045,1.470749974,-0.297441006,0.876253009,-0.685422003,-0.435624003,2.075994015,-1.017734051,1.792929053,-1.946802974,0.357870013,-1.183094978,-1.277091026,0.788788974,-0.303487986,2.006028891,0.203418002,0.048377,2.184317112,1.057044983,-0.532660007,1.967985988,1.017313957,0.96845597,2.052824974,0.095370002,1.670073986,-0.49042201,0.410564989,-1.917418003,-0.772641003,2.049864054,-0.005869,-1.42483604,0.126673996,-0.932247996,0.811895013,0.089105003,0.264793992,-0.151841998,0.822474003,1.119483948,1.671535969,0.584985971,0.414988995,-1.713752985,-0.157596007,1.076553941,-0.459206998,-0.575142026,-0.687263012,2.85542202,-0.136626005,0.502933979,-0.443168014,0.028735001,-1.147580981,-1.750542045,1.019601941,1.118080974,0.508490026,0.882084012,-0.599076986,-0.905731976,-1.496042013,0.335435987,-1.517351985,0.240584999,-0.278456986,0.66318202,-0.011721,-0.054604001,0.327652007,-1.000666976,0.020947,-1.598904014,0.94392401,-1.467422962,-1.687219024,-2.152718067,0.210723996,0.521328986,-0.719897985,0.295621991,-0.595781028,-1.338997006,0.347110987,0.899143994,1.062365055,2.266587019,-0.817487001,-2.034248114,0.449925005,0.841032028,1.368872046,1.041929007,0.854768991,-0.423224986,0.213054001,0.207460999,-0.067677997,-0.249493003,-2.203583956,0.234277993,-0.277671009,-0.414927989,-1.911353946,-0.192608997,-1.79885304,-0.025389001,1.38656199,-2.44195199,-1.541892052,0.405882001,-0.484349012,-2.228442907,-0.257245988,0.161806002,0.676761985,-1.846042037,0.412295014,-1.214596033,2.036215067,1.21320796,-1.032755017,0.938157022,1.152405977,0.390569001,0.281621993,-0.168887004,0.547105014,0.097773999,-1.013010979,1.662837029,0.580375016,2.180994034,-0.980159998,0.256868988,-0.370106995,1.147235036,-0.424295008,0.203596994,2.45847702,-0.437916994,1.828448057,0.157764003,-0.804050982,-0.683526993,0.720512986,0.161280006,-1.261239052,1.152760029,0.323585987,-1.147078991,0.83137399,-0.331880987,-0.612821996,1.246387005,-0.174077004,0.225246996,0.024784001,0.331274986,0.033652,-0.213771999,-1.263484001,-1.263713002,1.315919042,-0.771314025,-1.574947953,0.093676001,-0.78697902,-2.789561033,1.233505011,-0.356476009,0.944796979,0.349550992,0.946592987,0.141206995,-1.256775022,0.067032002,-1.306403041,-0.119153,1.057921052,1.580829978,0.963319004,0.304426014,-0.016480001,0.280445993,1.197780967,0.313944012,0.156874999,0.368804991
成,0.201679006,0.694278002,0.256987989,-0.905920029,-1.312615991,0.892831981,-0.884747982,-0.87291801,1.383370996,-2.365729094,-1.795675039,-0.533918023,-1.404273987,0.994243026,0.514165998,0.315840006,0.368257999,0.996890008,-0.263029009,-1.191635966,-1.49555099,-2.256880045,1.372730017,-0.307137996,-0.207454994,1.561849952,0.98032099,-0.071091004,1.344915986,1.510750055,-0.716175973,0.150179997,1.678442955,-1.276381016,0.188557997,0.356586009,-1.43632102,-1.282902956,-2.437130928,0.235510007,-0.202471003,-0.518118978,0.368836999,-1.296013951,0.520641029,0.784493983,-0.552084982,-2.020823956,-1.161713004,-0.316017002,0.556441009,-2.450598001,-0.577629983,1.350072026,0.809511006,-0.338481009,0.906683981,1.988535047,-0.366800994,0.959384978,-0.942515016,0.131685004,0.746792018,0.443984985,1.224953055,-0.988479972,-2.252331018,0.971145988,0.203266993,0.66319102,0.565994024,-0.689453006,-0.707144976,1.062178016,0.781517029,-0.640403986,1.886711001,0.359416991,1.18425703,1.578593969,0.145560995,-1.107115984,-0.773055971,-1.168501973,2.207910061,-1.006589055,0.254774988,0.250797004,1.11630404,0.834403992,0.188692003,-0.585507989,-0.005787,-0.447052985,-2.269185066,0.176237002,-0.863785028,-0.891425014,0.752344012,-0.998486996,0.027902,-0.284619987,1.467625976,2.018547058,-0.972661972,-0.069945,1.695104957,-0.82102102,-0.038125001,-1.239089012,-0.008052,0.822273016,-0.362616986,0.590737998,0.680611014,2.415782928,-0.409588993,-0.875555992,-2.364737034,1.340098977,0.493734002,-0.300603986,1.639457941,0.089587003,0.629435003,-1.042479992,-0.344242007,-1.095741034,0.475941002,0.131977007,0.589033008,-0.347577989,-0.170270994,-0.645192981,-0.357695997,-1.363562942,-1.295907021,0.362670988,0.298234999,0.901848018,-0.186229005,1.53532505,-2.636682987,-0.915364981,0.670946002,-0.374345988,-1.381505013,-0.402291,-0.866367996,-0.515739977,-0.232878998,0.383536011,1.769021988,1.968032956,-0.384552985,1.394058943,0.006647,-0.286931008,0.526896,-1.111017942,1.419196963,1.27697897,-0.009919,-1.526124954,-0.344020009,-0.282382995,0.07423,-1.718703032,0.675342977,0.657994986,-1.511489987,-0.526244998,-0.246388003,0.299923003,1.08833003,0.190378994,0.695282996,0.672008991,-2.041382074,1.252681017,-0.744913995,-1.572278023,1.904378057,-0.529066026,-1.170189023,0.405562997,-0.410014987,1.676321983,2.424685955,0.348197013,0.645245016,2.461265087,-0.522459984,1.628149986,-1.256984949,-0.772490978,-1.531059027,-1.129142046,1.949211955,0.136685997,3.075934887,-2.28293395,-0.344747007,-1.638244033,0.749417007,0.304764003,0.404567987,-1.678485036,-1.139350057,-0.398808986,1.376840949,-0.193936005,1.451185942,-0.198987007,1.535429001,-1.554905057,0.464469999,-1.397711039,-0.546019018,-1.224161983,3.354796886,-2.85373807,0.744542003,0.325222999,-0.176366001,1.688532948,-0.507622004,-0.793504,-1.044080973,-3.51662302,0.607439995,0.912211001,0.84245199,1.754827023,-0.456120998,-0.193237007,0.786412001,1.813539982,-0.321705997,-0.414871007,-0.480540991,0.093246996,0.135296002,1.983687997,0.744593024,-1.164536953,0.024543,0.194217995,1.242027998,-0.959496975,0.869912028,1.472911954,0.604942977,-0.674036026,-0.058733001,-0.813251972,-0.932426989,-0.051915001,1.205171943,3.144355059,-1.268031001,-0.675140977,-1.405534983,-1.580757022,-0.777768016,-0.660324991,0.372052014,-1.419500947,-1.494073987,-0.057464,0.960147977,0.504220009,-2.294941902,0.044514999,-2.311978102,0.552392006,-0.592907012,-1.080389023,-0.224046007,-0.702711999,1.792340994,2.023536921,-0.553269029,3.464658976,-0.874119997,1.415570974,-0.754485011,-1.098577976,-0.151060998,0.585420012,0.524742007,0.78946799,-1.789659023,0.766162992,-0.154177994,-1.181985021,0.678261995,0.645825982,-0.918057978,0.811855018,0.081495002,-0.56735301,0.767090976,0.638592005,1.332970023,2.219789982,1.668591976,-1.047140002,0.526996017,0.540556014,-1.070160985,0.463573009,1.845263958,-1.919834971,-0.353617996,0.682264984,-1.718502998,0.114569001,-0.305875003,0.731436014,0.00756,0.403124005,-1.678398013,-1.059977055,-1.788174033,-2.712116003,-0.043405,0.131992996,-1.199115038,-0.649854004,-3.006896973,-0.879199982,-0.081175998,0.697300971,-1.064437032,0.736432016,-0.481801987,0.845417023,-1.278149009,-0.926764011,-1.024397016,0.242013007,-0.436773002,-1.338361025,0.924853981,-1.010522962,0.474233001,0.583512008,0.59157902,1.243273973,-0.705881,-0.489670992,1.419095039,1.670768976,0.664855003,-2.204293966,-0.169680998,1.342208028,-1.353644013,0.322577,1.972247958,0.964446008,1.295912027,0.157757998,1.967110991,-1.771450043,-0.513899982,1.820253015,1.028182983,-0.199441999,-1.189684033,-0.478356004,-0.228890002,0.879575014,0.378524989,-2.057616949,0.530000985,2.123042107,-0.391968012,-1.465505958,0.771098018,-2.184429884,0.670870006,-1.376245975,0.344283998,2.237875938,0.46945399,-0.347247005,-0.257539004,0.120674998,1.651419997,-0.383821011,1.424540043,1.073071003,1.582633972,-1.609519959,-0.300915986,0.082872003,-1.645923972,-0.60263598,?0.201679006219,0.694278002,0.256987989,-0.905920029,-1.312615991,0.892831981,-0.884747982,-0.87291801,1.383370996,-2.365729094,-1.795675039,-0.533918023,-1.404273987,0.994243026,0.514165998,0.315840006,0.368257999,0.996890008,-0.263029009,-1.191635966,-1.49555099,-2.256880045,1.372730017,-0.307137996,-0.207454994,1.561849952,0.98032099,-0.071091004,1.344915986,1.510750055,-0.716175973,0.150179997,1.678442955,-1.276381016,0.188557997,0.356586009,-1.43632102,-1.282902956,-2.437130928,0.235510007,-0.202471003,-0.518118978,0.368836999,-1.296013951,0.520641029,0.784493983,-0.552084982,-2.020823956,-1.161713004,-0.316017002,0.556441009,-2.450598001,-0.577629983,1.350072026,0.809511006,-0.338481009,0.906683981,1.988535047,-0.366800994,0.959384978,-0.942515016,0.131685004,0.746792018,0.443984985,1.224953055,-0.988479972,-2.252331018,0.971145988,0.203266993,0.66319102,0.565994024,-0.689453006,-0.707144976,1.062178016,0.781517029,-0.640403986,1.886711001,0.359416991,1.18425703,1.578593969,0.145560995,-1.107115984,-0.773055971,-1.168501973,2.207910061,-1.006589055,0.254774988,0.250797004,1.11630404,0.834403992,0.188692003,-0.585507989,-0.005787,-0.447052985,-2.269185066,0.176237002,-0.863785028,-0.891425014,0.752344012,-0.998486996,0.027902,-0.284619987,1.467625976,2.018547058,-0.972661972,-0.069945,1.695104957,-0.82102102,-0.038125001,-1.239089012,-0.008052,0.822273016,-0.362616986,0.590737998,0.680611014,2.415782928,-0.409588993,-0.875555992,-2.364737034,1.340098977,0.493734002,-0.300603986,1.639457941,0.089587003,0.629435003,-1.042479992,-0.344242007,-1.095741034,0.475941002,0.131977007,0.589033008,-0.347577989,-0.170270994,-0.645192981,-0.357695997,-1.363562942,-1.295907021,0.362670988,0.298234999,0.901848018,-0.186229005,1.53532505,-2.636682987,-0.915364981,0.670946002,-0.374345988,-1.381505013,-0.402291,-0.866367996,-0.515739977,-0.232878998,0.383536011,1.769021988,1.968032956,-0.384552985,1.394058943,0.006647,-0.286931008,0.526896,-1.111017942,1.419196963,1.27697897,-0.009919,-1.526124954,-0.344020009,-0.282382995,0.07423,-1.718703032,0.675342977,0.657994986,-1.511489987,-0.526244998,-0.246388003,0.299923003,1.08833003,0.190378994,0.695282996,0.672008991,-2.041382074,1.252681017,-0.744913995,-1.572278023,1.904378057,-0.529066026,-1.170189023,0.405562997,-0.410014987,1.676321983,2.424685955,0.348197013,0.645245016,2.461265087,-0.522459984,1.628149986,-1.256984949,-0.772490978,-1.531059027,-1.129142046,1.949211955,0.136685997,3.075934887,-2.28293395,-0.344747007,-1.638244033,0.749417007,0.304764003,0.404567987,-1.678485036,-1.139350057,-0.398808986,1.376840949,-0.193936005,1.451185942,-0.198987007,1.535429001,-1.554905057,0.464469999,-1.397711039,-0.546019018,-1.224161983,3.354796886,-2.85373807,0.744542003,0.325222999,-0.176366001,1.688532948,-0.507622004,-0.793504,-1.044080973,-3.51662302,0.607439995,0.912211001,0.84245199,1.754827023,-0.456120998,-0.193237007,0.786412001,1.813539982,-0.321705997,-0.414871007,-0.480540991,0.093246996,0.135296002,1.983687997,0.744593024,-1.164536953,0.024543,0.194217995,1.242027998,-0.959496975,0.869912028,1.472911954,0.604942977,-0.674036026,-0.058733001,-0.813251972,-0.932426989,-0.051915001,1.205171943,3.144355059,-1.268031001,-0.675140977,-1.405534983,-1.580757022,-0.777768016,-0.660324991,0.372052014,-1.419500947,-1.494073987,-0.057464,0.960147977,0.504220009,-2.294941902,0.044514999,-2.311978102,0.552392006,-0.592907012,-1.080389023,-0.224046007,-0.702711999,1.792340994,2.023536921,-0.553269029,3.464658976,-0.874119997,1.415570974,-0.754485011,-1.098577976,-0.151060998,0.585420012,0.524742007,0.78946799,-1.789659023,0.766162992,-0.154177994,-1.181985021,0.678261995,0.645825982,-0.918057978,0.811855018,0.081495002,-0.56735301,0.767090976,0.638592005,1.332970023,2.219789982,1.668591976,-1.047140002,0.526996017,0.540556014,-1.070160985,0.463573009,1.845263958,-1.919834971,-0.353617996,0.682264984,-1.718502998,0.114569001,-0.305875003,0.731436014,0.00756,0.403124005,-1.678398013,-1.059977055,-1.788174033,-2.712116003,-0.043405,0.131992996,-1.199115038,-0.649854004,-3.006896973,-0.879199982,-0.081175998,0.697300971,-1.064437032,0.736432016,-0.481801987,0.845417023,-1.278149009,-0.926764011,-1.024397016,0.242013007,-0.436773002,-1.338361025,0.924853981,-1.010522962,0.474233001,0.583512008,0.59157902,1.243273973,-0.705881,-0.489670992,1.419095039,1.670768976,0.664855003,-2.204293966,-0.169680998,1.342208028,-1.353644013,0.322577,1.972247958,0.964446008,1.295912027,0.157757998,1.967110991,-1.771450043,-0.513899982,1.820253015,1.028182983,-0.199441999,-1.189684033,-0.478356004,-0.228890002,0.879575014,0.378524989,-2.057616949,0.530000985,2.123042107,-0.391968012,-1.465505958,0.771098018,-2.184429884,0.670870006,-1.376245975,0.344283998,2.237875938,0.46945399,-0.347247005,-0.257539004,0.120674998,1.651419997,-0.383821011,1.424540043,1.073071003,1.582633972,-1.609519959,-0.300915986,0.082872003,-1.645923972,-0.60263598,
相对,-0.838786006,3.146809101,1.527544022,1.516294003,-0.067975998,0.257679999,1.828575969,-1.22615397,-0.558672011,0.355654001,-0.121164002,-0.450076997,-2.274080992,-0.637194991,0.226284996,-0.804957986,-0.012546,0.456286013,-0.032035001,-0.932145,-1.098305941,0.303413987,0.086119004,-0.312353998,2.181806087,0.255481005,0.35928899,0.402473003,-0.363398999,1.237089038,1.151857018,-0.148206994,0.538366973,-1.459370017,0.607940972,-0.588729024,0.116567999,-0.083710998,-0.392675996,1.716964006,-0.64130801,-0.110523999,-0.738102973,0.499668002,0.78224802,-0.006938,-0.357389987,-1.358173013,0.470245987,1.047055006,0.478309005,0.220556006,0.275220007,0.78183198,-1.001822948,-0.245599002,0.940539002,0.460065991,-1.69710505,1.283151031,0.049346,-1.276134014,1.647891998,-1.000440001,-1.195480943,0.293356001,-0.904175997,0.626012027,1.661175966,0.885329008,0.362029999,-0.957058012,0.54460299,1.352782965,-0.863192022,-0.52432698,2.762145042,-0.777621984,2.300421,0.155368999,-1.256171942,1.113387942,-0.598514974,0.319296002,1.60514605,0.952262998,1.58225596,-0.472481996,0.702926993,-1.387794018,0.365660995,-1.620383024,-1.742359042,2.021929026,0.419739991,-1.444964051,-1.449502945,1.963248014,0.548094988,0.402482003,0.184167996,2.151804924,-0.378066003,0.865580022,0.181771994,-0.704096973,1.275218964,1.320713043,-0.524649978,-0.398416996,2.61984396,-0.641586006,1.063879967,-0.810851991,1.505692005,1.190526962,0.495644987,0.106526002,-0.152740002,-0.707346022,0.778452992,-1.008795023,-0.451700985,0.080874003,0.133719996,0.297594011,-1.385622025,-0.805326998,2.419734001,0.566931009,0.531017005,0.048652999,-0.840833008,1.788125038,2.224591017,0.090204,0.814593971,0.254617006,0.727729023,0.314583004,1.355206966,-0.983044982,-1.169314027,-0.728219986,-0.567413986,-0.832408011,-0.207789004,0.102297999,-1.456604958,0.250955999,1.574429035,-1.090975046,-0.456939995,0.499514014,2.731060982,0.097039998,0.355987996,-0.322461009,-0.240366995,-1.295750976,-0.610014975,-1.961022973,1.399253964,-1.105015039,-0.280840993,0.736845016,-1.801072001,-0.966009021,-1.830924034,0.255192995,-0.369571,-1.177631974,1.375987053,1.959349036,-0.194279,0.653029978,1.17602098,0.823472977,-0.029451,1.35156405,0.224868998,1.269544005,1.468940973,0.183819994,0.266000003,0.398968011,0.231121004,0.615786016,-0.894922018,1.09879899,0.421523988,-0.475850999,2.765073061,1.379626989,1.18552196,-0.440005004,-0.301710993,0.267286986,1.059978962,-0.619475007,-0.822798014,-0.575223029,-1.062463999,-0.711232007,-0.77680999,2.282114029,-0.391290992,1.269497991,-0.297899008,1.002938032,-0.107052997,-1.271060944,1.104967952,-1.107759953,1.546535015,1.276240945,0.012225,1.272467971,-2.206047058,0.95617801,-1.338060975,1.050171018,2.109209061,0.982222974,-0.855901003,-0.794220984,0.014926,0.011926,-1.982377052,-1.389565945,-1.197955966,-0.207049996,-0.440750986,-0.891664028,1.989261985,0.487670988,-1.000833035,-1.186452985,-0.923493028,2.196096897,-0.061487999,-0.048822999,0.227630004,0.851706028,-0.564792991,-1.041111946,0.010748,-1.326894999,-1.484596014,-0.059843998,-1.462262988,0.944922984,0.573525012,0.619621992,0.01718,0.414144993,0.274232,-0.238802001,1.636708021,0.661269009,0.421169013,0.094099,-0.750455022,1.343407035,-0.952310979,-1.477838039,-2.429156065,1.175855994,0.337484002,0.177285001,1.332620025,-0.245988995,-0.578404009,0.608961999,1.223305941,1.492287993,-0.321137011,-1.133975029,-1.119325995,-0.639986992,-0.232975006,-2.064997911,0.403425992,-0.078086004,1.16181004,0.202813998,-0.646112025,-1.112365007,1.373000979,0.017127,-1.364199042,-1.005260944,-0.93848902,-1.942528009,2.101795912,0.38458699,0.184636995,1.287009001,-0.470393002,-2.328840971,-2.17248106,-0.434919,-1.235703945,0.611895978,-0.169844002,0.251401007,-0.691781998,0.050330002,-1.602671981,1.279139042,-0.554273009,-0.463919997,0.864832997,-0.356316,-0.934449971,2.291177988,-1.28787601,0.694944024,1.850924015,1.203166962,-0.511318982,0.349157006,-1.571535945,0.136188,-0.741820991,-0.578806996,-1.612447977,0.282949001,-0.583442986,0.320389003,0.251628995,-0.207268998,-1.205217004,-0.625585973,1.915014982,0.237540007,0.091769002,-0.453424007,-0.423994988,1.294788003,0.852370024,2.27156806,1.709527016,1.095643044,0.812044024,0.333027005,0.676635981,2.263320923,0.423272997,-1.86955595,0.813117981,-0.487875998,0.831129014,-0.435690999,-0.278447986,-0.327755988,0.180879995,-0.053817999,-1.56833601,-0.604426026,1.560639024,-2.202734947,0.125829995,-1.376682997,1.669533014,-1.975942016,-0.517916977,-0.864866018,0.358830005,-1.696259975,-0.699778974,0.871659994,-0.093248002,-0.328557998,-1.080325961,-2.020456076,-0.782881975,0.404186994,-0.541845977,-0.277774006,0.333361,1.774984956,0.919323981,0.176039994,2.034537077,-1.328431964,1.606560946,0.629141986,-0.302475005,0.543582022,2.345340967,0.901292026,0.544764996,0.026822001,1.858538032,-0.568809986,1.942885995,-0.668327987,2.231132984,-0.34067899,稿,-0.838786006,3.146809101,1.527544022,1.516294003,-0.067975998,0.257679999,1.828575969,-1.22615397,-0.558672011,0.355654001,-0.121164002,-0.450076997,-2.274080992,-0.637194991,0.226284996,-0.804957986,-0.012546,0.456286013,-0.032035001,-0.932145,-1.098305941,0.303413987,0.086119004,-0.312353998,2.181806087,0.255481005,0.35928899,0.402473003,-0.363398999,1.237089038,1.151857018,-0.148206994,0.538366973,-1.459370017,0.607940972,-0.588729024,0.116567999,-0.083710998,-0.392675996,1.716964006,-0.64130801,-0.110523999,-0.738102973,0.499668002,0.78224802,-0.006938,-0.357389987,-1.358173013,0.470245987,1.047055006,0.478309005,0.220556006,0.275220007,0.78183198,-1.001822948,-0.245599002,0.940539002,0.460065991,-1.69710505,1.283151031,0.049346,-1.276134014,1.647891998,-1.000440001,-1.195480943,0.293356001,-0.904175997,0.626012027,1.661175966,0.885329008,0.362029999,-0.957058012,0.54460299,1.352782965,-0.863192022,-0.52432698,2.762145042,-0.777621984,2.300421,0.155368999,-1.256171942,1.113387942,-0.598514974,0.319296002,1.60514605,0.952262998,1.58225596,-0.472481996,0.702926993,-1.387794018,0.365660995,-1.620383024,-1.742359042,2.021929026,0.419739991,-1.444964051,-1.449502945,1.963248014,0.548094988,0.402482003,0.184167996,2.151804924,-0.378066003,0.865580022,0.181771994,-0.704096973,1.275218964,1.320713043,-0.524649978,-0.398416996,2.61984396,-0.641586006,1.063879967,-0.810851991,1.505692005,1.190526962,0.495644987,0.106526002,-0.152740002,-0.707346022,0.778452992,-1.008795023,-0.451700985,0.080874003,0.133719996,0.297594011,-1.385622025,-0.805326998,2.419734001,0.566931009,0.531017005,0.048652999,-0.840833008,1.788125038,2.224591017,0.090204,0.814593971,0.254617006,0.727729023,0.314583004,1.355206966,-0.983044982,-1.169314027,-0.728219986,-0.567413986,-0.832408011,-0.207789004,0.102297999,-1.456604958,0.250955999,1.574429035,-1.090975046,-0.456939995,0.499514014,2.731060982,0.097039998,0.355987996,-0.322461009,-0.240366995,-1.295750976,-0.610014975,-1.961022973,1.399253964,-1.105015039,-0.280840993,0.736845016,-1.801072001,-0.966009021,-1.830924034,0.255192995,-0.369571,-1.177631974,1.375987053,1.959349036,-0.194279,0.653029978,1.17602098,0.823472977,-0.029451,1.35156405,0.224868998,1.269544005,1.468940973,0.183819994,0.266000003,0.398968011,0.231121004,0.615786016,-0.894922018,1.09879899,0.421523988,-0.475850999,2.765073061,1.379626989,1.18552196,-0.440005004,-0.301710993,0.267286986,1.059978962,-0.619475007,-0.822798014,-0.575223029,-1.062463999,-0.711232007,-0.77680999,2.282114029,-0.391290992,1.269497991,-0.297899008,1.002938032,-0.107052997,-1.271060944,1.104967952,-1.107759953,1.546535015,1.276240945,0.012225,1.272467971,-2.206047058,0.95617801,-1.338060975,1.050171018,2.109209061,0.982222974,-0.855901003,-0.794220984,0.014926,0.011926,-1.982377052,-1.389565945,-1.197955966,-0.207049996,-0.440750986,-0.891664028,1.989261985,0.487670988,-1.000833035,-1.186452985,-0.923493028,2.196096897,-0.061487999,-0.048822999,0.227630004,0.851706028,-0.564792991,-1.041111946,0.010748,-1.326894999,-1.484596014,-0.059843998,-1.462262988,0.944922984,0.573525012,0.619621992,0.01718,0.414144993,0.274232,-0.238802001,1.636708021,0.661269009,0.421169013,0.094099,-0.750455022,1.343407035,-0.952310979,-1.477838039,-2.429156065,1.175855994,0.337484002,0.177285001,1.332620025,-0.245988995,-0.578404009,0.608961999,1.223305941,1.492287993,-0.321137011,-1.133975029,-1.119325995,-0.639986992,-0.232975006,-2.064997911,0.403425992,-0.078086004,1.16181004,0.202813998,-0.646112025,-1.112365007,1.373000979,0.017127,-1.364199042,-1.005260944,-0.93848902,-1.942528009,2.101795912,0.38458699,0.184636995,1.287009001,-0.470393002,-2.328840971,-2.17248106,-0.434919,-1.235703945,0.611895978,-0.169844002,0.251401007,-0.691781998,0.050330002,-1.602671981,1.279139042,-0.554273009,-0.463919997,0.864832997,-0.356316,-0.934449971,2.291177988,-1.28787601,0.694944024,1.850924015,1.203166962,-0.511318982,0.349157006,-1.571535945,0.136188,-0.741820991,-0.578806996,-1.612447977,0.282949001,-0.583442986,0.320389003,0.251628995,-0.207268998,-1.205217004,-0.625585973,1.915014982,0.237540007,0.091769002,-0.453424007,-0.423994988,1.294788003,0.852370024,2.27156806,1.709527016,1.095643044,0.812044024,0.333027005,0.676635981,2.263320923,0.423272997,-1.86955595,0.813117981,-0.487875998,0.831129014,-0.435690999,-0.278447986,-0.327755988,0.180879995,-0.053817999,-1.56833601,-0.604426026,1.560639024,-2.202734947,0.125829995,-1.376682997,1.669533014,-1.975942016,-0.517916977,-0.864866018,0.358830005,-1.696259975,-0.699778974,0.871659994,-0.093248002,-0.328557998,-1.080325961,-2.020456076,-0.782881975,0.404186994,-0.541845977,-0.277774006,0.333361,1.774984956,0.919323981,0.176039994,2.034537077,-1.328431964,1.606560946,0.629141986,-0.302475005,0.543582022,2.345340967,0.901292026,0.544764996,0.026822001,1.858538032,-0.568809986,1.942885995,-0.668327987,2.231132984,-0.34067899
数值,0.682594001,-0.315063,0.985117972,0.683827996,0.932841003,-0.112461999,0.100183003,-1.359382987,-0.410041004,-0.540035009,-0.361701995,1.938004017,-1.444985986,0.023086,-1.166283011,-0.289777011,-0.765868008,-0.447600007,0.925835013,-1.345985055,0.147220001,0.271658987,-0.597765028,-0.662320018,1.375102043,0.077476002,0.28806299,0.432435989,-1.384004951,-0.399111003,0.073826998,-0.427843004,1.377647042,0.423337013,0.867072999,0.279094011,1.01702404,-0.472097993,0.100644998,0.617578983,1.969347,1.130905986,-2.327403069,-1.453384042,-0.649011016,-1.449609041,-0.884860992,-0.253499001,0.690680981,0.072137997,-1.142503977,-0.750298023,-0.094457999,2.486249924,-0.132581994,0.527707994,0.072411999,-2.122855902,-0.625738025,-0.418767989,0.543582976,1.162639976,0.482589006,-0.301346004,-0.435357004,-0.329959005,-0.362262994,-1.679556012,0.643525004,-1.731825948,-0.398788989,-0.320537001,0.193915993,1.050315022,-0.251493007,0.754395008,1.466102958,0.621825993,-0.274212003,0.413327008,-0.302478999,-1.852079988,-0.063465998,0.772370994,-0.555204988,-0.300532997,-0.824333012,-1.761518002,2.141073942,-0.868264019,1.808274984,-1.320665002,-0.497117996,-0.505680978,0.768719971,-0.028811,-0.649542987,1.508381963,0.25248301,0.52640897,0.432446003,0.63340199,-1.187018991,0.413619012,2.461127043,-1.266682982,0.716624975,1.077010036,-0.143452004,-0.898317993,2.308696032,-1.242648005,0.845616996,-0.887066007,-1.502225995,2.357470036,1.475000024,-0.302758008,0.013218,1.391785026,1.27038002,-1.512887001,0.609727979,-0.554156005,-0.797104001,0.991259992,-0.681604028,-1.339380026,-1.248146057,1.880993962,0.790089011,0.852306008,0.402700007,0.323808014,-0.004452,0.063853003,0.870929003,-0.223706007,-0.205541,-0.060568001,2.39111495,0.171433002,-0.051123001,-0.097984001,-0.163622007,-0.943149984,0.254512995,0.447825015,-0.867353022,-2.791759968,1.622817039,0.266194999,1.362251997,-0.280184001,0.775620997,-0.104860999,-1.181951046,1.105759978,-1.71458602,0.186529994,0.640332997,-1.209378958,-0.047145002,-1.325731993,-0.0005,0.761619985,-2.10906291,1.395800948,-0.327883005,-0.000714,-0.210292995,-0.744201005,0.407662004,-1.254101992,-1.138476014,1.793899059,1.820611954,1.62867403,-0.468921006,-0.102055997,-2.450592041,0.497029006,-0.326555997,-0.469484001,-0.290004998,0.340184003,0.137759,-1.020539045,0.814315975,0.380297005,1.005182028,-0.157330006,0.555939019,1.028455973,0.269546986,0.064033002,-0.858214974,-0.658390999,1.511448026,0.565053999,0.866985023,1.427876949,-2.280028105,0.297286004,-0.074565001,0.328258008,-0.227741003,2.064326048,-0.897346973,2.288660049,-0.977549016,-0.343699992,1.598672032,-1.072414041,0.969402015,-0.349408001,-2.018405914,0.969601989,-0.657898009,-0.527484,0.01494,1.226971984,1.325379014,-0.776799977,0.696434021,-1.018646002,0.688480973,-0.248574004,0.041684002,-0.40426901,-0.072577,1.650174022,-0.168402001,-1.320484042,1.499685049,0.538716972,-0.078442998,1.387526035,-0.628866017,-1.641507983,-0.966471016,2.013407946,-0.292299002,-0.655647993,-1.111778975,-2.220155001,1.073752046,-0.438216001,-0.771377027,-0.341641009,-0.030813999,0.866080999,0.071416996,0.401535988,-0.812798977,-0.547397971,0.724335015,-0.924763024,1.279348016,0.900846004,-1.285321951,-0.016454,1.984688997,-0.457673997,-0.170368001,0.113678001,-0.700227022,1.500888944,-0.912096977,0.030874999,-0.772230029,-1.073982954,-1.017827034,0.706126988,0.288562,0.879359007,-1.180799007,-0.681060016,1.70896101,0.239558995,0.082332,-0.212992996,-0.994265974,-1.420753002,1.595095038,0.645608008,-0.584197998,-0.011166,-0.741219997,0.536974013,-1.036888003,0.005653,-2.340497017,0.121335,1.059700966,0.95134902,2.22159791,1.014536977,-0.689225972,0.033925999,-0.55310303,-0.365348995,-0.303557992,2.501667023,0.039009001,-0.175560996,0.27711001,-0.115918003,-0.191504002,0.879195988,-0.459131986,0.287396997,0.182987005,-0.454463005,0.022399001,0.781479001,0.231395006,1.586346984,1.849323034,0.267053992,-0.667984009,-0.103955999,-1.540904999,0.820819974,-0.066436,0.535544991,-0.086787,-0.511649013,-0.487002999,-0.082254998,-0.149692997,-0.39853701,-0.137573004,-0.138576001,1.181192994,-0.064002998,1.242403984,0.948000014,0.507565975,0.24684,0.807323992,1.587682009,0.043791,-0.706758022,-0.226265997,0.768073976,0.643373013,0.737464011,0.625193,0.103843004,-1.734604001,-0.766282022,1.148656011,0.132616997,-0.415084004,-0.605508983,-0.285953999,-0.176197007,-1.334202051,0.31328699,0.669488013,-0.320062995,-0.614274979,-0.023460001,0.019156,-1.158205986,-0.619231999,0.850502014,0.382743001,-0.677497029,0.89111501,0.244424999,0.135530993,0.435573012,-1.077270031,-0.827251017,-0.800127983,-0.212796003,-1.288051009,1.664028049,0.127939999,1.576043963,1.080597997,-0.506397009,-0.479483008,-2.172527075,0.474323988,-1.203814983,-1.122648954,0.859826982,-0.248218,0.415663987,-0.930329025,-1.794999003,-0.71983701,-2.045886993,1.750808954,-0.870356977,0.682965994,1.282197952,板?0.682594001293,-0.315063,0.985117972,0.683827996,0.932841003,-0.112461999,0.100183003,-1.359382987,-0.410041004,-0.540035009,-0.361701995,1.938004017,-1.444985986,0.023086,-1.166283011,-0.289777011,-0.765868008,-0.447600007,0.925835013,-1.345985055,0.147220001,0.271658987,-0.597765028,-0.662320018,1.375102043,0.077476002,0.28806299,0.432435989,-1.384004951,-0.399111003,0.073826998,-0.427843004,1.377647042,0.423337013,0.867072999,0.279094011,1.01702404,-0.472097993,0.100644998,0.617578983,1.969347,1.130905986,-2.327403069,-1.453384042,-0.649011016,-1.449609041,-0.884860992,-0.253499001,0.690680981,0.072137997,-1.142503977,-0.750298023,-0.094457999,2.486249924,-0.132581994,0.527707994,0.072411999,-2.122855902,-0.625738025,-0.418767989,0.543582976,1.162639976,0.482589006,-0.301346004,-0.435357004,-0.329959005,-0.362262994,-1.679556012,0.643525004,-1.731825948,-0.398788989,-0.320537001,0.193915993,1.050315022,-0.251493007,0.754395008,1.466102958,0.621825993,-0.274212003,0.413327008,-0.302478999,-1.852079988,-0.063465998,0.772370994,-0.555204988,-0.300532997,-0.824333012,-1.761518002,2.141073942,-0.868264019,1.808274984,-1.320665002,-0.497117996,-0.505680978,0.768719971,-0.028811,-0.649542987,1.508381963,0.25248301,0.52640897,0.432446003,0.63340199,-1.187018991,0.413619012,2.461127043,-1.266682982,0.716624975,1.077010036,-0.143452004,-0.898317993,2.308696032,-1.242648005,0.845616996,-0.887066007,-1.502225995,2.357470036,1.475000024,-0.302758008,0.013218,1.391785026,1.27038002,-1.512887001,0.609727979,-0.554156005,-0.797104001,0.991259992,-0.681604028,-1.339380026,-1.248146057,1.880993962,0.790089011,0.852306008,0.402700007,0.323808014,-0.004452,0.063853003,0.870929003,-0.223706007,-0.205541,-0.060568001,2.39111495,0.171433002,-0.051123001,-0.097984001,-0.163622007,-0.943149984,0.254512995,0.447825015,-0.867353022,-2.791759968,1.622817039,0.266194999,1.362251997,-0.280184001,0.775620997,-0.104860999,-1.181951046,1.105759978,-1.71458602,0.186529994,0.640332997,-1.209378958,-0.047145002,-1.325731993,-0.0005,0.761619985,-2.10906291,1.395800948,-0.327883005,-0.000714,-0.210292995,-0.744201005,0.407662004,-1.254101992,-1.138476014,1.793899059,1.820611954,1.62867403,-0.468921006,-0.102055997,-2.450592041,0.497029006,-0.326555997,-0.469484001,-0.290004998,0.340184003,0.137759,-1.020539045,0.814315975,0.380297005,1.005182028,-0.157330006,0.555939019,1.028455973,0.269546986,0.064033002,-0.858214974,-0.658390999,1.511448026,0.565053999,0.866985023,1.427876949,-2.280028105,0.297286004,-0.074565001,0.328258008,-0.227741003,2.064326048,-0.897346973,2.288660049,-0.977549016,-0.343699992,1.598672032,-1.072414041,0.969402015,-0.349408001,-2.018405914,0.969601989,-0.657898009,-0.527484,0.01494,1.226971984,1.325379014,-0.776799977,0.696434021,-1.018646002,0.688480973,-0.248574004,0.041684002,-0.40426901,-0.072577,1.650174022,-0.168402001,-1.320484042,1.499685049,0.538716972,-0.078442998,1.387526035,-0.628866017,-1.641507983,-0.966471016,2.013407946,-0.292299002,-0.655647993,-1.111778975,-2.220155001,1.073752046,-0.438216001,-0.771377027,-0.341641009,-0.030813999,0.866080999,0.071416996,0.401535988,-0.812798977,-0.547397971,0.724335015,-0.924763024,1.279348016,0.900846004,-1.285321951,-0.016454,1.984688997,-0.457673997,-0.170368001,0.113678001,-0.700227022,1.500888944,-0.912096977,0.030874999,-0.772230029,-1.073982954,-1.017827034,0.706126988,0.288562,0.879359007,-1.180799007,-0.681060016,1.70896101,0.239558995,0.082332,-0.212992996,-0.994265974,-1.420753002,1.595095038,0.645608008,-0.584197998,-0.011166,-0.741219997,0.536974013,-1.036888003,0.005653,-2.340497017,0.121335,1.059700966,0.95134902,2.22159791,1.014536977,-0.689225972,0.033925999,-0.55310303,-0.365348995,-0.303557992,2.501667023,0.039009001,-0.175560996,0.27711001,-0.115918003,-0.191504002,0.879195988,-0.459131986,0.287396997,0.182987005,-0.454463005,0.022399001,0.781479001,0.231395006,1.586346984,1.849323034,0.267053992,-0.667984009,-0.103955999,-1.540904999,0.820819974,-0.066436,0.535544991,-0.086787,-0.511649013,-0.487002999,-0.082254998,-0.149692997,-0.39853701,-0.137573004,-0.138576001,1.181192994,-0.064002998,1.242403984,0.948000014,0.507565975,0.24684,0.807323992,1.587682009,0.043791,-0.706758022,-0.226265997,0.768073976,0.643373013,0.737464011,0.625193,0.103843004,-1.734604001,-0.766282022,1.148656011,0.132616997,-0.415084004,-0.605508983,-0.285953999,-0.176197007,-1.334202051,0.31328699,0.669488013,-0.320062995,-0.614274979,-0.023460001,0.019156,-1.158205986,-0.619231999,0.850502014,0.382743001,-0.677497029,0.89111501,0.244424999,0.135530993,0.435573012,-1.077270031,-0.827251017,-0.800127983,-0.212796003,-1.288051009,1.664028049,0.127939999,1.576043963,1.080597997,-0.506397009,-0.479483008,-2.172527075,0.474323988,-1.203814983,-1.122648954,0.859826982,-0.248218,0.415663987,-0.930329025,-1.794999003,-0.71983701,-2.045886993,1.750808954,-0.870356977,0.682965994,1.282197952,
