word,0,1,2,3,4,5,6,7,8,9,10,11,12,13,14,15,16,17,18,19,20,21,22,23,24,25,26,27,28,29,30,31,32,33,34,35,36,37,38,39,40,41,42,43,44,45,46,47,48,49,50,51,52,53,54,55,56,57,58,59,60,61,62,63,64,65,66,67,68,69,70,71,72,73,74,75,76,77,78,79,80,81,82,83,84,85,86,87,88,89,90,91,92,93,94,95,96,97,98,99,100,101,102,103,104,105,106,107,108,109,110,111,112,113,114,115,116,117,118,119,120,121,122,123,124,125,126,127,128,129,130,131,132,133,134,135,136,137,138,139,140,141,142,143,144,145,146,147,148,149,150,151,152,153,154,155,156,157,158,159,160,161,162,163,164,165,166,167,168,169,170,171,172,173,174,175,176,177,178,179,180,181,182,183,184,185,186,187,188,189,190,191,192,193,194,195,196,197,198,199,200,201,202,203,204,205,206,207,208,209,210,211,212,213,214,215,216,217,218,219,220,221,222,223,224,225,226,227,228,229,230,231,232,233,234,235,236,237,238,239,240,241,242,243,244,245,246,247,248,249,250,251,252,253,254,255,256,257,258,259,260,261,262,263,264,265,266,267,268,269,270,271,272,273,274,275,276,277,278,279,280,281,282,283,284,285,286,287,288,289,290,291,292,293,294,295,296,297,298,299,300,301,302,303,304,305,306,307,308,309,310,311,312,313,314,315,316,317,318,319,320,321,322,323,324,325,326,327,328,329,330,331,332,333,334,335,336,337,338,339,340,341,342,343,344,345,346,347,348,349,350,351,352,353,354,355,356,357,358,359,360,361,362,363,364,365,366,367,368,369,370,371,372,373,374,375,376,377,378,379,380,381,382,383,384,385,386,387,388,389,390,391,392,393,394,395,396,397,398,399,word,0,1,2,3,4,5,6,7,8,9,10,11,12,13,14,15,16,17,18,19,20,21,22,23,24,25,26,27,28,29,30,31,32,33,34,35,36,37,38,39,40,41,42,43,44,45,46,47,48,49,50,51,52,53,54,55,56,57,58,59,60,61,62,63,64,65,66,67,68,69,70,71,72,73,74,75,76,77,78,79,80,81,82,83,84,85,86,87,88,89,90,91,92,93,94,95,96,97,98,99,100,101,102,103,104,105,106,107,108,109,110,111,112,113,114,115,116,117,118,119,120,121,122,123,124,125,126,127,128,129,130,131,132,133,134,135,136,137,138,139,140,141,142,143,144,145,146,147,148,149,150,151,152,153,154,155,156,157,158,159,160,161,162,163,164,165,166,167,168,169,170,171,172,173,174,175,176,177,178,179,180,181,182,183,184,185,186,187,188,189,190,191,192,193,194,195,196,197,198,199,200,201,202,203,204,205,206,207,208,209,210,211,212,213,214,215,216,217,218,219,220,221,222,223,224,225,226,227,228,229,230,231,232,233,234,235,236,237,238,239,240,241,242,243,244,245,246,247,248,249,250,251,252,253,254,255,256,257,258,259,260,261,262,263,264,265,266,267,268,269,270,271,272,273,274,275,276,277,278,279,280,281,282,283,284,285,286,287,288,289,290,291,292,293,294,295,296,297,298,299,300,301,302,303,304,305,306,307,308,309,310,311,312,313,314,315,316,317,318,319,320,321,322,323,324,325,326,327,328,329,330,331,332,333,334,335,336,337,338,339,340,341,342,343,344,345,346,347,348,349,350,351,352,353,354,355,356,357,358,359,360,361,362,363,364,365,366,367,368,369,370,371,372,373,374,375,376,377,378,379,380,381,382,383,384,385,386,387,388,389,390,391,392,393,394,395,396,397,398,399
定位,-0.801294982,0.744018018,1.071236968,0.260565013,0.466082007,0.801792979,0.521821022,-1.332221031,-0.109015003,1.60205698,-0.178579003,0.585169971,-0.897134006,-0.772570014,-0.280616999,0.409541011,-0.395125985,-1.184702992,-0.435451001,0.085579999,-0.963259995,0.042192001,0.083837003,-0.286550999,1.032562971,-0.344686002,1.026281953,0.131796002,-1.086035967,-1.025828004,0.774380028,0.207937002,0.481979996,-0.360760003,1.731556058,-0.636506975,1.270055056,-1.79232204,1.31417799,0.244145006,0.989187002,0.300612986,0.349236995,0.017856,-0.756545007,1.423480034,0.425990999,-0.463230997,-0.71154201,0.533062994,-0.293395013,0.093172997,0.328592986,0.621674001,-1.407155991,0.058874,1.210906982,0.271198004,-0.413682014,0.248987004,-2.254698038,-1.139937043,-1.931893945,0.319225997,-0.452944994,-0.129219994,-0.135996997,0.978365004,-0.132189006,-0.130808994,-1.588619947,0.227301002,0.662751973,2.010966063,-0.232467994,-0.240659997,0.856639981,-0.367861003,0.588939011,-1.817319989,0.244576007,0.492475986,0.224960998,-0.550018013,0.458840996,1.380838037,-1.836856961,-0.662545979,2.453136921,0.189019993,-0.116897002,-0.123971999,0.133157,-0.949051023,-0.668591976,-0.212850004,0.175899997,0.469231009,-0.609731972,-0.505271971,1.186630011,-0.156803995,1.221349955,0.784180999,0.097347997,-1.405388951,0.339850008,-1.513615966,-0.085525997,-1.88300097,-0.697160006,-1.391016006,-0.551853001,1.074586034,-0.256292999,-1.661329985,1.388721943,-0.836822987,0.352340996,0.809069991,1.059335947,-0.760897994,0.534848988,-0.444723994,-2.063254118,-0.206668004,-2.23103404,-0.211123005,-0.320731014,0.331488013,0.032439999,-0.781683981,-0.001362,0.258309007,-0.564256012,0.923413992,0.175125003,0.518402994,0.430853993,0.531435013,0.098410003,1.03540802,-1.228165984,0.077413,0.29805401,-1.087488055,-1.000617027,-0.333287001,0.64814502,-0.077641003,2.208158016,0.148522004,1.517238021,0.750140011,0.28549701,0.665935993,0.088552997,-1.319298029,-1.250795007,0.130264997,0.454288006,-1.152930021,0.154678002,-1.966341972,-0.665261984,0.669247985,-0.535866976,-0.799547017,1.533123016,0.44866699,-0.996805012,-0.085906997,-0.320558012,-0.226921007,-1.069182992,0.297104001,1.674515963,0.74605,-1.505269051,1.507995963,-0.822335005,0.52048701,1.960554957,0.242550001,-0.770395994,0.269309998,1.578922987,-0.273788005,0.492635012,0.776863992,0.220635995,0.194230005,-0.291749001,0.613972008,-1.552554011,0.808719993,0.621196985,-0.780493975,1.542850971,-0.531727016,1.294911027,-1.737570047,-0.86302501,-0.299052,1.073377013,1.150907993,-0.564906001,1.239258051,0.344974011,1.450306058,0.214939997,-0.528124988,1.08297205,-0.460132986,0.467602015,0.399798989,0.458074987,-0.084283002,-0.615758002,-1.01314497,0.543662012,-0.261088997,0.864965975,-0.193122,-0.384398997,-1.530073047,-0.049396999,-0.658797979,-0.694926977,-1.512771964,0.398472011,-0.562668979,-0.134510994,-2.5184021,1.555187941,-0.737713993,-0.938674986,-0.051683001,0.170885995,-0.135625005,0.628014982,0.485190004,-0.86826098,0.073035002,0.058789998,0.150350004,1.434756994,-1.373100042,0.541374028,-0.957418978,-0.111878999,-0.687044024,-1.047436953,-1.658334017,0.404275,0.884311974,0.311264992,-0.832265973,1.234982967,1.455806017,-1.267281055,0.364232987,-0.269351006,1.097234964,-0.462208003,-0.409087986,-0.347609013,0.117927,-0.138816997,-1.196980953,-0.553170025,-0.438910991,-0.878331006,1.020805955,0.326498002,0.294782996,-0.281401992,0.056097001,1.312384009,0.442564994,0.448911995,0.459450006,1.192116976,0.009371,-0.150451005,-0.159482002,0.053314999,-1.07407105,-0.999513984,0.488110989,-1.291435003,2.229410887,0.590138972,-0.511777997,-0.285506994,-0.056194,1.217507005,1.114171028,0.124380998,-0.121113002,-0.68355,0.223646998,-0.296368986,1.852226973,1.359259963,1.373556018,-0.579421997,0.002284,-1.068981051,0.465799987,-0.503476977,0.401106,0.442795992,-0.625463009,-1.807134986,0.431416988,0.360036999,0.740956008,0.248921007,-1.350576997,0.935862005,-0.011596,-0.256007999,0.756080985,-0.332278997,-0.686129987,-0.108705997,-1.33909595,-0.122832,0.895134985,-0.206303999,-0.050349001,-0.926939011,0.452468991,1.071954966,-0.260838002,0.503454983,1.019379973,-1.081820965,-1.163764954,1.003273964,1.084370017,0.079861999,-0.111519001,1.771780968,0.77354002,-1.195842028,0.242642,0.942475021,0.106420003,0.920850992,-1.449699044,0.470129997,-0.132219002,0.088225998,-0.296187013,0.353026003,0.196557,-1.914875984,0.353170991,0.057085998,-1.450544,-0.319124997,0.840986013,0.910224974,-0.246856004,0.139799997,0.040837999,0.465784013,-0.023988999,0.03331,0.201489002,1.348373055,0.953697979,-0.786346018,-1.082685947,-0.936515987,-0.132578999,-1.417070985,0.137252003,0.070147999,0.461890996,0.18299,1.389858961,1.486935019,-1.307623982,-0.869477987,-0.958912015,-1.069267035,-0.021938,-0.686280012,1.48931098,-0.442005992,-0.184091002,0.028964,-0.288780004,0.787675977,0.876846015,1.157304049,-0.838340998,瀹浣,-0.801294982,0.744018018,1.071236968,0.260565013,0.466082007,0.801792979,0.521821022,-1.332221031,-0.109015003,1.60205698,-0.178579003,0.585169971,-0.897134006,-0.772570014,-0.280616999,0.409541011,-0.395125985,-1.184702992,-0.435451001,0.085579999,-0.963259995,0.042192001,0.083837003,-0.286550999,1.032562971,-0.344686002,1.026281953,0.131796002,-1.086035967,-1.025828004,0.774380028,0.207937002,0.481979996,-0.360760003,1.731556058,-0.636506975,1.270055056,-1.79232204,1.31417799,0.244145006,0.989187002,0.300612986,0.349236995,0.017856,-0.756545007,1.423480034,0.425990999,-0.463230997,-0.71154201,0.533062994,-0.293395013,0.093172997,0.328592986,0.621674001,-1.407155991,0.058874,1.210906982,0.271198004,-0.413682014,0.248987004,-2.254698038,-1.139937043,-1.931893945,0.319225997,-0.452944994,-0.129219994,-0.135996997,0.978365004,-0.132189006,-0.130808994,-1.588619947,0.227301002,0.662751973,2.010966063,-0.232467994,-0.240659997,0.856639981,-0.367861003,0.588939011,-1.817319989,0.244576007,0.492475986,0.224960998,-0.550018013,0.458840996,1.380838037,-1.836856961,-0.662545979,2.453136921,0.189019993,-0.116897002,-0.123971999,0.133157,-0.949051023,-0.668591976,-0.212850004,0.175899997,0.469231009,-0.609731972,-0.505271971,1.186630011,-0.156803995,1.221349955,0.784180999,0.097347997,-1.405388951,0.339850008,-1.513615966,-0.085525997,-1.88300097,-0.697160006,-1.391016006,-0.551853001,1.074586034,-0.256292999,-1.661329985,1.388721943,-0.836822987,0.352340996,0.809069991,1.059335947,-0.760897994,0.534848988,-0.444723994,-2.063254118,-0.206668004,-2.23103404,-0.211123005,-0.320731014,0.331488013,0.032439999,-0.781683981,-0.001362,0.258309007,-0.564256012,0.923413992,0.175125003,0.518402994,0.430853993,0.531435013,0.098410003,1.03540802,-1.228165984,0.077413,0.29805401,-1.087488055,-1.000617027,-0.333287001,0.64814502,-0.077641003,2.208158016,0.148522004,1.517238021,0.750140011,0.28549701,0.665935993,0.088552997,-1.319298029,-1.250795007,0.130264997,0.454288006,-1.152930021,0.154678002,-1.966341972,-0.665261984,0.669247985,-0.535866976,-0.799547017,1.533123016,0.44866699,-0.996805012,-0.085906997,-0.320558012,-0.226921007,-1.069182992,0.297104001,1.674515963,0.74605,-1.505269051,1.507995963,-0.822335005,0.52048701,1.960554957,0.242550001,-0.770395994,0.269309998,1.578922987,-0.273788005,0.492635012,0.776863992,0.220635995,0.194230005,-0.291749001,0.613972008,-1.552554011,0.808719993,0.621196985,-0.780493975,1.542850971,-0.531727016,1.294911027,-1.737570047,-0.86302501,-0.299052,1.073377013,1.150907993,-0.564906001,1.239258051,0.344974011,1.450306058,0.214939997,-0.528124988,1.08297205,-0.460132986,0.467602015,0.399798989,0.458074987,-0.084283002,-0.615758002,-1.01314497,0.543662012,-0.261088997,0.864965975,-0.193122,-0.384398997,-1.530073047,-0.049396999,-0.658797979,-0.694926977,-1.512771964,0.398472011,-0.562668979,-0.134510994,-2.5184021,1.555187941,-0.737713993,-0.938674986,-0.051683001,0.170885995,-0.135625005,0.628014982,0.485190004,-0.86826098,0.073035002,0.058789998,0.150350004,1.434756994,-1.373100042,0.541374028,-0.957418978,-0.111878999,-0.687044024,-1.047436953,-1.658334017,0.404275,0.884311974,0.311264992,-0.832265973,1.234982967,1.455806017,-1.267281055,0.364232987,-0.269351006,1.097234964,-0.462208003,-0.409087986,-0.347609013,0.117927,-0.138816997,-1.196980953,-0.553170025,-0.438910991,-0.878331006,1.020805955,0.326498002,0.294782996,-0.281401992,0.056097001,1.312384009,0.442564994,0.448911995,0.459450006,1.192116976,0.009371,-0.150451005,-0.159482002,0.053314999,-1.07407105,-0.999513984,0.488110989,-1.291435003,2.229410887,0.590138972,-0.511777997,-0.285506994,-0.056194,1.217507005,1.114171028,0.124380998,-0.121113002,-0.68355,0.223646998,-0.296368986,1.852226973,1.359259963,1.373556018,-0.579421997,0.002284,-1.068981051,0.465799987,-0.503476977,0.401106,0.442795992,-0.625463009,-1.807134986,0.431416988,0.360036999,0.740956008,0.248921007,-1.350576997,0.935862005,-0.011596,-0.256007999,0.756080985,-0.332278997,-0.686129987,-0.108705997,-1.33909595,-0.122832,0.895134985,-0.206303999,-0.050349001,-0.926939011,0.452468991,1.071954966,-0.260838002,0.503454983,1.019379973,-1.081820965,-1.163764954,1.003273964,1.084370017,0.079861999,-0.111519001,1.771780968,0.77354002,-1.195842028,0.242642,0.942475021,0.106420003,0.920850992,-1.449699044,0.470129997,-0.132219002,0.088225998,-0.296187013,0.353026003,0.196557,-1.914875984,0.353170991,0.057085998,-1.450544,-0.319124997,0.840986013,0.910224974,-0.246856004,0.139799997,0.040837999,0.465784013,-0.023988999,0.03331,0.201489002,1.348373055,0.953697979,-0.786346018,-1.082685947,-0.936515987,-0.132578999,-1.417070985,0.137252003,0.070147999,0.461890996,0.18299,1.389858961,1.486935019,-1.307623982,-0.869477987,-0.958912015,-1.069267035,-0.021938,-0.686280012,1.48931098,-0.442005992,-0.184091002,0.028964,-0.288780004,0.787675977,0.876846015,1.157304049,-0.838340998
车厢,0.497054994,-0.049339,1.897819996,0.725787997,0.020868,-1.45114398,1.501078963,0.238100007,1.201136947,0.703370988,0.530933022,-0.994075,-1.504426003,-0.841940999,0.56961602,-0.632071972,1.463366032,-0.751125991,0.998829007,-1.337728024,-1.906221032,0.108905002,0.285730988,-2.473083019,1.483816981,0.909784973,-0.845391989,1.165357947,1.156057954,0.745594978,0.559424996,-1.033149958,1.245972037,0.622543991,0.715451002,0.553544998,0.445793986,0.221221,-0.834043026,1.067999005,-0.062208001,-1.398422956,-1.234163046,1.923346996,-0.759001017,0.102525003,-0.324820995,0.068324,1.170295954,1.277019978,-1.100921988,-1.568701029,-0.283318013,-1.291646004,-3.181946993,1.34452796,1.488960028,-0.300085992,-1.890776992,1.508260012,-0.678278983,-0.950228989,-0.117000997,-0.632768989,-0.831345975,1.933495998,-1.129608989,0.294281006,1.302687049,-0.926739991,-0.108560003,0.493519992,0.469509989,1.51759398,0.47278899,1.741899967,0.097126,0.385702997,-1.087631941,3.870950937,1.561810017,-5.006584167,-0.314213991,0.891728997,0.989897013,-2.251729012,-0.249207005,-0.372869998,1.988139033,-0.276098013,0.378536999,1.245105028,-0.236092001,0.419351012,-0.968309999,2.115271091,-0.694216013,1.257483006,0.135603994,0.476556987,0.506071985,1.079234958,1.059669018,2.05923605,-3.230174065,-0.148524001,1.249552965,-0.718026996,0.249482006,1.782583952,-1.027209044,-2.597812891,-1.942039013,0.143316999,-0.083306998,3.080569983,0.371381015,-1.324514985,-1.281327963,3.60670495,0.210492,-0.030368,-1.345484018,-0.833719015,1.466624022,0.220631003,-1.745293021,-0.301431,1.50357604,-1.451792002,-0.397359014,-2.390403032,-0.561728001,1.053189039,-1.362797976,-0.418942988,0.262147993,-0.808216989,0.070045002,-1.678869963,3.227349043,-0.852236986,1.972722054,0.216933995,0.104443997,-0.649671972,-1.037417054,0.369329989,0.180063993,-1.06874299,0.483693004,-0.343901008,-1.480329037,-1.260205984,0.510115981,0.244257003,-1.808372974,1.402001977,0.228044003,1.024250984,1.611314058,-0.580173016,0.266258001,-0.262439996,-0.663163006,0.852612972,-0.938431978,-0.951694012,-0.247435004,-2.614265919,-0.114644997,-1.877297997,1.781730056,0.362075001,1.857928991,1.608955026,0.110945001,0.769064009,1.233497024,0.922793984,0.140297994,0.372446001,-2.555768967,-0.205384001,-0.392827988,0.094761997,-0.009211,0.599505007,-1.081640959,0.236219004,-0.403771996,0.388585001,0.118809998,0.43878299,-0.757377028,-0.141599,2.620397091,-0.440667987,1.183856964,-0.908124983,1.602571011,-2.138302088,0.725494027,-0.100896999,2.070400953,0.650080979,0.006977,0.033507999,-0.892605007,1.016965985,0.494176,1.769901037,1.191298008,-1.75623703,-0.352977991,1.309892058,-1.107417941,-0.30735901,1.501131058,-0.599550009,0.704387009,-1.857457042,2.356215954,0.936372995,1.667714953,3.027894974,0.382595986,1.974282026,0.697326005,-1.212960958,-0.509733021,0.595102012,-0.224590003,-0.549610972,1.271793008,0.694821,-0.423427999,0.734642982,0.157341003,0.504311979,-0.767147005,0.187878996,0.798403025,1.605674982,-0.924166024,-0.182623997,-0.093832999,-0.933153987,-0.531502008,-0.53916198,-1.654819012,1.711670041,0.150762007,0.076117001,0.462891996,0.235185996,1.036254048,0.122674003,1.490510941,0.399367005,-0.579322994,0.83127898,0.085295998,-0.114178002,-0.843729019,-2.845577002,0.103703,0.261577994,-1.751536012,-0.725754023,0.491697013,-1.810160995,-1.042579055,-0.144107997,-0.713365972,0.249815002,-0.563426971,1.517176986,1.046023011,1.259423971,0.271373987,0.369711012,2.282651901,-1.416003942,0.808529019,-1.048652053,-1.215672016,0.990132987,0.372253001,0.994293988,0.674558997,0.608375013,0.193130001,-0.727122009,1.10016799,-1.727218986,2.76930809,0.555917025,-0.297033012,1.11126399,0.199577004,0.112135001,-1.425686955,-0.590701997,0.827817976,2.598323107,-0.618498981,-1.94678998,-0.862919986,0.813543975,-1.824476957,-0.774753988,0.551524997,-1.765674949,-1.671223044,-0.303496987,0.761874974,-0.904240012,-1.173706055,0.994273007,1.498489976,1.285977006,0.87282598,2.161192894,1.368806958,0.739138007,0.479342997,1.078955054,-0.043513998,-2.005311012,4.469669819,-0.519616008,-1.852172971,0.247658998,0.98762399,0.903192997,0.200890005,0.933225989,-0.708387971,-1.099280953,-2.846019983,-1.068202019,0.948203027,-0.442795008,-0.377665997,-1.817932963,-1.042981029,0.031631999,0.517215014,-0.910399973,0.168174997,0.282272995,-0.873149991,-0.587342024,1.198637009,-1.160670996,-0.605593979,2.117259026,1.508442998,4.081954956,-0.604165018,-0.201280996,-0.150447994,1.017665029,-0.277621001,-0.205491006,0.527275026,-1.550048947,-0.466715991,-0.126806006,0.350461006,-0.693845987,0.689819992,-1.310938954,-1.522515059,-0.34552601,-1.145107031,0.807254016,-0.995853007,2.518244982,-1.077576041,1.336822033,4.854700089,-0.997285008,1.923799038,0.243231997,-0.444092989,-0.56141299,0.506596029,1.237921,-0.366544008,2.104235888,-0.452915013,0.070499003,-0.216931999,-0.668488026,-1.650127053,0.636003017,0.258309007,-1.481753945,杞,0.497054994,-0.049339,1.897819996,0.725787997,0.020868,-1.45114398,1.501078963,0.238100007,1.201136947,0.703370988,0.530933022,-0.994075,-1.504426003,-0.841940999,0.56961602,-0.632071972,1.463366032,-0.751125991,0.998829007,-1.337728024,-1.906221032,0.108905002,0.285730988,-2.473083019,1.483816981,0.909784973,-0.845391989,1.165357947,1.156057954,0.745594978,0.559424996,-1.033149958,1.245972037,0.622543991,0.715451002,0.553544998,0.445793986,0.221221,-0.834043026,1.067999005,-0.062208001,-1.398422956,-1.234163046,1.923346996,-0.759001017,0.102525003,-0.324820995,0.068324,1.170295954,1.277019978,-1.100921988,-1.568701029,-0.283318013,-1.291646004,-3.181946993,1.34452796,1.488960028,-0.300085992,-1.890776992,1.508260012,-0.678278983,-0.950228989,-0.117000997,-0.632768989,-0.831345975,1.933495998,-1.129608989,0.294281006,1.302687049,-0.926739991,-0.108560003,0.493519992,0.469509989,1.51759398,0.47278899,1.741899967,0.097126,0.385702997,-1.087631941,3.870950937,1.561810017,-5.006584167,-0.314213991,0.891728997,0.989897013,-2.251729012,-0.249207005,-0.372869998,1.988139033,-0.276098013,0.378536999,1.245105028,-0.236092001,0.419351012,-0.968309999,2.115271091,-0.694216013,1.257483006,0.135603994,0.476556987,0.506071985,1.079234958,1.059669018,2.05923605,-3.230174065,-0.148524001,1.249552965,-0.718026996,0.249482006,1.782583952,-1.027209044,-2.597812891,-1.942039013,0.143316999,-0.083306998,3.080569983,0.371381015,-1.324514985,-1.281327963,3.60670495,0.210492,-0.030368,-1.345484018,-0.833719015,1.466624022,0.220631003,-1.745293021,-0.301431,1.50357604,-1.451792002,-0.397359014,-2.390403032,-0.561728001,1.053189039,-1.362797976,-0.418942988,0.262147993,-0.808216989,0.070045002,-1.678869963,3.227349043,-0.852236986,1.972722054,0.216933995,0.104443997,-0.649671972,-1.037417054,0.369329989,0.180063993,-1.06874299,0.483693004,-0.343901008,-1.480329037,-1.260205984,0.510115981,0.244257003,-1.808372974,1.402001977,0.228044003,1.024250984,1.611314058,-0.580173016,0.266258001,-0.262439996,-0.663163006,0.852612972,-0.938431978,-0.951694012,-0.247435004,-2.614265919,-0.114644997,-1.877297997,1.781730056,0.362075001,1.857928991,1.608955026,0.110945001,0.769064009,1.233497024,0.922793984,0.140297994,0.372446001,-2.555768967,-0.205384001,-0.392827988,0.094761997,-0.009211,0.599505007,-1.081640959,0.236219004,-0.403771996,0.388585001,0.118809998,0.43878299,-0.757377028,-0.141599,2.620397091,-0.440667987,1.183856964,-0.908124983,1.602571011,-2.138302088,0.725494027,-0.100896999,2.070400953,0.650080979,0.006977,0.033507999,-0.892605007,1.016965985,0.494176,1.769901037,1.191298008,-1.75623703,-0.352977991,1.309892058,-1.107417941,-0.30735901,1.501131058,-0.599550009,0.704387009,-1.857457042,2.356215954,0.936372995,1.667714953,3.027894974,0.382595986,1.974282026,0.697326005,-1.212960958,-0.509733021,0.595102012,-0.224590003,-0.549610972,1.271793008,0.694821,-0.423427999,0.734642982,0.157341003,0.504311979,-0.767147005,0.187878996,0.798403025,1.605674982,-0.924166024,-0.182623997,-0.093832999,-0.933153987,-0.531502008,-0.53916198,-1.654819012,1.711670041,0.150762007,0.076117001,0.462891996,0.235185996,1.036254048,0.122674003,1.490510941,0.399367005,-0.579322994,0.83127898,0.085295998,-0.114178002,-0.843729019,-2.845577002,0.103703,0.261577994,-1.751536012,-0.725754023,0.491697013,-1.810160995,-1.042579055,-0.144107997,-0.713365972,0.249815002,-0.563426971,1.517176986,1.046023011,1.259423971,0.271373987,0.369711012,2.282651901,-1.416003942,0.808529019,-1.048652053,-1.215672016,0.990132987,0.372253001,0.994293988,0.674558997,0.608375013,0.193130001,-0.727122009,1.10016799,-1.727218986,2.76930809,0.555917025,-0.297033012,1.11126399,0.199577004,0.112135001,-1.425686955,-0.590701997,0.827817976,2.598323107,-0.618498981,-1.94678998,-0.862919986,0.813543975,-1.824476957,-0.774753988,0.551524997,-1.765674949,-1.671223044,-0.303496987,0.761874974,-0.904240012,-1.173706055,0.994273007,1.498489976,1.285977006,0.87282598,2.161192894,1.368806958,0.739138007,0.479342997,1.078955054,-0.043513998,-2.005311012,4.469669819,-0.519616008,-1.852172971,0.247658998,0.98762399,0.903192997,0.200890005,0.933225989,-0.708387971,-1.099280953,-2.846019983,-1.068202019,0.948203027,-0.442795008,-0.377665997,-1.817932963,-1.042981029,0.031631999,0.517215014,-0.910399973,0.168174997,0.282272995,-0.873149991,-0.587342024,1.198637009,-1.160670996,-0.605593979,2.117259026,1.508442998,4.081954956,-0.604165018,-0.201280996,-0.150447994,1.017665029,-0.277621001,-0.205491006,0.527275026,-1.550048947,-0.466715991,-0.126806006,0.350461006,-0.693845987,0.689819992,-1.310938954,-1.522515059,-0.34552601,-1.145107031,0.807254016,-0.995853007,2.518244982,-1.077576041,1.336822033,4.854700089,-0.997285008,1.923799038,0.243231997,-0.444092989,-0.56141299,0.506596029,1.237921,-0.366544008,2.104235888,-0.452915013,0.070499003,-0.216931999,-0.668488026,-1.650127053,0.636003017,0.258309007,-1.481753945
车身,-0.064648002,-0.372938991,3.610589981,1.151571035,0.456458986,-1.076537967,1.886247039,-1.526821971,1.049105048,1.655104995,-0.785997987,0.051302999,-1.379382968,0.667129993,0.687856019,-0.521358013,-0.188118994,-1.70825398,0.596574008,-1.444772959,-1.270969987,-0.279947996,0.53154999,-0.812478006,0.707814991,0.304865986,-1.660403967,2.362145901,0.644068003,0.664932013,0.582333028,-0.967284024,-0.639424026,-1.359902024,0.236027002,1.592422009,0.029794,-1.643725991,-0.399098992,-0.456548989,0.571560025,-0.536774993,-1.084308028,-1.390966058,-0.323240995,-1.021374941,-0.542196989,-2.04568696,-0.335595012,-0.187043995,1.142846942,-0.159596995,-0.02275,0.105679996,-2.036288023,0.604179978,-0.078488998,-0.964667976,-1.669443965,0.300558001,-0.685554028,-0.328395009,-1.86462605,-1.44215095,-0.893741012,0.201993003,0.856685996,-0.85126102,0.466724992,0.281287998,-0.819638014,-0.202005997,0.792905986,1.096218944,-1.745918036,1.226256967,0.059611,-1.763041019,-1.320755005,0.350845993,0.534895003,-0.710394979,1.78738296,0.395411998,0.445145994,-1.019037008,-0.946590006,-1.12272501,-0.155526996,0.083168998,1.017299056,1.45965004,-1.593616962,1.567057967,1.148741007,0.871482015,0.241618007,0.036986999,-0.721332014,-0.675495982,-0.147744,1.431938052,0.752934992,-0.110408999,-1.852730989,-0.998663008,2.361442089,-0.575605989,0.385437995,1.936360002,-0.289655,-2.531100988,0.025622001,-1.271983981,-0.282712013,2.100857973,0.078511998,-0.144978002,-0.358898997,2.059535027,-1.767017961,-1.493507981,-0.44540599,-0.353379995,2.9465909,0.207132995,0.133304,-1.555840015,-0.743050992,-1.360700011,0.423422009,-0.92493099,-0.552451015,0.962324023,-0.60708499,-1.495620966,-1.777647018,1.516497016,1.809820056,-0.711992025,0.796109021,-0.599964976,1.632442951,1.981119037,0.323826998,-0.791709006,-2.209731102,-2.415139914,-0.584459007,0.839609027,0.729506016,-0.92723,-0.331111997,0.470364004,-0.173345998,-0.485839009,0.596094012,-1.419698,-0.574428976,0.590456009,-0.537144005,-0.852612972,0.314648002,-0.544308007,-1.595096946,0.528177977,-1.927055001,-0.569765985,-0.236139998,-0.319927007,-0.466129005,-1.677801967,1.156509042,0.238738,2.221868992,2.108201027,0.587239027,1.981598973,0.598890007,0.42048201,-0.802722991,-0.018556001,-1.844691038,-0.279523998,-1.030684948,1.318776011,-0.121886,0.207989007,-0.020175001,0.147862002,-0.299324989,0.877506018,-2.339155912,0.85333699,-2.503932953,0.647870004,1.322831035,0.414128006,1.290668964,-1.606176972,-0.644909024,-0.119671002,1.320114017,-1.279204011,0.445069999,-0.890386999,-0.513077021,0.995800018,2.497014999,-0.250809997,0.980462015,1.273205042,1.117588043,-0.809089005,-0.247400001,0.54350698,-1.188974023,-0.458234012,0.166839004,-2.278790951,1.973137021,0.017564001,0.963801026,0.975857973,-0.229947001,0.998740017,-0.132012993,0.028323,2.071230888,-1.160256028,-1.039003015,1.46668005,0.723339975,-1.883808017,-0.868764997,-1.348435998,-0.273602992,-2.014055967,0.681457996,0.226013005,0.573001981,1.120309949,-0.094577,1.556411982,2.526535034,-0.590943992,1.532982945,0.306068987,0.170993,2.224272966,-0.467233986,1.980708957,1.104146004,0.245119005,0.909528971,0.242091998,-1.243813038,0.709881008,1.723644972,0.615399003,1.57485497,-2.072603941,-0.430236995,0.987634003,-2.271112919,-4.130979061,-0.102930002,0.920755982,-1.506981969,-0.805230975,-0.737702012,-1.645030022,-1.547445059,-0.201273993,-0.601853013,0.248557001,0.124039002,0.829506993,0.58188498,1.682533979,1.113304019,-0.228186995,0.280532002,-0.150939003,-2.476593971,-0.842316985,1.549846053,2.117762089,0.064257003,0.741761982,0.037034001,0.261355013,-1.141836047,0.460649997,-0.238644004,-1.223283052,1.371595979,0.054926001,-0.074720003,-0.334324986,-1.48406899,-0.130555004,-1.043956041,-0.338185012,1.682409048,2.59010005,-0.050168999,-3.483001947,0.661248982,1.530253053,-0.071401998,-1.102468967,1.574046016,1.197808027,-1.363322973,-0.342848003,-0.139767006,-1.538681984,0.547224998,-1.650197029,2.383450031,2.074403048,1.788684011,-0.26572299,-0.389591008,0.730996013,-0.017658999,0.474002987,-0.232324004,0.258947015,0.991921008,-0.786125004,-0.62429601,-0.625926018,0.583548009,-0.519308984,0.140970007,1.26327002,-0.176071003,1.72031498,-1.502805948,-1.826328993,-0.538800001,0.389739007,0.746380985,-0.449353993,-0.461266994,1.931414008,0.952096999,-2.07040906,-1.629196048,1.639647961,-1.678768039,-0.887416005,0.771055996,0.742838025,0.075604998,0.088607997,0.261584014,1.836989999,0.790000975,0.397487998,0.364253014,1.041457057,0.111662999,-1.797685027,-0.711211026,-3.044564009,-0.456901997,0.943148017,-0.311529994,-1.637001038,0.924670994,-1.908714056,-1.076876044,-1.018159986,-1.435078025,0.355921,-0.889376998,1.358899951,-2.266107082,2.114965916,3.239054918,-0.627499998,-0.903221011,-0.664992988,0.656625986,-2.142038107,1.427904963,1.196496964,1.54213202,-2.153309107,-0.779515028,-0.451534986,2.836899996,0.712595999,-2.072931051,1.272286057,2.552416086,0.865188003,杞韬,-0.064648002,-0.372938991,3.610589981,1.151571035,0.456458986,-1.076537967,1.886247039,-1.526821971,1.049105048,1.655104995,-0.785997987,0.051302999,-1.379382968,0.667129993,0.687856019,-0.521358013,-0.188118994,-1.70825398,0.596574008,-1.444772959,-1.270969987,-0.279947996,0.53154999,-0.812478006,0.707814991,0.304865986,-1.660403967,2.362145901,0.644068003,0.664932013,0.582333028,-0.967284024,-0.639424026,-1.359902024,0.236027002,1.592422009,0.029794,-1.643725991,-0.399098992,-0.456548989,0.571560025,-0.536774993,-1.084308028,-1.390966058,-0.323240995,-1.021374941,-0.542196989,-2.04568696,-0.335595012,-0.187043995,1.142846942,-0.159596995,-0.02275,0.105679996,-2.036288023,0.604179978,-0.078488998,-0.964667976,-1.669443965,0.300558001,-0.685554028,-0.328395009,-1.86462605,-1.44215095,-0.893741012,0.201993003,0.856685996,-0.85126102,0.466724992,0.281287998,-0.819638014,-0.202005997,0.792905986,1.096218944,-1.745918036,1.226256967,0.059611,-1.763041019,-1.320755005,0.350845993,0.534895003,-0.710394979,1.78738296,0.395411998,0.445145994,-1.019037008,-0.946590006,-1.12272501,-0.155526996,0.083168998,1.017299056,1.45965004,-1.593616962,1.567057967,1.148741007,0.871482015,0.241618007,0.036986999,-0.721332014,-0.675495982,-0.147744,1.431938052,0.752934992,-0.110408999,-1.852730989,-0.998663008,2.361442089,-0.575605989,0.385437995,1.936360002,-0.289655,-2.531100988,0.025622001,-1.271983981,-0.282712013,2.100857973,0.078511998,-0.144978002,-0.358898997,2.059535027,-1.767017961,-1.493507981,-0.44540599,-0.353379995,2.9465909,0.207132995,0.133304,-1.555840015,-0.743050992,-1.360700011,0.423422009,-0.92493099,-0.552451015,0.962324023,-0.60708499,-1.495620966,-1.777647018,1.516497016,1.809820056,-0.711992025,0.796109021,-0.599964976,1.632442951,1.981119037,0.323826998,-0.791709006,-2.209731102,-2.415139914,-0.584459007,0.839609027,0.729506016,-0.92723,-0.331111997,0.470364004,-0.173345998,-0.485839009,0.596094012,-1.419698,-0.574428976,0.590456009,-0.537144005,-0.852612972,0.314648002,-0.544308007,-1.595096946,0.528177977,-1.927055001,-0.569765985,-0.236139998,-0.319927007,-0.466129005,-1.677801967,1.156509042,0.238738,2.221868992,2.108201027,0.587239027,1.981598973,0.598890007,0.42048201,-0.802722991,-0.018556001,-1.844691038,-0.279523998,-1.030684948,1.318776011,-0.121886,0.207989007,-0.020175001,0.147862002,-0.299324989,0.877506018,-2.339155912,0.85333699,-2.503932953,0.647870004,1.322831035,0.414128006,1.290668964,-1.606176972,-0.644909024,-0.119671002,1.320114017,-1.279204011,0.445069999,-0.890386999,-0.513077021,0.995800018,2.497014999,-0.250809997,0.980462015,1.273205042,1.117588043,-0.809089005,-0.247400001,0.54350698,-1.188974023,-0.458234012,0.166839004,-2.278790951,1.973137021,0.017564001,0.963801026,0.975857973,-0.229947001,0.998740017,-0.132012993,0.028323,2.071230888,-1.160256028,-1.039003015,1.46668005,0.723339975,-1.883808017,-0.868764997,-1.348435998,-0.273602992,-2.014055967,0.681457996,0.226013005,0.573001981,1.120309949,-0.094577,1.556411982,2.526535034,-0.590943992,1.532982945,0.306068987,0.170993,2.224272966,-0.467233986,1.980708957,1.104146004,0.245119005,0.909528971,0.242091998,-1.243813038,0.709881008,1.723644972,0.615399003,1.57485497,-2.072603941,-0.430236995,0.987634003,-2.271112919,-4.130979061,-0.102930002,0.920755982,-1.506981969,-0.805230975,-0.737702012,-1.645030022,-1.547445059,-0.201273993,-0.601853013,0.248557001,0.124039002,0.829506993,0.58188498,1.682533979,1.113304019,-0.228186995,0.280532002,-0.150939003,-2.476593971,-0.842316985,1.549846053,2.117762089,0.064257003,0.741761982,0.037034001,0.261355013,-1.141836047,0.460649997,-0.238644004,-1.223283052,1.371595979,0.054926001,-0.074720003,-0.334324986,-1.48406899,-0.130555004,-1.043956041,-0.338185012,1.682409048,2.59010005,-0.050168999,-3.483001947,0.661248982,1.530253053,-0.071401998,-1.102468967,1.574046016,1.197808027,-1.363322973,-0.342848003,-0.139767006,-1.538681984,0.547224998,-1.650197029,2.383450031,2.074403048,1.788684011,-0.26572299,-0.389591008,0.730996013,-0.017658999,0.474002987,-0.232324004,0.258947015,0.991921008,-0.786125004,-0.62429601,-0.625926018,0.583548009,-0.519308984,0.140970007,1.26327002,-0.176071003,1.72031498,-1.502805948,-1.826328993,-0.538800001,0.389739007,0.746380985,-0.449353993,-0.461266994,1.931414008,0.952096999,-2.07040906,-1.629196048,1.639647961,-1.678768039,-0.887416005,0.771055996,0.742838025,0.075604998,0.088607997,0.261584014,1.836989999,0.790000975,0.397487998,0.364253014,1.041457057,0.111662999,-1.797685027,-0.711211026,-3.044564009,-0.456901997,0.943148017,-0.311529994,-1.637001038,0.924670994,-1.908714056,-1.076876044,-1.018159986,-1.435078025,0.355921,-0.889376998,1.358899951,-2.266107082,2.114965916,3.239054918,-0.627499998,-0.903221011,-0.664992988,0.656625986,-2.142038107,1.427904963,1.196496964,1.54213202,-2.153309107,-0.779515028,-0.451534986,2.836899996,0.712595999,-2.072931051,1.272286057,2.552416086,0.865188003
接到,0.276345998,-1.10293901,-0.687757015,0.824836016,0.156865999,0.352185011,0.325821996,-1.128401995,0.191212997,-0.779626012,0.371932,-0.047247,-0.204741001,-1.147065043,-0.830929995,-0.15061,1.00406003,-0.005621,1.474094033,0.702726007,0.218680993,-1.490805984,-1.88132298,-0.674920022,0.374740005,0.574373007,1.027125001,0.830437005,1.083600044,-0.351034999,-0.803546011,-1.567901015,0.950909019,0.795217991,-0.74605,0.036435999,0.668846011,-0.514801979,-0.919259012,0.97507,-1.139317036,1.92277205,0.74485898,0.406134993,0.353184998,-0.139374003,-0.512921989,-0.110134996,-0.726104021,-1.457898021,-0.108840004,-0.845252991,0.349752992,0.375483006,0.017654,0.099404,-1.346107006,-1.061993957,0.443186998,0.624647975,0.230018005,1.945389986,-0.096035004,-0.109950997,0.025161,0.962262988,-1.383239985,-1.331223965,0.743694007,-0.718587995,0.116810001,0.048362002,-0.582054973,1.716078997,-0.270016015,1.918295026,1.167858005,0.354750991,-0.243542001,-0.812312007,0.591180027,1.007105947,-0.791114986,-0.651714981,-0.408782989,-1.336320043,-0.697704971,1.005511045,-1.297801971,0.843403995,0.981570005,-0.142868996,-0.111414999,-1.504955053,-0.382084012,-2.068546057,-1.149091005,0.463250011,1.277261019,-0.757983029,-0.651199996,-1.931959033,-0.212503999,-0.017898999,-2.010155916,0.62559402,-0.638898015,-0.371708989,-2.320044994,0.367208987,-1.40704596,0.61816299,-1.584475994,0.159890994,-0.552248001,0.654151976,1.250393033,1.275884032,1.306751013,0.460408002,0.120109998,0.84740299,-0.707246006,-0.773908019,-0.506013989,-0.515186012,-0.59650898,0.652967989,1.017215967,-0.988671005,-0.373391002,-0.789425015,0.480031013,-0.329156011,-0.841455996,1.212170959,-1.341721058,-0.976206005,-0.137292996,0.113411002,-0.382351011,1.191295981,-0.78354001,-1.928977013,-0.087205,0.320441008,-0.780960977,1.694923043,-0.040637001,-2.595746994,-0.80586499,-1.296493053,-0.560500026,-0.90991497,0.503880024,0.404498994,-0.807614028,0.819971025,-0.621987998,-1.998015046,-1.21073103,0.619983017,-1.395766974,1.220203996,1.320284963,1.495483041,0.117834002,-0.198861003,1.609827995,1.08672595,0.461430997,-0.673251987,-1.731660962,-0.594816983,0.713832974,-1.489027977,1.804648995,-0.58049798,-0.339978009,-0.024871999,0.704595983,-1.423135042,-0.560793996,-0.178343996,0.145575002,0.185106993,-0.186927006,0.153156996,-0.013891,-1.769304037,0.042075001,0.248917997,1.854668021,-1.167960048,1.115689993,-0.825501978,-1.706289053,0.98566699,0.314633012,0.203002006,-0.160556003,-0.520196974,0.458012998,1.202582002,-0.071863003,0.056784999,0.049433999,1.50277698,1.094552994,0.238561004,0.019739,1.427065015,0.528777003,0.424576014,-1.23606503,-0.366641998,0.834410012,-0.528150976,0.797580004,1.130857944,-0.288165987,0.432570994,-1.288882971,-2.503976107,0.140092,0.795952022,-0.464304,0.014597,-0.876046002,-0.176263005,1.238497972,-0.692873001,-0.581317008,0.085211001,-0.829723001,0.163192004,1.12697506,1.439275026,-0.02241,-1.572831988,-1.356996059,0.973178983,1.384210944,-0.542276025,-0.943452001,0.940739989,-0.958890021,1.489722013,0.063359998,-1.283416986,2.889287949,0.559547007,0.652698994,-1.23694098,0.444371015,-0.624763012,0.768724978,1.935063958,-1.882892013,0.783140004,-0.685836017,0.574566007,1.870905042,-0.524164975,-1.290709972,-0.228148997,0.807965994,0.288462996,0.466156006,0.478381008,0.242815003,0.567930996,1.052750945,0.908939004,-0.491308987,1.028247952,0.511340976,-0.885912001,0.005475,-0.252707988,-1.22240603,1.28689003,0.47072801,-0.484559,-0.234886006,-0.277815014,-1.943922043,0.061640002,0.267722011,-0.902437985,0.144421995,-1.334571004,-0.42960301,-0.326032996,0.538547993,-1.120787025,2.009974003,-0.529649973,-0.723688006,-1.295192003,0.262497991,-0.092229001,-1.156566978,0.434538007,1.376960039,-0.342516005,-0.166621998,0.961121023,1.899888992,0.991024017,1.012895942,-0.349678993,1.658797026,-0.414251,-0.585566998,0.150990993,0.318185002,0.577919006,-0.277431995,-1.590154052,0.427082002,0.517790973,-0.792306006,1.082311988,-1.91326797,-1.871765018,-0.939426005,-0.722259998,0.560636997,-0.366427988,-0.991424978,-1.409996033,0.668434978,1.655827045,-0.640177011,-0.603967011,0.795843005,1.309672952,-0.29697901,-0.900297999,0.568018973,2.070137978,2.36757493,0.602131009,-1.084987998,-0.418388993,-1.148226023,-0.951849997,0.293078005,-0.477963001,-0.788829029,1.879318953,-1.027441025,-1.510560036,1.886680007,-0.408495009,0.59610498,-0.331818998,-0.547318995,0.759337008,-0.599987984,-1.186161041,-0.959043026,1.271700025,0.611196995,-0.607074976,0.896713018,0.370833009,-0.088840999,0.358361989,0.899293005,-0.169358,-0.162221,0.46797201,0.379287988,1.321115971,0.644545972,-1.142644048,-0.720686018,0.897831976,0.221465006,0.389551997,0.389084011,0.336573988,-1.598476052,0.837405026,0.568691015,2.84356904,-2.5324049,0.934610009,-0.150922,-0.648423016,0.838757992,1.322339058,0.257755011,-0.971454978,-1.744182944,1.961326003,-0.620732009,0.101822004,ュ,0.276345998,-1.10293901,-0.687757015,0.824836016,0.156865999,0.352185011,0.325821996,-1.128401995,0.191212997,-0.779626012,0.371932,-0.047247,-0.204741001,-1.147065043,-0.830929995,-0.15061,1.00406003,-0.005621,1.474094033,0.702726007,0.218680993,-1.490805984,-1.88132298,-0.674920022,0.374740005,0.574373007,1.027125001,0.830437005,1.083600044,-0.351034999,-0.803546011,-1.567901015,0.950909019,0.795217991,-0.74605,0.036435999,0.668846011,-0.514801979,-0.919259012,0.97507,-1.139317036,1.92277205,0.74485898,0.406134993,0.353184998,-0.139374003,-0.512921989,-0.110134996,-0.726104021,-1.457898021,-0.108840004,-0.845252991,0.349752992,0.375483006,0.017654,0.099404,-1.346107006,-1.061993957,0.443186998,0.624647975,0.230018005,1.945389986,-0.096035004,-0.109950997,0.025161,0.962262988,-1.383239985,-1.331223965,0.743694007,-0.718587995,0.116810001,0.048362002,-0.582054973,1.716078997,-0.270016015,1.918295026,1.167858005,0.354750991,-0.243542001,-0.812312007,0.591180027,1.007105947,-0.791114986,-0.651714981,-0.408782989,-1.336320043,-0.697704971,1.005511045,-1.297801971,0.843403995,0.981570005,-0.142868996,-0.111414999,-1.504955053,-0.382084012,-2.068546057,-1.149091005,0.463250011,1.277261019,-0.757983029,-0.651199996,-1.931959033,-0.212503999,-0.017898999,-2.010155916,0.62559402,-0.638898015,-0.371708989,-2.320044994,0.367208987,-1.40704596,0.61816299,-1.584475994,0.159890994,-0.552248001,0.654151976,1.250393033,1.275884032,1.306751013,0.460408002,0.120109998,0.84740299,-0.707246006,-0.773908019,-0.506013989,-0.515186012,-0.59650898,0.652967989,1.017215967,-0.988671005,-0.373391002,-0.789425015,0.480031013,-0.329156011,-0.841455996,1.212170959,-1.341721058,-0.976206005,-0.137292996,0.113411002,-0.382351011,1.191295981,-0.78354001,-1.928977013,-0.087205,0.320441008,-0.780960977,1.694923043,-0.040637001,-2.595746994,-0.80586499,-1.296493053,-0.560500026,-0.90991497,0.503880024,0.404498994,-0.807614028,0.819971025,-0.621987998,-1.998015046,-1.21073103,0.619983017,-1.395766974,1.220203996,1.320284963,1.495483041,0.117834002,-0.198861003,1.609827995,1.08672595,0.461430997,-0.673251987,-1.731660962,-0.594816983,0.713832974,-1.489027977,1.804648995,-0.58049798,-0.339978009,-0.024871999,0.704595983,-1.423135042,-0.560793996,-0.178343996,0.145575002,0.185106993,-0.186927006,0.153156996,-0.013891,-1.769304037,0.042075001,0.248917997,1.854668021,-1.167960048,1.115689993,-0.825501978,-1.706289053,0.98566699,0.314633012,0.203002006,-0.160556003,-0.520196974,0.458012998,1.202582002,-0.071863003,0.056784999,0.049433999,1.50277698,1.094552994,0.238561004,0.019739,1.427065015,0.528777003,0.424576014,-1.23606503,-0.366641998,0.834410012,-0.528150976,0.797580004,1.130857944,-0.288165987,0.432570994,-1.288882971,-2.503976107,0.140092,0.795952022,-0.464304,0.014597,-0.876046002,-0.176263005,1.238497972,-0.692873001,-0.581317008,0.085211001,-0.829723001,0.163192004,1.12697506,1.439275026,-0.02241,-1.572831988,-1.356996059,0.973178983,1.384210944,-0.542276025,-0.943452001,0.940739989,-0.958890021,1.489722013,0.063359998,-1.283416986,2.889287949,0.559547007,0.652698994,-1.23694098,0.444371015,-0.624763012,0.768724978,1.935063958,-1.882892013,0.783140004,-0.685836017,0.574566007,1.870905042,-0.524164975,-1.290709972,-0.228148997,0.807965994,0.288462996,0.466156006,0.478381008,0.242815003,0.567930996,1.052750945,0.908939004,-0.491308987,1.028247952,0.511340976,-0.885912001,0.005475,-0.252707988,-1.22240603,1.28689003,0.47072801,-0.484559,-0.234886006,-0.277815014,-1.943922043,0.061640002,0.267722011,-0.902437985,0.144421995,-1.334571004,-0.42960301,-0.326032996,0.538547993,-1.120787025,2.009974003,-0.529649973,-0.723688006,-1.295192003,0.262497991,-0.092229001,-1.156566978,0.434538007,1.376960039,-0.342516005,-0.166621998,0.961121023,1.899888992,0.991024017,1.012895942,-0.349678993,1.658797026,-0.414251,-0.585566998,0.150990993,0.318185002,0.577919006,-0.277431995,-1.590154052,0.427082002,0.517790973,-0.792306006,1.082311988,-1.91326797,-1.871765018,-0.939426005,-0.722259998,0.560636997,-0.366427988,-0.991424978,-1.409996033,0.668434978,1.655827045,-0.640177011,-0.603967011,0.795843005,1.309672952,-0.29697901,-0.900297999,0.568018973,2.070137978,2.36757493,0.602131009,-1.084987998,-0.418388993,-1.148226023,-0.951849997,0.293078005,-0.477963001,-0.788829029,1.879318953,-1.027441025,-1.510560036,1.886680007,-0.408495009,0.59610498,-0.331818998,-0.547318995,0.759337008,-0.599987984,-1.186161041,-0.959043026,1.271700025,0.611196995,-0.607074976,0.896713018,0.370833009,-0.088840999,0.358361989,0.899293005,-0.169358,-0.162221,0.46797201,0.379287988,1.321115971,0.644545972,-1.142644048,-0.720686018,0.897831976,0.221465006,0.389551997,0.389084011,0.336573988,-1.598476052,0.837405026,0.568691015,2.84356904,-2.5324049,0.934610009,-0.150922,-0.648423016,0.838757992,1.322339058,0.257755011,-0.971454978,-1.744182944,1.961326003,-0.620732009,0.101822004
包括,-0.454580992,0.164757997,1.79915905,-1.049497008,0.733509004,-0.782821,1.555029035,0.66079402,1.619586945,-0.897616982,0.535622001,0.352791995,-1.745306015,-1.873993993,0.167853996,-1.00387001,0.305721015,-1.265084982,0.240015,-1.57822299,-0.263256013,-0.918152988,-0.410198003,1.221086979,2.200937986,1.28687501,0.667607009,-0.836081982,1.853716016,0.544808984,-1.481004,0.917953014,-1.146002054,-1.966565967,0.95331198,-0.300415009,1.230658054,-0.823512018,-1.736956954,1.100044012,0.61631,0.716252029,-1.233821034,-0.807951987,1.15346396,0.810011983,0.159330994,0.666951001,-0.564612985,-0.029146999,3.325936079,-2.361658096,0.861630976,1.028753996,0.046682999,-1.576614976,0.884683013,-0.82031697,-0.564092994,1.036813974,-0.371104985,-1.694511056,-0.961143017,-0.364295989,1.497936964,-1.04678905,0.293545008,0.994126022,0.571802974,0.723227024,-0.936886013,0.921674013,0.371354997,-0.401280999,-0.007712,0.689547002,1.580196977,-0.714837015,1.660864949,-2.98004508,0.240195006,-1.899806976,2.25126791,-0.238046005,0.502623022,0.565518022,-0.085307002,-2.218697071,0.220923007,-0.717351019,0.456472993,-1.070675015,-0.197669998,0.110694997,0.30487901,-1.583649993,2.154851913,-0.491432995,0.404356003,0.416426986,-0.315941006,0.782885015,-0.438149005,1.052029014,-2.297626972,-2.664695978,1.533488989,-0.544652998,0.020506,-0.831882,-0.916168988,1.424602985,-1.146868944,-0.269428998,1.371584058,2.412743092,0.906876981,0.312240988,0.175301,-0.637138009,-0.430447012,-1.086316943,0.951385975,-1.156628966,-1.156872988,0.231864005,-1.340625048,-0.304652989,0.488011003,-0.816477001,-0.051653001,-1.970157981,-1.44315505,0.044597998,0.862852991,0.067612998,0.319023013,-0.218733996,0.254290998,0.67049098,1.285752058,-0.080185004,0.164633006,-0.273562014,-1.259132981,-0.292937011,-0.157086998,0.922022998,1.584527016,-1.220322967,0.148820996,0.65347302,-2.039367914,0.060348,0.921579003,0.998567998,0.783999026,0.951968014,0.81081599,-0.172591999,0.497561008,-2.438478947,0.322001994,1.528437018,2.06227994,0.242552996,-1.359421015,0.529434979,-2.690181017,1.425498009,0.215532005,-1.187211037,-0.862232029,1.122714996,0.995172977,0.102456003,1.880784035,-0.255524009,0.278115004,-0.617504001,-0.024076,-0.295720994,-0.526772976,-1.733525038,-1.013574004,0.700094998,-1.373129964,1.128026009,-0.79529798,1.306462049,0.748883009,-1.386697054,2.255422115,0.225940004,1.165941,-0.158812001,1.017168999,-0.115846001,-0.998345971,1.976737976,-0.579613984,-1.392143011,-1.575178981,-3.1275599,-0.845227003,-1.397665977,0.214383006,0.459859014,-0.591390014,-0.704195023,-0.436646998,0.625757992,0.028308,-1.209537983,0.664031029,0.068915002,1.279811978,0.008376,-0.575942993,-0.602973998,0.226180002,0.933906019,-0.644033015,0.444972992,-0.768212974,1.465414047,0.508481026,-0.906832993,-0.159122005,-0.415253997,-0.60708499,-1.975949049,1.713901043,-1.276067019,1.739886999,0.33752501,1.003926992,0.876667976,-1.653082013,-0.211097002,-0.983739972,-0.036274001,0.022987001,-0.444236994,-0.241473004,-1.625087976,0.313439995,-0.423994988,-0.018979,-0.443663001,0.757034004,0.365139991,-0.073899999,-1.112069964,-1.161923051,-0.320629001,-1.259763002,0.537527978,-0.465131998,0.544440985,0.419093996,0.463856012,0.670464993,-0.460119009,-0.833801985,-0.382362992,2.185218096,0.26867801,-1.236508012,-1.114748001,0.732991993,0.592454016,-0.202702001,0.813533008,-0.106539004,0.177596003,-1.192383051,1.751960993,0.943477988,-0.535651982,0.558507979,1.940037966,0.851539016,-0.693044007,-0.577216983,0.392235011,1.056743026,-0.630775988,0.740194976,0.509913981,1.175801992,1.825505972,-1.174375057,-1.270081043,0.272271991,0.219248995,-1.138160944,0.168464005,-0.464574009,1.193886995,-1.398007989,-0.001002,-0.413082987,0.356914997,1.076154947,-0.964807987,-0.489504993,0.664205015,-0.546822011,2.379359961,-0.538571,-1.026590943,1.985669017,-0.775102019,0.022537,0.946175992,-1.218780041,1.573248982,0.018328,0.902724981,2.083081007,0.29114899,-0.424068004,2.195203066,-0.750169992,1.031718016,0.073886998,-0.894850016,-0.118777998,1.16980195,-0.124298997,1.618221045,-0.156580001,0.307168007,2.61532402,0.467014998,-0.682807028,-0.458820999,-0.330401987,-1.259367943,-1.04619801,-0.290796995,-0.279507011,-1.343325019,-0.627765,2.153783083,2.025829077,1.254307985,-1.396209002,1.124333024,-1.06657505,-0.652185977,0.230636999,-0.844760001,0.012296,-0.923538029,0.647957981,1.106197,-0.589318991,1.289752007,-1.055660963,-0.451656997,-0.372523993,-0.500169992,-0.701224029,0.200872004,-1.882761955,-0.038348999,0.818098009,0.569694996,-2.272437096,-1.016947031,-0.596351981,0.358374,-2.692905903,-1.627944946,-2.064002037,0.929220974,-0.877553999,-2.229393959,-0.593096018,-0.592799008,0.574436009,-1.577960014,3.571182013,0.422749996,-2.85570097,0.679933012,-1.674610019,-0.000549,0.787011981,2.600928068,0.774625003,0.437391013,0.762611985,0.243417993,0.965864003,-0.330404997,0.462238014,-0.502839983,,-0.454580992,0.164757997,1.79915905,-1.049497008,0.733509004,-0.782821,1.555029035,0.66079402,1.619586945,-0.897616982,0.535622001,0.352791995,-1.745306015,-1.873993993,0.167853996,-1.00387001,0.305721015,-1.265084982,0.240015,-1.57822299,-0.263256013,-0.918152988,-0.410198003,1.221086979,2.200937986,1.28687501,0.667607009,-0.836081982,1.853716016,0.544808984,-1.481004,0.917953014,-1.146002054,-1.966565967,0.95331198,-0.300415009,1.230658054,-0.823512018,-1.736956954,1.100044012,0.61631,0.716252029,-1.233821034,-0.807951987,1.15346396,0.810011983,0.159330994,0.666951001,-0.564612985,-0.029146999,3.325936079,-2.361658096,0.861630976,1.028753996,0.046682999,-1.576614976,0.884683013,-0.82031697,-0.564092994,1.036813974,-0.371104985,-1.694511056,-0.961143017,-0.364295989,1.497936964,-1.04678905,0.293545008,0.994126022,0.571802974,0.723227024,-0.936886013,0.921674013,0.371354997,-0.401280999,-0.007712,0.689547002,1.580196977,-0.714837015,1.660864949,-2.98004508,0.240195006,-1.899806976,2.25126791,-0.238046005,0.502623022,0.565518022,-0.085307002,-2.218697071,0.220923007,-0.717351019,0.456472993,-1.070675015,-0.197669998,0.110694997,0.30487901,-1.583649993,2.154851913,-0.491432995,0.404356003,0.416426986,-0.315941006,0.782885015,-0.438149005,1.052029014,-2.297626972,-2.664695978,1.533488989,-0.544652998,0.020506,-0.831882,-0.916168988,1.424602985,-1.146868944,-0.269428998,1.371584058,2.412743092,0.906876981,0.312240988,0.175301,-0.637138009,-0.430447012,-1.086316943,0.951385975,-1.156628966,-1.156872988,0.231864005,-1.340625048,-0.304652989,0.488011003,-0.816477001,-0.051653001,-1.970157981,-1.44315505,0.044597998,0.862852991,0.067612998,0.319023013,-0.218733996,0.254290998,0.67049098,1.285752058,-0.080185004,0.164633006,-0.273562014,-1.259132981,-0.292937011,-0.157086998,0.922022998,1.584527016,-1.220322967,0.148820996,0.65347302,-2.039367914,0.060348,0.921579003,0.998567998,0.783999026,0.951968014,0.81081599,-0.172591999,0.497561008,-2.438478947,0.322001994,1.528437018,2.06227994,0.242552996,-1.359421015,0.529434979,-2.690181017,1.425498009,0.215532005,-1.187211037,-0.862232029,1.122714996,0.995172977,0.102456003,1.880784035,-0.255524009,0.278115004,-0.617504001,-0.024076,-0.295720994,-0.526772976,-1.733525038,-1.013574004,0.700094998,-1.373129964,1.128026009,-0.79529798,1.306462049,0.748883009,-1.386697054,2.255422115,0.225940004,1.165941,-0.158812001,1.017168999,-0.115846001,-0.998345971,1.976737976,-0.579613984,-1.392143011,-1.575178981,-3.1275599,-0.845227003,-1.397665977,0.214383006,0.459859014,-0.591390014,-0.704195023,-0.436646998,0.625757992,0.028308,-1.209537983,0.664031029,0.068915002,1.279811978,0.008376,-0.575942993,-0.602973998,0.226180002,0.933906019,-0.644033015,0.444972992,-0.768212974,1.465414047,0.508481026,-0.906832993,-0.159122005,-0.415253997,-0.60708499,-1.975949049,1.713901043,-1.276067019,1.739886999,0.33752501,1.003926992,0.876667976,-1.653082013,-0.211097002,-0.983739972,-0.036274001,0.022987001,-0.444236994,-0.241473004,-1.625087976,0.313439995,-0.423994988,-0.018979,-0.443663001,0.757034004,0.365139991,-0.073899999,-1.112069964,-1.161923051,-0.320629001,-1.259763002,0.537527978,-0.465131998,0.544440985,0.419093996,0.463856012,0.670464993,-0.460119009,-0.833801985,-0.382362992,2.185218096,0.26867801,-1.236508012,-1.114748001,0.732991993,0.592454016,-0.202702001,0.813533008,-0.106539004,0.177596003,-1.192383051,1.751960993,0.943477988,-0.535651982,0.558507979,1.940037966,0.851539016,-0.693044007,-0.577216983,0.392235011,1.056743026,-0.630775988,0.740194976,0.509913981,1.175801992,1.825505972,-1.174375057,-1.270081043,0.272271991,0.219248995,-1.138160944,0.168464005,-0.464574009,1.193886995,-1.398007989,-0.001002,-0.413082987,0.356914997,1.076154947,-0.964807987,-0.489504993,0.664205015,-0.546822011,2.379359961,-0.538571,-1.026590943,1.985669017,-0.775102019,0.022537,0.946175992,-1.218780041,1.573248982,0.018328,0.902724981,2.083081007,0.29114899,-0.424068004,2.195203066,-0.750169992,1.031718016,0.073886998,-0.894850016,-0.118777998,1.16980195,-0.124298997,1.618221045,-0.156580001,0.307168007,2.61532402,0.467014998,-0.682807028,-0.458820999,-0.330401987,-1.259367943,-1.04619801,-0.290796995,-0.279507011,-1.343325019,-0.627765,2.153783083,2.025829077,1.254307985,-1.396209002,1.124333024,-1.06657505,-0.652185977,0.230636999,-0.844760001,0.012296,-0.923538029,0.647957981,1.106197,-0.589318991,1.289752007,-1.055660963,-0.451656997,-0.372523993,-0.500169992,-0.701224029,0.200872004,-1.882761955,-0.038348999,0.818098009,0.569694996,-2.272437096,-1.016947031,-0.596351981,0.358374,-2.692905903,-1.627944946,-2.064002037,0.929220974,-0.877553999,-2.229393959,-0.593096018,-0.592799008,0.574436009,-1.577960014,3.571182013,0.422749996,-2.85570097,0.679933012,-1.674610019,-0.000549,0.787011981,2.600928068,0.774625003,0.437391013,0.762611985,0.243417993,0.965864003,-0.330404997,0.462238014,-0.502839983
偏压,-0.143979996,0.240954995,0.109747998,-0.201192006,0.274654001,0.183162004,0.312525004,-0.338514,0.124335997,0.208216995,-0.034212001,-0.600035012,-0.44275099,-0.001807,-0.194664001,-0.047869001,0.272020012,-0.018433001,0.394878,-0.369010001,-0.052579001,0.072953999,-0.171865001,0.018550999,-0.033413,0.238392994,-0.446761012,0.297879994,-0.467951,0.020935001,-0.491342992,-0.189956993,0.247940004,0.01537,0.120929003,0.293666005,0.207268,-0.235273004,0.062537,0.326056004,0.384656012,-0.006196,-0.528950989,-0.356837004,-0.292005986,-0.214870006,-0.234761998,-0.310975999,0.091527,-0.038056001,-0.151522994,-0.228222996,-0.023614001,0.238710999,-0.247047007,0.027564,-0.241216004,-0.565621018,-0.207266003,0.123558,0.061494,0.496592999,-0.128010005,-0.182960004,-0.264921993,-0.117234997,-0.550417006,-0.354638994,0.576385975,-0.462157995,-0.072613999,-0.202019006,0.237084001,0.662535012,-0.382723004,0.184019998,0.636946976,-0.046213999,0.195601001,0.245601997,-0.117751002,0.246089995,-0.016721999,0.488970011,0.294842005,-0.325668007,0.077287003,-0.083310001,0.524070024,-0.243138999,0.046595,0.48337999,-0.017186999,0.097116001,0.214419007,0.105465002,-0.475872993,0.341854006,-0.060392,-0.160030007,0.170001999,-0.198529005,-0.180372,0.242473006,0.26591599,-0.151594996,-0.284979999,0.068149,0.212654993,-0.245465994,0.257149994,-0.628135979,0.044996999,-0.303002,-0.192927003,0.144347996,0.346619993,0.206548005,-0.056713,0.56141299,-0.056963999,-0.27026999,-0.052361999,-0.234509006,0.242927,0.499392003,0.084959,-0.329881996,0.04073,-0.350318015,-0.352288008,-0.012125,-0.144832999,0.506757975,-0.108617999,0.188681006,-0.095536999,-0.291155994,0.002923,-0.215938002,0.163645998,-0.080017,-0.469994009,-0.307691008,0.440349013,0.122625001,-0.354674995,0.468609989,-0.48841399,-0.67416501,-0.120338999,-0.060288999,-0.184993997,-0.019716,0.572960973,-0.381693989,-0.092184,-0.32049799,-0.113517001,-0.153781995,0.354378015,-0.405400008,0.169122994,0.022608999,0.094885997,0.161151007,-0.164152995,0.203419,-0.336755991,-0.303593993,0.188823998,0.127265006,0.070926003,-0.076497003,0.051371001,0.134189993,0.015631,0.421380997,0.268148005,0.305606991,-0.514636993,0.800089002,-0.141607001,-0.204582006,0.170956999,0.051580001,0.29430899,-0.093051001,-0.085605003,-0.298693001,-0.028618,-0.035208002,-0.079559997,-0.040546,-0.095344,-0.137345999,0.179068998,-0.232414007,0.202215999,0.315988988,0.134018004,0.084361002,-0.402952999,0.207686007,0.049940001,0.355466992,0.104966998,0.383872002,-0.184423,0.371600986,-0.028032999,-0.193691,0.386887014,-0.119006,0.642764986,-0.055851001,-0.200914994,0.042537998,-0.133691996,-0.115703002,0.025478,-0.049807999,0.472140998,-0.086949997,0.275593996,-0.794601977,-0.030850001,-0.249881998,0.137410998,-0.179315001,0.325637013,0.335628003,-0.003942,0.059655,0.418918997,0.004549,-0.335687011,-0.089557,0.163352996,0.021164,-0.203520998,0.587746978,-0.102412,0.239409998,-0.359705001,-0.224445,0.005014,0.122864,-0.091821998,0.451638997,-0.021613,0.307016999,0.267948985,0.218509004,-0.392737001,0.516919017,0.432090014,-0.288313001,-0.062038001,0.601522982,-0.227362007,-0.058552999,-0.006268,-0.103362001,-0.169499993,-0.413439006,-0.486185998,-0.039873999,-0.176640004,-0.225080997,-0.239396006,-0.319213003,-0.266086996,0.141976997,0.267457992,0.120566003,-0.538272023,-0.377494007,-0.0138,-0.018371001,-0.091505997,0.158429995,0.207049996,-0.055050999,-0.044982001,-0.086006001,-0.227653995,-0.259259999,-0.423049986,0.078417003,-0.058196001,-0.223187998,-0.100098997,-0.096404999,0.279139012,0.331559002,0.506285012,0.345908999,-0.040828001,0.289546013,-0.295477986,0.281895012,0.026014,0.126920998,0.277837992,-0.081568003,-0.197228,0.159445003,-0.491506994,0.044927999,0.248601004,0.045286,0.237978995,-0.170592993,-0.177405,0.207121,-0.064932004,-0.069287002,0.372684002,0.203857005,-0.181660995,-0.121320002,-0.359833002,0.366384,0.410685986,0.288284987,-0.076090001,-0.340467006,-0.258442014,0.367246002,0.148101002,-0.390184999,-0.281091988,0.031415001,0.135217994,-0.059195999,-0.348576993,-0.037875999,-0.048914999,0.254806995,-0.112816997,0.315358013,-0.225419,-0.653231025,-0.282101989,-0.202281997,-0.242884994,0.048266999,0.124449998,-0.343970001,-0.770416975,-0.040077001,0.094111003,0.194392994,-0.211814001,-0.494783998,0.417890012,-0.060447,-0.042061001,0.420985013,0.095740996,-0.261548996,-0.153136,0.093937002,0.063686997,-0.248243004,-0.106205001,-0.091756999,-0.155390993,-0.120554999,-0.235414997,-0.076426998,0.076187998,0.257371008,-0.420195013,-0.145318002,-0.397275001,-0.285784006,-0.226252005,0.228029996,-0.219696,0.232948005,0.474776,0.28677699,-0.262396991,-0.730350971,-0.055550002,-0.599057972,-0.205464005,0.201508999,0.048588999,-0.262504011,-0.325010002,-0.492926002,-0.438327014,-0.543444991,0.011426,-0.689788997,-0.044902999,0.208745003,,-0.143979996,0.240954995,0.109747998,-0.201192006,0.274654001,0.183162004,0.312525004,-0.338514,0.124335997,0.208216995,-0.034212001,-0.600035012,-0.44275099,-0.001807,-0.194664001,-0.047869001,0.272020012,-0.018433001,0.394878,-0.369010001,-0.052579001,0.072953999,-0.171865001,0.018550999,-0.033413,0.238392994,-0.446761012,0.297879994,-0.467951,0.020935001,-0.491342992,-0.189956993,0.247940004,0.01537,0.120929003,0.293666005,0.207268,-0.235273004,0.062537,0.326056004,0.384656012,-0.006196,-0.528950989,-0.356837004,-0.292005986,-0.214870006,-0.234761998,-0.310975999,0.091527,-0.038056001,-0.151522994,-0.228222996,-0.023614001,0.238710999,-0.247047007,0.027564,-0.241216004,-0.565621018,-0.207266003,0.123558,0.061494,0.496592999,-0.128010005,-0.182960004,-0.264921993,-0.117234997,-0.550417006,-0.354638994,0.576385975,-0.462157995,-0.072613999,-0.202019006,0.237084001,0.662535012,-0.382723004,0.184019998,0.636946976,-0.046213999,0.195601001,0.245601997,-0.117751002,0.246089995,-0.016721999,0.488970011,0.294842005,-0.325668007,0.077287003,-0.083310001,0.524070024,-0.243138999,0.046595,0.48337999,-0.017186999,0.097116001,0.214419007,0.105465002,-0.475872993,0.341854006,-0.060392,-0.160030007,0.170001999,-0.198529005,-0.180372,0.242473006,0.26591599,-0.151594996,-0.284979999,0.068149,0.212654993,-0.245465994,0.257149994,-0.628135979,0.044996999,-0.303002,-0.192927003,0.144347996,0.346619993,0.206548005,-0.056713,0.56141299,-0.056963999,-0.27026999,-0.052361999,-0.234509006,0.242927,0.499392003,0.084959,-0.329881996,0.04073,-0.350318015,-0.352288008,-0.012125,-0.144832999,0.506757975,-0.108617999,0.188681006,-0.095536999,-0.291155994,0.002923,-0.215938002,0.163645998,-0.080017,-0.469994009,-0.307691008,0.440349013,0.122625001,-0.354674995,0.468609989,-0.48841399,-0.67416501,-0.120338999,-0.060288999,-0.184993997,-0.019716,0.572960973,-0.381693989,-0.092184,-0.32049799,-0.113517001,-0.153781995,0.354378015,-0.405400008,0.169122994,0.022608999,0.094885997,0.161151007,-0.164152995,0.203419,-0.336755991,-0.303593993,0.188823998,0.127265006,0.070926003,-0.076497003,0.051371001,0.134189993,0.015631,0.421380997,0.268148005,0.305606991,-0.514636993,0.800089002,-0.141607001,-0.204582006,0.170956999,0.051580001,0.29430899,-0.093051001,-0.085605003,-0.298693001,-0.028618,-0.035208002,-0.079559997,-0.040546,-0.095344,-0.137345999,0.179068998,-0.232414007,0.202215999,0.315988988,0.134018004,0.084361002,-0.402952999,0.207686007,0.049940001,0.355466992,0.104966998,0.383872002,-0.184423,0.371600986,-0.028032999,-0.193691,0.386887014,-0.119006,0.642764986,-0.055851001,-0.200914994,0.042537998,-0.133691996,-0.115703002,0.025478,-0.049807999,0.472140998,-0.086949997,0.275593996,-0.794601977,-0.030850001,-0.249881998,0.137410998,-0.179315001,0.325637013,0.335628003,-0.003942,0.059655,0.418918997,0.004549,-0.335687011,-0.089557,0.163352996,0.021164,-0.203520998,0.587746978,-0.102412,0.239409998,-0.359705001,-0.224445,0.005014,0.122864,-0.091821998,0.451638997,-0.021613,0.307016999,0.267948985,0.218509004,-0.392737001,0.516919017,0.432090014,-0.288313001,-0.062038001,0.601522982,-0.227362007,-0.058552999,-0.006268,-0.103362001,-0.169499993,-0.413439006,-0.486185998,-0.039873999,-0.176640004,-0.225080997,-0.239396006,-0.319213003,-0.266086996,0.141976997,0.267457992,0.120566003,-0.538272023,-0.377494007,-0.0138,-0.018371001,-0.091505997,0.158429995,0.207049996,-0.055050999,-0.044982001,-0.086006001,-0.227653995,-0.259259999,-0.423049986,0.078417003,-0.058196001,-0.223187998,-0.100098997,-0.096404999,0.279139012,0.331559002,0.506285012,0.345908999,-0.040828001,0.289546013,-0.295477986,0.281895012,0.026014,0.126920998,0.277837992,-0.081568003,-0.197228,0.159445003,-0.491506994,0.044927999,0.248601004,0.045286,0.237978995,-0.170592993,-0.177405,0.207121,-0.064932004,-0.069287002,0.372684002,0.203857005,-0.181660995,-0.121320002,-0.359833002,0.366384,0.410685986,0.288284987,-0.076090001,-0.340467006,-0.258442014,0.367246002,0.148101002,-0.390184999,-0.281091988,0.031415001,0.135217994,-0.059195999,-0.348576993,-0.037875999,-0.048914999,0.254806995,-0.112816997,0.315358013,-0.225419,-0.653231025,-0.282101989,-0.202281997,-0.242884994,0.048266999,0.124449998,-0.343970001,-0.770416975,-0.040077001,0.094111003,0.194392994,-0.211814001,-0.494783998,0.417890012,-0.060447,-0.042061001,0.420985013,0.095740996,-0.261548996,-0.153136,0.093937002,0.063686997,-0.248243004,-0.106205001,-0.091756999,-0.155390993,-0.120554999,-0.235414997,-0.076426998,0.076187998,0.257371008,-0.420195013,-0.145318002,-0.397275001,-0.285784006,-0.226252005,0.228029996,-0.219696,0.232948005,0.474776,0.28677699,-0.262396991,-0.730350971,-0.055550002,-0.599057972,-0.205464005,0.201508999,0.048588999,-0.262504011,-0.325010002,-0.492926002,-0.438327014,-0.543444991,0.011426,-0.689788997,-0.044902999,0.208745003
乘客,1.159155965,0.997657001,0.410914004,1.300693989,1.170629025,-0.74447298,2.129673004,-0.499325007,-0.067970999,2.178911924,-0.518759012,-0.849359989,-0.548242986,-1.675194979,0.768262982,1.752802014,-0.103193998,-0.670309007,0.230991006,-1.615267038,0.929530025,-0.051716998,-1.108096004,-2.509088993,3.123162985,0.91148001,-0.285800993,-0.106570996,1.107555985,2.408930063,1.421872973,-0.156834006,-0.725827992,1.636075974,2.291373968,3.018753052,2.412286997,-1.65299201,-1.763358951,1.639659047,-0.120477997,0.089537002,-1.588062048,0.461602986,1.217908025,0.554499984,-0.527559996,0.92840898,2.428030968,-0.460345,2.072454929,-2.299746037,-0.908042014,1.042371035,-1.733993053,-0.042838998,0.420569003,-0.660260022,-1.898694992,1.00731802,0.707370996,-0.677405,2.053245068,-1.027503014,-0.474032015,1.960924983,0.484488994,-2.534461975,0.120149001,-0.981200993,-1.233296037,1.490231037,-0.315059006,0.028973,1.188902974,1.250323057,2.407768011,0.995572984,-0.120100997,3.406575918,1.97961998,-2.307528019,0.51315701,0.112130001,-0.074807003,-1.622851968,-0.832256973,1.36124301,1.458266974,2.026949883,-0.840613008,2.54153204,0.220529005,1.000713944,-0.604516983,-0.466749012,-0.964985013,1.404008031,0.219134003,2.123820066,0.796115994,-0.177193001,0.883387983,0.655712008,-2.453182936,-0.757443011,1.429669023,-2.539088964,0.374956012,1.632200003,1.675408006,-2.372987032,1.29161799,0.853778005,-0.732551992,0.975781024,0.436762989,0.282678008,1.946244001,0.650255978,1.058037996,-0.879949987,0.047237001,-0.765510023,-0.136571005,-0.517428994,-0.556374013,-0.116714001,-0.131377995,-1.20134902,0.289373994,-0.745585024,-0.919969022,0.182655007,-1.980875015,-2.642019987,0.060040001,-0.482717007,1.173694968,0.398003012,1.640444994,-0.114825003,-0.840930998,-2.219978094,-0.781545997,-1.672899961,0.482423991,0.911024988,-0.724067986,-2.399799109,-0.971475005,-1.11758399,-1.399891973,2.24110198,1.046856999,0.892120004,-1.856578946,1.940067053,-0.138835996,-1.352344036,2.167284012,-2.71172905,-0.539379001,-0.344071001,-0.183449,0.698763013,-1.399518967,-0.189616993,-1.239645004,1.197034955,-0.765106976,1.519436955,2.151228905,0.432229012,1.181900978,1.494238019,0.113199003,0.862421989,1.452303052,0.494798988,1.843523026,0.527817011,0.954168975,0.494672,0.297066003,2.081311941,0.414189994,0.313977003,-0.153778002,-1.07733202,-1.664011955,1.033473015,-1.455410004,0.329185992,1.129649997,-0.875477016,-0.905547976,-1.824401021,1.233772993,0.115185,-0.092652,-1.39597404,1.439247012,1.381755948,1.638321042,-0.845954001,0.840708017,1.309129,1.541944027,0.466906011,0.624575973,1.231997967,-2.054001093,-1.476699948,1.052772999,-0.310306996,-1.699530959,-1.006585002,0.451171994,-0.624306977,-0.157404006,-1.419178009,0.57605499,1.594215035,1.877814054,2.95856595,-0.80271101,1.567443013,3.583214998,-1.520333052,-2.52501893,-1.483963966,0.352503985,0.450423002,0.022675,-0.38726899,-0.012085,-0.225169003,0.732370973,1.808884978,-0.64367801,2.080558062,-0.133560002,-0.492145985,0.542914987,0.398445994,-0.68165803,0.321529001,-1.168638945,0.430702001,-0.109025002,1.089954019,-0.392715007,-1.24179697,0.008022,-0.85255599,0.463411987,1.849920988,1.22665298,-0.264299989,1.275032997,-0.174771994,1.951112032,-1.811741948,-0.221175,-1.248366952,-0.510488987,0.344875991,0.921585977,-2.747262001,-0.203343004,0.979314983,2.489025116,0.926738024,1.844056964,0.81032902,3.076586962,-0.021966999,0.994807005,1.028339028,0.931285977,1.505694985,-1.664621949,1.04042995,0.019088,1.304234982,-0.439592987,-0.774730027,1.44698596,0.835685015,0.078268997,0.919354022,0.991742015,-1.348896027,2.055778027,-1.006734014,1.07870698,-0.61935401,-0.629074991,-0.797559977,-2.107547045,-0.949440002,-0.670819998,0.490033001,-0.442106009,1.826259017,-1.061702013,-0.388622999,-0.613030016,-0.126550004,-0.874324024,0.120581999,1.012624979,-1.031692982,0.073756002,-0.560676992,0.025423,-1.099323034,-0.885824978,1.098353982,0.234319001,2.702075005,0.214637995,1.207622051,1.21923399,-0.795852005,0.237307996,1.276044965,0.220783994,-1.03760004,2.987827063,-0.110472001,0.542051971,-1.280066013,0.62165302,0.343849987,-0.379819989,0.841804981,-0.517230988,0.508368015,-1.843369961,-0.722721994,1.022843003,0.109502003,0.323278993,-2.463006973,-0.86966902,1.627223015,0.825962007,-1.222663045,0.906727016,0.493065,-0.639421999,-0.736024976,0.048269998,-0.547291994,0.303171009,1.17136395,-0.59909302,3.737467051,-0.793591022,-1.766536951,-2.168720007,0.551159978,1.471925974,0.528460026,0.155440003,-2.510632992,-0.912974,-1.599534988,-0.099206999,1.357146978,0.192334995,-1.299893975,-1.408907056,-0.380917013,-2.790374994,-0.29678601,-1.292086959,-0.581430972,-2.248379946,0.852370977,1.691784978,-0.678265989,0.944356024,-2.524032116,-1.084422946,-0.057199001,0.635380983,0.239296004,-1.817926049,0.914838016,-0.99326098,-1.427685976,0.509452999,-2.698759079,-1.94580996,1.041496038,1.211591959,0.158977002,涔瀹,1.159155965,0.997657001,0.410914004,1.300693989,1.170629025,-0.74447298,2.129673004,-0.499325007,-0.067970999,2.178911924,-0.518759012,-0.849359989,-0.548242986,-1.675194979,0.768262982,1.752802014,-0.103193998,-0.670309007,0.230991006,-1.615267038,0.929530025,-0.051716998,-1.108096004,-2.509088993,3.123162985,0.91148001,-0.285800993,-0.106570996,1.107555985,2.408930063,1.421872973,-0.156834006,-0.725827992,1.636075974,2.291373968,3.018753052,2.412286997,-1.65299201,-1.763358951,1.639659047,-0.120477997,0.089537002,-1.588062048,0.461602986,1.217908025,0.554499984,-0.527559996,0.92840898,2.428030968,-0.460345,2.072454929,-2.299746037,-0.908042014,1.042371035,-1.733993053,-0.042838998,0.420569003,-0.660260022,-1.898694992,1.00731802,0.707370996,-0.677405,2.053245068,-1.027503014,-0.474032015,1.960924983,0.484488994,-2.534461975,0.120149001,-0.981200993,-1.233296037,1.490231037,-0.315059006,0.028973,1.188902974,1.250323057,2.407768011,0.995572984,-0.120100997,3.406575918,1.97961998,-2.307528019,0.51315701,0.112130001,-0.074807003,-1.622851968,-0.832256973,1.36124301,1.458266974,2.026949883,-0.840613008,2.54153204,0.220529005,1.000713944,-0.604516983,-0.466749012,-0.964985013,1.404008031,0.219134003,2.123820066,0.796115994,-0.177193001,0.883387983,0.655712008,-2.453182936,-0.757443011,1.429669023,-2.539088964,0.374956012,1.632200003,1.675408006,-2.372987032,1.29161799,0.853778005,-0.732551992,0.975781024,0.436762989,0.282678008,1.946244001,0.650255978,1.058037996,-0.879949987,0.047237001,-0.765510023,-0.136571005,-0.517428994,-0.556374013,-0.116714001,-0.131377995,-1.20134902,0.289373994,-0.745585024,-0.919969022,0.182655007,-1.980875015,-2.642019987,0.060040001,-0.482717007,1.173694968,0.398003012,1.640444994,-0.114825003,-0.840930998,-2.219978094,-0.781545997,-1.672899961,0.482423991,0.911024988,-0.724067986,-2.399799109,-0.971475005,-1.11758399,-1.399891973,2.24110198,1.046856999,0.892120004,-1.856578946,1.940067053,-0.138835996,-1.352344036,2.167284012,-2.71172905,-0.539379001,-0.344071001,-0.183449,0.698763013,-1.399518967,-0.189616993,-1.239645004,1.197034955,-0.765106976,1.519436955,2.151228905,0.432229012,1.181900978,1.494238019,0.113199003,0.862421989,1.452303052,0.494798988,1.843523026,0.527817011,0.954168975,0.494672,0.297066003,2.081311941,0.414189994,0.313977003,-0.153778002,-1.07733202,-1.664011955,1.033473015,-1.455410004,0.329185992,1.129649997,-0.875477016,-0.905547976,-1.824401021,1.233772993,0.115185,-0.092652,-1.39597404,1.439247012,1.381755948,1.638321042,-0.845954001,0.840708017,1.309129,1.541944027,0.466906011,0.624575973,1.231997967,-2.054001093,-1.476699948,1.052772999,-0.310306996,-1.699530959,-1.006585002,0.451171994,-0.624306977,-0.157404006,-1.419178009,0.57605499,1.594215035,1.877814054,2.95856595,-0.80271101,1.567443013,3.583214998,-1.520333052,-2.52501893,-1.483963966,0.352503985,0.450423002,0.022675,-0.38726899,-0.012085,-0.225169003,0.732370973,1.808884978,-0.64367801,2.080558062,-0.133560002,-0.492145985,0.542914987,0.398445994,-0.68165803,0.321529001,-1.168638945,0.430702001,-0.109025002,1.089954019,-0.392715007,-1.24179697,0.008022,-0.85255599,0.463411987,1.849920988,1.22665298,-0.264299989,1.275032997,-0.174771994,1.951112032,-1.811741948,-0.221175,-1.248366952,-0.510488987,0.344875991,0.921585977,-2.747262001,-0.203343004,0.979314983,2.489025116,0.926738024,1.844056964,0.81032902,3.076586962,-0.021966999,0.994807005,1.028339028,0.931285977,1.505694985,-1.664621949,1.04042995,0.019088,1.304234982,-0.439592987,-0.774730027,1.44698596,0.835685015,0.078268997,0.919354022,0.991742015,-1.348896027,2.055778027,-1.006734014,1.07870698,-0.61935401,-0.629074991,-0.797559977,-2.107547045,-0.949440002,-0.670819998,0.490033001,-0.442106009,1.826259017,-1.061702013,-0.388622999,-0.613030016,-0.126550004,-0.874324024,0.120581999,1.012624979,-1.031692982,0.073756002,-0.560676992,0.025423,-1.099323034,-0.885824978,1.098353982,0.234319001,2.702075005,0.214637995,1.207622051,1.21923399,-0.795852005,0.237307996,1.276044965,0.220783994,-1.03760004,2.987827063,-0.110472001,0.542051971,-1.280066013,0.62165302,0.343849987,-0.379819989,0.841804981,-0.517230988,0.508368015,-1.843369961,-0.722721994,1.022843003,0.109502003,0.323278993,-2.463006973,-0.86966902,1.627223015,0.825962007,-1.222663045,0.906727016,0.493065,-0.639421999,-0.736024976,0.048269998,-0.547291994,0.303171009,1.17136395,-0.59909302,3.737467051,-0.793591022,-1.766536951,-2.168720007,0.551159978,1.471925974,0.528460026,0.155440003,-2.510632992,-0.912974,-1.599534988,-0.099206999,1.357146978,0.192334995,-1.299893975,-1.408907056,-0.380917013,-2.790374994,-0.29678601,-1.292086959,-0.581430972,-2.248379946,0.852370977,1.691784978,-0.678265989,0.944356024,-2.524032116,-1.084422946,-0.057199001,0.635380983,0.239296004,-1.817926049,0.914838016,-0.99326098,-1.427685976,0.509452999,-2.698759079,-1.94580996,1.041496038,1.211591959,0.158977002
基准,-0.585087001,0.429015994,0.27590999,-0.728070021,1.154541969,0.280115992,0.104013003,-1.624485016,-0.346693993,-0.052131999,-0.525484025,0.535148978,-0.841145992,1.895465016,-0.949434996,-1.608549953,-1.240558982,-0.413787007,0.524196029,-0.054299001,-0.518667996,0.546644986,-0.266512007,-0.891346991,-0.104511,-0.144814,-0.084175996,0.218429998,-0.619037986,-0.191069007,0.89003402,-0.84217,1.427332997,0.818298995,1.653118968,-0.429740012,1.466267943,-0.370463014,-0.176434994,0.436374009,0.320589006,-0.118933998,-1.356233001,-0.289133012,-0.654564977,1.346425056,-0.313075989,-0.911670029,0.544925988,-0.014368,0.431371987,-0.530417025,0.318462014,0.121004,-0.702740014,1.030702949,0.230825007,-0.033321999,-0.578410983,-0.333624989,-1.50011003,1.12727499,-0.104493,0.462498993,-0.053004,-1.395620942,-0.520757973,0.136423007,0.394492,-0.524344027,-0.716719985,-0.56487,0.137658,1.171244979,0.209918007,-0.663583994,0.703274012,1.055505037,-0.351790011,1.033599019,-0.114317,-0.527068973,0.575568974,-0.639154017,0.164202005,0.606912017,-0.163481995,-0.440993011,1.290660024,-0.498257011,-0.484064013,-0.318646014,1.07902205,-0.439512998,1.022264957,-0.451880008,1.011239052,0.431293994,-0.77837503,0.052338,0.008967,-0.478852004,0.47140801,0.317604989,1.828765988,-1.531200051,1.653581977,0.130322993,-0.683010995,-0.832540989,1.217627048,-0.158039004,-0.939383984,0.922304988,-2.140041113,0.843581975,0.168350995,-0.007864,0.280746013,0.808802009,1.310070992,-1.167580962,-0.089709997,-0.385778993,-0.762359023,-0.711969018,-0.491409987,-1.198845029,0.376186997,-0.304921001,0.310413986,-0.768202007,-1.423704982,1.334792018,0.879535973,0.344738007,0.053771999,0.506953001,0.066094004,-0.239302993,1.673609018,-0.267554998,0.090020001,0.114376001,0.815492988,0.006151,0.900545001,-1.015871048,1.041666031,-0.687694013,2.224931955,-0.801536024,1.092553973,1.253978014,-0.024785001,0.399688005,0.486346006,-0.774164021,-0.46816799,0.123299003,-0.641094983,-0.676755011,0.922290027,-1.242629051,0.352086991,1.566684008,-0.637494981,0.335357994,-0.048808001,0.002828,-0.552765012,0.026663,0.134114996,0.277680993,-0.610906005,1.161543012,1.946246028,-0.800787985,-1.544613004,0.743897021,-1.278795958,0.269192994,1.127478004,0.002387,0.84017098,0.062307,-0.686915994,0.041591,1.448981047,-0.086692996,0.140991002,-0.281574011,-0.983566999,1.046980977,-0.837781012,0.745073974,0.559472024,-0.331387013,0.730440021,0.065367997,1.516896963,-0.266092986,-2.156151056,0.329064995,1.897523999,-0.584053993,-0.678062022,1.219159007,-0.243992001,1.222954035,-0.748555005,0.011599,1.741179943,0.128971994,0.595930994,-0.172321007,-1.616871953,0.021005001,0.099124998,0.102819003,0.573234975,1.663625002,0.239245996,0.801047027,0.900650978,-0.322528988,0.914955974,-1.205909967,-0.126111001,0.893510997,0.266072005,0.013041,0.061965,-0.739612997,0.279585004,-1.29203999,0.639531016,1.546471,-1.255879045,-1.115270019,0.821228027,0.508001029,-0.457228005,-0.723396003,-0.229883,-1.48812902,-0.181410998,-0.544128001,-0.01244,-0.123563997,-0.193952993,0.97202599,1.068323016,-0.252667993,-1.026015997,0.292524993,-0.077179998,-0.077661,1.348304033,0.466598004,-0.056526002,0.544911027,0.635881007,-0.706484973,-0.674973011,0.276686996,-0.309197009,-0.118804999,-0.138396993,-1.651438951,-0.541269004,-1.375617027,-0.723568022,1.014230967,-0.95509398,1.566238999,-0.688512981,0.125558004,1.040073037,0.775210977,0.068499997,-1.973796964,0.025432,-0.699231982,-0.090869002,0.270163,-0.616662979,0.856262028,-0.108493999,0.799503982,-0.922836006,1.136813045,0.030624,-1.706014991,-0.535570979,0.838092983,1.202394009,0.646929979,-0.272682011,-0.619756997,0.012082,-0.147401005,-0.714442015,2.004611015,-0.427657008,-0.898280978,-0.504842997,0.837150991,-1.429949999,-0.673929989,-0.764069021,-0.350697011,-0.749786973,0.381181002,-0.829685986,-0.444049001,0.534510016,0.869958997,1.025424957,0.760003984,-0.105683997,-0.274589002,-0.485401005,0.747340977,0.33405301,-0.33464399,0.268220007,1.143764019,0.274002999,0.190853998,0.961642027,-0.153220996,-1.214228034,-0.527577996,0.505985022,0.287245005,-0.032708999,-0.238420993,0.165206,-0.849398017,1.427559972,-0.507357001,-1.124529958,1.797027946,1.021983981,0.148920998,0.48743099,1.135975003,0.490893006,-0.552923977,0.545216978,-1.300112009,0.343466014,1.397837043,-0.186369002,-1.694128037,0.361140996,0.445199013,-0.150703996,0.201208994,0.442696005,-1.150197983,0.521836996,0.401957989,0.176494002,-0.966798007,0.573309004,-0.026689,-0.264878005,-0.012795,0.155837998,-0.276814014,0.533482015,-0.597187996,-0.806879997,-0.610201001,-0.682439029,-0.204664007,-0.848345995,-0.591319025,-0.081924997,1.56566596,-0.264304012,-1.094504952,0.339087009,-1.752156973,-0.822659016,-1.643470049,-0.508462012,0.120422997,-1.328348041,0.125980005,-0.154568002,-0.764482021,1.037848949,-1.890717983,0.653527021,-1.023826003,1.826275945,0.000213,哄,-0.585087001,0.429015994,0.27590999,-0.728070021,1.154541969,0.280115992,0.104013003,-1.624485016,-0.346693993,-0.052131999,-0.525484025,0.535148978,-0.841145992,1.895465016,-0.949434996,-1.608549953,-1.240558982,-0.413787007,0.524196029,-0.054299001,-0.518667996,0.546644986,-0.266512007,-0.891346991,-0.104511,-0.144814,-0.084175996,0.218429998,-0.619037986,-0.191069007,0.89003402,-0.84217,1.427332997,0.818298995,1.653118968,-0.429740012,1.466267943,-0.370463014,-0.176434994,0.436374009,0.320589006,-0.118933998,-1.356233001,-0.289133012,-0.654564977,1.346425056,-0.313075989,-0.911670029,0.544925988,-0.014368,0.431371987,-0.530417025,0.318462014,0.121004,-0.702740014,1.030702949,0.230825007,-0.033321999,-0.578410983,-0.333624989,-1.50011003,1.12727499,-0.104493,0.462498993,-0.053004,-1.395620942,-0.520757973,0.136423007,0.394492,-0.524344027,-0.716719985,-0.56487,0.137658,1.171244979,0.209918007,-0.663583994,0.703274012,1.055505037,-0.351790011,1.033599019,-0.114317,-0.527068973,0.575568974,-0.639154017,0.164202005,0.606912017,-0.163481995,-0.440993011,1.290660024,-0.498257011,-0.484064013,-0.318646014,1.07902205,-0.439512998,1.022264957,-0.451880008,1.011239052,0.431293994,-0.77837503,0.052338,0.008967,-0.478852004,0.47140801,0.317604989,1.828765988,-1.531200051,1.653581977,0.130322993,-0.683010995,-0.832540989,1.217627048,-0.158039004,-0.939383984,0.922304988,-2.140041113,0.843581975,0.168350995,-0.007864,0.280746013,0.808802009,1.310070992,-1.167580962,-0.089709997,-0.385778993,-0.762359023,-0.711969018,-0.491409987,-1.198845029,0.376186997,-0.304921001,0.310413986,-0.768202007,-1.423704982,1.334792018,0.879535973,0.344738007,0.053771999,0.506953001,0.066094004,-0.239302993,1.673609018,-0.267554998,0.090020001,0.114376001,0.815492988,0.006151,0.900545001,-1.015871048,1.041666031,-0.687694013,2.224931955,-0.801536024,1.092553973,1.253978014,-0.024785001,0.399688005,0.486346006,-0.774164021,-0.46816799,0.123299003,-0.641094983,-0.676755011,0.922290027,-1.242629051,0.352086991,1.566684008,-0.637494981,0.335357994,-0.048808001,0.002828,-0.552765012,0.026663,0.134114996,0.277680993,-0.610906005,1.161543012,1.946246028,-0.800787985,-1.544613004,0.743897021,-1.278795958,0.269192994,1.127478004,0.002387,0.84017098,0.062307,-0.686915994,0.041591,1.448981047,-0.086692996,0.140991002,-0.281574011,-0.983566999,1.046980977,-0.837781012,0.745073974,0.559472024,-0.331387013,0.730440021,0.065367997,1.516896963,-0.266092986,-2.156151056,0.329064995,1.897523999,-0.584053993,-0.678062022,1.219159007,-0.243992001,1.222954035,-0.748555005,0.011599,1.741179943,0.128971994,0.595930994,-0.172321007,-1.616871953,0.021005001,0.099124998,0.102819003,0.573234975,1.663625002,0.239245996,0.801047027,0.900650978,-0.322528988,0.914955974,-1.205909967,-0.126111001,0.893510997,0.266072005,0.013041,0.061965,-0.739612997,0.279585004,-1.29203999,0.639531016,1.546471,-1.255879045,-1.115270019,0.821228027,0.508001029,-0.457228005,-0.723396003,-0.229883,-1.48812902,-0.181410998,-0.544128001,-0.01244,-0.123563997,-0.193952993,0.97202599,1.068323016,-0.252667993,-1.026015997,0.292524993,-0.077179998,-0.077661,1.348304033,0.466598004,-0.056526002,0.544911027,0.635881007,-0.706484973,-0.674973011,0.276686996,-0.309197009,-0.118804999,-0.138396993,-1.651438951,-0.541269004,-1.375617027,-0.723568022,1.014230967,-0.95509398,1.566238999,-0.688512981,0.125558004,1.040073037,0.775210977,0.068499997,-1.973796964,0.025432,-0.699231982,-0.090869002,0.270163,-0.616662979,0.856262028,-0.108493999,0.799503982,-0.922836006,1.136813045,0.030624,-1.706014991,-0.535570979,0.838092983,1.202394009,0.646929979,-0.272682011,-0.619756997,0.012082,-0.147401005,-0.714442015,2.004611015,-0.427657008,-0.898280978,-0.504842997,0.837150991,-1.429949999,-0.673929989,-0.764069021,-0.350697011,-0.749786973,0.381181002,-0.829685986,-0.444049001,0.534510016,0.869958997,1.025424957,0.760003984,-0.105683997,-0.274589002,-0.485401005,0.747340977,0.33405301,-0.33464399,0.268220007,1.143764019,0.274002999,0.190853998,0.961642027,-0.153220996,-1.214228034,-0.527577996,0.505985022,0.287245005,-0.032708999,-0.238420993,0.165206,-0.849398017,1.427559972,-0.507357001,-1.124529958,1.797027946,1.021983981,0.148920998,0.48743099,1.135975003,0.490893006,-0.552923977,0.545216978,-1.300112009,0.343466014,1.397837043,-0.186369002,-1.694128037,0.361140996,0.445199013,-0.150703996,0.201208994,0.442696005,-1.150197983,0.521836996,0.401957989,0.176494002,-0.966798007,0.573309004,-0.026689,-0.264878005,-0.012795,0.155837998,-0.276814014,0.533482015,-0.597187996,-0.806879997,-0.610201001,-0.682439029,-0.204664007,-0.848345995,-0.591319025,-0.081924997,1.56566596,-0.264304012,-1.094504952,0.339087009,-1.752156973,-0.822659016,-1.643470049,-0.508462012,0.120422997,-1.328348041,0.125980005,-0.154568002,-0.764482021,1.037848949,-1.890717983,0.653527021,-1.023826003,1.826275945,0.000213
具有,-0.068181001,1.404706001,2.580152988,-0.417515993,1.009624004,-1.168177009,1.306087017,0.617208004,-0.418976009,0.680073977,0.032067001,-0.412878007,-0.458056003,-1.797669053,-0.482612014,-0.850849986,-2.08274889,-1.794381976,-0.077083997,-1.89013195,-0.183202997,1.710371017,-0.51523,1.497156024,1.355115056,1.700451016,0.843391001,0.205026001,-0.423913002,0.064859003,-1.093621016,0.033753999,-0.537654996,1.055663943,0.016620999,0.80635798,-0.569635987,-1.494699001,-1.226475954,1.73556304,0.055863999,0.265271008,0.105435997,-2.353790045,-0.376747996,-0.365561992,1.255486012,-2.271579981,1.02639401,0.006924,2.407118082,2.470787048,0.168236002,0.261465997,-0.577809989,-0.711461008,1.208655953,-1.497503996,-1.417256951,0.847477019,-0.984902024,-1.347740054,-0.193630993,-0.443363011,-2.121325016,-1.611611962,-0.036683999,0.077055998,-1.238834977,0.37094301,0.356952012,0.782513022,0.139865994,1.467123985,-0.82842201,-1.271275997,1.791893005,0.040472001,-0.571823001,-1.202847958,0.168824002,0.45747,1.387511969,0.67535001,0.668947995,-0.020854,-0.198296994,-1.332386017,-0.342359006,0.202732995,0.675924003,-0.059631001,0.79281801,0.174928993,-1.061696053,0.602424979,2.692667961,-0.856046021,-0.832304001,-0.920239985,0.240029007,0.790196002,0.500250995,1.209828019,-0.877777994,-1.549532056,0.789002001,-0.027062001,-0.210247993,-1.728011966,0.124601997,-0.01024,-1.987946033,0.560718,-0.582768977,0.270738006,1.570742965,-2.07348609,-0.341502994,-0.572614014,0.466809005,-2.113531113,0.257672012,-1.077363968,-1.490241051,0.523836017,-3.890933037,0.032237001,0.614049017,1.946238995,0.432294995,1.025249958,-1.230263948,0.811007977,0.511888027,-0.65307498,0.123153999,0.644003987,0.620209992,0.664552987,-0.869156003,-1.142055988,-0.596728981,-1.534482002,0.863996029,-2.005791903,0.358027995,1.056280971,-0.402871996,-1.205469966,2.730568886,0.258213013,-0.436003,1.542793036,1.132825017,0.675576985,0.615074992,0.133136004,-0.850395024,1.107131004,-0.080714002,-1.68908596,1.189169049,0.004583,1.180817008,-0.973964989,-0.456936985,-1.34860599,-0.751230001,-0.329811007,-0.933367014,-0.638098001,-0.068980001,0.017749,0.480975002,0.825405002,1.907968044,2.586818933,1.568701983,2.383481026,-2.550868034,-0.167386994,0.528226018,-0.517509997,-0.928963006,-0.050795,0.072679996,0.476684004,-1.011901975,0.669575989,2.042244911,-0.568099022,1.696285963,0.644079983,-1.327219009,-0.755998015,0.02392,1.02561295,-0.916594982,1.426280975,-0.114302002,-1.091856003,-0.076949999,0.156933993,-2.759567976,0.323094994,-1.165825009,0.308063,0.931065023,1.644845963,-1.018182993,-0.313383996,0.829441011,-1.021090031,1.409232974,0.010759,-0.743929982,1.581359029,-0.006871,0.496219993,0.294970989,-0.580114007,1.247308016,0.164823994,-2.832420111,-2.682483912,-0.340783,0.111527003,-1.226330042,-0.721207023,-1.720585942,-0.587580025,0.447302997,-3.028661013,2.188096046,-1.445680976,0.390179992,0.929045975,1.129760027,0.066229999,-0.653360009,-0.080104001,1.081411004,2.456562996,0.070404001,0.708298028,-2.026722908,-0.617736995,-0.941561997,-2.543023109,1.705993056,0.749988019,0.789391994,-2.201867104,-0.992626011,-0.356705993,-1.198871017,-0.155992001,0.778155982,0.136042997,1.023543,0.391003996,0.450367004,0.455379993,-0.006854,-1.351551056,-1.852311015,1.543627024,-1.023502946,-1.024407029,-1.304425001,0.203139007,-1.239084005,-0.316504002,-0.590174019,1.331238985,-1.304810047,-0.494785011,-2.10413003,0.325338989,-0.327114999,0.678718984,1.292690992,-0.81853199,-0.577229023,-0.975718975,-0.473823011,-1.841048956,-0.951117992,2.53559804,0.138503999,0.353875011,0.318973005,-0.825444996,1.611428976,-0.528271019,0.152013004,-0.402534008,0.107335001,-2.355401039,-1.740053058,1.458389997,0.552447975,-0.745907009,-0.173974007,-0.787413001,0.289137989,1.448809981,1.35511899,0.996173024,0.924515009,-1.225448966,2.004976034,-0.649912,-1.659610987,1.289147019,0.331835002,-0.151595995,-0.958675027,-0.141911998,-0.348701,-1.57021594,-0.838141978,0.846167982,-0.327657998,0.649896026,-2.568819046,-0.188077003,-1.769968033,-2.266896009,1.336449027,-1.195896983,-1.274850011,-1.551498055,1.997308016,-1.573014975,0.634287,-0.307164013,-0.543878973,0.467918009,0.025736,1.508481026,-0.249283999,-2.27223897,1.706568956,1.082195044,-0.675953984,2.139022112,-1.671717048,0.783581972,-0.240817994,-0.77363801,2.446320057,2.2970891,0.571361005,-0.126895994,0.937871993,-0.770433009,-1.281280041,1.867980957,1.482655048,0.645736992,-2.699743032,-0.188534006,2.707067013,-0.138572007,-2.079600096,-0.427298993,-0.662240028,-0.139651001,-0.285362989,-2.027159929,1.393635035,1.65049696,-0.065879002,-1.30796802,-1.708101034,-0.022564,0.366820008,0.160209998,-0.216188997,-0.970288992,-1.240331054,0.759651005,1.819049954,-1.639435053,-0.373369992,-1.525228024,-2.562990904,1.270701051,2.015815973,1.514170051,0.541059971,-0.962484002,0.908342004,-0.727864027,1.954905987,-0.627606988,-0.308317006,-0.275135994,锋,-0.068181001,1.404706001,2.580152988,-0.417515993,1.009624004,-1.168177009,1.306087017,0.617208004,-0.418976009,0.680073977,0.032067001,-0.412878007,-0.458056003,-1.797669053,-0.482612014,-0.850849986,-2.08274889,-1.794381976,-0.077083997,-1.89013195,-0.183202997,1.710371017,-0.51523,1.497156024,1.355115056,1.700451016,0.843391001,0.205026001,-0.423913002,0.064859003,-1.093621016,0.033753999,-0.537654996,1.055663943,0.016620999,0.80635798,-0.569635987,-1.494699001,-1.226475954,1.73556304,0.055863999,0.265271008,0.105435997,-2.353790045,-0.376747996,-0.365561992,1.255486012,-2.271579981,1.02639401,0.006924,2.407118082,2.470787048,0.168236002,0.261465997,-0.577809989,-0.711461008,1.208655953,-1.497503996,-1.417256951,0.847477019,-0.984902024,-1.347740054,-0.193630993,-0.443363011,-2.121325016,-1.611611962,-0.036683999,0.077055998,-1.238834977,0.37094301,0.356952012,0.782513022,0.139865994,1.467123985,-0.82842201,-1.271275997,1.791893005,0.040472001,-0.571823001,-1.202847958,0.168824002,0.45747,1.387511969,0.67535001,0.668947995,-0.020854,-0.198296994,-1.332386017,-0.342359006,0.202732995,0.675924003,-0.059631001,0.79281801,0.174928993,-1.061696053,0.602424979,2.692667961,-0.856046021,-0.832304001,-0.920239985,0.240029007,0.790196002,0.500250995,1.209828019,-0.877777994,-1.549532056,0.789002001,-0.027062001,-0.210247993,-1.728011966,0.124601997,-0.01024,-1.987946033,0.560718,-0.582768977,0.270738006,1.570742965,-2.07348609,-0.341502994,-0.572614014,0.466809005,-2.113531113,0.257672012,-1.077363968,-1.490241051,0.523836017,-3.890933037,0.032237001,0.614049017,1.946238995,0.432294995,1.025249958,-1.230263948,0.811007977,0.511888027,-0.65307498,0.123153999,0.644003987,0.620209992,0.664552987,-0.869156003,-1.142055988,-0.596728981,-1.534482002,0.863996029,-2.005791903,0.358027995,1.056280971,-0.402871996,-1.205469966,2.730568886,0.258213013,-0.436003,1.542793036,1.132825017,0.675576985,0.615074992,0.133136004,-0.850395024,1.107131004,-0.080714002,-1.68908596,1.189169049,0.004583,1.180817008,-0.973964989,-0.456936985,-1.34860599,-0.751230001,-0.329811007,-0.933367014,-0.638098001,-0.068980001,0.017749,0.480975002,0.825405002,1.907968044,2.586818933,1.568701983,2.383481026,-2.550868034,-0.167386994,0.528226018,-0.517509997,-0.928963006,-0.050795,0.072679996,0.476684004,-1.011901975,0.669575989,2.042244911,-0.568099022,1.696285963,0.644079983,-1.327219009,-0.755998015,0.02392,1.02561295,-0.916594982,1.426280975,-0.114302002,-1.091856003,-0.076949999,0.156933993,-2.759567976,0.323094994,-1.165825009,0.308063,0.931065023,1.644845963,-1.018182993,-0.313383996,0.829441011,-1.021090031,1.409232974,0.010759,-0.743929982,1.581359029,-0.006871,0.496219993,0.294970989,-0.580114007,1.247308016,0.164823994,-2.832420111,-2.682483912,-0.340783,0.111527003,-1.226330042,-0.721207023,-1.720585942,-0.587580025,0.447302997,-3.028661013,2.188096046,-1.445680976,0.390179992,0.929045975,1.129760027,0.066229999,-0.653360009,-0.080104001,1.081411004,2.456562996,0.070404001,0.708298028,-2.026722908,-0.617736995,-0.941561997,-2.543023109,1.705993056,0.749988019,0.789391994,-2.201867104,-0.992626011,-0.356705993,-1.198871017,-0.155992001,0.778155982,0.136042997,1.023543,0.391003996,0.450367004,0.455379993,-0.006854,-1.351551056,-1.852311015,1.543627024,-1.023502946,-1.024407029,-1.304425001,0.203139007,-1.239084005,-0.316504002,-0.590174019,1.331238985,-1.304810047,-0.494785011,-2.10413003,0.325338989,-0.327114999,0.678718984,1.292690992,-0.81853199,-0.577229023,-0.975718975,-0.473823011,-1.841048956,-0.951117992,2.53559804,0.138503999,0.353875011,0.318973005,-0.825444996,1.611428976,-0.528271019,0.152013004,-0.402534008,0.107335001,-2.355401039,-1.740053058,1.458389997,0.552447975,-0.745907009,-0.173974007,-0.787413001,0.289137989,1.448809981,1.35511899,0.996173024,0.924515009,-1.225448966,2.004976034,-0.649912,-1.659610987,1.289147019,0.331835002,-0.151595995,-0.958675027,-0.141911998,-0.348701,-1.57021594,-0.838141978,0.846167982,-0.327657998,0.649896026,-2.568819046,-0.188077003,-1.769968033,-2.266896009,1.336449027,-1.195896983,-1.274850011,-1.551498055,1.997308016,-1.573014975,0.634287,-0.307164013,-0.543878973,0.467918009,0.025736,1.508481026,-0.249283999,-2.27223897,1.706568956,1.082195044,-0.675953984,2.139022112,-1.671717048,0.783581972,-0.240817994,-0.77363801,2.446320057,2.2970891,0.571361005,-0.126895994,0.937871993,-0.770433009,-1.281280041,1.867980957,1.482655048,0.645736992,-2.699743032,-0.188534006,2.707067013,-0.138572007,-2.079600096,-0.427298993,-0.662240028,-0.139651001,-0.285362989,-2.027159929,1.393635035,1.65049696,-0.065879002,-1.30796802,-1.708101034,-0.022564,0.366820008,0.160209998,-0.216188997,-0.970288992,-1.240331054,0.759651005,1.819049954,-1.639435053,-0.373369992,-1.525228024,-2.562990904,1.270701051,2.015815973,1.514170051,0.541059971,-0.962484002,0.908342004,-0.727864027,1.954905987,-0.627606988,-0.308317006,-0.275135994
