word,0,1,2,3,4,5,6,7,8,9,10,11,12,13,14,15,16,17,18,19,20,21,22,23,24,25,26,27,28,29,30,31,32,33,34,35,36,37,38,39,40,41,42,43,44,45,46,47,48,49,50,51,52,53,54,55,56,57,58,59,60,61,62,63,64,65,66,67,68,69,70,71,72,73,74,75,76,77,78,79,80,81,82,83,84,85,86,87,88,89,90,91,92,93,94,95,96,97,98,99,100,101,102,103,104,105,106,107,108,109,110,111,112,113,114,115,116,117,118,119,120,121,122,123,124,125,126,127,128,129,130,131,132,133,134,135,136,137,138,139,140,141,142,143,144,145,146,147,148,149,150,151,152,153,154,155,156,157,158,159,160,161,162,163,164,165,166,167,168,169,170,171,172,173,174,175,176,177,178,179,180,181,182,183,184,185,186,187,188,189,190,191,192,193,194,195,196,197,198,199,200,201,202,203,204,205,206,207,208,209,210,211,212,213,214,215,216,217,218,219,220,221,222,223,224,225,226,227,228,229,230,231,232,233,234,235,236,237,238,239,240,241,242,243,244,245,246,247,248,249,250,251,252,253,254,255,256,257,258,259,260,261,262,263,264,265,266,267,268,269,270,271,272,273,274,275,276,277,278,279,280,281,282,283,284,285,286,287,288,289,290,291,292,293,294,295,296,297,298,299,300,301,302,303,304,305,306,307,308,309,310,311,312,313,314,315,316,317,318,319,320,321,322,323,324,325,326,327,328,329,330,331,332,333,334,335,336,337,338,339,340,341,342,343,344,345,346,347,348,349,350,351,352,353,354,355,356,357,358,359,360,361,362,363,364,365,366,367,368,369,370,371,372,373,374,375,376,377,378,379,380,381,382,383,384,385,386,387,388,389,390,391,392,393,394,395,396,397,398,399,word,0,1,2,3,4,5,6,7,8,9,10,11,12,13,14,15,16,17,18,19,20,21,22,23,24,25,26,27,28,29,30,31,32,33,34,35,36,37,38,39,40,41,42,43,44,45,46,47,48,49,50,51,52,53,54,55,56,57,58,59,60,61,62,63,64,65,66,67,68,69,70,71,72,73,74,75,76,77,78,79,80,81,82,83,84,85,86,87,88,89,90,91,92,93,94,95,96,97,98,99,100,101,102,103,104,105,106,107,108,109,110,111,112,113,114,115,116,117,118,119,120,121,122,123,124,125,126,127,128,129,130,131,132,133,134,135,136,137,138,139,140,141,142,143,144,145,146,147,148,149,150,151,152,153,154,155,156,157,158,159,160,161,162,163,164,165,166,167,168,169,170,171,172,173,174,175,176,177,178,179,180,181,182,183,184,185,186,187,188,189,190,191,192,193,194,195,196,197,198,199,200,201,202,203,204,205,206,207,208,209,210,211,212,213,214,215,216,217,218,219,220,221,222,223,224,225,226,227,228,229,230,231,232,233,234,235,236,237,238,239,240,241,242,243,244,245,246,247,248,249,250,251,252,253,254,255,256,257,258,259,260,261,262,263,264,265,266,267,268,269,270,271,272,273,274,275,276,277,278,279,280,281,282,283,284,285,286,287,288,289,290,291,292,293,294,295,296,297,298,299,300,301,302,303,304,305,306,307,308,309,310,311,312,313,314,315,316,317,318,319,320,321,322,323,324,325,326,327,328,329,330,331,332,333,334,335,336,337,338,339,340,341,342,343,344,345,346,347,348,349,350,351,352,353,354,355,356,357,358,359,360,361,362,363,364,365,366,367,368,369,370,371,372,373,374,375,376,377,378,379,380,381,382,383,384,385,386,387,388,389,390,391,392,393,394,395,396,397,398,399
分隔,-1.837579012,1.842154026,-1.041542053,-0.367042005,0.482217014,-0.045014001,1.923581004,-0.409393013,0.900488973,0.486396998,0.054804999,0.057672001,-1.054636955,-0.707131028,0.502295971,0.193425998,-0.270682991,0.219491005,1.463616967,-0.879477978,-0.606306016,0.368537009,-1.462267995,0.868021011,1.474702001,1.21083498,-0.411828995,0.520188987,-1.113852024,1.109298944,-0.48841399,0.000544,1.292054057,-0.377202988,1.267722964,-0.123158999,0.041641001,-0.57277,0.982573986,1.047178984,-0.637879014,0.281423986,-1.237707019,-1.703174949,1.190302014,0.120024003,1.147173047,0.260621011,-0.267259985,1.215739012,-0.963620007,0.192772001,-1.523406029,-0.528406978,-0.352973014,0.511343002,0.794386029,-1.776610971,0.277069002,-0.330244988,-0.664563,-0.571045995,-1.259878039,-0.34770599,0.487978995,0.432038993,-1.237416029,0.031307001,0.565684021,-0.706556022,-0.306454986,-1.291396022,0.139880002,0.871716022,-0.164440006,-0.264708012,0.042707,0.491786987,0.068265997,0.469080001,2.584620953,-0.998279989,-0.290419012,0.495988011,1.35740602,0.150821,-0.058455002,-0.747847974,0.782077014,1.557356954,-0.330733001,-0.850584984,-1.000247955,-0.962365985,0.240263,-0.486467987,-0.688436985,-0.870988011,0.837031007,-1.913494945,0.187886,-2.238522053,0.613896012,1.265385032,-0.748423994,-1.393339992,0.280521005,-1.976557016,-1.509405017,0.438412994,-0.563089013,-2.029023886,-0.215091005,-0.114854999,1.025213003,0.28994599,0.410782993,-0.946434975,-0.562157989,1.414262056,-0.110850997,0.935970008,0.831421971,0.185911998,-1.120890975,-1.584318995,-1.742727041,-0.449021995,-1.384098053,-0.821676016,0.895345986,-1.501742005,-0.068607002,0.565358996,-0.399287999,-0.045343999,-0.724126995,0.003251,1.196254015,0.719581008,-0.746271014,1.180670977,-1.431049943,-0.115411997,0.814397991,-1.458145976,-0.015039,-0.101988003,-0.957610011,-1.190775037,0.412472993,0.602945983,-0.410804003,1.650964975,0.517373025,0.565908015,0.075672999,0.596933007,-0.079471998,2.034904003,1.112771034,-0.070460998,0.916164994,-1.004300952,0.658876002,0.110945001,0.203700006,-0.565798998,0.085326001,0.024196999,0.129346997,1.289006948,1.095134974,0.763046026,0.705061018,-0.333061993,0.921721995,-0.211807996,0.184429005,0.928225994,0.186848,0.540064991,0.573762,0.62953198,-0.459324986,1.055027962,1.101917028,0.755285978,0.276060998,-0.010162,1.738831043,1.044589996,0.007424,0.743411005,0.635601997,-0.26562801,0.64902401,-0.384972006,2.392209053,-0.442514986,-0.762380004,-1.070691943,-1.307345986,0.404015005,0.002476,1.256957054,0.948819995,0.199700996,-0.109932996,1.180896997,0.486773998,-0.506430984,2.275554895,-0.311096996,0.627709985,0.509214997,0.523988008,-0.867563009,-0.231189996,-0.978996992,1.096317053,-0.250119001,-0.055337999,1.421489954,-0.509729981,-0.134739995,0.684772015,-0.48783201,-0.028421,0.296341985,0.807099998,0.027353,-0.504598022,0.598574996,-0.278715014,0.167539001,-0.074230999,-0.386119992,-0.295623988,1.533844948,-0.088025004,0.695268989,-0.233374,-0.482492,1.451418042,-1.972159982,1.044991016,-0.284612,0.668677986,1.507400036,-0.451106012,0.657236993,-0.051220998,-0.553873003,0.390044987,1.213652968,0.603570998,-1.516971946,1.065410018,1.149737954,0.621317029,0.74870199,0.270577997,0.91475898,-1.886028051,-0.815288007,-0.344076008,-0.487304986,1.841070056,0.239592001,0.804387987,-1.452509999,-1.089820027,0.951326013,-0.011891,1.47160697,0.210114002,0.77859199,1.01819694,-1.170838952,0.221138,-1.219460011,0.864259005,-0.288069993,-0.321720988,-0.429731995,0.442571014,0.604565978,0.004292,1.793194056,0.157397002,-0.349047005,0.81814301,-0.982807994,1.160905004,0.35689801,-0.284025013,-0.238904998,1.155158043,1.234467983,0.448442012,-0.570491016,0.128080994,1.273849964,-0.428613991,0.039848998,-1.258733034,-0.538281024,-1.601613045,0.517771006,-1.419496059,0.770112991,0.674022019,-1.128646016,-0.065190002,1.200754046,-2.176685095,-0.253158003,1.043573022,-0.73377198,0.18468,0.110822,-1.242427945,1.697677016,0.355969012,-0.290998012,-1.264971018,-1.195233941,0.488480985,-0.254002005,-0.166440994,0.071341999,0.778762996,1.367012978,0.637633979,0.520030022,-1.053269982,-0.3653,-0.003168,1.131832004,0.673636973,-0.620012999,0.066707,-0.620261014,-0.028299,-1.493381023,-0.021079,0.455330998,2.202325106,0.663743973,1.537834048,1.321542978,0.299135,-0.509975016,0.138054997,-0.783203006,-0.821071029,0.835690022,-0.480738997,1.418465972,-0.637529016,-1.377707958,0.546095014,0.179534003,0.312651992,0.679902971,0.357519001,-0.321774989,-0.979309976,-1.023911953,-0.134142995,1.470175028,-0.917248011,1.381551027,-0.571524024,-0.768368006,-1.926779032,-0.144878998,-1.310242057,-0.815348029,-0.287499994,1.48970902,1.495285034,0.736660004,1.919957995,-1.045029998,0.347496003,-1.326854944,-1.153337002,1.072584987,-0.204890996,1.299612045,-0.890192986,-1.29638195,0.66415602,-0.468825012,1.502046943,0.049488999,0.435057998,-0.114630997,,-1.837579012,1.842154026,-1.041542053,-0.367042005,0.482217014,-0.045014001,1.923581004,-0.409393013,0.900488973,0.486396998,0.054804999,0.057672001,-1.054636955,-0.707131028,0.502295971,0.193425998,-0.270682991,0.219491005,1.463616967,-0.879477978,-0.606306016,0.368537009,-1.462267995,0.868021011,1.474702001,1.21083498,-0.411828995,0.520188987,-1.113852024,1.109298944,-0.48841399,0.000544,1.292054057,-0.377202988,1.267722964,-0.123158999,0.041641001,-0.57277,0.982573986,1.047178984,-0.637879014,0.281423986,-1.237707019,-1.703174949,1.190302014,0.120024003,1.147173047,0.260621011,-0.267259985,1.215739012,-0.963620007,0.192772001,-1.523406029,-0.528406978,-0.352973014,0.511343002,0.794386029,-1.776610971,0.277069002,-0.330244988,-0.664563,-0.571045995,-1.259878039,-0.34770599,0.487978995,0.432038993,-1.237416029,0.031307001,0.565684021,-0.706556022,-0.306454986,-1.291396022,0.139880002,0.871716022,-0.164440006,-0.264708012,0.042707,0.491786987,0.068265997,0.469080001,2.584620953,-0.998279989,-0.290419012,0.495988011,1.35740602,0.150821,-0.058455002,-0.747847974,0.782077014,1.557356954,-0.330733001,-0.850584984,-1.000247955,-0.962365985,0.240263,-0.486467987,-0.688436985,-0.870988011,0.837031007,-1.913494945,0.187886,-2.238522053,0.613896012,1.265385032,-0.748423994,-1.393339992,0.280521005,-1.976557016,-1.509405017,0.438412994,-0.563089013,-2.029023886,-0.215091005,-0.114854999,1.025213003,0.28994599,0.410782993,-0.946434975,-0.562157989,1.414262056,-0.110850997,0.935970008,0.831421971,0.185911998,-1.120890975,-1.584318995,-1.742727041,-0.449021995,-1.384098053,-0.821676016,0.895345986,-1.501742005,-0.068607002,0.565358996,-0.399287999,-0.045343999,-0.724126995,0.003251,1.196254015,0.719581008,-0.746271014,1.180670977,-1.431049943,-0.115411997,0.814397991,-1.458145976,-0.015039,-0.101988003,-0.957610011,-1.190775037,0.412472993,0.602945983,-0.410804003,1.650964975,0.517373025,0.565908015,0.075672999,0.596933007,-0.079471998,2.034904003,1.112771034,-0.070460998,0.916164994,-1.004300952,0.658876002,0.110945001,0.203700006,-0.565798998,0.085326001,0.024196999,0.129346997,1.289006948,1.095134974,0.763046026,0.705061018,-0.333061993,0.921721995,-0.211807996,0.184429005,0.928225994,0.186848,0.540064991,0.573762,0.62953198,-0.459324986,1.055027962,1.101917028,0.755285978,0.276060998,-0.010162,1.738831043,1.044589996,0.007424,0.743411005,0.635601997,-0.26562801,0.64902401,-0.384972006,2.392209053,-0.442514986,-0.762380004,-1.070691943,-1.307345986,0.404015005,0.002476,1.256957054,0.948819995,0.199700996,-0.109932996,1.180896997,0.486773998,-0.506430984,2.275554895,-0.311096996,0.627709985,0.509214997,0.523988008,-0.867563009,-0.231189996,-0.978996992,1.096317053,-0.250119001,-0.055337999,1.421489954,-0.509729981,-0.134739995,0.684772015,-0.48783201,-0.028421,0.296341985,0.807099998,0.027353,-0.504598022,0.598574996,-0.278715014,0.167539001,-0.074230999,-0.386119992,-0.295623988,1.533844948,-0.088025004,0.695268989,-0.233374,-0.482492,1.451418042,-1.972159982,1.044991016,-0.284612,0.668677986,1.507400036,-0.451106012,0.657236993,-0.051220998,-0.553873003,0.390044987,1.213652968,0.603570998,-1.516971946,1.065410018,1.149737954,0.621317029,0.74870199,0.270577997,0.91475898,-1.886028051,-0.815288007,-0.344076008,-0.487304986,1.841070056,0.239592001,0.804387987,-1.452509999,-1.089820027,0.951326013,-0.011891,1.47160697,0.210114002,0.77859199,1.01819694,-1.170838952,0.221138,-1.219460011,0.864259005,-0.288069993,-0.321720988,-0.429731995,0.442571014,0.604565978,0.004292,1.793194056,0.157397002,-0.349047005,0.81814301,-0.982807994,1.160905004,0.35689801,-0.284025013,-0.238904998,1.155158043,1.234467983,0.448442012,-0.570491016,0.128080994,1.273849964,-0.428613991,0.039848998,-1.258733034,-0.538281024,-1.601613045,0.517771006,-1.419496059,0.770112991,0.674022019,-1.128646016,-0.065190002,1.200754046,-2.176685095,-0.253158003,1.043573022,-0.73377198,0.18468,0.110822,-1.242427945,1.697677016,0.355969012,-0.290998012,-1.264971018,-1.195233941,0.488480985,-0.254002005,-0.166440994,0.071341999,0.778762996,1.367012978,0.637633979,0.520030022,-1.053269982,-0.3653,-0.003168,1.131832004,0.673636973,-0.620012999,0.066707,-0.620261014,-0.028299,-1.493381023,-0.021079,0.455330998,2.202325106,0.663743973,1.537834048,1.321542978,0.299135,-0.509975016,0.138054997,-0.783203006,-0.821071029,0.835690022,-0.480738997,1.418465972,-0.637529016,-1.377707958,0.546095014,0.179534003,0.312651992,0.679902971,0.357519001,-0.321774989,-0.979309976,-1.023911953,-0.134142995,1.470175028,-0.917248011,1.381551027,-0.571524024,-0.768368006,-1.926779032,-0.144878998,-1.310242057,-0.815348029,-0.287499994,1.48970902,1.495285034,0.736660004,1.919957995,-1.045029998,0.347496003,-1.326854944,-1.153337002,1.072584987,-0.204890996,1.299612045,-0.890192986,-1.29638195,0.66415602,-0.468825012,1.502046943,0.049488999,0.435057998,-0.114630997
下,-0.177151993,-1.691985965,-2.087132931,0.944195986,-0.70885402,0.456335992,-0.639824986,-0.957363009,1.098644018,1.408923984,-0.387759,-0.938455999,0.894336998,-0.864046991,-0.198118001,-1.089997053,-1.929247975,-1.244814992,-0.597057998,-1.237431049,-1.183812022,0.794543982,-0.008319,-0.226052001,0.687810004,-1.555462956,0.317465991,1.490074992,-0.261269987,0.994642973,1.944645047,0.640730023,-0.770398021,2.042911053,-0.110380001,0.922996998,0.113107003,0.205526993,-2.821367025,1.894523025,3.328754902,0.698167026,-0.873862982,-0.584486008,-0.581237018,0.893419981,-0.922176003,0.995657027,-1.126356006,2.257513046,2.023983002,-1.782801032,0.093208998,-0.039833002,0.061232001,-0.274904996,0.310786992,-0.530215025,1.038876057,2.720557928,-1.199538946,0.247079,1.237609982,0.414350986,-1.144961953,0.228598997,-1.354565978,-0.169807002,0.832197011,1.93600297,2.067780018,0.103859,-0.61331898,2.023873091,-0.334181011,0.734863997,-0.33265999,-1.385126948,1.406795025,-1.612436056,-1.113548994,-2.400100946,0.930015028,1.98360002,-0.749872983,-2.009526014,1.146492004,0.89636898,-1.415593028,0.64676702,-0.242310002,1.041113973,-0.807256997,-1.422696948,-0.099151999,0.731622994,2.13618207,1.25740695,-0.720605016,0.618525982,-2.234061003,-0.565240979,0.971101999,-1.591398001,-1.32988596,-0.551948011,-1.236212969,-0.790661991,-2.320079088,1.052898049,0.050253,0.720089972,-0.368364006,-0.102972999,-1.279921055,2.138895035,3.242486954,-0.633369029,1.467497945,0.459311992,0.27561301,-0.232710004,0.947714984,0.045745999,-0.248649999,1.183382034,-0.218764007,0.10165,-1.458732009,-1.136633039,1.98477602,-1.077007055,1.437608957,-0.198335007,-1.018478036,-0.033953,-1.569237947,0.900044024,-0.37273401,1.615967035,-0.260468006,-2.34917593,0.105260998,-0.905351996,0.921850979,-0.538927972,-0.688171983,2.209525108,-1.171259999,-1.249279022,-1.417081952,0.194316998,1.389214039,-0.339843988,1.376757026,-2.765676022,-1.590998054,-0.220063999,-1.136950016,-1.151561022,0.809409976,-1.332672954,-0.405575991,-1.490414977,0.508355021,3.893263102,0.385536999,-0.690907001,-1.943966031,2.858453989,-2.204286098,-0.181425005,1.278480053,1.126955986,-1.152796984,1.135965943,0.020648999,1.183735967,0.634985983,1.860129952,0.991277993,0.332480013,0.180346996,-0.360204995,0.140037,2.638158083,1.126593947,-0.261341989,0.318201005,-1.726675987,-0.009487,1.264580011,3.011945963,0.342485994,1.526518941,0.858655989,-0.365951002,-1.404623985,-0.068878002,1.162129998,-1.038514018,0.604605973,-0.844945014,-1.191956997,-0.133138999,0.343964994,-2.335406065,0.226615995,-1.524572968,3.072299004,1.242720008,-0.125264004,-1.123368025,-2.263679981,2.846714973,-0.344126999,2.463011026,-0.033626001,-0.392486006,-0.195777997,-1.615450978,0.770986021,0.116593003,-1.41812396,0.63625598,-1.162654042,-1.110370994,-0.875633001,0.02437,-1.40822506,-0.606890976,0.624018013,0.673636973,-1.876065016,0.081605002,0.51652801,1.291478038,0.049045999,-0.023662999,-0.443946987,-0.215945005,-1.232354999,2.69667697,-1.835649014,2.326374054,1.334921002,1.145352006,0.905119002,-0.184304997,0.707165003,0.975138009,5.067821026,0.585910022,1.256232977,-0.934481025,-0.112586997,-0.698623002,-1.487589955,0.578720987,1.641119957,2.041053057,1.682914019,0.848793983,-0.021783,-1.266425014,1.166669965,-1.075080991,0.110679001,-1.120694041,0.544659972,1.142868042,-1.693097949,-0.713940024,0.28609699,-1.77691102,-1.17423296,0.966217995,-0.740315974,0.802783012,0.187506005,0.071634002,0.979107976,-0.96727699,0.074525997,0.860424995,0.261723012,-4.447387218,-3.408097982,2.863663912,1.395777941,0.917034984,0.771076977,-0.228807002,-1.159548998,0.609099984,1.458910942,0.634908974,0.800562024,-1.217213988,-0.292212993,1.157549977,0.597461998,1.97449398,0.914601982,-0.372801006,0.178586006,0.458662987,0.407839,-0.687608004,0.052678,-0.782821,-0.487251014,0.280066997,-1.03609097,0.130817994,0.768110991,0.63192302,1.483181,0.523229003,-1.211559057,0.758045018,-1.619737983,0.701026022,-0.40142101,1.358685017,-0.825379014,1.385751963,1.163167953,-1.732002974,0.023879001,0.961093009,1.029780984,-1.290495992,0.66535902,-0.820365012,-2.184684038,-0.334084004,0.980069995,-3.983839989,0.872865975,1.497295022,1.467797995,2.147943974,-0.950878978,0.513378024,-1.916303992,0.754900992,0.832765996,-0.64121002,-0.521933973,1.855644941,0.90309,-0.407898009,0.232234001,-0.374660999,-4.557886124,-1.554034948,1.893211007,-0.556829989,-0.404866993,-0.843684018,-0.883560002,-1.133831978,2.369273901,1.766919971,0.315434009,1.134490013,-0.446197003,-0.342123985,-0.808694005,-0.169398993,-0.257034987,-1.889245987,2.05441308,0.276468992,-0.640724003,-2.88252902,0.001223,-1.461482048,0.509534001,0.835738003,-3.230532885,-0.33138299,-0.202156007,2.63491106,0.160587996,2.04942894,0.514998972,-1.647822976,0.83159101,0.502824008,0.490069002,0.500800014,1.226181984,-0.273622006,-0.371504992,0.072913997,0.306708008,0.509238005,1.499320984,涓?-0.177151992917,-1.691985965,-2.087132931,0.944195986,-0.70885402,0.456335992,-0.639824986,-0.957363009,1.098644018,1.408923984,-0.387759,-0.938455999,0.894336998,-0.864046991,-0.198118001,-1.089997053,-1.929247975,-1.244814992,-0.597057998,-1.237431049,-1.183812022,0.794543982,-0.008319,-0.226052001,0.687810004,-1.555462956,0.317465991,1.490074992,-0.261269987,0.994642973,1.944645047,0.640730023,-0.770398021,2.042911053,-0.110380001,0.922996998,0.113107003,0.205526993,-2.821367025,1.894523025,3.328754902,0.698167026,-0.873862982,-0.584486008,-0.581237018,0.893419981,-0.922176003,0.995657027,-1.126356006,2.257513046,2.023983002,-1.782801032,0.093208998,-0.039833002,0.061232001,-0.274904996,0.310786992,-0.530215025,1.038876057,2.720557928,-1.199538946,0.247079,1.237609982,0.414350986,-1.144961953,0.228598997,-1.354565978,-0.169807002,0.832197011,1.93600297,2.067780018,0.103859,-0.61331898,2.023873091,-0.334181011,0.734863997,-0.33265999,-1.385126948,1.406795025,-1.612436056,-1.113548994,-2.400100946,0.930015028,1.98360002,-0.749872983,-2.009526014,1.146492004,0.89636898,-1.415593028,0.64676702,-0.242310002,1.041113973,-0.807256997,-1.422696948,-0.099151999,0.731622994,2.13618207,1.25740695,-0.720605016,0.618525982,-2.234061003,-0.565240979,0.971101999,-1.591398001,-1.32988596,-0.551948011,-1.236212969,-0.790661991,-2.320079088,1.052898049,0.050253,0.720089972,-0.368364006,-0.102972999,-1.279921055,2.138895035,3.242486954,-0.633369029,1.467497945,0.459311992,0.27561301,-0.232710004,0.947714984,0.045745999,-0.248649999,1.183382034,-0.218764007,0.10165,-1.458732009,-1.136633039,1.98477602,-1.077007055,1.437608957,-0.198335007,-1.018478036,-0.033953,-1.569237947,0.900044024,-0.37273401,1.615967035,-0.260468006,-2.34917593,0.105260998,-0.905351996,0.921850979,-0.538927972,-0.688171983,2.209525108,-1.171259999,-1.249279022,-1.417081952,0.194316998,1.389214039,-0.339843988,1.376757026,-2.765676022,-1.590998054,-0.220063999,-1.136950016,-1.151561022,0.809409976,-1.332672954,-0.405575991,-1.490414977,0.508355021,3.893263102,0.385536999,-0.690907001,-1.943966031,2.858453989,-2.204286098,-0.181425005,1.278480053,1.126955986,-1.152796984,1.135965943,0.020648999,1.183735967,0.634985983,1.860129952,0.991277993,0.332480013,0.180346996,-0.360204995,0.140037,2.638158083,1.126593947,-0.261341989,0.318201005,-1.726675987,-0.009487,1.264580011,3.011945963,0.342485994,1.526518941,0.858655989,-0.365951002,-1.404623985,-0.068878002,1.162129998,-1.038514018,0.604605973,-0.844945014,-1.191956997,-0.133138999,0.343964994,-2.335406065,0.226615995,-1.524572968,3.072299004,1.242720008,-0.125264004,-1.123368025,-2.263679981,2.846714973,-0.344126999,2.463011026,-0.033626001,-0.392486006,-0.195777997,-1.615450978,0.770986021,0.116593003,-1.41812396,0.63625598,-1.162654042,-1.110370994,-0.875633001,0.02437,-1.40822506,-0.606890976,0.624018013,0.673636973,-1.876065016,0.081605002,0.51652801,1.291478038,0.049045999,-0.023662999,-0.443946987,-0.215945005,-1.232354999,2.69667697,-1.835649014,2.326374054,1.334921002,1.145352006,0.905119002,-0.184304997,0.707165003,0.975138009,5.067821026,0.585910022,1.256232977,-0.934481025,-0.112586997,-0.698623002,-1.487589955,0.578720987,1.641119957,2.041053057,1.682914019,0.848793983,-0.021783,-1.266425014,1.166669965,-1.075080991,0.110679001,-1.120694041,0.544659972,1.142868042,-1.693097949,-0.713940024,0.28609699,-1.77691102,-1.17423296,0.966217995,-0.740315974,0.802783012,0.187506005,0.071634002,0.979107976,-0.96727699,0.074525997,0.860424995,0.261723012,-4.447387218,-3.408097982,2.863663912,1.395777941,0.917034984,0.771076977,-0.228807002,-1.159548998,0.609099984,1.458910942,0.634908974,0.800562024,-1.217213988,-0.292212993,1.157549977,0.597461998,1.97449398,0.914601982,-0.372801006,0.178586006,0.458662987,0.407839,-0.687608004,0.052678,-0.782821,-0.487251014,0.280066997,-1.03609097,0.130817994,0.768110991,0.63192302,1.483181,0.523229003,-1.211559057,0.758045018,-1.619737983,0.701026022,-0.40142101,1.358685017,-0.825379014,1.385751963,1.163167953,-1.732002974,0.023879001,0.961093009,1.029780984,-1.290495992,0.66535902,-0.820365012,-2.184684038,-0.334084004,0.980069995,-3.983839989,0.872865975,1.497295022,1.467797995,2.147943974,-0.950878978,0.513378024,-1.916303992,0.754900992,0.832765996,-0.64121002,-0.521933973,1.855644941,0.90309,-0.407898009,0.232234001,-0.374660999,-4.557886124,-1.554034948,1.893211007,-0.556829989,-0.404866993,-0.843684018,-0.883560002,-1.133831978,2.369273901,1.766919971,0.315434009,1.134490013,-0.446197003,-0.342123985,-0.808694005,-0.169398993,-0.257034987,-1.889245987,2.05441308,0.276468992,-0.640724003,-2.88252902,0.001223,-1.461482048,0.509534001,0.835738003,-3.230532885,-0.33138299,-0.202156007,2.63491106,0.160587996,2.04942894,0.514998972,-1.647822976,0.83159101,0.502824008,0.490069002,0.500800014,1.226181984,-0.273622006,-0.371504992,0.072913997,0.306708008,0.509238005,1.499320984,
后,0.603210986,0.034706,-0.785624981,0.494158,-1.263507962,-0.575152993,2.646913052,0.870805025,1.329936981,0.253230989,-0.020457,0.934726,-0.191836998,0.517759025,-0.673139989,-0.576493025,-1.564743042,-2.215564013,-2.012849092,-2.144515038,-1.698425055,-2.664736986,1.33543098,-1.510898948,1.542611003,1.761477947,0.845257998,0.469505012,-0.351853997,1.867823005,1.314491987,-1.50147295,0.483696997,2.359287024,0.600040019,1.814841986,-0.300199002,-1.694286942,0.86510402,-1.411540985,0.956963003,0.522508025,0.333532989,0.606504977,0.161902994,1.309185982,0.678290009,0.577345014,0.33889401,0.276129007,0.692786992,-0.137932003,0.942435026,0.578170002,-1.653054953,-0.658437014,1.09236598,-0.402756006,0.091150999,3.604826927,2.044361115,0.378010988,-1.46362102,-0.975645006,-0.528737009,-1.516227007,1.511042953,1.178776026,0.408661008,1.461405993,-1.253126025,-0.345302999,-0.123360999,-0.181835994,3.346373081,0.031583998,0.620462,-2.19285202,2.097588062,-0.038591001,1.089009047,-2.184031963,-0.799256027,1.737817049,-1.636191964,-1.413594961,-3.092989922,-0.625872016,-0.795469999,-1.397253037,0.830874979,0.70095098,0.536502004,1.177482963,-1.765442967,-1.909227014,0.474566996,1.721595049,0.973812997,-0.157897994,-1.24840796,-1.362807035,-0.615781009,0.428030998,-2.485835075,0.783878982,-0.530287027,-1.334617019,-1.117984056,0.527666986,0.476805001,1.157266021,-2.219153881,-2.122509956,1.083747983,1.266695976,3.527446032,-1.760972023,0.777809978,0.983877003,-1.847306013,-0.412364006,1.496762991,-3.519715071,-0.556240022,-0.925643027,3.347196102,0.163011,-0.045965001,0.395314991,-0.382766992,-0.703572989,-0.230561003,3.026082993,-0.599134028,-0.027143,-0.398936987,0.990373015,0.303577989,1.731307983,0.122867003,-0.605457008,-2.318578005,-2.268358946,-0.200222,-2.150507927,-1.763491035,0.707310021,1.383509994,1.084496021,2.574945927,1.767384052,1.479262948,-0.489652991,0.322719991,0.976212978,-1.447451949,0.644068003,-1.165897965,2.195683002,0.188703001,0.087780997,1.171553016,-2.010951042,-1.694316983,4.345699787,0.217218995,1.276991963,-0.237828001,2.573091984,-1.001242995,-0.093076997,2.223687887,1.764830947,-0.919637024,1.035645962,1.885023952,2.076662064,-1.331138015,1.220811963,0.625045002,0.368667006,0.083371997,0.863148987,-1.993803024,-0.558542013,-0.708558023,2.364003897,-2.275700092,-1.807739019,0.869234979,2.123172045,2.517074108,-1.625069022,3.033674002,0.214984998,-0.245753005,-0.820199013,0.309466004,0.876654983,2.480811119,0.770839989,-0.079136997,-0.312968999,0.412124991,0.822840989,-2.108825922,-2.582009077,0.352239996,-2.018275976,2.5514431,-0.37876001,0.073831998,-0.071754001,0.632861018,2.158305883,-0.872416973,-2.692451,0.580556989,-0.236038998,0.015414,-0.654304028,2.526844978,0.686267972,-1.239817977,0.047281999,-0.988022983,0.168362007,0.556134999,1.381829023,-2.967931032,1.808681011,0.142085001,-0.773801982,1.492269039,1.594486952,0.51700598,0.680790007,0.686294973,-0.431533992,-0.710056007,-0.896338999,-0.507426023,-0.422405988,0.503829002,1.977715015,0.539036989,-0.525830984,-0.75988102,0.546425998,2.010077953,2.268300056,0.701309979,-1.212954044,0.121018,2.459920883,-0.499063998,-2.173180103,1.091987014,2.45194006,0.186299995,0.601225972,0.787558973,-0.411578,0.362731993,0.056545999,-1.642372012,-1.994971991,-0.795789003,-1.145596027,0.753611028,1.15181005,0.183023006,-0.499363005,-2.526351929,-1.721943021,2.112757921,-0.52869302,0.176563993,-0.768311024,-0.815719008,1.06368196,-1.542181969,0.922774971,0.581542015,1.478878975,-0.781907022,1.238278031,1.092509985,-0.010015,-0.052395001,1.849499941,-1.73537004,1.049301982,-0.331887007,1.047894955,0.533146977,2.451508045,0.211678997,0.57466799,0.839742005,-0.866403997,1.328588963,2.921454906,0.663706005,-0.18017,2.925733089,0.058357999,-0.599123001,1.647390962,0.207671002,-0.495117992,0.542833984,0.26008299,0.561344028,-0.034864001,1.484964013,1.962517977,0.497233987,-2.103674889,1.769947052,0.026449,-0.360581011,1.11618197,-1.722663045,-0.385150999,-0.015745999,-2.230751038,0.605859995,0.588126004,2.106813908,-0.68878901,0.356242001,1.149654984,-0.981537998,0.173343003,3.681770086,-0.381969988,-1.389001966,1.381788969,0.966270983,0.688124001,0.532065988,1.445639968,-0.279312015,0.096362002,0.399682999,1.046187043,0.998041987,0.203115001,3.424245119,-1.336043954,-1.049510956,1.143947959,-0.32467401,-1.757513046,-1.244236946,1.272351027,0.605310977,-0.442956001,0.053649001,-3.181031942,0.614953995,0.525174975,1.575760007,-1.85876298,0.856288016,-0.338380992,1.638425946,1.694978952,-0.536189973,0.669264019,-0.170626998,1.52422297,-0.227938995,1.51888597,0.123373002,-0.109673999,-1.784250021,0.630774975,0.721310973,0.307188988,0.499289989,-2.396831036,1.339342952,-0.419124991,0.917824984,-0.368023992,-0.965664983,-1.339661002,0.803746998,0.237022996,-0.038075998,-0.277119994,-0.933099985,-0.454623997,0.441679001,1.462219954,-0.901385009,0.538455009,?0.603210985661,0.034706,-0.785624981,0.494158,-1.263507962,-0.575152993,2.646913052,0.870805025,1.329936981,0.253230989,-0.020457,0.934726,-0.191836998,0.517759025,-0.673139989,-0.576493025,-1.564743042,-2.215564013,-2.012849092,-2.144515038,-1.698425055,-2.664736986,1.33543098,-1.510898948,1.542611003,1.761477947,0.845257998,0.469505012,-0.351853997,1.867823005,1.314491987,-1.50147295,0.483696997,2.359287024,0.600040019,1.814841986,-0.300199002,-1.694286942,0.86510402,-1.411540985,0.956963003,0.522508025,0.333532989,0.606504977,0.161902994,1.309185982,0.678290009,0.577345014,0.33889401,0.276129007,0.692786992,-0.137932003,0.942435026,0.578170002,-1.653054953,-0.658437014,1.09236598,-0.402756006,0.091150999,3.604826927,2.044361115,0.378010988,-1.46362102,-0.975645006,-0.528737009,-1.516227007,1.511042953,1.178776026,0.408661008,1.461405993,-1.253126025,-0.345302999,-0.123360999,-0.181835994,3.346373081,0.031583998,0.620462,-2.19285202,2.097588062,-0.038591001,1.089009047,-2.184031963,-0.799256027,1.737817049,-1.636191964,-1.413594961,-3.092989922,-0.625872016,-0.795469999,-1.397253037,0.830874979,0.70095098,0.536502004,1.177482963,-1.765442967,-1.909227014,0.474566996,1.721595049,0.973812997,-0.157897994,-1.24840796,-1.362807035,-0.615781009,0.428030998,-2.485835075,0.783878982,-0.530287027,-1.334617019,-1.117984056,0.527666986,0.476805001,1.157266021,-2.219153881,-2.122509956,1.083747983,1.266695976,3.527446032,-1.760972023,0.777809978,0.983877003,-1.847306013,-0.412364006,1.496762991,-3.519715071,-0.556240022,-0.925643027,3.347196102,0.163011,-0.045965001,0.395314991,-0.382766992,-0.703572989,-0.230561003,3.026082993,-0.599134028,-0.027143,-0.398936987,0.990373015,0.303577989,1.731307983,0.122867003,-0.605457008,-2.318578005,-2.268358946,-0.200222,-2.150507927,-1.763491035,0.707310021,1.383509994,1.084496021,2.574945927,1.767384052,1.479262948,-0.489652991,0.322719991,0.976212978,-1.447451949,0.644068003,-1.165897965,2.195683002,0.188703001,0.087780997,1.171553016,-2.010951042,-1.694316983,4.345699787,0.217218995,1.276991963,-0.237828001,2.573091984,-1.001242995,-0.093076997,2.223687887,1.764830947,-0.919637024,1.035645962,1.885023952,2.076662064,-1.331138015,1.220811963,0.625045002,0.368667006,0.083371997,0.863148987,-1.993803024,-0.558542013,-0.708558023,2.364003897,-2.275700092,-1.807739019,0.869234979,2.123172045,2.517074108,-1.625069022,3.033674002,0.214984998,-0.245753005,-0.820199013,0.309466004,0.876654983,2.480811119,0.770839989,-0.079136997,-0.312968999,0.412124991,0.822840989,-2.108825922,-2.582009077,0.352239996,-2.018275976,2.5514431,-0.37876001,0.073831998,-0.071754001,0.632861018,2.158305883,-0.872416973,-2.692451,0.580556989,-0.236038998,0.015414,-0.654304028,2.526844978,0.686267972,-1.239817977,0.047281999,-0.988022983,0.168362007,0.556134999,1.381829023,-2.967931032,1.808681011,0.142085001,-0.773801982,1.492269039,1.594486952,0.51700598,0.680790007,0.686294973,-0.431533992,-0.710056007,-0.896338999,-0.507426023,-0.422405988,0.503829002,1.977715015,0.539036989,-0.525830984,-0.75988102,0.546425998,2.010077953,2.268300056,0.701309979,-1.212954044,0.121018,2.459920883,-0.499063998,-2.173180103,1.091987014,2.45194006,0.186299995,0.601225972,0.787558973,-0.411578,0.362731993,0.056545999,-1.642372012,-1.994971991,-0.795789003,-1.145596027,0.753611028,1.15181005,0.183023006,-0.499363005,-2.526351929,-1.721943021,2.112757921,-0.52869302,0.176563993,-0.768311024,-0.815719008,1.06368196,-1.542181969,0.922774971,0.581542015,1.478878975,-0.781907022,1.238278031,1.092509985,-0.010015,-0.052395001,1.849499941,-1.73537004,1.049301982,-0.331887007,1.047894955,0.533146977,2.451508045,0.211678997,0.57466799,0.839742005,-0.866403997,1.328588963,2.921454906,0.663706005,-0.18017,2.925733089,0.058357999,-0.599123001,1.647390962,0.207671002,-0.495117992,0.542833984,0.26008299,0.561344028,-0.034864001,1.484964013,1.962517977,0.497233987,-2.103674889,1.769947052,0.026449,-0.360581011,1.11618197,-1.722663045,-0.385150999,-0.015745999,-2.230751038,0.605859995,0.588126004,2.106813908,-0.68878901,0.356242001,1.149654984,-0.981537998,0.173343003,3.681770086,-0.381969988,-1.389001966,1.381788969,0.966270983,0.688124001,0.532065988,1.445639968,-0.279312015,0.096362002,0.399682999,1.046187043,0.998041987,0.203115001,3.424245119,-1.336043954,-1.049510956,1.143947959,-0.32467401,-1.757513046,-1.244236946,1.272351027,0.605310977,-0.442956001,0.053649001,-3.181031942,0.614953995,0.525174975,1.575760007,-1.85876298,0.856288016,-0.338380992,1.638425946,1.694978952,-0.536189973,0.669264019,-0.170626998,1.52422297,-0.227938995,1.51888597,0.123373002,-0.109673999,-1.784250021,0.630774975,0.721310973,0.307188988,0.499289989,-2.396831036,1.339342952,-0.419124991,0.917824984,-0.368023992,-0.965664983,-1.339661002,0.803746998,0.237022996,-0.038075998,-0.277119994,-0.933099985,-0.454623997,0.441679001,1.462219954,-0.901385009,0.538455009,
主体,-0.930088997,-0.496666014,-0.83079797,-0.502948999,1.199255943,0.197106004,0.403577,-2.285612106,1.743826032,-0.076586001,0.665409029,0.136081994,-1.01383698,1.223734021,-0.096615002,-0.695716977,-0.165179998,-0.555420995,-0.385944009,-0.910574019,-0.093405001,0.080132,-0.561878979,-0.738084972,0.454077989,1.010107994,0.183761999,0.263547003,0.173605993,0.817282021,1.18502605,0.566425025,-0.561182976,1.273710012,1.614822984,-1.469779968,-0.397579014,-1.696199059,0.807232022,0.890949011,0.684536994,-0.582243025,-1.032524943,-0.677124023,-0.006362,0.720743001,0.692734003,-1.248023987,-0.360399008,0.261200011,1.094787002,-0.046034999,0.973127007,-0.191486999,-2.284522057,1.217383981,1.166847944,-1.012941003,-0.936502993,0.098357998,-0.807563007,-1.162688971,-0.755760014,-1.51870501,-1.111577988,-0.874792993,-0.328455001,2.303435087,0.448756993,0.410353005,-1.230113029,0.359710991,-0.089224003,1.267779946,0.677375972,-1.571238995,2.023178101,-1.030184984,-0.461905986,-0.428469002,0.646615028,-1.684524059,-0.222267002,0.607349992,-0.163982004,0.840129018,-0.579244018,0.013433,0.739383996,0.434098989,-0.045827001,0.308676004,-0.53976202,0.054567002,-0.113280997,0.646340013,1.279207945,-1.066890955,-0.430970997,-0.375557005,0.372137994,0.226778001,0.658863008,0.654739976,0.141754001,-1.318315029,1.227745056,0.932761014,0.075094,-0.928269982,0.161873996,-0.340135008,-1.246111035,-0.78607899,-0.839854002,0.078883,-0.365770012,-1.194242001,0.105109997,1.698801994,1.324131966,-0.86441201,0.362340987,-0.697887003,-0.771120012,-0.689387023,-2.479228973,-0.254146993,0.568651021,-1.298226953,-0.900671005,-1.150519967,-0.936864972,1.239454031,-0.394753993,0.595358014,-0.085081004,1.267420053,0.309808999,-0.642733991,2.099570036,0.677555025,0.718043983,0.366852999,-0.231593996,-0.115613997,0.456259996,0.298990011,-0.492518991,0.471632004,1.478523016,-0.295864999,-0.612547994,1.290691018,-0.502399981,0.862432003,-0.720848978,-1.93454504,-0.545521975,0.936161995,0.112282999,-0.706570983,0.66839999,-0.859007001,-0.274801999,1.076694012,1.115165949,-0.532706022,-0.536310017,0.504787028,-1.414837956,0.289958,0.283814996,1.172868967,-0.462884009,-0.791548014,2.236952066,-0.639373004,-1.537992001,0.231052995,0.75604701,-0.572071016,0.123214997,-0.464783996,0.984610021,-0.384609014,1.390107989,0.243851006,0.59701401,0.201846004,0.102505997,-1.167062998,1.321256995,1.113085985,-1.203534961,0.232835993,1.329982996,0.007815,0.880490005,-0.45301801,-0.065208003,0.203014001,0.134313002,-1.060551047,-0.661477029,0.582013011,0.163900003,-0.606931984,-1.016461968,1.356024981,-0.984363019,-0.35729,1.79894805,0.911777973,0.615051985,-0.580264986,-0.369504005,-1.039873958,-0.241666004,-0.392273992,0.797075987,-1.293169975,1.087460041,1.102408051,-0.844263971,-0.818488002,-0.365864009,-0.472065002,-1.448225021,1.087000012,-0.605257988,0.434994012,0.148456007,-1.305956006,0.538478017,-1.532238007,-0.356985986,-0.651915014,0.380172998,-0.096762002,1.857555985,1.286389947,-0.472404003,0.893962026,1.49484098,-1.391839981,0.616922975,-1.39972198,0.284913987,-0.846023023,0.405142009,1.379187942,0.740508974,-1.493963003,0.458626002,1.50862205,0.59602201,0.078533001,0.698256016,0.326833993,0.836403012,1.299700022,-0.793314993,0.702482998,0.337060004,-0.651908994,-0.109117001,-0.843529999,0.509092987,0.534555018,-0.87619698,-1.105540991,-0.407658011,0.659159005,-2.444274902,1.040423989,-1.11826098,0.102594003,-1.284147024,-0.139091998,-0.493593991,-0.179129004,0.659325004,0.600301027,-0.66178,-0.804283023,-0.082028002,-0.314283013,-0.103263997,-0.064887002,-0.065814003,-0.932115972,-0.270704001,-0.733349025,0.207248002,0.736501992,-0.843913019,0.710267007,0.762081981,0.229037002,-0.371520996,1.078379035,0.556210995,0.983532012,0.380959988,0.162155002,-0.058890998,-0.197163999,-1.599143982,-0.93176502,-1.355563045,-0.396196008,-0.88075,1.183411002,-1.063130975,-0.065059997,-0.395271003,-0.068691999,1.293679953,0.249463007,0.537065029,0.027447,-0.180086002,0.64250201,-0.205537006,0.345598996,-0.888095021,-0.816321015,-0.065486997,-1.199555993,-0.52364701,1.162865996,-0.272772998,-0.025901999,0.391743004,1.266888976,-0.335483015,0.108217999,-0.768106997,0.409478009,1.321768045,0.617717028,-0.681756973,1.84323597,1.056084037,0.045084,-0.911906004,1.659255028,-0.55915302,-0.182403997,2.125058889,-0.65575099,-0.144834995,0.859984994,-1.673524976,-1.464527965,2.013739109,1.376834035,-0.866264999,0.400150001,-0.053357001,0.073413,-0.204554006,0.854640007,-0.191892996,-0.948873997,-0.351514995,-1.944915056,-0.193302006,0.002484,-0.813603997,-1.026237011,-1.000777006,-0.446934998,-1.506003022,-0.32970801,-0.029851999,-0.532402992,-0.495415002,-0.60423398,0.754512012,-0.180398002,-1.463315964,1.248471975,2.737086058,-0.421930999,-0.281367987,-0.842067003,-1.127336025,0.140782997,-0.568940997,0.913392007,-0.416785985,-0.214671999,0.937525988,-0.619554996,1.156031966,-0.392435998,0.305424988,0.745316029,涓讳,-0.930088997,-0.496666014,-0.83079797,-0.502948999,1.199255943,0.197106004,0.403577,-2.285612106,1.743826032,-0.076586001,0.665409029,0.136081994,-1.01383698,1.223734021,-0.096615002,-0.695716977,-0.165179998,-0.555420995,-0.385944009,-0.910574019,-0.093405001,0.080132,-0.561878979,-0.738084972,0.454077989,1.010107994,0.183761999,0.263547003,0.173605993,0.817282021,1.18502605,0.566425025,-0.561182976,1.273710012,1.614822984,-1.469779968,-0.397579014,-1.696199059,0.807232022,0.890949011,0.684536994,-0.582243025,-1.032524943,-0.677124023,-0.006362,0.720743001,0.692734003,-1.248023987,-0.360399008,0.261200011,1.094787002,-0.046034999,0.973127007,-0.191486999,-2.284522057,1.217383981,1.166847944,-1.012941003,-0.936502993,0.098357998,-0.807563007,-1.162688971,-0.755760014,-1.51870501,-1.111577988,-0.874792993,-0.328455001,2.303435087,0.448756993,0.410353005,-1.230113029,0.359710991,-0.089224003,1.267779946,0.677375972,-1.571238995,2.023178101,-1.030184984,-0.461905986,-0.428469002,0.646615028,-1.684524059,-0.222267002,0.607349992,-0.163982004,0.840129018,-0.579244018,0.013433,0.739383996,0.434098989,-0.045827001,0.308676004,-0.53976202,0.054567002,-0.113280997,0.646340013,1.279207945,-1.066890955,-0.430970997,-0.375557005,0.372137994,0.226778001,0.658863008,0.654739976,0.141754001,-1.318315029,1.227745056,0.932761014,0.075094,-0.928269982,0.161873996,-0.340135008,-1.246111035,-0.78607899,-0.839854002,0.078883,-0.365770012,-1.194242001,0.105109997,1.698801994,1.324131966,-0.86441201,0.362340987,-0.697887003,-0.771120012,-0.689387023,-2.479228973,-0.254146993,0.568651021,-1.298226953,-0.900671005,-1.150519967,-0.936864972,1.239454031,-0.394753993,0.595358014,-0.085081004,1.267420053,0.309808999,-0.642733991,2.099570036,0.677555025,0.718043983,0.366852999,-0.231593996,-0.115613997,0.456259996,0.298990011,-0.492518991,0.471632004,1.478523016,-0.295864999,-0.612547994,1.290691018,-0.502399981,0.862432003,-0.720848978,-1.93454504,-0.545521975,0.936161995,0.112282999,-0.706570983,0.66839999,-0.859007001,-0.274801999,1.076694012,1.115165949,-0.532706022,-0.536310017,0.504787028,-1.414837956,0.289958,0.283814996,1.172868967,-0.462884009,-0.791548014,2.236952066,-0.639373004,-1.537992001,0.231052995,0.75604701,-0.572071016,0.123214997,-0.464783996,0.984610021,-0.384609014,1.390107989,0.243851006,0.59701401,0.201846004,0.102505997,-1.167062998,1.321256995,1.113085985,-1.203534961,0.232835993,1.329982996,0.007815,0.880490005,-0.45301801,-0.065208003,0.203014001,0.134313002,-1.060551047,-0.661477029,0.582013011,0.163900003,-0.606931984,-1.016461968,1.356024981,-0.984363019,-0.35729,1.79894805,0.911777973,0.615051985,-0.580264986,-0.369504005,-1.039873958,-0.241666004,-0.392273992,0.797075987,-1.293169975,1.087460041,1.102408051,-0.844263971,-0.818488002,-0.365864009,-0.472065002,-1.448225021,1.087000012,-0.605257988,0.434994012,0.148456007,-1.305956006,0.538478017,-1.532238007,-0.356985986,-0.651915014,0.380172998,-0.096762002,1.857555985,1.286389947,-0.472404003,0.893962026,1.49484098,-1.391839981,0.616922975,-1.39972198,0.284913987,-0.846023023,0.405142009,1.379187942,0.740508974,-1.493963003,0.458626002,1.50862205,0.59602201,0.078533001,0.698256016,0.326833993,0.836403012,1.299700022,-0.793314993,0.702482998,0.337060004,-0.651908994,-0.109117001,-0.843529999,0.509092987,0.534555018,-0.87619698,-1.105540991,-0.407658011,0.659159005,-2.444274902,1.040423989,-1.11826098,0.102594003,-1.284147024,-0.139091998,-0.493593991,-0.179129004,0.659325004,0.600301027,-0.66178,-0.804283023,-0.082028002,-0.314283013,-0.103263997,-0.064887002,-0.065814003,-0.932115972,-0.270704001,-0.733349025,0.207248002,0.736501992,-0.843913019,0.710267007,0.762081981,0.229037002,-0.371520996,1.078379035,0.556210995,0.983532012,0.380959988,0.162155002,-0.058890998,-0.197163999,-1.599143982,-0.93176502,-1.355563045,-0.396196008,-0.88075,1.183411002,-1.063130975,-0.065059997,-0.395271003,-0.068691999,1.293679953,0.249463007,0.537065029,0.027447,-0.180086002,0.64250201,-0.205537006,0.345598996,-0.888095021,-0.816321015,-0.065486997,-1.199555993,-0.52364701,1.162865996,-0.272772998,-0.025901999,0.391743004,1.266888976,-0.335483015,0.108217999,-0.768106997,0.409478009,1.321768045,0.617717028,-0.681756973,1.84323597,1.056084037,0.045084,-0.911906004,1.659255028,-0.55915302,-0.182403997,2.125058889,-0.65575099,-0.144834995,0.859984994,-1.673524976,-1.464527965,2.013739109,1.376834035,-0.866264999,0.400150001,-0.053357001,0.073413,-0.204554006,0.854640007,-0.191892996,-0.948873997,-0.351514995,-1.944915056,-0.193302006,0.002484,-0.813603997,-1.026237011,-1.000777006,-0.446934998,-1.506003022,-0.32970801,-0.029851999,-0.532402992,-0.495415002,-0.60423398,0.754512012,-0.180398002,-1.463315964,1.248471975,2.737086058,-0.421930999,-0.281367987,-0.842067003,-1.127336025,0.140782997,-0.568940997,0.913392007,-0.416785985,-0.214671999,0.937525988,-0.619554996,1.156031966,-0.392435998,0.305424988,0.745316029
室,-1.462407947,-0.225788996,0.770394027,-1.073726058,0.069438003,0.334598005,2.056886911,-0.547042012,2.593276024,-1.046080947,1.02373898,0.230425999,1.345394015,-1.817585945,-1.606538057,0.060300998,1.889114022,0.450729996,-0.345189989,-0.48842001,0.096317001,1.548416972,-1.937944055,-0.902222991,-1.346588016,1.269294977,-0.886016011,0.299616992,0.768653989,-0.493669987,0.211692005,0.234913006,-0.811053991,-0.045170002,2.80299902,-0.208021,-0.675439,1.105182052,0.271398991,0.953365982,1.215415001,-0.461605996,0.459169,1.052816987,0.666554987,-0.421258003,0.683611989,2.662944078,-0.018234,0.949452996,-0.040800001,0.025424,-1.59673202,-0.147325993,-0.673735023,0.512710989,-1.515221,1.55332005,0.820719004,3.257394075,-1.229617953,0.043462001,-0.916050017,0.221656993,1.33840096,0.773148,-1.079843998,0.73477602,0.211631,-1.470505953,-0.269127995,-1.401105046,-1.248299003,-0.343919992,0.693243027,1.687082052,-1.234063029,0.845252991,-0.871571004,2.372175932,0.266167015,0.456844985,-0.88954097,1.646525979,0.176537007,-0.535667002,-1.781486034,-2.49337101,1.834944963,-1.200842977,0.116034001,-0.581263006,1.868623018,0.820128977,-0.451041996,-0.837719023,1.332651019,0.675670028,-0.094102003,0.29114899,-0.392313987,-1.239843965,0.881479025,2.534060001,-1.406221986,-0.888031006,0.893047988,-1.010064006,-0.397300005,-0.060247,0.944289982,-0.293049991,-3.245966911,0.581246018,0.201242,0.988991022,2.12055397,-0.970229983,-0.55014497,1.155043006,-0.782854021,-1.662971973,0.920518994,-0.956969976,2.144583941,-1.427296042,-2.094002008,-0.735006988,0.353031993,-0.328025997,-1.596361041,-1.064936996,0.109311,1.724220037,-0.115332,-1.785305977,-0.895199001,0.859821022,0.301355004,-0.625612974,0.723610997,-0.77265197,0.026953001,0.475378007,-0.367850989,-0.590134025,-0.839060009,0.017966,0.152902007,1.110030055,1.130799055,-0.911686003,-0.182003006,-1.295222998,-0.664525986,0.558417976,-0.666014016,1.441805005,-1.552441955,-1.651797056,-0.229090005,-1.081688046,1.002707958,-1.251865983,-1.799872994,-1.303465009,0.801369011,-0.872151971,1.376464963,0.218713,-4.069682121,-0.024738999,0.125855997,-0.566177011,-0.697660029,-1.808105946,0.455332994,-0.448316991,-0.206736997,0.018547,-0.805536985,-0.46084401,-0.100676,-1.303344011,0.194113001,-0.113863997,-1.135943055,1.451848984,-0.855552018,-0.647108972,1.970973969,1.841593981,1.715513945,0.796419024,-0.465523988,0.382234991,2.387619972,-0.30646199,-1.036121964,0.556504011,1.113780022,-1.099452972,-0.379649013,-0.096942998,2.364058971,1.332386017,-0.028573001,-0.689332008,-0.286574006,-0.245676994,0.333766997,-1.180850029,0.934270024,-0.852838993,0.245128006,0.540746987,0.982227981,-1.974794984,0.897139013,1.310744047,0.400757015,-0.316321999,0.628338993,0.166286007,3.958030939,1.404523015,-1.431020021,-1.100597978,-0.563476026,0.216327995,-1.686300993,-2.878964901,0.947745979,-1.027819037,0.721567988,-1.425595045,0.782935977,0.292450994,-2.25890398,-1.029453993,-0.325500995,1.469823956,2.144804955,1.52265799,-2.350943089,2.114995003,-0.123264998,0.664249003,0.059716001,-0.620967984,-1.428881049,1.215842962,-1.07002604,-0.375380009,0.594525993,-0.467703015,0.352959007,-0.109439999,2.412662983,-0.243717998,0.358550996,-0.488943994,0.073495001,2.17970109,0.768948972,-1.687988997,0.070152998,2.136328936,1.046118021,0.660398006,0.453779995,-2.914555073,-0.877120018,-0.024162,-1.538643956,0.967136979,0.422490001,-1.60276103,0.91287303,-1.071982026,2.06338191,0.194186002,-0.449407011,-1.925042987,0.925682008,1.329056978,0.475174993,-0.555387974,-0.397756994,1.172013998,0.867726982,1.346282005,-2.012020111,-0.13899,0.703710973,-1.771752954,-1.111979008,1.810485959,0.673807979,-0.162471995,1.377176046,-0.023171,0.298184007,-0.315492988,1.775464058,-1.996109009,-1.460963011,1.352574945,-1.832653999,-0.970242023,-1.656090975,1.929887056,0.348149002,-0.930777013,-1.900990009,2.287350893,0.922070026,0.799073994,1.009426951,-1.30321002,-1.153617024,0.014731,-0.276508987,-0.275139004,-2.05735898,0.228370994,0.554727018,-0.645051003,0.972588003,0.877967,1.83140099,0.607860982,1.176970005,0.597572982,-1.280315995,-0.135773003,-1.455096006,-1.26175499,-0.213551998,-0.520839989,-0.006021,1.340461016,-1.223948956,0.593025982,0.361034006,-0.849825978,0.104323998,-0.395891994,0.131229997,3.784693003,0.252094001,0.563283026,0.928178012,1.039669991,0.154217005,-0.796389997,0.311150014,-0.441134006,0.660130978,0.156170994,-0.318208009,0.693554997,-0.279729009,0.304181993,-1.800523996,0.025598001,2.416546106,-0.799130976,-0.019447001,0.096042,-0.988588989,-0.793487012,1.274320006,1.596946001,-0.849170029,-0.089916997,0.263758004,0.129839003,-0.070182003,0.599994004,-2.361843109,0.796827972,0.914300978,-0.049977001,0.39259401,1.290421963,0.522152007,-0.777906001,-2.325579882,-0.723435998,1.538625956,1.167631984,1.285338044,2.565994978,-0.616819978,0.319682986,1.000637054,2.672297001,0.878952026,0.713936985,瀹?-1.46240794659,-0.225788996,0.770394027,-1.073726058,0.069438003,0.334598005,2.056886911,-0.547042012,2.593276024,-1.046080947,1.02373898,0.230425999,1.345394015,-1.817585945,-1.606538057,0.060300998,1.889114022,0.450729996,-0.345189989,-0.48842001,0.096317001,1.548416972,-1.937944055,-0.902222991,-1.346588016,1.269294977,-0.886016011,0.299616992,0.768653989,-0.493669987,0.211692005,0.234913006,-0.811053991,-0.045170002,2.80299902,-0.208021,-0.675439,1.105182052,0.271398991,0.953365982,1.215415001,-0.461605996,0.459169,1.052816987,0.666554987,-0.421258003,0.683611989,2.662944078,-0.018234,0.949452996,-0.040800001,0.025424,-1.59673202,-0.147325993,-0.673735023,0.512710989,-1.515221,1.55332005,0.820719004,3.257394075,-1.229617953,0.043462001,-0.916050017,0.221656993,1.33840096,0.773148,-1.079843998,0.73477602,0.211631,-1.470505953,-0.269127995,-1.401105046,-1.248299003,-0.343919992,0.693243027,1.687082052,-1.234063029,0.845252991,-0.871571004,2.372175932,0.266167015,0.456844985,-0.88954097,1.646525979,0.176537007,-0.535667002,-1.781486034,-2.49337101,1.834944963,-1.200842977,0.116034001,-0.581263006,1.868623018,0.820128977,-0.451041996,-0.837719023,1.332651019,0.675670028,-0.094102003,0.29114899,-0.392313987,-1.239843965,0.881479025,2.534060001,-1.406221986,-0.888031006,0.893047988,-1.010064006,-0.397300005,-0.060247,0.944289982,-0.293049991,-3.245966911,0.581246018,0.201242,0.988991022,2.12055397,-0.970229983,-0.55014497,1.155043006,-0.782854021,-1.662971973,0.920518994,-0.956969976,2.144583941,-1.427296042,-2.094002008,-0.735006988,0.353031993,-0.328025997,-1.596361041,-1.064936996,0.109311,1.724220037,-0.115332,-1.785305977,-0.895199001,0.859821022,0.301355004,-0.625612974,0.723610997,-0.77265197,0.026953001,0.475378007,-0.367850989,-0.590134025,-0.839060009,0.017966,0.152902007,1.110030055,1.130799055,-0.911686003,-0.182003006,-1.295222998,-0.664525986,0.558417976,-0.666014016,1.441805005,-1.552441955,-1.651797056,-0.229090005,-1.081688046,1.002707958,-1.251865983,-1.799872994,-1.303465009,0.801369011,-0.872151971,1.376464963,0.218713,-4.069682121,-0.024738999,0.125855997,-0.566177011,-0.697660029,-1.808105946,0.455332994,-0.448316991,-0.206736997,0.018547,-0.805536985,-0.46084401,-0.100676,-1.303344011,0.194113001,-0.113863997,-1.135943055,1.451848984,-0.855552018,-0.647108972,1.970973969,1.841593981,1.715513945,0.796419024,-0.465523988,0.382234991,2.387619972,-0.30646199,-1.036121964,0.556504011,1.113780022,-1.099452972,-0.379649013,-0.096942998,2.364058971,1.332386017,-0.028573001,-0.689332008,-0.286574006,-0.245676994,0.333766997,-1.180850029,0.934270024,-0.852838993,0.245128006,0.540746987,0.982227981,-1.974794984,0.897139013,1.310744047,0.400757015,-0.316321999,0.628338993,0.166286007,3.958030939,1.404523015,-1.431020021,-1.100597978,-0.563476026,0.216327995,-1.686300993,-2.878964901,0.947745979,-1.027819037,0.721567988,-1.425595045,0.782935977,0.292450994,-2.25890398,-1.029453993,-0.325500995,1.469823956,2.144804955,1.52265799,-2.350943089,2.114995003,-0.123264998,0.664249003,0.059716001,-0.620967984,-1.428881049,1.215842962,-1.07002604,-0.375380009,0.594525993,-0.467703015,0.352959007,-0.109439999,2.412662983,-0.243717998,0.358550996,-0.488943994,0.073495001,2.17970109,0.768948972,-1.687988997,0.070152998,2.136328936,1.046118021,0.660398006,0.453779995,-2.914555073,-0.877120018,-0.024162,-1.538643956,0.967136979,0.422490001,-1.60276103,0.91287303,-1.071982026,2.06338191,0.194186002,-0.449407011,-1.925042987,0.925682008,1.329056978,0.475174993,-0.555387974,-0.397756994,1.172013998,0.867726982,1.346282005,-2.012020111,-0.13899,0.703710973,-1.771752954,-1.111979008,1.810485959,0.673807979,-0.162471995,1.377176046,-0.023171,0.298184007,-0.315492988,1.775464058,-1.996109009,-1.460963011,1.352574945,-1.832653999,-0.970242023,-1.656090975,1.929887056,0.348149002,-0.930777013,-1.900990009,2.287350893,0.922070026,0.799073994,1.009426951,-1.30321002,-1.153617024,0.014731,-0.276508987,-0.275139004,-2.05735898,0.228370994,0.554727018,-0.645051003,0.972588003,0.877967,1.83140099,0.607860982,1.176970005,0.597572982,-1.280315995,-0.135773003,-1.455096006,-1.26175499,-0.213551998,-0.520839989,-0.006021,1.340461016,-1.223948956,0.593025982,0.361034006,-0.849825978,0.104323998,-0.395891994,0.131229997,3.784693003,0.252094001,0.563283026,0.928178012,1.039669991,0.154217005,-0.796389997,0.311150014,-0.441134006,0.660130978,0.156170994,-0.318208009,0.693554997,-0.279729009,0.304181993,-1.800523996,0.025598001,2.416546106,-0.799130976,-0.019447001,0.096042,-0.988588989,-0.793487012,1.274320006,1.596946001,-0.849170029,-0.089916997,0.263758004,0.129839003,-0.070182003,0.599994004,-2.361843109,0.796827972,0.914300978,-0.049977001,0.39259401,1.290421963,0.522152007,-0.777906001,-2.325579882,-0.723435998,1.538625956,1.167631984,1.285338044,2.565994978,-0.616819978,0.319682986,1.000637054,2.672297001,0.878952026,0.713936985,
侧,0.033555001,-0.612897992,0.210811004,-0.309543014,-0.088962004,1.014673948,-0.580008984,-0.664211988,0.371722013,0.198979005,-0.377368987,-1.32227695,-0.062252,-0.454311013,-0.199373007,0.602832973,0.880613029,0.248211995,0.978286982,-0.498237997,-1.479884982,0.842334986,-1.072250009,-0.413583994,0.314455003,-0.284998,0.003639,1.015550971,-0.168190002,0.134718001,-1.530856967,-0.269841999,0.905990005,1.195659995,-0.001611,0.762476027,0.233997002,-2.217227936,0.625729978,0.901675999,1.060188055,-1.11254096,-1.503535986,0.073870003,1.245028019,-0.687662005,-0.060123,0.067115001,0.246333003,1.362807989,-0.184975997,-0.216382995,-0.662811995,-0.639734983,-1.755957961,0.142814994,1.192134023,-0.870052993,0.511430025,1.169811964,-1.043697,-0.282182992,-0.28708601,-2.635200024,-0.091628,0.907254994,-0.715951979,1.07407999,-0.249964997,0.841620982,0.090861,-0.336901009,0.655083001,0.835277975,1.268432021,0.094228998,-0.570136011,1.204905033,0.202070996,1.085386992,-0.134893,-0.071828999,-1.431221962,-0.458880991,0.156500995,-0.833929002,-0.688418984,0.73656702,0.332314998,-0.79904002,-0.048587002,0.353534997,0.333377987,0.719886005,-0.051816002,0.324414998,-0.071240999,0.736582994,-0.26118499,1.349936008,-0.054533001,-1.760885,0.539463997,-0.475306988,0.36473,-0.867362976,1.318678975,-0.37945199,0.371681005,0.470169008,-0.280447006,0.063524,0.553586006,-0.883145988,0.564427972,0.260632992,0.259353012,-1.044924974,-0.303357005,0.973329008,-0.522454977,0.277236998,0.398838997,-0.134112999,0.800707996,0.020536,-0.520474017,-1.519955039,0.788854003,-1.933931947,1.523960948,-0.389463991,0.147597998,0.529473007,-1.243360043,0.888598979,-0.084675997,-0.516447008,0.174872994,0.132140994,0.252021998,-0.022739001,-1.090201974,0.070275001,-0.685826004,-0.481380999,-0.882287025,0.732832015,-0.870899022,1.192929029,-0.117537998,0.388491005,-1.263815045,-0.483675003,0.811241984,-0.882704973,0.596836984,-1.452468991,-1.416967034,-1.047230959,-0.335424989,-1.47891295,0.000621,0.090380996,-1.397354007,0.512426019,0.890389979,0.143695995,-2.072374105,-0.178944007,0.52965498,-0.675553024,0.861863971,1.006003022,0.723179996,0.92384398,-0.099004999,-0.242550001,0.586824,1.327762961,-0.627852976,0.41148001,-0.056201,0.575227976,0.845551014,0.235844001,0.143255994,-0.075563997,0.770774007,-0.062146999,0.318845987,1.272403955,1.04311204,-0.719424009,-0.687020004,0.229450002,0.741185009,-0.768634975,1.480687976,-0.352982014,-1.166509032,-0.38776499,-0.894325018,-0.640874028,0.226815999,0.386765987,-0.29886201,0.437115997,-1.463729024,-0.185922995,1.122900009,-0.889624,0.919526994,-0.096537001,-0.088960998,-0.232258007,0.196131006,-0.104653999,0.442544997,-0.327491999,0.613283992,1.924219012,-0.324443996,0.096534997,0.395135999,0.491066009,0.675270021,-0.888783991,0.254272014,-0.329861999,-0.679261982,0.141377002,0.109467,-1.277577043,0.665684998,0.160575002,0.013297,0.666839004,-0.757086992,-0.292055994,0.209174007,1.144271016,0.720265985,0.923976004,0.737200975,1.235703945,-0.541905999,0.197384998,-1.16002202,1.606889009,-1.188195944,0.660481989,0.823128998,-0.078772001,0.394676,1.09433496,0.020243,-0.348396987,0.998079002,0.219582006,0.602514029,0.453552008,-0.48140201,-0.366005003,-0.206443995,-0.541884005,-1.259631991,-0.025836,0.056743,-0.180888996,-0.324934989,-0.062392998,0.020458,-0.208096996,-0.638880014,1.660318017,-0.535259008,-0.234556004,-0.888414979,-0.233161002,0.968679011,-0.256826997,0.099082999,0.89468199,-0.986482978,0.055617999,-0.346648991,-0.167355001,1.10421598,-0.865554988,0.884618998,0.256009996,0.986967027,-0.297304004,-1.402405977,-0.926207006,-0.750941992,0.337837994,1.136692047,0.300953001,1.008052945,-1.178743005,-0.015166,-0.743674994,0.821736991,1.409723997,-1.479058981,-0.381788999,-0.898760974,0.204779997,-0.018009,-0.320266992,0.915998995,0.123207003,-1.316712976,2.024785995,0.024394,0.717961013,0.636822999,0.264313996,-0.273158014,0.065144002,-1.114318967,0.056255002,0.976773977,0.284361988,-0.68945998,-0.275245011,-0.832647026,1.261345983,1.152783036,-0.023151999,-0.469018012,1.657572985,0.111809,0.666462004,-0.814562976,1.404075027,-1.03452301,1.094441056,0.547251999,0.274524987,-0.619799018,-0.326362014,1.083621979,-0.953881979,-0.933426023,-0.066501997,0.114082001,0.752568007,-0.470663011,0.286269993,0.186315,-0.132469997,-0.560000002,-0.689888,0.370858997,0.823077977,0.215406001,-0.25562799,-1.985810995,-0.663501978,-1.256276965,1.123499036,1.299656034,-1.556707025,1.385769963,-1.83930099,-0.789439976,0.174886003,-0.506370008,-0.074768998,-0.726145029,0.758341014,-0.057356998,-0.222792998,-0.058561999,0.280582994,-1.160861969,0.668309987,-0.896272004,-0.711673975,-0.074055001,0.363368005,0.216381997,-1.184265971,1.015090942,-0.664140999,-1.070044994,0.788392007,-0.045320999,0.491183013,0.253984004,0.045566,0.968599021,-0.218566,-0.158548996,-0.165464997,1.850710988,1.106377959,渚?0.0335550010204,-0.612897992,0.210811004,-0.309543014,-0.088962004,1.014673948,-0.580008984,-0.664211988,0.371722013,0.198979005,-0.377368987,-1.32227695,-0.062252,-0.454311013,-0.199373007,0.602832973,0.880613029,0.248211995,0.978286982,-0.498237997,-1.479884982,0.842334986,-1.072250009,-0.413583994,0.314455003,-0.284998,0.003639,1.015550971,-0.168190002,0.134718001,-1.530856967,-0.269841999,0.905990005,1.195659995,-0.001611,0.762476027,0.233997002,-2.217227936,0.625729978,0.901675999,1.060188055,-1.11254096,-1.503535986,0.073870003,1.245028019,-0.687662005,-0.060123,0.067115001,0.246333003,1.362807989,-0.184975997,-0.216382995,-0.662811995,-0.639734983,-1.755957961,0.142814994,1.192134023,-0.870052993,0.511430025,1.169811964,-1.043697,-0.282182992,-0.28708601,-2.635200024,-0.091628,0.907254994,-0.715951979,1.07407999,-0.249964997,0.841620982,0.090861,-0.336901009,0.655083001,0.835277975,1.268432021,0.094228998,-0.570136011,1.204905033,0.202070996,1.085386992,-0.134893,-0.071828999,-1.431221962,-0.458880991,0.156500995,-0.833929002,-0.688418984,0.73656702,0.332314998,-0.79904002,-0.048587002,0.353534997,0.333377987,0.719886005,-0.051816002,0.324414998,-0.071240999,0.736582994,-0.26118499,1.349936008,-0.054533001,-1.760885,0.539463997,-0.475306988,0.36473,-0.867362976,1.318678975,-0.37945199,0.371681005,0.470169008,-0.280447006,0.063524,0.553586006,-0.883145988,0.564427972,0.260632992,0.259353012,-1.044924974,-0.303357005,0.973329008,-0.522454977,0.277236998,0.398838997,-0.134112999,0.800707996,0.020536,-0.520474017,-1.519955039,0.788854003,-1.933931947,1.523960948,-0.389463991,0.147597998,0.529473007,-1.243360043,0.888598979,-0.084675997,-0.516447008,0.174872994,0.132140994,0.252021998,-0.022739001,-1.090201974,0.070275001,-0.685826004,-0.481380999,-0.882287025,0.732832015,-0.870899022,1.192929029,-0.117537998,0.388491005,-1.263815045,-0.483675003,0.811241984,-0.882704973,0.596836984,-1.452468991,-1.416967034,-1.047230959,-0.335424989,-1.47891295,0.000621,0.090380996,-1.397354007,0.512426019,0.890389979,0.143695995,-2.072374105,-0.178944007,0.52965498,-0.675553024,0.861863971,1.006003022,0.723179996,0.92384398,-0.099004999,-0.242550001,0.586824,1.327762961,-0.627852976,0.41148001,-0.056201,0.575227976,0.845551014,0.235844001,0.143255994,-0.075563997,0.770774007,-0.062146999,0.318845987,1.272403955,1.04311204,-0.719424009,-0.687020004,0.229450002,0.741185009,-0.768634975,1.480687976,-0.352982014,-1.166509032,-0.38776499,-0.894325018,-0.640874028,0.226815999,0.386765987,-0.29886201,0.437115997,-1.463729024,-0.185922995,1.122900009,-0.889624,0.919526994,-0.096537001,-0.088960998,-0.232258007,0.196131006,-0.104653999,0.442544997,-0.327491999,0.613283992,1.924219012,-0.324443996,0.096534997,0.395135999,0.491066009,0.675270021,-0.888783991,0.254272014,-0.329861999,-0.679261982,0.141377002,0.109467,-1.277577043,0.665684998,0.160575002,0.013297,0.666839004,-0.757086992,-0.292055994,0.209174007,1.144271016,0.720265985,0.923976004,0.737200975,1.235703945,-0.541905999,0.197384998,-1.16002202,1.606889009,-1.188195944,0.660481989,0.823128998,-0.078772001,0.394676,1.09433496,0.020243,-0.348396987,0.998079002,0.219582006,0.602514029,0.453552008,-0.48140201,-0.366005003,-0.206443995,-0.541884005,-1.259631991,-0.025836,0.056743,-0.180888996,-0.324934989,-0.062392998,0.020458,-0.208096996,-0.638880014,1.660318017,-0.535259008,-0.234556004,-0.888414979,-0.233161002,0.968679011,-0.256826997,0.099082999,0.89468199,-0.986482978,0.055617999,-0.346648991,-0.167355001,1.10421598,-0.865554988,0.884618998,0.256009996,0.986967027,-0.297304004,-1.402405977,-0.926207006,-0.750941992,0.337837994,1.136692047,0.300953001,1.008052945,-1.178743005,-0.015166,-0.743674994,0.821736991,1.409723997,-1.479058981,-0.381788999,-0.898760974,0.204779997,-0.018009,-0.320266992,0.915998995,0.123207003,-1.316712976,2.024785995,0.024394,0.717961013,0.636822999,0.264313996,-0.273158014,0.065144002,-1.114318967,0.056255002,0.976773977,0.284361988,-0.68945998,-0.275245011,-0.832647026,1.261345983,1.152783036,-0.023151999,-0.469018012,1.657572985,0.111809,0.666462004,-0.814562976,1.404075027,-1.03452301,1.094441056,0.547251999,0.274524987,-0.619799018,-0.326362014,1.083621979,-0.953881979,-0.933426023,-0.066501997,0.114082001,0.752568007,-0.470663011,0.286269993,0.186315,-0.132469997,-0.560000002,-0.689888,0.370858997,0.823077977,0.215406001,-0.25562799,-1.985810995,-0.663501978,-1.256276965,1.123499036,1.299656034,-1.556707025,1.385769963,-1.83930099,-0.789439976,0.174886003,-0.506370008,-0.074768998,-0.726145029,0.758341014,-0.057356998,-0.222792998,-0.058561999,0.280582994,-1.160861969,0.668309987,-0.896272004,-0.711673975,-0.074055001,0.363368005,0.216381997,-1.184265971,1.015090942,-0.664140999,-1.070044994,0.788392007,-0.045320999,0.491183013,0.253984004,0.045566,0.968599021,-0.218566,-0.158548996,-0.165464997,1.850710988,1.106377959,
具有,-0.068181001,1.404706001,2.580152988,-0.417515993,1.009624004,-1.168177009,1.306087017,0.617208004,-0.418976009,0.680073977,0.032067001,-0.412878007,-0.458056003,-1.797669053,-0.482612014,-0.850849986,-2.08274889,-1.794381976,-0.077083997,-1.89013195,-0.183202997,1.710371017,-0.51523,1.497156024,1.355115056,1.700451016,0.843391001,0.205026001,-0.423913002,0.064859003,-1.093621016,0.033753999,-0.537654996,1.055663943,0.016620999,0.80635798,-0.569635987,-1.494699001,-1.226475954,1.73556304,0.055863999,0.265271008,0.105435997,-2.353790045,-0.376747996,-0.365561992,1.255486012,-2.271579981,1.02639401,0.006924,2.407118082,2.470787048,0.168236002,0.261465997,-0.577809989,-0.711461008,1.208655953,-1.497503996,-1.417256951,0.847477019,-0.984902024,-1.347740054,-0.193630993,-0.443363011,-2.121325016,-1.611611962,-0.036683999,0.077055998,-1.238834977,0.37094301,0.356952012,0.782513022,0.139865994,1.467123985,-0.82842201,-1.271275997,1.791893005,0.040472001,-0.571823001,-1.202847958,0.168824002,0.45747,1.387511969,0.67535001,0.668947995,-0.020854,-0.198296994,-1.332386017,-0.342359006,0.202732995,0.675924003,-0.059631001,0.79281801,0.174928993,-1.061696053,0.602424979,2.692667961,-0.856046021,-0.832304001,-0.920239985,0.240029007,0.790196002,0.500250995,1.209828019,-0.877777994,-1.549532056,0.789002001,-0.027062001,-0.210247993,-1.728011966,0.124601997,-0.01024,-1.987946033,0.560718,-0.582768977,0.270738006,1.570742965,-2.07348609,-0.341502994,-0.572614014,0.466809005,-2.113531113,0.257672012,-1.077363968,-1.490241051,0.523836017,-3.890933037,0.032237001,0.614049017,1.946238995,0.432294995,1.025249958,-1.230263948,0.811007977,0.511888027,-0.65307498,0.123153999,0.644003987,0.620209992,0.664552987,-0.869156003,-1.142055988,-0.596728981,-1.534482002,0.863996029,-2.005791903,0.358027995,1.056280971,-0.402871996,-1.205469966,2.730568886,0.258213013,-0.436003,1.542793036,1.132825017,0.675576985,0.615074992,0.133136004,-0.850395024,1.107131004,-0.080714002,-1.68908596,1.189169049,0.004583,1.180817008,-0.973964989,-0.456936985,-1.34860599,-0.751230001,-0.329811007,-0.933367014,-0.638098001,-0.068980001,0.017749,0.480975002,0.825405002,1.907968044,2.586818933,1.568701983,2.383481026,-2.550868034,-0.167386994,0.528226018,-0.517509997,-0.928963006,-0.050795,0.072679996,0.476684004,-1.011901975,0.669575989,2.042244911,-0.568099022,1.696285963,0.644079983,-1.327219009,-0.755998015,0.02392,1.02561295,-0.916594982,1.426280975,-0.114302002,-1.091856003,-0.076949999,0.156933993,-2.759567976,0.323094994,-1.165825009,0.308063,0.931065023,1.644845963,-1.018182993,-0.313383996,0.829441011,-1.021090031,1.409232974,0.010759,-0.743929982,1.581359029,-0.006871,0.496219993,0.294970989,-0.580114007,1.247308016,0.164823994,-2.832420111,-2.682483912,-0.340783,0.111527003,-1.226330042,-0.721207023,-1.720585942,-0.587580025,0.447302997,-3.028661013,2.188096046,-1.445680976,0.390179992,0.929045975,1.129760027,0.066229999,-0.653360009,-0.080104001,1.081411004,2.456562996,0.070404001,0.708298028,-2.026722908,-0.617736995,-0.941561997,-2.543023109,1.705993056,0.749988019,0.789391994,-2.201867104,-0.992626011,-0.356705993,-1.198871017,-0.155992001,0.778155982,0.136042997,1.023543,0.391003996,0.450367004,0.455379993,-0.006854,-1.351551056,-1.852311015,1.543627024,-1.023502946,-1.024407029,-1.304425001,0.203139007,-1.239084005,-0.316504002,-0.590174019,1.331238985,-1.304810047,-0.494785011,-2.10413003,0.325338989,-0.327114999,0.678718984,1.292690992,-0.81853199,-0.577229023,-0.975718975,-0.473823011,-1.841048956,-0.951117992,2.53559804,0.138503999,0.353875011,0.318973005,-0.825444996,1.611428976,-0.528271019,0.152013004,-0.402534008,0.107335001,-2.355401039,-1.740053058,1.458389997,0.552447975,-0.745907009,-0.173974007,-0.787413001,0.289137989,1.448809981,1.35511899,0.996173024,0.924515009,-1.225448966,2.004976034,-0.649912,-1.659610987,1.289147019,0.331835002,-0.151595995,-0.958675027,-0.141911998,-0.348701,-1.57021594,-0.838141978,0.846167982,-0.327657998,0.649896026,-2.568819046,-0.188077003,-1.769968033,-2.266896009,1.336449027,-1.195896983,-1.274850011,-1.551498055,1.997308016,-1.573014975,0.634287,-0.307164013,-0.543878973,0.467918009,0.025736,1.508481026,-0.249283999,-2.27223897,1.706568956,1.082195044,-0.675953984,2.139022112,-1.671717048,0.783581972,-0.240817994,-0.77363801,2.446320057,2.2970891,0.571361005,-0.126895994,0.937871993,-0.770433009,-1.281280041,1.867980957,1.482655048,0.645736992,-2.699743032,-0.188534006,2.707067013,-0.138572007,-2.079600096,-0.427298993,-0.662240028,-0.139651001,-0.285362989,-2.027159929,1.393635035,1.65049696,-0.065879002,-1.30796802,-1.708101034,-0.022564,0.366820008,0.160209998,-0.216188997,-0.970288992,-1.240331054,0.759651005,1.819049954,-1.639435053,-0.373369992,-1.525228024,-2.562990904,1.270701051,2.015815973,1.514170051,0.541059971,-0.962484002,0.908342004,-0.727864027,1.954905987,-0.627606988,-0.308317006,-0.275135994,锋,-0.068181001,1.404706001,2.580152988,-0.417515993,1.009624004,-1.168177009,1.306087017,0.617208004,-0.418976009,0.680073977,0.032067001,-0.412878007,-0.458056003,-1.797669053,-0.482612014,-0.850849986,-2.08274889,-1.794381976,-0.077083997,-1.89013195,-0.183202997,1.710371017,-0.51523,1.497156024,1.355115056,1.700451016,0.843391001,0.205026001,-0.423913002,0.064859003,-1.093621016,0.033753999,-0.537654996,1.055663943,0.016620999,0.80635798,-0.569635987,-1.494699001,-1.226475954,1.73556304,0.055863999,0.265271008,0.105435997,-2.353790045,-0.376747996,-0.365561992,1.255486012,-2.271579981,1.02639401,0.006924,2.407118082,2.470787048,0.168236002,0.261465997,-0.577809989,-0.711461008,1.208655953,-1.497503996,-1.417256951,0.847477019,-0.984902024,-1.347740054,-0.193630993,-0.443363011,-2.121325016,-1.611611962,-0.036683999,0.077055998,-1.238834977,0.37094301,0.356952012,0.782513022,0.139865994,1.467123985,-0.82842201,-1.271275997,1.791893005,0.040472001,-0.571823001,-1.202847958,0.168824002,0.45747,1.387511969,0.67535001,0.668947995,-0.020854,-0.198296994,-1.332386017,-0.342359006,0.202732995,0.675924003,-0.059631001,0.79281801,0.174928993,-1.061696053,0.602424979,2.692667961,-0.856046021,-0.832304001,-0.920239985,0.240029007,0.790196002,0.500250995,1.209828019,-0.877777994,-1.549532056,0.789002001,-0.027062001,-0.210247993,-1.728011966,0.124601997,-0.01024,-1.987946033,0.560718,-0.582768977,0.270738006,1.570742965,-2.07348609,-0.341502994,-0.572614014,0.466809005,-2.113531113,0.257672012,-1.077363968,-1.490241051,0.523836017,-3.890933037,0.032237001,0.614049017,1.946238995,0.432294995,1.025249958,-1.230263948,0.811007977,0.511888027,-0.65307498,0.123153999,0.644003987,0.620209992,0.664552987,-0.869156003,-1.142055988,-0.596728981,-1.534482002,0.863996029,-2.005791903,0.358027995,1.056280971,-0.402871996,-1.205469966,2.730568886,0.258213013,-0.436003,1.542793036,1.132825017,0.675576985,0.615074992,0.133136004,-0.850395024,1.107131004,-0.080714002,-1.68908596,1.189169049,0.004583,1.180817008,-0.973964989,-0.456936985,-1.34860599,-0.751230001,-0.329811007,-0.933367014,-0.638098001,-0.068980001,0.017749,0.480975002,0.825405002,1.907968044,2.586818933,1.568701983,2.383481026,-2.550868034,-0.167386994,0.528226018,-0.517509997,-0.928963006,-0.050795,0.072679996,0.476684004,-1.011901975,0.669575989,2.042244911,-0.568099022,1.696285963,0.644079983,-1.327219009,-0.755998015,0.02392,1.02561295,-0.916594982,1.426280975,-0.114302002,-1.091856003,-0.076949999,0.156933993,-2.759567976,0.323094994,-1.165825009,0.308063,0.931065023,1.644845963,-1.018182993,-0.313383996,0.829441011,-1.021090031,1.409232974,0.010759,-0.743929982,1.581359029,-0.006871,0.496219993,0.294970989,-0.580114007,1.247308016,0.164823994,-2.832420111,-2.682483912,-0.340783,0.111527003,-1.226330042,-0.721207023,-1.720585942,-0.587580025,0.447302997,-3.028661013,2.188096046,-1.445680976,0.390179992,0.929045975,1.129760027,0.066229999,-0.653360009,-0.080104001,1.081411004,2.456562996,0.070404001,0.708298028,-2.026722908,-0.617736995,-0.941561997,-2.543023109,1.705993056,0.749988019,0.789391994,-2.201867104,-0.992626011,-0.356705993,-1.198871017,-0.155992001,0.778155982,0.136042997,1.023543,0.391003996,0.450367004,0.455379993,-0.006854,-1.351551056,-1.852311015,1.543627024,-1.023502946,-1.024407029,-1.304425001,0.203139007,-1.239084005,-0.316504002,-0.590174019,1.331238985,-1.304810047,-0.494785011,-2.10413003,0.325338989,-0.327114999,0.678718984,1.292690992,-0.81853199,-0.577229023,-0.975718975,-0.473823011,-1.841048956,-0.951117992,2.53559804,0.138503999,0.353875011,0.318973005,-0.825444996,1.611428976,-0.528271019,0.152013004,-0.402534008,0.107335001,-2.355401039,-1.740053058,1.458389997,0.552447975,-0.745907009,-0.173974007,-0.787413001,0.289137989,1.448809981,1.35511899,0.996173024,0.924515009,-1.225448966,2.004976034,-0.649912,-1.659610987,1.289147019,0.331835002,-0.151595995,-0.958675027,-0.141911998,-0.348701,-1.57021594,-0.838141978,0.846167982,-0.327657998,0.649896026,-2.568819046,-0.188077003,-1.769968033,-2.266896009,1.336449027,-1.195896983,-1.274850011,-1.551498055,1.997308016,-1.573014975,0.634287,-0.307164013,-0.543878973,0.467918009,0.025736,1.508481026,-0.249283999,-2.27223897,1.706568956,1.082195044,-0.675953984,2.139022112,-1.671717048,0.783581972,-0.240817994,-0.77363801,2.446320057,2.2970891,0.571361005,-0.126895994,0.937871993,-0.770433009,-1.281280041,1.867980957,1.482655048,0.645736992,-2.699743032,-0.188534006,2.707067013,-0.138572007,-2.079600096,-0.427298993,-0.662240028,-0.139651001,-0.285362989,-2.027159929,1.393635035,1.65049696,-0.065879002,-1.30796802,-1.708101034,-0.022564,0.366820008,0.160209998,-0.216188997,-0.970288992,-1.240331054,0.759651005,1.819049954,-1.639435053,-0.373369992,-1.525228024,-2.562990904,1.270701051,2.015815973,1.514170051,0.541059971,-0.962484002,0.908342004,-0.727864027,1.954905987,-0.627606988,-0.308317006,-0.275135994
结合,0.012379,0.975144982,-0.818799019,-0.262304991,0.133518994,0.727026999,0.143635005,0.046994999,1.30171001,0.49733901,-0.58189702,-0.549288988,-0.830069005,-0.879221976,-1.124933004,-0.708271027,-0.683516026,-0.514030993,0.958817005,-0.468212008,1.056990027,-0.486595005,0.840273023,2.743741035,0.138595998,2.037883043,0.576075017,1.522964954,-0.667989016,0.499516994,-0.088832997,-0.222224995,0.293235004,-0.642772973,0.369715989,-1.359722972,-1.073999047,-0.90129298,0.020199001,0.340925992,0.926694989,-0.480387002,0.118914001,-1.553653002,-1.311076999,0.131606996,0.039820001,-1.230682015,0.08664,0.866937995,1.220934033,-0.77619499,-0.110290997,-0.029265,0.093838997,-0.313073009,-0.531051993,1.410444975,0.407018989,0.072114997,-1.504907012,0.732765973,-0.033888999,0.967204988,-0.221662,-0.248435006,-1.953555942,0.205341995,1.121917963,0.999628007,-0.826305985,0.405683994,1.029145956,1.554713964,-1.227751017,0.834142983,1.361541986,-0.037170999,2.946624041,-0.776319981,-0.044796001,0.169934005,0.84255302,-1.681023002,0.91357702,1.106948018,-0.255549014,-0.097910002,-0.712885976,0.056104001,-0.920826018,-0.403405011,-0.530288994,-0.30626601,-0.489717007,-0.022115,0.665009975,-0.799099028,-1.203881025,0.147303,-0.310247988,1.140522957,0.904204011,1.640818,-0.469897002,-2.964553118,1.229930997,-0.826556027,-1.149026036,-2.283476114,-1.760702968,-0.443468004,-0.004428,-0.359257013,0.578927994,1.165925026,0.330054998,-0.032164998,-0.701331019,1.11827004,-0.357607007,-0.222859994,1.672075033,-0.890348017,-1.62666297,1.659018993,-2.406574011,1.942867041,0.904874027,0.239677995,1.539108038,-2.775180101,0.299403995,1.595291972,0.594393015,0.049828999,-0.662679017,1.386096001,1.355983019,1.669911027,-0.079837002,1.15496099,0.353278011,0.174336001,-0.128189996,-0.567524016,1.094483972,0.915078998,0.380663991,-1.512513995,0.528765023,-0.986129999,1.600823998,0.771959007,0.923331022,0.452809006,0.803932011,-0.183486998,-0.414353997,0.737236023,0.359091014,-0.001231,1.28126204,-0.230323002,0.656069994,0.172280997,-0.176726997,-0.081243999,-1.561647058,1.096941948,-1.739771008,0.916814029,0.937058985,-0.613779008,1.575135946,-0.414202005,1.720931053,2.197427988,-0.714345992,-0.185066998,-0.59682101,0.096407004,1.087620974,-0.06072,-1.349938035,0.533689976,0.696457982,-0.261646003,-1.185556054,-0.022325,-1.33800602,-0.417822987,0.95440501,2.467695951,-1.210888028,0.253594011,-0.144078001,0.079907998,-0.585344017,0.141240999,0.867654979,-2.535259962,0.534812987,0.438127011,-1.596482039,0.892785013,1.128440976,-0.523636997,1.107530952,0.816322029,-0.191404,0.024684999,0.995513022,-0.482766986,0.372198999,-0.290692002,-1.285292029,-0.930575013,-0.873706996,-0.900467992,0.59087801,-1.546118021,1.153692007,0.71230799,-0.478377014,-0.578794003,-0.127347007,-0.382934004,-1.297726989,-1.983589053,-0.844832003,0.223776996,0.691964984,-1.691336036,0.652728975,-1.202407002,-0.203659996,1.022804022,0.185540006,0.455713987,1.072561026,0.263895005,0.064989001,1.039214015,0.750971019,-0.489654988,0.202509999,0.548381984,0.852979004,-0.643836975,0.197364002,-0.721301973,-0.016249999,-0.378078014,-0.51611203,1.70124197,-0.266710013,-0.682218015,1.020614982,0.462179005,-0.087967999,0.461735994,-1.02680397,0.468270987,-1.103911996,0.862438023,-0.521637976,0.692048013,1.255960941,-0.270891994,-0.871330023,-0.726576984,1.054123998,0.616362989,-0.537446022,1.121502042,-0.476790994,-0.073142,1.926828027,-0.301342994,1.349382997,0.704888999,0.679827988,-0.732168972,0.222541004,0.262331009,-0.580155015,-1.693814993,0.640326977,1.254004002,-1.965183973,0.551998973,0.038656998,0.520045996,-0.143350005,0.111566,0.000619,0.666402996,0.870899022,0.695095003,0.173345998,0.254624009,-1.932500958,0.327273011,0.470396012,2.309809923,-0.732577026,0.933530986,-0.058557,1.515390992,-2.673294067,-0.060137998,0.938340008,-0.319934994,0.307660013,-0.386002988,-2.130350113,0.088013001,1.040562987,1.171983004,0.365456998,-0.956423998,0.196823001,0.344992995,-0.274612993,-0.319350988,-0.496692002,-1.72060895,-0.532612026,-0.391591012,-0.682898998,0.018493,-0.769711018,0.692339003,0.397267014,-0.072572,0.431432009,0.589003026,-0.535851002,1.184169054,0.158502996,0.445946008,0.708827972,-0.488297999,0.275606006,-0.034977,0.996632993,0.791860998,0.583826005,0.412932009,0.87550801,-0.998263001,1.73902905,1.277291059,-0.392935008,0.170818999,0.848770976,0.283742994,-1.83237803,0.714776993,-0.457843006,-1.530228019,1.081722021,0.515976012,-0.973713994,-0.623319983,-1.732704997,-1.000831962,-0.973730028,-1.784301043,0.272130013,-0.187764004,-0.223840997,0.85948199,-0.080513,-0.609340012,-0.900734007,-0.896714985,0.799459994,-0.81873697,0.650997996,1.354401946,1.555817962,1.500041962,2.760164022,0.151912004,0.802757025,-1.914543033,-1.388972044,-0.013162,1.667726994,1.159757018,-0.784125984,0.478567004,0.491016001,-0.47281,2.264919996,-0.767934978,-0.818938017,-0.935066998,缁,0.012379,0.975144982,-0.818799019,-0.262304991,0.133518994,0.727026999,0.143635005,0.046994999,1.30171001,0.49733901,-0.58189702,-0.549288988,-0.830069005,-0.879221976,-1.124933004,-0.708271027,-0.683516026,-0.514030993,0.958817005,-0.468212008,1.056990027,-0.486595005,0.840273023,2.743741035,0.138595998,2.037883043,0.576075017,1.522964954,-0.667989016,0.499516994,-0.088832997,-0.222224995,0.293235004,-0.642772973,0.369715989,-1.359722972,-1.073999047,-0.90129298,0.020199001,0.340925992,0.926694989,-0.480387002,0.118914001,-1.553653002,-1.311076999,0.131606996,0.039820001,-1.230682015,0.08664,0.866937995,1.220934033,-0.77619499,-0.110290997,-0.029265,0.093838997,-0.313073009,-0.531051993,1.410444975,0.407018989,0.072114997,-1.504907012,0.732765973,-0.033888999,0.967204988,-0.221662,-0.248435006,-1.953555942,0.205341995,1.121917963,0.999628007,-0.826305985,0.405683994,1.029145956,1.554713964,-1.227751017,0.834142983,1.361541986,-0.037170999,2.946624041,-0.776319981,-0.044796001,0.169934005,0.84255302,-1.681023002,0.91357702,1.106948018,-0.255549014,-0.097910002,-0.712885976,0.056104001,-0.920826018,-0.403405011,-0.530288994,-0.30626601,-0.489717007,-0.022115,0.665009975,-0.799099028,-1.203881025,0.147303,-0.310247988,1.140522957,0.904204011,1.640818,-0.469897002,-2.964553118,1.229930997,-0.826556027,-1.149026036,-2.283476114,-1.760702968,-0.443468004,-0.004428,-0.359257013,0.578927994,1.165925026,0.330054998,-0.032164998,-0.701331019,1.11827004,-0.357607007,-0.222859994,1.672075033,-0.890348017,-1.62666297,1.659018993,-2.406574011,1.942867041,0.904874027,0.239677995,1.539108038,-2.775180101,0.299403995,1.595291972,0.594393015,0.049828999,-0.662679017,1.386096001,1.355983019,1.669911027,-0.079837002,1.15496099,0.353278011,0.174336001,-0.128189996,-0.567524016,1.094483972,0.915078998,0.380663991,-1.512513995,0.528765023,-0.986129999,1.600823998,0.771959007,0.923331022,0.452809006,0.803932011,-0.183486998,-0.414353997,0.737236023,0.359091014,-0.001231,1.28126204,-0.230323002,0.656069994,0.172280997,-0.176726997,-0.081243999,-1.561647058,1.096941948,-1.739771008,0.916814029,0.937058985,-0.613779008,1.575135946,-0.414202005,1.720931053,2.197427988,-0.714345992,-0.185066998,-0.59682101,0.096407004,1.087620974,-0.06072,-1.349938035,0.533689976,0.696457982,-0.261646003,-1.185556054,-0.022325,-1.33800602,-0.417822987,0.95440501,2.467695951,-1.210888028,0.253594011,-0.144078001,0.079907998,-0.585344017,0.141240999,0.867654979,-2.535259962,0.534812987,0.438127011,-1.596482039,0.892785013,1.128440976,-0.523636997,1.107530952,0.816322029,-0.191404,0.024684999,0.995513022,-0.482766986,0.372198999,-0.290692002,-1.285292029,-0.930575013,-0.873706996,-0.900467992,0.59087801,-1.546118021,1.153692007,0.71230799,-0.478377014,-0.578794003,-0.127347007,-0.382934004,-1.297726989,-1.983589053,-0.844832003,0.223776996,0.691964984,-1.691336036,0.652728975,-1.202407002,-0.203659996,1.022804022,0.185540006,0.455713987,1.072561026,0.263895005,0.064989001,1.039214015,0.750971019,-0.489654988,0.202509999,0.548381984,0.852979004,-0.643836975,0.197364002,-0.721301973,-0.016249999,-0.378078014,-0.51611203,1.70124197,-0.266710013,-0.682218015,1.020614982,0.462179005,-0.087967999,0.461735994,-1.02680397,0.468270987,-1.103911996,0.862438023,-0.521637976,0.692048013,1.255960941,-0.270891994,-0.871330023,-0.726576984,1.054123998,0.616362989,-0.537446022,1.121502042,-0.476790994,-0.073142,1.926828027,-0.301342994,1.349382997,0.704888999,0.679827988,-0.732168972,0.222541004,0.262331009,-0.580155015,-1.693814993,0.640326977,1.254004002,-1.965183973,0.551998973,0.038656998,0.520045996,-0.143350005,0.111566,0.000619,0.666402996,0.870899022,0.695095003,0.173345998,0.254624009,-1.932500958,0.327273011,0.470396012,2.309809923,-0.732577026,0.933530986,-0.058557,1.515390992,-2.673294067,-0.060137998,0.938340008,-0.319934994,0.307660013,-0.386002988,-2.130350113,0.088013001,1.040562987,1.171983004,0.365456998,-0.956423998,0.196823001,0.344992995,-0.274612993,-0.319350988,-0.496692002,-1.72060895,-0.532612026,-0.391591012,-0.682898998,0.018493,-0.769711018,0.692339003,0.397267014,-0.072572,0.431432009,0.589003026,-0.535851002,1.184169054,0.158502996,0.445946008,0.708827972,-0.488297999,0.275606006,-0.034977,0.996632993,0.791860998,0.583826005,0.412932009,0.87550801,-0.998263001,1.73902905,1.277291059,-0.392935008,0.170818999,0.848770976,0.283742994,-1.83237803,0.714776993,-0.457843006,-1.530228019,1.081722021,0.515976012,-0.973713994,-0.623319983,-1.732704997,-1.000831962,-0.973730028,-1.784301043,0.272130013,-0.187764004,-0.223840997,0.85948199,-0.080513,-0.609340012,-0.900734007,-0.896714985,0.799459994,-0.81873697,0.650997996,1.354401946,1.555817962,1.500041962,2.760164022,0.151912004,0.802757025,-1.914543033,-1.388972044,-0.013162,1.667726994,1.159757018,-0.784125984,0.478567004,0.491016001,-0.47281,2.264919996,-0.767934978,-0.818938017,-0.935066998
形成,-1.337651014,-0.852340996,1.21706903,0.74543798,2.516236067,-0.763049006,-0.007136,-0.805037975,-0.459425986,0.182733998,-0.985347986,-0.724747002,-0.551599026,-0.642139018,1.099136949,-0.553667009,0.187039003,-0.284536988,-0.424454004,-1.959789991,1.109060049,0.248539999,0.633462012,1.148535013,0.510466993,2.444375992,-0.657436013,0.850211024,-0.202408001,2.94768095,-1.243193984,-0.701725006,-0.888647974,0.187267005,-0.556694984,-1.303766012,-1.458217978,-1.02303803,-1.474388957,1.174790978,-0.698789001,1.740455031,-0.007352,-1.312476039,0.625886977,2.281672001,-0.124961004,-1.416810036,-0.332679987,0.387571007,-0.355720013,-0.928792,-0.328871995,-1.938567042,-0.435802996,1.455629945,0.930262029,0.309455991,0.175337002,-0.331957996,-0.873404026,-0.995872021,-1.463322043,-0.334439009,-0.551061988,-2.388772011,-3.046216011,0.515266001,-0.411954999,-0.577418983,-0.958647013,-1.248836994,0.661284983,2.112169027,-0.28094101,-1.218500972,3.238040924,0.871219993,1.951817036,-0.895089984,0.378416002,1.416300058,-1.026808977,-0.042016,1.475651979,-0.276196003,1.639037013,0.753480017,0.587279975,0.409442991,-0.569522977,-0.757584989,-0.342103004,0.25455901,-1.763272047,-0.40297699,0.691386998,0.57673502,0.318441004,-0.028511001,1.546798944,1.338111997,-0.608779013,2.485519886,-0.430408001,-2.628642082,0.982219994,0.277458012,-1.264194012,-1.686357021,-1.008860946,0.171519995,0.553746998,-0.184792995,1.373273969,2.043442011,2.717906952,0.757570028,-2.06161809,1.464413047,-0.985967994,0.091894001,-0.161917001,0.125073999,-0.69480902,0.244503006,-2.9736619,-1.26017499,-0.155619994,-0.797437012,1.698322058,0.696467996,-1.031020045,1.362575054,-0.853668988,1.628746033,-0.413993001,1.223485947,-0.222927004,0.100877002,2.209717989,2.412157059,-1.732857943,-0.236564994,0.596145988,-1.459859967,-1.26563704,1.705700994,-1.545629025,-1.420714974,1.871755958,-0.509414971,0.879176021,0.573369026,2.527920008,0.189144,1.099514961,-1.33199501,-0.979677022,1.630813003,0.89210403,-0.351536006,0.535444021,-1.573282957,1.81842804,-0.168420002,-0.001425,-0.656736016,-0.889090002,-0.366535008,1.35442996,1.05675602,0.386308014,-0.619352996,1.087466955,-1.195333004,0.474853992,0.246883005,-0.480401993,1.642397046,-0.81912899,1.15546,1.38508606,-0.802891016,1.625825047,1.273136973,1.49651897,1.148280025,0.805751026,0.315737009,-0.528236985,0.618631005,1.369660974,-0.255095989,-0.550895989,-0.780183017,-0.817258,0.630455017,1.784482956,0.947646976,-0.49101001,-1.087618947,-1.062211037,0.382378995,-0.995540023,0.809575975,0.038672,-0.383415997,-2.589329958,1.956923962,0.865150988,-0.674398005,2.718394041,0.311908007,2.382087946,0.173635006,-1.402501941,-2.767344952,-0.074653,-0.692321002,0.757094026,-1.360795975,1.76056397,-0.346201986,-2.649358988,-0.536270976,0.099353999,-2.351314068,-2.835789919,-3.151629925,0.465932012,-0.154928997,1.647830009,0.602371991,0.96173197,0.139980003,-0.217397004,0.625810027,0.99703002,-0.241384998,-0.368705004,-1.092159987,-0.260354012,0.263334006,0.109081998,-1.229011059,-0.826240003,1.324108005,0.198744997,0.100109003,0.507660985,0.645009995,0.846059024,-0.051295999,-0.379913002,1.318874002,0.75683099,1.155032992,3.04852891,1.413952947,0.39891699,0.748973012,-1.442826986,-1.463600039,-1.479401946,1.563554049,-1.357450962,-0.535687029,-0.216378003,0.101878002,-1.479771972,-0.385993987,0.582907975,1.547235012,-1.895419002,0.911921024,0.632681012,-0.102504,0.642189026,-1.216004014,0.909717023,1.049401999,0.781167984,1.261383057,0.414884001,-0.703976989,-1.329059005,-2.171165943,-0.208315998,-0.398063004,-1.035830021,-0.953090012,-0.340994,0.558221996,1.227182984,0.583733022,0.432177007,0.652481019,-0.299892008,0.544955015,-1.375491977,-0.127636001,0.452288985,0.065981999,1.034291983,1.051874995,-0.33910799,-0.080668002,0.793428004,0.202929005,-1.853875041,-0.860906005,2.501358032,-0.923620999,-1.14913094,2.555392027,-2.602674961,0.606085002,0.712655008,-0.136969,-0.571680009,-0.223336995,-1.094135046,-0.100175999,-0.183213994,-0.728089988,-0.662198007,-0.182697996,0.136847004,-0.793026984,-1.785786986,0.764515996,-0.911916971,-0.376222014,2.951850891,0.665024996,-0.749561012,0.821551979,-3.038722038,0.517512977,0.029425999,1.974141955,2.122481108,-2.345839977,1.444808006,-0.228933007,-0.338750988,1.036587954,0.243509993,0.051562998,-0.338669002,-0.106858999,1.454620004,0.526737988,1.236451983,-1.406337023,-1.524271011,1.483994961,-0.838773012,1.633430958,-0.117409997,0.277981013,1.434527993,-0.529883981,0.44609499,-3.259342909,-1.834674001,0.609070003,-0.265904009,-1.908267021,-1.356984973,-0.646658003,-1.853011966,0.662946999,-1.919283986,-2.103859901,-2.356744051,-1.198662043,-0.181933001,-2.085766077,-0.289389998,-0.597536027,-0.691186011,0.452158988,1.145401001,-0.184112996,-0.151470006,-2.327222109,1.045732021,-0.209665,3.57374692,-0.644951999,-0.418873012,1.439878941,0.245766997,0.237629995,0.86816299,-0.826941013,-1.391296983,-1.382102013,褰㈡,-1.337651014,-0.852340996,1.21706903,0.74543798,2.516236067,-0.763049006,-0.007136,-0.805037975,-0.459425986,0.182733998,-0.985347986,-0.724747002,-0.551599026,-0.642139018,1.099136949,-0.553667009,0.187039003,-0.284536988,-0.424454004,-1.959789991,1.109060049,0.248539999,0.633462012,1.148535013,0.510466993,2.444375992,-0.657436013,0.850211024,-0.202408001,2.94768095,-1.243193984,-0.701725006,-0.888647974,0.187267005,-0.556694984,-1.303766012,-1.458217978,-1.02303803,-1.474388957,1.174790978,-0.698789001,1.740455031,-0.007352,-1.312476039,0.625886977,2.281672001,-0.124961004,-1.416810036,-0.332679987,0.387571007,-0.355720013,-0.928792,-0.328871995,-1.938567042,-0.435802996,1.455629945,0.930262029,0.309455991,0.175337002,-0.331957996,-0.873404026,-0.995872021,-1.463322043,-0.334439009,-0.551061988,-2.388772011,-3.046216011,0.515266001,-0.411954999,-0.577418983,-0.958647013,-1.248836994,0.661284983,2.112169027,-0.28094101,-1.218500972,3.238040924,0.871219993,1.951817036,-0.895089984,0.378416002,1.416300058,-1.026808977,-0.042016,1.475651979,-0.276196003,1.639037013,0.753480017,0.587279975,0.409442991,-0.569522977,-0.757584989,-0.342103004,0.25455901,-1.763272047,-0.40297699,0.691386998,0.57673502,0.318441004,-0.028511001,1.546798944,1.338111997,-0.608779013,2.485519886,-0.430408001,-2.628642082,0.982219994,0.277458012,-1.264194012,-1.686357021,-1.008860946,0.171519995,0.553746998,-0.184792995,1.373273969,2.043442011,2.717906952,0.757570028,-2.06161809,1.464413047,-0.985967994,0.091894001,-0.161917001,0.125073999,-0.69480902,0.244503006,-2.9736619,-1.26017499,-0.155619994,-0.797437012,1.698322058,0.696467996,-1.031020045,1.362575054,-0.853668988,1.628746033,-0.413993001,1.223485947,-0.222927004,0.100877002,2.209717989,2.412157059,-1.732857943,-0.236564994,0.596145988,-1.459859967,-1.26563704,1.705700994,-1.545629025,-1.420714974,1.871755958,-0.509414971,0.879176021,0.573369026,2.527920008,0.189144,1.099514961,-1.33199501,-0.979677022,1.630813003,0.89210403,-0.351536006,0.535444021,-1.573282957,1.81842804,-0.168420002,-0.001425,-0.656736016,-0.889090002,-0.366535008,1.35442996,1.05675602,0.386308014,-0.619352996,1.087466955,-1.195333004,0.474853992,0.246883005,-0.480401993,1.642397046,-0.81912899,1.15546,1.38508606,-0.802891016,1.625825047,1.273136973,1.49651897,1.148280025,0.805751026,0.315737009,-0.528236985,0.618631005,1.369660974,-0.255095989,-0.550895989,-0.780183017,-0.817258,0.630455017,1.784482956,0.947646976,-0.49101001,-1.087618947,-1.062211037,0.382378995,-0.995540023,0.809575975,0.038672,-0.383415997,-2.589329958,1.956923962,0.865150988,-0.674398005,2.718394041,0.311908007,2.382087946,0.173635006,-1.402501941,-2.767344952,-0.074653,-0.692321002,0.757094026,-1.360795975,1.76056397,-0.346201986,-2.649358988,-0.536270976,0.099353999,-2.351314068,-2.835789919,-3.151629925,0.465932012,-0.154928997,1.647830009,0.602371991,0.96173197,0.139980003,-0.217397004,0.625810027,0.99703002,-0.241384998,-0.368705004,-1.092159987,-0.260354012,0.263334006,0.109081998,-1.229011059,-0.826240003,1.324108005,0.198744997,0.100109003,0.507660985,0.645009995,0.846059024,-0.051295999,-0.379913002,1.318874002,0.75683099,1.155032992,3.04852891,1.413952947,0.39891699,0.748973012,-1.442826986,-1.463600039,-1.479401946,1.563554049,-1.357450962,-0.535687029,-0.216378003,0.101878002,-1.479771972,-0.385993987,0.582907975,1.547235012,-1.895419002,0.911921024,0.632681012,-0.102504,0.642189026,-1.216004014,0.909717023,1.049401999,0.781167984,1.261383057,0.414884001,-0.703976989,-1.329059005,-2.171165943,-0.208315998,-0.398063004,-1.035830021,-0.953090012,-0.340994,0.558221996,1.227182984,0.583733022,0.432177007,0.652481019,-0.299892008,0.544955015,-1.375491977,-0.127636001,0.452288985,0.065981999,1.034291983,1.051874995,-0.33910799,-0.080668002,0.793428004,0.202929005,-1.853875041,-0.860906005,2.501358032,-0.923620999,-1.14913094,2.555392027,-2.602674961,0.606085002,0.712655008,-0.136969,-0.571680009,-0.223336995,-1.094135046,-0.100175999,-0.183213994,-0.728089988,-0.662198007,-0.182697996,0.136847004,-0.793026984,-1.785786986,0.764515996,-0.911916971,-0.376222014,2.951850891,0.665024996,-0.749561012,0.821551979,-3.038722038,0.517512977,0.029425999,1.974141955,2.122481108,-2.345839977,1.444808006,-0.228933007,-0.338750988,1.036587954,0.243509993,0.051562998,-0.338669002,-0.106858999,1.454620004,0.526737988,1.236451983,-1.406337023,-1.524271011,1.483994961,-0.838773012,1.633430958,-0.117409997,0.277981013,1.434527993,-0.529883981,0.44609499,-3.259342909,-1.834674001,0.609070003,-0.265904009,-1.908267021,-1.356984973,-0.646658003,-1.853011966,0.662946999,-1.919283986,-2.103859901,-2.356744051,-1.198662043,-0.181933001,-2.085766077,-0.289389998,-0.597536027,-0.691186011,0.452158988,1.145401001,-0.184112996,-0.151470006,-2.327222109,1.045732021,-0.209665,3.57374692,-0.644951999,-0.418873012,1.439878941,0.245766997,0.237629995,0.86816299,-0.826941013,-1.391296983,-1.382102013
