word,0,1,2,3,4,5,6,7,8,9,10,11,12,13,14,15,16,17,18,19,20,21,22,23,24,25,26,27,28,29,30,31,32,33,34,35,36,37,38,39,40,41,42,43,44,45,46,47,48,49,50,51,52,53,54,55,56,57,58,59,60,61,62,63,64,65,66,67,68,69,70,71,72,73,74,75,76,77,78,79,80,81,82,83,84,85,86,87,88,89,90,91,92,93,94,95,96,97,98,99,100,101,102,103,104,105,106,107,108,109,110,111,112,113,114,115,116,117,118,119,120,121,122,123,124,125,126,127,128,129,130,131,132,133,134,135,136,137,138,139,140,141,142,143,144,145,146,147,148,149,150,151,152,153,154,155,156,157,158,159,160,161,162,163,164,165,166,167,168,169,170,171,172,173,174,175,176,177,178,179,180,181,182,183,184,185,186,187,188,189,190,191,192,193,194,195,196,197,198,199,200,201,202,203,204,205,206,207,208,209,210,211,212,213,214,215,216,217,218,219,220,221,222,223,224,225,226,227,228,229,230,231,232,233,234,235,236,237,238,239,240,241,242,243,244,245,246,247,248,249,250,251,252,253,254,255,256,257,258,259,260,261,262,263,264,265,266,267,268,269,270,271,272,273,274,275,276,277,278,279,280,281,282,283,284,285,286,287,288,289,290,291,292,293,294,295,296,297,298,299,300,301,302,303,304,305,306,307,308,309,310,311,312,313,314,315,316,317,318,319,320,321,322,323,324,325,326,327,328,329,330,331,332,333,334,335,336,337,338,339,340,341,342,343,344,345,346,347,348,349,350,351,352,353,354,355,356,357,358,359,360,361,362,363,364,365,366,367,368,369,370,371,372,373,374,375,376,377,378,379,380,381,382,383,384,385,386,387,388,389,390,391,392,393,394,395,396,397,398,399,word,0,1,2,3,4,5,6,7,8,9,10,11,12,13,14,15,16,17,18,19,20,21,22,23,24,25,26,27,28,29,30,31,32,33,34,35,36,37,38,39,40,41,42,43,44,45,46,47,48,49,50,51,52,53,54,55,56,57,58,59,60,61,62,63,64,65,66,67,68,69,70,71,72,73,74,75,76,77,78,79,80,81,82,83,84,85,86,87,88,89,90,91,92,93,94,95,96,97,98,99,100,101,102,103,104,105,106,107,108,109,110,111,112,113,114,115,116,117,118,119,120,121,122,123,124,125,126,127,128,129,130,131,132,133,134,135,136,137,138,139,140,141,142,143,144,145,146,147,148,149,150,151,152,153,154,155,156,157,158,159,160,161,162,163,164,165,166,167,168,169,170,171,172,173,174,175,176,177,178,179,180,181,182,183,184,185,186,187,188,189,190,191,192,193,194,195,196,197,198,199,200,201,202,203,204,205,206,207,208,209,210,211,212,213,214,215,216,217,218,219,220,221,222,223,224,225,226,227,228,229,230,231,232,233,234,235,236,237,238,239,240,241,242,243,244,245,246,247,248,249,250,251,252,253,254,255,256,257,258,259,260,261,262,263,264,265,266,267,268,269,270,271,272,273,274,275,276,277,278,279,280,281,282,283,284,285,286,287,288,289,290,291,292,293,294,295,296,297,298,299,300,301,302,303,304,305,306,307,308,309,310,311,312,313,314,315,316,317,318,319,320,321,322,323,324,325,326,327,328,329,330,331,332,333,334,335,336,337,338,339,340,341,342,343,344,345,346,347,348,349,350,351,352,353,354,355,356,357,358,359,360,361,362,363,364,365,366,367,368,369,370,371,372,373,374,375,376,377,378,379,380,381,382,383,384,385,386,387,388,389,390,391,392,393,394,395,396,397,398,399
¿ª,0.307319999,0.719875991,-0.399313003,0.279029995,0.522652984,0.696868002,0.614095986,1.442891002,1.293272972,0.355581999,-0.666199982,-1.430335999,-0.207574993,1.693688035,0.054258998,-0.440910012,0.469067007,-1.268877983,-0.695429981,0.223634005,0.704585016,-0.638948023,0.320731014,0.003579,0.348632991,-0.107133999,-0.248772994,-0.115835004,-0.037971001,2.213025093,-1.40181303,1.161430955,2.003093004,1.744830966,-0.678534985,-2.211452007,0.017677,-0.872983992,1.941638947,2.350766897,-0.143320993,-0.904824018,-0.380991995,0.660281003,1.31387198,0.566780984,1.004026055,-0.380809993,-0.351751,1.363178015,-1.997429013,-1.840906978,-1.192667007,0.110873997,-1.295091987,0.537378013,0.428985,0.183704004,0.464774996,-0.031177999,0.416287005,0.156247005,1.201907992,-1.911604047,-1.629786015,0.306367993,2.216706991,-1.822679043,0.725408971,-0.398490012,-1.920845032,1.06150198,0.164691001,1.722707987,0.612694979,-0.722397983,0.073757,0.759663999,0.893356979,-0.320717007,0.993134022,-0.722564995,-0.564054012,-0.766116023,0.841625988,-1.562445045,0.802681029,0.478763014,1.074262023,1.511716008,0.493344009,-1.264672041,1.419013023,-0.121754996,2.12629199,0.602186978,0.081478,-0.125694007,0.741768003,-0.327372015,0.535045028,-2.013616085,0.444317013,0.386112988,-1.710803986,0.631110013,1.322522044,-1.396993995,-0.152804002,1.288939953,-0.164489999,-1.470811009,-1.220491052,-0.858081996,1.747989058,0.898284018,0.854898989,1.089858055,-0.87795198,0.466814995,-0.138661996,-0.910835028,0.413336992,-0.837679982,-0.459740013,0.339262992,-0.973398983,0.829558015,-1.447646022,-0.84078002,1.198176026,0.477019012,-0.516148984,0.902580023,0.57288897,0.220241994,-0.000353,0.318177998,1.948827982,0.235520005,-0.773554981,1.189226985,-0.031392001,-2.722767115,-0.608856022,1.220064044,-2.40269804,0.692490995,0.708420992,-1.334084988,1.958402991,-1.453798056,0.877539992,-0.43098101,-2.079803944,1.677371979,1.10847795,0.89092797,1.49359405,-1.98378396,0.634148002,1.728983045,-0.630622983,2.141956091,-0.121780999,1.608737946,0.099767998,1.303153038,-0.408659011,-0.56390202,-0.923768997,0.722518981,0.323015988,-0.909925997,0.84297502,0.006598,0.315766007,-1.596958041,-0.851258993,0.916821003,0.412173003,-0.454526991,0.265011013,0.682145,1.196539044,2.800050974,-0.159683004,0.631731987,-0.102372997,0.873762012,-0.449297011,-0.687721014,0.650852978,-0.032446999,0.843487978,-0.165168002,-1.936046004,-2.515273094,-1.906939983,-1.355025053,-0.611980975,1.435614944,-1.314900994,-0.574187994,0.310752988,-1.872683048,-0.483034998,-1.751417995,-0.076452002,1.868962049,1.469797015,-0.135351002,1.109073997,0.704153001,-0.94540602,0.006862,-0.560193002,0.597917974,-0.962764978,-0.551672995,0.102142997,-1.740527987,-0.247250006,0.249856994,-0.368301988,-0.136221007,-0.138938993,-0.208331004,-1.488469005,-1.908743024,1.086974978,-0.401138008,1.186465025,0.169373006,0.988358974,-0.574522972,-0.954510987,0.376356989,-2.124042988,-0.782671988,-1.518255949,0.143644005,-0.496829987,0.778248012,-0.909875989,0.774210989,0.117386997,1.380687952,0.360137999,0.741208971,0.393332005,0.022159001,0.015829001,-2.137396097,1.434975982,1.33020699,-0.499433994,2.543003082,-0.472501993,0.35679099,-0.755454004,0.370871991,-0.164799005,2.268464088,-1.738026977,-0.953649998,-0.259763986,-0.620853007,-1.14449501,0.640349984,-1.391680002,-0.363961995,-0.368741006,0.626803994,-0.126205996,-1.19136095,-0.450302005,0.177267998,1.412834048,0.803350985,0.91694802,0.672119975,1.443616033,2.591779947,1.426347971,2.400854111,-2.672374964,0.491447985,-0.273550004,0.743813992,-1.520571947,0.904111981,0.271871001,0.806756973,-1.709810972,0.311004996,0.726098001,0.815389991,-0.264734,-2.542593956,0.354799986,1.681272984,-1.559641957,0.460438013,0.056366,-0.637202024,-0.001572,-1.203770041,-0.482538998,0.045733001,-2.515568018,-0.107100002,0.380840003,0.470717996,-1.927680016,1.422899961,-0.819751978,-1.011886954,-0.007072,0.474366993,1.224925995,1.666394949,-0.782221019,0.719533026,-0.940910995,-1.484539032,-0.335680008,0.543676019,-0.490108013,1.199105978,0.042236,0.720840991,1.205822945,3.431441069,-0.498578012,0.250654012,1.73189795,-0.569216013,-0.575163007,0.925830007,-0.555095017,-1.092290044,-0.084343001,-1.527645946,0.621330976,-2.013031006,-0.799546003,-0.581364989,-1.468055964,-1.470132947,0.451644003,-0.686342001,-0.186440006,-0.597302973,-1.04529202,1.993002057,-0.170830995,0.471940011,2.399703026,-0.894429028,-0.599195004,1.102007031,0.330518007,-0.443399012,-0.308411002,0.44984901,1.153457046,-0.881766021,-0.600242019,-0.152533993,-0.087852001,-0.473755002,-0.079424001,1.16090703,1.09166503,0.346619993,-1.966882944,1.680520058,-0.704966009,-0.388110995,-0.065808997,-1.028753996,0.764840007,1.265234947,1.282243967,1.634896994,0.412804991,1.482018948,-0.795657992,-0.436334014,1.307737947,0.636259973,-1.056391954,2.356978893,1.524173021,-0.718779981,-2.418075085,0.638687015,1.906852007,-0.733016014,å¼€,0.307319999,0.719875991,-0.399313003,0.279029995,0.522652984,0.696868002,0.614095986,1.442891002,1.293272972,0.355581999,-0.666199982,-1.430335999,-0.207574993,1.693688035,0.054258998,-0.440910012,0.469067007,-1.268877983,-0.695429981,0.223634005,0.704585016,-0.638948023,0.320731014,0.003579,0.348632991,-0.107133999,-0.248772994,-0.115835004,-0.037971001,2.213025093,-1.40181303,1.161430955,2.003093004,1.744830966,-0.678534985,-2.211452007,0.017677,-0.872983992,1.941638947,2.350766897,-0.143320993,-0.904824018,-0.380991995,0.660281003,1.31387198,0.566780984,1.004026055,-0.380809993,-0.351751,1.363178015,-1.997429013,-1.840906978,-1.192667007,0.110873997,-1.295091987,0.537378013,0.428985,0.183704004,0.464774996,-0.031177999,0.416287005,0.156247005,1.201907992,-1.911604047,-1.629786015,0.306367993,2.216706991,-1.822679043,0.725408971,-0.398490012,-1.920845032,1.06150198,0.164691001,1.722707987,0.612694979,-0.722397983,0.073757,0.759663999,0.893356979,-0.320717007,0.993134022,-0.722564995,-0.564054012,-0.766116023,0.841625988,-1.562445045,0.802681029,0.478763014,1.074262023,1.511716008,0.493344009,-1.264672041,1.419013023,-0.121754996,2.12629199,0.602186978,0.081478,-0.125694007,0.741768003,-0.327372015,0.535045028,-2.013616085,0.444317013,0.386112988,-1.710803986,0.631110013,1.322522044,-1.396993995,-0.152804002,1.288939953,-0.164489999,-1.470811009,-1.220491052,-0.858081996,1.747989058,0.898284018,0.854898989,1.089858055,-0.87795198,0.466814995,-0.138661996,-0.910835028,0.413336992,-0.837679982,-0.459740013,0.339262992,-0.973398983,0.829558015,-1.447646022,-0.84078002,1.198176026,0.477019012,-0.516148984,0.902580023,0.57288897,0.220241994,-0.000353,0.318177998,1.948827982,0.235520005,-0.773554981,1.189226985,-0.031392001,-2.722767115,-0.608856022,1.220064044,-2.40269804,0.692490995,0.708420992,-1.334084988,1.958402991,-1.453798056,0.877539992,-0.43098101,-2.079803944,1.677371979,1.10847795,0.89092797,1.49359405,-1.98378396,0.634148002,1.728983045,-0.630622983,2.141956091,-0.121780999,1.608737946,0.099767998,1.303153038,-0.408659011,-0.56390202,-0.923768997,0.722518981,0.323015988,-0.909925997,0.84297502,0.006598,0.315766007,-1.596958041,-0.851258993,0.916821003,0.412173003,-0.454526991,0.265011013,0.682145,1.196539044,2.800050974,-0.159683004,0.631731987,-0.102372997,0.873762012,-0.449297011,-0.687721014,0.650852978,-0.032446999,0.843487978,-0.165168002,-1.936046004,-2.515273094,-1.906939983,-1.355025053,-0.611980975,1.435614944,-1.314900994,-0.574187994,0.310752988,-1.872683048,-0.483034998,-1.751417995,-0.076452002,1.868962049,1.469797015,-0.135351002,1.109073997,0.704153001,-0.94540602,0.006862,-0.560193002,0.597917974,-0.962764978,-0.551672995,0.102142997,-1.740527987,-0.247250006,0.249856994,-0.368301988,-0.136221007,-0.138938993,-0.208331004,-1.488469005,-1.908743024,1.086974978,-0.401138008,1.186465025,0.169373006,0.988358974,-0.574522972,-0.954510987,0.376356989,-2.124042988,-0.782671988,-1.518255949,0.143644005,-0.496829987,0.778248012,-0.909875989,0.774210989,0.117386997,1.380687952,0.360137999,0.741208971,0.393332005,0.022159001,0.015829001,-2.137396097,1.434975982,1.33020699,-0.499433994,2.543003082,-0.472501993,0.35679099,-0.755454004,0.370871991,-0.164799005,2.268464088,-1.738026977,-0.953649998,-0.259763986,-0.620853007,-1.14449501,0.640349984,-1.391680002,-0.363961995,-0.368741006,0.626803994,-0.126205996,-1.19136095,-0.450302005,0.177267998,1.412834048,0.803350985,0.91694802,0.672119975,1.443616033,2.591779947,1.426347971,2.400854111,-2.672374964,0.491447985,-0.273550004,0.743813992,-1.520571947,0.904111981,0.271871001,0.806756973,-1.709810972,0.311004996,0.726098001,0.815389991,-0.264734,-2.542593956,0.354799986,1.681272984,-1.559641957,0.460438013,0.056366,-0.637202024,-0.001572,-1.203770041,-0.482538998,0.045733001,-2.515568018,-0.107100002,0.380840003,0.470717996,-1.927680016,1.422899961,-0.819751978,-1.011886954,-0.007072,0.474366993,1.224925995,1.666394949,-0.782221019,0.719533026,-0.940910995,-1.484539032,-0.335680008,0.543676019,-0.490108013,1.199105978,0.042236,0.720840991,1.205822945,3.431441069,-0.498578012,0.250654012,1.73189795,-0.569216013,-0.575163007,0.925830007,-0.555095017,-1.092290044,-0.084343001,-1.527645946,0.621330976,-2.013031006,-0.799546003,-0.581364989,-1.468055964,-1.470132947,0.451644003,-0.686342001,-0.186440006,-0.597302973,-1.04529202,1.993002057,-0.170830995,0.471940011,2.399703026,-0.894429028,-0.599195004,1.102007031,0.330518007,-0.443399012,-0.308411002,0.44984901,1.153457046,-0.881766021,-0.600242019,-0.152533993,-0.087852001,-0.473755002,-0.079424001,1.16090703,1.09166503,0.346619993,-1.966882944,1.680520058,-0.704966009,-0.388110995,-0.065808997,-1.028753996,0.764840007,1.265234947,1.282243967,1.634896994,0.412804991,1.482018948,-0.795657992,-0.436334014,1.307737947,0.636259973,-1.056391954,2.356978893,1.524173021,-0.718779981,-2.418075085,0.638687015,1.906852007,-0.733016014
Î§ÈÆ,0.363471001,1.282701015,-0.981543005,-1.692051053,-0.771400988,-0.861943007,1.187811971,-1.558367968,1.051486969,-0.628585994,-1.643659949,0.311940998,-2.26858902,-0.216041997,-2.243930101,0.876819015,-0.256044,1.835319042,-0.824344993,0.238665,-0.901324987,-0.173414007,-0.481449008,1.626121044,1.192971945,-0.51631099,-1.367974997,-0.110218003,1.459465027,0.727835,-0.913679004,0.755387008,-0.973828971,-0.267921001,0.72575599,-1.318447948,-1.476222038,-1.226253986,0.378796011,1.564362049,-0.655143023,-0.174889997,-1.162399054,-0.447126001,-0.159097999,0.346630991,1.59908402,-0.045104999,-1.06694901,1.316009045,0.068843,-0.128435999,-0.941572011,-0.773706019,-0.185093999,-0.253803015,1.948963046,0.297192007,0.94935298,1.133092046,-0.522769988,-1.126142979,0.504392982,-0.190053001,0.037413999,-0.381433994,-1.50187099,0.161515996,-0.221643001,0.311040998,-1.584087014,0.646402001,0.574705005,-0.077554002,1.017184973,-0.368734002,0.202910006,-0.281397015,0.986042023,-0.544638991,2.37191391,-1.085755944,0.789732993,-0.017386001,0.034407001,1.900372028,1.75812602,-1.417219996,0.612848997,-0.381327003,0.602793992,-0.158464998,-0.969421029,0.353711009,-0.179488003,-0.723124027,1.320716977,-0.513287008,0.977512002,-1.320235968,-1.487560987,-0.306416988,1.279350996,0.756742001,-0.784509003,-0.439727992,-0.579668999,0.763791025,-0.573814988,0.418826014,-0.835570991,0.937354982,1.074223995,-0.677228987,0.80923301,-0.219006002,0.923723996,-1.831804991,-1.251263022,0.644266009,-0.368625998,-0.31091401,0.181740001,-0.705211997,-0.182411999,-0.232402995,-3.13678503,1.263990998,-0.819455981,-0.119815998,-0.434056014,0.88033402,-0.323038012,0.126000002,-1.303020954,0.826346993,-0.633053005,1.890115023,0.189113006,0.539987028,-0.069234997,0.500494003,-1.433691025,-0.703056991,-0.510113001,-0.791562021,0.048039999,0.206383005,-0.82010901,-1.422837973,-0.374026001,-0.981652975,-0.023217,0.930207014,0.661310971,1.120936036,-1.00474,-0.629281998,-0.842392027,0.055907,0.115134001,-0.004054,-0.085423999,-1.497830033,0.325886011,-0.584999025,-0.260224998,-0.309711009,0.570599973,0.959002018,0.935392022,-0.242724001,0.030174,0.510812998,0.706255972,-2.508790016,0.663416028,-0.349040002,0.33712101,0.449961007,0.740644991,0.105466001,1.134076953,-1.444496036,-1.13853395,1.374819994,1.090980053,0.194576994,0.430685014,1.225823998,1.077075958,-0.145190999,0.821057975,-0.351395011,-0.437691003,-1.430168033,0.984367013,0.688540995,0.694775999,1.533022046,0.863898993,0.255517006,-1.898964047,-0.901341021,-0.384339005,-0.95797801,-0.098802999,-1.152565956,1.017004967,1.851405025,-0.535817027,-1.739040017,3.096615076,1.034708023,1.887133956,-1.384564042,0.293009013,0.145767003,-1.251063943,-0.419301987,0.66237098,-0.270226002,0.191624001,1.073122978,-1.242508054,-0.267408997,0.564580023,-0.024506001,1.000787973,-0.989340007,-1.063158989,-1.142990947,1.147806048,-1.041980028,0.944624007,-0.262876004,-1.261831999,-0.403432995,-0.394910008,2.072734118,0.181765005,-0.289184988,1.211125016,0.632165015,2.447108984,-0.572822988,0.193676993,0.321175992,0.070220001,1.275071979,-0.195401996,1.228790045,0.618999004,0.439841002,0.394432992,0.168761,-0.021961,-0.897347987,-0.330668002,2.075990915,-0.387719989,-0.001903,0.864347994,0.478918999,-0.284570992,-1.817214966,1.320276022,-1.432613015,-0.074446999,0.016807999,0.881792009,-0.249132007,0.887962997,-1.187216997,-0.420666993,-1.077911019,-0.134450004,-0.071451999,1.235438943,-0.863905013,0.333530992,0.77826798,0.699449003,0.736176014,-1.378036976,-0.095486,-0.839037001,1.038382053,-0.364385009,1.140769959,-0.576752007,0.536355972,-0.081502996,-0.061951999,0.733810008,0.385847002,-0.686522007,-0.875379026,-1.46608305,-0.42465201,-0.101544,-1.296383977,0.904080987,0.237983003,-0.470100999,0.212757006,-0.728938997,-0.58583498,-0.911505997,0.367605001,-1.291975021,-0.091002002,0.114808999,-0.821788013,-0.848547995,0.535986006,-1.33734405,-0.857769012,-0.089831002,-1.43581903,1.098209023,-1.279152989,-1.163648009,1.442482948,-0.162394002,1.157713056,-1.372051954,-1.758520007,1.618963957,0.543591022,-0.75069499,0.153585002,1.552396059,0.896974027,1.566745996,0.995570004,0.103229001,-0.170072004,0.246943995,0.911385,0.634986997,0.222084001,-0.757579029,0.080251999,0.326898992,-0.589160025,-0.677501023,1.389760017,-0.98822099,1.128604054,-0.289983988,0.424024999,0.749900997,-0.263161004,0.820542991,-0.258390993,0.35503,0.447353989,-1.962661982,0.962801993,-0.029867999,-1.871811986,0.509714007,0.596486986,1.987455964,0.172062993,0.070078,0.314907014,-0.505060017,0.472254008,0.380082011,0.509140015,-2.450936079,1.520228028,-2.717339993,0.219840005,0.641288996,-0.534536004,0.538554013,-1.817716002,-1.290601015,0.381491989,-0.379373014,1.318974972,0.243048996,0.376794994,-0.394621015,-0.240416005,-0.610112011,0.303723991,0.461032987,0.919903994,0.945433974,0.417986006,-0.524398983,0.846684992,0.532640994,0.898599029,0.766067982,-1.006958008,å›´ç»•,0.363471001,1.282701015,-0.981543005,-1.692051053,-0.771400988,-0.861943007,1.187811971,-1.558367968,1.051486969,-0.628585994,-1.643659949,0.311940998,-2.26858902,-0.216041997,-2.243930101,0.876819015,-0.256044,1.835319042,-0.824344993,0.238665,-0.901324987,-0.173414007,-0.481449008,1.626121044,1.192971945,-0.51631099,-1.367974997,-0.110218003,1.459465027,0.727835,-0.913679004,0.755387008,-0.973828971,-0.267921001,0.72575599,-1.318447948,-1.476222038,-1.226253986,0.378796011,1.564362049,-0.655143023,-0.174889997,-1.162399054,-0.447126001,-0.159097999,0.346630991,1.59908402,-0.045104999,-1.06694901,1.316009045,0.068843,-0.128435999,-0.941572011,-0.773706019,-0.185093999,-0.253803015,1.948963046,0.297192007,0.94935298,1.133092046,-0.522769988,-1.126142979,0.504392982,-0.190053001,0.037413999,-0.381433994,-1.50187099,0.161515996,-0.221643001,0.311040998,-1.584087014,0.646402001,0.574705005,-0.077554002,1.017184973,-0.368734002,0.202910006,-0.281397015,0.986042023,-0.544638991,2.37191391,-1.085755944,0.789732993,-0.017386001,0.034407001,1.900372028,1.75812602,-1.417219996,0.612848997,-0.381327003,0.602793992,-0.158464998,-0.969421029,0.353711009,-0.179488003,-0.723124027,1.320716977,-0.513287008,0.977512002,-1.320235968,-1.487560987,-0.306416988,1.279350996,0.756742001,-0.784509003,-0.439727992,-0.579668999,0.763791025,-0.573814988,0.418826014,-0.835570991,0.937354982,1.074223995,-0.677228987,0.80923301,-0.219006002,0.923723996,-1.831804991,-1.251263022,0.644266009,-0.368625998,-0.31091401,0.181740001,-0.705211997,-0.182411999,-0.232402995,-3.13678503,1.263990998,-0.819455981,-0.119815998,-0.434056014,0.88033402,-0.323038012,0.126000002,-1.303020954,0.826346993,-0.633053005,1.890115023,0.189113006,0.539987028,-0.069234997,0.500494003,-1.433691025,-0.703056991,-0.510113001,-0.791562021,0.048039999,0.206383005,-0.82010901,-1.422837973,-0.374026001,-0.981652975,-0.023217,0.930207014,0.661310971,1.120936036,-1.00474,-0.629281998,-0.842392027,0.055907,0.115134001,-0.004054,-0.085423999,-1.497830033,0.325886011,-0.584999025,-0.260224998,-0.309711009,0.570599973,0.959002018,0.935392022,-0.242724001,0.030174,0.510812998,0.706255972,-2.508790016,0.663416028,-0.349040002,0.33712101,0.449961007,0.740644991,0.105466001,1.134076953,-1.444496036,-1.13853395,1.374819994,1.090980053,0.194576994,0.430685014,1.225823998,1.077075958,-0.145190999,0.821057975,-0.351395011,-0.437691003,-1.430168033,0.984367013,0.688540995,0.694775999,1.533022046,0.863898993,0.255517006,-1.898964047,-0.901341021,-0.384339005,-0.95797801,-0.098802999,-1.152565956,1.017004967,1.851405025,-0.535817027,-1.739040017,3.096615076,1.034708023,1.887133956,-1.384564042,0.293009013,0.145767003,-1.251063943,-0.419301987,0.66237098,-0.270226002,0.191624001,1.073122978,-1.242508054,-0.267408997,0.564580023,-0.024506001,1.000787973,-0.989340007,-1.063158989,-1.142990947,1.147806048,-1.041980028,0.944624007,-0.262876004,-1.261831999,-0.403432995,-0.394910008,2.072734118,0.181765005,-0.289184988,1.211125016,0.632165015,2.447108984,-0.572822988,0.193676993,0.321175992,0.070220001,1.275071979,-0.195401996,1.228790045,0.618999004,0.439841002,0.394432992,0.168761,-0.021961,-0.897347987,-0.330668002,2.075990915,-0.387719989,-0.001903,0.864347994,0.478918999,-0.284570992,-1.817214966,1.320276022,-1.432613015,-0.074446999,0.016807999,0.881792009,-0.249132007,0.887962997,-1.187216997,-0.420666993,-1.077911019,-0.134450004,-0.071451999,1.235438943,-0.863905013,0.333530992,0.77826798,0.699449003,0.736176014,-1.378036976,-0.095486,-0.839037001,1.038382053,-0.364385009,1.140769959,-0.576752007,0.536355972,-0.081502996,-0.061951999,0.733810008,0.385847002,-0.686522007,-0.875379026,-1.46608305,-0.42465201,-0.101544,-1.296383977,0.904080987,0.237983003,-0.470100999,0.212757006,-0.728938997,-0.58583498,-0.911505997,0.367605001,-1.291975021,-0.091002002,0.114808999,-0.821788013,-0.848547995,0.535986006,-1.33734405,-0.857769012,-0.089831002,-1.43581903,1.098209023,-1.279152989,-1.163648009,1.442482948,-0.162394002,1.157713056,-1.372051954,-1.758520007,1.618963957,0.543591022,-0.75069499,0.153585002,1.552396059,0.896974027,1.566745996,0.995570004,0.103229001,-0.170072004,0.246943995,0.911385,0.634986997,0.222084001,-0.757579029,0.080251999,0.326898992,-0.589160025,-0.677501023,1.389760017,-0.98822099,1.128604054,-0.289983988,0.424024999,0.749900997,-0.263161004,0.820542991,-0.258390993,0.35503,0.447353989,-1.962661982,0.962801993,-0.029867999,-1.871811986,0.509714007,0.596486986,1.987455964,0.172062993,0.070078,0.314907014,-0.505060017,0.472254008,0.380082011,0.509140015,-2.450936079,1.520228028,-2.717339993,0.219840005,0.641288996,-0.534536004,0.538554013,-1.817716002,-1.290601015,0.381491989,-0.379373014,1.318974972,0.243048996,0.376794994,-0.394621015,-0.240416005,-0.610112011,0.303723991,0.461032987,0.919903994,0.945433974,0.417986006,-0.524398983,0.846684992,0.532640994,0.898599029,0.766067982,-1.006958008
Çý¶¯Æ÷,-0.942120016,0.045439001,1.171805978,-0.019547001,0.908208013,0.931246996,0.454730004,-1.808756948,1.207345009,-1.057335973,-1.385465026,-0.623775005,-0.634132981,-0.101842999,-0.250974,-1.002809048,0.148335993,-0.357030988,0.095468998,-0.095711,-1.231577039,0.570333004,-0.514038026,0.933532,-0.304556012,0.318192005,0.255465001,0.304091007,-1.658205986,0.077179998,-0.592839003,-0.553211987,0.065798998,-0.667083025,-0.143941,1.181740046,0.190256,-0.550520003,0.360908002,-0.230247006,0.727205992,-0.214111,-0.630181015,-0.208107993,0.508413017,0.140053004,-0.854156017,-0.208511993,0.095366001,0.731209993,0.561191976,-0.330751985,-0.200378999,1.087949038,-1.388203979,-0.574299991,0.741662979,-0.63615799,-0.331117988,0.128395006,-0.800257027,-0.038573001,-0.455123007,-0.569402993,0.092166997,0.699670017,-0.943677008,-0.774948001,0.038685001,-0.253663003,-1.488245964,-0.457540005,1.527165055,1.458556056,-0.538420022,0.747177005,0.637359977,-1.404255986,0.290991008,1.200201988,0.036832999,-1.414469957,-0.257339001,0.312927991,0.620912015,-0.822723985,-1.008255005,0.420475006,0.846782982,-0.105029002,0.841969013,0.601001978,-0.46211499,0.040989,-0.063827001,-0.324389994,-0.957036018,1.328140974,-0.009843,-0.476815999,0.031427,0.163549006,0.012571,0.083568998,0.904883027,-1.075574994,0.537382007,-0.240201995,0.779147029,0.755537987,0.223979995,-1.213050008,-0.171023995,0.487177998,-1.091752052,1.320448995,0.839811981,-0.193666995,0.676573992,1.340569973,0.380243987,-1.513383031,0.808104992,-0.671064973,-0.090235002,0.642431974,-0.422841996,0.042011999,-1.080288053,1.195348024,-0.713729978,-1.130584002,-0.794957995,0.313618988,-0.66535598,-0.064103998,-0.292881995,-1.222378969,0.737165987,-0.602028012,0.154940993,0.526018023,0.342471004,-0.549687982,0.085902996,-1.087301016,-0.364021987,0.579455018,-0.333018988,-1.226212978,0.709272981,-0.306517988,-0.64557302,-0.827678025,0.421346009,-0.54439801,0.253114015,-0.505138993,-0.396593988,1.036561012,-0.400207996,-1.102566004,-0.101911999,-0.005743,0.275929987,-0.216619998,-0.158016995,-0.069583997,-0.734318018,-0.79045397,0.016167,-1.72864604,-0.72744,-0.187417999,1.016270041,0.96341002,0.933021009,0.192201003,0.38715899,0.756004989,-0.880263984,0.321215987,-1.021798968,-0.087010004,-1.194530964,0.342958003,0.374832988,-0.683025002,0.385057002,-0.743737996,0.117467001,0.240261003,-0.963995993,0.799166024,0.534727991,-0.308723986,0.253751993,-0.465633005,1.001541972,0.033897001,0.462760001,-0.309727997,-0.426470995,-0.258132011,-0.95283097,0.889186978,0.261994988,0.296339989,-0.364987999,0.620373011,0.051801998,-0.340523988,1.091722012,-1.241565943,1.18858099,0.096213996,-0.027929001,-0.365942001,0.176228002,-0.726279974,-1.159886003,-0.638203979,-0.492249995,-0.623740971,0.260149986,-1.305171013,1.190961003,0.459279001,-0.748416007,0.485760003,-0.284018993,0.170320004,0.684781015,-1.042067051,0.897336006,-0.148150995,0.424919993,-0.56517297,0.634190977,-0.981247008,-1.148867011,0.317348987,-0.494940013,0.426313013,-0.644019008,0.503374994,-0.603213012,0.294620007,0.984382987,0.817323983,0.040305998,0.359151006,0.460417986,-0.336777002,-0.635716021,-0.139269993,0.064080998,0.181278005,0.078087002,0.628754973,-0.962741017,1.121106029,0.047956999,-0.246772006,-0.493456006,-0.401616007,0.529502988,0.447843999,-0.759271026,-0.031387001,0.39647001,-2.054447889,-0.422684014,0.016995,-0.407460004,-0.657329977,-0.958811998,0.57632798,-0.990630984,0.354523003,-0.77076298,0.940678,0.704856992,-0.264562011,-0.092124999,0.617413998,0.070646003,-0.126009002,-0.513800979,-0.660651982,0.364612997,-0.103239,-0.928919017,-0.059911001,0.350921988,0.421618998,0.514802992,-0.723300993,0.260134995,0.411038011,0.480985999,0.084857002,-0.360110015,0.032547001,0.703643978,0.86026001,-0.139781997,-0.072019003,-0.114074998,0.088352002,-0.489358991,-0.418359011,-0.277759999,-0.911266983,0.760329008,0.28945601,-0.262041986,0.161725998,0.610332012,0.344406009,-0.710834026,0.186182007,-1.453006983,-0.006778,0.174913004,-0.546850026,0.672106028,0.111286998,-0.637290001,-0.769593,1.659361959,-0.872505009,-0.792854011,-0.33090201,0.466066986,-1.311632037,-0.58811599,1.088762045,0.794403017,-0.548819005,-0.519227028,0.593343019,0.171005994,0.319995999,-0.167846993,-0.559237003,-0.917096019,0.055601001,1.169968009,0.075773001,0.055679001,0.496001005,0.261260986,1.632714033,-0.655888975,-0.507606983,1.714822054,0.663796008,-0.723125994,0.481723994,-0.122001998,-0.137975007,-1.759940028,-0.188216999,-0.016306,0.423355013,0.092390999,-0.201277003,0.243625,0.114402004,0.132240996,1.123644948,1.330135942,0.940523028,0.691567004,-0.43086201,-1.157351017,-0.446438015,-0.541603029,0.556611001,1.229442954,-0.181360006,0.741814971,0.947718024,-1.619143963,-1.085484982,-0.373012006,0.045258,-1.037937999,0.749862015,-0.885326982,0.242796004,-0.326584011,-0.155736998,0.43919301,-0.577163994,-0.014296,-1.069185019,-0.451191008,0.215232,é©±åŠ¨å™?-0.942120015621,0.045439001,1.171805978,-0.019547001,0.908208013,0.931246996,0.454730004,-1.808756948,1.207345009,-1.057335973,-1.385465026,-0.623775005,-0.634132981,-0.101842999,-0.250974,-1.002809048,0.148335993,-0.357030988,0.095468998,-0.095711,-1.231577039,0.570333004,-0.514038026,0.933532,-0.304556012,0.318192005,0.255465001,0.304091007,-1.658205986,0.077179998,-0.592839003,-0.553211987,0.065798998,-0.667083025,-0.143941,1.181740046,0.190256,-0.550520003,0.360908002,-0.230247006,0.727205992,-0.214111,-0.630181015,-0.208107993,0.508413017,0.140053004,-0.854156017,-0.208511993,0.095366001,0.731209993,0.561191976,-0.330751985,-0.200378999,1.087949038,-1.388203979,-0.574299991,0.741662979,-0.63615799,-0.331117988,0.128395006,-0.800257027,-0.038573001,-0.455123007,-0.569402993,0.092166997,0.699670017,-0.943677008,-0.774948001,0.038685001,-0.253663003,-1.488245964,-0.457540005,1.527165055,1.458556056,-0.538420022,0.747177005,0.637359977,-1.404255986,0.290991008,1.200201988,0.036832999,-1.414469957,-0.257339001,0.312927991,0.620912015,-0.822723985,-1.008255005,0.420475006,0.846782982,-0.105029002,0.841969013,0.601001978,-0.46211499,0.040989,-0.063827001,-0.324389994,-0.957036018,1.328140974,-0.009843,-0.476815999,0.031427,0.163549006,0.012571,0.083568998,0.904883027,-1.075574994,0.537382007,-0.240201995,0.779147029,0.755537987,0.223979995,-1.213050008,-0.171023995,0.487177998,-1.091752052,1.320448995,0.839811981,-0.193666995,0.676573992,1.340569973,0.380243987,-1.513383031,0.808104992,-0.671064973,-0.090235002,0.642431974,-0.422841996,0.042011999,-1.080288053,1.195348024,-0.713729978,-1.130584002,-0.794957995,0.313618988,-0.66535598,-0.064103998,-0.292881995,-1.222378969,0.737165987,-0.602028012,0.154940993,0.526018023,0.342471004,-0.549687982,0.085902996,-1.087301016,-0.364021987,0.579455018,-0.333018988,-1.226212978,0.709272981,-0.306517988,-0.64557302,-0.827678025,0.421346009,-0.54439801,0.253114015,-0.505138993,-0.396593988,1.036561012,-0.400207996,-1.102566004,-0.101911999,-0.005743,0.275929987,-0.216619998,-0.158016995,-0.069583997,-0.734318018,-0.79045397,0.016167,-1.72864604,-0.72744,-0.187417999,1.016270041,0.96341002,0.933021009,0.192201003,0.38715899,0.756004989,-0.880263984,0.321215987,-1.021798968,-0.087010004,-1.194530964,0.342958003,0.374832988,-0.683025002,0.385057002,-0.743737996,0.117467001,0.240261003,-0.963995993,0.799166024,0.534727991,-0.308723986,0.253751993,-0.465633005,1.001541972,0.033897001,0.462760001,-0.309727997,-0.426470995,-0.258132011,-0.95283097,0.889186978,0.261994988,0.296339989,-0.364987999,0.620373011,0.051801998,-0.340523988,1.091722012,-1.241565943,1.18858099,0.096213996,-0.027929001,-0.365942001,0.176228002,-0.726279974,-1.159886003,-0.638203979,-0.492249995,-0.623740971,0.260149986,-1.305171013,1.190961003,0.459279001,-0.748416007,0.485760003,-0.284018993,0.170320004,0.684781015,-1.042067051,0.897336006,-0.148150995,0.424919993,-0.56517297,0.634190977,-0.981247008,-1.148867011,0.317348987,-0.494940013,0.426313013,-0.644019008,0.503374994,-0.603213012,0.294620007,0.984382987,0.817323983,0.040305998,0.359151006,0.460417986,-0.336777002,-0.635716021,-0.139269993,0.064080998,0.181278005,0.078087002,0.628754973,-0.962741017,1.121106029,0.047956999,-0.246772006,-0.493456006,-0.401616007,0.529502988,0.447843999,-0.759271026,-0.031387001,0.39647001,-2.054447889,-0.422684014,0.016995,-0.407460004,-0.657329977,-0.958811998,0.57632798,-0.990630984,0.354523003,-0.77076298,0.940678,0.704856992,-0.264562011,-0.092124999,0.617413998,0.070646003,-0.126009002,-0.513800979,-0.660651982,0.364612997,-0.103239,-0.928919017,-0.059911001,0.350921988,0.421618998,0.514802992,-0.723300993,0.260134995,0.411038011,0.480985999,0.084857002,-0.360110015,0.032547001,0.703643978,0.86026001,-0.139781997,-0.072019003,-0.114074998,0.088352002,-0.489358991,-0.418359011,-0.277759999,-0.911266983,0.760329008,0.28945601,-0.262041986,0.161725998,0.610332012,0.344406009,-0.710834026,0.186182007,-1.453006983,-0.006778,0.174913004,-0.546850026,0.672106028,0.111286998,-0.637290001,-0.769593,1.659361959,-0.872505009,-0.792854011,-0.33090201,0.466066986,-1.311632037,-0.58811599,1.088762045,0.794403017,-0.548819005,-0.519227028,0.593343019,0.171005994,0.319995999,-0.167846993,-0.559237003,-0.917096019,0.055601001,1.169968009,0.075773001,0.055679001,0.496001005,0.261260986,1.632714033,-0.655888975,-0.507606983,1.714822054,0.663796008,-0.723125994,0.481723994,-0.122001998,-0.137975007,-1.759940028,-0.188216999,-0.016306,0.423355013,0.092390999,-0.201277003,0.243625,0.114402004,0.132240996,1.123644948,1.330135942,0.940523028,0.691567004,-0.43086201,-1.157351017,-0.446438015,-0.541603029,0.556611001,1.229442954,-0.181360006,0.741814971,0.947718024,-1.619143963,-1.085484982,-0.373012006,0.045258,-1.037937999,0.749862015,-0.885326982,0.242796004,-0.326584011,-0.155736998,0.43919301,-0.577163994,-0.014296,-1.069185019,-0.451191008,0.215232,
ÒÆ¶¯,-1.33078301,1.894428968,0.245082006,-0.493956,0.461475998,0.372399986,1.020030975,0.473001987,0.876938999,0.735976994,-1.296810985,-1.13142705,-0.443542004,0.138217002,-1.962535977,-0.703445971,-0.910039008,-1.067273021,-0.397787005,-1.153892994,-0.535050988,1.286700964,0.069793999,-0.055163,2.405184984,0.817948997,1.209601998,-0.821191013,-1.876795053,-0.859212995,-1.351274014,0.181439996,-0.496565998,-0.283311009,1.005970001,0.169694006,0.116410002,-2.327933073,0.345016986,0.017201999,-0.829696,1.028610945,-1.019155979,1.311854005,1.632948041,-0.635909021,0.67069602,0.814746976,-0.914987028,0.019119,-1.193647981,-2.528369904,-0.865064025,1.092898011,0.337197006,1.139511943,1.242037058,-1.261140943,-1.217900991,-0.940241992,-0.951111019,1.250152946,-1.26869905,0.497720003,-2.113529921,0.091623001,-1.378708959,-1.399770975,0.276398003,-1.73724997,-1.491240025,0.221149996,1.784263968,1.372668028,0.357632995,1.751356959,2.635519028,0.674245,-1.534605026,1.149624944,0.823924005,-0.661481023,-0.022311,-0.923775017,0.547371984,-0.501698017,-0.810245991,1.678737998,2.533674002,-0.826811016,0.85095799,-0.202175006,-1.229030967,0.715950012,-0.850009978,-0.470753014,-1.622174025,1.735712051,0.915332973,0.999704003,3.071472883,0.915338993,2.033915997,1.436262012,0.090938002,-2.425837994,-0.680109024,0.139145002,0.078975998,-0.607573986,-0.37993601,-1.254796028,0.455565006,2.526961088,0.787328005,0.111285001,-0.437943995,1.388870955,-0.503319979,1.660419941,2.168004036,0.090057999,0.221359,0.237142995,-0.394391,0.696862996,-0.647993028,-1.524710059,-0.538312972,-0.650766015,1.099002004,-1.316403985,-1.29342103,0.012583,-1.061406016,3.469475985,-0.542882979,-1.93157196,-0.673851013,2.600343943,1.023494005,2.909420967,-1.210755944,0.173813999,0.751185,-0.223493993,-1.508260012,0.952401996,-0.880719006,-0.560324013,0.405209005,-1.562315941,0.289882004,1.090896964,2.214329004,1.415516019,-0.691003025,-1.119953036,-0.894465983,-0.88122201,0.071092002,-0.366214007,0.266413003,-0.960579991,0.694769979,0.945173979,0.030726001,-0.172608003,-1.290199041,-0.161129996,0.55913198,0.564136982,1.097265959,-0.261676013,0.238683,-0.815672994,1.157848001,1.00395298,-0.829662025,0.578971028,-0.676075995,1.776839972,0.680320978,0.616252005,-0.00103,1.686537981,-0.998894989,0.276268005,-0.139400005,-0.132809997,-0.346796006,0.138394997,1.431445003,-0.201172993,0.039652001,-0.779941976,1.966850042,-0.431892991,-0.807265997,0.647804022,0.662697017,-0.792259991,-0.536934018,-2.44371295,-2.023257971,0.823637009,-0.503522992,-0.600499988,-1.537155986,2.281831026,-1.321810007,-0.840844989,0.563511014,-0.568771005,0.184039995,-0.944167018,-1.278668046,-1.100803018,-0.659241021,-1.678248048,0.395200014,1.213626027,0.184826002,0.060157001,0.470685005,-0.773850977,1.517861962,0.405054986,0.879245996,-0.844438016,0.832261026,-0.548519015,-0.144655004,-1.245545983,1.056743979,0.360693008,-1.349516988,1.23368299,1.084445953,-0.859000981,-0.686001003,-0.55034101,1.734835029,-1.228899956,-0.786509991,1.029993057,-2.224545002,-0.651935995,-0.203344002,1.065024018,-0.915346026,1.179728985,1.719220996,1.340337992,1.474967957,1.441439986,0.200358003,0.351805001,0.652028024,1.215147972,-0.919111013,-0.659615994,-0.128410995,-0.444427013,-0.861622989,-0.69135499,0.173576996,0.337859988,-2.047697067,-0.006226,-0.54805398,-0.622624993,-1.171308994,0.852602005,0.202628002,-0.503968,0.936658978,0.097154997,0.440807998,0.178380996,1.795364022,0.858761013,1.226093054,1.091900945,-0.377970994,-0.938996971,0.086661004,-2.156799078,0.606626987,-0.110326998,-1.094799995,0.511988997,-0.857231975,-1.662726045,-0.139487997,0.693777978,0.046875998,0.660736978,0.206472993,-0.742727995,0.71854198,-0.097662002,-0.484535009,1.263018966,-0.584667981,-0.030253001,-0.418788999,0.072300002,0.054127,0.402617991,-1.231794,-2.011310101,2.548217058,-1.735949993,-1.250455022,0.716754019,1.046267033,-0.493730992,-0.128937006,-0.401865989,0.305326998,0.171256006,-2.261409998,-0.259941012,0.727006018,-0.210198,0.137355998,-1.946809053,-0.502735019,1.862053037,2.117811918,0.213722005,-1.025881052,0.964863002,0.715538979,-1.404257059,2.427998066,1.541959047,0.344834,-0.009589,-0.165693998,0.749481022,1.76454103,-1.582597017,-0.081387997,-0.313452989,-0.272273988,1.038730979,0.116981,0.593730986,0.146945,-1.024906993,1.471284986,1.293498039,-1.023401976,-0.262930006,1.923997045,0.964425981,-2.889229059,0.670726001,-1.42324698,-0.875554979,-0.710398018,1.152053952,-0.930167019,-1.941786051,-0.017508,0.512609005,0.88587898,1.362490058,-1.484423995,1.207082987,0.303245008,0.936685026,0.789188027,0.126169994,-0.378208011,-1.108253956,-1.873250008,-0.365372986,-1.323393941,0.712134004,2.372286081,0.359804988,0.508400023,-3.032480955,0.147933006,-0.149922997,-2.687772989,-0.792905986,2.023160934,1.55479002,-1.61717701,-0.723022997,2.898507118,1.426120996,-0.874354005,1.522990942,-0.792966008,0.973890007,ç§»åŠ¨,-1.33078301,1.894428968,0.245082006,-0.493956,0.461475998,0.372399986,1.020030975,0.473001987,0.876938999,0.735976994,-1.296810985,-1.13142705,-0.443542004,0.138217002,-1.962535977,-0.703445971,-0.910039008,-1.067273021,-0.397787005,-1.153892994,-0.535050988,1.286700964,0.069793999,-0.055163,2.405184984,0.817948997,1.209601998,-0.821191013,-1.876795053,-0.859212995,-1.351274014,0.181439996,-0.496565998,-0.283311009,1.005970001,0.169694006,0.116410002,-2.327933073,0.345016986,0.017201999,-0.829696,1.028610945,-1.019155979,1.311854005,1.632948041,-0.635909021,0.67069602,0.814746976,-0.914987028,0.019119,-1.193647981,-2.528369904,-0.865064025,1.092898011,0.337197006,1.139511943,1.242037058,-1.261140943,-1.217900991,-0.940241992,-0.951111019,1.250152946,-1.26869905,0.497720003,-2.113529921,0.091623001,-1.378708959,-1.399770975,0.276398003,-1.73724997,-1.491240025,0.221149996,1.784263968,1.372668028,0.357632995,1.751356959,2.635519028,0.674245,-1.534605026,1.149624944,0.823924005,-0.661481023,-0.022311,-0.923775017,0.547371984,-0.501698017,-0.810245991,1.678737998,2.533674002,-0.826811016,0.85095799,-0.202175006,-1.229030967,0.715950012,-0.850009978,-0.470753014,-1.622174025,1.735712051,0.915332973,0.999704003,3.071472883,0.915338993,2.033915997,1.436262012,0.090938002,-2.425837994,-0.680109024,0.139145002,0.078975998,-0.607573986,-0.37993601,-1.254796028,0.455565006,2.526961088,0.787328005,0.111285001,-0.437943995,1.388870955,-0.503319979,1.660419941,2.168004036,0.090057999,0.221359,0.237142995,-0.394391,0.696862996,-0.647993028,-1.524710059,-0.538312972,-0.650766015,1.099002004,-1.316403985,-1.29342103,0.012583,-1.061406016,3.469475985,-0.542882979,-1.93157196,-0.673851013,2.600343943,1.023494005,2.909420967,-1.210755944,0.173813999,0.751185,-0.223493993,-1.508260012,0.952401996,-0.880719006,-0.560324013,0.405209005,-1.562315941,0.289882004,1.090896964,2.214329004,1.415516019,-0.691003025,-1.119953036,-0.894465983,-0.88122201,0.071092002,-0.366214007,0.266413003,-0.960579991,0.694769979,0.945173979,0.030726001,-0.172608003,-1.290199041,-0.161129996,0.55913198,0.564136982,1.097265959,-0.261676013,0.238683,-0.815672994,1.157848001,1.00395298,-0.829662025,0.578971028,-0.676075995,1.776839972,0.680320978,0.616252005,-0.00103,1.686537981,-0.998894989,0.276268005,-0.139400005,-0.132809997,-0.346796006,0.138394997,1.431445003,-0.201172993,0.039652001,-0.779941976,1.966850042,-0.431892991,-0.807265997,0.647804022,0.662697017,-0.792259991,-0.536934018,-2.44371295,-2.023257971,0.823637009,-0.503522992,-0.600499988,-1.537155986,2.281831026,-1.321810007,-0.840844989,0.563511014,-0.568771005,0.184039995,-0.944167018,-1.278668046,-1.100803018,-0.659241021,-1.678248048,0.395200014,1.213626027,0.184826002,0.060157001,0.470685005,-0.773850977,1.517861962,0.405054986,0.879245996,-0.844438016,0.832261026,-0.548519015,-0.144655004,-1.245545983,1.056743979,0.360693008,-1.349516988,1.23368299,1.084445953,-0.859000981,-0.686001003,-0.55034101,1.734835029,-1.228899956,-0.786509991,1.029993057,-2.224545002,-0.651935995,-0.203344002,1.065024018,-0.915346026,1.179728985,1.719220996,1.340337992,1.474967957,1.441439986,0.200358003,0.351805001,0.652028024,1.215147972,-0.919111013,-0.659615994,-0.128410995,-0.444427013,-0.861622989,-0.69135499,0.173576996,0.337859988,-2.047697067,-0.006226,-0.54805398,-0.622624993,-1.171308994,0.852602005,0.202628002,-0.503968,0.936658978,0.097154997,0.440807998,0.178380996,1.795364022,0.858761013,1.226093054,1.091900945,-0.377970994,-0.938996971,0.086661004,-2.156799078,0.606626987,-0.110326998,-1.094799995,0.511988997,-0.857231975,-1.662726045,-0.139487997,0.693777978,0.046875998,0.660736978,0.206472993,-0.742727995,0.71854198,-0.097662002,-0.484535009,1.263018966,-0.584667981,-0.030253001,-0.418788999,0.072300002,0.054127,0.402617991,-1.231794,-2.011310101,2.548217058,-1.735949993,-1.250455022,0.716754019,1.046267033,-0.493730992,-0.128937006,-0.401865989,0.305326998,0.171256006,-2.261409998,-0.259941012,0.727006018,-0.210198,0.137355998,-1.946809053,-0.502735019,1.862053037,2.117811918,0.213722005,-1.025881052,0.964863002,0.715538979,-1.404257059,2.427998066,1.541959047,0.344834,-0.009589,-0.165693998,0.749481022,1.76454103,-1.582597017,-0.081387997,-0.313452989,-0.272273988,1.038730979,0.116981,0.593730986,0.146945,-1.024906993,1.471284986,1.293498039,-1.023401976,-0.262930006,1.923997045,0.964425981,-2.889229059,0.670726001,-1.42324698,-0.875554979,-0.710398018,1.152053952,-0.930167019,-1.941786051,-0.017508,0.512609005,0.88587898,1.362490058,-1.484423995,1.207082987,0.303245008,0.936685026,0.789188027,0.126169994,-0.378208011,-1.108253956,-1.873250008,-0.365372986,-1.323393941,0.712134004,2.372286081,0.359804988,0.508400023,-3.032480955,0.147933006,-0.149922997,-2.687772989,-0.792905986,2.023160934,1.55479002,-1.61717701,-0.723022997,2.898507118,1.426120996,-0.874354005,1.522990942,-0.792966008,0.973890007
°üÀ¨,-0.454580992,0.164757997,1.79915905,-1.049497008,0.733509004,-0.782821,1.555029035,0.66079402,1.619586945,-0.897616982,0.535622001,0.352791995,-1.745306015,-1.873993993,0.167853996,-1.00387001,0.305721015,-1.265084982,0.240015,-1.57822299,-0.263256013,-0.918152988,-0.410198003,1.221086979,2.200937986,1.28687501,0.667607009,-0.836081982,1.853716016,0.544808984,-1.481004,0.917953014,-1.146002054,-1.966565967,0.95331198,-0.300415009,1.230658054,-0.823512018,-1.736956954,1.100044012,0.61631,0.716252029,-1.233821034,-0.807951987,1.15346396,0.810011983,0.159330994,0.666951001,-0.564612985,-0.029146999,3.325936079,-2.361658096,0.861630976,1.028753996,0.046682999,-1.576614976,0.884683013,-0.82031697,-0.564092994,1.036813974,-0.371104985,-1.694511056,-0.961143017,-0.364295989,1.497936964,-1.04678905,0.293545008,0.994126022,0.571802974,0.723227024,-0.936886013,0.921674013,0.371354997,-0.401280999,-0.007712,0.689547002,1.580196977,-0.714837015,1.660864949,-2.98004508,0.240195006,-1.899806976,2.25126791,-0.238046005,0.502623022,0.565518022,-0.085307002,-2.218697071,0.220923007,-0.717351019,0.456472993,-1.070675015,-0.197669998,0.110694997,0.30487901,-1.583649993,2.154851913,-0.491432995,0.404356003,0.416426986,-0.315941006,0.782885015,-0.438149005,1.052029014,-2.297626972,-2.664695978,1.533488989,-0.544652998,0.020506,-0.831882,-0.916168988,1.424602985,-1.146868944,-0.269428998,1.371584058,2.412743092,0.906876981,0.312240988,0.175301,-0.637138009,-0.430447012,-1.086316943,0.951385975,-1.156628966,-1.156872988,0.231864005,-1.340625048,-0.304652989,0.488011003,-0.816477001,-0.051653001,-1.970157981,-1.44315505,0.044597998,0.862852991,0.067612998,0.319023013,-0.218733996,0.254290998,0.67049098,1.285752058,-0.080185004,0.164633006,-0.273562014,-1.259132981,-0.292937011,-0.157086998,0.922022998,1.584527016,-1.220322967,0.148820996,0.65347302,-2.039367914,0.060348,0.921579003,0.998567998,0.783999026,0.951968014,0.81081599,-0.172591999,0.497561008,-2.438478947,0.322001994,1.528437018,2.06227994,0.242552996,-1.359421015,0.529434979,-2.690181017,1.425498009,0.215532005,-1.187211037,-0.862232029,1.122714996,0.995172977,0.102456003,1.880784035,-0.255524009,0.278115004,-0.617504001,-0.024076,-0.295720994,-0.526772976,-1.733525038,-1.013574004,0.700094998,-1.373129964,1.128026009,-0.79529798,1.306462049,0.748883009,-1.386697054,2.255422115,0.225940004,1.165941,-0.158812001,1.017168999,-0.115846001,-0.998345971,1.976737976,-0.579613984,-1.392143011,-1.575178981,-3.1275599,-0.845227003,-1.397665977,0.214383006,0.459859014,-0.591390014,-0.704195023,-0.436646998,0.625757992,0.028308,-1.209537983,0.664031029,0.068915002,1.279811978,0.008376,-0.575942993,-0.602973998,0.226180002,0.933906019,-0.644033015,0.444972992,-0.768212974,1.465414047,0.508481026,-0.906832993,-0.159122005,-0.415253997,-0.60708499,-1.975949049,1.713901043,-1.276067019,1.739886999,0.33752501,1.003926992,0.876667976,-1.653082013,-0.211097002,-0.983739972,-0.036274001,0.022987001,-0.444236994,-0.241473004,-1.625087976,0.313439995,-0.423994988,-0.018979,-0.443663001,0.757034004,0.365139991,-0.073899999,-1.112069964,-1.161923051,-0.320629001,-1.259763002,0.537527978,-0.465131998,0.544440985,0.419093996,0.463856012,0.670464993,-0.460119009,-0.833801985,-0.382362992,2.185218096,0.26867801,-1.236508012,-1.114748001,0.732991993,0.592454016,-0.202702001,0.813533008,-0.106539004,0.177596003,-1.192383051,1.751960993,0.943477988,-0.535651982,0.558507979,1.940037966,0.851539016,-0.693044007,-0.577216983,0.392235011,1.056743026,-0.630775988,0.740194976,0.509913981,1.175801992,1.825505972,-1.174375057,-1.270081043,0.272271991,0.219248995,-1.138160944,0.168464005,-0.464574009,1.193886995,-1.398007989,-0.001002,-0.413082987,0.356914997,1.076154947,-0.964807987,-0.489504993,0.664205015,-0.546822011,2.379359961,-0.538571,-1.026590943,1.985669017,-0.775102019,0.022537,0.946175992,-1.218780041,1.573248982,0.018328,0.902724981,2.083081007,0.29114899,-0.424068004,2.195203066,-0.750169992,1.031718016,0.073886998,-0.894850016,-0.118777998,1.16980195,-0.124298997,1.618221045,-0.156580001,0.307168007,2.61532402,0.467014998,-0.682807028,-0.458820999,-0.330401987,-1.259367943,-1.04619801,-0.290796995,-0.279507011,-1.343325019,-0.627765,2.153783083,2.025829077,1.254307985,-1.396209002,1.124333024,-1.06657505,-0.652185977,0.230636999,-0.844760001,0.012296,-0.923538029,0.647957981,1.106197,-0.589318991,1.289752007,-1.055660963,-0.451656997,-0.372523993,-0.500169992,-0.701224029,0.200872004,-1.882761955,-0.038348999,0.818098009,0.569694996,-2.272437096,-1.016947031,-0.596351981,0.358374,-2.692905903,-1.627944946,-2.064002037,0.929220974,-0.877553999,-2.229393959,-0.593096018,-0.592799008,0.574436009,-1.577960014,3.571182013,0.422749996,-2.85570097,0.679933012,-1.674610019,-0.000549,0.787011981,2.600928068,0.774625003,0.437391013,0.762611985,0.243417993,0.965864003,-0.330404997,0.462238014,-0.502839983,åŒ…æ‹¬,-0.454580992,0.164757997,1.79915905,-1.049497008,0.733509004,-0.782821,1.555029035,0.66079402,1.619586945,-0.897616982,0.535622001,0.352791995,-1.745306015,-1.873993993,0.167853996,-1.00387001,0.305721015,-1.265084982,0.240015,-1.57822299,-0.263256013,-0.918152988,-0.410198003,1.221086979,2.200937986,1.28687501,0.667607009,-0.836081982,1.853716016,0.544808984,-1.481004,0.917953014,-1.146002054,-1.966565967,0.95331198,-0.300415009,1.230658054,-0.823512018,-1.736956954,1.100044012,0.61631,0.716252029,-1.233821034,-0.807951987,1.15346396,0.810011983,0.159330994,0.666951001,-0.564612985,-0.029146999,3.325936079,-2.361658096,0.861630976,1.028753996,0.046682999,-1.576614976,0.884683013,-0.82031697,-0.564092994,1.036813974,-0.371104985,-1.694511056,-0.961143017,-0.364295989,1.497936964,-1.04678905,0.293545008,0.994126022,0.571802974,0.723227024,-0.936886013,0.921674013,0.371354997,-0.401280999,-0.007712,0.689547002,1.580196977,-0.714837015,1.660864949,-2.98004508,0.240195006,-1.899806976,2.25126791,-0.238046005,0.502623022,0.565518022,-0.085307002,-2.218697071,0.220923007,-0.717351019,0.456472993,-1.070675015,-0.197669998,0.110694997,0.30487901,-1.583649993,2.154851913,-0.491432995,0.404356003,0.416426986,-0.315941006,0.782885015,-0.438149005,1.052029014,-2.297626972,-2.664695978,1.533488989,-0.544652998,0.020506,-0.831882,-0.916168988,1.424602985,-1.146868944,-0.269428998,1.371584058,2.412743092,0.906876981,0.312240988,0.175301,-0.637138009,-0.430447012,-1.086316943,0.951385975,-1.156628966,-1.156872988,0.231864005,-1.340625048,-0.304652989,0.488011003,-0.816477001,-0.051653001,-1.970157981,-1.44315505,0.044597998,0.862852991,0.067612998,0.319023013,-0.218733996,0.254290998,0.67049098,1.285752058,-0.080185004,0.164633006,-0.273562014,-1.259132981,-0.292937011,-0.157086998,0.922022998,1.584527016,-1.220322967,0.148820996,0.65347302,-2.039367914,0.060348,0.921579003,0.998567998,0.783999026,0.951968014,0.81081599,-0.172591999,0.497561008,-2.438478947,0.322001994,1.528437018,2.06227994,0.242552996,-1.359421015,0.529434979,-2.690181017,1.425498009,0.215532005,-1.187211037,-0.862232029,1.122714996,0.995172977,0.102456003,1.880784035,-0.255524009,0.278115004,-0.617504001,-0.024076,-0.295720994,-0.526772976,-1.733525038,-1.013574004,0.700094998,-1.373129964,1.128026009,-0.79529798,1.306462049,0.748883009,-1.386697054,2.255422115,0.225940004,1.165941,-0.158812001,1.017168999,-0.115846001,-0.998345971,1.976737976,-0.579613984,-1.392143011,-1.575178981,-3.1275599,-0.845227003,-1.397665977,0.214383006,0.459859014,-0.591390014,-0.704195023,-0.436646998,0.625757992,0.028308,-1.209537983,0.664031029,0.068915002,1.279811978,0.008376,-0.575942993,-0.602973998,0.226180002,0.933906019,-0.644033015,0.444972992,-0.768212974,1.465414047,0.508481026,-0.906832993,-0.159122005,-0.415253997,-0.60708499,-1.975949049,1.713901043,-1.276067019,1.739886999,0.33752501,1.003926992,0.876667976,-1.653082013,-0.211097002,-0.983739972,-0.036274001,0.022987001,-0.444236994,-0.241473004,-1.625087976,0.313439995,-0.423994988,-0.018979,-0.443663001,0.757034004,0.365139991,-0.073899999,-1.112069964,-1.161923051,-0.320629001,-1.259763002,0.537527978,-0.465131998,0.544440985,0.419093996,0.463856012,0.670464993,-0.460119009,-0.833801985,-0.382362992,2.185218096,0.26867801,-1.236508012,-1.114748001,0.732991993,0.592454016,-0.202702001,0.813533008,-0.106539004,0.177596003,-1.192383051,1.751960993,0.943477988,-0.535651982,0.558507979,1.940037966,0.851539016,-0.693044007,-0.577216983,0.392235011,1.056743026,-0.630775988,0.740194976,0.509913981,1.175801992,1.825505972,-1.174375057,-1.270081043,0.272271991,0.219248995,-1.138160944,0.168464005,-0.464574009,1.193886995,-1.398007989,-0.001002,-0.413082987,0.356914997,1.076154947,-0.964807987,-0.489504993,0.664205015,-0.546822011,2.379359961,-0.538571,-1.026590943,1.985669017,-0.775102019,0.022537,0.946175992,-1.218780041,1.573248982,0.018328,0.902724981,2.083081007,0.29114899,-0.424068004,2.195203066,-0.750169992,1.031718016,0.073886998,-0.894850016,-0.118777998,1.16980195,-0.124298997,1.618221045,-0.156580001,0.307168007,2.61532402,0.467014998,-0.682807028,-0.458820999,-0.330401987,-1.259367943,-1.04619801,-0.290796995,-0.279507011,-1.343325019,-0.627765,2.153783083,2.025829077,1.254307985,-1.396209002,1.124333024,-1.06657505,-0.652185977,0.230636999,-0.844760001,0.012296,-0.923538029,0.647957981,1.106197,-0.589318991,1.289752007,-1.055660963,-0.451656997,-0.372523993,-0.500169992,-0.701224029,0.200872004,-1.882761955,-0.038348999,0.818098009,0.569694996,-2.272437096,-1.016947031,-0.596351981,0.358374,-2.692905903,-1.627944946,-2.064002037,0.929220974,-0.877553999,-2.229393959,-0.593096018,-0.592799008,0.574436009,-1.577960014,3.571182013,0.422749996,-2.85570097,0.679933012,-1.674610019,-0.000549,0.787011981,2.600928068,0.774625003,0.437391013,0.762611985,0.243417993,0.965864003,-0.330404997,0.462238014,-0.502839983
¶þÕß,-0.544605017,-0.916217983,1.243237972,0.521709979,-1.077015042,-0.423830986,-0.010922,-0.341785014,0.533972979,-0.084593996,0.185035005,-0.070694998,-1.646242023,0.001684,-0.073393002,-0.303663999,-0.27531299,0.232914999,0.686841011,-2.127996922,-0.303003997,0.149384007,0.041832,-0.215003997,0.532738984,-1.256603956,-1.016628981,0.335889995,-0.601386011,0.468448997,-0.530539989,-1.089815974,0.514645994,-0.313587993,-0.175684005,-0.579729974,0.442009985,-0.978358984,0.769532979,0.550733984,1.149961948,-1.501297951,-0.922401011,-1.256785989,0.123397999,-1.075364947,1.439309001,-0.345481008,0.502391994,1.03609395,1.069532037,-0.868870974,-0.597962022,0.603649974,0.493178993,0.113600999,0.272430986,-0.558714986,-0.61541301,-1.060456991,-0.547419012,-0.433046997,-1.109598994,-0.927743018,-1.491165996,0.082332999,-0.980005026,1.57586503,0.441246003,-0.583037019,-0.355675012,0.429104,-0.491531014,1.307443023,-0.963940024,0.894288003,1.318274021,0.581043005,2.120095968,-1.069661021,-0.253865004,-0.822404981,1.034615994,0.762153983,0.688731015,0.178626001,-0.644756973,-0.045223001,0.572567999,0.422684997,0.073062003,0.285641015,-0.895290971,-0.297412992,-1.340316057,0.971211016,-0.2271,0.719008982,-1.812958002,-0.364962012,0.044481002,-0.114602998,-1.041445017,0.70578903,-0.336822987,-1.450477958,0.555783987,0.996025026,-1.530238986,0.213277996,0.331930012,-0.055962,0.203502998,0.714990973,-0.616545022,1.266917944,0.228559002,-1.026273012,-0.135091007,1.070037007,1.445132017,-1.378469944,-0.27490899,-1.256255031,0.168834999,0.083332002,-1.277531981,0.338546991,0.281305999,0.301360995,0.014174,1.334092975,0.149131998,0.919641972,-0.465707004,0.044234,-0.094763003,0.027329,0.401353002,-0.796660006,0.023297001,1.16150701,-0.835470021,1.12321806,0.747546017,-0.150962994,-0.023627,0.392315,0.171276003,-1.126332045,0.124482997,0.873763025,1.133131981,0.795724988,0.486932993,0.916299999,-0.071347997,-0.45390299,-1.449020982,0.830172002,1.53736496,0.011849,0.334832013,-0.785664976,-0.667982996,0.064650998,0.130903006,-0.273889005,-0.190162003,-0.248319998,-1.048058987,0.320360005,1.186426997,-0.288605988,0.828001022,0.031823002,0.966001987,1.471387029,-1.868628025,0.510217011,-0.566998005,0.312981993,0.373488992,0.858982027,0.765695989,0.975709975,0.485854,-0.150289997,-0.359950989,-0.332318008,0.063165002,0.380010009,1.760375023,1.039185047,-1.163509011,-1.383501053,0.143360004,-0.410582989,0.133408993,-0.390549988,-0.84333998,-0.384050995,0.363581002,0.653657973,-1.38814795,1.751759052,0.174963996,0.934765995,-0.010711,0.766535997,-0.327904999,-0.407407999,3.09285593,-0.327809006,1.174801946,-1.224753022,0.492509007,0.154122993,-0.670913994,-1.056471944,0.637973011,-0.753929019,0.396504998,0.97813201,-0.901284993,-0.562816978,0.319882989,0.033473,-0.748359978,0.544463992,-0.349429011,1.421633005,1.818331957,-0.59909302,1.229375958,-1.809599042,-0.143252,-0.076912001,-0.661534011,-0.797978997,0.462752998,0.619387984,-0.322129011,-0.089790002,0.204481006,-1.722481012,-0.111372001,-0.345227987,0.375656009,0.750110984,-0.140983999,-1.026433945,0.896879017,-1.123456001,-0.989085972,0.302834988,0.872222006,-0.594901979,0.946825981,0.397491992,-0.705177009,0.195271,-0.171838999,-0.194032997,-0.869515002,-0.402083009,-1.344856977,-0.319766015,1.628733993,-0.197718993,-1.297799945,1.142547011,-1.419378996,0.616519988,-0.588804007,0.679735005,-0.541428983,-0.738511026,0.526920974,-0.735759974,0.101898998,0.004808,0.898926973,-1.122156024,0.458613008,-0.95489502,-0.900403023,-0.875975013,0.755026996,1.073148966,1.895545006,-0.811815023,-0.799808979,-0.336562008,-0.131262004,0.659124017,0.771597028,0.507754982,-0.227539003,-0.388377011,0.005348,1.073250055,0.704934001,0.682812989,-0.929068983,-0.233353004,-0.184911996,0.061949998,-1.634749055,-0.133043006,0.129617006,0.995136976,0.856671989,-1.846192002,-0.677869022,1.455109,-0.284610987,1.405385017,1.495758057,0.205379993,-1.140946984,0.274796993,-0.772927999,-0.462267011,-1.338863015,0.110992,-0.314060986,0.742426991,-0.343641996,-1.366232038,-0.055213001,0.099913001,0.465887994,0.884670973,0.538212001,1.058114052,0.728424013,1.371430993,-0.827229023,0.517780006,0.317061007,0.264596999,-0.378879011,-0.825948,-0.601309001,-0.989675999,-0.462978989,1.695281029,0.65744698,0.136823997,-0.401423007,-1.088052988,1.070368052,0.197121993,-0.278257996,-0.189623997,-0.720016003,0.161064997,-0.411419004,0.873594999,1.198564053,0.523249984,-1.282567024,-0.845799983,-0.373201996,-0.666213989,-0.610616982,-0.117482997,0.233816996,-0.361506999,1.126536965,-0.815295994,1.00246501,-0.180353999,-0.290677994,-1.025642991,-1.080263972,0.671553016,0.115056999,-0.524682999,-0.095404997,1.541100025,0.858699024,0.242451996,-0.075223997,-1.527672052,1.051741958,-1.298156977,0.385060012,-0.635349989,2.079483986,-1.360674977,0.58336699,-0.914970994,0.974563003,-1.044119954,0.255562007,-0.78075999,1.229905009,-0.946179986,äºŒè€?-0.544605016708,-0.916217983,1.243237972,0.521709979,-1.077015042,-0.423830986,-0.010922,-0.341785014,0.533972979,-0.084593996,0.185035005,-0.070694998,-1.646242023,0.001684,-0.073393002,-0.303663999,-0.27531299,0.232914999,0.686841011,-2.127996922,-0.303003997,0.149384007,0.041832,-0.215003997,0.532738984,-1.256603956,-1.016628981,0.335889995,-0.601386011,0.468448997,-0.530539989,-1.089815974,0.514645994,-0.313587993,-0.175684005,-0.579729974,0.442009985,-0.978358984,0.769532979,0.550733984,1.149961948,-1.501297951,-0.922401011,-1.256785989,0.123397999,-1.075364947,1.439309001,-0.345481008,0.502391994,1.03609395,1.069532037,-0.868870974,-0.597962022,0.603649974,0.493178993,0.113600999,0.272430986,-0.558714986,-0.61541301,-1.060456991,-0.547419012,-0.433046997,-1.109598994,-0.927743018,-1.491165996,0.082332999,-0.980005026,1.57586503,0.441246003,-0.583037019,-0.355675012,0.429104,-0.491531014,1.307443023,-0.963940024,0.894288003,1.318274021,0.581043005,2.120095968,-1.069661021,-0.253865004,-0.822404981,1.034615994,0.762153983,0.688731015,0.178626001,-0.644756973,-0.045223001,0.572567999,0.422684997,0.073062003,0.285641015,-0.895290971,-0.297412992,-1.340316057,0.971211016,-0.2271,0.719008982,-1.812958002,-0.364962012,0.044481002,-0.114602998,-1.041445017,0.70578903,-0.336822987,-1.450477958,0.555783987,0.996025026,-1.530238986,0.213277996,0.331930012,-0.055962,0.203502998,0.714990973,-0.616545022,1.266917944,0.228559002,-1.026273012,-0.135091007,1.070037007,1.445132017,-1.378469944,-0.27490899,-1.256255031,0.168834999,0.083332002,-1.277531981,0.338546991,0.281305999,0.301360995,0.014174,1.334092975,0.149131998,0.919641972,-0.465707004,0.044234,-0.094763003,0.027329,0.401353002,-0.796660006,0.023297001,1.16150701,-0.835470021,1.12321806,0.747546017,-0.150962994,-0.023627,0.392315,0.171276003,-1.126332045,0.124482997,0.873763025,1.133131981,0.795724988,0.486932993,0.916299999,-0.071347997,-0.45390299,-1.449020982,0.830172002,1.53736496,0.011849,0.334832013,-0.785664976,-0.667982996,0.064650998,0.130903006,-0.273889005,-0.190162003,-0.248319998,-1.048058987,0.320360005,1.186426997,-0.288605988,0.828001022,0.031823002,0.966001987,1.471387029,-1.868628025,0.510217011,-0.566998005,0.312981993,0.373488992,0.858982027,0.765695989,0.975709975,0.485854,-0.150289997,-0.359950989,-0.332318008,0.063165002,0.380010009,1.760375023,1.039185047,-1.163509011,-1.383501053,0.143360004,-0.410582989,0.133408993,-0.390549988,-0.84333998,-0.384050995,0.363581002,0.653657973,-1.38814795,1.751759052,0.174963996,0.934765995,-0.010711,0.766535997,-0.327904999,-0.407407999,3.09285593,-0.327809006,1.174801946,-1.224753022,0.492509007,0.154122993,-0.670913994,-1.056471944,0.637973011,-0.753929019,0.396504998,0.97813201,-0.901284993,-0.562816978,0.319882989,0.033473,-0.748359978,0.544463992,-0.349429011,1.421633005,1.818331957,-0.59909302,1.229375958,-1.809599042,-0.143252,-0.076912001,-0.661534011,-0.797978997,0.462752998,0.619387984,-0.322129011,-0.089790002,0.204481006,-1.722481012,-0.111372001,-0.345227987,0.375656009,0.750110984,-0.140983999,-1.026433945,0.896879017,-1.123456001,-0.989085972,0.302834988,0.872222006,-0.594901979,0.946825981,0.397491992,-0.705177009,0.195271,-0.171838999,-0.194032997,-0.869515002,-0.402083009,-1.344856977,-0.319766015,1.628733993,-0.197718993,-1.297799945,1.142547011,-1.419378996,0.616519988,-0.588804007,0.679735005,-0.541428983,-0.738511026,0.526920974,-0.735759974,0.101898998,0.004808,0.898926973,-1.122156024,0.458613008,-0.95489502,-0.900403023,-0.875975013,0.755026996,1.073148966,1.895545006,-0.811815023,-0.799808979,-0.336562008,-0.131262004,0.659124017,0.771597028,0.507754982,-0.227539003,-0.388377011,0.005348,1.073250055,0.704934001,0.682812989,-0.929068983,-0.233353004,-0.184911996,0.061949998,-1.634749055,-0.133043006,0.129617006,0.995136976,0.856671989,-1.846192002,-0.677869022,1.455109,-0.284610987,1.405385017,1.495758057,0.205379993,-1.140946984,0.274796993,-0.772927999,-0.462267011,-1.338863015,0.110992,-0.314060986,0.742426991,-0.343641996,-1.366232038,-0.055213001,0.099913001,0.465887994,0.884670973,0.538212001,1.058114052,0.728424013,1.371430993,-0.827229023,0.517780006,0.317061007,0.264596999,-0.378879011,-0.825948,-0.601309001,-0.989675999,-0.462978989,1.695281029,0.65744698,0.136823997,-0.401423007,-1.088052988,1.070368052,0.197121993,-0.278257996,-0.189623997,-0.720016003,0.161064997,-0.411419004,0.873594999,1.198564053,0.523249984,-1.282567024,-0.845799983,-0.373201996,-0.666213989,-0.610616982,-0.117482997,0.233816996,-0.361506999,1.126536965,-0.815295994,1.00246501,-0.180353999,-0.290677994,-1.025642991,-1.080263972,0.671553016,0.115056999,-0.524682999,-0.095404997,1.541100025,0.858699024,0.242451996,-0.075223997,-1.527672052,1.051741958,-1.298156977,0.385060012,-0.635349989,2.079483986,-1.360674977,0.58336699,-0.914970994,0.974563003,-1.044119954,0.255562007,-0.78075999,1.229905009,-0.946179986,
¾ßÓÐ,-0.068181001,1.404706001,2.580152988,-0.417515993,1.009624004,-1.168177009,1.306087017,0.617208004,-0.418976009,0.680073977,0.032067001,-0.412878007,-0.458056003,-1.797669053,-0.482612014,-0.850849986,-2.08274889,-1.794381976,-0.077083997,-1.89013195,-0.183202997,1.710371017,-0.51523,1.497156024,1.355115056,1.700451016,0.843391001,0.205026001,-0.423913002,0.064859003,-1.093621016,0.033753999,-0.537654996,1.055663943,0.016620999,0.80635798,-0.569635987,-1.494699001,-1.226475954,1.73556304,0.055863999,0.265271008,0.105435997,-2.353790045,-0.376747996,-0.365561992,1.255486012,-2.271579981,1.02639401,0.006924,2.407118082,2.470787048,0.168236002,0.261465997,-0.577809989,-0.711461008,1.208655953,-1.497503996,-1.417256951,0.847477019,-0.984902024,-1.347740054,-0.193630993,-0.443363011,-2.121325016,-1.611611962,-0.036683999,0.077055998,-1.238834977,0.37094301,0.356952012,0.782513022,0.139865994,1.467123985,-0.82842201,-1.271275997,1.791893005,0.040472001,-0.571823001,-1.202847958,0.168824002,0.45747,1.387511969,0.67535001,0.668947995,-0.020854,-0.198296994,-1.332386017,-0.342359006,0.202732995,0.675924003,-0.059631001,0.79281801,0.174928993,-1.061696053,0.602424979,2.692667961,-0.856046021,-0.832304001,-0.920239985,0.240029007,0.790196002,0.500250995,1.209828019,-0.877777994,-1.549532056,0.789002001,-0.027062001,-0.210247993,-1.728011966,0.124601997,-0.01024,-1.987946033,0.560718,-0.582768977,0.270738006,1.570742965,-2.07348609,-0.341502994,-0.572614014,0.466809005,-2.113531113,0.257672012,-1.077363968,-1.490241051,0.523836017,-3.890933037,0.032237001,0.614049017,1.946238995,0.432294995,1.025249958,-1.230263948,0.811007977,0.511888027,-0.65307498,0.123153999,0.644003987,0.620209992,0.664552987,-0.869156003,-1.142055988,-0.596728981,-1.534482002,0.863996029,-2.005791903,0.358027995,1.056280971,-0.402871996,-1.205469966,2.730568886,0.258213013,-0.436003,1.542793036,1.132825017,0.675576985,0.615074992,0.133136004,-0.850395024,1.107131004,-0.080714002,-1.68908596,1.189169049,0.004583,1.180817008,-0.973964989,-0.456936985,-1.34860599,-0.751230001,-0.329811007,-0.933367014,-0.638098001,-0.068980001,0.017749,0.480975002,0.825405002,1.907968044,2.586818933,1.568701983,2.383481026,-2.550868034,-0.167386994,0.528226018,-0.517509997,-0.928963006,-0.050795,0.072679996,0.476684004,-1.011901975,0.669575989,2.042244911,-0.568099022,1.696285963,0.644079983,-1.327219009,-0.755998015,0.02392,1.02561295,-0.916594982,1.426280975,-0.114302002,-1.091856003,-0.076949999,0.156933993,-2.759567976,0.323094994,-1.165825009,0.308063,0.931065023,1.644845963,-1.018182993,-0.313383996,0.829441011,-1.021090031,1.409232974,0.010759,-0.743929982,1.581359029,-0.006871,0.496219993,0.294970989,-0.580114007,1.247308016,0.164823994,-2.832420111,-2.682483912,-0.340783,0.111527003,-1.226330042,-0.721207023,-1.720585942,-0.587580025,0.447302997,-3.028661013,2.188096046,-1.445680976,0.390179992,0.929045975,1.129760027,0.066229999,-0.653360009,-0.080104001,1.081411004,2.456562996,0.070404001,0.708298028,-2.026722908,-0.617736995,-0.941561997,-2.543023109,1.705993056,0.749988019,0.789391994,-2.201867104,-0.992626011,-0.356705993,-1.198871017,-0.155992001,0.778155982,0.136042997,1.023543,0.391003996,0.450367004,0.455379993,-0.006854,-1.351551056,-1.852311015,1.543627024,-1.023502946,-1.024407029,-1.304425001,0.203139007,-1.239084005,-0.316504002,-0.590174019,1.331238985,-1.304810047,-0.494785011,-2.10413003,0.325338989,-0.327114999,0.678718984,1.292690992,-0.81853199,-0.577229023,-0.975718975,-0.473823011,-1.841048956,-0.951117992,2.53559804,0.138503999,0.353875011,0.318973005,-0.825444996,1.611428976,-0.528271019,0.152013004,-0.402534008,0.107335001,-2.355401039,-1.740053058,1.458389997,0.552447975,-0.745907009,-0.173974007,-0.787413001,0.289137989,1.448809981,1.35511899,0.996173024,0.924515009,-1.225448966,2.004976034,-0.649912,-1.659610987,1.289147019,0.331835002,-0.151595995,-0.958675027,-0.141911998,-0.348701,-1.57021594,-0.838141978,0.846167982,-0.327657998,0.649896026,-2.568819046,-0.188077003,-1.769968033,-2.266896009,1.336449027,-1.195896983,-1.274850011,-1.551498055,1.997308016,-1.573014975,0.634287,-0.307164013,-0.543878973,0.467918009,0.025736,1.508481026,-0.249283999,-2.27223897,1.706568956,1.082195044,-0.675953984,2.139022112,-1.671717048,0.783581972,-0.240817994,-0.77363801,2.446320057,2.2970891,0.571361005,-0.126895994,0.937871993,-0.770433009,-1.281280041,1.867980957,1.482655048,0.645736992,-2.699743032,-0.188534006,2.707067013,-0.138572007,-2.079600096,-0.427298993,-0.662240028,-0.139651001,-0.285362989,-2.027159929,1.393635035,1.65049696,-0.065879002,-1.30796802,-1.708101034,-0.022564,0.366820008,0.160209998,-0.216188997,-0.970288992,-1.240331054,0.759651005,1.819049954,-1.639435053,-0.373369992,-1.525228024,-2.562990904,1.270701051,2.015815973,1.514170051,0.541059971,-0.962484002,0.908342004,-0.727864027,1.954905987,-0.627606988,-0.308317006,-0.275135994,å…·æœ‰,-0.068181001,1.404706001,2.580152988,-0.417515993,1.009624004,-1.168177009,1.306087017,0.617208004,-0.418976009,0.680073977,0.032067001,-0.412878007,-0.458056003,-1.797669053,-0.482612014,-0.850849986,-2.08274889,-1.794381976,-0.077083997,-1.89013195,-0.183202997,1.710371017,-0.51523,1.497156024,1.355115056,1.700451016,0.843391001,0.205026001,-0.423913002,0.064859003,-1.093621016,0.033753999,-0.537654996,1.055663943,0.016620999,0.80635798,-0.569635987,-1.494699001,-1.226475954,1.73556304,0.055863999,0.265271008,0.105435997,-2.353790045,-0.376747996,-0.365561992,1.255486012,-2.271579981,1.02639401,0.006924,2.407118082,2.470787048,0.168236002,0.261465997,-0.577809989,-0.711461008,1.208655953,-1.497503996,-1.417256951,0.847477019,-0.984902024,-1.347740054,-0.193630993,-0.443363011,-2.121325016,-1.611611962,-0.036683999,0.077055998,-1.238834977,0.37094301,0.356952012,0.782513022,0.139865994,1.467123985,-0.82842201,-1.271275997,1.791893005,0.040472001,-0.571823001,-1.202847958,0.168824002,0.45747,1.387511969,0.67535001,0.668947995,-0.020854,-0.198296994,-1.332386017,-0.342359006,0.202732995,0.675924003,-0.059631001,0.79281801,0.174928993,-1.061696053,0.602424979,2.692667961,-0.856046021,-0.832304001,-0.920239985,0.240029007,0.790196002,0.500250995,1.209828019,-0.877777994,-1.549532056,0.789002001,-0.027062001,-0.210247993,-1.728011966,0.124601997,-0.01024,-1.987946033,0.560718,-0.582768977,0.270738006,1.570742965,-2.07348609,-0.341502994,-0.572614014,0.466809005,-2.113531113,0.257672012,-1.077363968,-1.490241051,0.523836017,-3.890933037,0.032237001,0.614049017,1.946238995,0.432294995,1.025249958,-1.230263948,0.811007977,0.511888027,-0.65307498,0.123153999,0.644003987,0.620209992,0.664552987,-0.869156003,-1.142055988,-0.596728981,-1.534482002,0.863996029,-2.005791903,0.358027995,1.056280971,-0.402871996,-1.205469966,2.730568886,0.258213013,-0.436003,1.542793036,1.132825017,0.675576985,0.615074992,0.133136004,-0.850395024,1.107131004,-0.080714002,-1.68908596,1.189169049,0.004583,1.180817008,-0.973964989,-0.456936985,-1.34860599,-0.751230001,-0.329811007,-0.933367014,-0.638098001,-0.068980001,0.017749,0.480975002,0.825405002,1.907968044,2.586818933,1.568701983,2.383481026,-2.550868034,-0.167386994,0.528226018,-0.517509997,-0.928963006,-0.050795,0.072679996,0.476684004,-1.011901975,0.669575989,2.042244911,-0.568099022,1.696285963,0.644079983,-1.327219009,-0.755998015,0.02392,1.02561295,-0.916594982,1.426280975,-0.114302002,-1.091856003,-0.076949999,0.156933993,-2.759567976,0.323094994,-1.165825009,0.308063,0.931065023,1.644845963,-1.018182993,-0.313383996,0.829441011,-1.021090031,1.409232974,0.010759,-0.743929982,1.581359029,-0.006871,0.496219993,0.294970989,-0.580114007,1.247308016,0.164823994,-2.832420111,-2.682483912,-0.340783,0.111527003,-1.226330042,-0.721207023,-1.720585942,-0.587580025,0.447302997,-3.028661013,2.188096046,-1.445680976,0.390179992,0.929045975,1.129760027,0.066229999,-0.653360009,-0.080104001,1.081411004,2.456562996,0.070404001,0.708298028,-2.026722908,-0.617736995,-0.941561997,-2.543023109,1.705993056,0.749988019,0.789391994,-2.201867104,-0.992626011,-0.356705993,-1.198871017,-0.155992001,0.778155982,0.136042997,1.023543,0.391003996,0.450367004,0.455379993,-0.006854,-1.351551056,-1.852311015,1.543627024,-1.023502946,-1.024407029,-1.304425001,0.203139007,-1.239084005,-0.316504002,-0.590174019,1.331238985,-1.304810047,-0.494785011,-2.10413003,0.325338989,-0.327114999,0.678718984,1.292690992,-0.81853199,-0.577229023,-0.975718975,-0.473823011,-1.841048956,-0.951117992,2.53559804,0.138503999,0.353875011,0.318973005,-0.825444996,1.611428976,-0.528271019,0.152013004,-0.402534008,0.107335001,-2.355401039,-1.740053058,1.458389997,0.552447975,-0.745907009,-0.173974007,-0.787413001,0.289137989,1.448809981,1.35511899,0.996173024,0.924515009,-1.225448966,2.004976034,-0.649912,-1.659610987,1.289147019,0.331835002,-0.151595995,-0.958675027,-0.141911998,-0.348701,-1.57021594,-0.838141978,0.846167982,-0.327657998,0.649896026,-2.568819046,-0.188077003,-1.769968033,-2.266896009,1.336449027,-1.195896983,-1.274850011,-1.551498055,1.997308016,-1.573014975,0.634287,-0.307164013,-0.543878973,0.467918009,0.025736,1.508481026,-0.249283999,-2.27223897,1.706568956,1.082195044,-0.675953984,2.139022112,-1.671717048,0.783581972,-0.240817994,-0.77363801,2.446320057,2.2970891,0.571361005,-0.126895994,0.937871993,-0.770433009,-1.281280041,1.867980957,1.482655048,0.645736992,-2.699743032,-0.188534006,2.707067013,-0.138572007,-2.079600096,-0.427298993,-0.662240028,-0.139651001,-0.285362989,-2.027159929,1.393635035,1.65049696,-0.065879002,-1.30796802,-1.708101034,-0.022564,0.366820008,0.160209998,-0.216188997,-0.970288992,-1.240331054,0.759651005,1.819049954,-1.639435053,-0.373369992,-1.525228024,-2.562990904,1.270701051,2.015815973,1.514170051,0.541059971,-0.962484002,0.908342004,-0.727864027,1.954905987,-0.627606988,-0.308317006,-0.275135994
Ö§³Ð,-0.225407004,0.137142003,0.151062995,0.002805,0.231764004,0.081578001,0.287012994,-0.357571989,0.184520006,0.349321008,-0.29214099,-0.210445002,-0.152887002,0.302017003,-0.373284012,-0.282759011,-0.226631001,-0.144308999,-0.160797,-0.254803002,-0.394519001,0.063768998,-0.177007005,0.150904998,-0.068818003,0.120327003,-0.013536,0.304185003,-0.215122998,0.059797999,-0.128424004,-0.269093007,0.048303999,-0.071599998,0.134063005,0.117757998,-0.060920998,-0.236524999,0.202959001,0.40566501,0.431914002,-0.238003001,-0.256875008,-0.273128003,0.232374996,0.108537003,-0.070249997,0.161919996,0.071511,0.242110997,0.403245986,-0.244295001,-0.110468999,-0.010127,-0.316987008,0.289678007,-0.002932,-0.324010015,-0.083357997,0.284099996,-0.170247003,0.075239003,-0.222232997,-0.296382993,-0.385715991,0.149408996,-0.208373994,-0.074925996,0.139075994,-0.073156998,-0.336616009,0.040791001,0.101384997,0.084919997,0.006842,0.261418015,0.099059999,0.026563,-0.068364002,0.194446996,0.141555995,-0.078411996,0.343277991,0.028477,0.290455014,-0.439307988,0.061336,-0.060254999,-0.124173,0.025263,0.076130003,0.511382997,-0.007945,0.36392799,0.00535,0.192763001,-0.114269003,-0.001098,-0.198212996,-0.048269998,-0.057535999,-0.353074014,0.102268003,-0.099496,0.087021999,-0.104033999,0.30645901,-0.078371003,0.175665006,-0.034637,-0.246349007,-0.562884986,0.389259994,-0.408006996,0.002562,0.085366003,0.332688004,-0.194269001,-0.128177002,0.27333799,-0.097466998,0.133527994,-0.104094997,-0.208697006,-0.037783001,0.217669994,-0.312265009,-0.068452001,0.201341003,0.125630006,0.242905006,-0.215389997,-0.358981997,0.208250001,-0.111413002,0.10853,-0.250452995,0.003862,0.119744003,-0.210682005,0.129251003,0.055160001,0.007756,-0.019444,0.161726996,-0.095164001,-0.105375998,-0.221578002,-0.189169005,-0.020912999,0.236706004,-0.307383001,0.098811001,0.226301998,0.135119006,0.054329,0.260565996,-0.258899987,-0.221560001,0.281592011,-0.045669999,-0.114886001,-0.073822998,-0.362937003,-0.068562999,0.151668996,0.338391006,-0.242336005,-0.313437015,-0.104887001,-0.267343014,0.084522001,-0.135884002,0.251462996,0.335925996,0.053353,0.197301,0.008018,0.267053008,0.343567997,-0.104440004,0.117636003,-0.199759007,0.029170001,0.176441997,0.396587014,0.408654004,-0.069710001,0.096054003,-0.085069001,0.216508999,0.220612004,-0.078855,0.251962006,-0.172425002,-0.138987005,0.435954988,0.094483003,0.175962999,0.018266,0.027794,-0.027409,-0.051881,0.218030006,-0.508858979,0.234513,0.253737003,0.101815,-0.250970006,0.339379996,0.177102,-0.386182994,0.455473989,0.148837999,0.394553989,0.038961999,0.001967,0.014625,0.067859001,-0.515938997,0.204711005,-0.160012007,0.293531001,-0.066659003,-0.179077998,-0.358621001,0.127459005,-0.074184,-0.035092998,0.027294001,0.298489988,0.072800003,-0.217556998,-0.229124993,-0.111164004,-0.306450009,-0.428716004,-0.104675002,-0.120304003,0.098366,-0.205013007,0.284675002,0.074121997,-0.000356,0.047935002,-0.083880998,0.020121999,0.283311993,-0.208009005,0.107698999,-0.347930014,0.302859008,0.383760005,0.163939998,-0.29429999,0.358420998,0.182532996,0.044847,0.379723012,0.199630007,0.032914001,0.200214997,-0.029333999,0.046579,-0.074147001,-0.398021996,-0.212669998,-0.139503002,-0.119130999,-0.132817,-0.009205,-0.318636,-0.040238999,0.312642992,0.021902001,0.203810006,-0.359127015,-0.215525001,-0.034035999,-0.061641,-0.084936,0.197760001,0.328179002,0.277788013,-0.117178999,-0.360702991,0.146434993,0.029751999,-0.243992999,0.058208998,0.144226,-0.095247999,0.295668006,-0.322818995,0.023840999,-0.354111999,0.039712001,0.115461998,0.378019989,-0.104633003,0.302684993,-0.077675,-0.069163002,-0.258116007,0.251460999,0.291027993,-0.469002992,-0.003339,-0.277370989,0.250916004,-0.076978996,-0.124885999,0.074665003,0.003435,0.204190999,0.267219007,-0.268954992,-0.36322099,0.045699,0.023251001,0.113103002,-0.329607993,-0.140613005,0.009716,0.136317998,0.187434003,-0.261442989,-0.27611199,0.257241011,0.139993995,0.027079999,-0.110813998,-0.293480992,-0.107518002,0.093976997,-0.245634004,-0.250645995,-0.026413999,0.120283999,0.046969999,-0.028520999,-0.074098997,-0.124780998,-0.252887011,-0.139954001,-0.000347,-0.046422001,0.31863001,-0.057530999,-0.196154997,-0.420051008,0.070542,-0.143397003,0.00038,-0.093336001,-0.238745004,0.516063988,0.293219,0.029859999,0.56912899,-0.391499996,-0.067961,-0.045527,0.198678002,-0.123443,-0.405858994,0.126725003,-0.164360002,-0.108162999,-0.035861999,-0.526556015,-0.202365994,-0.171051994,0.101126999,-0.386947989,0.074821003,-0.447802007,-0.265004992,-0.242782995,0.255041987,-0.236615002,0.158988997,0.138037995,0.170561999,0.139117002,-0.309210002,0.123393998,-0.182438001,-0.239456996,0.077058002,-0.133672997,-0.201156005,-0.031984001,-0.324943006,0.171198994,0.051897001,-0.028821999,-0.150507003,0.069123998,0.157536998,æ”¯æ‰¿,-0.225407004,0.137142003,0.151062995,0.002805,0.231764004,0.081578001,0.287012994,-0.357571989,0.184520006,0.349321008,-0.29214099,-0.210445002,-0.152887002,0.302017003,-0.373284012,-0.282759011,-0.226631001,-0.144308999,-0.160797,-0.254803002,-0.394519001,0.063768998,-0.177007005,0.150904998,-0.068818003,0.120327003,-0.013536,0.304185003,-0.215122998,0.059797999,-0.128424004,-0.269093007,0.048303999,-0.071599998,0.134063005,0.117757998,-0.060920998,-0.236524999,0.202959001,0.40566501,0.431914002,-0.238003001,-0.256875008,-0.273128003,0.232374996,0.108537003,-0.070249997,0.161919996,0.071511,0.242110997,0.403245986,-0.244295001,-0.110468999,-0.010127,-0.316987008,0.289678007,-0.002932,-0.324010015,-0.083357997,0.284099996,-0.170247003,0.075239003,-0.222232997,-0.296382993,-0.385715991,0.149408996,-0.208373994,-0.074925996,0.139075994,-0.073156998,-0.336616009,0.040791001,0.101384997,0.084919997,0.006842,0.261418015,0.099059999,0.026563,-0.068364002,0.194446996,0.141555995,-0.078411996,0.343277991,0.028477,0.290455014,-0.439307988,0.061336,-0.060254999,-0.124173,0.025263,0.076130003,0.511382997,-0.007945,0.36392799,0.00535,0.192763001,-0.114269003,-0.001098,-0.198212996,-0.048269998,-0.057535999,-0.353074014,0.102268003,-0.099496,0.087021999,-0.104033999,0.30645901,-0.078371003,0.175665006,-0.034637,-0.246349007,-0.562884986,0.389259994,-0.408006996,0.002562,0.085366003,0.332688004,-0.194269001,-0.128177002,0.27333799,-0.097466998,0.133527994,-0.104094997,-0.208697006,-0.037783001,0.217669994,-0.312265009,-0.068452001,0.201341003,0.125630006,0.242905006,-0.215389997,-0.358981997,0.208250001,-0.111413002,0.10853,-0.250452995,0.003862,0.119744003,-0.210682005,0.129251003,0.055160001,0.007756,-0.019444,0.161726996,-0.095164001,-0.105375998,-0.221578002,-0.189169005,-0.020912999,0.236706004,-0.307383001,0.098811001,0.226301998,0.135119006,0.054329,0.260565996,-0.258899987,-0.221560001,0.281592011,-0.045669999,-0.114886001,-0.073822998,-0.362937003,-0.068562999,0.151668996,0.338391006,-0.242336005,-0.313437015,-0.104887001,-0.267343014,0.084522001,-0.135884002,0.251462996,0.335925996,0.053353,0.197301,0.008018,0.267053008,0.343567997,-0.104440004,0.117636003,-0.199759007,0.029170001,0.176441997,0.396587014,0.408654004,-0.069710001,0.096054003,-0.085069001,0.216508999,0.220612004,-0.078855,0.251962006,-0.172425002,-0.138987005,0.435954988,0.094483003,0.175962999,0.018266,0.027794,-0.027409,-0.051881,0.218030006,-0.508858979,0.234513,0.253737003,0.101815,-0.250970006,0.339379996,0.177102,-0.386182994,0.455473989,0.148837999,0.394553989,0.038961999,0.001967,0.014625,0.067859001,-0.515938997,0.204711005,-0.160012007,0.293531001,-0.066659003,-0.179077998,-0.358621001,0.127459005,-0.074184,-0.035092998,0.027294001,0.298489988,0.072800003,-0.217556998,-0.229124993,-0.111164004,-0.306450009,-0.428716004,-0.104675002,-0.120304003,0.098366,-0.205013007,0.284675002,0.074121997,-0.000356,0.047935002,-0.083880998,0.020121999,0.283311993,-0.208009005,0.107698999,-0.347930014,0.302859008,0.383760005,0.163939998,-0.29429999,0.358420998,0.182532996,0.044847,0.379723012,0.199630007,0.032914001,0.200214997,-0.029333999,0.046579,-0.074147001,-0.398021996,-0.212669998,-0.139503002,-0.119130999,-0.132817,-0.009205,-0.318636,-0.040238999,0.312642992,0.021902001,0.203810006,-0.359127015,-0.215525001,-0.034035999,-0.061641,-0.084936,0.197760001,0.328179002,0.277788013,-0.117178999,-0.360702991,0.146434993,0.029751999,-0.243992999,0.058208998,0.144226,-0.095247999,0.295668006,-0.322818995,0.023840999,-0.354111999,0.039712001,0.115461998,0.378019989,-0.104633003,0.302684993,-0.077675,-0.069163002,-0.258116007,0.251460999,0.291027993,-0.469002992,-0.003339,-0.277370989,0.250916004,-0.076978996,-0.124885999,0.074665003,0.003435,0.204190999,0.267219007,-0.268954992,-0.36322099,0.045699,0.023251001,0.113103002,-0.329607993,-0.140613005,0.009716,0.136317998,0.187434003,-0.261442989,-0.27611199,0.257241011,0.139993995,0.027079999,-0.110813998,-0.293480992,-0.107518002,0.093976997,-0.245634004,-0.250645995,-0.026413999,0.120283999,0.046969999,-0.028520999,-0.074098997,-0.124780998,-0.252887011,-0.139954001,-0.000347,-0.046422001,0.31863001,-0.057530999,-0.196154997,-0.420051008,0.070542,-0.143397003,0.00038,-0.093336001,-0.238745004,0.516063988,0.293219,0.029859999,0.56912899,-0.391499996,-0.067961,-0.045527,0.198678002,-0.123443,-0.405858994,0.126725003,-0.164360002,-0.108162999,-0.035861999,-0.526556015,-0.202365994,-0.171051994,0.101126999,-0.386947989,0.074821003,-0.447802007,-0.265004992,-0.242782995,0.255041987,-0.236615002,0.158988997,0.138037995,0.170561999,0.139117002,-0.309210002,0.123393998,-0.182438001,-0.239456996,0.077058002,-0.133672997,-0.201156005,-0.031984001,-0.324943006,0.171198994,0.051897001,-0.028821999,-0.150507003,0.069123998,0.157536998
×ùÒÎ,-0.908167005,1.747107029,2.142657042,-0.363364995,1.077067971,-1.093572021,2.381886005,-0.551753998,1.272950053,0.810877025,0.075484,0.832044005,-0.253468007,-0.206456006,-0.079435997,-0.926787019,1.061902046,0.920457006,0.855012,-2.200378895,-1.608414054,-0.019072,-0.868534029,-0.544640005,0.784662008,2.242249012,-1.13477397,2.375181913,0.338526011,0.775457978,-0.090960003,-0.267783999,0.322883993,-0.941776991,0.980454981,1.135717988,-0.64634198,-1.184609056,-0.848215997,0.00803,1.010339975,-1.518718958,-1.362763047,-0.220157996,-0.034122001,0.517578006,-0.228360996,-0.001686,0.48891601,-0.128434002,0.760740995,1.173619986,-0.636839986,-0.802451015,-2.62539506,0.329753995,0.486707002,-0.763176024,-1.003545046,0.92809999,-1.636443019,-0.44156,-1.12329495,-1.713526964,-0.625597,1.804044008,-0.021044999,-0.334517986,0.344972998,1.638564944,-0.895784974,1.586732984,0.499574989,1.083174944,0.501268983,0.580053985,-0.512732983,0.703099012,-0.041662,1.580000043,1.839457989,-2.312879086,0.859884024,1.583449006,1.360731006,-2.218972921,-1.954396963,-0.363745004,1.026514053,-0.004904,-0.547164023,0.714736998,0.269201994,2.450901985,-0.840869009,1.28095901,-0.960684001,0.258688986,-0.945958018,0.192407995,2.293040037,-0.65733403,0.462386996,1.188370943,-2.393181086,-1.689470053,1.995468974,-0.853178978,0.238269001,1.173374057,-0.171458006,-2.36660409,-0.495757014,0.370734006,0.661674976,0.148751006,0.184249997,-2.342897892,0.047816999,2.317538023,0.945396006,-1.491801977,-0.410133004,0.522741973,2.816067934,-0.313376009,-1.67770505,-0.463544995,0.712504029,-1.271304965,0.690469027,-1.419635057,-0.613844991,0.891251028,-2.120552063,-1.673077941,-0.234586999,0.135676995,-0.311863005,-0.194928005,0.946359992,-1.176270962,1.50235498,1.451555967,-0.105483003,-2.009634972,-0.939499021,-0.142409995,0.744844019,-0.389185995,0.665886998,-1.203364015,0.239133,-0.686711013,1.186370015,-0.895322978,0.54320699,-0.782905996,-0.658077002,-0.582610011,-0.80409497,-2.242882967,0.346471012,-1.338006973,0.580314994,0.001502,-0.086889997,-0.378434986,-1.991932034,0.276663989,-1.353885055,-1.389675975,0.321354985,-0.957184017,2.787703991,3.117141008,1.08612299,1.290434003,1.275887012,-0.104024999,0.108897999,-0.006808,-1.286726952,-0.229184002,-1.592684984,0.73110801,-0.70401001,1.166574001,0.823522985,0.370799005,2.109719992,-0.48921001,-1.013939023,-0.354889989,-0.901825011,0.277408987,1.672940016,-0.131631002,-0.051181,-1.264199972,-1.223093033,-1.804937959,2.187669039,-1.404633999,0.960412979,0.503247976,-0.662531018,0.327042997,-0.324937999,0.252709001,1.21964395,0.396299988,-0.003991,-0.787149012,0.921661973,1.629405022,-0.017238,-0.197123006,1.833546996,-1.677567959,1.370533943,-0.073815003,0.825118005,0.236801997,0.881781995,0.79825598,1.085486054,-0.593267977,0.289034992,-0.278447002,-1.542466044,0.098638996,0.690715015,-0.840619981,0.696645021,-0.490316004,-1.004300952,-0.100787997,0.455770999,-0.835870028,0.067065001,-0.103973001,0.259719014,1.466022015,0.035408001,0.124958999,0.399044007,-0.820636988,0.871978998,0.43304199,-1.576511979,0.675015986,1.859346986,0.374635011,0.932758987,-0.434156001,-0.041182,0.811743975,2.438812971,0.264541,0.601298988,-0.468198001,-0.725816011,0.039737999,-0.188499004,-3.186990976,-0.225905001,-0.533577979,-2.085863113,-0.650774002,0.079222001,-2.35383606,-0.130611002,-0.385964006,0.294909,0.869584024,0.271580011,0.241868004,1.016827941,0.445603997,0.515654027,1.61621201,0.27047199,-1.393103004,-0.470331997,-0.862002015,0.736517012,0.231202006,0.847525001,0.491793007,-0.100635,1.980337977,-0.226594999,-0.423025995,0.344457,-0.680517972,0.144682005,0.297392011,0.88835001,1.605767965,0.465815008,-0.807485998,0.557340026,-1.483186007,1.596202016,1.782534957,-1.120736957,-1.670086026,-0.259514004,1.033457994,-2.202431917,-0.798631012,-0.043618999,-0.480078995,-0.80052799,1.584002018,0.722979009,0.110012002,0.166328996,0.906940997,0.36046201,0.881371975,0.526584029,-0.67624402,0.485190988,-0.353300005,0.474312007,-0.135279998,0.202978,-0.164070994,1.888995051,0.373528004,-1.126863003,0.649084985,-0.049419001,1.025164962,-0.292508006,1.784793019,1.532904029,0.377425998,-1.949205041,-0.262843996,0.340124011,0.308228999,0.049231,-0.08241,-0.690652013,0.614359975,0.741369009,-0.288489014,0.117838003,1.148323059,-0.534869015,0.247745007,1.496124029,0.680581987,-0.471870989,0.478024989,0.54549098,2.221509933,-0.495029002,-0.721180975,-0.305029988,0.063328996,-0.523223996,-0.79102999,1.38744998,-2.146397114,-0.752007008,-0.110895999,-0.300500005,0.450473011,1.574797988,-0.431971014,-1.49414897,-0.695873022,-1.040825009,0.540154994,-1.57091403,2.222363949,-0.812745988,-0.952105999,3.115076065,1.185765982,1.26236105,-0.198004007,-0.386388987,-1.743654013,-0.022802999,1.532117009,-0.661944985,1.058935046,0.700616002,-1.16167295,1.306409001,-0.328316003,-1.836547017,2.336381912,2.096832991,0.748265028,åº§æ¤…,-0.908167005,1.747107029,2.142657042,-0.363364995,1.077067971,-1.093572021,2.381886005,-0.551753998,1.272950053,0.810877025,0.075484,0.832044005,-0.253468007,-0.206456006,-0.079435997,-0.926787019,1.061902046,0.920457006,0.855012,-2.200378895,-1.608414054,-0.019072,-0.868534029,-0.544640005,0.784662008,2.242249012,-1.13477397,2.375181913,0.338526011,0.775457978,-0.090960003,-0.267783999,0.322883993,-0.941776991,0.980454981,1.135717988,-0.64634198,-1.184609056,-0.848215997,0.00803,1.010339975,-1.518718958,-1.362763047,-0.220157996,-0.034122001,0.517578006,-0.228360996,-0.001686,0.48891601,-0.128434002,0.760740995,1.173619986,-0.636839986,-0.802451015,-2.62539506,0.329753995,0.486707002,-0.763176024,-1.003545046,0.92809999,-1.636443019,-0.44156,-1.12329495,-1.713526964,-0.625597,1.804044008,-0.021044999,-0.334517986,0.344972998,1.638564944,-0.895784974,1.586732984,0.499574989,1.083174944,0.501268983,0.580053985,-0.512732983,0.703099012,-0.041662,1.580000043,1.839457989,-2.312879086,0.859884024,1.583449006,1.360731006,-2.218972921,-1.954396963,-0.363745004,1.026514053,-0.004904,-0.547164023,0.714736998,0.269201994,2.450901985,-0.840869009,1.28095901,-0.960684001,0.258688986,-0.945958018,0.192407995,2.293040037,-0.65733403,0.462386996,1.188370943,-2.393181086,-1.689470053,1.995468974,-0.853178978,0.238269001,1.173374057,-0.171458006,-2.36660409,-0.495757014,0.370734006,0.661674976,0.148751006,0.184249997,-2.342897892,0.047816999,2.317538023,0.945396006,-1.491801977,-0.410133004,0.522741973,2.816067934,-0.313376009,-1.67770505,-0.463544995,0.712504029,-1.271304965,0.690469027,-1.419635057,-0.613844991,0.891251028,-2.120552063,-1.673077941,-0.234586999,0.135676995,-0.311863005,-0.194928005,0.946359992,-1.176270962,1.50235498,1.451555967,-0.105483003,-2.009634972,-0.939499021,-0.142409995,0.744844019,-0.389185995,0.665886998,-1.203364015,0.239133,-0.686711013,1.186370015,-0.895322978,0.54320699,-0.782905996,-0.658077002,-0.582610011,-0.80409497,-2.242882967,0.346471012,-1.338006973,0.580314994,0.001502,-0.086889997,-0.378434986,-1.991932034,0.276663989,-1.353885055,-1.389675975,0.321354985,-0.957184017,2.787703991,3.117141008,1.08612299,1.290434003,1.275887012,-0.104024999,0.108897999,-0.006808,-1.286726952,-0.229184002,-1.592684984,0.73110801,-0.70401001,1.166574001,0.823522985,0.370799005,2.109719992,-0.48921001,-1.013939023,-0.354889989,-0.901825011,0.277408987,1.672940016,-0.131631002,-0.051181,-1.264199972,-1.223093033,-1.804937959,2.187669039,-1.404633999,0.960412979,0.503247976,-0.662531018,0.327042997,-0.324937999,0.252709001,1.21964395,0.396299988,-0.003991,-0.787149012,0.921661973,1.629405022,-0.017238,-0.197123006,1.833546996,-1.677567959,1.370533943,-0.073815003,0.825118005,0.236801997,0.881781995,0.79825598,1.085486054,-0.593267977,0.289034992,-0.278447002,-1.542466044,0.098638996,0.690715015,-0.840619981,0.696645021,-0.490316004,-1.004300952,-0.100787997,0.455770999,-0.835870028,0.067065001,-0.103973001,0.259719014,1.466022015,0.035408001,0.124958999,0.399044007,-0.820636988,0.871978998,0.43304199,-1.576511979,0.675015986,1.859346986,0.374635011,0.932758987,-0.434156001,-0.041182,0.811743975,2.438812971,0.264541,0.601298988,-0.468198001,-0.725816011,0.039737999,-0.188499004,-3.186990976,-0.225905001,-0.533577979,-2.085863113,-0.650774002,0.079222001,-2.35383606,-0.130611002,-0.385964006,0.294909,0.869584024,0.271580011,0.241868004,1.016827941,0.445603997,0.515654027,1.61621201,0.27047199,-1.393103004,-0.470331997,-0.862002015,0.736517012,0.231202006,0.847525001,0.491793007,-0.100635,1.980337977,-0.226594999,-0.423025995,0.344457,-0.680517972,0.144682005,0.297392011,0.88835001,1.605767965,0.465815008,-0.807485998,0.557340026,-1.483186007,1.596202016,1.782534957,-1.120736957,-1.670086026,-0.259514004,1.033457994,-2.202431917,-0.798631012,-0.043618999,-0.480078995,-0.80052799,1.584002018,0.722979009,0.110012002,0.166328996,0.906940997,0.36046201,0.881371975,0.526584029,-0.67624402,0.485190988,-0.353300005,0.474312007,-0.135279998,0.202978,-0.164070994,1.888995051,0.373528004,-1.126863003,0.649084985,-0.049419001,1.025164962,-0.292508006,1.784793019,1.532904029,0.377425998,-1.949205041,-0.262843996,0.340124011,0.308228999,0.049231,-0.08241,-0.690652013,0.614359975,0.741369009,-0.288489014,0.117838003,1.148323059,-0.534869015,0.247745007,1.496124029,0.680581987,-0.471870989,0.478024989,0.54549098,2.221509933,-0.495029002,-0.721180975,-0.305029988,0.063328996,-0.523223996,-0.79102999,1.38744998,-2.146397114,-0.752007008,-0.110895999,-0.300500005,0.450473011,1.574797988,-0.431971014,-1.49414897,-0.695873022,-1.040825009,0.540154994,-1.57091403,2.222363949,-0.812745988,-0.952105999,3.115076065,1.185765982,1.26236105,-0.198004007,-0.386388987,-1.743654013,-0.022802999,1.532117009,-0.661944985,1.058935046,0.700616002,-1.16167295,1.306409001,-0.328316003,-1.836547017,2.336381912,2.096832991,0.748265028
