word,0,1,2,3,4,5,6,7,8,9,10,11,12,13,14,15,16,17,18,19,20,21,22,23,24,25,26,27,28,29,30,31,32,33,34,35,36,37,38,39,40,41,42,43,44,45,46,47,48,49,50,51,52,53,54,55,56,57,58,59,60,61,62,63,64,65,66,67,68,69,70,71,72,73,74,75,76,77,78,79,80,81,82,83,84,85,86,87,88,89,90,91,92,93,94,95,96,97,98,99,100,101,102,103,104,105,106,107,108,109,110,111,112,113,114,115,116,117,118,119,120,121,122,123,124,125,126,127,128,129,130,131,132,133,134,135,136,137,138,139,140,141,142,143,144,145,146,147,148,149,150,151,152,153,154,155,156,157,158,159,160,161,162,163,164,165,166,167,168,169,170,171,172,173,174,175,176,177,178,179,180,181,182,183,184,185,186,187,188,189,190,191,192,193,194,195,196,197,198,199,200,201,202,203,204,205,206,207,208,209,210,211,212,213,214,215,216,217,218,219,220,221,222,223,224,225,226,227,228,229,230,231,232,233,234,235,236,237,238,239,240,241,242,243,244,245,246,247,248,249,250,251,252,253,254,255,256,257,258,259,260,261,262,263,264,265,266,267,268,269,270,271,272,273,274,275,276,277,278,279,280,281,282,283,284,285,286,287,288,289,290,291,292,293,294,295,296,297,298,299,300,301,302,303,304,305,306,307,308,309,310,311,312,313,314,315,316,317,318,319,320,321,322,323,324,325,326,327,328,329,330,331,332,333,334,335,336,337,338,339,340,341,342,343,344,345,346,347,348,349,350,351,352,353,354,355,356,357,358,359,360,361,362,363,364,365,366,367,368,369,370,371,372,373,374,375,376,377,378,379,380,381,382,383,384,385,386,387,388,389,390,391,392,393,394,395,396,397,398,399,word,0,1,2,3,4,5,6,7,8,9,10,11,12,13,14,15,16,17,18,19,20,21,22,23,24,25,26,27,28,29,30,31,32,33,34,35,36,37,38,39,40,41,42,43,44,45,46,47,48,49,50,51,52,53,54,55,56,57,58,59,60,61,62,63,64,65,66,67,68,69,70,71,72,73,74,75,76,77,78,79,80,81,82,83,84,85,86,87,88,89,90,91,92,93,94,95,96,97,98,99,100,101,102,103,104,105,106,107,108,109,110,111,112,113,114,115,116,117,118,119,120,121,122,123,124,125,126,127,128,129,130,131,132,133,134,135,136,137,138,139,140,141,142,143,144,145,146,147,148,149,150,151,152,153,154,155,156,157,158,159,160,161,162,163,164,165,166,167,168,169,170,171,172,173,174,175,176,177,178,179,180,181,182,183,184,185,186,187,188,189,190,191,192,193,194,195,196,197,198,199,200,201,202,203,204,205,206,207,208,209,210,211,212,213,214,215,216,217,218,219,220,221,222,223,224,225,226,227,228,229,230,231,232,233,234,235,236,237,238,239,240,241,242,243,244,245,246,247,248,249,250,251,252,253,254,255,256,257,258,259,260,261,262,263,264,265,266,267,268,269,270,271,272,273,274,275,276,277,278,279,280,281,282,283,284,285,286,287,288,289,290,291,292,293,294,295,296,297,298,299,300,301,302,303,304,305,306,307,308,309,310,311,312,313,314,315,316,317,318,319,320,321,322,323,324,325,326,327,328,329,330,331,332,333,334,335,336,337,338,339,340,341,342,343,344,345,346,347,348,349,350,351,352,353,354,355,356,357,358,359,360,361,362,363,364,365,366,367,368,369,370,371,372,373,374,375,376,377,378,379,380,381,382,383,384,385,386,387,388,389,390,391,392,393,394,395,396,397,398,399
´¦ÓÚ,0.533671975,-0.186492994,0.38567099,-0.505394995,0.290354013,-1.274312973,0.236323997,-0.022693001,0.692156971,0.683655977,0.603287995,-1.514135957,-0.621318996,-2.557010889,2.744508028,-1.366590023,-0.114715002,0.855764985,0.744911015,-1.154414058,-0.356871009,0.588910997,-0.448256999,0.083097003,2.916830063,-2.934250116,-0.923412025,0.707041025,-0.415618002,-0.713587999,-0.288747996,-1.40446198,-3.04086709,-0.741427004,-0.96252799,0.214770004,1.373235941,-0.178662002,-0.443569005,1.018944025,-2.126315117,0.553735971,-1.220391035,-1.195116997,0.602696002,-0.041455999,0.106265001,-1.013854027,-0.000969,-0.370790005,-0.085914001,-1.687252045,-0.235183001,0.811285019,0.998796999,-0.698469996,0.056329001,-0.568987012,0.294447988,1.288542032,0.575511992,-0.325037986,-0.917098999,0.290661007,-0.823759019,-0.584743023,-0.792060971,0.479285985,-0.239543006,0.598842978,1.824201941,0.408811003,-1.083096027,-0.827983975,-0.685371995,-0.832533002,1.804553986,0.538589001,-0.809828997,-1.261971951,0.203241006,-0.874370992,-1.258857965,-0.571610987,0.051837999,0.90901202,0.85108,-0.081084996,-1.344408035,1.76375103,0.889783978,1.906530023,-0.149393007,-0.107323997,-1.149031997,-2.005275965,1.302790999,-0.333885998,-1.229542971,-0.530336976,0.981041014,0.400472999,-0.764087021,1.667130947,-1.978077054,-2.07221508,-0.121788003,0.029633,1.163470984,0.185311005,2.77729702,-0.125042006,-2.042167902,-0.461237013,2.897964001,-1.33220005,-0.170535997,-0.425608009,-1.499367952,0.437958002,-0.475219995,-1.790649056,-0.678438008,-0.049359001,-0.575272024,-0.507246971,-0.768306971,-1.246886015,-0.513965011,-0.929352999,-1.385545969,0.452600986,-0.89102298,-0.263550997,0.214103997,-0.04792,-0.696579993,-1.309867024,0.961076975,0.243077993,2.055155039,0.67098099,-1.475518942,0.267852992,1.378607035,-2.377906084,1.84634304,1.034158945,-0.48427701,-1.148944974,0.659186006,-0.54914999,-1.174700975,2.220660925,1.897647977,-1.306486011,-1.662503004,0.473549992,0.111147001,-0.934130013,0.740833998,-0.241358995,-0.840070009,0.096019998,-0.080773003,0.585156977,0.790997028,0.47953999,0.287945986,1.067903042,2.137104034,-0.200670004,0.99190098,0.678496003,-0.97152102,-1.449787974,0.870657027,1.263661981,1.565971017,2.159401894,0.292782992,2.476731062,1.184108019,-0.768490016,-0.748834014,-0.447026998,0.303903997,1.355921984,-0.451011002,0.798367023,0.759616017,1.686524034,2.599847078,0.227629006,0.076187998,0.582334995,1.088603973,0.205373004,0.281114012,-0.32289499,1.457121015,-1.181368947,-1.483662009,0.864881992,0.135658994,-0.781992972,-1.253908038,0.636406004,0.098678999,2.537693977,1.34918201,-0.025226999,1.365085959,1.045462966,2.467015028,0.488213003,-0.49348101,1.506590962,-0.817139983,0.404107988,-2.548118114,0.156807005,1.824167967,-2.179905891,-0.662459016,-1.360321045,-0.347734988,0.717402995,-1.310783029,-0.634121001,-1.809069991,1.369007945,0.236264005,0.716371,0.433176994,0.490500003,0.277150005,-0.253587991,-0.028074,0.48062101,-0.179012001,2.020608902,0.500690997,0.229339004,0.473659992,0.98962301,-0.834976017,-0.557465017,-1.423107982,-0.001801,1.680739045,0.387921989,-1.89221704,-1.633533955,-0.852989018,2.481477022,-0.148249999,0.301690996,0.119723,2.497760057,-1.05577004,0.161712006,-0.235507995,1.776767969,-1.913707972,-1.108021975,-0.341241986,1.564399004,-0.807645023,-0.164136007,1.917562962,0.736947,-1.702672005,2.254686117,-0.227164999,0.459024996,-1.084211946,-1.992324948,-0.015902,-1.563812017,0.272426009,-1.556632042,1.127774954,1.544569969,1.675392985,-0.478136986,-1.077458978,0.023178,-0.100217,0.177149996,0.224164993,0.47815001,-0.476469994,-0.843796015,0.533895016,1.290343046,-0.28895399,2.364995003,-0.067930996,1.062173963,-0.483498991,1.752501965,-0.033165999,-1.046337008,-0.380452991,-2.71646595,-1.986562014,-0.821617007,0.409074992,-0.068003997,0.375046015,-1.175523043,2.253716946,-0.730048001,-2.03155303,0.834846973,-2.802727938,0.344574004,-0.501892984,-1.693531036,-0.405717999,-0.472202986,-0.628096998,1.373671055,0.649618983,0.698355019,0.140229002,-0.175375,-3.287147999,1.447335958,-0.370855987,-2.014621019,-0.855720997,-0.029920001,1.687096,1.163033009,-0.808786988,-0.539195001,0.016442001,-0.752730012,1.079900026,0.811489999,0.301589996,-0.691850007,1.370000005,-0.629198015,-1.657201052,2.60278511,0.966771007,1.093845963,-0.619195998,-0.323484004,-0.225314006,-0.165130004,-1.132714033,-1.620211005,-0.085317999,-0.181029007,-1.834079027,0.214168996,-0.669470012,0.014049,-2.977507114,0.927758992,0.007414,-3.178622961,-1.252303004,0.105800003,-0.213956997,-1.259914994,0.014972,0.239320993,0.347678006,0.28491801,-2.249380112,-2.175148964,-0.550125003,-1.864076972,-0.781237006,-1.447646976,0.27144599,1.529736996,-0.139386997,1.054723978,0.598462999,-1.886011958,-2.470192909,-0.402949005,0.518934011,2.993334055,2.293066978,-0.058293998,1.348567009,-0.110064,1.648805976,-3.431054115,0.96747601,-0.640904009,0.842298985,-0.689239979,å¤„äºŽ,0.533671975,-0.186492994,0.38567099,-0.505394995,0.290354013,-1.274312973,0.236323997,-0.022693001,0.692156971,0.683655977,0.603287995,-1.514135957,-0.621318996,-2.557010889,2.744508028,-1.366590023,-0.114715002,0.855764985,0.744911015,-1.154414058,-0.356871009,0.588910997,-0.448256999,0.083097003,2.916830063,-2.934250116,-0.923412025,0.707041025,-0.415618002,-0.713587999,-0.288747996,-1.40446198,-3.04086709,-0.741427004,-0.96252799,0.214770004,1.373235941,-0.178662002,-0.443569005,1.018944025,-2.126315117,0.553735971,-1.220391035,-1.195116997,0.602696002,-0.041455999,0.106265001,-1.013854027,-0.000969,-0.370790005,-0.085914001,-1.687252045,-0.235183001,0.811285019,0.998796999,-0.698469996,0.056329001,-0.568987012,0.294447988,1.288542032,0.575511992,-0.325037986,-0.917098999,0.290661007,-0.823759019,-0.584743023,-0.792060971,0.479285985,-0.239543006,0.598842978,1.824201941,0.408811003,-1.083096027,-0.827983975,-0.685371995,-0.832533002,1.804553986,0.538589001,-0.809828997,-1.261971951,0.203241006,-0.874370992,-1.258857965,-0.571610987,0.051837999,0.90901202,0.85108,-0.081084996,-1.344408035,1.76375103,0.889783978,1.906530023,-0.149393007,-0.107323997,-1.149031997,-2.005275965,1.302790999,-0.333885998,-1.229542971,-0.530336976,0.981041014,0.400472999,-0.764087021,1.667130947,-1.978077054,-2.07221508,-0.121788003,0.029633,1.163470984,0.185311005,2.77729702,-0.125042006,-2.042167902,-0.461237013,2.897964001,-1.33220005,-0.170535997,-0.425608009,-1.499367952,0.437958002,-0.475219995,-1.790649056,-0.678438008,-0.049359001,-0.575272024,-0.507246971,-0.768306971,-1.246886015,-0.513965011,-0.929352999,-1.385545969,0.452600986,-0.89102298,-0.263550997,0.214103997,-0.04792,-0.696579993,-1.309867024,0.961076975,0.243077993,2.055155039,0.67098099,-1.475518942,0.267852992,1.378607035,-2.377906084,1.84634304,1.034158945,-0.48427701,-1.148944974,0.659186006,-0.54914999,-1.174700975,2.220660925,1.897647977,-1.306486011,-1.662503004,0.473549992,0.111147001,-0.934130013,0.740833998,-0.241358995,-0.840070009,0.096019998,-0.080773003,0.585156977,0.790997028,0.47953999,0.287945986,1.067903042,2.137104034,-0.200670004,0.99190098,0.678496003,-0.97152102,-1.449787974,0.870657027,1.263661981,1.565971017,2.159401894,0.292782992,2.476731062,1.184108019,-0.768490016,-0.748834014,-0.447026998,0.303903997,1.355921984,-0.451011002,0.798367023,0.759616017,1.686524034,2.599847078,0.227629006,0.076187998,0.582334995,1.088603973,0.205373004,0.281114012,-0.32289499,1.457121015,-1.181368947,-1.483662009,0.864881992,0.135658994,-0.781992972,-1.253908038,0.636406004,0.098678999,2.537693977,1.34918201,-0.025226999,1.365085959,1.045462966,2.467015028,0.488213003,-0.49348101,1.506590962,-0.817139983,0.404107988,-2.548118114,0.156807005,1.824167967,-2.179905891,-0.662459016,-1.360321045,-0.347734988,0.717402995,-1.310783029,-0.634121001,-1.809069991,1.369007945,0.236264005,0.716371,0.433176994,0.490500003,0.277150005,-0.253587991,-0.028074,0.48062101,-0.179012001,2.020608902,0.500690997,0.229339004,0.473659992,0.98962301,-0.834976017,-0.557465017,-1.423107982,-0.001801,1.680739045,0.387921989,-1.89221704,-1.633533955,-0.852989018,2.481477022,-0.148249999,0.301690996,0.119723,2.497760057,-1.05577004,0.161712006,-0.235507995,1.776767969,-1.913707972,-1.108021975,-0.341241986,1.564399004,-0.807645023,-0.164136007,1.917562962,0.736947,-1.702672005,2.254686117,-0.227164999,0.459024996,-1.084211946,-1.992324948,-0.015902,-1.563812017,0.272426009,-1.556632042,1.127774954,1.544569969,1.675392985,-0.478136986,-1.077458978,0.023178,-0.100217,0.177149996,0.224164993,0.47815001,-0.476469994,-0.843796015,0.533895016,1.290343046,-0.28895399,2.364995003,-0.067930996,1.062173963,-0.483498991,1.752501965,-0.033165999,-1.046337008,-0.380452991,-2.71646595,-1.986562014,-0.821617007,0.409074992,-0.068003997,0.375046015,-1.175523043,2.253716946,-0.730048001,-2.03155303,0.834846973,-2.802727938,0.344574004,-0.501892984,-1.693531036,-0.405717999,-0.472202986,-0.628096998,1.373671055,0.649618983,0.698355019,0.140229002,-0.175375,-3.287147999,1.447335958,-0.370855987,-2.014621019,-0.855720997,-0.029920001,1.687096,1.163033009,-0.808786988,-0.539195001,0.016442001,-0.752730012,1.079900026,0.811489999,0.301589996,-0.691850007,1.370000005,-0.629198015,-1.657201052,2.60278511,0.966771007,1.093845963,-0.619195998,-0.323484004,-0.225314006,-0.165130004,-1.132714033,-1.620211005,-0.085317999,-0.181029007,-1.834079027,0.214168996,-0.669470012,0.014049,-2.977507114,0.927758992,0.007414,-3.178622961,-1.252303004,0.105800003,-0.213956997,-1.259914994,0.014972,0.239320993,0.347678006,0.28491801,-2.249380112,-2.175148964,-0.550125003,-1.864076972,-0.781237006,-1.447646976,0.27144599,1.529736996,-0.139386997,1.054723978,0.598462999,-1.886011958,-2.470192909,-0.402949005,0.518934011,2.993334055,2.293066978,-0.058293998,1.348567009,-0.110064,1.648805976,-3.431054115,0.96747601,-0.640904009,0.842298985,-0.689239979
¿ØÖÆ,0.345604986,1.041342974,0.365601003,1.275326014,0.755509019,0.065252997,3.405849934,-1.949244022,2.299400091,-1.813789964,-0.536315978,-0.846255004,-0.451680988,0.729696989,1.270123959,-1.632233977,-1.027438045,0.153926998,-1.314535975,-0.508243024,-0.835780978,0.984863997,-1.787757039,-1.408460975,0.413619012,1.667729974,-0.697995007,1.978531957,-0.534842014,1.299885035,-0.413439006,-0.958423972,-0.111474,1.564178944,0.102316998,0.260488987,0.042422999,-1.41774404,-0.407476991,0.270581007,0.834761977,0.372765005,-0.589972019,-1.633764982,-0.650448024,2.068434,0.835117996,0.087630004,-0.095725998,-0.015072,-0.087134004,0.404009998,-0.510764003,0.817433,0.271591991,0.136776,-1.168470979,-1.445229054,1.265807986,1.541924953,-0.620396018,-0.792500973,0.172762007,-1.63912499,0.537018001,-0.380172014,-0.346756011,0.239673004,-0.101925001,0.888244987,0.217051998,1.124521971,0.112094,-0.040380001,-0.430941999,1.774145961,1.643645048,-2.715389967,-0.931652009,0.315459996,0.907114029,0.415295988,0.715067029,0.142848,0.132079005,0.562088013,1.267570019,2.326004982,1.181089997,0.609023988,0.819216013,-1.004902959,-0.159495994,0.261308014,0.918081999,-0.999364972,-0.564211011,1.664710045,-0.093135998,-0.944495022,0.811164975,-1.293828011,-1.556205988,0.655844986,-2.593739986,-1.533401966,-1.176774979,-0.943996012,0.645874977,-1.786074996,0.802579999,-3.03844595,-1.284155011,0.799709022,1.192134023,-0.254640996,1.885624051,1.266327977,-0.299814999,0.932470024,-1.741135955,0.368447006,1.833335996,-1.415449977,-0.764805973,0.749558985,-1.106016994,-2.287079096,-0.37964201,-0.284824014,-0.212704003,-0.590804994,-1.653646946,1.168311,0.765761018,1.20459199,-1.025148034,0.325242013,1.066797018,0.893993974,-1.162096024,2.334434986,0.314799011,-2.380774021,0.715153992,-1.446452022,0.890881002,0.292145014,-0.753316998,-1.452116966,1.725124955,-0.218722999,-1.253044009,0.999346018,1.285688043,-0.389310986,0.416364014,0.646677017,-0.138835996,1.057600021,-1.386834979,0.206862003,-1.635298967,-0.060056001,-1.868633032,0.901247025,1.534926057,-0.330383003,-0.388983011,1.437391043,2.187850952,-0.303339988,0.550508022,1.212162972,0.694384992,0.443450004,0.216407001,0.235375002,-0.414415985,0.740963995,-0.302915007,1.381059051,0.578589022,-1.378337979,-2.259360075,0.658357978,0.879891992,0.071420997,1.201012015,0.932179987,-0.463452011,-0.004613,1.586236954,0.011581,-0.984076023,-1.613463998,0.00172,-1.950191021,1.918140054,-0.351931006,0.84861201,-0.199448004,-2.450568914,0.574141026,-1.127753973,-0.497942001,-0.52008599,0.740019977,-0.828233004,1.664212942,-0.82801801,-0.972998977,2.438221931,-1.294603944,1.117722988,0.981590986,-0.630720973,0.037142001,0.395974994,-1.593389988,2.262388945,1.055703998,2.099080086,0.754010022,1.770138025,-0.217611,1.055241942,-0.813903987,-1.252707958,-0.27392599,-0.836811006,-0.725911975,0.073375002,-1.727417946,0.710722983,-0.042314999,0.93383801,0.450237989,0.703076005,0.34356001,1.013932943,-0.453097999,0.676666975,-0.345665008,-1.062188983,0.670113027,1.104454994,0.668998003,1.012706995,1.311328053,-1.78776896,2.303107023,-0.27648899,-0.51323998,-2.137561083,1.152022958,0.654421985,0.248113006,0.132694006,2.945118904,-0.157132998,0.483491004,-1.106197953,-0.043563999,-0.895757973,0.382413,0.917473018,0.469889998,0.657666028,0.541833997,-1.071722031,0.035744,-0.434659004,0.471486986,-0.502453983,1.282740951,-0.476915002,-0.88241601,-0.271748006,0.945367992,-0.534839988,0.349839985,0.63211602,0.38814199,-1.277608991,0.515582025,1.46312499,-0.447207987,0.209829003,-0.564593017,-0.531790972,0.577243984,-1.083786964,-2.660563946,1.044661999,1.908669949,0.480497986,1.941277981,-0.374803007,0.415407002,0.070551999,0.87717098,0.461082995,0.274670988,-0.464551985,-1.128250957,-0.064848997,0.160328999,-1.371402025,0.283131003,-1.242933989,-1.123337984,0.883831024,-1.001343012,0.474523008,-1.962623954,-0.485309988,-0.146149993,1.018427014,-0.822115004,-0.304040015,0.533490002,-1.082878947,2.350884914,0.041655,1.130859017,-0.469312012,-2.75041604,0.561320007,-0.521842003,-0.464751005,1.051959991,0.027659001,-0.942736983,2.736413002,-0.465685993,1.049885035,0.327316999,-1.986310005,0.055509001,-1.621669054,0.835039973,-0.346991003,-0.132636994,0.52562201,-1.231037974,-0.512694001,0.232936993,-0.60680902,-1.754569054,-0.861948013,0.548538983,2.739506006,0.262441009,1.105018973,-0.944737017,-0.646673977,1.544072986,-1.380491018,1.48536396,-1.02296102,-1.208677053,-0.517633975,0.198952004,-0.427152991,-1.32764101,-1.457059979,0.215110004,0.789901972,-0.782593012,-0.012762,0.420657992,0.261135995,-0.047694001,-1.240244985,0.054524999,0.188791007,-2.118839979,-1.211979985,-1.313527942,0.609218001,0.604104996,0.063699998,0.545076013,0.48547399,-0.851635993,-1.363415957,1.021667957,-2.566736937,0.127837002,0.444431007,3.559779882,-0.547309995,-0.112415001,0.000149,-0.970112026,2.200117111,1.087180972,0.532052994,-0.053506002,æŽ§åˆ¶,0.345604986,1.041342974,0.365601003,1.275326014,0.755509019,0.065252997,3.405849934,-1.949244022,2.299400091,-1.813789964,-0.536315978,-0.846255004,-0.451680988,0.729696989,1.270123959,-1.632233977,-1.027438045,0.153926998,-1.314535975,-0.508243024,-0.835780978,0.984863997,-1.787757039,-1.408460975,0.413619012,1.667729974,-0.697995007,1.978531957,-0.534842014,1.299885035,-0.413439006,-0.958423972,-0.111474,1.564178944,0.102316998,0.260488987,0.042422999,-1.41774404,-0.407476991,0.270581007,0.834761977,0.372765005,-0.589972019,-1.633764982,-0.650448024,2.068434,0.835117996,0.087630004,-0.095725998,-0.015072,-0.087134004,0.404009998,-0.510764003,0.817433,0.271591991,0.136776,-1.168470979,-1.445229054,1.265807986,1.541924953,-0.620396018,-0.792500973,0.172762007,-1.63912499,0.537018001,-0.380172014,-0.346756011,0.239673004,-0.101925001,0.888244987,0.217051998,1.124521971,0.112094,-0.040380001,-0.430941999,1.774145961,1.643645048,-2.715389967,-0.931652009,0.315459996,0.907114029,0.415295988,0.715067029,0.142848,0.132079005,0.562088013,1.267570019,2.326004982,1.181089997,0.609023988,0.819216013,-1.004902959,-0.159495994,0.261308014,0.918081999,-0.999364972,-0.564211011,1.664710045,-0.093135998,-0.944495022,0.811164975,-1.293828011,-1.556205988,0.655844986,-2.593739986,-1.533401966,-1.176774979,-0.943996012,0.645874977,-1.786074996,0.802579999,-3.03844595,-1.284155011,0.799709022,1.192134023,-0.254640996,1.885624051,1.266327977,-0.299814999,0.932470024,-1.741135955,0.368447006,1.833335996,-1.415449977,-0.764805973,0.749558985,-1.106016994,-2.287079096,-0.37964201,-0.284824014,-0.212704003,-0.590804994,-1.653646946,1.168311,0.765761018,1.20459199,-1.025148034,0.325242013,1.066797018,0.893993974,-1.162096024,2.334434986,0.314799011,-2.380774021,0.715153992,-1.446452022,0.890881002,0.292145014,-0.753316998,-1.452116966,1.725124955,-0.218722999,-1.253044009,0.999346018,1.285688043,-0.389310986,0.416364014,0.646677017,-0.138835996,1.057600021,-1.386834979,0.206862003,-1.635298967,-0.060056001,-1.868633032,0.901247025,1.534926057,-0.330383003,-0.388983011,1.437391043,2.187850952,-0.303339988,0.550508022,1.212162972,0.694384992,0.443450004,0.216407001,0.235375002,-0.414415985,0.740963995,-0.302915007,1.381059051,0.578589022,-1.378337979,-2.259360075,0.658357978,0.879891992,0.071420997,1.201012015,0.932179987,-0.463452011,-0.004613,1.586236954,0.011581,-0.984076023,-1.613463998,0.00172,-1.950191021,1.918140054,-0.351931006,0.84861201,-0.199448004,-2.450568914,0.574141026,-1.127753973,-0.497942001,-0.52008599,0.740019977,-0.828233004,1.664212942,-0.82801801,-0.972998977,2.438221931,-1.294603944,1.117722988,0.981590986,-0.630720973,0.037142001,0.395974994,-1.593389988,2.262388945,1.055703998,2.099080086,0.754010022,1.770138025,-0.217611,1.055241942,-0.813903987,-1.252707958,-0.27392599,-0.836811006,-0.725911975,0.073375002,-1.727417946,0.710722983,-0.042314999,0.93383801,0.450237989,0.703076005,0.34356001,1.013932943,-0.453097999,0.676666975,-0.345665008,-1.062188983,0.670113027,1.104454994,0.668998003,1.012706995,1.311328053,-1.78776896,2.303107023,-0.27648899,-0.51323998,-2.137561083,1.152022958,0.654421985,0.248113006,0.132694006,2.945118904,-0.157132998,0.483491004,-1.106197953,-0.043563999,-0.895757973,0.382413,0.917473018,0.469889998,0.657666028,0.541833997,-1.071722031,0.035744,-0.434659004,0.471486986,-0.502453983,1.282740951,-0.476915002,-0.88241601,-0.271748006,0.945367992,-0.534839988,0.349839985,0.63211602,0.38814199,-1.277608991,0.515582025,1.46312499,-0.447207987,0.209829003,-0.564593017,-0.531790972,0.577243984,-1.083786964,-2.660563946,1.044661999,1.908669949,0.480497986,1.941277981,-0.374803007,0.415407002,0.070551999,0.87717098,0.461082995,0.274670988,-0.464551985,-1.128250957,-0.064848997,0.160328999,-1.371402025,0.283131003,-1.242933989,-1.123337984,0.883831024,-1.001343012,0.474523008,-1.962623954,-0.485309988,-0.146149993,1.018427014,-0.822115004,-0.304040015,0.533490002,-1.082878947,2.350884914,0.041655,1.130859017,-0.469312012,-2.75041604,0.561320007,-0.521842003,-0.464751005,1.051959991,0.027659001,-0.942736983,2.736413002,-0.465685993,1.049885035,0.327316999,-1.986310005,0.055509001,-1.621669054,0.835039973,-0.346991003,-0.132636994,0.52562201,-1.231037974,-0.512694001,0.232936993,-0.60680902,-1.754569054,-0.861948013,0.548538983,2.739506006,0.262441009,1.105018973,-0.944737017,-0.646673977,1.544072986,-1.380491018,1.48536396,-1.02296102,-1.208677053,-0.517633975,0.198952004,-0.427152991,-1.32764101,-1.457059979,0.215110004,0.789901972,-0.782593012,-0.012762,0.420657992,0.261135995,-0.047694001,-1.240244985,0.054524999,0.188791007,-2.118839979,-1.211979985,-1.313527942,0.609218001,0.604104996,0.063699998,0.545076013,0.48547399,-0.851635993,-1.363415957,1.021667957,-2.566736937,0.127837002,0.444431007,3.559779882,-0.547309995,-0.112415001,0.000149,-0.970112026,2.200117111,1.087180972,0.532052994,-0.053506002
´«¸ÐÆ÷,-0.238477007,1.426220059,0.833492994,-0.395718008,1.702772021,0.231702998,0.870696008,-1.810652018,0.474103004,-0.275299996,-1.536054015,1.168449998,-0.594742,0.092969999,-0.629351974,-1.336279988,-0.079351999,-0.550365984,-1.212401032,-1.051275015,-0.784192026,0.050930999,-0.866014004,0.261045992,0.259014994,0.265935987,-0.403373986,1.05368495,-1.244084954,0.056155,-0.662333012,-0.385634989,-0.119671002,-0.160040006,0.433160007,1.031680942,0.296916991,0.095714003,0.111532003,0.522307992,1.367570996,-0.796177983,-1.552554011,0.004068,0.329827011,0.825555027,-0.206104994,-0.46944201,0.382450998,0.018764,1.087584019,-0.576888978,-0.280377001,0.037696999,-1.298655033,0.830799997,0.741280019,0.011412,-1.600613952,0.683107018,-1.109073997,-0.125405997,-1.022513032,-0.33920899,0.577603996,0.621267021,-0.501617014,-0.688790023,0.712531984,0.61650002,-1.159834981,-0.066956997,0.322719008,0.835023999,-0.72210902,1.143972039,1.440791011,-0.287609011,-0.511346996,-0.040467001,-0.522390008,-0.743435025,0.236852005,0.349429995,0.152591005,-0.129747003,-0.888764977,-0.227975994,0.672437012,-0.883379996,0.718533993,-0.416954011,0.157211006,0.810782015,0.814828992,-0.162269995,-0.186807007,1.712550044,-0.599933028,1.216868043,1.135097027,0.347773999,-0.092770003,0.364275992,0.114564002,-1.25762403,0.006451,-0.761790991,0.746118009,0.273070991,0.187202007,-1.505481005,-0.774439991,0.66081202,-0.299943,0.733590007,1.481253982,-0.258183986,0.39399299,0.485417008,0.139480993,-1.94382,0.475243002,-0.061893001,0.431746989,1.688408971,-1.021595955,0.212733001,0.206827,-0.087938003,0.118432,-0.998964012,-1.137799978,0.323612988,-0.962190986,0.500117004,-0.130916998,-0.509009004,0.234245002,0.752681017,0.19901,-0.309991002,-0.861644983,0.417376995,0.089046001,-1.191794038,-0.788958013,0.022604,-0.069463,-1.818076968,0.907178998,-0.174741998,0.270399988,-0.419503003,0.181161001,-0.204348996,0.067492001,-0.026597001,-0.479534,1.065991998,-0.396827996,-2.212852955,-1.028661013,-0.891582012,0.746599972,-0.307419002,-0.514256001,-0.266613007,-1.496927977,-1.708098054,-0.258599013,-0.348894,-0.689150989,-0.771595001,0.404911011,0.495353013,0.151877001,-0.343089998,0.252903998,0.954141021,-0.820209026,0.588065982,-1.092605948,-1.339401007,-0.998368025,0.264414012,0.124022998,0.141827002,0.199029997,-0.625369012,1.222623944,0.044845998,0.150002003,0.959770024,-0.259216011,-0.182347,0.565792978,-0.046578001,0.629137993,0.601535022,-0.057240002,0.074414998,-0.597339988,-0.548699021,-0.215059996,0.658661008,0.791015983,1.589277029,0.000409,1.97458005,0.037532002,-0.306632996,1.635431051,-0.644370973,0.931059003,0.334116995,-0.445504993,-0.439141005,0.775609016,-1.136675,0.187285006,0.641071975,0.782325983,-0.939287007,0.416065991,-1.085821986,0.007818,-0.632869005,-0.441426009,0.000407,-0.605931997,0.130505994,0.856073022,-2.056896925,0.719142973,-0.50484699,-1.081133962,-0.440017015,0.289570004,-0.634483993,-1.132138968,0.405584991,0.637006998,0.317844003,-0.78787899,0.124885999,0.105025999,-0.184773996,-0.425509006,-0.700640023,-0.034182999,0.669057012,0.929472029,-0.26107201,0.174144998,-0.593573987,1.020712018,-0.251601994,1.426751018,1.58306706,-0.172638997,-0.585918009,0.308346987,0.230159998,-0.416536987,-1.053081036,0.639304996,1.024420977,-1.047894955,0.309567004,0.136085004,-1.716303945,-0.70707798,0.387232006,0.78877598,1.04816401,-1.107823968,-0.535243988,0.760201991,-0.414566994,-0.474637985,0.038589999,0.916749001,0.588631988,-0.078613997,0.296184987,0.075606003,-0.991447985,-0.529992998,0.265707999,-0.161909997,0.969581008,-0.691441,-0.258311003,0.843075991,0.605708003,0.676922023,-0.473531008,-0.385455996,0.934157014,-0.000887,-0.149857998,-0.610370994,-0.734686017,0.190998003,0.215324998,-0.998188019,-0.062583998,-0.185477003,0.921805978,-1.202887058,-0.539565027,-0.01818,-1.079645991,-0.34988001,0.277042001,-0.554480016,-0.802488983,0.682905972,0.722477973,0.104235001,0.127039,0.637567997,-0.275902987,0.520164013,-0.147841007,0.118855998,-0.561689973,-0.38924399,0.48466,0.365810007,-0.740916014,-0.944805026,-1.12767601,0.842499971,-1.056167006,-0.315418988,0.611537993,0.746281981,-0.650767028,-0.039469998,0.38706699,0.519030988,-0.792843997,0.223401994,0.166275993,0.040288001,0.526817977,0.312709987,-0.438630998,-0.329041004,0.984706998,0.490559012,-0.269917011,-0.509460986,-0.932339013,0.860358,0.765736997,-0.655197024,0.705914974,-0.256790012,-0.391229004,-1.484505057,0.947566986,-0.184466004,-1.309782028,-0.212070003,0.161109,-0.28193301,-0.460061014,-0.774362028,0.45125699,1.018558979,1.326153994,-0.357874006,-0.866347015,-1.330404043,-0.503889978,-0.870788991,-0.37687099,-0.723397017,0.157562003,1.27620399,0.605049014,-0.291238993,-2.452169895,0.590452015,-1.728222013,-2.520307064,0.516553998,0.437988013,-0.511765003,-0.638602018,0.305900991,-1.079252958,-0.069527,1.636011004,0.550162017,-0.192911997,0.531009972,ä¼ æ„Ÿå™?-0.238477006555,1.426220059,0.833492994,-0.395718008,1.702772021,0.231702998,0.870696008,-1.810652018,0.474103004,-0.275299996,-1.536054015,1.168449998,-0.594742,0.092969999,-0.629351974,-1.336279988,-0.079351999,-0.550365984,-1.212401032,-1.051275015,-0.784192026,0.050930999,-0.866014004,0.261045992,0.259014994,0.265935987,-0.403373986,1.05368495,-1.244084954,0.056155,-0.662333012,-0.385634989,-0.119671002,-0.160040006,0.433160007,1.031680942,0.296916991,0.095714003,0.111532003,0.522307992,1.367570996,-0.796177983,-1.552554011,0.004068,0.329827011,0.825555027,-0.206104994,-0.46944201,0.382450998,0.018764,1.087584019,-0.576888978,-0.280377001,0.037696999,-1.298655033,0.830799997,0.741280019,0.011412,-1.600613952,0.683107018,-1.109073997,-0.125405997,-1.022513032,-0.33920899,0.577603996,0.621267021,-0.501617014,-0.688790023,0.712531984,0.61650002,-1.159834981,-0.066956997,0.322719008,0.835023999,-0.72210902,1.143972039,1.440791011,-0.287609011,-0.511346996,-0.040467001,-0.522390008,-0.743435025,0.236852005,0.349429995,0.152591005,-0.129747003,-0.888764977,-0.227975994,0.672437012,-0.883379996,0.718533993,-0.416954011,0.157211006,0.810782015,0.814828992,-0.162269995,-0.186807007,1.712550044,-0.599933028,1.216868043,1.135097027,0.347773999,-0.092770003,0.364275992,0.114564002,-1.25762403,0.006451,-0.761790991,0.746118009,0.273070991,0.187202007,-1.505481005,-0.774439991,0.66081202,-0.299943,0.733590007,1.481253982,-0.258183986,0.39399299,0.485417008,0.139480993,-1.94382,0.475243002,-0.061893001,0.431746989,1.688408971,-1.021595955,0.212733001,0.206827,-0.087938003,0.118432,-0.998964012,-1.137799978,0.323612988,-0.962190986,0.500117004,-0.130916998,-0.509009004,0.234245002,0.752681017,0.19901,-0.309991002,-0.861644983,0.417376995,0.089046001,-1.191794038,-0.788958013,0.022604,-0.069463,-1.818076968,0.907178998,-0.174741998,0.270399988,-0.419503003,0.181161001,-0.204348996,0.067492001,-0.026597001,-0.479534,1.065991998,-0.396827996,-2.212852955,-1.028661013,-0.891582012,0.746599972,-0.307419002,-0.514256001,-0.266613007,-1.496927977,-1.708098054,-0.258599013,-0.348894,-0.689150989,-0.771595001,0.404911011,0.495353013,0.151877001,-0.343089998,0.252903998,0.954141021,-0.820209026,0.588065982,-1.092605948,-1.339401007,-0.998368025,0.264414012,0.124022998,0.141827002,0.199029997,-0.625369012,1.222623944,0.044845998,0.150002003,0.959770024,-0.259216011,-0.182347,0.565792978,-0.046578001,0.629137993,0.601535022,-0.057240002,0.074414998,-0.597339988,-0.548699021,-0.215059996,0.658661008,0.791015983,1.589277029,0.000409,1.97458005,0.037532002,-0.306632996,1.635431051,-0.644370973,0.931059003,0.334116995,-0.445504993,-0.439141005,0.775609016,-1.136675,0.187285006,0.641071975,0.782325983,-0.939287007,0.416065991,-1.085821986,0.007818,-0.632869005,-0.441426009,0.000407,-0.605931997,0.130505994,0.856073022,-2.056896925,0.719142973,-0.50484699,-1.081133962,-0.440017015,0.289570004,-0.634483993,-1.132138968,0.405584991,0.637006998,0.317844003,-0.78787899,0.124885999,0.105025999,-0.184773996,-0.425509006,-0.700640023,-0.034182999,0.669057012,0.929472029,-0.26107201,0.174144998,-0.593573987,1.020712018,-0.251601994,1.426751018,1.58306706,-0.172638997,-0.585918009,0.308346987,0.230159998,-0.416536987,-1.053081036,0.639304996,1.024420977,-1.047894955,0.309567004,0.136085004,-1.716303945,-0.70707798,0.387232006,0.78877598,1.04816401,-1.107823968,-0.535243988,0.760201991,-0.414566994,-0.474637985,0.038589999,0.916749001,0.588631988,-0.078613997,0.296184987,0.075606003,-0.991447985,-0.529992998,0.265707999,-0.161909997,0.969581008,-0.691441,-0.258311003,0.843075991,0.605708003,0.676922023,-0.473531008,-0.385455996,0.934157014,-0.000887,-0.149857998,-0.610370994,-0.734686017,0.190998003,0.215324998,-0.998188019,-0.062583998,-0.185477003,0.921805978,-1.202887058,-0.539565027,-0.01818,-1.079645991,-0.34988001,0.277042001,-0.554480016,-0.802488983,0.682905972,0.722477973,0.104235001,0.127039,0.637567997,-0.275902987,0.520164013,-0.147841007,0.118855998,-0.561689973,-0.38924399,0.48466,0.365810007,-0.740916014,-0.944805026,-1.12767601,0.842499971,-1.056167006,-0.315418988,0.611537993,0.746281981,-0.650767028,-0.039469998,0.38706699,0.519030988,-0.792843997,0.223401994,0.166275993,0.040288001,0.526817977,0.312709987,-0.438630998,-0.329041004,0.984706998,0.490559012,-0.269917011,-0.509460986,-0.932339013,0.860358,0.765736997,-0.655197024,0.705914974,-0.256790012,-0.391229004,-1.484505057,0.947566986,-0.184466004,-1.309782028,-0.212070003,0.161109,-0.28193301,-0.460061014,-0.774362028,0.45125699,1.018558979,1.326153994,-0.357874006,-0.866347015,-1.330404043,-0.503889978,-0.870788991,-0.37687099,-0.723397017,0.157562003,1.27620399,0.605049014,-0.291238993,-2.452169895,0.590452015,-1.728222013,-2.520307064,0.516553998,0.437988013,-0.511765003,-0.638602018,0.305900991,-1.079252958,-0.069527,1.636011004,0.550162017,-0.192911997,0.531009972,
ÓÍÃÅ,-0.111313,0.483538002,0.317117006,0.35225299,0.843819022,0.287600011,0.833305001,-0.395862997,0.412003011,0.596324027,0.100639001,-0.135382995,-0.353127986,0.137314007,0.101804003,-0.350008994,-0.494040996,0.100235,0.112444997,-0.909143984,-0.218569994,0.238918006,-0.197233006,0.129794002,0.530048013,1.034580946,-0.736003995,0.540871024,-0.690155029,0.158665001,-0.261707991,-0.491412014,0.571022987,0.263832986,0.077252001,0.956993997,-0.040081002,-0.911071002,0.130163997,0.145625994,0.845313013,-0.111993998,-0.498145998,-0.175208002,0.386568993,-0.058431,0.050418999,-0.00552,0.064829998,-0.129776001,-0.017137,-0.335191995,-0.052441001,0.599654973,-0.319065988,-0.432260007,-0.129855007,-0.691398978,-0.28708601,0.52877897,-0.173631996,0.281783998,-0.380988002,-0.095927,0.128564999,0.407454014,0.215084001,-0.984831989,-0.031019,-0.092955001,-0.136926994,0.233829007,0.153019994,0.257041991,-0.357948989,0.630788982,0.536261022,-0.312837005,0.304123014,0.402720988,0.008601,-0.006328,0.013072,0.389057994,0.376441985,-0.482643008,-0.121840999,-0.000615,-0.085919,-0.362199992,0.899765015,0.673681021,-0.051794998,0.538411021,-0.009765,-0.362632006,-1.097254038,0.766183019,-0.637374997,0.265399009,0.146735996,-0.153684005,0.049224,-0.025788,-0.372303993,-0.121834002,0.040091999,-0.179505005,0.112021998,0.177603006,-0.187941,-0.959706008,0.121601999,0.55983597,-0.026463,-0.136136994,0.693603992,-0.535956025,0.092335999,0.348758012,-0.228410006,-0.526530981,0.284348011,-0.324640989,0.461468011,0.612689018,0.201906994,-0.192853004,-0.173860997,-0.400644988,-0.550468028,-0.195019007,-0.191028997,0.315275997,-0.231206998,-0.093767002,-0.409543008,-0.584568024,0.527907014,-0.392127991,-0.104284003,0.289258003,-0.111208998,-0.334174007,0.053351,-0.040082,-0.809691012,-0.282738,0.028202999,-0.720892012,0.194769993,-0.572412014,0.454984009,0.335676014,0.571331978,-0.113558002,0.083981998,-0.464345992,-0.660420001,-0.072641999,0.163682997,-0.448832989,-0.77097702,-0.500424981,-0.595107019,0.72330302,-0.202994004,-0.103090003,-0.620391011,0.224544004,-0.073512003,-0.409036011,0.154422998,0.355554014,1.091603041,0.746761978,0.28321299,0.924808979,0.138779998,0.714190006,-0.211384997,0.248668,-0.53491801,-0.186239004,-0.588792026,0.594045997,0.287598014,-0.012505,0.191982999,-0.046808001,0.693919003,0.058619998,-0.222995996,0.120444,-0.08427,-0.321642011,0.302668989,-0.820191979,0.122417003,-0.402052999,0.766294003,0.437931001,-0.080062002,0.164625004,-0.219714001,0.137526006,-0.110325001,0.658131003,-0.103830002,0.349047005,0.446215987,-0.359611005,-0.151532993,-0.248584002,0.292971998,0.191192999,-0.273927987,-0.081715003,-0.176705003,-0.454109013,-0.277961999,-0.236888006,0.523954988,-0.485374004,0.742031991,-0.468957007,-0.081959002,-0.348398,0.033996001,-0.38942799,-0.044376001,0.851590991,-0.059424002,0.139239997,0.639653981,-0.03565,-0.973695993,-0.256464988,0.016813001,-0.105907999,-0.749397993,0.416803986,0.130279005,0.084886998,-0.278243005,0.146566004,0.33998099,0.218651995,-0.271008015,0.273734987,0.072582997,0.678183019,0.196338996,-0.136124,-0.578715026,0.491369009,0.031849001,0.143638998,0.661623001,0.308456987,-0.363651991,0.193026006,0.225795001,0.25246799,-0.147517994,-0.96796,0.151574001,0.512731016,-0.822694004,-0.43463099,0.319258988,-0.37113899,-0.382422,0.115915999,0.367747009,-0.179844007,-0.754280984,-0.356168002,0.130021006,0.567516029,0.161928996,0.761373997,0.23793,0.161531001,-0.319276005,-0.276697993,-0.037080999,-0.105331004,0.085134998,-0.103,0.179866999,0.651571989,0.071176,-0.332242996,-0.002827,0.131941006,0.408232987,0.286473006,0.045412,-0.481164008,0.099988997,0.024111999,-0.320232004,0.072212003,0.894888997,0.235127002,-0.53867501,-0.148846,-0.198639005,-0.075496003,-0.491035998,-0.455731004,0.189447001,-0.204692006,-0.403293014,0.088969,0.226921007,0.288637996,-0.069666997,-0.125359997,0.054540001,-0.183414996,0.289793998,0.447566986,-0.134308994,-0.05979,-0.076606996,-0.601244986,0.07277,0.436435014,0.58078903,-0.744924009,-0.555993021,-0.151415005,-0.292766988,-0.408488005,0.168450996,0.560938001,-0.062843002,0.122386999,-0.500513017,0.097064003,0.249101996,0.379254013,0.160211995,-0.547766984,-0.721216977,0.360224992,0.765119016,-0.539816976,-0.090154998,0.474640995,-0.445311993,0.735458016,-0.541814983,0.309754014,0.595140994,0.292281002,-0.035034001,0.377279013,-0.356195003,-0.231609002,-0.465191007,0.462473005,-0.554732025,-0.188783005,0.210403994,0.125007004,-0.119631998,-0.187571004,-0.091719002,0.315692008,0.266591996,-0.439267009,0.02954,-0.352034986,-0.66494602,-0.083814003,-0.962122977,0.245444,-0.531535983,-0.055636998,0.742775977,0.495101005,-0.277103007,-0.697341979,0.195938006,-0.271380007,-0.793502986,-0.152355,-0.083021998,-0.533937991,0.206147,0.350874007,0.311549991,-0.651968002,-0.202295005,-0.094384,0.502743006,0.622680008,æ²¹é—¨,-0.111313,0.483538002,0.317117006,0.35225299,0.843819022,0.287600011,0.833305001,-0.395862997,0.412003011,0.596324027,0.100639001,-0.135382995,-0.353127986,0.137314007,0.101804003,-0.350008994,-0.494040996,0.100235,0.112444997,-0.909143984,-0.218569994,0.238918006,-0.197233006,0.129794002,0.530048013,1.034580946,-0.736003995,0.540871024,-0.690155029,0.158665001,-0.261707991,-0.491412014,0.571022987,0.263832986,0.077252001,0.956993997,-0.040081002,-0.911071002,0.130163997,0.145625994,0.845313013,-0.111993998,-0.498145998,-0.175208002,0.386568993,-0.058431,0.050418999,-0.00552,0.064829998,-0.129776001,-0.017137,-0.335191995,-0.052441001,0.599654973,-0.319065988,-0.432260007,-0.129855007,-0.691398978,-0.28708601,0.52877897,-0.173631996,0.281783998,-0.380988002,-0.095927,0.128564999,0.407454014,0.215084001,-0.984831989,-0.031019,-0.092955001,-0.136926994,0.233829007,0.153019994,0.257041991,-0.357948989,0.630788982,0.536261022,-0.312837005,0.304123014,0.402720988,0.008601,-0.006328,0.013072,0.389057994,0.376441985,-0.482643008,-0.121840999,-0.000615,-0.085919,-0.362199992,0.899765015,0.673681021,-0.051794998,0.538411021,-0.009765,-0.362632006,-1.097254038,0.766183019,-0.637374997,0.265399009,0.146735996,-0.153684005,0.049224,-0.025788,-0.372303993,-0.121834002,0.040091999,-0.179505005,0.112021998,0.177603006,-0.187941,-0.959706008,0.121601999,0.55983597,-0.026463,-0.136136994,0.693603992,-0.535956025,0.092335999,0.348758012,-0.228410006,-0.526530981,0.284348011,-0.324640989,0.461468011,0.612689018,0.201906994,-0.192853004,-0.173860997,-0.400644988,-0.550468028,-0.195019007,-0.191028997,0.315275997,-0.231206998,-0.093767002,-0.409543008,-0.584568024,0.527907014,-0.392127991,-0.104284003,0.289258003,-0.111208998,-0.334174007,0.053351,-0.040082,-0.809691012,-0.282738,0.028202999,-0.720892012,0.194769993,-0.572412014,0.454984009,0.335676014,0.571331978,-0.113558002,0.083981998,-0.464345992,-0.660420001,-0.072641999,0.163682997,-0.448832989,-0.77097702,-0.500424981,-0.595107019,0.72330302,-0.202994004,-0.103090003,-0.620391011,0.224544004,-0.073512003,-0.409036011,0.154422998,0.355554014,1.091603041,0.746761978,0.28321299,0.924808979,0.138779998,0.714190006,-0.211384997,0.248668,-0.53491801,-0.186239004,-0.588792026,0.594045997,0.287598014,-0.012505,0.191982999,-0.046808001,0.693919003,0.058619998,-0.222995996,0.120444,-0.08427,-0.321642011,0.302668989,-0.820191979,0.122417003,-0.402052999,0.766294003,0.437931001,-0.080062002,0.164625004,-0.219714001,0.137526006,-0.110325001,0.658131003,-0.103830002,0.349047005,0.446215987,-0.359611005,-0.151532993,-0.248584002,0.292971998,0.191192999,-0.273927987,-0.081715003,-0.176705003,-0.454109013,-0.277961999,-0.236888006,0.523954988,-0.485374004,0.742031991,-0.468957007,-0.081959002,-0.348398,0.033996001,-0.38942799,-0.044376001,0.851590991,-0.059424002,0.139239997,0.639653981,-0.03565,-0.973695993,-0.256464988,0.016813001,-0.105907999,-0.749397993,0.416803986,0.130279005,0.084886998,-0.278243005,0.146566004,0.33998099,0.218651995,-0.271008015,0.273734987,0.072582997,0.678183019,0.196338996,-0.136124,-0.578715026,0.491369009,0.031849001,0.143638998,0.661623001,0.308456987,-0.363651991,0.193026006,0.225795001,0.25246799,-0.147517994,-0.96796,0.151574001,0.512731016,-0.822694004,-0.43463099,0.319258988,-0.37113899,-0.382422,0.115915999,0.367747009,-0.179844007,-0.754280984,-0.356168002,0.130021006,0.567516029,0.161928996,0.761373997,0.23793,0.161531001,-0.319276005,-0.276697993,-0.037080999,-0.105331004,0.085134998,-0.103,0.179866999,0.651571989,0.071176,-0.332242996,-0.002827,0.131941006,0.408232987,0.286473006,0.045412,-0.481164008,0.099988997,0.024111999,-0.320232004,0.072212003,0.894888997,0.235127002,-0.53867501,-0.148846,-0.198639005,-0.075496003,-0.491035998,-0.455731004,0.189447001,-0.204692006,-0.403293014,0.088969,0.226921007,0.288637996,-0.069666997,-0.125359997,0.054540001,-0.183414996,0.289793998,0.447566986,-0.134308994,-0.05979,-0.076606996,-0.601244986,0.07277,0.436435014,0.58078903,-0.744924009,-0.555993021,-0.151415005,-0.292766988,-0.408488005,0.168450996,0.560938001,-0.062843002,0.122386999,-0.500513017,0.097064003,0.249101996,0.379254013,0.160211995,-0.547766984,-0.721216977,0.360224992,0.765119016,-0.539816976,-0.090154998,0.474640995,-0.445311993,0.735458016,-0.541814983,0.309754014,0.595140994,0.292281002,-0.035034001,0.377279013,-0.356195003,-0.231609002,-0.465191007,0.462473005,-0.554732025,-0.188783005,0.210403994,0.125007004,-0.119631998,-0.187571004,-0.091719002,0.315692008,0.266591996,-0.439267009,0.02954,-0.352034986,-0.66494602,-0.083814003,-0.962122977,0.245444,-0.531535983,-0.055636998,0.742775977,0.495101005,-0.277103007,-0.697341979,0.195938006,-0.271380007,-0.793502986,-0.152355,-0.083021998,-0.533937991,0.206147,0.350874007,0.311549991,-0.651968002,-0.202295005,-0.094384,0.502743006,0.622680008
¼ì²â,0.549852014,1.727911949,-1.072723985,0.663006008,2.22873497,1.096526027,1.097677946,-0.513899982,-1.611155987,1.033576012,-2.345210075,1.275043964,0.076040998,-1.205119014,1.079198956,-0.853226006,-1.277763963,-1.462771058,0.590216994,0.101772003,-1.461720943,1.207898021,-0.491371006,0.080453999,0.405333012,1.663645029,1.139129996,0.842876017,-1.408161044,0.954645991,0.924750984,0.123966999,-0.484892011,-0.344357014,0.58802402,-0.002428,1.591233015,0.643552005,-0.489369988,0.562902987,1.347756028,-0.473637998,-1.609323025,0.292477995,0.725834012,-0.487901002,-0.591295004,-0.436701,0.831945002,-0.626794994,1.087396026,0.437880009,0.788394988,0.660184979,-0.683824003,-0.029673999,-0.028725,-0.790158987,-1.292415023,0.310213,-0.292308986,1.162528992,-1.392310977,-0.080782004,0.221963003,-1.067595959,-0.571664989,-0.214739993,-0.999276996,-0.728681982,0.205860004,-1.386777043,0.632135987,0.276073009,-0.482811004,1.729902983,1.213992,0.406910986,0.321411014,-0.338997006,0.473753989,-1.222743988,-0.237854004,-0.866060019,0.476397008,-0.016388999,1.145799994,-2.346565962,1.160640001,0.846533,0.281291008,-1.976915956,-0.326840013,-0.819956005,1.489253044,-0.831432998,0.121578999,0.876365006,0.386543006,1.701737046,1.191154003,0.729611993,-0.266914994,1.351487994,-0.093832001,-1.747653961,0.80172801,-0.47477001,0.953842998,-0.304369986,-0.940150023,-2.964318991,-0.793269992,1.502228022,-0.172217995,0.608171999,2.192626953,0.271055996,0.667734981,1.65794003,-0.36185199,-0.313380003,1.33524096,-1.755790949,-0.855035007,1.541677952,-1.113011956,-0.913739026,-0.178489998,1.294957995,0.669421971,-1.163501978,-1.571485996,0.348444015,-0.029146001,2.602854013,0.70934999,0.102926001,2.034756899,0.000909,1.474557996,-0.155946001,-0.896220028,0.996887982,-0.130624995,1.642595053,-0.84563899,-0.514302015,0.275873989,-2.398418903,0.526625991,-1.098996043,-0.536020994,-0.507499993,-0.059384,0.723111987,-0.009247,2.029201031,-1.321025014,-0.771036983,0.724128008,0.248106003,0.060965002,-2.549817085,0.195864007,0.186825007,1.037368059,0.776987016,-0.702315986,-1.265126944,0.79332602,-0.849870026,0.723508,0.083511002,0.37212801,0.775331974,0.96934402,1.078861952,-0.863695979,1.438910961,0.269827008,1.130125046,0.038631,-1.508659959,1.068887949,0.420037001,0.220690995,-1.014963031,-0.998978972,2.243941069,1.213907003,-0.074657001,1.328747988,-0.455350995,-1.169842958,1.144520044,0.805028021,-0.826355994,0.226934001,0.626039028,1.032583952,-0.314628005,-2.341084003,0.125219002,0.494096994,-0.312451988,1.278388023,0.503966987,0.079719998,1.63587606,-0.772879004,-0.823014021,0.767436981,-1.398869991,0.265145004,-0.596692979,-0.772113979,-0.321534991,0.342779994,-0.613095999,0.86601001,1.365589976,0.62441802,-1.030001044,0.653207004,-0.591189981,-1.120280981,0.033549,0.746806026,0.375546008,-0.505558014,0.470950007,0.053550001,-1.433197021,2.100863934,-1.425219059,-0.039375,0.231801003,-0.081225,-0.864859998,0.241283998,0.217607006,0.046287999,0.72724402,-1.185024023,-0.085028999,-0.081601001,-0.68333602,-0.38954401,0.306095004,0.812942028,-0.239013001,0.883412004,-1.187312007,-1.274405956,-0.01622,1.623412013,-1.111076951,0.820070028,2.234931946,-1.661110997,0.422329992,0.788097978,-1.463240981,-2.677975893,-0.088986002,0.161377996,-0.458451003,0.25940299,-0.78104502,0.326229006,1.397511005,-0.407997012,2.800525904,0.605477989,1.583184004,-0.478255987,-0.749673009,-0.687129021,0.167143002,-1.550191998,-0.310472012,-0.285879999,-0.724138021,-0.786279976,0.911544025,0.108469002,1.104894042,-1.218595982,-0.918704987,-0.756287992,0.98002702,-0.797590017,-1.101006985,0.402657002,1.88517797,0.562501013,-0.897849023,-1.397516012,0.123618998,-0.170250997,-1.068886995,-0.725337029,0.413058013,-0.424495995,-0.084095001,-0.373228014,-0.620258987,0.243365005,1.061373949,-0.006234,-0.233161002,0.152392,-1.049365997,0.81201297,-1.292471051,1.260805964,0.118707001,0.950636983,0.282887995,0.279852003,1.041170001,1.022719026,0.785695016,-0.549902976,-1.518671989,0.039631002,-0.277826011,-0.592952013,1.225000978,-0.230401993,-1.500828028,-1.512676001,-0.63646102,0.201855004,-0.514438987,1.187921047,0.510260999,0.831017971,-0.806755006,0.891290009,1.295909047,-1.616858959,-0.484517008,1.281685948,-0.498001993,-0.172464997,1.941027999,-0.467698008,-0.520989001,-0.713522017,0.098808996,1.172191978,0.034511998,0.948907971,-1.000391006,-0.492493004,-0.415955991,-2.569071054,3.056972981,-1.039440036,-0.830865026,-1.229908943,0.944435,-1.07246995,-1.802811027,-0.963518023,-0.149590999,-0.225732997,-1.272186995,-0.357219994,-1.397385955,0.32418099,1.402474999,-0.869917989,-0.210516006,-1.561738014,-2.270490885,-0.156549007,-0.385708004,-0.053755999,0.75809902,1.748146057,-0.407249987,0.907186985,-0.265363991,0.162717,-0.611078024,-2.179001093,-1.158476949,-0.539726019,-0.317016989,-0.778661013,-0.013492,-0.668734014,-0.735876024,-0.565946996,1.002442002,-0.058405999,0.678578019,æ£€æµ?0.549852013588,1.727911949,-1.072723985,0.663006008,2.22873497,1.096526027,1.097677946,-0.513899982,-1.611155987,1.033576012,-2.345210075,1.275043964,0.076040998,-1.205119014,1.079198956,-0.853226006,-1.277763963,-1.462771058,0.590216994,0.101772003,-1.461720943,1.207898021,-0.491371006,0.080453999,0.405333012,1.663645029,1.139129996,0.842876017,-1.408161044,0.954645991,0.924750984,0.123966999,-0.484892011,-0.344357014,0.58802402,-0.002428,1.591233015,0.643552005,-0.489369988,0.562902987,1.347756028,-0.473637998,-1.609323025,0.292477995,0.725834012,-0.487901002,-0.591295004,-0.436701,0.831945002,-0.626794994,1.087396026,0.437880009,0.788394988,0.660184979,-0.683824003,-0.029673999,-0.028725,-0.790158987,-1.292415023,0.310213,-0.292308986,1.162528992,-1.392310977,-0.080782004,0.221963003,-1.067595959,-0.571664989,-0.214739993,-0.999276996,-0.728681982,0.205860004,-1.386777043,0.632135987,0.276073009,-0.482811004,1.729902983,1.213992,0.406910986,0.321411014,-0.338997006,0.473753989,-1.222743988,-0.237854004,-0.866060019,0.476397008,-0.016388999,1.145799994,-2.346565962,1.160640001,0.846533,0.281291008,-1.976915956,-0.326840013,-0.819956005,1.489253044,-0.831432998,0.121578999,0.876365006,0.386543006,1.701737046,1.191154003,0.729611993,-0.266914994,1.351487994,-0.093832001,-1.747653961,0.80172801,-0.47477001,0.953842998,-0.304369986,-0.940150023,-2.964318991,-0.793269992,1.502228022,-0.172217995,0.608171999,2.192626953,0.271055996,0.667734981,1.65794003,-0.36185199,-0.313380003,1.33524096,-1.755790949,-0.855035007,1.541677952,-1.113011956,-0.913739026,-0.178489998,1.294957995,0.669421971,-1.163501978,-1.571485996,0.348444015,-0.029146001,2.602854013,0.70934999,0.102926001,2.034756899,0.000909,1.474557996,-0.155946001,-0.896220028,0.996887982,-0.130624995,1.642595053,-0.84563899,-0.514302015,0.275873989,-2.398418903,0.526625991,-1.098996043,-0.536020994,-0.507499993,-0.059384,0.723111987,-0.009247,2.029201031,-1.321025014,-0.771036983,0.724128008,0.248106003,0.060965002,-2.549817085,0.195864007,0.186825007,1.037368059,0.776987016,-0.702315986,-1.265126944,0.79332602,-0.849870026,0.723508,0.083511002,0.37212801,0.775331974,0.96934402,1.078861952,-0.863695979,1.438910961,0.269827008,1.130125046,0.038631,-1.508659959,1.068887949,0.420037001,0.220690995,-1.014963031,-0.998978972,2.243941069,1.213907003,-0.074657001,1.328747988,-0.455350995,-1.169842958,1.144520044,0.805028021,-0.826355994,0.226934001,0.626039028,1.032583952,-0.314628005,-2.341084003,0.125219002,0.494096994,-0.312451988,1.278388023,0.503966987,0.079719998,1.63587606,-0.772879004,-0.823014021,0.767436981,-1.398869991,0.265145004,-0.596692979,-0.772113979,-0.321534991,0.342779994,-0.613095999,0.86601001,1.365589976,0.62441802,-1.030001044,0.653207004,-0.591189981,-1.120280981,0.033549,0.746806026,0.375546008,-0.505558014,0.470950007,0.053550001,-1.433197021,2.100863934,-1.425219059,-0.039375,0.231801003,-0.081225,-0.864859998,0.241283998,0.217607006,0.046287999,0.72724402,-1.185024023,-0.085028999,-0.081601001,-0.68333602,-0.38954401,0.306095004,0.812942028,-0.239013001,0.883412004,-1.187312007,-1.274405956,-0.01622,1.623412013,-1.111076951,0.820070028,2.234931946,-1.661110997,0.422329992,0.788097978,-1.463240981,-2.677975893,-0.088986002,0.161377996,-0.458451003,0.25940299,-0.78104502,0.326229006,1.397511005,-0.407997012,2.800525904,0.605477989,1.583184004,-0.478255987,-0.749673009,-0.687129021,0.167143002,-1.550191998,-0.310472012,-0.285879999,-0.724138021,-0.786279976,0.911544025,0.108469002,1.104894042,-1.218595982,-0.918704987,-0.756287992,0.98002702,-0.797590017,-1.101006985,0.402657002,1.88517797,0.562501013,-0.897849023,-1.397516012,0.123618998,-0.170250997,-1.068886995,-0.725337029,0.413058013,-0.424495995,-0.084095001,-0.373228014,-0.620258987,0.243365005,1.061373949,-0.006234,-0.233161002,0.152392,-1.049365997,0.81201297,-1.292471051,1.260805964,0.118707001,0.950636983,0.282887995,0.279852003,1.041170001,1.022719026,0.785695016,-0.549902976,-1.518671989,0.039631002,-0.277826011,-0.592952013,1.225000978,-0.230401993,-1.500828028,-1.512676001,-0.63646102,0.201855004,-0.514438987,1.187921047,0.510260999,0.831017971,-0.806755006,0.891290009,1.295909047,-1.616858959,-0.484517008,1.281685948,-0.498001993,-0.172464997,1.941027999,-0.467698008,-0.520989001,-0.713522017,0.098808996,1.172191978,0.034511998,0.948907971,-1.000391006,-0.492493004,-0.415955991,-2.569071054,3.056972981,-1.039440036,-0.830865026,-1.229908943,0.944435,-1.07246995,-1.802811027,-0.963518023,-0.149590999,-0.225732997,-1.272186995,-0.357219994,-1.397385955,0.32418099,1.402474999,-0.869917989,-0.210516006,-1.561738014,-2.270490885,-0.156549007,-0.385708004,-0.053755999,0.75809902,1.748146057,-0.407249987,0.907186985,-0.265363991,0.162717,-0.611078024,-2.179001093,-1.158476949,-0.539726019,-0.317016989,-0.778661013,-0.013492,-0.668734014,-0.735876024,-0.565946996,1.002442002,-0.058405999,0.678578019,
Ê¹ÄÜ,-0.168688998,0.021260001,-0.072035998,-0.115552001,0.044397999,0.083998002,0.152596995,-0.006518,0.175387993,-0.085600004,-0.117632002,0.026210999,-0.01364,0.033895999,-0.181317002,-0.011864,-0.033636,0.027026,0.027389999,-0.200969994,0.009325,-0.088445,0.096931003,0.004835,0.187381998,0.073677003,-0.236710995,0.139321998,-0.158961996,-0.077853002,-0.068634003,0.121609002,-0.190997005,0.125128999,-0.041724,0.162912995,0.076258004,-0.276145011,0.157919005,-0.042653002,0.075687997,-0.052831002,-0.043196999,-0.173638001,-0.085297003,-0.116109997,-0.115415998,0.103629999,-0.006967,0.031676002,0.037214998,-0.186203003,-0.134531006,0.270442009,-0.030479001,-0.008921,0.086434998,-0.110735998,-0.165782005,0.267141998,-0.059572,0.030857001,0.122824997,-0.206817999,-0.090069003,0.103990003,-0.086277001,-0.201277003,-0.012737,-0.010847,-0.011202,-0.057987001,0.060676999,-0.158480003,-0.018603001,-0.305474013,0.044789001,-0.244173005,0.051623002,0.199579,-0.171939,-0.177140996,0.086438999,0.115411997,0.209575996,-0.076996997,0.011186,0.004197,0.029619999,-0.269028991,0.076522999,0.072415002,-0.01526,0.257681012,0.064157002,0.005204,-0.024428001,0.009167,-0.148232996,-0.099509001,0.277581006,-0.048882,0.123058997,0.016922999,0.075916998,-0.127024993,0.065543003,0.152443007,-0.168421999,-0.025606001,0.048459001,-0.425370008,-0.001852,-0.101714,0.063763,0.041338999,0.077991001,-0.031661998,0.112462997,0.019701,0.114171997,-0.112855002,-0.136617005,-0.182996005,-0.094656996,-0.003704,0.106755003,0.072694004,-0.043327,0.009125,-0.054482002,-0.222451001,-0.076416001,-0.007545,0.006356,-0.127478004,-0.025789,-0.251064003,0.113222003,-0.031068999,-0.195267007,0.004488,0.001897,-0.013037,0.033206001,-0.168816999,-0.084031999,-0.379087001,-0.041664999,0.046608001,0.081666,-0.024246,0.003598,0.035057001,0.153708994,0.043088,0.006939,-0.02722,-0.295704007,0.012361,0.014877,-0.222480997,-0.027310001,-0.091187999,-0.087468997,0.072122,0.052873001,0.015536,0.07102,-0.149459004,-0.187224999,0.238818005,-0.096952997,0.171691,0.164597005,0.073654003,0.003671,0.163975999,-0.031351998,-0.009489,-0.225373,0.073661,-0.007734,0.082151003,-0.022522001,0.059126001,0.102084003,0.081649996,0.014019,0.024095999,0.177470997,0.049922001,0.107780002,0.183660999,0.107837997,-0.125698999,-0.127058998,0.041101001,0.029851001,0.096367002,0.028026,-0.10125,0.104096003,0.043818001,-0.009679,0.250784993,0.06126,0.173090994,0.079786003,0.062801003,-0.145916998,0.061880998,0.005757,0.171407998,0.017689001,-0.048833001,-0.072871,-0.072858997,-0.013488,-0.200253993,0.068829,0.034522001,0.133111998,0.144718006,0.119340003,-0.067642003,0.060061999,-0.058881,0.084546,0.024351999,-0.071681,0.035289001,-0.144884005,-0.082539,0.127320006,-0.022779001,-0.001591,-0.203531995,0.171728,0.049993001,0.057932999,0.140744001,0.065413997,0.186607003,-0.293541998,-0.115731001,0.009876,-0.055305999,-0.127155006,-0.143050998,-0.106324002,0.126704007,-0.127684996,0.073858,-0.156035006,0.117564,0.023495,0.024064999,0.284741014,0.032605,-0.104578003,0.004154,6.00E-05,-0.187934995,0.086497001,-0.215102002,-0.133491993,0.112934001,0.017155999,-0.313268006,-0.001761,-0.227598995,-0.073738001,-0.017337,-0.130831003,-0.125960007,-0.229590997,-0.332296014,-0.131546006,0.014657,-0.079593003,-0.019288,0.074888997,0.300485998,-0.019385001,0.070538998,0.076679997,-0.014216,-0.074796997,-0.014655,0.036826,0.094815001,0.075150996,-0.172254995,0.200657994,0.046991002,0.185960993,0.009333,0.256532013,0.165193006,-0.069780998,0.197926,-0.101663001,0.102733001,0.172325,-0.063750997,0.096115999,0.014909,-0.156100005,0.264313996,-0.370418012,0.021752,0.101039,0.028121,0.129473001,-0.159840003,-0.160316005,0.113868997,0.075085998,-0.04115,-0.050496999,0.027861999,-0.169608995,-0.065714002,0.120196,0.171515003,-0.034189999,-0.069807,-0.024320001,0.339617997,-0.073803999,-0.119065002,-0.030407,0.084206,0.236085996,-0.021458,-0.089472003,0.074123003,-0.171070993,-0.119130999,-0.015887,-0.0051,0.134150997,-0.204822004,-0.082593001,-0.159219995,-0.097170003,-0.080131002,0.094636001,0.016757,-0.162738994,-0.169075996,0.007939,0.000142,0.077462003,-0.083669998,0.197022006,0.080416001,0.115575999,0.087742001,-0.059682999,0.215076998,0.022232,-0.075317003,-0.116235003,-0.084564,-0.085533999,-0.209062994,-0.230788007,0.069963001,-0.066927001,-0.096624002,-0.037204999,0.009966,0.032476999,-0.046932999,-0.289198995,-0.178822994,-0.079962,-0.094135001,-0.078038998,-0.093131997,0.303158998,0.112148002,0.186245993,-0.145226002,0.00333,0.039903,-0.122091003,0.046512,-0.099616997,0.108014002,0.118699998,-0.129968002,-0.211789995,-0.002332,0.276071012,-0.128279999,0.015991,0.318803996,ä½¿èƒ½,-0.168688998,0.021260001,-0.072035998,-0.115552001,0.044397999,0.083998002,0.152596995,-0.006518,0.175387993,-0.085600004,-0.117632002,0.026210999,-0.01364,0.033895999,-0.181317002,-0.011864,-0.033636,0.027026,0.027389999,-0.200969994,0.009325,-0.088445,0.096931003,0.004835,0.187381998,0.073677003,-0.236710995,0.139321998,-0.158961996,-0.077853002,-0.068634003,0.121609002,-0.190997005,0.125128999,-0.041724,0.162912995,0.076258004,-0.276145011,0.157919005,-0.042653002,0.075687997,-0.052831002,-0.043196999,-0.173638001,-0.085297003,-0.116109997,-0.115415998,0.103629999,-0.006967,0.031676002,0.037214998,-0.186203003,-0.134531006,0.270442009,-0.030479001,-0.008921,0.086434998,-0.110735998,-0.165782005,0.267141998,-0.059572,0.030857001,0.122824997,-0.206817999,-0.090069003,0.103990003,-0.086277001,-0.201277003,-0.012737,-0.010847,-0.011202,-0.057987001,0.060676999,-0.158480003,-0.018603001,-0.305474013,0.044789001,-0.244173005,0.051623002,0.199579,-0.171939,-0.177140996,0.086438999,0.115411997,0.209575996,-0.076996997,0.011186,0.004197,0.029619999,-0.269028991,0.076522999,0.072415002,-0.01526,0.257681012,0.064157002,0.005204,-0.024428001,0.009167,-0.148232996,-0.099509001,0.277581006,-0.048882,0.123058997,0.016922999,0.075916998,-0.127024993,0.065543003,0.152443007,-0.168421999,-0.025606001,0.048459001,-0.425370008,-0.001852,-0.101714,0.063763,0.041338999,0.077991001,-0.031661998,0.112462997,0.019701,0.114171997,-0.112855002,-0.136617005,-0.182996005,-0.094656996,-0.003704,0.106755003,0.072694004,-0.043327,0.009125,-0.054482002,-0.222451001,-0.076416001,-0.007545,0.006356,-0.127478004,-0.025789,-0.251064003,0.113222003,-0.031068999,-0.195267007,0.004488,0.001897,-0.013037,0.033206001,-0.168816999,-0.084031999,-0.379087001,-0.041664999,0.046608001,0.081666,-0.024246,0.003598,0.035057001,0.153708994,0.043088,0.006939,-0.02722,-0.295704007,0.012361,0.014877,-0.222480997,-0.027310001,-0.091187999,-0.087468997,0.072122,0.052873001,0.015536,0.07102,-0.149459004,-0.187224999,0.238818005,-0.096952997,0.171691,0.164597005,0.073654003,0.003671,0.163975999,-0.031351998,-0.009489,-0.225373,0.073661,-0.007734,0.082151003,-0.022522001,0.059126001,0.102084003,0.081649996,0.014019,0.024095999,0.177470997,0.049922001,0.107780002,0.183660999,0.107837997,-0.125698999,-0.127058998,0.041101001,0.029851001,0.096367002,0.028026,-0.10125,0.104096003,0.043818001,-0.009679,0.250784993,0.06126,0.173090994,0.079786003,0.062801003,-0.145916998,0.061880998,0.005757,0.171407998,0.017689001,-0.048833001,-0.072871,-0.072858997,-0.013488,-0.200253993,0.068829,0.034522001,0.133111998,0.144718006,0.119340003,-0.067642003,0.060061999,-0.058881,0.084546,0.024351999,-0.071681,0.035289001,-0.144884005,-0.082539,0.127320006,-0.022779001,-0.001591,-0.203531995,0.171728,0.049993001,0.057932999,0.140744001,0.065413997,0.186607003,-0.293541998,-0.115731001,0.009876,-0.055305999,-0.127155006,-0.143050998,-0.106324002,0.126704007,-0.127684996,0.073858,-0.156035006,0.117564,0.023495,0.024064999,0.284741014,0.032605,-0.104578003,0.004154,6.00E-05,-0.187934995,0.086497001,-0.215102002,-0.133491993,0.112934001,0.017155999,-0.313268006,-0.001761,-0.227598995,-0.073738001,-0.017337,-0.130831003,-0.125960007,-0.229590997,-0.332296014,-0.131546006,0.014657,-0.079593003,-0.019288,0.074888997,0.300485998,-0.019385001,0.070538998,0.076679997,-0.014216,-0.074796997,-0.014655,0.036826,0.094815001,0.075150996,-0.172254995,0.200657994,0.046991002,0.185960993,0.009333,0.256532013,0.165193006,-0.069780998,0.197926,-0.101663001,0.102733001,0.172325,-0.063750997,0.096115999,0.014909,-0.156100005,0.264313996,-0.370418012,0.021752,0.101039,0.028121,0.129473001,-0.159840003,-0.160316005,0.113868997,0.075085998,-0.04115,-0.050496999,0.027861999,-0.169608995,-0.065714002,0.120196,0.171515003,-0.034189999,-0.069807,-0.024320001,0.339617997,-0.073803999,-0.119065002,-0.030407,0.084206,0.236085996,-0.021458,-0.089472003,0.074123003,-0.171070993,-0.119130999,-0.015887,-0.0051,0.134150997,-0.204822004,-0.082593001,-0.159219995,-0.097170003,-0.080131002,0.094636001,0.016757,-0.162738994,-0.169075996,0.007939,0.000142,0.077462003,-0.083669998,0.197022006,0.080416001,0.115575999,0.087742001,-0.059682999,0.215076998,0.022232,-0.075317003,-0.116235003,-0.084564,-0.085533999,-0.209062994,-0.230788007,0.069963001,-0.066927001,-0.096624002,-0.037204999,0.009966,0.032476999,-0.046932999,-0.289198995,-0.178822994,-0.079962,-0.094135001,-0.078038998,-0.093131997,0.303158998,0.112148002,0.186245993,-0.145226002,0.00333,0.039903,-0.122091003,0.046512,-0.099616997,0.108014002,0.118699998,-0.129968002,-0.211789995,-0.002332,0.276071012,-0.128279999,0.015991,0.318803996
É²³µ,0.090876997,1.38172698,0.907289028,-0.044337999,1.57208395,-0.136317,1.055243969,-0.565504014,0.499067992,1.345589995,-0.947941005,-0.372566015,-0.778236985,-0.170477003,0.078124002,-0.068714999,-0.200593993,-0.202207997,0.114497997,-1.495290041,-0.577051997,-0.159937993,-0.460471988,-0.325437993,0.229284003,1.416754007,-0.536872983,0.907962024,-0.969048023,0.917979002,-0.014346,-1.342371941,0.336748987,-0.109373003,0.066742003,1.035866022,0.452610999,-1.290668011,-0.006265,0.532274008,1.053617001,-0.543920994,-1.417281985,0.380966008,0.425610989,-0.517382026,-0.264692008,-0.741011977,0.169955,-0.197504997,0.597146988,-0.03641,-0.113176003,0.823695004,-0.629903972,-0.741195023,-0.69321698,-0.562138021,-0.488541991,1.485288024,-0.364124,-0.360985994,-0.805438995,-0.360036999,-0.971467972,0.790902019,0.162836999,-1.51494205,0.170194998,-0.144186005,-0.758195996,0.256825,0.021648001,0.470807999,-0.51137501,1.775472999,0.152841002,0.076505996,0.665983975,0.767889977,-0.393362999,0.317887008,0.100653999,0.686670005,1.141443014,-1.383599043,0.212075993,-0.221869007,-0.721450984,-1.269701004,0.500566006,0.966504991,0.126117006,0.599982977,0.51453799,-0.197412997,-1.203065038,0.798987985,-1.160830021,0.752745986,0.050655,-0.091398001,-0.702683985,0.841113985,-0.952646971,-0.450408012,0.355809987,-0.696667016,0.848300993,0.705470979,-0.725374997,-1.638131022,-0.168666005,-0.232088,0.051978,0.008576,1.071928024,-0.453236014,0.208298996,0.751833975,-0.570554972,-0.401012987,0.276706994,-0.348641008,0.71974498,0.83712399,-0.408068001,0.011594,0.153139994,-0.316404015,0.315571994,-0.557830989,-0.422491997,0.356409013,-0.594429016,0.263837993,-0.193378001,-0.807000995,1.362655997,-0.708396018,-0.089799002,0.055775002,0.236845002,0.416336,-0.079663999,-0.626268029,-1.532888055,-0.100198001,-0.225851998,-1.167057991,0.44057101,-1.017835975,0.051959999,0.126379997,0.923833013,-0.727642,0.510810971,-0.587556005,-0.474070013,-0.001545,0.64734602,-0.359438986,-0.942211986,-0.093166001,0.004834,0.20487,-0.319402993,-0.586272001,-1.318619967,-0.36491999,0.149243996,-1.191463947,0.692224979,0.737434983,1.723029971,1.301599979,0.610297024,0.833257973,0.054768,1.149345994,-0.081671,0.642428994,-0.75287801,0.334643006,-0.72389102,0.936423004,0.238407999,0.109958999,0.022087,-0.167853996,0.994877994,0.258543998,-0.383962989,0.087696001,-0.306075007,-0.451905996,0.680433989,-0.725372016,0.404720008,-0.067410998,-0.448199004,0.610005975,-0.961502016,-0.060961999,-0.690007985,0.115053996,-0.434801012,0.354050994,0.36491701,0.532302022,1.428675056,-0.005041,0.198240995,-1.253764033,0.554650009,0.55290997,-0.981495023,-0.492038995,0.196798995,-0.880019009,-0.60036999,-0.391938001,0.672152996,-0.995117009,0.660187006,-0.490283012,-0.150298998,0.146171004,0.83128202,-0.783644974,-0.250180006,0.746280015,0.332318991,-0.802879989,0.719370008,-0.418422014,-0.798039019,-0.699178994,-0.039113,0.125327006,-1.149446011,0.260165989,0.509519994,0.287732989,-0.198593006,0.077581003,0.665811002,0.752735019,-0.509395003,0.487455994,-0.30615899,0.446967006,0.233106002,0.133772001,-0.184925005,1.173285961,0.317582011,0.056518,0.647022009,1.256338,-0.428323001,0.639183998,0.653199017,0.072733,-0.923732996,-1.955729961,0.449526012,0.481821001,-1.353579044,0.190399006,-0.003548,-0.480792999,-0.427331001,0.393655002,0.234353006,-0.297423005,-0.855651975,-0.126181006,0.528006017,1.231528044,0.431939006,1.082229972,0.156215996,0.113945998,-1.08396697,-0.227121994,0.688328981,0.310274005,0.343353003,-0.001118,0.328772992,1.336799026,0.074725002,-1.269770026,0.180959001,-0.144837007,0.119957998,-0.107508004,0.311506987,-0.175934002,0.473924011,-0.385129005,0.045738,-0.433809996,1.056031942,0.419750005,-1.518759966,-0.714448988,-0.213953003,0.313008994,-0.924677014,-0.558794975,1.122210026,-0.269035995,0.094203003,0.500927985,-0.528620005,-0.594558001,-0.012225,-0.187979996,0.108181998,-0.679389,0.041469,0.309157014,-0.157321006,-0.12466,0.328280002,-0.088482998,0.717770994,-0.272448987,0.620096982,-1.042930007,-0.746747971,-0.459535003,0.159367993,-0.336551011,-0.088079996,0.962661028,0.574442029,-0.22383,-1.042181969,-0.223018005,0.416373014,-0.168026,-0.125098005,-0.75770098,-1.434450984,0.566510975,1.049236059,-0.726006985,0.784766018,1.109959006,-0.861054003,0.645134985,-0.01447,0.328608006,0.897248983,0.825079978,-0.209966004,0.854734004,-0.58396399,-0.177073002,-0.869700015,0.167616993,-1.188475013,-0.867160022,-0.254880995,0.541257024,-0.649677992,-0.655598998,-0.353542,0.161625996,0.055794999,-0.709232986,0.307868004,-0.816847026,-1.824213982,-1.368355036,-1.933339,-0.139216006,-0.571024001,0.30596301,1.528362036,0.261967003,-0.043163002,-0.717984021,0.016282,-0.134551004,-1.63546598,-0.090958998,-0.471778989,-0.689647973,-0.180536002,-0.285674989,0.259909004,-1.127133012,-0.687036991,-0.004205,0.232540995,0.250779986,åˆ¹è½¦,0.090876997,1.38172698,0.907289028,-0.044337999,1.57208395,-0.136317,1.055243969,-0.565504014,0.499067992,1.345589995,-0.947941005,-0.372566015,-0.778236985,-0.170477003,0.078124002,-0.068714999,-0.200593993,-0.202207997,0.114497997,-1.495290041,-0.577051997,-0.159937993,-0.460471988,-0.325437993,0.229284003,1.416754007,-0.536872983,0.907962024,-0.969048023,0.917979002,-0.014346,-1.342371941,0.336748987,-0.109373003,0.066742003,1.035866022,0.452610999,-1.290668011,-0.006265,0.532274008,1.053617001,-0.543920994,-1.417281985,0.380966008,0.425610989,-0.517382026,-0.264692008,-0.741011977,0.169955,-0.197504997,0.597146988,-0.03641,-0.113176003,0.823695004,-0.629903972,-0.741195023,-0.69321698,-0.562138021,-0.488541991,1.485288024,-0.364124,-0.360985994,-0.805438995,-0.360036999,-0.971467972,0.790902019,0.162836999,-1.51494205,0.170194998,-0.144186005,-0.758195996,0.256825,0.021648001,0.470807999,-0.51137501,1.775472999,0.152841002,0.076505996,0.665983975,0.767889977,-0.393362999,0.317887008,0.100653999,0.686670005,1.141443014,-1.383599043,0.212075993,-0.221869007,-0.721450984,-1.269701004,0.500566006,0.966504991,0.126117006,0.599982977,0.51453799,-0.197412997,-1.203065038,0.798987985,-1.160830021,0.752745986,0.050655,-0.091398001,-0.702683985,0.841113985,-0.952646971,-0.450408012,0.355809987,-0.696667016,0.848300993,0.705470979,-0.725374997,-1.638131022,-0.168666005,-0.232088,0.051978,0.008576,1.071928024,-0.453236014,0.208298996,0.751833975,-0.570554972,-0.401012987,0.276706994,-0.348641008,0.71974498,0.83712399,-0.408068001,0.011594,0.153139994,-0.316404015,0.315571994,-0.557830989,-0.422491997,0.356409013,-0.594429016,0.263837993,-0.193378001,-0.807000995,1.362655997,-0.708396018,-0.089799002,0.055775002,0.236845002,0.416336,-0.079663999,-0.626268029,-1.532888055,-0.100198001,-0.225851998,-1.167057991,0.44057101,-1.017835975,0.051959999,0.126379997,0.923833013,-0.727642,0.510810971,-0.587556005,-0.474070013,-0.001545,0.64734602,-0.359438986,-0.942211986,-0.093166001,0.004834,0.20487,-0.319402993,-0.586272001,-1.318619967,-0.36491999,0.149243996,-1.191463947,0.692224979,0.737434983,1.723029971,1.301599979,0.610297024,0.833257973,0.054768,1.149345994,-0.081671,0.642428994,-0.75287801,0.334643006,-0.72389102,0.936423004,0.238407999,0.109958999,0.022087,-0.167853996,0.994877994,0.258543998,-0.383962989,0.087696001,-0.306075007,-0.451905996,0.680433989,-0.725372016,0.404720008,-0.067410998,-0.448199004,0.610005975,-0.961502016,-0.060961999,-0.690007985,0.115053996,-0.434801012,0.354050994,0.36491701,0.532302022,1.428675056,-0.005041,0.198240995,-1.253764033,0.554650009,0.55290997,-0.981495023,-0.492038995,0.196798995,-0.880019009,-0.60036999,-0.391938001,0.672152996,-0.995117009,0.660187006,-0.490283012,-0.150298998,0.146171004,0.83128202,-0.783644974,-0.250180006,0.746280015,0.332318991,-0.802879989,0.719370008,-0.418422014,-0.798039019,-0.699178994,-0.039113,0.125327006,-1.149446011,0.260165989,0.509519994,0.287732989,-0.198593006,0.077581003,0.665811002,0.752735019,-0.509395003,0.487455994,-0.30615899,0.446967006,0.233106002,0.133772001,-0.184925005,1.173285961,0.317582011,0.056518,0.647022009,1.256338,-0.428323001,0.639183998,0.653199017,0.072733,-0.923732996,-1.955729961,0.449526012,0.481821001,-1.353579044,0.190399006,-0.003548,-0.480792999,-0.427331001,0.393655002,0.234353006,-0.297423005,-0.855651975,-0.126181006,0.528006017,1.231528044,0.431939006,1.082229972,0.156215996,0.113945998,-1.08396697,-0.227121994,0.688328981,0.310274005,0.343353003,-0.001118,0.328772992,1.336799026,0.074725002,-1.269770026,0.180959001,-0.144837007,0.119957998,-0.107508004,0.311506987,-0.175934002,0.473924011,-0.385129005,0.045738,-0.433809996,1.056031942,0.419750005,-1.518759966,-0.714448988,-0.213953003,0.313008994,-0.924677014,-0.558794975,1.122210026,-0.269035995,0.094203003,0.500927985,-0.528620005,-0.594558001,-0.012225,-0.187979996,0.108181998,-0.679389,0.041469,0.309157014,-0.157321006,-0.12466,0.328280002,-0.088482998,0.717770994,-0.272448987,0.620096982,-1.042930007,-0.746747971,-0.459535003,0.159367993,-0.336551011,-0.088079996,0.962661028,0.574442029,-0.22383,-1.042181969,-0.223018005,0.416373014,-0.168026,-0.125098005,-0.75770098,-1.434450984,0.566510975,1.049236059,-0.726006985,0.784766018,1.109959006,-0.861054003,0.645134985,-0.01447,0.328608006,0.897248983,0.825079978,-0.209966004,0.854734004,-0.58396399,-0.177073002,-0.869700015,0.167616993,-1.188475013,-0.867160022,-0.254880995,0.541257024,-0.649677992,-0.655598998,-0.353542,0.161625996,0.055794999,-0.709232986,0.307868004,-0.816847026,-1.824213982,-1.368355036,-1.933339,-0.139216006,-0.571024001,0.30596301,1.528362036,0.261967003,-0.043163002,-0.717984021,0.016282,-0.134551004,-1.63546598,-0.090958998,-0.471778989,-0.689647973,-0.180536002,-0.285674989,0.259909004,-1.127133012,-0.687036991,-0.004205,0.232540995,0.250779986
Ì¤°å,-0.28163901,0.656769991,0.921813011,0.389705986,1.640997052,0.56793499,0.818435013,-0.641368985,0.565549016,0.072242998,-0.784246027,-0.219904006,-0.30398199,-0.209225997,-0.163693994,-0.362221003,0.005881,0.143830001,0.395485997,-0.662873983,-0.500136018,-0.125522003,-0.463281006,0.141852006,0.026643001,0.98477298,-0.575721025,0.696559012,-0.966575027,0.467188001,-0.827709019,-0.425292999,0.78243202,-0.567829013,0.190821007,0.933981001,-0.788748026,-0.749790013,1.125782967,0.36430499,0.508544981,-0.779911995,-0.383641005,-0.536405981,0.071211003,-0.041675001,-0.172018006,-0.232749,0.243245006,0.243966997,0.207026005,-0.271517009,-0.420174003,0.540731013,-0.719204009,-0.337756991,0.392021,-1.046655059,-0.410136998,0.756168008,-1.16435504,-0.123713002,-0.245919004,-0.372022986,-0.489753008,1.369791031,0.336207002,-0.69096601,1.498036027,0.356265008,-0.898455024,0.457161009,0.481337994,0.660764992,-0.260681003,0.912734985,0.654655993,-0.62667501,-0.031107999,0.595836997,0.239765003,-0.359030008,0.161312997,0.261871994,0.294824988,-0.877068996,0.108240999,0.296232015,0.572463989,-0.36530599,0.743430018,1.148478985,0.009753,0.873735011,0.240660995,0.264822006,-0.398687005,0.746299982,-0.494767994,0.079972997,-0.163248003,-0.788996994,-0.075360999,1.020818949,-0.685585976,-0.306327999,0.663546979,-0.665829003,0.403537005,-0.060403001,-0.727558017,-1.322685957,0.269142002,0.156762004,-0.220753998,0.218761995,0.417941004,-1.136371017,0.137193993,0.612941027,-0.320715994,-0.033415999,0.467739999,0.032859001,0.565092981,1.053622007,-0.264147013,-0.611985981,0.522520006,-0.094430998,0.238503993,-1.028138042,-0.358801007,0.067561999,-0.816923022,-0.424181014,0.061083999,-0.507152975,0.000639,-0.448615015,-0.451335013,-0.692147017,0.223862007,0.117905997,-0.343620986,-8.00E-05,-0.817048013,-0.451406002,-0.249532998,-0.514670014,0.510764003,-0.362958014,0.234245002,0.43175599,0.740877986,-0.335166991,0.730636001,-0.594883978,-0.718674004,-0.210749,-0.071920998,-0.989422977,-0.402803987,-0.39458999,-0.454048008,-0.28776601,-0.182343006,-0.424865007,-0.943566978,-0.791082978,-0.800406992,-0.488680005,-0.204279006,0.013069,1.376278996,0.570554018,0.208950996,0.267181993,0.752406001,0.311767995,-0.173501,0.246369004,-0.666514993,0.494897008,-0.850208998,-0.087915003,0.064003997,0.756438971,0.616186976,-0.297598004,1.037994027,-0.187652007,-0.793083012,0.628764987,0.463683993,-0.061243001,0.731355011,-0.818333983,0.047183,0.058492001,-0.199511006,0.122542001,0.011118,0.235752001,-0.871434987,0.003776,-0.124067001,0.102141,-0.00373,0.569580019,0.278061986,-0.166216999,0.82732898,-1.192818999,0.137415007,0.794035971,-0.238836005,-0.006806,0.694882989,-0.427242011,-0.023484999,-0.505804002,1.118011951,-0.432494998,0.564055979,-0.173309997,0.105663002,-0.056736998,0.029786,0.269887,-0.774357975,1.000375032,-0.235682994,-0.33327201,0.195057005,-0.283944011,-0.542527974,-0.077941999,0.352526993,-0.301876009,-0.92297101,0.555530012,0.003701,0.54647398,0.039744001,0.473845989,-0.117325999,-0.044149,0.171087995,0.179826006,-0.628535986,0.340348989,0.505657017,0.105434,-0.097631998,-0.153418005,0.199763998,0.178549007,0.910411,0.578085005,-0.102549002,0.612879992,-0.178460002,-0.350901991,-0.115120001,-0.884202003,0.475928009,0.430002987,-0.756901979,0.508144021,0.606530011,-1.050884962,-0.277848989,0.283964992,-0.088512003,-0.738856018,-0.506695986,-0.063519999,0.652266979,0.022531999,0.188011006,0.893757999,0.524778008,0.082194,-0.412205994,-0.745815992,-0.024703,-0.162622005,0.649094999,0.139206007,-0.201719999,1.020568967,0.119280003,-0.084688999,0.209343001,-0.270817995,-0.434879005,-0.38944301,0.038683999,-0.142747998,0.285391986,-0.348558992,-0.300161988,-0.162108004,0.561398983,0.764379025,-1.050145984,0.046220001,0.168158993,0.571712971,-0.985912025,-0.684009016,0.473192006,-0.054111,-0.303447992,0.170175001,-0.227751002,0.442654997,-0.025436999,-0.279289991,-0.078397997,-0.516201019,-0.084807001,-0.576466024,-0.101462997,-0.134381995,-0.115277998,-0.306881011,0.251791,-0.418453991,0.849336982,0.003252,-0.339632988,-0.232071996,-0.467611015,-0.346249014,-0.332195014,0.881869018,0.106553003,0.414905012,-0.52098,0.227684006,0.074458003,0.254453987,0.472822994,-0.36806199,-0.361203015,0.236157,0.891045988,0.037774,0.147835001,0.755127013,-0.578853011,0.708196998,-0.139443994,-0.130062997,-0.018005,0.643764973,-0.090255,0.765956998,-0.86805898,-0.300884992,-0.758633971,0.117255002,-0.347698987,-0.792005002,0.462879002,-0.081338003,-0.520962,-0.279715002,-0.527158022,0.221882999,0.395579994,-0.10723,-0.460188001,-0.719953001,-1.046892047,-0.303947002,-1.041419029,0.415107995,-1.117277026,-0.030532001,1.340304017,0.273894995,0.065361999,-1.001551032,0.274464011,-0.445787013,-1.033532977,0.57080698,-0.234945998,0.128364995,-0.329028994,0.405494004,0.180618003,-0.624974012,-0.036963999,0.049417999,-0.115073003,0.207695007,è¸æ¿,-0.28163901,0.656769991,0.921813011,0.389705986,1.640997052,0.56793499,0.818435013,-0.641368985,0.565549016,0.072242998,-0.784246027,-0.219904006,-0.30398199,-0.209225997,-0.163693994,-0.362221003,0.005881,0.143830001,0.395485997,-0.662873983,-0.500136018,-0.125522003,-0.463281006,0.141852006,0.026643001,0.98477298,-0.575721025,0.696559012,-0.966575027,0.467188001,-0.827709019,-0.425292999,0.78243202,-0.567829013,0.190821007,0.933981001,-0.788748026,-0.749790013,1.125782967,0.36430499,0.508544981,-0.779911995,-0.383641005,-0.536405981,0.071211003,-0.041675001,-0.172018006,-0.232749,0.243245006,0.243966997,0.207026005,-0.271517009,-0.420174003,0.540731013,-0.719204009,-0.337756991,0.392021,-1.046655059,-0.410136998,0.756168008,-1.16435504,-0.123713002,-0.245919004,-0.372022986,-0.489753008,1.369791031,0.336207002,-0.69096601,1.498036027,0.356265008,-0.898455024,0.457161009,0.481337994,0.660764992,-0.260681003,0.912734985,0.654655993,-0.62667501,-0.031107999,0.595836997,0.239765003,-0.359030008,0.161312997,0.261871994,0.294824988,-0.877068996,0.108240999,0.296232015,0.572463989,-0.36530599,0.743430018,1.148478985,0.009753,0.873735011,0.240660995,0.264822006,-0.398687005,0.746299982,-0.494767994,0.079972997,-0.163248003,-0.788996994,-0.075360999,1.020818949,-0.685585976,-0.306327999,0.663546979,-0.665829003,0.403537005,-0.060403001,-0.727558017,-1.322685957,0.269142002,0.156762004,-0.220753998,0.218761995,0.417941004,-1.136371017,0.137193993,0.612941027,-0.320715994,-0.033415999,0.467739999,0.032859001,0.565092981,1.053622007,-0.264147013,-0.611985981,0.522520006,-0.094430998,0.238503993,-1.028138042,-0.358801007,0.067561999,-0.816923022,-0.424181014,0.061083999,-0.507152975,0.000639,-0.448615015,-0.451335013,-0.692147017,0.223862007,0.117905997,-0.343620986,-8.00E-05,-0.817048013,-0.451406002,-0.249532998,-0.514670014,0.510764003,-0.362958014,0.234245002,0.43175599,0.740877986,-0.335166991,0.730636001,-0.594883978,-0.718674004,-0.210749,-0.071920998,-0.989422977,-0.402803987,-0.39458999,-0.454048008,-0.28776601,-0.182343006,-0.424865007,-0.943566978,-0.791082978,-0.800406992,-0.488680005,-0.204279006,0.013069,1.376278996,0.570554018,0.208950996,0.267181993,0.752406001,0.311767995,-0.173501,0.246369004,-0.666514993,0.494897008,-0.850208998,-0.087915003,0.064003997,0.756438971,0.616186976,-0.297598004,1.037994027,-0.187652007,-0.793083012,0.628764987,0.463683993,-0.061243001,0.731355011,-0.818333983,0.047183,0.058492001,-0.199511006,0.122542001,0.011118,0.235752001,-0.871434987,0.003776,-0.124067001,0.102141,-0.00373,0.569580019,0.278061986,-0.166216999,0.82732898,-1.192818999,0.137415007,0.794035971,-0.238836005,-0.006806,0.694882989,-0.427242011,-0.023484999,-0.505804002,1.118011951,-0.432494998,0.564055979,-0.173309997,0.105663002,-0.056736998,0.029786,0.269887,-0.774357975,1.000375032,-0.235682994,-0.33327201,0.195057005,-0.283944011,-0.542527974,-0.077941999,0.352526993,-0.301876009,-0.92297101,0.555530012,0.003701,0.54647398,0.039744001,0.473845989,-0.117325999,-0.044149,0.171087995,0.179826006,-0.628535986,0.340348989,0.505657017,0.105434,-0.097631998,-0.153418005,0.199763998,0.178549007,0.910411,0.578085005,-0.102549002,0.612879992,-0.178460002,-0.350901991,-0.115120001,-0.884202003,0.475928009,0.430002987,-0.756901979,0.508144021,0.606530011,-1.050884962,-0.277848989,0.283964992,-0.088512003,-0.738856018,-0.506695986,-0.063519999,0.652266979,0.022531999,0.188011006,0.893757999,0.524778008,0.082194,-0.412205994,-0.745815992,-0.024703,-0.162622005,0.649094999,0.139206007,-0.201719999,1.020568967,0.119280003,-0.084688999,0.209343001,-0.270817995,-0.434879005,-0.38944301,0.038683999,-0.142747998,0.285391986,-0.348558992,-0.300161988,-0.162108004,0.561398983,0.764379025,-1.050145984,0.046220001,0.168158993,0.571712971,-0.985912025,-0.684009016,0.473192006,-0.054111,-0.303447992,0.170175001,-0.227751002,0.442654997,-0.025436999,-0.279289991,-0.078397997,-0.516201019,-0.084807001,-0.576466024,-0.101462997,-0.134381995,-0.115277998,-0.306881011,0.251791,-0.418453991,0.849336982,0.003252,-0.339632988,-0.232071996,-0.467611015,-0.346249014,-0.332195014,0.881869018,0.106553003,0.414905012,-0.52098,0.227684006,0.074458003,0.254453987,0.472822994,-0.36806199,-0.361203015,0.236157,0.891045988,0.037774,0.147835001,0.755127013,-0.578853011,0.708196998,-0.139443994,-0.130062997,-0.018005,0.643764973,-0.090255,0.765956998,-0.86805898,-0.300884992,-0.758633971,0.117255002,-0.347698987,-0.792005002,0.462879002,-0.081338003,-0.520962,-0.279715002,-0.527158022,0.221882999,0.395579994,-0.10723,-0.460188001,-0.719953001,-1.046892047,-0.303947002,-1.041419029,0.415107995,-1.117277026,-0.030532001,1.340304017,0.273894995,0.065361999,-1.001551032,0.274464011,-0.445787013,-1.033532977,0.57080698,-0.234945998,0.128364995,-0.329028994,0.405494004,0.180618003,-0.624974012,-0.036963999,0.049417999,-0.115073003,0.207695007
Ìí¼Ó,-0.119205996,1.535722971,0.502991974,0.57357502,1.624549031,0.771513999,-0.412209988,-0.679992974,0.71192801,0.459659994,-0.461663008,-0.354512006,-1.345931053,-0.636483014,0.30922401,-0.859259009,-0.139125004,0.057992,0.936334014,-1.080268025,-0.007042,-0.135521993,1.976300001,1.99850297,1.11500299,3.222232103,0.524685979,1.584249973,-0.044427,1.024289966,-1.892925978,-0.249529004,-0.066946998,-0.92542702,-0.218094006,-0.631462991,-1.308241963,0.061425,-0.477999985,0.847625971,1.018731952,0.202349007,-1.415930033,-0.661612988,1.070847988,1.397534966,0.976827025,-0.765802979,-0.57207799,0.449831992,1.859320045,-0.126862004,-0.236311004,1.456276059,-1.036618948,1.293120027,0.137088001,-0.723376989,-0.95875001,0.544722021,-2.092622042,1.945410967,-0.878288984,0.491867006,0.411529988,0.196557999,0.058318999,0.104788996,0.444231987,0.880796015,-1.550593972,-0.283710003,2.689943075,1.159247041,-0.853280008,1.105173945,0.456470996,-0.894416988,0.37074399,-0.704999983,-1.734272957,-0.66099298,1.027546048,-1.27463603,1.155074,0.280306995,0.025046,0.062451001,1.509937048,0.243723005,0.039958999,0.238903999,0.824306011,0.131451994,1.008767009,-0.093355,-0.315411001,0.80242902,-0.498703986,-0.637036979,1.813472033,0.840327024,0.055964001,0.283105999,-0.467552006,-1.898071051,1.592167974,0.669542015,0.238407999,-0.698104978,-0.834506989,-1.874930978,0.904501021,1.238247991,-1.325059056,0.991473019,1.87254405,-0.197062001,1.557927012,2.089898109,-0.418713987,-0.590777993,-0.182463005,0.638787985,-1.797083974,0.564494014,-1.870975018,1.040058017,-0.594336987,1.419955015,-0.01332,-1.276751041,1.433037043,1.573624015,-1.04420197,-0.239868,-0.182605997,0.639940023,1.768072963,0.447672993,1.018867016,0.193090007,0.651557982,-0.650672019,0.018766001,1.479189992,0.011971,-0.098375,-1.242614985,-1.07367003,1.379560947,0.908205986,0.720746994,0.28687799,0.694694996,0.708904982,1.346809983,2.353396893,-0.927607,-1.679960966,-0.636133015,-0.851737022,0.48318699,1.425369978,0.737935007,-0.206015006,0.29310599,0.681598008,-0.811990976,-1.286821961,-0.705944002,-1.451647043,0.828468978,0.288055003,1.430837989,1.398180962,0.766194999,-0.135663003,-0.855391979,-0.428817987,-1.454586983,-1.670722961,0.196960002,-0.74882102,-0.340732992,0.88251698,-0.176241994,1.733629942,0.443616003,-0.254700989,0.267201006,-0.134340003,0.017225999,0.381603986,-0.191384003,0.964219987,-0.160306007,-0.642373979,-0.543609977,1.079377055,-0.357241005,-1.715736985,-0.973164976,-1.116554022,-1.554913998,0.683233976,1.383456945,-0.980324984,-0.108083002,0.973671019,-1.629068017,0.116636999,1.422405958,-0.784577012,0.038417,-1.392174006,-1.081966996,-1.378409982,-0.269511998,-0.760807991,0.530770004,0.248999,-0.112998001,0.259626001,1.168671012,-0.757794976,0.931622982,-0.374229014,-2.061156034,-0.729405999,1.082774997,1.121214986,-0.199066997,-1.375332952,0.90121001,-1.387328029,-0.06402,1.763769031,-0.088330001,-0.237814993,0.417270005,-0.358512014,-0.751447976,0.815620005,0.744511008,0.503920019,-1.382980943,0.35631001,1.583917022,-0.400245011,0.500133991,-0.125414997,-0.045203999,-1.080415964,0.386296004,0.361301988,-0.656832993,0.339011014,-0.133266002,0.323359013,-0.509097993,0.136700004,-0.229139,-0.118055001,-1.027794957,-0.173657,1.375430942,0.438244998,-0.794026017,-0.168630004,1.450129032,-1.820394993,0.021880001,1.60431397,-1.432356954,-0.190849006,-0.201958001,0.911189973,1.966946006,-1.026471972,-0.011072,1.844634056,-0.434810013,-0.170671001,1.397147059,0.008512,-0.183293998,0.114321001,1.503386021,-0.565424979,-0.82625401,1.008308053,-0.902693987,0.126855001,2.078512907,1.549769998,0.591620982,-0.574223995,-1.376296043,-0.441668004,-0.738079011,-0.939558983,-0.34986499,2.104626894,0.460067987,1.764649034,-0.561438978,-0.806261003,0.75851202,1.140393019,-0.868108988,1.236958981,1.010882974,-0.933189988,-0.082405999,0.017824,-0.984892011,-0.397404999,0.219216004,-0.590929985,1.177472949,-0.724400997,-1.438734055,1.178822041,0.252099007,0.679885983,0.051387999,0.619293988,-0.486781001,-1.772542953,0.468771994,-0.138735995,-0.28549999,1.080876946,0.571111977,1.27702105,1.702288985,1.190793991,0.552083015,0.406017005,-0.037687,1.933177948,0.63024801,-0.545475006,0.801353991,-0.961907983,1.578698993,0.833486021,-1.416877031,2.014043093,0.110471003,-1.05708003,0.824598014,-0.587653995,1.405987024,-0.502726972,-1.326825976,0.940297008,-0.116313003,2.878483057,1.391845942,0.173345998,0.455193013,-1.12598598,0.036431,-1.173990965,0.322854012,-0.092986003,1.724053025,0.323197007,-1.862527013,-1.640552044,-1.134062052,1.267487049,-0.62412101,-1.625771046,-0.65654099,0.263687015,-0.878933012,-0.219519004,-0.136740997,0.533703029,1.318300009,-0.291987002,0.808196008,-0.678569973,-0.348641992,-0.334706008,-2.00821805,1.486600041,0.235404998,-0.68858999,-2.371042013,-0.479568988,1.956670046,-0.97517699,-0.777631998,1.752642035,0.130045995,1.220528007,æ·»åŠ ,-0.119205996,1.535722971,0.502991974,0.57357502,1.624549031,0.771513999,-0.412209988,-0.679992974,0.71192801,0.459659994,-0.461663008,-0.354512006,-1.345931053,-0.636483014,0.30922401,-0.859259009,-0.139125004,0.057992,0.936334014,-1.080268025,-0.007042,-0.135521993,1.976300001,1.99850297,1.11500299,3.222232103,0.524685979,1.584249973,-0.044427,1.024289966,-1.892925978,-0.249529004,-0.066946998,-0.92542702,-0.218094006,-0.631462991,-1.308241963,0.061425,-0.477999985,0.847625971,1.018731952,0.202349007,-1.415930033,-0.661612988,1.070847988,1.397534966,0.976827025,-0.765802979,-0.57207799,0.449831992,1.859320045,-0.126862004,-0.236311004,1.456276059,-1.036618948,1.293120027,0.137088001,-0.723376989,-0.95875001,0.544722021,-2.092622042,1.945410967,-0.878288984,0.491867006,0.411529988,0.196557999,0.058318999,0.104788996,0.444231987,0.880796015,-1.550593972,-0.283710003,2.689943075,1.159247041,-0.853280008,1.105173945,0.456470996,-0.894416988,0.37074399,-0.704999983,-1.734272957,-0.66099298,1.027546048,-1.27463603,1.155074,0.280306995,0.025046,0.062451001,1.509937048,0.243723005,0.039958999,0.238903999,0.824306011,0.131451994,1.008767009,-0.093355,-0.315411001,0.80242902,-0.498703986,-0.637036979,1.813472033,0.840327024,0.055964001,0.283105999,-0.467552006,-1.898071051,1.592167974,0.669542015,0.238407999,-0.698104978,-0.834506989,-1.874930978,0.904501021,1.238247991,-1.325059056,0.991473019,1.87254405,-0.197062001,1.557927012,2.089898109,-0.418713987,-0.590777993,-0.182463005,0.638787985,-1.797083974,0.564494014,-1.870975018,1.040058017,-0.594336987,1.419955015,-0.01332,-1.276751041,1.433037043,1.573624015,-1.04420197,-0.239868,-0.182605997,0.639940023,1.768072963,0.447672993,1.018867016,0.193090007,0.651557982,-0.650672019,0.018766001,1.479189992,0.011971,-0.098375,-1.242614985,-1.07367003,1.379560947,0.908205986,0.720746994,0.28687799,0.694694996,0.708904982,1.346809983,2.353396893,-0.927607,-1.679960966,-0.636133015,-0.851737022,0.48318699,1.425369978,0.737935007,-0.206015006,0.29310599,0.681598008,-0.811990976,-1.286821961,-0.705944002,-1.451647043,0.828468978,0.288055003,1.430837989,1.398180962,0.766194999,-0.135663003,-0.855391979,-0.428817987,-1.454586983,-1.670722961,0.196960002,-0.74882102,-0.340732992,0.88251698,-0.176241994,1.733629942,0.443616003,-0.254700989,0.267201006,-0.134340003,0.017225999,0.381603986,-0.191384003,0.964219987,-0.160306007,-0.642373979,-0.543609977,1.079377055,-0.357241005,-1.715736985,-0.973164976,-1.116554022,-1.554913998,0.683233976,1.383456945,-0.980324984,-0.108083002,0.973671019,-1.629068017,0.116636999,1.422405958,-0.784577012,0.038417,-1.392174006,-1.081966996,-1.378409982,-0.269511998,-0.760807991,0.530770004,0.248999,-0.112998001,0.259626001,1.168671012,-0.757794976,0.931622982,-0.374229014,-2.061156034,-0.729405999,1.082774997,1.121214986,-0.199066997,-1.375332952,0.90121001,-1.387328029,-0.06402,1.763769031,-0.088330001,-0.237814993,0.417270005,-0.358512014,-0.751447976,0.815620005,0.744511008,0.503920019,-1.382980943,0.35631001,1.583917022,-0.400245011,0.500133991,-0.125414997,-0.045203999,-1.080415964,0.386296004,0.361301988,-0.656832993,0.339011014,-0.133266002,0.323359013,-0.509097993,0.136700004,-0.229139,-0.118055001,-1.027794957,-0.173657,1.375430942,0.438244998,-0.794026017,-0.168630004,1.450129032,-1.820394993,0.021880001,1.60431397,-1.432356954,-0.190849006,-0.201958001,0.911189973,1.966946006,-1.026471972,-0.011072,1.844634056,-0.434810013,-0.170671001,1.397147059,0.008512,-0.183293998,0.114321001,1.503386021,-0.565424979,-0.82625401,1.008308053,-0.902693987,0.126855001,2.078512907,1.549769998,0.591620982,-0.574223995,-1.376296043,-0.441668004,-0.738079011,-0.939558983,-0.34986499,2.104626894,0.460067987,1.764649034,-0.561438978,-0.806261003,0.75851202,1.140393019,-0.868108988,1.236958981,1.010882974,-0.933189988,-0.082405999,0.017824,-0.984892011,-0.397404999,0.219216004,-0.590929985,1.177472949,-0.724400997,-1.438734055,1.178822041,0.252099007,0.679885983,0.051387999,0.619293988,-0.486781001,-1.772542953,0.468771994,-0.138735995,-0.28549999,1.080876946,0.571111977,1.27702105,1.702288985,1.190793991,0.552083015,0.406017005,-0.037687,1.933177948,0.63024801,-0.545475006,0.801353991,-0.961907983,1.578698993,0.833486021,-1.416877031,2.014043093,0.110471003,-1.05708003,0.824598014,-0.587653995,1.405987024,-0.502726972,-1.326825976,0.940297008,-0.116313003,2.878483057,1.391845942,0.173345998,0.455193013,-1.12598598,0.036431,-1.173990965,0.322854012,-0.092986003,1.724053025,0.323197007,-1.862527013,-1.640552044,-1.134062052,1.267487049,-0.62412101,-1.625771046,-0.65654099,0.263687015,-0.878933012,-0.219519004,-0.136740997,0.533703029,1.318300009,-0.291987002,0.808196008,-0.678569973,-0.348641992,-0.334706008,-2.00821805,1.486600041,0.235404998,-0.68858999,-2.371042013,-0.479568988,1.956670046,-0.97517699,-0.777631998,1.752642035,0.130045995,1.220528007
