word,0,1,2,3,4,5,6,7,8,9,10,11,12,13,14,15,16,17,18,19,20,21,22,23,24,25,26,27,28,29,30,31,32,33,34,35,36,37,38,39,40,41,42,43,44,45,46,47,48,49,50,51,52,53,54,55,56,57,58,59,60,61,62,63,64,65,66,67,68,69,70,71,72,73,74,75,76,77,78,79,80,81,82,83,84,85,86,87,88,89,90,91,92,93,94,95,96,97,98,99,100,101,102,103,104,105,106,107,108,109,110,111,112,113,114,115,116,117,118,119,120,121,122,123,124,125,126,127,128,129,130,131,132,133,134,135,136,137,138,139,140,141,142,143,144,145,146,147,148,149,150,151,152,153,154,155,156,157,158,159,160,161,162,163,164,165,166,167,168,169,170,171,172,173,174,175,176,177,178,179,180,181,182,183,184,185,186,187,188,189,190,191,192,193,194,195,196,197,198,199,200,201,202,203,204,205,206,207,208,209,210,211,212,213,214,215,216,217,218,219,220,221,222,223,224,225,226,227,228,229,230,231,232,233,234,235,236,237,238,239,240,241,242,243,244,245,246,247,248,249,250,251,252,253,254,255,256,257,258,259,260,261,262,263,264,265,266,267,268,269,270,271,272,273,274,275,276,277,278,279,280,281,282,283,284,285,286,287,288,289,290,291,292,293,294,295,296,297,298,299,300,301,302,303,304,305,306,307,308,309,310,311,312,313,314,315,316,317,318,319,320,321,322,323,324,325,326,327,328,329,330,331,332,333,334,335,336,337,338,339,340,341,342,343,344,345,346,347,348,349,350,351,352,353,354,355,356,357,358,359,360,361,362,363,364,365,366,367,368,369,370,371,372,373,374,375,376,377,378,379,380,381,382,383,384,385,386,387,388,389,390,391,392,393,394,395,396,397,398,399,word,0,1,2,3,4,5,6,7,8,9,10,11,12,13,14,15,16,17,18,19,20,21,22,23,24,25,26,27,28,29,30,31,32,33,34,35,36,37,38,39,40,41,42,43,44,45,46,47,48,49,50,51,52,53,54,55,56,57,58,59,60,61,62,63,64,65,66,67,68,69,70,71,72,73,74,75,76,77,78,79,80,81,82,83,84,85,86,87,88,89,90,91,92,93,94,95,96,97,98,99,100,101,102,103,104,105,106,107,108,109,110,111,112,113,114,115,116,117,118,119,120,121,122,123,124,125,126,127,128,129,130,131,132,133,134,135,136,137,138,139,140,141,142,143,144,145,146,147,148,149,150,151,152,153,154,155,156,157,158,159,160,161,162,163,164,165,166,167,168,169,170,171,172,173,174,175,176,177,178,179,180,181,182,183,184,185,186,187,188,189,190,191,192,193,194,195,196,197,198,199,200,201,202,203,204,205,206,207,208,209,210,211,212,213,214,215,216,217,218,219,220,221,222,223,224,225,226,227,228,229,230,231,232,233,234,235,236,237,238,239,240,241,242,243,244,245,246,247,248,249,250,251,252,253,254,255,256,257,258,259,260,261,262,263,264,265,266,267,268,269,270,271,272,273,274,275,276,277,278,279,280,281,282,283,284,285,286,287,288,289,290,291,292,293,294,295,296,297,298,299,300,301,302,303,304,305,306,307,308,309,310,311,312,313,314,315,316,317,318,319,320,321,322,323,324,325,326,327,328,329,330,331,332,333,334,335,336,337,338,339,340,341,342,343,344,345,346,347,348,349,350,351,352,353,354,355,356,357,358,359,360,361,362,363,364,365,366,367,368,369,370,371,372,373,374,375,376,377,378,379,380,381,382,383,384,385,386,387,388,389,390,391,392,393,394,395,396,397,398,399
ÖÆÔì,0.630756974,1.711334944,0.247383997,0.402662009,2.47921896,-1.278100967,1.964228034,-1.946367979,2.468556881,-1.050045013,-1.343793035,0.248282999,-0.418947011,0.136913002,0.242008999,-2.717715979,-1.038383961,-1.520895958,-0.392291993,-0.364858001,-1.72281003,-0.691384017,0.52510798,-1.520941973,-0.464403003,-0.217998996,-0.58109498,2.201993942,-1.376150012,1.237975955,-0.822852015,0.968697011,-1.904502988,-1.173313022,0.252539992,-0.862699986,-0.368826985,1.617964983,0.272846997,1.479977965,-0.178868994,-0.219124004,-1.326846957,-0.054009002,-0.341470987,1.882833958,-0.620096028,-2.822199106,1.302503943,1.266563058,0.209924996,-1.472437978,1.609253049,0.640666008,-1.253242016,1.048764944,0.797518015,-1.501953959,1.293162942,0.897078991,-1.52421999,0.917307973,-1.278074026,0.42869401,0.493559986,-1.486587048,-0.397500008,-0.132073998,-0.772903025,0.68315202,-1.282843947,-1.060843945,0.900313973,2.575948,-0.669610023,0.421442986,1.133074045,-1.460104942,-0.345580995,-2.21897006,-0.148719996,-0.035303,-0.83712101,-0.730177999,-0.530241013,0.061315,1.297729015,0.900873005,1.149163008,0.501935005,0.163809001,0.095260002,0.139927998,1.264616013,-0.578361988,0.644466996,-0.347252995,-0.287845999,-0.628775001,0.727602005,1.473245025,0.364134997,-0.830848992,0.837975979,-0.79491502,-0.817691982,-0.751480997,-2.161547899,-0.044071998,-1.747550011,0.358550012,0.270686001,-1.805593967,-0.698707998,0.586619973,-0.545005977,0.124897003,-0.562810004,-0.644877017,-0.437070012,-2.3918221,0.032278001,0.699258029,-2.244436026,0.037098002,0.220174,-1.95016396,-1.095644951,-1.227800012,0.727087021,1.71043396,0.017323,-1.536517024,0.152528003,0.795261979,0.259876013,0.520705998,1.056238055,-0.260684997,-1.083994031,0.136182994,0.384047002,-0.299551994,0.492971003,-0.80854702,0.301207006,-0.108010001,-0.166725993,-1.323850036,-1.645225048,2.172806025,0.839622021,-0.350042999,-1.466688991,0.815029979,0.642754972,0.052595999,1.737218022,-1.326864958,0.76682502,-0.765576005,2.517674923,0.269652992,0.641246021,0.080510996,-0.287396997,-0.173824996,-1.634078979,-1.45557797,-2.824398041,0.493398011,-1.508023977,-0.242585003,1.42958498,-0.419405013,-1.476878047,1.015581012,1.135915041,0.877544999,1.857524991,1.303473949,0.130716994,-0.850517988,-1.331609011,-0.536000013,1.474388003,0.130587995,-0.511214018,-0.787721992,-0.015764,-1.376907945,-0.725308001,0.928511024,-0.244564995,0.59009999,1.157878995,2.027847052,-1.105391979,-1.774302959,0.303312987,0.364688009,0.435644001,-0.32722199,0.880796015,0.037648998,0.808884978,-0.531114995,0.813607991,0.562144995,0.805477977,-0.233642995,-0.421903998,0.76057303,-0.523317993,-0.602931976,1.553678036,-1.985751987,-1.268329024,0.073936,-2.095570087,2.088047028,-0.521345019,1.518481016,0.092647001,0.905560017,-0.888660014,-1.334326029,1.064852953,-0.441513002,-1.959614038,-1.421179056,-1.065263987,1.166118979,-0.113367997,2.110599041,-1.140923023,0.85770601,0.172775999,1.196074963,-0.122359999,0.882983983,1.058150053,1.243163943,0.538107991,1.158728004,0.331577003,1.920914054,-0.824621975,0.406486988,-0.279469997,0.381742001,1.055765033,-0.278692007,-0.545782983,-0.505011022,-0.467101008,-0.768638015,1.151391029,0.847456992,1.734936953,0.197935,0.832508028,0.401071995,0.138178006,-1.250740051,-1.25939095,0.049314,-0.271425992,-0.936906993,0.028031001,-0.92078203,-0.061879002,-1.636940002,1.275828004,-0.804229021,-0.039799001,-0.270702988,0.029763,0.607088983,0.83069098,0.507723987,1.129179001,1.035611033,-1.253098011,-2.078461885,1.224388003,0.179588005,0.010389,0.288028985,-0.223219007,-1.117558956,-0.832418978,-1.670467973,-0.303707987,-0.010206,-0.087190002,0.326848,0.154785007,-1.675711989,-0.223287001,-0.149757996,-0.358383,0.011463,0.131991997,0.64131099,1.783895969,0.103143997,-0.589846015,1.533602953,1.032341003,-0.738188982,0.518752992,0.745221019,-0.589874029,0.062522002,-1.157156944,-0.775445998,-1.730216026,0.259330004,0.308629006,1.170300961,-0.413462013,2.508599997,-0.880398989,0.80439502,-1.436653972,-0.018699,-0.430593997,-0.781741023,-1.116157055,1.246444941,-0.463663995,-0.001878,-0.111764997,1.432356954,-0.829235971,-0.374846011,0.322820008,-1.049343944,1.602756977,-0.357324988,0.544147015,0.532043993,0.039609,0.745646,-2.727279902,0.27819401,0.215200007,1.888692975,-2.135741949,-0.204095006,0.035608001,1.470677972,0.103583001,-0.267168999,-0.032200001,-0.213131994,0.036812998,-0.139895007,0.674390972,0.289822012,-1.021064043,-0.642939985,-0.495525986,-1.428725958,-0.33178699,-2.138087988,-1.067654967,-1.174896955,-0.108776003,-0.475068986,-0.652785003,-0.566878021,-1.302786946,-0.344673008,-0.656665981,-1.149708986,-0.318893999,-0.764828026,-0.296649992,0.822458982,-0.093473002,0.144520998,-0.931451023,0.299952,-0.562693,-0.444743991,1.074694991,0.535815001,0.907552004,0.736715019,-0.406672001,-0.837200999,0.936510026,1.026582003,0.526714027,-1.184219003,0.369996011,-1.356500983,-0.436390996,åˆ¶é€?0.63075697422,1.711334944,0.247383997,0.402662009,2.47921896,-1.278100967,1.964228034,-1.946367979,2.468556881,-1.050045013,-1.343793035,0.248282999,-0.418947011,0.136913002,0.242008999,-2.717715979,-1.038383961,-1.520895958,-0.392291993,-0.364858001,-1.72281003,-0.691384017,0.52510798,-1.520941973,-0.464403003,-0.217998996,-0.58109498,2.201993942,-1.376150012,1.237975955,-0.822852015,0.968697011,-1.904502988,-1.173313022,0.252539992,-0.862699986,-0.368826985,1.617964983,0.272846997,1.479977965,-0.178868994,-0.219124004,-1.326846957,-0.054009002,-0.341470987,1.882833958,-0.620096028,-2.822199106,1.302503943,1.266563058,0.209924996,-1.472437978,1.609253049,0.640666008,-1.253242016,1.048764944,0.797518015,-1.501953959,1.293162942,0.897078991,-1.52421999,0.917307973,-1.278074026,0.42869401,0.493559986,-1.486587048,-0.397500008,-0.132073998,-0.772903025,0.68315202,-1.282843947,-1.060843945,0.900313973,2.575948,-0.669610023,0.421442986,1.133074045,-1.460104942,-0.345580995,-2.21897006,-0.148719996,-0.035303,-0.83712101,-0.730177999,-0.530241013,0.061315,1.297729015,0.900873005,1.149163008,0.501935005,0.163809001,0.095260002,0.139927998,1.264616013,-0.578361988,0.644466996,-0.347252995,-0.287845999,-0.628775001,0.727602005,1.473245025,0.364134997,-0.830848992,0.837975979,-0.79491502,-0.817691982,-0.751480997,-2.161547899,-0.044071998,-1.747550011,0.358550012,0.270686001,-1.805593967,-0.698707998,0.586619973,-0.545005977,0.124897003,-0.562810004,-0.644877017,-0.437070012,-2.3918221,0.032278001,0.699258029,-2.244436026,0.037098002,0.220174,-1.95016396,-1.095644951,-1.227800012,0.727087021,1.71043396,0.017323,-1.536517024,0.152528003,0.795261979,0.259876013,0.520705998,1.056238055,-0.260684997,-1.083994031,0.136182994,0.384047002,-0.299551994,0.492971003,-0.80854702,0.301207006,-0.108010001,-0.166725993,-1.323850036,-1.645225048,2.172806025,0.839622021,-0.350042999,-1.466688991,0.815029979,0.642754972,0.052595999,1.737218022,-1.326864958,0.76682502,-0.765576005,2.517674923,0.269652992,0.641246021,0.080510996,-0.287396997,-0.173824996,-1.634078979,-1.45557797,-2.824398041,0.493398011,-1.508023977,-0.242585003,1.42958498,-0.419405013,-1.476878047,1.015581012,1.135915041,0.877544999,1.857524991,1.303473949,0.130716994,-0.850517988,-1.331609011,-0.536000013,1.474388003,0.130587995,-0.511214018,-0.787721992,-0.015764,-1.376907945,-0.725308001,0.928511024,-0.244564995,0.59009999,1.157878995,2.027847052,-1.105391979,-1.774302959,0.303312987,0.364688009,0.435644001,-0.32722199,0.880796015,0.037648998,0.808884978,-0.531114995,0.813607991,0.562144995,0.805477977,-0.233642995,-0.421903998,0.76057303,-0.523317993,-0.602931976,1.553678036,-1.985751987,-1.268329024,0.073936,-2.095570087,2.088047028,-0.521345019,1.518481016,0.092647001,0.905560017,-0.888660014,-1.334326029,1.064852953,-0.441513002,-1.959614038,-1.421179056,-1.065263987,1.166118979,-0.113367997,2.110599041,-1.140923023,0.85770601,0.172775999,1.196074963,-0.122359999,0.882983983,1.058150053,1.243163943,0.538107991,1.158728004,0.331577003,1.920914054,-0.824621975,0.406486988,-0.279469997,0.381742001,1.055765033,-0.278692007,-0.545782983,-0.505011022,-0.467101008,-0.768638015,1.151391029,0.847456992,1.734936953,0.197935,0.832508028,0.401071995,0.138178006,-1.250740051,-1.25939095,0.049314,-0.271425992,-0.936906993,0.028031001,-0.92078203,-0.061879002,-1.636940002,1.275828004,-0.804229021,-0.039799001,-0.270702988,0.029763,0.607088983,0.83069098,0.507723987,1.129179001,1.035611033,-1.253098011,-2.078461885,1.224388003,0.179588005,0.010389,0.288028985,-0.223219007,-1.117558956,-0.832418978,-1.670467973,-0.303707987,-0.010206,-0.087190002,0.326848,0.154785007,-1.675711989,-0.223287001,-0.149757996,-0.358383,0.011463,0.131991997,0.64131099,1.783895969,0.103143997,-0.589846015,1.533602953,1.032341003,-0.738188982,0.518752992,0.745221019,-0.589874029,0.062522002,-1.157156944,-0.775445998,-1.730216026,0.259330004,0.308629006,1.170300961,-0.413462013,2.508599997,-0.880398989,0.80439502,-1.436653972,-0.018699,-0.430593997,-0.781741023,-1.116157055,1.246444941,-0.463663995,-0.001878,-0.111764997,1.432356954,-0.829235971,-0.374846011,0.322820008,-1.049343944,1.602756977,-0.357324988,0.544147015,0.532043993,0.039609,0.745646,-2.727279902,0.27819401,0.215200007,1.888692975,-2.135741949,-0.204095006,0.035608001,1.470677972,0.103583001,-0.267168999,-0.032200001,-0.213131994,0.036812998,-0.139895007,0.674390972,0.289822012,-1.021064043,-0.642939985,-0.495525986,-1.428725958,-0.33178699,-2.138087988,-1.067654967,-1.174896955,-0.108776003,-0.475068986,-0.652785003,-0.566878021,-1.302786946,-0.344673008,-0.656665981,-1.149708986,-0.318893999,-0.764828026,-0.296649992,0.822458982,-0.093473002,0.144520998,-0.931451023,0.299952,-0.562693,-0.444743991,1.074694991,0.535815001,0.907552004,0.736715019,-0.406672001,-0.837200999,0.936510026,1.026582003,0.526714027,-1.184219003,0.369996011,-1.356500983,-0.436390996,
°²×°,0.161998004,1.809023976,1.289234996,0.518803,1.979501963,0.93858701,0.762776971,-2.070446968,1.090257049,1.437541008,-0.793853998,-0.429784,-1.196712017,-0.202747002,-0.610964,-0.965023994,0.438760996,-2.423459053,0.36471501,-0.97893697,-2.014709949,-0.774928987,0.933318019,1.491317034,-1.022644043,1.656340003,-2.198770046,1.358515978,-0.088551,0.328399003,-0.988838017,-0.480493009,-0.268258005,-1.272976995,1.369557977,0.509546995,-0.181475997,-0.521039009,-0.29164499,2.263633013,0.372561008,-1.423215032,-0.831564009,1.32050097,1.136049032,0.526127994,0.243530005,-0.350555003,-0.143021002,-0.435741991,0.295011997,-0.872932971,-1.541959047,1.269559979,-2.054732084,0.473275989,0.71212101,-0.954083025,-1.521227956,0.506084979,-1.652202964,1.618471026,-0.734700978,-0.42129001,-0.671117008,1.571454048,1.120336056,-0.67897898,0.920912027,0.285425991,-2.374325991,-0.723137021,1.052113056,1.044582009,-0.39587301,4.400568008,2.000123978,-0.230811,-1.117766976,1.205217958,0.027711,-0.713586986,1.141353011,-1.232457995,0.85274899,-1.113515973,0.062247001,0.661267996,1.256466031,0.383350998,1.134577036,0.31625399,1.138767958,-0.697019994,0.882251024,-1.343819022,-0.339736998,2.75453496,0.139294997,0.890724003,2.161968946,0.270696014,-1.133221984,0.353899986,-3.60522604,-0.675803006,1.576359034,-0.451283008,1.693338037,1.657417059,0.892758012,-2.494697094,-0.317108005,-0.65260601,-0.876555979,0.652472973,2.70468998,-0.045503002,0.788362026,2.548357964,-0.577636003,-1.03569603,-0.211833,-0.464881003,1.233898044,1.754475951,-0.619306028,0.201609999,-1.828179002,1.589218974,1.051787972,-2.549732924,-0.126617,1.936367035,-1.650418043,-0.294328004,-0.982277989,0.101443,1.320343018,-0.158529997,-0.127921,0.408600986,0.196094006,1.77441597,0.087912999,-1.223242998,-0.769389987,-0.410869002,0.705830991,-1.876407027,1.389211059,-1.724629998,0.268252999,0.204925999,1.771937013,-0.146280006,-0.443405002,-0.720969021,-1.201768041,-0.434924006,0.025176,-0.937870026,-0.423590988,0.609556019,0.758387029,0.733384013,-0.106628001,-1.024500966,-0.468050987,-1.709915996,0.260318011,0.416687012,1.131759048,1.179728985,3.134076118,0.27256301,1.52857697,-0.338348001,1.609877944,2.286364079,-0.960680008,-1.233577967,-0.920328975,-0.054754999,0.526928008,0.764347017,1.477679014,-0.188949004,0.459163994,-1.604030967,-0.500338972,-0.873072982,0.76521498,-0.00507,-1.822224975,-0.021015,1.089069009,-0.581184983,0.746196985,-0.960987985,-0.921983004,-1.64072299,-1.324038029,0.164132997,0.207383007,0.836426973,-0.220245004,3.129961967,-0.302109003,2.429060936,-0.285526007,0.203537002,-0.089726999,-0.62806797,1.633195043,0.008171,0.259588987,0.271061003,-1.198209047,-1.880813956,0.276630998,0.836288989,0.785138011,0.04532,1.097125053,1.230978966,1.386505008,0.708573997,-0.191982999,-2.375150919,0.155128002,-1.952072978,1.673231959,-1.42416501,1.606035948,-1.284646034,0.049761001,-0.524069011,0.851998985,-1.047129989,0.784039021,0.457042992,0.93316102,0.557923019,0.75187403,1.870265007,0.159896001,1.895550013,1.135311008,-0.888441026,0.559067011,2.030133009,0.84127301,0.201389,0.98951298,-0.226365998,0.015918,1.993208051,0.255394995,1.030199051,-1.482416987,0.338712007,-0.651710987,0.274610013,-0.595785975,-1.530797958,0.208985999,0.362040013,-0.710431993,1.369279981,0.197189003,-1.536273003,-0.717595994,1.506091952,-2.385911942,0.743695021,-1.469684005,-1.60335505,1.384829044,-0.213442996,-0.104500003,1.129446983,0.888320029,-0.466129005,-0.782877028,0.66792202,-2.021495104,1.801962018,1.714442968,0.911944985,-0.657712996,1.529016972,-0.573952973,-1.813215971,0.498683989,0.824149013,-0.530140996,0.053491,-1.176455021,0.124462001,-0.527979016,-2.060622931,-1.336235046,0.045751002,0.403122008,1.650084019,-1.552878976,0.554942012,-0.467817008,2.161159992,-1.026600957,-0.545533001,1.495960951,0.240566,0.725032985,0.164436996,-2.686491013,-1.029201984,1.288570046,0.043223999,2.205650091,-0.374855012,-0.018074,-0.120751999,0.556150973,-2.66814208,0.875868976,1.415995955,-1.741510034,-0.687076986,0.895304024,-0.28025499,0.526453972,1.149399042,1.046187043,-0.732322991,0.567933977,-0.093157001,0.244893,0.822955012,0.271205008,1.739974022,-1.299265981,0.268449992,-0.155074999,0.145894006,-0.174189001,1.038841009,0.847860992,-0.544335008,-1.570610046,1.808966994,0.625407994,-1.048743963,1.322790027,-0.675768018,0.365884006,1.097947955,-1.610350013,1.295264006,-0.469981015,0.286042005,0.920975983,0.668954015,-0.795557976,-1.867028952,-0.597828984,-1.778707981,0.122079,-1.417513013,-2.458528042,0.276609004,-1.223235011,0.847550988,0.021124,-1.717941999,-1.712232947,-1.298419952,-2.53686595,0.150324002,1.347494006,0.233670995,1.085118055,0.474400014,-0.600437999,-2.492839098,-0.371935993,-0.014796,-2.489624977,0.320937008,-0.582795978,-0.559454024,-1.443266988,-0.807309985,2.224359035,0.168998003,-1.990753055,1.59552896,0.40061,-0.413971007,å®‰è£…,0.161998004,1.809023976,1.289234996,0.518803,1.979501963,0.93858701,0.762776971,-2.070446968,1.090257049,1.437541008,-0.793853998,-0.429784,-1.196712017,-0.202747002,-0.610964,-0.965023994,0.438760996,-2.423459053,0.36471501,-0.97893697,-2.014709949,-0.774928987,0.933318019,1.491317034,-1.022644043,1.656340003,-2.198770046,1.358515978,-0.088551,0.328399003,-0.988838017,-0.480493009,-0.268258005,-1.272976995,1.369557977,0.509546995,-0.181475997,-0.521039009,-0.29164499,2.263633013,0.372561008,-1.423215032,-0.831564009,1.32050097,1.136049032,0.526127994,0.243530005,-0.350555003,-0.143021002,-0.435741991,0.295011997,-0.872932971,-1.541959047,1.269559979,-2.054732084,0.473275989,0.71212101,-0.954083025,-1.521227956,0.506084979,-1.652202964,1.618471026,-0.734700978,-0.42129001,-0.671117008,1.571454048,1.120336056,-0.67897898,0.920912027,0.285425991,-2.374325991,-0.723137021,1.052113056,1.044582009,-0.39587301,4.400568008,2.000123978,-0.230811,-1.117766976,1.205217958,0.027711,-0.713586986,1.141353011,-1.232457995,0.85274899,-1.113515973,0.062247001,0.661267996,1.256466031,0.383350998,1.134577036,0.31625399,1.138767958,-0.697019994,0.882251024,-1.343819022,-0.339736998,2.75453496,0.139294997,0.890724003,2.161968946,0.270696014,-1.133221984,0.353899986,-3.60522604,-0.675803006,1.576359034,-0.451283008,1.693338037,1.657417059,0.892758012,-2.494697094,-0.317108005,-0.65260601,-0.876555979,0.652472973,2.70468998,-0.045503002,0.788362026,2.548357964,-0.577636003,-1.03569603,-0.211833,-0.464881003,1.233898044,1.754475951,-0.619306028,0.201609999,-1.828179002,1.589218974,1.051787972,-2.549732924,-0.126617,1.936367035,-1.650418043,-0.294328004,-0.982277989,0.101443,1.320343018,-0.158529997,-0.127921,0.408600986,0.196094006,1.77441597,0.087912999,-1.223242998,-0.769389987,-0.410869002,0.705830991,-1.876407027,1.389211059,-1.724629998,0.268252999,0.204925999,1.771937013,-0.146280006,-0.443405002,-0.720969021,-1.201768041,-0.434924006,0.025176,-0.937870026,-0.423590988,0.609556019,0.758387029,0.733384013,-0.106628001,-1.024500966,-0.468050987,-1.709915996,0.260318011,0.416687012,1.131759048,1.179728985,3.134076118,0.27256301,1.52857697,-0.338348001,1.609877944,2.286364079,-0.960680008,-1.233577967,-0.920328975,-0.054754999,0.526928008,0.764347017,1.477679014,-0.188949004,0.459163994,-1.604030967,-0.500338972,-0.873072982,0.76521498,-0.00507,-1.822224975,-0.021015,1.089069009,-0.581184983,0.746196985,-0.960987985,-0.921983004,-1.64072299,-1.324038029,0.164132997,0.207383007,0.836426973,-0.220245004,3.129961967,-0.302109003,2.429060936,-0.285526007,0.203537002,-0.089726999,-0.62806797,1.633195043,0.008171,0.259588987,0.271061003,-1.198209047,-1.880813956,0.276630998,0.836288989,0.785138011,0.04532,1.097125053,1.230978966,1.386505008,0.708573997,-0.191982999,-2.375150919,0.155128002,-1.952072978,1.673231959,-1.42416501,1.606035948,-1.284646034,0.049761001,-0.524069011,0.851998985,-1.047129989,0.784039021,0.457042992,0.93316102,0.557923019,0.75187403,1.870265007,0.159896001,1.895550013,1.135311008,-0.888441026,0.559067011,2.030133009,0.84127301,0.201389,0.98951298,-0.226365998,0.015918,1.993208051,0.255394995,1.030199051,-1.482416987,0.338712007,-0.651710987,0.274610013,-0.595785975,-1.530797958,0.208985999,0.362040013,-0.710431993,1.369279981,0.197189003,-1.536273003,-0.717595994,1.506091952,-2.385911942,0.743695021,-1.469684005,-1.60335505,1.384829044,-0.213442996,-0.104500003,1.129446983,0.888320029,-0.466129005,-0.782877028,0.66792202,-2.021495104,1.801962018,1.714442968,0.911944985,-0.657712996,1.529016972,-0.573952973,-1.813215971,0.498683989,0.824149013,-0.530140996,0.053491,-1.176455021,0.124462001,-0.527979016,-2.060622931,-1.336235046,0.045751002,0.403122008,1.650084019,-1.552878976,0.554942012,-0.467817008,2.161159992,-1.026600957,-0.545533001,1.495960951,0.240566,0.725032985,0.164436996,-2.686491013,-1.029201984,1.288570046,0.043223999,2.205650091,-0.374855012,-0.018074,-0.120751999,0.556150973,-2.66814208,0.875868976,1.415995955,-1.741510034,-0.687076986,0.895304024,-0.28025499,0.526453972,1.149399042,1.046187043,-0.732322991,0.567933977,-0.093157001,0.244893,0.822955012,0.271205008,1.739974022,-1.299265981,0.268449992,-0.155074999,0.145894006,-0.174189001,1.038841009,0.847860992,-0.544335008,-1.570610046,1.808966994,0.625407994,-1.048743963,1.322790027,-0.675768018,0.365884006,1.097947955,-1.610350013,1.295264006,-0.469981015,0.286042005,0.920975983,0.668954015,-0.795557976,-1.867028952,-0.597828984,-1.778707981,0.122079,-1.417513013,-2.458528042,0.276609004,-1.223235011,0.847550988,0.021124,-1.717941999,-1.712232947,-1.298419952,-2.53686595,0.150324002,1.347494006,0.233670995,1.085118055,0.474400014,-0.600437999,-2.492839098,-0.371935993,-0.014796,-2.489624977,0.320937008,-0.582795978,-0.559454024,-1.443266988,-0.807309985,2.224359035,0.168998003,-1.990753055,1.59552896,0.40061,-0.413971007
Ö÷Ìå,-0.930088997,-0.496666014,-0.83079797,-0.502948999,1.199255943,0.197106004,0.403577,-2.285612106,1.743826032,-0.076586001,0.665409029,0.136081994,-1.01383698,1.223734021,-0.096615002,-0.695716977,-0.165179998,-0.555420995,-0.385944009,-0.910574019,-0.093405001,0.080132,-0.561878979,-0.738084972,0.454077989,1.010107994,0.183761999,0.263547003,0.173605993,0.817282021,1.18502605,0.566425025,-0.561182976,1.273710012,1.614822984,-1.469779968,-0.397579014,-1.696199059,0.807232022,0.890949011,0.684536994,-0.582243025,-1.032524943,-0.677124023,-0.006362,0.720743001,0.692734003,-1.248023987,-0.360399008,0.261200011,1.094787002,-0.046034999,0.973127007,-0.191486999,-2.284522057,1.217383981,1.166847944,-1.012941003,-0.936502993,0.098357998,-0.807563007,-1.162688971,-0.755760014,-1.51870501,-1.111577988,-0.874792993,-0.328455001,2.303435087,0.448756993,0.410353005,-1.230113029,0.359710991,-0.089224003,1.267779946,0.677375972,-1.571238995,2.023178101,-1.030184984,-0.461905986,-0.428469002,0.646615028,-1.684524059,-0.222267002,0.607349992,-0.163982004,0.840129018,-0.579244018,0.013433,0.739383996,0.434098989,-0.045827001,0.308676004,-0.53976202,0.054567002,-0.113280997,0.646340013,1.279207945,-1.066890955,-0.430970997,-0.375557005,0.372137994,0.226778001,0.658863008,0.654739976,0.141754001,-1.318315029,1.227745056,0.932761014,0.075094,-0.928269982,0.161873996,-0.340135008,-1.246111035,-0.78607899,-0.839854002,0.078883,-0.365770012,-1.194242001,0.105109997,1.698801994,1.324131966,-0.86441201,0.362340987,-0.697887003,-0.771120012,-0.689387023,-2.479228973,-0.254146993,0.568651021,-1.298226953,-0.900671005,-1.150519967,-0.936864972,1.239454031,-0.394753993,0.595358014,-0.085081004,1.267420053,0.309808999,-0.642733991,2.099570036,0.677555025,0.718043983,0.366852999,-0.231593996,-0.115613997,0.456259996,0.298990011,-0.492518991,0.471632004,1.478523016,-0.295864999,-0.612547994,1.290691018,-0.502399981,0.862432003,-0.720848978,-1.93454504,-0.545521975,0.936161995,0.112282999,-0.706570983,0.66839999,-0.859007001,-0.274801999,1.076694012,1.115165949,-0.532706022,-0.536310017,0.504787028,-1.414837956,0.289958,0.283814996,1.172868967,-0.462884009,-0.791548014,2.236952066,-0.639373004,-1.537992001,0.231052995,0.75604701,-0.572071016,0.123214997,-0.464783996,0.984610021,-0.384609014,1.390107989,0.243851006,0.59701401,0.201846004,0.102505997,-1.167062998,1.321256995,1.113085985,-1.203534961,0.232835993,1.329982996,0.007815,0.880490005,-0.45301801,-0.065208003,0.203014001,0.134313002,-1.060551047,-0.661477029,0.582013011,0.163900003,-0.606931984,-1.016461968,1.356024981,-0.984363019,-0.35729,1.79894805,0.911777973,0.615051985,-0.580264986,-0.369504005,-1.039873958,-0.241666004,-0.392273992,0.797075987,-1.293169975,1.087460041,1.102408051,-0.844263971,-0.818488002,-0.365864009,-0.472065002,-1.448225021,1.087000012,-0.605257988,0.434994012,0.148456007,-1.305956006,0.538478017,-1.532238007,-0.356985986,-0.651915014,0.380172998,-0.096762002,1.857555985,1.286389947,-0.472404003,0.893962026,1.49484098,-1.391839981,0.616922975,-1.39972198,0.284913987,-0.846023023,0.405142009,1.379187942,0.740508974,-1.493963003,0.458626002,1.50862205,0.59602201,0.078533001,0.698256016,0.326833993,0.836403012,1.299700022,-0.793314993,0.702482998,0.337060004,-0.651908994,-0.109117001,-0.843529999,0.509092987,0.534555018,-0.87619698,-1.105540991,-0.407658011,0.659159005,-2.444274902,1.040423989,-1.11826098,0.102594003,-1.284147024,-0.139091998,-0.493593991,-0.179129004,0.659325004,0.600301027,-0.66178,-0.804283023,-0.082028002,-0.314283013,-0.103263997,-0.064887002,-0.065814003,-0.932115972,-0.270704001,-0.733349025,0.207248002,0.736501992,-0.843913019,0.710267007,0.762081981,0.229037002,-0.371520996,1.078379035,0.556210995,0.983532012,0.380959988,0.162155002,-0.058890998,-0.197163999,-1.599143982,-0.93176502,-1.355563045,-0.396196008,-0.88075,1.183411002,-1.063130975,-0.065059997,-0.395271003,-0.068691999,1.293679953,0.249463007,0.537065029,0.027447,-0.180086002,0.64250201,-0.205537006,0.345598996,-0.888095021,-0.816321015,-0.065486997,-1.199555993,-0.52364701,1.162865996,-0.272772998,-0.025901999,0.391743004,1.266888976,-0.335483015,0.108217999,-0.768106997,0.409478009,1.321768045,0.617717028,-0.681756973,1.84323597,1.056084037,0.045084,-0.911906004,1.659255028,-0.55915302,-0.182403997,2.125058889,-0.65575099,-0.144834995,0.859984994,-1.673524976,-1.464527965,2.013739109,1.376834035,-0.866264999,0.400150001,-0.053357001,0.073413,-0.204554006,0.854640007,-0.191892996,-0.948873997,-0.351514995,-1.944915056,-0.193302006,0.002484,-0.813603997,-1.026237011,-1.000777006,-0.446934998,-1.506003022,-0.32970801,-0.029851999,-0.532402992,-0.495415002,-0.60423398,0.754512012,-0.180398002,-1.463315964,1.248471975,2.737086058,-0.421930999,-0.281367987,-0.842067003,-1.127336025,0.140782997,-0.568940997,0.913392007,-0.416785985,-0.214671999,0.937525988,-0.619554996,1.156031966,-0.392435998,0.305424988,0.745316029,ä¸»ä½“,-0.930088997,-0.496666014,-0.83079797,-0.502948999,1.199255943,0.197106004,0.403577,-2.285612106,1.743826032,-0.076586001,0.665409029,0.136081994,-1.01383698,1.223734021,-0.096615002,-0.695716977,-0.165179998,-0.555420995,-0.385944009,-0.910574019,-0.093405001,0.080132,-0.561878979,-0.738084972,0.454077989,1.010107994,0.183761999,0.263547003,0.173605993,0.817282021,1.18502605,0.566425025,-0.561182976,1.273710012,1.614822984,-1.469779968,-0.397579014,-1.696199059,0.807232022,0.890949011,0.684536994,-0.582243025,-1.032524943,-0.677124023,-0.006362,0.720743001,0.692734003,-1.248023987,-0.360399008,0.261200011,1.094787002,-0.046034999,0.973127007,-0.191486999,-2.284522057,1.217383981,1.166847944,-1.012941003,-0.936502993,0.098357998,-0.807563007,-1.162688971,-0.755760014,-1.51870501,-1.111577988,-0.874792993,-0.328455001,2.303435087,0.448756993,0.410353005,-1.230113029,0.359710991,-0.089224003,1.267779946,0.677375972,-1.571238995,2.023178101,-1.030184984,-0.461905986,-0.428469002,0.646615028,-1.684524059,-0.222267002,0.607349992,-0.163982004,0.840129018,-0.579244018,0.013433,0.739383996,0.434098989,-0.045827001,0.308676004,-0.53976202,0.054567002,-0.113280997,0.646340013,1.279207945,-1.066890955,-0.430970997,-0.375557005,0.372137994,0.226778001,0.658863008,0.654739976,0.141754001,-1.318315029,1.227745056,0.932761014,0.075094,-0.928269982,0.161873996,-0.340135008,-1.246111035,-0.78607899,-0.839854002,0.078883,-0.365770012,-1.194242001,0.105109997,1.698801994,1.324131966,-0.86441201,0.362340987,-0.697887003,-0.771120012,-0.689387023,-2.479228973,-0.254146993,0.568651021,-1.298226953,-0.900671005,-1.150519967,-0.936864972,1.239454031,-0.394753993,0.595358014,-0.085081004,1.267420053,0.309808999,-0.642733991,2.099570036,0.677555025,0.718043983,0.366852999,-0.231593996,-0.115613997,0.456259996,0.298990011,-0.492518991,0.471632004,1.478523016,-0.295864999,-0.612547994,1.290691018,-0.502399981,0.862432003,-0.720848978,-1.93454504,-0.545521975,0.936161995,0.112282999,-0.706570983,0.66839999,-0.859007001,-0.274801999,1.076694012,1.115165949,-0.532706022,-0.536310017,0.504787028,-1.414837956,0.289958,0.283814996,1.172868967,-0.462884009,-0.791548014,2.236952066,-0.639373004,-1.537992001,0.231052995,0.75604701,-0.572071016,0.123214997,-0.464783996,0.984610021,-0.384609014,1.390107989,0.243851006,0.59701401,0.201846004,0.102505997,-1.167062998,1.321256995,1.113085985,-1.203534961,0.232835993,1.329982996,0.007815,0.880490005,-0.45301801,-0.065208003,0.203014001,0.134313002,-1.060551047,-0.661477029,0.582013011,0.163900003,-0.606931984,-1.016461968,1.356024981,-0.984363019,-0.35729,1.79894805,0.911777973,0.615051985,-0.580264986,-0.369504005,-1.039873958,-0.241666004,-0.392273992,0.797075987,-1.293169975,1.087460041,1.102408051,-0.844263971,-0.818488002,-0.365864009,-0.472065002,-1.448225021,1.087000012,-0.605257988,0.434994012,0.148456007,-1.305956006,0.538478017,-1.532238007,-0.356985986,-0.651915014,0.380172998,-0.096762002,1.857555985,1.286389947,-0.472404003,0.893962026,1.49484098,-1.391839981,0.616922975,-1.39972198,0.284913987,-0.846023023,0.405142009,1.379187942,0.740508974,-1.493963003,0.458626002,1.50862205,0.59602201,0.078533001,0.698256016,0.326833993,0.836403012,1.299700022,-0.793314993,0.702482998,0.337060004,-0.651908994,-0.109117001,-0.843529999,0.509092987,0.534555018,-0.87619698,-1.105540991,-0.407658011,0.659159005,-2.444274902,1.040423989,-1.11826098,0.102594003,-1.284147024,-0.139091998,-0.493593991,-0.179129004,0.659325004,0.600301027,-0.66178,-0.804283023,-0.082028002,-0.314283013,-0.103263997,-0.064887002,-0.065814003,-0.932115972,-0.270704001,-0.733349025,0.207248002,0.736501992,-0.843913019,0.710267007,0.762081981,0.229037002,-0.371520996,1.078379035,0.556210995,0.983532012,0.380959988,0.162155002,-0.058890998,-0.197163999,-1.599143982,-0.93176502,-1.355563045,-0.396196008,-0.88075,1.183411002,-1.063130975,-0.065059997,-0.395271003,-0.068691999,1.293679953,0.249463007,0.537065029,0.027447,-0.180086002,0.64250201,-0.205537006,0.345598996,-0.888095021,-0.816321015,-0.065486997,-1.199555993,-0.52364701,1.162865996,-0.272772998,-0.025901999,0.391743004,1.266888976,-0.335483015,0.108217999,-0.768106997,0.409478009,1.321768045,0.617717028,-0.681756973,1.84323597,1.056084037,0.045084,-0.911906004,1.659255028,-0.55915302,-0.182403997,2.125058889,-0.65575099,-0.144834995,0.859984994,-1.673524976,-1.464527965,2.013739109,1.376834035,-0.866264999,0.400150001,-0.053357001,0.073413,-0.204554006,0.854640007,-0.191892996,-0.948873997,-0.351514995,-1.944915056,-0.193302006,0.002484,-0.813603997,-1.026237011,-1.000777006,-0.446934998,-1.506003022,-0.32970801,-0.029851999,-0.532402992,-0.495415002,-0.60423398,0.754512012,-0.180398002,-1.463315964,1.248471975,2.737086058,-0.421930999,-0.281367987,-0.842067003,-1.127336025,0.140782997,-0.568940997,0.913392007,-0.416785985,-0.214671999,0.937525988,-0.619554996,1.156031966,-0.392435998,0.305424988,0.745316029
×´Ì¬,-0.478480011,-0.982650995,0.633844018,0.759268999,1.148710012,0.11473,1.427958965,-2.473031998,0.285409003,0.463319004,-1.221757054,-0.525656998,-2.235621929,-1.362447023,1.132755995,-1.387454033,-0.958903015,0.207911,-0.097191997,-1.132354975,-1.114555001,1.737666965,-1.313967943,0.962734997,0.670473993,1.50435698,-1.222792029,1.089565992,-0.385271996,1.196974993,-0.432233989,-2.598583937,-1.808277965,-0.066506997,1.185173035,0.807254016,1.774198055,0.511057019,-0.381440014,-0.027215,0.571676016,-0.878497005,-2.293756008,-0.795099974,-0.199171007,-0.717517972,0.546101987,-0.189762995,-0.301097006,-0.810774982,-0.524154007,-3.550453901,-0.377548009,2.519996881,0.628077984,-1.82902205,0.568518996,-1.854591012,-0.168465003,2.432461023,1.992305994,-0.195884004,0.73498702,-1.524322987,-1.668517947,-2.363516092,0.082257003,-0.948601007,1.099529028,-0.458447993,3.109728098,0.253996015,1.651824951,1.790382028,0.401028991,-0.214597002,1.75275898,0.602006972,0.253118992,0.96796602,0.173445001,-1.662310004,-0.300062001,1.02107501,-1.365751028,0.030339001,-0.451893985,0.122589,0.581408978,-0.495386004,0.025463,1.415120959,1.907706022,1.104310036,-0.856391013,0.302421004,-0.224720001,1.523493052,0.880886972,0.47884199,-0.42929101,1.557620049,0.234383002,1.807814956,0.407025009,-0.331342012,0.224352002,1.225914001,-0.017615,0.396943003,2.524059057,-1.279811025,-1.585242033,0.481444001,0.762368977,-0.218059003,1.299314022,-1.836408973,-1.030045986,2.170605898,1.30150497,-0.90979898,1.783260942,-0.465202004,0.749888003,1.636065006,1.260004997,-1.694430947,-0.105067998,-0.87560302,-0.84305799,-0.300341994,-0.596441984,-0.471765012,0.369370997,-0.727135003,0.958965003,-2.016397953,0.618157029,-1.89486599,0.200242996,1.074180961,-1.40496695,-0.671051979,0.216553003,0.188314006,-0.046500999,0.818010986,0.057622999,-0.256653994,0.694191992,-0.991783023,1.577296972,0.980876982,0.314500004,-0.767341971,-1.714534998,0.589419007,0.015012,1.515563011,-0.273667991,-2.290021896,1.990475059,-2.798655987,-1.214483023,2.141213894,0.562819004,0.117601,-0.923007011,-1.09167695,1.538349986,-2.483104944,0.979731023,0.977101028,-0.248056993,-0.171809003,0.827706993,1.009199977,-0.382571995,0.119851999,1.124047995,1.75433898,0.072212003,0.128206998,-1.334529042,-0.622561991,-0.525139987,0.535579979,-0.149795994,-0.267632008,1.642467022,1.13836503,0.361138999,-0.648813009,-0.143270999,1.011636019,-0.533662021,-0.801798999,0.167464003,-1.303326011,2.34105897,-0.531705022,-0.539987028,-1.119707942,-0.467204988,0.380257994,-2.075916052,-1.965497017,-2.459997892,1.486310005,-0.533541977,-1.667070985,-0.099310003,-0.253381997,0.265796006,-0.440548986,-1.017359018,-0.144543007,0.557632983,-0.740141988,-0.316507012,-0.233371004,1.729084015,-1.251330018,1.224457026,-1.160614014,-0.721364021,-0.497568011,-0.595308006,1.664520025,-0.374642015,0.498522013,0.027886,-1.199061036,3.015459061,-0.256981999,1.574133039,-0.722877026,0.142931998,-2.013966084,-1.440510988,0.532751977,-2.090764046,-0.098549001,0.905731022,0.139422998,0.437831998,-0.217134997,0.664430022,0.319166988,-0.204789996,1.743749976,0.246287003,0.495662004,-1.843837023,2.795819998,1.085966945,1.291771054,0.745657027,0.654681027,-1.606240988,-0.126406997,0.718890011,-0.038582999,0.088808,0.046673,1.121989965,-0.130401999,0.47379899,0.321229011,0.767099977,-0.688878,-0.881976008,1.061040044,-2.007505894,-1.538753986,-0.334726989,-0.355167001,-0.600759983,-0.385235012,-0.817350984,0.983771026,-0.082543999,0.361095011,-1.037389994,-0.433030993,-2.000056028,0.73952502,-1.134721041,-1.180222988,0.508105993,-0.135597005,0.071457997,-0.410120994,0.602890015,0.503302991,0.411394,1.882835984,-1.171828032,-0.318190992,-0.071935996,1.704653025,-0.316588998,0.33829999,0.624692976,0.314233005,-0.200525001,-2.094949961,-0.030701,1.010568976,-0.069021001,-0.939185977,-0.062307,-0.531907022,0.678957999,-0.265239,-0.816455007,0.825079978,-0.740607023,-1.268625975,-1.153725982,0.676185012,-0.089823999,0.540373027,-0.537743986,1.224913955,0.201415002,-0.948081017,-1.627416968,0.186287999,-0.800817013,-0.898391008,-0.839064002,0.376006007,1.72882998,-0.482986987,1.381664038,0.059303001,-0.146882996,0.016078001,-0.726411998,2.221853971,0.989198029,-0.145778999,-0.176210001,-0.518827975,0.167660996,1.79301095,1.096143961,0.298694998,2.517117023,-0.506666005,0.268191993,2.338124037,-1.163046002,-0.817878008,0.204763994,1.61856699,0.190834999,-0.27481699,-0.219096005,0.029755,-2.533524036,2.022450924,-1.385529041,-1.87222898,-0.154374003,0.715636015,1.130509973,1.169615984,1.564196944,1.480597019,0.366914988,0.984027982,0.867547989,0.417991012,0.232277006,-0.304580003,-0.270428985,1.029335976,0.822740018,0.377992988,-1.414114952,-0.135582,2.113221884,0.359366,-0.883724988,-0.164130002,-1.427448034,1.613574028,0.110320002,1.717934012,-1.367823005,-0.803988993,-0.947821021,-3.322874069,1.122213006,-0.257108986,-0.556707978,-0.755499005,çŠ¶æ€?-0.478480011225,-0.982650995,0.633844018,0.759268999,1.148710012,0.11473,1.427958965,-2.473031998,0.285409003,0.463319004,-1.221757054,-0.525656998,-2.235621929,-1.362447023,1.132755995,-1.387454033,-0.958903015,0.207911,-0.097191997,-1.132354975,-1.114555001,1.737666965,-1.313967943,0.962734997,0.670473993,1.50435698,-1.222792029,1.089565992,-0.385271996,1.196974993,-0.432233989,-2.598583937,-1.808277965,-0.066506997,1.185173035,0.807254016,1.774198055,0.511057019,-0.381440014,-0.027215,0.571676016,-0.878497005,-2.293756008,-0.795099974,-0.199171007,-0.717517972,0.546101987,-0.189762995,-0.301097006,-0.810774982,-0.524154007,-3.550453901,-0.377548009,2.519996881,0.628077984,-1.82902205,0.568518996,-1.854591012,-0.168465003,2.432461023,1.992305994,-0.195884004,0.73498702,-1.524322987,-1.668517947,-2.363516092,0.082257003,-0.948601007,1.099529028,-0.458447993,3.109728098,0.253996015,1.651824951,1.790382028,0.401028991,-0.214597002,1.75275898,0.602006972,0.253118992,0.96796602,0.173445001,-1.662310004,-0.300062001,1.02107501,-1.365751028,0.030339001,-0.451893985,0.122589,0.581408978,-0.495386004,0.025463,1.415120959,1.907706022,1.104310036,-0.856391013,0.302421004,-0.224720001,1.523493052,0.880886972,0.47884199,-0.42929101,1.557620049,0.234383002,1.807814956,0.407025009,-0.331342012,0.224352002,1.225914001,-0.017615,0.396943003,2.524059057,-1.279811025,-1.585242033,0.481444001,0.762368977,-0.218059003,1.299314022,-1.836408973,-1.030045986,2.170605898,1.30150497,-0.90979898,1.783260942,-0.465202004,0.749888003,1.636065006,1.260004997,-1.694430947,-0.105067998,-0.87560302,-0.84305799,-0.300341994,-0.596441984,-0.471765012,0.369370997,-0.727135003,0.958965003,-2.016397953,0.618157029,-1.89486599,0.200242996,1.074180961,-1.40496695,-0.671051979,0.216553003,0.188314006,-0.046500999,0.818010986,0.057622999,-0.256653994,0.694191992,-0.991783023,1.577296972,0.980876982,0.314500004,-0.767341971,-1.714534998,0.589419007,0.015012,1.515563011,-0.273667991,-2.290021896,1.990475059,-2.798655987,-1.214483023,2.141213894,0.562819004,0.117601,-0.923007011,-1.09167695,1.538349986,-2.483104944,0.979731023,0.977101028,-0.248056993,-0.171809003,0.827706993,1.009199977,-0.382571995,0.119851999,1.124047995,1.75433898,0.072212003,0.128206998,-1.334529042,-0.622561991,-0.525139987,0.535579979,-0.149795994,-0.267632008,1.642467022,1.13836503,0.361138999,-0.648813009,-0.143270999,1.011636019,-0.533662021,-0.801798999,0.167464003,-1.303326011,2.34105897,-0.531705022,-0.539987028,-1.119707942,-0.467204988,0.380257994,-2.075916052,-1.965497017,-2.459997892,1.486310005,-0.533541977,-1.667070985,-0.099310003,-0.253381997,0.265796006,-0.440548986,-1.017359018,-0.144543007,0.557632983,-0.740141988,-0.316507012,-0.233371004,1.729084015,-1.251330018,1.224457026,-1.160614014,-0.721364021,-0.497568011,-0.595308006,1.664520025,-0.374642015,0.498522013,0.027886,-1.199061036,3.015459061,-0.256981999,1.574133039,-0.722877026,0.142931998,-2.013966084,-1.440510988,0.532751977,-2.090764046,-0.098549001,0.905731022,0.139422998,0.437831998,-0.217134997,0.664430022,0.319166988,-0.204789996,1.743749976,0.246287003,0.495662004,-1.843837023,2.795819998,1.085966945,1.291771054,0.745657027,0.654681027,-1.606240988,-0.126406997,0.718890011,-0.038582999,0.088808,0.046673,1.121989965,-0.130401999,0.47379899,0.321229011,0.767099977,-0.688878,-0.881976008,1.061040044,-2.007505894,-1.538753986,-0.334726989,-0.355167001,-0.600759983,-0.385235012,-0.817350984,0.983771026,-0.082543999,0.361095011,-1.037389994,-0.433030993,-2.000056028,0.73952502,-1.134721041,-1.180222988,0.508105993,-0.135597005,0.071457997,-0.410120994,0.602890015,0.503302991,0.411394,1.882835984,-1.171828032,-0.318190992,-0.071935996,1.704653025,-0.316588998,0.33829999,0.624692976,0.314233005,-0.200525001,-2.094949961,-0.030701,1.010568976,-0.069021001,-0.939185977,-0.062307,-0.531907022,0.678957999,-0.265239,-0.816455007,0.825079978,-0.740607023,-1.268625975,-1.153725982,0.676185012,-0.089823999,0.540373027,-0.537743986,1.224913955,0.201415002,-0.948081017,-1.627416968,0.186287999,-0.800817013,-0.898391008,-0.839064002,0.376006007,1.72882998,-0.482986987,1.381664038,0.059303001,-0.146882996,0.016078001,-0.726411998,2.221853971,0.989198029,-0.145778999,-0.176210001,-0.518827975,0.167660996,1.79301095,1.096143961,0.298694998,2.517117023,-0.506666005,0.268191993,2.338124037,-1.163046002,-0.817878008,0.204763994,1.61856699,0.190834999,-0.27481699,-0.219096005,0.029755,-2.533524036,2.022450924,-1.385529041,-1.87222898,-0.154374003,0.715636015,1.130509973,1.169615984,1.564196944,1.480597019,0.366914988,0.984027982,0.867547989,0.417991012,0.232277006,-0.304580003,-0.270428985,1.029335976,0.822740018,0.377992988,-1.414114952,-0.135582,2.113221884,0.359366,-0.883724988,-0.164130002,-1.427448034,1.613574028,0.110320002,1.717934012,-1.367823005,-0.803988993,-0.947821021,-3.322874069,1.122213006,-0.257108986,-0.556707978,-0.755499005,
Ô¶Àë,0.953149021,2.129019976,-1.143697023,-1.488036036,0.941073,-0.274946004,1.070804954,-0.085918002,-0.667653024,2.230993986,1.158702016,-1.448632956,-0.464807987,-0.402500987,0.169415995,0.361427993,-0.63488698,0.024625,0.139074996,-1.56219995,0.903304994,-0.288677007,-1.295814991,-0.883821011,4.222339153,0.466024995,-1.60591197,-0.302275985,-1.395514011,-0.977311015,-0.130103007,-0.329955995,-0.966289997,-0.448008001,-0.156821996,0.068898998,0.348421991,-0.692740977,-1.245870948,1.532032967,-1.336298943,0.728088975,-0.014136,-1.186647058,0.191630006,0.794188023,0.508922994,-0.939248025,-0.012097,-0.006587,-0.136582002,-0.449324012,-0.265693992,-0.859771013,0.283681005,-0.283003002,0.342045009,-0.333416998,0.045122001,0.253838003,-0.433315009,0.617109001,-0.621469975,0.906027973,-1.038450003,0.971791983,-1.009421945,-1.375920057,-0.389755011,0.936212003,1.190652013,-0.814365983,-0.689319015,-0.882613003,-1.519636989,0.600687981,0.944426,0.716206014,1.608878016,-0.856076002,-0.143718004,0.097274996,0.426302999,-0.361306995,0.683399975,0.817488015,0.363238007,1.135488033,0.83930999,1.146613002,0.715812981,-1.216230035,-0.843369007,-1.79667604,0.459087014,-0.991177022,-1.695153952,1.241623044,-0.610646009,0.285064995,1.418158054,-1.160349011,-0.116926,1.601505995,-0.198258996,-0.503526986,-0.710052013,0.103926003,-0.529178023,1.346339941,-0.071321003,-0.676234007,-1.077350974,0.176266,1.272150993,-1.887328029,0.197962001,0.240957007,-1.572332025,0.742213011,0.34146601,-0.51957798,0.778137982,0.246016994,-0.339361995,0.298691988,-0.610055029,0.116705,0.474058986,-0.953242004,1.278159976,-1.090073943,-0.078230001,1.538797021,0.025158999,1.038444042,-0.42087999,0.473681003,-0.452558994,0.147446007,0.411224008,1.861497998,-2.155116081,-1.416394949,1.383129954,-0.925894976,0.655470014,0.647831976,-0.726836026,-0.574795008,-0.785495996,-1.035509944,-1.430662036,1.592959046,1.116678953,0.998400986,-0.055091999,-0.458247989,-0.280414999,-1.087373972,-0.291909993,-0.369845986,-0.219981998,0.736494005,0.733222008,-0.664686024,1.304898024,-0.003845,-0.627231002,0.396999002,0.431457013,-0.20713,1.266538024,-0.358763009,-0.512880981,-2.029994011,1.034927011,0.959621012,-0.287113994,-0.260812998,-0.686851978,0.980365992,1.709992051,-0.893227994,1.897104979,1.387789965,0.031196,0.278163999,0.296270013,-0.216057003,0.489484996,0.018102,0.933854997,1.324363947,0.637287974,-0.429028988,0.763457,0.071162,0.952950001,1.052031994,0.718122005,-0.933180988,-0.274448991,-0.577791989,-0.656610012,-0.042213999,-0.956969976,-0.48011601,0.229807004,2.083700895,-1.085510015,0.899304986,0.283066005,-0.537706971,1.026811004,0.039847001,-0.018242,1.041633964,-0.389059991,1.732190967,0.176056996,0.315627009,-0.333656996,-0.191039994,-0.301384002,-0.694281995,-0.172257006,-0.319272995,1.574586988,-0.631769001,1.210322022,0.42868799,1.513468027,0.189238995,1.195659041,0.92979902,0.297066003,-0.167065993,0.068967998,1.340324998,1.279325008,-0.257364988,0.499803007,-1.532518983,0.377806991,0.146215007,0.310593009,-0.496365011,-1.651707053,0.676247001,-0.015206,0.973468006,-1.411214948,-0.437299997,0.418123007,1.117213011,-0.251626998,0.244801,-0.922397017,0.508347988,-1.443878055,0.526336014,-0.298415989,0.386186987,-0.30419001,-0.613545001,-1.094733953,-0.993254006,-0.32091701,-0.118694,-0.486609995,0.965107977,-0.175972998,-1.005015016,0.394861013,0.168917,0.455246001,-0.631686985,-0.877614021,0.125718996,2.083718061,-0.344439,1.056542993,2.255702019,-0.067684002,-0.560131013,-0.071152002,-0.295935988,0.111994997,-0.412856996,0.162277997,0.072272003,-0.632351995,-0.96885401,1.895727992,1.844122052,0.333292991,-0.471338004,-0.309603006,1.306296945,-0.897082984,0.415998995,-0.588871002,-0.086329997,0.770353019,-0.637211025,-0.994566977,-0.209612995,-0.051148999,0.130181,-0.726467013,-0.366661996,1.030331969,-0.643693984,-0.903881013,-0.432722986,0.565496981,0.073002003,-0.316390991,-0.808709025,0.637199998,0.816178977,0.76264298,0.914416015,-0.061306,-0.869638979,-1.521705031,-1.155645013,0.499119997,1.487398982,-0.202416003,-0.018641001,1.444170952,1.206676006,1.508478045,0.557519019,0.679942012,-1.629781961,-0.92465502,0.972038984,0.043155,0.889427006,0.964228988,-1.114563942,0.781612992,-1.190336943,-0.408836007,-0.604339004,1.728397965,0.331616998,-0.158338994,-1.312095046,-0.539656997,-0.52391398,-0.063997999,-1.05913198,-0.757818997,-0.866195023,0.482192993,0.939725995,0.772799015,0.008082,0.104415998,-0.180869997,-0.481335998,-2.206875086,-0.169663996,-0.257070005,0.561125994,0.893037021,0.020843999,1.229608059,0.420365989,0.813812017,0.327906996,-1.008226037,0.354351014,0.040054001,-1.806730986,-0.864380002,-0.595053971,1.112190962,-1.293995976,2.716109991,1.108857036,-0.051644001,-0.948314011,0.460669011,-0.523342013,0.184008002,2.427436113,-0.076265998,0.468625993,0.961238027,0.786983013,0.734685004,0.848845005,-0.054804999,-0.108718999,-1.742457986,è¿œç¦»,0.953149021,2.129019976,-1.143697023,-1.488036036,0.941073,-0.274946004,1.070804954,-0.085918002,-0.667653024,2.230993986,1.158702016,-1.448632956,-0.464807987,-0.402500987,0.169415995,0.361427993,-0.63488698,0.024625,0.139074996,-1.56219995,0.903304994,-0.288677007,-1.295814991,-0.883821011,4.222339153,0.466024995,-1.60591197,-0.302275985,-1.395514011,-0.977311015,-0.130103007,-0.329955995,-0.966289997,-0.448008001,-0.156821996,0.068898998,0.348421991,-0.692740977,-1.245870948,1.532032967,-1.336298943,0.728088975,-0.014136,-1.186647058,0.191630006,0.794188023,0.508922994,-0.939248025,-0.012097,-0.006587,-0.136582002,-0.449324012,-0.265693992,-0.859771013,0.283681005,-0.283003002,0.342045009,-0.333416998,0.045122001,0.253838003,-0.433315009,0.617109001,-0.621469975,0.906027973,-1.038450003,0.971791983,-1.009421945,-1.375920057,-0.389755011,0.936212003,1.190652013,-0.814365983,-0.689319015,-0.882613003,-1.519636989,0.600687981,0.944426,0.716206014,1.608878016,-0.856076002,-0.143718004,0.097274996,0.426302999,-0.361306995,0.683399975,0.817488015,0.363238007,1.135488033,0.83930999,1.146613002,0.715812981,-1.216230035,-0.843369007,-1.79667604,0.459087014,-0.991177022,-1.695153952,1.241623044,-0.610646009,0.285064995,1.418158054,-1.160349011,-0.116926,1.601505995,-0.198258996,-0.503526986,-0.710052013,0.103926003,-0.529178023,1.346339941,-0.071321003,-0.676234007,-1.077350974,0.176266,1.272150993,-1.887328029,0.197962001,0.240957007,-1.572332025,0.742213011,0.34146601,-0.51957798,0.778137982,0.246016994,-0.339361995,0.298691988,-0.610055029,0.116705,0.474058986,-0.953242004,1.278159976,-1.090073943,-0.078230001,1.538797021,0.025158999,1.038444042,-0.42087999,0.473681003,-0.452558994,0.147446007,0.411224008,1.861497998,-2.155116081,-1.416394949,1.383129954,-0.925894976,0.655470014,0.647831976,-0.726836026,-0.574795008,-0.785495996,-1.035509944,-1.430662036,1.592959046,1.116678953,0.998400986,-0.055091999,-0.458247989,-0.280414999,-1.087373972,-0.291909993,-0.369845986,-0.219981998,0.736494005,0.733222008,-0.664686024,1.304898024,-0.003845,-0.627231002,0.396999002,0.431457013,-0.20713,1.266538024,-0.358763009,-0.512880981,-2.029994011,1.034927011,0.959621012,-0.287113994,-0.260812998,-0.686851978,0.980365992,1.709992051,-0.893227994,1.897104979,1.387789965,0.031196,0.278163999,0.296270013,-0.216057003,0.489484996,0.018102,0.933854997,1.324363947,0.637287974,-0.429028988,0.763457,0.071162,0.952950001,1.052031994,0.718122005,-0.933180988,-0.274448991,-0.577791989,-0.656610012,-0.042213999,-0.956969976,-0.48011601,0.229807004,2.083700895,-1.085510015,0.899304986,0.283066005,-0.537706971,1.026811004,0.039847001,-0.018242,1.041633964,-0.389059991,1.732190967,0.176056996,0.315627009,-0.333656996,-0.191039994,-0.301384002,-0.694281995,-0.172257006,-0.319272995,1.574586988,-0.631769001,1.210322022,0.42868799,1.513468027,0.189238995,1.195659041,0.92979902,0.297066003,-0.167065993,0.068967998,1.340324998,1.279325008,-0.257364988,0.499803007,-1.532518983,0.377806991,0.146215007,0.310593009,-0.496365011,-1.651707053,0.676247001,-0.015206,0.973468006,-1.411214948,-0.437299997,0.418123007,1.117213011,-0.251626998,0.244801,-0.922397017,0.508347988,-1.443878055,0.526336014,-0.298415989,0.386186987,-0.30419001,-0.613545001,-1.094733953,-0.993254006,-0.32091701,-0.118694,-0.486609995,0.965107977,-0.175972998,-1.005015016,0.394861013,0.168917,0.455246001,-0.631686985,-0.877614021,0.125718996,2.083718061,-0.344439,1.056542993,2.255702019,-0.067684002,-0.560131013,-0.071152002,-0.295935988,0.111994997,-0.412856996,0.162277997,0.072272003,-0.632351995,-0.96885401,1.895727992,1.844122052,0.333292991,-0.471338004,-0.309603006,1.306296945,-0.897082984,0.415998995,-0.588871002,-0.086329997,0.770353019,-0.637211025,-0.994566977,-0.209612995,-0.051148999,0.130181,-0.726467013,-0.366661996,1.030331969,-0.643693984,-0.903881013,-0.432722986,0.565496981,0.073002003,-0.316390991,-0.808709025,0.637199998,0.816178977,0.76264298,0.914416015,-0.061306,-0.869638979,-1.521705031,-1.155645013,0.499119997,1.487398982,-0.202416003,-0.018641001,1.444170952,1.206676006,1.508478045,0.557519019,0.679942012,-1.629781961,-0.92465502,0.972038984,0.043155,0.889427006,0.964228988,-1.114563942,0.781612992,-1.190336943,-0.408836007,-0.604339004,1.728397965,0.331616998,-0.158338994,-1.312095046,-0.539656997,-0.52391398,-0.063997999,-1.05913198,-0.757818997,-0.866195023,0.482192993,0.939725995,0.772799015,0.008082,0.104415998,-0.180869997,-0.481335998,-2.206875086,-0.169663996,-0.257070005,0.561125994,0.893037021,0.020843999,1.229608059,0.420365989,0.813812017,0.327906996,-1.008226037,0.354351014,0.040054001,-1.806730986,-0.864380002,-0.595053971,1.112190962,-1.293995976,2.716109991,1.108857036,-0.051644001,-0.948314011,0.460669011,-0.523342013,0.184008002,2.427436113,-0.076265998,0.468625993,0.961238027,0.786983013,0.734685004,0.848845005,-0.054804999,-0.108718999,-1.742457986
²¿ÉÏ,-0.052591,-0.125309005,0.016897,0.00606,-0.003487,0.043873999,0.106298,-0.064892001,0.020912999,0.045487002,-0.036040999,-0.01124,0.028655,-0.041517001,-0.012756,0.002005,0.013945,0.032526001,-0.081124,-0.054848999,-0.074731998,0.098548003,0.108290002,0.057277001,-0.082809001,-0.069599003,-0.064028002,0.006133,0.028865,-0.069686003,-0.000406,-0.048916001,-0.013774,-0.022961,-0.007091,0.063293003,0.019746,0.006928,0.020896999,-0.010093,-0.034401,-0.058649,-0.009576,-0.012857,0.038144998,0.023272,-0.050152998,-0.005177,0.010709,0.027048999,-0.037875,0.029175,-0.033438999,-0.128286004,0.063175,0.036791999,-0.008496,-0.052705999,0.041857999,0.06656,0.038947001,-0.025294,-0.035399999,-0.058166001,0.006293,0.046989001,-0.025465,0.000785,0.023903999,-0.016422,-0.071671002,-0.040720001,0.006884,-0.001073,0.025533,-0.049778,-0.002296,-0.076531,-0.075646996,0.045274001,-0.014162,-0.024234001,-0.031796999,0.032430999,-0.011522,-0.040798001,-0.015867,0.016520999,-0.026218999,-0.029410001,-0.020124,0.002189,-0.018455001,0.041168999,0.033996001,-0.035190001,-0.003395,0.026074,-0.009443,0.014818,0.081992999,0.086098,0.036644999,-0.005408,0.035418,0.098762996,-0.021725001,-0.017820001,0.029138001,0.083535001,-0.032584,0.034945998,0.037951998,0.046742,0.023491001,0.054970998,0.033746,-0.018389,-0.059119999,0.042753998,0.107449003,-0.018771,0.015891001,0.063437,0.01671,0.115547001,0.039035,0.012353,-0.066197,-0.082829997,0.078620002,-0.089299999,-0.009187,-0.031989001,-0.098249003,-0.019467,0.017167,-0.014108,-0.015047,-0.053766001,0.020137999,0.071846999,0.023389,0.012242,0.016561,-0.040591002,-0.011909,0.025748,-0.039772999,0.058595002,-0.020300999,0.01608,-0.014631,-0.051238,0.002684,-0.059133999,0.008255,0.007941,-0.030393999,0.039942,0.057838999,-0.040362,-0.0513,-0.053530999,-0.070344001,-0.028845999,0.039526001,0.009301,0.008311,-0.044101998,0.079910003,-0.023201,0.002253,-0.070220001,0.057603002,0.003532,0.000785,0.052581001,-0.01068,-0.070266001,-0.064534001,-0.050393999,0.015849,-0.006352,-0.014392,0.007691,-0.039678998,-0.003112,0.060837001,0.036511,-0.006598,-0.010965,-0.059714001,0.012299,0.020178,0.047943,0.009257,-0.031626001,0.035496,-0.00265,-0.041028,0.019242,0.087093003,0.02956,-0.016803,-0.025180001,0.096529998,0.006502,-0.095461003,0.099326,0.076095998,0.063616,0.010663,0.058591001,0.057468001,0.003672,0.032122999,0.000681,0.024637001,0.051321998,0.013914,-0.010636,-0.037912998,-0.048404999,0.023799,0.061021999,0.01443,-0.107738003,0.007167,0.011405,-0.011544,0.022217,-0.009319,-0.045566,-0.001396,0.053665001,-0.039237,-0.02771,0.012191,0.091132,0.028558001,0.046976,0.066881001,-0.029203,0.086089998,0.125003994,0.027556,0.023912,0.038047001,0.076590002,-0.003671,0.050163999,0.059374001,0.028732,0.02658,0.001879,-0.003251,-0.025869999,0.004293,0.040451001,0.049874,0.007922,0.016339,0.057827,-0.043802999,0.121086001,-0.021667,0.018936999,-0.017326999,-0.04081,-0.025054,0.057734001,-0.033418,0.037891999,0.070731997,0.027463,-0.05314,-0.010723,0.039556999,0.003456,0.012709,-0.033893999,0.0196,-0.028070999,0.064473003,-0.053970002,-0.00703,-0.013339,0.013448,-0.02084,0.021387,-0.01416,-0.032318,0.009927,0.026876001,-0.047348,-0.021963,0.00547,0.029674999,0.061453,0.080962002,-0.090212002,0.012804,0.031397,0.019467,-0.029639,-0.000723,-0.015164,0.004088,-0.042924002,-0.00879,0.003157,-0.041163001,0.088297002,0.043465,0.041317001,0.039577998,-0.015666001,-0.017267,0.01221,0.063394003,-0.002754,-0.006703,-0.033822998,-0.034828,-0.019738,-0.044225,-0.006083,0.015544,-0.040803,0.030592,-0.022101,0.023700999,0.017635001,0.111327998,-0.032926999,-0.039693002,0.018230001,-0.087925002,0.026462,0.00732,-0.038323,0.050703999,-0.003942,0.067728996,-0.076918997,-0.037282001,-0.029689999,0.062313002,0.069486,0.036084998,0.084495999,0.060224999,0.019377001,0.015393,-0.042535,-0.033900999,-0.069344997,-0.054389998,-0.075303003,0.010766,0.033860002,-0.010061,0.087337002,0.083498001,0.026831999,0.040734999,0.022343,-0.045724999,0.097266003,0.010932,0.001633,0.028694,0.040114999,0.013496,0.032072,0.003304,0.01014,0.041157998,0.016349001,0.084665999,-0.089107998,0.02004,0.033209998,-0.057677001,0.00685,0.075822003,0.011286,-0.003412,0.002082,-0.04637,0.036697999,-0.019230001,-0.009117,0.008862,0.093024999,0.007228,-0.031268001,0.063823998,-0.021089001,éƒ¨ä¸Š,-0.052591,-0.125309005,0.016897,0.00606,-0.003487,0.043873999,0.106298,-0.064892001,0.020912999,0.045487002,-0.036040999,-0.01124,0.028655,-0.041517001,-0.012756,0.002005,0.013945,0.032526001,-0.081124,-0.054848999,-0.074731998,0.098548003,0.108290002,0.057277001,-0.082809001,-0.069599003,-0.064028002,0.006133,0.028865,-0.069686003,-0.000406,-0.048916001,-0.013774,-0.022961,-0.007091,0.063293003,0.019746,0.006928,0.020896999,-0.010093,-0.034401,-0.058649,-0.009576,-0.012857,0.038144998,0.023272,-0.050152998,-0.005177,0.010709,0.027048999,-0.037875,0.029175,-0.033438999,-0.128286004,0.063175,0.036791999,-0.008496,-0.052705999,0.041857999,0.06656,0.038947001,-0.025294,-0.035399999,-0.058166001,0.006293,0.046989001,-0.025465,0.000785,0.023903999,-0.016422,-0.071671002,-0.040720001,0.006884,-0.001073,0.025533,-0.049778,-0.002296,-0.076531,-0.075646996,0.045274001,-0.014162,-0.024234001,-0.031796999,0.032430999,-0.011522,-0.040798001,-0.015867,0.016520999,-0.026218999,-0.029410001,-0.020124,0.002189,-0.018455001,0.041168999,0.033996001,-0.035190001,-0.003395,0.026074,-0.009443,0.014818,0.081992999,0.086098,0.036644999,-0.005408,0.035418,0.098762996,-0.021725001,-0.017820001,0.029138001,0.083535001,-0.032584,0.034945998,0.037951998,0.046742,0.023491001,0.054970998,0.033746,-0.018389,-0.059119999,0.042753998,0.107449003,-0.018771,0.015891001,0.063437,0.01671,0.115547001,0.039035,0.012353,-0.066197,-0.082829997,0.078620002,-0.089299999,-0.009187,-0.031989001,-0.098249003,-0.019467,0.017167,-0.014108,-0.015047,-0.053766001,0.020137999,0.071846999,0.023389,0.012242,0.016561,-0.040591002,-0.011909,0.025748,-0.039772999,0.058595002,-0.020300999,0.01608,-0.014631,-0.051238,0.002684,-0.059133999,0.008255,0.007941,-0.030393999,0.039942,0.057838999,-0.040362,-0.0513,-0.053530999,-0.070344001,-0.028845999,0.039526001,0.009301,0.008311,-0.044101998,0.079910003,-0.023201,0.002253,-0.070220001,0.057603002,0.003532,0.000785,0.052581001,-0.01068,-0.070266001,-0.064534001,-0.050393999,0.015849,-0.006352,-0.014392,0.007691,-0.039678998,-0.003112,0.060837001,0.036511,-0.006598,-0.010965,-0.059714001,0.012299,0.020178,0.047943,0.009257,-0.031626001,0.035496,-0.00265,-0.041028,0.019242,0.087093003,0.02956,-0.016803,-0.025180001,0.096529998,0.006502,-0.095461003,0.099326,0.076095998,0.063616,0.010663,0.058591001,0.057468001,0.003672,0.032122999,0.000681,0.024637001,0.051321998,0.013914,-0.010636,-0.037912998,-0.048404999,0.023799,0.061021999,0.01443,-0.107738003,0.007167,0.011405,-0.011544,0.022217,-0.009319,-0.045566,-0.001396,0.053665001,-0.039237,-0.02771,0.012191,0.091132,0.028558001,0.046976,0.066881001,-0.029203,0.086089998,0.125003994,0.027556,0.023912,0.038047001,0.076590002,-0.003671,0.050163999,0.059374001,0.028732,0.02658,0.001879,-0.003251,-0.025869999,0.004293,0.040451001,0.049874,0.007922,0.016339,0.057827,-0.043802999,0.121086001,-0.021667,0.018936999,-0.017326999,-0.04081,-0.025054,0.057734001,-0.033418,0.037891999,0.070731997,0.027463,-0.05314,-0.010723,0.039556999,0.003456,0.012709,-0.033893999,0.0196,-0.028070999,0.064473003,-0.053970002,-0.00703,-0.013339,0.013448,-0.02084,0.021387,-0.01416,-0.032318,0.009927,0.026876001,-0.047348,-0.021963,0.00547,0.029674999,0.061453,0.080962002,-0.090212002,0.012804,0.031397,0.019467,-0.029639,-0.000723,-0.015164,0.004088,-0.042924002,-0.00879,0.003157,-0.041163001,0.088297002,0.043465,0.041317001,0.039577998,-0.015666001,-0.017267,0.01221,0.063394003,-0.002754,-0.006703,-0.033822998,-0.034828,-0.019738,-0.044225,-0.006083,0.015544,-0.040803,0.030592,-0.022101,0.023700999,0.017635001,0.111327998,-0.032926999,-0.039693002,0.018230001,-0.087925002,0.026462,0.00732,-0.038323,0.050703999,-0.003942,0.067728996,-0.076918997,-0.037282001,-0.029689999,0.062313002,0.069486,0.036084998,0.084495999,0.060224999,0.019377001,0.015393,-0.042535,-0.033900999,-0.069344997,-0.054389998,-0.075303003,0.010766,0.033860002,-0.010061,0.087337002,0.083498001,0.026831999,0.040734999,0.022343,-0.045724999,0.097266003,0.010932,0.001633,0.028694,0.040114999,0.013496,0.032072,0.003304,0.01014,0.041157998,0.016349001,0.084665999,-0.089107998,0.02004,0.033209998,-0.057677001,0.00685,0.075822003,0.011286,-0.003412,0.002082,-0.04637,0.036697999,-0.019230001,-0.009117,0.008862,0.093024999,0.007228,-0.031268001,0.063823998,-0.021089001
½áºÏ,0.012379,0.975144982,-0.818799019,-0.262304991,0.133518994,0.727026999,0.143635005,0.046994999,1.30171001,0.49733901,-0.58189702,-0.549288988,-0.830069005,-0.879221976,-1.124933004,-0.708271027,-0.683516026,-0.514030993,0.958817005,-0.468212008,1.056990027,-0.486595005,0.840273023,2.743741035,0.138595998,2.037883043,0.576075017,1.522964954,-0.667989016,0.499516994,-0.088832997,-0.222224995,0.293235004,-0.642772973,0.369715989,-1.359722972,-1.073999047,-0.90129298,0.020199001,0.340925992,0.926694989,-0.480387002,0.118914001,-1.553653002,-1.311076999,0.131606996,0.039820001,-1.230682015,0.08664,0.866937995,1.220934033,-0.77619499,-0.110290997,-0.029265,0.093838997,-0.313073009,-0.531051993,1.410444975,0.407018989,0.072114997,-1.504907012,0.732765973,-0.033888999,0.967204988,-0.221662,-0.248435006,-1.953555942,0.205341995,1.121917963,0.999628007,-0.826305985,0.405683994,1.029145956,1.554713964,-1.227751017,0.834142983,1.361541986,-0.037170999,2.946624041,-0.776319981,-0.044796001,0.169934005,0.84255302,-1.681023002,0.91357702,1.106948018,-0.255549014,-0.097910002,-0.712885976,0.056104001,-0.920826018,-0.403405011,-0.530288994,-0.30626601,-0.489717007,-0.022115,0.665009975,-0.799099028,-1.203881025,0.147303,-0.310247988,1.140522957,0.904204011,1.640818,-0.469897002,-2.964553118,1.229930997,-0.826556027,-1.149026036,-2.283476114,-1.760702968,-0.443468004,-0.004428,-0.359257013,0.578927994,1.165925026,0.330054998,-0.032164998,-0.701331019,1.11827004,-0.357607007,-0.222859994,1.672075033,-0.890348017,-1.62666297,1.659018993,-2.406574011,1.942867041,0.904874027,0.239677995,1.539108038,-2.775180101,0.299403995,1.595291972,0.594393015,0.049828999,-0.662679017,1.386096001,1.355983019,1.669911027,-0.079837002,1.15496099,0.353278011,0.174336001,-0.128189996,-0.567524016,1.094483972,0.915078998,0.380663991,-1.512513995,0.528765023,-0.986129999,1.600823998,0.771959007,0.923331022,0.452809006,0.803932011,-0.183486998,-0.414353997,0.737236023,0.359091014,-0.001231,1.28126204,-0.230323002,0.656069994,0.172280997,-0.176726997,-0.081243999,-1.561647058,1.096941948,-1.739771008,0.916814029,0.937058985,-0.613779008,1.575135946,-0.414202005,1.720931053,2.197427988,-0.714345992,-0.185066998,-0.59682101,0.096407004,1.087620974,-0.06072,-1.349938035,0.533689976,0.696457982,-0.261646003,-1.185556054,-0.022325,-1.33800602,-0.417822987,0.95440501,2.467695951,-1.210888028,0.253594011,-0.144078001,0.079907998,-0.585344017,0.141240999,0.867654979,-2.535259962,0.534812987,0.438127011,-1.596482039,0.892785013,1.128440976,-0.523636997,1.107530952,0.816322029,-0.191404,0.024684999,0.995513022,-0.482766986,0.372198999,-0.290692002,-1.285292029,-0.930575013,-0.873706996,-0.900467992,0.59087801,-1.546118021,1.153692007,0.71230799,-0.478377014,-0.578794003,-0.127347007,-0.382934004,-1.297726989,-1.983589053,-0.844832003,0.223776996,0.691964984,-1.691336036,0.652728975,-1.202407002,-0.203659996,1.022804022,0.185540006,0.455713987,1.072561026,0.263895005,0.064989001,1.039214015,0.750971019,-0.489654988,0.202509999,0.548381984,0.852979004,-0.643836975,0.197364002,-0.721301973,-0.016249999,-0.378078014,-0.51611203,1.70124197,-0.266710013,-0.682218015,1.020614982,0.462179005,-0.087967999,0.461735994,-1.02680397,0.468270987,-1.103911996,0.862438023,-0.521637976,0.692048013,1.255960941,-0.270891994,-0.871330023,-0.726576984,1.054123998,0.616362989,-0.537446022,1.121502042,-0.476790994,-0.073142,1.926828027,-0.301342994,1.349382997,0.704888999,0.679827988,-0.732168972,0.222541004,0.262331009,-0.580155015,-1.693814993,0.640326977,1.254004002,-1.965183973,0.551998973,0.038656998,0.520045996,-0.143350005,0.111566,0.000619,0.666402996,0.870899022,0.695095003,0.173345998,0.254624009,-1.932500958,0.327273011,0.470396012,2.309809923,-0.732577026,0.933530986,-0.058557,1.515390992,-2.673294067,-0.060137998,0.938340008,-0.319934994,0.307660013,-0.386002988,-2.130350113,0.088013001,1.040562987,1.171983004,0.365456998,-0.956423998,0.196823001,0.344992995,-0.274612993,-0.319350988,-0.496692002,-1.72060895,-0.532612026,-0.391591012,-0.682898998,0.018493,-0.769711018,0.692339003,0.397267014,-0.072572,0.431432009,0.589003026,-0.535851002,1.184169054,0.158502996,0.445946008,0.708827972,-0.488297999,0.275606006,-0.034977,0.996632993,0.791860998,0.583826005,0.412932009,0.87550801,-0.998263001,1.73902905,1.277291059,-0.392935008,0.170818999,0.848770976,0.283742994,-1.83237803,0.714776993,-0.457843006,-1.530228019,1.081722021,0.515976012,-0.973713994,-0.623319983,-1.732704997,-1.000831962,-0.973730028,-1.784301043,0.272130013,-0.187764004,-0.223840997,0.85948199,-0.080513,-0.609340012,-0.900734007,-0.896714985,0.799459994,-0.81873697,0.650997996,1.354401946,1.555817962,1.500041962,2.760164022,0.151912004,0.802757025,-1.914543033,-1.388972044,-0.013162,1.667726994,1.159757018,-0.784125984,0.478567004,0.491016001,-0.47281,2.264919996,-0.767934978,-0.818938017,-0.935066998,ç»“åˆ,0.012379,0.975144982,-0.818799019,-0.262304991,0.133518994,0.727026999,0.143635005,0.046994999,1.30171001,0.49733901,-0.58189702,-0.549288988,-0.830069005,-0.879221976,-1.124933004,-0.708271027,-0.683516026,-0.514030993,0.958817005,-0.468212008,1.056990027,-0.486595005,0.840273023,2.743741035,0.138595998,2.037883043,0.576075017,1.522964954,-0.667989016,0.499516994,-0.088832997,-0.222224995,0.293235004,-0.642772973,0.369715989,-1.359722972,-1.073999047,-0.90129298,0.020199001,0.340925992,0.926694989,-0.480387002,0.118914001,-1.553653002,-1.311076999,0.131606996,0.039820001,-1.230682015,0.08664,0.866937995,1.220934033,-0.77619499,-0.110290997,-0.029265,0.093838997,-0.313073009,-0.531051993,1.410444975,0.407018989,0.072114997,-1.504907012,0.732765973,-0.033888999,0.967204988,-0.221662,-0.248435006,-1.953555942,0.205341995,1.121917963,0.999628007,-0.826305985,0.405683994,1.029145956,1.554713964,-1.227751017,0.834142983,1.361541986,-0.037170999,2.946624041,-0.776319981,-0.044796001,0.169934005,0.84255302,-1.681023002,0.91357702,1.106948018,-0.255549014,-0.097910002,-0.712885976,0.056104001,-0.920826018,-0.403405011,-0.530288994,-0.30626601,-0.489717007,-0.022115,0.665009975,-0.799099028,-1.203881025,0.147303,-0.310247988,1.140522957,0.904204011,1.640818,-0.469897002,-2.964553118,1.229930997,-0.826556027,-1.149026036,-2.283476114,-1.760702968,-0.443468004,-0.004428,-0.359257013,0.578927994,1.165925026,0.330054998,-0.032164998,-0.701331019,1.11827004,-0.357607007,-0.222859994,1.672075033,-0.890348017,-1.62666297,1.659018993,-2.406574011,1.942867041,0.904874027,0.239677995,1.539108038,-2.775180101,0.299403995,1.595291972,0.594393015,0.049828999,-0.662679017,1.386096001,1.355983019,1.669911027,-0.079837002,1.15496099,0.353278011,0.174336001,-0.128189996,-0.567524016,1.094483972,0.915078998,0.380663991,-1.512513995,0.528765023,-0.986129999,1.600823998,0.771959007,0.923331022,0.452809006,0.803932011,-0.183486998,-0.414353997,0.737236023,0.359091014,-0.001231,1.28126204,-0.230323002,0.656069994,0.172280997,-0.176726997,-0.081243999,-1.561647058,1.096941948,-1.739771008,0.916814029,0.937058985,-0.613779008,1.575135946,-0.414202005,1.720931053,2.197427988,-0.714345992,-0.185066998,-0.59682101,0.096407004,1.087620974,-0.06072,-1.349938035,0.533689976,0.696457982,-0.261646003,-1.185556054,-0.022325,-1.33800602,-0.417822987,0.95440501,2.467695951,-1.210888028,0.253594011,-0.144078001,0.079907998,-0.585344017,0.141240999,0.867654979,-2.535259962,0.534812987,0.438127011,-1.596482039,0.892785013,1.128440976,-0.523636997,1.107530952,0.816322029,-0.191404,0.024684999,0.995513022,-0.482766986,0.372198999,-0.290692002,-1.285292029,-0.930575013,-0.873706996,-0.900467992,0.59087801,-1.546118021,1.153692007,0.71230799,-0.478377014,-0.578794003,-0.127347007,-0.382934004,-1.297726989,-1.983589053,-0.844832003,0.223776996,0.691964984,-1.691336036,0.652728975,-1.202407002,-0.203659996,1.022804022,0.185540006,0.455713987,1.072561026,0.263895005,0.064989001,1.039214015,0.750971019,-0.489654988,0.202509999,0.548381984,0.852979004,-0.643836975,0.197364002,-0.721301973,-0.016249999,-0.378078014,-0.51611203,1.70124197,-0.266710013,-0.682218015,1.020614982,0.462179005,-0.087967999,0.461735994,-1.02680397,0.468270987,-1.103911996,0.862438023,-0.521637976,0.692048013,1.255960941,-0.270891994,-0.871330023,-0.726576984,1.054123998,0.616362989,-0.537446022,1.121502042,-0.476790994,-0.073142,1.926828027,-0.301342994,1.349382997,0.704888999,0.679827988,-0.732168972,0.222541004,0.262331009,-0.580155015,-1.693814993,0.640326977,1.254004002,-1.965183973,0.551998973,0.038656998,0.520045996,-0.143350005,0.111566,0.000619,0.666402996,0.870899022,0.695095003,0.173345998,0.254624009,-1.932500958,0.327273011,0.470396012,2.309809923,-0.732577026,0.933530986,-0.058557,1.515390992,-2.673294067,-0.060137998,0.938340008,-0.319934994,0.307660013,-0.386002988,-2.130350113,0.088013001,1.040562987,1.171983004,0.365456998,-0.956423998,0.196823001,0.344992995,-0.274612993,-0.319350988,-0.496692002,-1.72060895,-0.532612026,-0.391591012,-0.682898998,0.018493,-0.769711018,0.692339003,0.397267014,-0.072572,0.431432009,0.589003026,-0.535851002,1.184169054,0.158502996,0.445946008,0.708827972,-0.488297999,0.275606006,-0.034977,0.996632993,0.791860998,0.583826005,0.412932009,0.87550801,-0.998263001,1.73902905,1.277291059,-0.392935008,0.170818999,0.848770976,0.283742994,-1.83237803,0.714776993,-0.457843006,-1.530228019,1.081722021,0.515976012,-0.973713994,-0.623319983,-1.732704997,-1.000831962,-0.973730028,-1.784301043,0.272130013,-0.187764004,-0.223840997,0.85948199,-0.080513,-0.609340012,-0.900734007,-0.896714985,0.799459994,-0.81873697,0.650997996,1.354401946,1.555817962,1.500041962,2.760164022,0.151912004,0.802757025,-1.914543033,-1.388972044,-0.013162,1.667726994,1.159757018,-0.784125984,0.478567004,0.491016001,-0.47281,2.264919996,-0.767934978,-0.818938017,-0.935066998
²¿·Ö,-1.216596007,0.553735971,1.199427009,-0.252952993,2.014991999,0.787330985,0.011569,-0.071140997,0.565818012,-0.452491999,0.680032015,0.928828001,-1.612236023,0.368241996,-0.140461996,-0.486775011,-1.097761989,0.033167001,1.675927043,-0.935155988,-0.173207998,-0.243857995,0.89577502,-0.003736,2.28836894,1.31753099,0.416040003,1.162482977,-0.584891021,1.146193981,0.864771008,-1.076014996,-1.23340404,-1.432366967,-0.02376,-1.03164506,0.155935004,-0.302861005,-0.290230006,1.514420033,0.160487995,0.780412018,-0.210598007,-0.243441999,1.197927952,0.323038995,-0.179103002,1.299772978,0.477732003,0.50860399,0.83901602,-0.579685986,0.785261989,0.910382986,-0.725934029,0.23319,1.95349896,-1.020833015,-0.444200009,0.545699,0.159623995,-0.502213001,-0.775093973,-1.24665904,0.308297008,0.137311995,0.179853007,1.624416947,1.889847994,-0.658083022,-0.782311976,-0.434249997,0.996547997,1.055040002,-0.14057,0.422022998,2.34048295,-0.919777989,1.181241989,1.099722028,1.400640965,-1.040776014,-0.573688984,0.428811997,1.186722994,0.673789024,0.434491992,0.653517008,1.106920958,-1.893697977,-0.00803,0.867697001,-2.07763195,1.590996981,-0.033071999,-1.271440983,0.578309,0.247038007,-0.280230999,0.431672007,0.014667,0.226791993,1.249639034,1.49149096,-2.48307395,-0.132844001,1.125589967,0.55192697,0.333568007,0.533123016,0.294676006,-1.123121023,-1.79805696,-0.560778975,-0.336111009,2.542062044,1.902951002,-0.340599,0.827884018,1.495669961,-1.435410023,-0.55262202,-0.614643991,-1.780766964,-0.311664999,1.176234007,-0.865216017,-1.395481944,0.391514003,-0.816713989,0.478448004,-1.540603995,-0.930814981,-0.396095008,-0.284563988,-0.302444994,-0.758578002,0.594119012,-0.459491998,0.432004988,0.147641003,-1.152639031,-0.123783,-0.353291005,-1.087339997,-0.338414013,-1.24020505,1.619004965,1.050560951,-0.578068972,-1.498960018,0.936729014,-0.041914001,0.109029002,-1.615090013,1.805719972,-0.383850008,-0.824976027,-1.567782998,0.687702,0.777702987,-0.680594027,1.258716941,-0.900265992,-0.094796002,0.723013997,0.086943999,-0.331173986,-1.894749045,1.212087989,-0.835049987,-0.721638024,0.086638004,1.043190002,1.246199012,-0.547412992,1.505998015,2.975101948,1.136646986,0.549733996,0.429580003,-0.724159002,0.680739999,-0.836317003,0.915677011,-0.181365997,-0.468414992,1.658275008,-0.386577994,1.100165963,0.114628002,-0.399742991,1.878522992,0.855328023,-1.57862401,-0.514922023,1.990671039,-1.041193962,0.626978993,0.122014001,-0.525995016,0.532977998,-0.841898978,-1.72815001,-0.66643101,1.914929986,-1.323443055,-0.004311,-1.974985003,0.731518984,-1.575248957,1.145238042,0.844857991,0.339816988,0.768819988,-0.801913977,0.224941,-0.353190988,0.653990984,-0.375946999,1.23989296,-0.499130994,0.195051,1.088765025,-0.190513,0.906939983,0.747033,-0.128886998,0.462332994,1.04944694,0.259223014,-0.587440014,1.035107017,-1.857130051,1.191401958,-0.010274,0.725449026,-1.061853051,-2.060764074,0.896468997,0.501457989,1.471272945,0.096957996,1.115282059,0.221101001,-1.586827993,0.209186003,-1.112000942,0.036199,0.38191101,-0.128882006,0.285338998,0.376883,-1.605792046,0.923304975,2.089309931,0.080339,-0.542786002,0.438694,0.679018974,1.633226991,1.09057498,1.260117054,0.517683029,-0.912912011,-0.620230019,0.932843029,0.064222001,0.663043976,-0.346469015,0.279376,1.032274008,-1.089745998,1.426470041,-0.690438986,0.263794988,-0.563510001,0.700024009,0.045224998,1.316598058,0.787931025,-1.173575997,-0.661553025,-0.571466982,0.015462,0.056536999,-0.120655999,-0.434540004,-0.700323999,-1.208443046,0.937290013,0.523796022,-2.232820034,-0.115895003,-0.284586012,0.246632993,-0.373762995,-0.285560995,-1.116708994,1.505041957,-0.096748002,-0.630755007,0.29241699,1.417701006,1.664163947,-0.074661002,1.630311966,-1.747220039,-2.06795907,0.137676999,-0.403798997,-0.538699985,0.448507994,0.474206001,-0.283100992,0.478038996,-0.60868597,0.174465001,0.900609016,-0.657106996,-0.216231003,0.204484999,-0.941438973,1.384075046,-0.481160015,0.472871006,-0.547797024,0.007547,0.221129999,-0.103942998,1.21152997,1.135560989,0.300274014,-0.159042999,0.588990986,1.285030961,0.001295,0.348506004,-0.508589029,0.127065003,0.915027976,1.067785978,0.0145,-0.069201,1.196099997,-0.205290005,-0.553515017,-0.524520993,-0.31683901,1.07525301,1.757925034,-0.046668001,0.420217991,0.632517993,-0.634932995,-1.676681042,-0.099725001,1.813791037,-0.609903991,0.550723016,0.809864998,-1.500658989,0.269571006,-0.849078,-0.395072997,-1.09799099,-0.527135015,-1.476325989,0.068608001,-1.052186966,-0.280402005,-1.003594041,-0.182264,0.829572976,0.379128993,-1.396124005,0.339735001,1.690320015,-1.127949953,0.327930003,1.294698954,1.950140953,0.300431997,0.635960996,2.151760101,0.635330021,-1.416254997,-0.953710973,-1.417044044,0.800750971,1.139809012,1.800583005,0.111400001,-1.287716985,1.246422052,-0.786201,-0.121899001,1.045223951,1.409402013,0.062070001,éƒ¨åˆ†,-1.216596007,0.553735971,1.199427009,-0.252952993,2.014991999,0.787330985,0.011569,-0.071140997,0.565818012,-0.452491999,0.680032015,0.928828001,-1.612236023,0.368241996,-0.140461996,-0.486775011,-1.097761989,0.033167001,1.675927043,-0.935155988,-0.173207998,-0.243857995,0.89577502,-0.003736,2.28836894,1.31753099,0.416040003,1.162482977,-0.584891021,1.146193981,0.864771008,-1.076014996,-1.23340404,-1.432366967,-0.02376,-1.03164506,0.155935004,-0.302861005,-0.290230006,1.514420033,0.160487995,0.780412018,-0.210598007,-0.243441999,1.197927952,0.323038995,-0.179103002,1.299772978,0.477732003,0.50860399,0.83901602,-0.579685986,0.785261989,0.910382986,-0.725934029,0.23319,1.95349896,-1.020833015,-0.444200009,0.545699,0.159623995,-0.502213001,-0.775093973,-1.24665904,0.308297008,0.137311995,0.179853007,1.624416947,1.889847994,-0.658083022,-0.782311976,-0.434249997,0.996547997,1.055040002,-0.14057,0.422022998,2.34048295,-0.919777989,1.181241989,1.099722028,1.400640965,-1.040776014,-0.573688984,0.428811997,1.186722994,0.673789024,0.434491992,0.653517008,1.106920958,-1.893697977,-0.00803,0.867697001,-2.07763195,1.590996981,-0.033071999,-1.271440983,0.578309,0.247038007,-0.280230999,0.431672007,0.014667,0.226791993,1.249639034,1.49149096,-2.48307395,-0.132844001,1.125589967,0.55192697,0.333568007,0.533123016,0.294676006,-1.123121023,-1.79805696,-0.560778975,-0.336111009,2.542062044,1.902951002,-0.340599,0.827884018,1.495669961,-1.435410023,-0.55262202,-0.614643991,-1.780766964,-0.311664999,1.176234007,-0.865216017,-1.395481944,0.391514003,-0.816713989,0.478448004,-1.540603995,-0.930814981,-0.396095008,-0.284563988,-0.302444994,-0.758578002,0.594119012,-0.459491998,0.432004988,0.147641003,-1.152639031,-0.123783,-0.353291005,-1.087339997,-0.338414013,-1.24020505,1.619004965,1.050560951,-0.578068972,-1.498960018,0.936729014,-0.041914001,0.109029002,-1.615090013,1.805719972,-0.383850008,-0.824976027,-1.567782998,0.687702,0.777702987,-0.680594027,1.258716941,-0.900265992,-0.094796002,0.723013997,0.086943999,-0.331173986,-1.894749045,1.212087989,-0.835049987,-0.721638024,0.086638004,1.043190002,1.246199012,-0.547412992,1.505998015,2.975101948,1.136646986,0.549733996,0.429580003,-0.724159002,0.680739999,-0.836317003,0.915677011,-0.181365997,-0.468414992,1.658275008,-0.386577994,1.100165963,0.114628002,-0.399742991,1.878522992,0.855328023,-1.57862401,-0.514922023,1.990671039,-1.041193962,0.626978993,0.122014001,-0.525995016,0.532977998,-0.841898978,-1.72815001,-0.66643101,1.914929986,-1.323443055,-0.004311,-1.974985003,0.731518984,-1.575248957,1.145238042,0.844857991,0.339816988,0.768819988,-0.801913977,0.224941,-0.353190988,0.653990984,-0.375946999,1.23989296,-0.499130994,0.195051,1.088765025,-0.190513,0.906939983,0.747033,-0.128886998,0.462332994,1.04944694,0.259223014,-0.587440014,1.035107017,-1.857130051,1.191401958,-0.010274,0.725449026,-1.061853051,-2.060764074,0.896468997,0.501457989,1.471272945,0.096957996,1.115282059,0.221101001,-1.586827993,0.209186003,-1.112000942,0.036199,0.38191101,-0.128882006,0.285338998,0.376883,-1.605792046,0.923304975,2.089309931,0.080339,-0.542786002,0.438694,0.679018974,1.633226991,1.09057498,1.260117054,0.517683029,-0.912912011,-0.620230019,0.932843029,0.064222001,0.663043976,-0.346469015,0.279376,1.032274008,-1.089745998,1.426470041,-0.690438986,0.263794988,-0.563510001,0.700024009,0.045224998,1.316598058,0.787931025,-1.173575997,-0.661553025,-0.571466982,0.015462,0.056536999,-0.120655999,-0.434540004,-0.700323999,-1.208443046,0.937290013,0.523796022,-2.232820034,-0.115895003,-0.284586012,0.246632993,-0.373762995,-0.285560995,-1.116708994,1.505041957,-0.096748002,-0.630755007,0.29241699,1.417701006,1.664163947,-0.074661002,1.630311966,-1.747220039,-2.06795907,0.137676999,-0.403798997,-0.538699985,0.448507994,0.474206001,-0.283100992,0.478038996,-0.60868597,0.174465001,0.900609016,-0.657106996,-0.216231003,0.204484999,-0.941438973,1.384075046,-0.481160015,0.472871006,-0.547797024,0.007547,0.221129999,-0.103942998,1.21152997,1.135560989,0.300274014,-0.159042999,0.588990986,1.285030961,0.001295,0.348506004,-0.508589029,0.127065003,0.915027976,1.067785978,0.0145,-0.069201,1.196099997,-0.205290005,-0.553515017,-0.524520993,-0.31683901,1.07525301,1.757925034,-0.046668001,0.420217991,0.632517993,-0.634932995,-1.676681042,-0.099725001,1.813791037,-0.609903991,0.550723016,0.809864998,-1.500658989,0.269571006,-0.849078,-0.395072997,-1.09799099,-0.527135015,-1.476325989,0.068608001,-1.052186966,-0.280402005,-1.003594041,-0.182264,0.829572976,0.379128993,-1.396124005,0.339735001,1.690320015,-1.127949953,0.327930003,1.294698954,1.950140953,0.300431997,0.635960996,2.151760101,0.635330021,-1.416254997,-0.953710973,-1.417044044,0.800750971,1.139809012,1.800583005,0.111400001,-1.287716985,1.246422052,-0.786201,-0.121899001,1.045223951,1.409402013,0.062070001
½á¹¹,-2.428356886,1.797155976,2.614511967,-0.405829996,2.173934937,-0.321936995,0.599795997,-1.670217037,0.377995014,1.327478051,-0.698747993,0.107717,-1.296277046,-0.43503499,-0.697408974,-0.431928992,-1.140782952,-1.792974949,-0.347088009,-1.064856052,-0.027252,-0.348084003,0.071390003,0.646709025,0.356077999,1.455790997,0.066774003,0.44402501,-1.586065054,1.220582008,0.335258991,-0.407213986,-0.804570973,0.456571996,2.489718914,-0.823823988,-1.129713058,-0.797637999,-0.203920007,-0.013583,0.679803014,-0.214080006,-0.840386987,-0.414135009,-0.293336004,0.754859984,-0.051465999,-2.136636019,0.494320005,-0.053885002,0.684202015,-2.469086885,1.102337003,0.952587008,-2.305955887,1.112900972,2.023446083,0.438356996,-1.399870038,-0.182514995,-0.450379997,0.023763999,-0.368209988,-0.328025013,-1.570647001,-1.79748702,-2.310333967,0.346033007,1.13598299,-0.760568023,-0.465052009,-0.399563998,0.039404001,1.924857974,0.087635003,0.851423979,1.019242048,1.312304974,-0.113711998,0.701288998,-1.192657948,-2.56626606,2.310070038,0.66168201,0.421148986,1.274227977,0.024884,-1.320381999,0.589920998,-0.33344999,0.536536992,-0.48526901,1.334030032,-0.043676,-0.142753005,-0.725492001,1.051545024,-0.717786014,-1.734894037,0.535354018,0.774892986,-1.310739994,0.536015987,2.521025896,-0.759218991,-1.680549979,1.907134056,0.199277997,0.386393994,-1.877195954,0.292881012,-0.94433701,0.661970019,-0.555262029,-0.122725002,1.71340096,0.952589989,-1.219135046,0.654906988,1.047140956,-0.816075027,0.217647001,1.270473957,-2.024408102,-1.398154974,1.983137012,-2.105036974,-1.285874963,1.670912981,-0.680275023,1.851879954,-1.305583,-1.05832696,0.31003201,-0.534047008,-1.784368992,-0.40783,-0.112021998,0.509638011,-0.646955013,2.394309998,-0.882884026,-0.654863,0.297320992,0.647177994,-0.104299001,0.288049996,0.303568006,-0.216251001,-0.515708029,1.270244956,-0.164730996,-0.121113002,0.454223007,0.700429022,1.547309041,0.076862,0.115383998,0.488575011,2.526340008,0.38845399,-2.948019981,0.348791003,-1.863947034,0.098041996,0.378641993,-0.169044003,-0.511548996,-0.201734006,0.581014991,-0.064430997,-0.380407989,0.723946989,1.893162012,0.761200011,-0.317476988,2.501271009,1.526247978,0.392500013,1.639577985,-0.178802997,0.744632006,0.875329018,-0.504697025,0.303490013,1.095293045,0.735707998,-0.027102999,0.054956999,-0.327495992,0.575838983,-2.588881969,1.549767017,-0.136362001,-0.121428996,-0.464590013,-0.44679001,-0.330303013,0.424448013,-0.006107,0.431924999,1.417175055,-0.832759023,0.352721989,-0.615989983,1.490298986,0.383892,0.614965975,-0.707837999,1.412021995,-0.924219012,-0.256274998,1.147480011,0.745069981,1.085854054,-1.142056942,-0.908937991,-0.391434014,0.819562018,-0.847103,0.139369994,-0.067879997,1.315417051,0.308447003,-1.086254954,-1.777667999,-0.76947099,-1.326784968,-0.086223997,-0.575662017,0.974083006,-0.338093013,0.290215999,-0.230393007,0.886793971,-1.808478951,-1.156564951,-1.373394012,1.059066057,0.770887017,0.951988995,0.114508003,-0.567654014,1.669927955,-0.75861901,-0.621187985,0.123896003,0.444193006,1.92571497,-0.024245,-0.377517015,1.023229003,0.668663979,-0.308874011,-0.889585018,0.691300988,0.241087005,-1.661291957,2.259624004,0.687561989,1.12548399,-0.093565002,0.005601,1.27322197,-0.149283007,-0.32465601,-1.126147985,-0.144178003,0.226665005,-0.194169998,-1.012552023,-0.141305,-0.777918994,2.177651882,-2.650078058,1.441759944,-1.808604002,0.369639009,0.467278004,-1.362504959,-0.688067973,0.196605995,0.236186996,0.598609984,-0.922173977,0.573428988,1.146715999,-1.985792995,-1.062481046,0.080649003,0.176460996,0.351292014,-1.12906003,-0.745510995,-0.308097988,-0.710385025,0.404154986,0.473174006,0.392188013,-1.136083007,0.016059,0.975856006,-0.30350101,-0.640564024,0.668151975,0.719110012,-0.531316996,-0.356837004,-1.128216028,-0.192860007,-0.099302001,-1.176759005,0.068333,0.153469995,0.751115978,2.167586088,-1.390378952,-0.215825006,0.54707098,-0.090815,0.721624017,-0.524070978,-0.725346029,-1.140068054,0.421011001,0.504842997,-0.462754011,-1.519361019,0.092565998,-1.674029946,-0.734098971,1.326396942,1.042096019,-0.156059995,1.360615015,0.591257989,-0.461564004,0.250575989,-0.970574975,0.192730993,-0.106856003,0.099694997,-0.041186001,-0.808879972,-0.161006004,1.85442102,-2.094964981,0.563489974,0.578660011,-1.116448045,-0.300446004,-1.821673036,-1.020859957,-0.770496011,-0.248379007,-1.267604947,0.52876699,1.208078027,-1.782806993,1.781741977,0.110579997,0.730836987,-0.315486997,1.677615047,-0.535517991,-2.994966984,-1.325966954,-0.803934991,-0.005841,-1.533797026,-1.46955204,-1.390491962,-0.622536004,0.373198003,-1.36657095,-0.027037,0.036681,0.147683993,-1.530230045,-0.968986988,0.345452011,1.124135971,-1.187016964,1.057083964,2.073622942,-0.883588016,0.533590019,-1.221876025,-0.078726001,0.039590999,0.596129,0.466394007,-0.248512,-0.142681003,-0.397166014,0.765344024,0.944257021,0.421954989,1.590983033,0.69700402,ç»“æž„,-2.428356886,1.797155976,2.614511967,-0.405829996,2.173934937,-0.321936995,0.599795997,-1.670217037,0.377995014,1.327478051,-0.698747993,0.107717,-1.296277046,-0.43503499,-0.697408974,-0.431928992,-1.140782952,-1.792974949,-0.347088009,-1.064856052,-0.027252,-0.348084003,0.071390003,0.646709025,0.356077999,1.455790997,0.066774003,0.44402501,-1.586065054,1.220582008,0.335258991,-0.407213986,-0.804570973,0.456571996,2.489718914,-0.823823988,-1.129713058,-0.797637999,-0.203920007,-0.013583,0.679803014,-0.214080006,-0.840386987,-0.414135009,-0.293336004,0.754859984,-0.051465999,-2.136636019,0.494320005,-0.053885002,0.684202015,-2.469086885,1.102337003,0.952587008,-2.305955887,1.112900972,2.023446083,0.438356996,-1.399870038,-0.182514995,-0.450379997,0.023763999,-0.368209988,-0.328025013,-1.570647001,-1.79748702,-2.310333967,0.346033007,1.13598299,-0.760568023,-0.465052009,-0.399563998,0.039404001,1.924857974,0.087635003,0.851423979,1.019242048,1.312304974,-0.113711998,0.701288998,-1.192657948,-2.56626606,2.310070038,0.66168201,0.421148986,1.274227977,0.024884,-1.320381999,0.589920998,-0.33344999,0.536536992,-0.48526901,1.334030032,-0.043676,-0.142753005,-0.725492001,1.051545024,-0.717786014,-1.734894037,0.535354018,0.774892986,-1.310739994,0.536015987,2.521025896,-0.759218991,-1.680549979,1.907134056,0.199277997,0.386393994,-1.877195954,0.292881012,-0.94433701,0.661970019,-0.555262029,-0.122725002,1.71340096,0.952589989,-1.219135046,0.654906988,1.047140956,-0.816075027,0.217647001,1.270473957,-2.024408102,-1.398154974,1.983137012,-2.105036974,-1.285874963,1.670912981,-0.680275023,1.851879954,-1.305583,-1.05832696,0.31003201,-0.534047008,-1.784368992,-0.40783,-0.112021998,0.509638011,-0.646955013,2.394309998,-0.882884026,-0.654863,0.297320992,0.647177994,-0.104299001,0.288049996,0.303568006,-0.216251001,-0.515708029,1.270244956,-0.164730996,-0.121113002,0.454223007,0.700429022,1.547309041,0.076862,0.115383998,0.488575011,2.526340008,0.38845399,-2.948019981,0.348791003,-1.863947034,0.098041996,0.378641993,-0.169044003,-0.511548996,-0.201734006,0.581014991,-0.064430997,-0.380407989,0.723946989,1.893162012,0.761200011,-0.317476988,2.501271009,1.526247978,0.392500013,1.639577985,-0.178802997,0.744632006,0.875329018,-0.504697025,0.303490013,1.095293045,0.735707998,-0.027102999,0.054956999,-0.327495992,0.575838983,-2.588881969,1.549767017,-0.136362001,-0.121428996,-0.464590013,-0.44679001,-0.330303013,0.424448013,-0.006107,0.431924999,1.417175055,-0.832759023,0.352721989,-0.615989983,1.490298986,0.383892,0.614965975,-0.707837999,1.412021995,-0.924219012,-0.256274998,1.147480011,0.745069981,1.085854054,-1.142056942,-0.908937991,-0.391434014,0.819562018,-0.847103,0.139369994,-0.067879997,1.315417051,0.308447003,-1.086254954,-1.777667999,-0.76947099,-1.326784968,-0.086223997,-0.575662017,0.974083006,-0.338093013,0.290215999,-0.230393007,0.886793971,-1.808478951,-1.156564951,-1.373394012,1.059066057,0.770887017,0.951988995,0.114508003,-0.567654014,1.669927955,-0.75861901,-0.621187985,0.123896003,0.444193006,1.92571497,-0.024245,-0.377517015,1.023229003,0.668663979,-0.308874011,-0.889585018,0.691300988,0.241087005,-1.661291957,2.259624004,0.687561989,1.12548399,-0.093565002,0.005601,1.27322197,-0.149283007,-0.32465601,-1.126147985,-0.144178003,0.226665005,-0.194169998,-1.012552023,-0.141305,-0.777918994,2.177651882,-2.650078058,1.441759944,-1.808604002,0.369639009,0.467278004,-1.362504959,-0.688067973,0.196605995,0.236186996,0.598609984,-0.922173977,0.573428988,1.146715999,-1.985792995,-1.062481046,0.080649003,0.176460996,0.351292014,-1.12906003,-0.745510995,-0.308097988,-0.710385025,0.404154986,0.473174006,0.392188013,-1.136083007,0.016059,0.975856006,-0.30350101,-0.640564024,0.668151975,0.719110012,-0.531316996,-0.356837004,-1.128216028,-0.192860007,-0.099302001,-1.176759005,0.068333,0.153469995,0.751115978,2.167586088,-1.390378952,-0.215825006,0.54707098,-0.090815,0.721624017,-0.524070978,-0.725346029,-1.140068054,0.421011001,0.504842997,-0.462754011,-1.519361019,0.092565998,-1.674029946,-0.734098971,1.326396942,1.042096019,-0.156059995,1.360615015,0.591257989,-0.461564004,0.250575989,-0.970574975,0.192730993,-0.106856003,0.099694997,-0.041186001,-0.808879972,-0.161006004,1.85442102,-2.094964981,0.563489974,0.578660011,-1.116448045,-0.300446004,-1.821673036,-1.020859957,-0.770496011,-0.248379007,-1.267604947,0.52876699,1.208078027,-1.782806993,1.781741977,0.110579997,0.730836987,-0.315486997,1.677615047,-0.535517991,-2.994966984,-1.325966954,-0.803934991,-0.005841,-1.533797026,-1.46955204,-1.390491962,-0.622536004,0.373198003,-1.36657095,-0.027037,0.036681,0.147683993,-1.530230045,-0.968986988,0.345452011,1.124135971,-1.187016964,1.057083964,2.073622942,-0.883588016,0.533590019,-1.221876025,-0.078726001,0.039590999,0.596129,0.466394007,-0.248512,-0.142681003,-0.397166014,0.765344024,0.944257021,0.421954989,1.590983033,0.69700402
ÖØµþ,-1.559018016,0.654484987,0.623769999,0.207665995,-0.03215,-0.38477999,0.47131899,0.089583002,0.873004019,0.237845004,0.736091971,-0.497346997,-1.503826022,0.225250006,0.277541995,-0.701721013,0.649648011,0.106459998,1.880674958,-0.560422003,0.96658498,-0.54497999,-0.241869003,0.144806996,2.709434032,1.737597942,0.222179994,0.680338025,-1.009646058,1.587007046,1.413413048,-0.212760001,1.565238953,0.635631979,0.975039005,-0.723231018,0.547912002,-2.044392109,0.656872988,0.719079971,1.04598701,1.001674056,-1.249850988,-0.011001,1.780905008,-0.721689999,0.733151019,-0.837947011,0.512634993,0.193720996,-0.273205996,0.181962997,0.083709002,0.450634986,-0.234708995,0.151703998,1.443892956,-0.457657009,0.969974995,-0.010405,0.029550999,-1.697759032,-0.622058988,-0.163181007,-0.756951988,0.004681,-0.791073024,-0.596741974,1.05717504,-1.195965052,-0.322025001,-0.341194987,1.319337964,0.123513997,-0.505578995,-0.241981998,0.958815992,0.595431983,1.475648046,-0.330471992,1.10642004,-1.308138013,0.585072994,-0.126984,1.264536977,0.373088986,-0.984480977,0.742398977,-0.327677011,-0.311443001,-1.032673955,-0.416336,-1.896728992,0.749076009,0.066734001,-0.505312026,0.785399973,-0.227500007,0.26967001,0.071929999,-0.250194013,-0.566762984,-0.044220999,1.336326957,-1.621749997,-1.263296008,0.684704006,-0.739431977,-0.939571023,-1.08001399,-0.281201988,-1.126479983,1.986222029,-0.109407,1.361183047,1.905249953,0.175464004,-0.68423301,-1.076081038,1.19056797,-0.552905023,-0.485927999,1.806298018,0.909961998,0.133774996,0.866850019,-1.339882016,-0.861692011,0.901234984,-1.458024979,0.49445501,-1.527812958,0.073054999,0.345699996,-0.026242999,0.169367,-0.461883992,-0.473623008,2.054586887,0.713760972,0.399715006,1.237032056,-1.289857984,0.279971004,-0.022156,-1.025935054,1.168957949,1.523028016,0.173420995,-2.043275118,-0.337677985,0.661010981,0.105318002,0.943946004,1.632622957,0.471783996,-0.957284987,-0.240842,-1.145349979,0.994996011,0.731085002,-1.318217039,0.900973976,-0.486629009,1.996081948,0.476565003,0.157784998,-0.070427001,-0.593578994,0.224170998,-0.124295004,0.858928025,1.306628942,-0.351072997,1.838238955,-1.067286968,1.486740947,1.944573998,1.108436942,0.377967,-0.688190997,0.525213003,0.170465007,1.000821948,-0.500406981,0.434448987,0.891665995,0.68116802,-0.013575,0.738207996,0.849831998,0.37410301,-0.884416997,0.642636001,0.246327996,-0.005471,-0.162551001,0.310687989,1.113960981,-0.149366006,-1.27907896,-1.299664021,-1.280318975,0.415838987,-1.838531017,-0.536531985,1.665213943,0.470403999,-0.829737008,1.526625991,-0.321301997,0.696506977,1.308686972,0.354279995,1.49633801,-1.757094979,0.368167013,0.247005999,-1.000681996,-0.581130981,-0.121178001,1.109158993,0.804803014,1.798030972,-0.789529026,-1.338974953,0.279195011,-0.207617,-0.131124005,-1.256970048,-0.165994003,-0.204061002,0.531655014,0.421117008,0.641102016,0.940316975,-0.521215975,0.172938004,-0.059122998,1.193778992,-1.219329953,1.446676016,-1.037137985,0.575891972,0.724103987,-1.538202047,0.614458025,0.796968997,0.757314026,1.693729997,-0.291307002,1.380167007,-0.123832002,-0.129520997,-0.476648003,2.090089083,-0.154984996,-1.071877003,1.391808033,0.534524024,-1.19364202,1.323863029,0.563439012,0.271943003,-1.452965021,-0.887100995,0.342354,-1.190634966,-0.176556006,0.610319018,0.099574,0.063291997,-0.862746,1.213052988,0.511412024,0.48357901,-0.64191401,1.351449966,0.134453997,-1.071395993,0.114968002,-0.540179014,0.933905005,-1.515087008,0.088964,-0.974344015,0.222473994,-1.372292042,-0.123703003,0.391701013,0.713944018,-0.082955003,-0.205227003,-0.541270971,1.294885039,0.560391009,0.767045975,0.673924029,-0.736158013,0.605009973,-0.438829988,0.349608988,-0.642838001,0.167407006,-0.783810019,0.330536008,-0.734578013,0.507613003,-2.090605974,0.35355401,-0.195819005,-0.332911998,0.912908018,-2.303927898,-0.471890002,0.124977,-1.110306978,-0.258255005,2.000185013,0.002513,-0.287674993,0.492722005,-1.59788096,0.426245004,-0.451016009,-0.113811001,0.299461991,-2.111139059,-0.176054001,-0.122481003,-0.059434999,-0.005219,-1.301560044,0.492850006,0.026372001,-0.991248012,0.113403998,0.898355007,0.257431,1.885265946,0.165823996,-0.173729002,-0.960236013,-1.962391019,0.386687994,-0.956409991,-0.662913978,1.265249968,-0.422942013,0.824998021,1.583979011,0.170635998,1.081783056,-0.131568998,-0.131237,-0.134229004,0.435945988,-1.032341003,-1.878108025,0.079648003,0.279801011,-1.868365049,0.135322005,-1.037163973,0.406648993,0.726260006,-0.804418981,-0.148824006,-0.393202007,-1.377627015,0.602845013,-0.438993007,-1.215278029,-0.347433001,-0.743019998,-0.757089019,-0.276602,0.213478997,0.145181,0.00071,0.718528986,1.401751041,1.759178042,0.255472988,0.836501002,-1.722098947,0.38646099,-1.908735037,-0.815153003,0.663603008,1.075813055,0.804750025,0.359427989,-0.424699008,1.376243949,0.222709998,0.643712997,-0.119333997,0.028372001,0.081106998,é‡å ,-1.559018016,0.654484987,0.623769999,0.207665995,-0.03215,-0.38477999,0.47131899,0.089583002,0.873004019,0.237845004,0.736091971,-0.497346997,-1.503826022,0.225250006,0.277541995,-0.701721013,0.649648011,0.106459998,1.880674958,-0.560422003,0.96658498,-0.54497999,-0.241869003,0.144806996,2.709434032,1.737597942,0.222179994,0.680338025,-1.009646058,1.587007046,1.413413048,-0.212760001,1.565238953,0.635631979,0.975039005,-0.723231018,0.547912002,-2.044392109,0.656872988,0.719079971,1.04598701,1.001674056,-1.249850988,-0.011001,1.780905008,-0.721689999,0.733151019,-0.837947011,0.512634993,0.193720996,-0.273205996,0.181962997,0.083709002,0.450634986,-0.234708995,0.151703998,1.443892956,-0.457657009,0.969974995,-0.010405,0.029550999,-1.697759032,-0.622058988,-0.163181007,-0.756951988,0.004681,-0.791073024,-0.596741974,1.05717504,-1.195965052,-0.322025001,-0.341194987,1.319337964,0.123513997,-0.505578995,-0.241981998,0.958815992,0.595431983,1.475648046,-0.330471992,1.10642004,-1.308138013,0.585072994,-0.126984,1.264536977,0.373088986,-0.984480977,0.742398977,-0.327677011,-0.311443001,-1.032673955,-0.416336,-1.896728992,0.749076009,0.066734001,-0.505312026,0.785399973,-0.227500007,0.26967001,0.071929999,-0.250194013,-0.566762984,-0.044220999,1.336326957,-1.621749997,-1.263296008,0.684704006,-0.739431977,-0.939571023,-1.08001399,-0.281201988,-1.126479983,1.986222029,-0.109407,1.361183047,1.905249953,0.175464004,-0.68423301,-1.076081038,1.19056797,-0.552905023,-0.485927999,1.806298018,0.909961998,0.133774996,0.866850019,-1.339882016,-0.861692011,0.901234984,-1.458024979,0.49445501,-1.527812958,0.073054999,0.345699996,-0.026242999,0.169367,-0.461883992,-0.473623008,2.054586887,0.713760972,0.399715006,1.237032056,-1.289857984,0.279971004,-0.022156,-1.025935054,1.168957949,1.523028016,0.173420995,-2.043275118,-0.337677985,0.661010981,0.105318002,0.943946004,1.632622957,0.471783996,-0.957284987,-0.240842,-1.145349979,0.994996011,0.731085002,-1.318217039,0.900973976,-0.486629009,1.996081948,0.476565003,0.157784998,-0.070427001,-0.593578994,0.224170998,-0.124295004,0.858928025,1.306628942,-0.351072997,1.838238955,-1.067286968,1.486740947,1.944573998,1.108436942,0.377967,-0.688190997,0.525213003,0.170465007,1.000821948,-0.500406981,0.434448987,0.891665995,0.68116802,-0.013575,0.738207996,0.849831998,0.37410301,-0.884416997,0.642636001,0.246327996,-0.005471,-0.162551001,0.310687989,1.113960981,-0.149366006,-1.27907896,-1.299664021,-1.280318975,0.415838987,-1.838531017,-0.536531985,1.665213943,0.470403999,-0.829737008,1.526625991,-0.321301997,0.696506977,1.308686972,0.354279995,1.49633801,-1.757094979,0.368167013,0.247005999,-1.000681996,-0.581130981,-0.121178001,1.109158993,0.804803014,1.798030972,-0.789529026,-1.338974953,0.279195011,-0.207617,-0.131124005,-1.256970048,-0.165994003,-0.204061002,0.531655014,0.421117008,0.641102016,0.940316975,-0.521215975,0.172938004,-0.059122998,1.193778992,-1.219329953,1.446676016,-1.037137985,0.575891972,0.724103987,-1.538202047,0.614458025,0.796968997,0.757314026,1.693729997,-0.291307002,1.380167007,-0.123832002,-0.129520997,-0.476648003,2.090089083,-0.154984996,-1.071877003,1.391808033,0.534524024,-1.19364202,1.323863029,0.563439012,0.271943003,-1.452965021,-0.887100995,0.342354,-1.190634966,-0.176556006,0.610319018,0.099574,0.063291997,-0.862746,1.213052988,0.511412024,0.48357901,-0.64191401,1.351449966,0.134453997,-1.071395993,0.114968002,-0.540179014,0.933905005,-1.515087008,0.088964,-0.974344015,0.222473994,-1.372292042,-0.123703003,0.391701013,0.713944018,-0.082955003,-0.205227003,-0.541270971,1.294885039,0.560391009,0.767045975,0.673924029,-0.736158013,0.605009973,-0.438829988,0.349608988,-0.642838001,0.167407006,-0.783810019,0.330536008,-0.734578013,0.507613003,-2.090605974,0.35355401,-0.195819005,-0.332911998,0.912908018,-2.303927898,-0.471890002,0.124977,-1.110306978,-0.258255005,2.000185013,0.002513,-0.287674993,0.492722005,-1.59788096,0.426245004,-0.451016009,-0.113811001,0.299461991,-2.111139059,-0.176054001,-0.122481003,-0.059434999,-0.005219,-1.301560044,0.492850006,0.026372001,-0.991248012,0.113403998,0.898355007,0.257431,1.885265946,0.165823996,-0.173729002,-0.960236013,-1.962391019,0.386687994,-0.956409991,-0.662913978,1.265249968,-0.422942013,0.824998021,1.583979011,0.170635998,1.081783056,-0.131568998,-0.131237,-0.134229004,0.435945988,-1.032341003,-1.878108025,0.079648003,0.279801011,-1.868365049,0.135322005,-1.037163973,0.406648993,0.726260006,-0.804418981,-0.148824006,-0.393202007,-1.377627015,0.602845013,-0.438993007,-1.215278029,-0.347433001,-0.743019998,-0.757089019,-0.276602,0.213478997,0.145181,0.00071,0.718528986,1.401751041,1.759178042,0.255472988,0.836501002,-1.722098947,0.38646099,-1.908735037,-0.815153003,0.663603008,1.075813055,0.804750025,0.359427989,-0.424699008,1.376243949,0.222709998,0.643712997,-0.119333997,0.028372001,0.081106998
